<?xml version="1.0"?>
<opencv_storage>
<my_svm type_id="opencv-ml-svm">
  <svm_type>C_SVC</svm_type>
  <kernel><type>RBF</type>
    <gamma>5.0625000000000009e-01</gamma></kernel>
  <C>3.1250000000000000e+02</C>
  <term_criteria><epsilon>1.1920928955078125e-07</epsilon>
    <iterations>50000</iterations></term_criteria>
  <var_all>500</var_all>
  <var_count>500</var_count>
  <class_count>2</class_count>
  <class_labels type_id="opencv-matrix">
    <rows>1</rows>
    <cols>2</cols>
    <dt>i</dt>
    <data>
      0 1</data></class_labels>
  <sv_total>133</sv_total>
  <support_vectors>
    <_>
      0. 0. 2.31481483e-03 2.31481483e-03 0. 0. 0. 0. 0. 0. 0. 0. 0. 0.
      0. 0. 0. 0. 0. 0. 0. 0. 0. 0. 0. 0. 0. 0. 2.54629627e-02
      3.47222239e-02 4.62962966e-03 0. 0. 0. 0. 0. 0. 0. 0. 0. 0. 0. 0.
      0. 0. 1.85185187e-02 6.94444450e-03 1.38888890e-02 0.
      4.62962966e-03 0. 0. 0. 0. 0. 0. 0. 0. 0. 6.94444450e-03 0.
      2.31481483e-03 0. 0. 2.31481493e-02 0. 0. 0. 0. 0. 0. 0. 0. 0.
      4.62962966e-03 4.62962966e-03 2.31481483e-03 6.94444450e-03
      2.31481483e-03 0. 0. 0. 2.31481483e-03 0. 0. 9.25925933e-03
      2.31481483e-03 0. 0. 3.47222239e-02 0. 0. 0. 0. 0. 0. 0.
      4.62962966e-03 0. 0. 0. 0. 0. 0. 0. 0. 6.94444450e-03
      2.31481483e-03 0. 0. 0. 0. 0. 0. 9.25925933e-03 0. 0. 0. 0. 0. 0.
      0. 0. 2.31481483e-03 9.25925933e-03 0. 0. 0. 0. 0. 0. 0. 0. 0.
      4.39814813e-02 0. 0. 0. 0. 0. 0. 0. 0. 0. 1.85185187e-02 0.
      9.25925933e-03 0. 0. 0. 0. 0. 4.62962966e-03 2.31481483e-03 0. 0.
      0. 0. 0. 0. 0. 0. 0. 0. 0. 0. 6.94444450e-03 0. 0. 0. 0. 0. 0.
      2.31481483e-03 0. 1.38888890e-02 1.15740746e-02 0. 0. 0. 0. 0. 0.
      0. 0. 1.62037034e-02 0. 0. 0. 0. 0. 0. 0. 0. 0. 6.94444450e-03
      9.25925933e-03 0. 2.31481483e-03 4.62962966e-03 1.15740746e-02 0.
      6.94444450e-03 0. 2.31481483e-03 0. 9.25925933e-03 0.
      4.62962966e-03 0. 0. 0. 0. 0. 0. 6.94444450e-03 0. 2.31481483e-03
      2.31481483e-03 0. 0. 0. 0. 0. 1.85185187e-02 4.62962966e-03 0. 0.
      1.15740746e-02 0. 0. 0. 0. 0. 0. 6.94444450e-03 0. 0.
      2.31481483e-03 1.38888890e-02 0. 0. 0. 2.31481493e-02 0. 0. 0.
      1.38888890e-02 2.08333340e-02 0. 0. 0. 0. 0. 0. 0. 0. 0. 0. 0. 0.
      6.94444450e-03 0. 4.62962966e-03 0. 0. 0. 1.38888890e-02 0. 0. 0.
      0. 0. 0. 0. 0. 4.62962966e-03 0. 0. 0. 2.31481483e-03 0. 0. 0.
      2.31481493e-02 0. 0. 0. 2.31481483e-03 0. 0. 2.31481483e-03 0. 0.
      0. 0. 0. 0. 2.31481483e-03 0. 0. 2.31481483e-03 0. 0.
      2.31481483e-03 0. 9.25925933e-03 0. 0. 0. 0. 0. 0. 0. 0. 0. 0. 0.
      2.08333340e-02 0. 0. 0. 0. 6.94444450e-03 6.94444450e-03 0. 0. 0.
      2.31481483e-03 0. 0. 9.25925933e-03 0. 0. 1.62037034e-02 0. 0.
      2.31481483e-03 0. 2.31481483e-03 2.31481483e-03 0. 0. 0. 0. 0.
      2.08333340e-02 4.62962966e-03 6.94444450e-03 0. 0. 0. 0. 0. 0.
      4.62962966e-03 0. 0. 2.31481483e-03 0. 0. 0. 0. 0. 0. 0.
      4.62962966e-03 0. 1.15740746e-02 0. 0. 0. 0. 0. 0. 0. 0. 0. 0. 0.
      0. 0. 0. 0. 0. 0. 0. 0. 0. 2.31481483e-03 4.62962966e-03 0.
      9.25925933e-03 2.31481483e-03 0. 4.62962966e-03 0. 0. 0. 0. 0. 0.
      0. 4.62962966e-03 0. 0. 0. 0. 0. 0. 0. 0. 0. 0. 0. 0. 0. 0. 0. 0.
      0. 0. 2.31481483e-03 0. 0. 6.94444450e-03 0. 0. 0. 0. 0.
      2.31481483e-03 0. 0. 0. 6.94444450e-03 0. 0. 0. 0. 0. 0. 0.
      4.62962966e-03 2.31481483e-03 3.00925933e-02 0. 0. 0. 0. 0. 0.
      2.31481483e-03 0. 0. 0. 2.08333340e-02 0. 0. 0. 0. 0.
      6.94444450e-03 0. 0. 0. 0. 0. 0. 0. 2.31481483e-03 0. 0.
      2.31481483e-03 2.31481483e-03 0. 0. 0. 2.31481483e-03
      9.25925933e-03 3.24074067e-02 0. 0. 1.15740746e-02 0. 0. 0. 0.
      3.24074067e-02 0. 0. 0. 2.31481493e-02 2.31481483e-03 0. 0. 0. 0.
      0. 0.</_>
    <_>
      3.03300610e-03 2.85459403e-03 1.42729701e-03 2.76538800e-03
      1.42729701e-03 1.78412127e-03 2.14094552e-03 1.78412127e-03
      2.85459403e-03 2.05173949e-03 1.60570908e-03 3.47903650e-03
      1.15967880e-03 2.14094552e-03 2.05173949e-03 1.69491523e-03
      1.69491523e-03 1.51650305e-03 2.31935759e-03 2.49776989e-03
      1.42729701e-03 1.33809098e-03 1.69491523e-03 2.05173949e-03
      2.49776989e-03 1.78412127e-03 3.30062443e-03 1.15967880e-03
      1.24888495e-03 2.94380006e-03 2.31935759e-03 2.58697593e-03
      1.51650305e-03 2.40856363e-03 2.14094552e-03 9.81266727e-04
      1.78412127e-03 1.69491523e-03 1.87332730e-03 9.81266727e-04
      1.22212311e-02 3.83586064e-03 4.46030317e-04 1.60570908e-03
      1.51650305e-03 2.23015156e-03 1.51650305e-03 1.51650305e-03
      1.33809098e-03 1.96253345e-03 1.78412127e-03 1.87332730e-03
      3.21141817e-03 2.40856363e-03 3.74665461e-03 3.47903650e-03
      1.87332730e-03 2.31935759e-03 2.31935759e-03 3.83586064e-03
      1.24888495e-03 9.81266727e-04 1.60570908e-03 1.42729701e-03
      2.94380006e-03 2.23015156e-03 2.05173949e-03 2.14094552e-03
      2.58697593e-03 1.24888495e-03 3.12221213e-03 2.05173949e-03
      1.42729701e-03 2.05173949e-03 1.07047276e-03 1.87332730e-03
      2.40856363e-03 1.87332730e-03 1.96253345e-03 8.02854542e-04
      1.42729701e-03 3.21141817e-03 1.33809098e-03 1.33809098e-03
      2.94380006e-03 1.24888495e-03 2.85459403e-03 2.14094552e-03
      2.85459403e-03 2.14094552e-03 2.23015156e-03 2.23015156e-03
      1.15967880e-03 2.05173949e-03 1.33809098e-03 2.14094552e-03
      1.87332730e-03 2.14094552e-03 3.12221213e-03 1.69491523e-03
      2.05173949e-03 1.42729701e-03 2.67618196e-03 1.24888495e-03
      1.87332730e-03 1.69491523e-03 1.78412127e-03 1.60570908e-03
      1.51650305e-03 1.96253345e-03 1.69491523e-03 1.78412127e-03
      1.15967880e-03 1.78412127e-03 1.78412127e-03 1.96253345e-03
      9.81266727e-04 2.14094552e-03 1.51650305e-03 1.51650305e-03
      1.51650305e-03 1.69491523e-03 1.78412127e-03 1.42729701e-03
      2.05173949e-03 2.58697593e-03 1.78412127e-03 1.69491523e-03
      1.69491523e-03 1.78412127e-03 1.78412127e-03 3.30062443e-03
      1.87332730e-03 1.87332730e-03 1.51650305e-03 1.87332730e-03
      3.30062443e-03 1.51650305e-03 1.78412127e-03 9.81266727e-04
      1.60570908e-03 1.51650305e-03 1.96253345e-03 2.58697593e-03
      2.40856363e-03 2.23015156e-03 2.05173949e-03 1.42729701e-03
      7.13648507e-04 2.14094552e-03 2.05173949e-03 1.51650305e-03
      3.38983047e-03 3.30062443e-03 2.14094552e-03 9.81266727e-04
      1.69491523e-03 1.07047276e-03 2.23015156e-03 1.96253345e-03
      2.76538800e-03 1.96253345e-03 1.87332730e-03 1.33809098e-03
      1.96253345e-03 2.05173949e-03 2.14094552e-03 1.51650305e-03
      1.24888495e-03 2.05173949e-03 2.94380006e-03 1.33809098e-03
      2.14094552e-03 2.94380006e-03 1.15967880e-03 3.65744857e-03
      2.40856363e-03 1.87332730e-03 4.28189104e-03 1.78412127e-03
      1.24888495e-03 2.05173949e-03 3.03300610e-03 2.14094552e-03
      1.60570908e-03 3.65744857e-03 2.05173949e-03 6.24442473e-04
      1.60570908e-03 8.92060634e-04 1.07047276e-03 2.85459403e-03
      1.87332730e-03 3.30062443e-03 1.78412127e-03 2.14094552e-03
      3.83586064e-03 1.87332730e-03 3.83586064e-03 2.23015156e-03
      3.03300610e-03 1.24888495e-03 3.47903650e-03 1.60570908e-03
      1.51650305e-03 1.42729701e-03 2.31935759e-03 1.24888495e-03
      4.19268478e-03 1.60570908e-03 2.05173949e-03 1.96253345e-03
      3.21141817e-03 3.03300610e-03 1.69491523e-03 2.58697593e-03
      1.60570908e-03 1.07047276e-03 5.35236392e-03 2.05173949e-03
      1.69491523e-03 2.23015156e-03 1.60570908e-03 1.24888495e-03
      2.40856363e-03 2.76538800e-03 2.40856363e-03 1.60570908e-03
      9.81266727e-04 2.31935759e-03 1.96253345e-03 8.92060634e-04
      2.40856363e-03 1.07047276e-03 2.23015156e-03 2.76538800e-03
      4.46030317e-04 1.42729701e-03 2.05173949e-03 1.60570908e-03
      1.07047276e-03 2.23015156e-03 2.23015156e-03 2.31935759e-03
      1.33809098e-03 1.51650305e-03 2.31935759e-03 1.69491523e-03
      8.02854542e-04 1.33809098e-03 1.60570908e-03 1.60570908e-03
      1.87332730e-03 2.05173949e-03 2.40856363e-03 1.87332730e-03
      2.58697593e-03 2.05173949e-03 8.92060634e-04 1.24888495e-03
      2.14094552e-03 9.81266727e-04 1.78412127e-03 4.72792145e-03
      2.31935759e-03 3.47903650e-03 1.33809098e-03 3.56824254e-03
      2.49776989e-03 1.07047276e-03 2.94380006e-03 1.96253345e-03
      1.78412127e-03 2.49776989e-03 8.92060634e-04 1.60570908e-03
      2.67618196e-03 1.51650305e-03 1.60570908e-03 2.05173949e-03
      2.58697593e-03 1.15967880e-03 1.07047276e-03 2.14094552e-03
      1.51650305e-03 1.60570908e-03 2.05173949e-03 2.14094552e-03
      2.14094552e-03 1.42729701e-03 1.42729701e-03 5.35236381e-04
      2.40856363e-03 2.14094552e-03 1.96253345e-03 1.07047276e-03
      1.69491523e-03 1.33809098e-03 2.23015156e-03 2.58697593e-03
      1.60570908e-03 4.28189104e-03 1.51650305e-03 2.14094552e-03
      8.92060634e-04 2.49776989e-03 2.58697593e-03 2.76538800e-03
      2.05173949e-03 1.69491523e-03 2.31935759e-03 1.69491523e-03
      3.03300610e-03 1.60570908e-03 1.51650305e-03 6.42283633e-03
      2.05173949e-03 1.07047276e-03 1.87332730e-03 2.23015156e-03
      1.51650305e-03 2.76538800e-03 1.60570908e-03 1.96253345e-03
      2.23015156e-03 1.33809098e-03 2.14094552e-03 1.60570908e-03
      3.30062443e-03 2.14094552e-03 1.24888495e-03 2.14094552e-03
      2.14094552e-03 1.96253345e-03 6.24442473e-04 2.05173949e-03
      2.40856363e-03 2.40856363e-03 1.78412127e-03 1.42729701e-03
      9.81266727e-04 2.14094552e-03 1.69491523e-03 1.78412127e-03
      1.33809098e-03 1.33809098e-03 2.14094552e-03 1.78412127e-03
      1.96253345e-03 1.51650305e-03 2.31935759e-03 1.42729701e-03
      3.74665461e-03 1.87332730e-03 1.96253345e-03 2.31935759e-03
      1.07047276e-03 1.60570908e-03 3.38983047e-03 1.07047276e-03
      4.46030317e-04 2.05173949e-03 1.69491523e-03 1.51650305e-03
      4.37109731e-03 1.78412127e-03 4.10347898e-03 1.78412127e-03
      1.96253345e-03 2.40856363e-03 9.81266727e-04 1.24888495e-03
      2.40856363e-03 1.42729701e-03 1.24888495e-03 1.60570908e-03
      2.49776989e-03 1.24888495e-03 2.05173949e-03 2.31935759e-03
      3.12221213e-03 8.92060634e-05 2.23015156e-03 1.51650305e-03
      2.05173949e-03 2.40856363e-03 2.23015156e-03 1.78412127e-03
      1.42729701e-03 2.31935759e-03 2.40856363e-03 2.76538800e-03
      1.15967880e-03 2.67618196e-03 3.21141817e-03 1.33809098e-03
      4.46030317e-04 1.69491523e-03 1.42729701e-03 8.92060634e-04
      4.01427271e-03 1.51650305e-03 2.76538800e-03 4.99553978e-03
      2.14094552e-03 1.87332730e-03 1.24888495e-03 2.14094552e-03
      1.15967880e-03 1.07047276e-03 1.87332730e-03 2.05173949e-03
      7.13648507e-04 1.60570908e-03 1.69491523e-03 2.40856363e-03
      1.15967880e-03 1.51650305e-03 2.85459403e-03 1.78412127e-03
      2.14094552e-03 2.14094552e-03 3.56824254e-04 1.33809098e-03
      2.14094552e-03 2.40856363e-03 7.13648507e-04 8.92060634e-04
      2.05173949e-03 1.60570908e-03 2.49776989e-03 4.28189104e-03
      1.87332730e-03 1.07047276e-03 1.78412127e-03 2.85459403e-03
      2.05173949e-03 8.02854542e-04 1.60570908e-03 2.94380006e-03
      2.49776989e-03 9.81266727e-04 3.47903650e-03 1.78412127e-03
      2.58697593e-03 1.33809098e-03 4.63871518e-03 1.33809098e-03
      9.81266727e-04 2.23015156e-03 6.24442473e-04 2.14094552e-03
      2.23015156e-03 1.33809098e-03 1.69491523e-03 2.14094552e-03
      1.15967880e-03 1.51650305e-03 3.03300610e-03 1.42729701e-03
      1.07047276e-03 2.14094552e-03 1.42729701e-03 1.51650305e-03
      1.51650305e-03 2.14094552e-03 1.96253345e-03 1.78412127e-03
      1.42729701e-03 3.30062443e-03 2.31935759e-03 1.60570908e-03
      9.81266727e-04 2.14094552e-03 2.58697593e-03 4.01427271e-03
      1.24888495e-03 1.60570908e-03 2.14094552e-03 3.12221213e-03
      1.42729701e-03 1.42729701e-03 1.15967880e-03 1.51650305e-03
      8.92060634e-04 1.78412127e-03 2.58697593e-03 2.40856363e-03
      1.42729701e-03 2.85459403e-03 1.78412127e-03 2.14094552e-03
      3.03300610e-03 2.76538800e-03 2.40856363e-03 1.24888495e-03
      1.15967880e-03 1.69491523e-03 1.42729701e-03 1.07047276e-03</_>
    <_>
      3.31491698e-03 2.48618773e-03 1.10497233e-03 8.01104959e-03
      2.20994465e-03 8.28729244e-04 1.10497233e-03 5.52486163e-04
      2.20994465e-03 2.48618773e-03 1.38121541e-03 1.38121541e-03 0.
      1.65745849e-03 8.28729244e-04 2.76243081e-04 2.76243081e-03
      2.76243081e-04 1.65745849e-03 6.62983395e-03 2.76243081e-04
      1.38121541e-03 8.28729244e-04 8.28729244e-04 0. 1.65745849e-03
      2.48618773e-03 0. 3.59116006e-03 6.35359064e-03 1.65745849e-03
      3.31491698e-03 1.10497233e-03 1.65745849e-03 1.65745849e-03
      1.65745849e-03 1.10497233e-03 2.76243081e-04 1.93370157e-03
      2.76243081e-04 8.28729244e-04 2.20994465e-03 5.52486163e-04
      5.52486163e-04 0. 6.62983395e-03 1.65745849e-03 4.69613262e-03
      1.93370157e-03 2.48618773e-03 8.28729244e-04 2.76243081e-03
      2.76243081e-04 5.52486163e-04 2.20994465e-03 4.14364599e-03 0.
      1.38121541e-03 1.10497233e-03 5.24861831e-03 2.76243081e-04
      1.38121541e-03 0. 1.10497233e-03 7.73480628e-03 4.41988930e-03
      3.59116006e-03 3.59116006e-03 8.28729244e-04 5.52486163e-04
      1.93370157e-03 5.52486163e-04 2.76243081e-04 8.28729244e-04
      5.52486163e-04 2.48618773e-03 1.10497233e-03 3.31491698e-03
      2.20994465e-03 0. 0. 7.73480628e-03 1.38121541e-03 8.28729244e-04
      3.59116006e-03 8.28729244e-04 7.73480628e-03 5.52486163e-04
      3.03867389e-03 3.31491698e-03 2.76243081e-04 2.76243081e-03
      2.76243081e-04 2.20994465e-03 8.28729244e-04 3.03867389e-03
      3.03867389e-03 1.38121541e-03 3.03867389e-03 1.65745849e-03
      1.93370157e-03 1.65745849e-03 1.38121541e-03 0. 1.93370157e-03
      1.38121541e-03 2.76243081e-03 2.48618773e-03 1.38121541e-03
      1.10497233e-03 2.76243081e-04 5.52486163e-04 1.10497233e-03 0.
      3.03867389e-03 4.97237546e-03 8.28729244e-04 3.31491698e-03
      3.03867389e-03 1.38121541e-03 2.20994465e-03 1.38121541e-03
      2.76243081e-04 2.76243081e-03 3.03867389e-03 1.93370157e-03
      7.18232011e-03 0. 1.65745849e-03 5.52486163e-04 1.38121541e-03
      5.52486163e-04 1.10497233e-03 3.59116006e-03 3.03867389e-03
      5.52486163e-04 8.28729244e-04 1.38121541e-03 2.48618773e-03
      5.52486163e-04 2.76243081e-04 1.38121541e-03 3.31491698e-03
      1.93370157e-03 3.03867389e-03 2.76243081e-04 8.28729244e-04
      4.69613262e-03 2.76243081e-04 2.20994465e-03 8.28729244e-04
      1.10497233e-03 2.76243081e-03 6.90607727e-03 3.03867389e-03
      5.52486163e-04 3.59116006e-03 8.28729244e-04 2.48618773e-03
      2.76243081e-04 1.38121541e-03 8.28729244e-04 1.10497233e-03
      1.65745849e-03 2.48618773e-03 8.28729244e-04 5.52486163e-04
      5.52486163e-04 1.10497233e-03 4.14364599e-03 2.48618773e-03
      2.48618773e-03 1.93370157e-03 1.65745849e-03 5.52486163e-04
      2.48618773e-03 6.35359064e-03 2.76243081e-04 8.28729197e-03
      3.31491698e-03 1.10497233e-03 0. 1.38121541e-03 8.28729244e-04
      2.76243081e-04 1.16022099e-02 1.10497233e-03 8.28729244e-04
      1.65745849e-03 2.76243081e-04 1.65745849e-03 4.14364599e-03
      1.38121541e-03 2.48618773e-03 8.28729244e-04 2.20994465e-03
      2.76243081e-03 1.38121541e-03 8.01104959e-03 3.86740314e-03
      5.24861831e-03 5.52486163e-04 3.59116006e-03 5.52486163e-04
      1.93370157e-03 1.10497233e-03 4.41988930e-03 0. 1.10497233e-03
      3.03867389e-03 2.76243081e-03 2.76243081e-03 5.80110494e-03
      2.48618773e-03 1.38121541e-03 2.48618773e-03 1.93370157e-03
      2.20994465e-03 3.86740314e-03 1.93370157e-03 2.76243081e-03
      4.97237546e-03 5.52486163e-04 5.52486163e-04 4.41988930e-03
      4.97237546e-03 1.10497233e-03 0. 1.10497233e-03 2.20994465e-03
      5.52486163e-04 1.38121541e-03 3.31491698e-03 1.38121541e-03
      4.97237546e-03 5.24861831e-03 2.76243081e-04 2.76243081e-04
      3.03867389e-03 4.41988930e-03 2.76243081e-04 2.20994465e-03
      3.59116006e-03 4.97237546e-03 8.28729244e-04 8.28729244e-04
      3.59116006e-03 5.52486163e-03 3.03867389e-03 5.52486163e-04
      1.65745849e-03 5.52486163e-04 2.20994465e-03 1.93370157e-03
      3.31491698e-03 2.76243081e-04 1.93370157e-03 2.48618773e-03
      1.65745849e-03 0. 1.65745849e-03 1.65745849e-03 1.93370157e-03
      6.07734779e-03 3.86740314e-03 4.14364599e-03 1.38121541e-03
      4.41988930e-03 1.10497233e-03 5.52486163e-04 5.52486163e-04
      3.59116006e-03 1.65745849e-03 1.10497233e-03 1.65745849e-03
      2.76243081e-04 1.10497233e-03 0. 1.38121541e-03 1.93370157e-03
      4.41988930e-03 1.65745849e-03 5.80110494e-03 2.76243081e-04
      1.65745849e-03 8.28729244e-04 3.03867389e-03 1.10497233e-03
      4.14364599e-03 0. 1.10497233e-03 2.76243081e-03 8.28729244e-04
      2.20994465e-03 2.76243081e-03 2.76243081e-04 0. 1.10497233e-03
      1.65745849e-03 3.03867389e-03 2.76243081e-04 1.10497233e-03
      5.52486163e-04 1.38121541e-03 1.38121541e-03 2.48618773e-03
      4.41988930e-03 1.38121541e-03 2.76243081e-04 2.76243081e-03
      1.65745849e-03 1.38121541e-03 1.93370157e-03 2.76243081e-04
      8.28729244e-04 9.11602192e-03 1.10497233e-03 6.07734779e-03
      3.31491698e-03 2.76243081e-04 3.31491698e-03 1.10497233e-03
      2.76243081e-04 1.93370157e-03 4.41988930e-03 0. 3.31491698e-03
      2.76243081e-04 3.86740314e-03 1.65745849e-03 1.65745849e-03
      4.97237546e-03 3.31491698e-03 2.20994465e-03 8.28729244e-04
      2.76243081e-04 1.93370157e-03 5.24861831e-03 1.65745849e-03
      1.65745849e-03 1.65745849e-03 1.93370157e-03 8.28729244e-04 0.
      5.52486163e-04 2.76243081e-04 4.41988930e-03 1.10497233e-03
      2.20994465e-03 1.93370157e-03 1.93370157e-03 1.93370157e-03
      4.41988930e-03 8.28729244e-04 1.65745849e-03 2.76243081e-03
      1.10497233e-03 5.52486163e-04 6.35359064e-03 5.52486163e-04
      5.52486163e-04 0. 1.93370157e-03 2.20994465e-03 2.20994465e-03
      1.38121541e-03 4.97237546e-03 1.10497233e-03 4.14364599e-03
      2.76243081e-04 8.28729244e-04 2.76243081e-03 8.28729244e-04
      8.28729244e-04 2.76243081e-04 1.38121541e-03 3.59116006e-03
      1.65745849e-03 8.28729244e-04 0. 1.02209942e-02 5.52486163e-04
      8.28729244e-04 5.52486163e-04 5.52486163e-04 5.52486163e-04
      2.76243081e-03 1.65745849e-03 5.52486163e-04 4.97237546e-03
      4.69613262e-03 1.10497233e-03 1.65745849e-03 4.97237546e-03
      1.38121541e-03 1.93370157e-03 3.31491698e-03 2.76243081e-04
      5.52486163e-04 2.76243081e-04 5.52486163e-04 2.76243081e-04
      2.48618773e-03 8.28729197e-03 8.28729244e-04 5.52486163e-04
      2.76243081e-04 1.38121541e-03 1.65745849e-03 0. 1.38121541e-03
      1.38121541e-03 2.76243081e-04 5.52486163e-04 1.93370157e-03
      3.31491698e-03 8.28729244e-04 1.10497233e-03 3.31491698e-03
      1.93370157e-03 8.28729244e-04 2.48618773e-03 1.65745849e-03
      2.76243081e-04 5.52486163e-04 7.45856296e-03 2.76243081e-04 0.
      1.93370157e-03 5.52486163e-04 1.65745849e-03 7.73480628e-03
      8.28729244e-04 2.76243081e-03 1.65745849e-03 7.45856296e-03
      2.48618773e-03 0. 3.86740314e-03 7.18232011e-03 1.65745849e-03
      5.52486163e-04 5.24861831e-03 1.10497233e-03 3.31491698e-03
      2.20994465e-03 4.41988930e-03 8.28729244e-04 1.38121541e-03
      1.10497233e-03 5.52486163e-04 0. 1.65745849e-03 1.38121541e-03
      1.65745849e-03 2.48618773e-03 1.93370157e-03 1.38121541e-03
      5.52486163e-04 2.48618773e-03 0. 1.10497233e-03 1.65745849e-03
      3.03867389e-03 0. 1.65745849e-03 1.38121541e-03 5.52486163e-04 0.
      2.76243081e-04 2.20994465e-03 0. 0. 2.48618773e-03 6.90607727e-03
      1.10497233e-03 2.76243081e-04 1.38121541e-03 2.48618773e-03
      3.03867389e-03 2.76243081e-03 3.03867389e-03 5.52486163e-04
      5.80110494e-03 5.52486163e-04 0. 2.76243081e-04 1.10497233e-03
      3.59116006e-03 1.38121541e-03 0. 5.52486163e-04 5.24861831e-03
      2.48618773e-03 3.86740314e-03 2.76243081e-04 5.52486163e-04
      5.52486163e-04 1.38121541e-03 2.76243081e-04</_>
    <_>
      8.72600358e-04 2.61780107e-03 1.74520072e-03 7.85340369e-03
      8.72600358e-04 0. 5.23560215e-03 0. 1.74520072e-03 4.36300179e-03
      2.61780107e-03 4.36300179e-03 0. 0. 1.74520072e-03 0.
      8.72600358e-04 0. 8.72600358e-04 3.49040143e-03 0. 8.72600358e-04
      8.72600358e-04 8.72600358e-04 0. 0. 1.74520072e-03 8.72600358e-04
      7.85340369e-03 2.61780107e-03 8.72600358e-04 1.74520072e-03
      8.72600358e-04 8.72600358e-04 0. 0. 8.72600358e-04 0.
      3.49040143e-03 0. 3.49040143e-03 0. 0. 0. 8.72600358e-04
      1.13438051e-02 1.04712043e-02 7.85340369e-03 8.72600358e-04
      6.98080286e-03 3.49040143e-03 1.74520072e-03 8.72600358e-04
      2.61780107e-03 8.72600358e-04 4.36300179e-03 8.72600358e-04
      1.74520072e-03 0. 1.74520072e-03 1.74520072e-03 0. 0.
      8.72600358e-04 5.23560215e-03 1.74520072e-03 0. 0. 8.72600358e-04
      0. 5.23560215e-03 2.61780107e-03 0. 3.49040143e-03 6.98080286e-03
      3.49040143e-03 0. 1.74520072e-03 8.72600358e-03 8.72600358e-04
      8.72600358e-04 6.98080286e-03 1.74520072e-03 8.72600358e-04
      2.61780107e-03 6.10820251e-03 1.74520072e-03 1.74520072e-03
      3.49040143e-03 5.23560215e-03 8.72600358e-04 4.36300179e-03 0.
      1.74520072e-03 8.72600358e-04 8.72600358e-04 8.72600358e-04
      1.74520072e-03 3.49040143e-03 1.74520072e-03 8.72600358e-04 0.
      1.74520072e-03 8.72600358e-04 0. 0. 8.72600358e-04 8.72600358e-04
      8.72600358e-04 8.72600358e-04 0. 0. 0. 8.72600358e-04
      2.61780107e-03 8.72600358e-04 2.61780107e-03 8.72600358e-04 0.
      2.61780107e-03 8.72600358e-04 0. 0. 4.36300179e-03 3.49040143e-03
      0. 3.49040143e-03 0. 1.74520072e-03 0. 1.74520072e-03
      8.72600358e-04 0. 3.49040143e-03 6.10820251e-03 8.72600358e-04 0.
      8.72600358e-04 8.72600358e-04 4.36300179e-03 0. 8.72600358e-04
      2.61780107e-03 8.72600358e-04 6.98080286e-03 0. 4.36300179e-03
      8.72600358e-04 8.72600358e-04 0. 8.72600358e-04 0. 7.85340369e-03
      6.10820251e-03 4.36300179e-03 1.74520072e-03 3.49040143e-03 0.
      1.74520072e-03 0. 1.74520072e-03 0. 0. 2.61780107e-03
      1.74520072e-03 2.61780107e-03 3.49040143e-03 0. 1.74520072e-03
      2.61780107e-03 1.74520072e-03 8.72600358e-03 1.74520072e-03
      8.72600358e-03 0. 3.49040143e-03 1.65794063e-02 0. 1.04712043e-02
      1.74520072e-03 8.72600358e-04 0. 0. 1.74520072e-03 0.
      8.72600358e-03 8.72600358e-04 1.74520072e-03 1.74520072e-03 0.
      2.61780107e-03 0. 2.61780107e-03 8.72600358e-04 0. 8.72600358e-03
      2.61780107e-03 1.74520072e-03 5.23560215e-03 2.61780107e-03
      3.49040143e-03 8.72600358e-04 1.13438051e-02 0. 8.72600358e-04
      1.74520072e-03 2.61780107e-03 0. 7.85340369e-03 1.74520072e-03
      8.72600358e-04 0. 2.61780107e-03 2.61780107e-03 8.72600358e-04
      1.13438051e-02 8.72600358e-04 2.61780107e-03 4.36300179e-03 0. 0.
      1.74520072e-03 0. 0. 8.72600358e-03 0. 8.72600358e-04 0.
      1.74520072e-03 4.36300179e-03 8.72600358e-04 2.61780107e-03
      8.72600358e-04 8.72600358e-04 1.74520072e-03 3.49040143e-03 0.
      8.72600358e-04 5.23560215e-03 1.13438051e-02 8.72600358e-04
      2.61780107e-03 1.74520072e-03 5.23560215e-03 0. 8.72600358e-04
      8.72600358e-04 4.36300179e-03 5.23560215e-03 8.72600358e-04
      2.61780107e-03 0. 2.61780107e-03 2.61780107e-03 8.72600358e-04 0.
      1.74520072e-03 0. 1.74520072e-03 8.72600358e-04 8.72600358e-04
      4.36300179e-03 0. 3.49040143e-03 0. 5.23560215e-03 8.72600358e-04
      2.61780107e-03 2.61780107e-03 8.72600358e-04 5.23560215e-03
      8.72600358e-04 0. 0. 0. 0. 8.72600358e-04 0. 3.49040143e-03
      2.61780107e-03 3.49040143e-03 8.72600358e-04 1.74520072e-03 0.
      2.61780107e-03 8.72600358e-04 1.74520072e-03 0. 5.23560215e-03 0.
      3.49040143e-03 8.72600358e-04 8.72600358e-04 8.72600358e-04
      2.61780107e-03 1.74520072e-03 0. 0. 3.49040143e-03 5.23560215e-03
      8.72600358e-04 3.49040143e-03 8.72600358e-04 8.72600358e-04 0. 0.
      1.74520072e-03 8.72600358e-04 0. 8.72600358e-04 8.72600358e-04
      2.61780107e-03 0. 0. 1.74520072e-03 3.49040143e-03 0.
      8.72600358e-04 6.10820251e-03 2.61780107e-03 2.61780107e-03 0.
      1.74520072e-03 1.74520072e-03 6.98080286e-03 0. 0. 0.
      4.36300179e-03 1.74520072e-03 0. 3.49040143e-03 3.49040143e-03
      8.72600358e-04 1.04712043e-02 0. 1.74520072e-03 6.10820251e-03
      8.72600358e-04 3.49040143e-03 8.72600358e-04 1.74520072e-03 0. 0.
      2.61780107e-03 0. 7.85340369e-03 3.49040143e-03 4.36300179e-03 0.
      0. 1.74520072e-03 5.23560215e-03 0. 8.72600358e-04 2.61780107e-03
      8.72600358e-04 0. 2.61780107e-03 0. 8.72600358e-04 1.74520072e-03
      0. 0. 2.61780107e-03 1.74520072e-03 1.48342066e-02 8.72600358e-04
      6.10820251e-03 1.74520072e-03 0. 8.72600358e-04 0. 8.72600358e-04
      0. 8.72600358e-04 8.72600358e-04 8.72600358e-04 1.74520072e-03 0.
      0. 1.74520072e-03 0. 0. 0. 0. 0. 8.72600358e-04 8.72600358e-04
      2.61780107e-03 7.85340369e-03 0. 7.85340369e-03 3.49040143e-03
      8.72600358e-04 4.36300179e-03 8.72600358e-04 0. 2.61780107e-03
      1.74520072e-03 3.49040143e-03 0. 0. 1.74520072e-03 0. 0. 0.
      8.72600358e-04 3.49040143e-03 0. 0. 8.72600358e-04 0. 0.
      6.98080286e-03 8.72600358e-04 8.72600358e-04 0. 6.98080286e-03
      8.72600358e-04 1.74520072e-03 0. 8.72600358e-04 0. 8.72600358e-04
      8.72600358e-04 4.36300179e-03 0. 8.72600358e-04 2.61780107e-03
      2.61780107e-03 8.72600358e-03 0. 0. 0. 1.74520072e-03
      1.74520072e-03 0. 1.74520072e-03 1.74520072e-03 6.10820251e-03 0.
      1.74520072e-03 2.61780107e-03 1.74520072e-03 7.85340369e-03
      1.74520072e-03 2.61780107e-03 8.72600358e-04 2.61780107e-03
      4.36300179e-03 2.61780107e-03 0. 8.72600358e-04 0. 2.61780107e-03
      1.04712043e-02 1.74520072e-03 8.72600358e-04 1.74520072e-03 0.
      1.74520072e-03 0. 0. 0. 0. 8.72600358e-04 8.72600358e-04 0. 0.
      6.10820251e-03 0. 8.72600358e-04 8.72600358e-04 1.74520072e-03
      2.61780107e-03 0. 8.72600358e-04 4.36300179e-03 0. 0. 0. 0.
      6.98080286e-03 8.72600358e-04 0. 0. 4.36300179e-03 1.30890049e-02
      1.74520072e-03 0. 8.72600358e-04 2.26876102e-02 1.74520072e-03
      8.72600358e-04 0. 0. 0. 0. 0.</_>
    <_>
      0. 1.81488204e-03 1.45190558e-03 2.90381117e-03 2.90381117e-03
      1.45190558e-03 3.62976396e-04 1.08892913e-03 2.17785826e-03
      1.08892913e-03 1.81488204e-03 1.08892913e-03 7.25952792e-04
      2.54083471e-03 4.35571652e-03 7.25952792e-04 1.08892913e-03
      1.08892913e-03 2.90381117e-03 1.45190558e-03 8.34845752e-03
      3.62976408e-03 1.81488204e-03 2.90381117e-03 7.25952792e-04
      3.62976396e-04 1.45190558e-03 0. 5.80762234e-03 2.90381117e-03
      7.62250414e-03 7.25952792e-04 1.08892913e-03 1.81488204e-03
      3.62976396e-04 2.17785826e-03 1.08892913e-03 1.08892913e-03
      1.81488204e-03 1.81488204e-03 9.80036240e-03 1.08892913e-03 0.
      1.45190558e-03 1.08892913e-03 1.45190558e-03 2.54083471e-03
      1.08892913e-03 7.25952792e-04 2.54083471e-03 3.62976396e-04
      1.08892913e-03 1.81488204e-03 2.54083471e-03 1.08892913e-03
      3.62976396e-04 3.99274053e-03 3.62976396e-04 3.62976396e-04
      3.62976396e-04 2.54083471e-03 2.90381117e-03 7.25952792e-04
      3.62976396e-04 6.53357524e-03 4.71869297e-03 7.25952792e-04
      1.45190558e-03 3.62976396e-04 1.08892913e-03 3.12159695e-02
      7.25952792e-04 7.25952792e-04 1.08892913e-03 7.25952792e-04 0.
      3.62976396e-04 3.26678762e-03 2.17785826e-03 7.25952792e-04
      1.08892913e-03 7.25952792e-04 5.08166943e-03 7.25952792e-04
      1.81488204e-03 2.54083471e-03 7.25952792e-04 7.25952792e-04
      2.17785826e-03 2.54083471e-03 1.08892913e-03 1.08892913e-03
      2.17785826e-03 1.81488204e-03 1.45190558e-03 1.81488204e-03
      1.81488204e-03 2.54083471e-03 2.17785826e-03 1.08892913e-03
      1.81488204e-03 1.08892913e-03 1.45190558e-03 1.08892913e-03
      1.08892913e-03 3.62976396e-04 1.08892913e-03 3.62976396e-04
      3.62976396e-04 3.62976396e-04 0. 1.08892913e-03 7.25952792e-04
      7.25952792e-04 7.62250414e-03 3.62976396e-04 2.17785826e-03
      1.81488204e-03 1.08892913e-03 7.25952792e-04 1.81488204e-03
      3.62976396e-04 3.62976396e-04 3.62976396e-04 1.81488204e-03
      1.81488204e-03 1.08892913e-03 1.45190558e-03 3.62976396e-04
      1.08892913e-03 2.17785826e-03 1.45190558e-03 1.81488204e-03
      1.01633389e-02 2.90381117e-03 1.08892913e-03 7.98548106e-03
      7.25952792e-04 2.90381117e-03 1.08892913e-03 1.81488204e-03
      2.54083471e-03 7.25952792e-04 0. 2.17785826e-03 1.08892913e-03
      6.53357524e-03 3.62976396e-04 1.45190558e-03 7.25952792e-04
      7.25952792e-04 2.54083471e-03 7.62250414e-03 7.25952792e-04
      1.45190558e-03 2.90381117e-03 3.99274053e-03 1.45190558e-03
      4.35571652e-03 3.62976396e-04 7.25952815e-03 1.08892913e-03
      7.25952792e-04 7.25952792e-04 1.08892913e-03 7.25952792e-04
      3.99274053e-03 7.25952792e-04 1.45190558e-03 9.43738595e-03
      3.62976396e-04 1.81488204e-03 1.45190558e-03 5.44464588e-03
      1.45190558e-03 4.35571652e-03 1.08892913e-03 7.25952792e-04
      3.26678762e-03 3.62976396e-04 3.62976396e-04 3.62976396e-04
      3.62976408e-03 3.62976396e-04 2.17785826e-03 8.34845752e-03
      1.81488204e-03 2.54083471e-03 1.08892913e-03 0. 4.71869297e-03
      3.62976396e-04 1.08892913e-03 3.62976396e-04 3.62976396e-04
      9.07440949e-03 6.89655170e-03 2.90381117e-03 4.35571652e-03
      2.17785826e-03 4.71869297e-03 2.17785826e-03 3.99274053e-03
      1.81488204e-03 2.17785826e-03 3.62976396e-04 1.08892913e-03
      3.62976396e-04 1.16152447e-02 1.08892913e-03 1.45190558e-03
      1.08892913e-03 1.08892913e-03 7.25952792e-04 1.08892913e-03
      3.62976408e-03 7.25952792e-04 2.17785826e-03 5.44464588e-03
      3.62976396e-04 2.90381117e-03 3.62976396e-04 0. 1.08892913e-03
      2.90381117e-03 0. 7.25952792e-04 4.35571652e-03 2.17785826e-03
      1.81488204e-03 2.17785826e-03 3.62976396e-04 1.45190558e-03
      6.53357524e-03 3.62976396e-04 1.45190558e-03 6.89655170e-03
      1.81488204e-03 1.45190558e-03 1.81488204e-03 1.45190558e-03
      1.08892913e-03 0. 7.25952792e-04 1.08892913e-03 0. 1.81488204e-03
      1.08892913e-03 3.62976408e-03 7.25952792e-04 0. 7.25952792e-04
      1.81488204e-03 7.25952792e-04 4.35571652e-03 1.08892913e-03
      1.81488204e-03 3.62976396e-04 7.25952792e-04 1.08892913e-03
      1.45190558e-03 1.45190558e-03 1.81488204e-03 6.89655170e-03
      5.80762234e-03 2.17785826e-03 1.45190558e-03 1.45190558e-03
      1.81488204e-03 1.45190558e-03 2.54083471e-03 1.08892913e-03
      3.62976396e-04 1.45190558e-03 2.54083471e-03 7.25952792e-04
      3.62976396e-04 0. 0. 1.45190558e-03 1.08892913e-03 2.90381117e-03
      7.25952792e-04 3.62976396e-04 3.62976396e-04 3.62976396e-04
      1.81488204e-03 7.25952792e-04 1.45190558e-03 7.25952792e-04
      1.81488204e-03 3.62976408e-03 3.62976396e-04 3.62976396e-04
      2.54083471e-03 5.08166943e-03 3.62976396e-04 1.45190558e-03
      1.45190558e-03 7.25952792e-04 0. 5.80762234e-03 7.25952792e-04 0.
      3.26678762e-03 1.08892913e-03 5.80762234e-03 3.62976396e-04
      1.45190558e-03 2.90381117e-03 7.25952792e-04 6.17059879e-03
      7.25952792e-04 1.45190558e-03 1.81488204e-03 7.25952815e-03
      1.08892913e-03 1.45190563e-02 2.17785826e-03 1.08892913e-03
      9.07440949e-03 1.81488204e-03 7.25952792e-04 2.54083471e-03
      2.90381117e-03 3.62976396e-04 0. 1.45190558e-03 7.25952792e-04
      1.45190558e-03 1.81488204e-03 3.26678762e-03 7.62250414e-03
      1.08892913e-03 1.81488204e-03 0. 7.25952792e-04 1.08892913e-03
      1.81488204e-03 1.81488204e-03 1.45190558e-03 1.45190558e-03
      1.08892913e-03 7.25952792e-04 1.45190558e-03 7.25952792e-04
      1.45190558e-03 2.17785826e-03 2.17785826e-03 1.08892913e-03
      1.45190558e-03 2.54083471e-03 7.25952792e-04 7.25952792e-04
      3.62976396e-04 2.90381117e-03 0. 1.08892913e-03 4.35571652e-03 0.
      4.71869297e-03 0. 2.90381117e-03 1.45190558e-03 3.99274053e-03
      7.25952792e-04 5.44464588e-03 3.62976396e-04 3.62976396e-04
      2.54083471e-03 1.08892913e-03 2.17785826e-03 1.08892913e-03
      1.45190558e-03 3.62976396e-04 1.45190558e-03 2.17785826e-03
      7.25952792e-04 3.62976396e-04 1.81488204e-03 3.62976396e-04
      6.53357524e-03 1.81488204e-03 3.62976408e-03 2.17785826e-03
      3.62976408e-03 3.62976396e-04 1.45190558e-03 3.62976396e-04
      1.45190558e-03 7.25952792e-04 1.81488204e-03 5.08166943e-03
      7.25952792e-04 0. 2.54083471e-03 3.99274053e-03 3.62976396e-04
      3.62976396e-04 2.90381117e-03 1.05263153e-02 7.25952792e-04
      7.25952792e-04 9.80036240e-03 3.62976396e-04 1.08892913e-03
      3.62976396e-04 0. 1.08892913e-03 3.62976396e-04 0. 7.25952792e-04
      7.25952792e-04 0. 5.08166943e-03 3.62976396e-04 1.45190558e-03
      1.08892913e-03 2.17785826e-03 1.81488204e-03 1.45190558e-03 0.
      1.45190558e-03 1.08892913e-03 1.45190558e-03 1.08892913e-03
      3.99274053e-03 1.81488204e-03 1.45190558e-03 7.98548106e-03
      1.08892913e-03 1.99637022e-02 7.25952792e-04 3.62976396e-04
      3.62976396e-04 3.62976396e-04 0. 0. 7.25952792e-04 1.63339376e-02
      7.25952792e-04 1.45190558e-03 3.99274053e-03 4.35571652e-03
      7.25952792e-04 2.90381117e-03 5.44464588e-03 1.08892913e-03
      7.25952792e-04 1.81488204e-03 1.81488204e-03 4.71869297e-03
      7.25952792e-04 7.25952792e-04 2.17785826e-03 3.62976396e-04
      6.89655170e-03 1.08892913e-03 7.25952792e-04 1.01633389e-02
      3.62976396e-04 2.17785826e-03 7.25952792e-04 3.62976396e-04
      3.62976396e-04 3.62976396e-04 0. 2.17785826e-03 7.25952792e-04
      7.25952792e-04 1.08892913e-03 0. 7.25952792e-04 2.54083471e-03
      3.62976408e-03 1.81488204e-03 2.17785826e-03 3.62976396e-04
      1.45190558e-03 0. 7.25952792e-04 0. 3.62976396e-04 1.45190558e-03
      3.62976396e-04 3.62976396e-04 1.45190558e-03 0. 6.17059879e-03
      1.45190558e-03 0. 7.25952792e-04 2.90381117e-03 3.62976396e-04
      3.62976396e-04 3.62976396e-04 1.81488204e-03 3.62976396e-04 0.
      7.25952792e-04</_>
    <_>
      1.47492625e-03 2.04850873e-03 2.94985250e-03 5.89970499e-03
      2.54015089e-03 1.31104561e-03 1.63880701e-03 1.96656841e-03
      3.93313682e-03 2.04850873e-03 2.62209121e-03 8.19403504e-04
      9.83284204e-04 3.52343498e-03 1.55686669e-03 1.63880701e-03
      1.72074733e-03 7.37463124e-04 1.72074733e-03 2.45821057e-03
      6.55522803e-04 1.31104561e-03 2.70403153e-03 1.31104561e-03
      1.80268777e-03 3.68731585e-03 2.45821057e-03 1.72074733e-03
      8.19403504e-04 1.55686669e-03 1.96656841e-03 2.04850873e-03
      1.96656841e-03 2.54015089e-03 2.78597185e-03 1.14716496e-03
      1.88462809e-03 5.73582482e-04 2.78597185e-03 9.01343883e-04
      2.37627025e-03 4.09701746e-03 1.72074733e-03 1.47492625e-03
      2.37627025e-03 1.39298593e-03 2.29432993e-03 1.39298593e-03
      2.29432993e-03 1.39298593e-03 2.29432993e-03 1.63880701e-03
      3.44149466e-03 1.80268777e-03 2.62209121e-03 1.72074733e-03
      1.88462809e-03 1.80268777e-03 2.29432993e-03 2.62209121e-03
      2.21238937e-03 1.80268777e-03 1.14716496e-03 1.14716496e-03
      1.88462809e-03 2.62209121e-03 1.47492625e-03 1.14716496e-03
      1.63880701e-03 1.47492625e-03 1.14716496e-03 1.31104561e-03
      1.47492625e-03 2.29432993e-03 1.06522453e-03 2.94985250e-03
      2.13044905e-03 3.27761401e-03 2.54015089e-03 1.22910528e-03
      1.39298593e-03 1.96656841e-03 1.63880701e-03 1.22910528e-03
      1.55686669e-03 1.80268777e-03 2.78597185e-03 1.14716496e-03
      2.04850873e-03 1.47492625e-03 2.54015089e-03 2.04850873e-03
      1.31104561e-03 2.70403153e-03 1.88462809e-03 2.70403153e-03
      3.93313682e-03 3.03179305e-03 1.96656841e-03 2.78597185e-03
      2.70403153e-03 2.29432993e-03 1.80268777e-03 2.13044905e-03
      3.27761401e-03 9.83284204e-04 1.22910528e-03 2.54015089e-03
      2.37627025e-03 2.21238937e-03 1.31104561e-03 2.04850873e-03
      1.80268777e-03 1.72074733e-03 2.13044905e-03 1.88462809e-03
      2.62209121e-03 2.70403153e-03 2.13044905e-03 1.31104561e-03
      4.09701746e-03 2.21238937e-03 7.37463124e-04 1.88462809e-03
      2.86791218e-03 2.70403153e-03 1.72074733e-03 1.14716496e-03
      1.96656841e-03 9.83284204e-04 2.86791218e-03 2.21238937e-03
      1.14716496e-03 2.70403153e-03 9.01343883e-04 2.54015089e-03
      1.88462809e-03 1.55686669e-03 2.78597185e-03 9.83284204e-04
      1.06522453e-03 1.63880701e-03 3.03179305e-03 2.13044905e-03
      9.83284204e-04 9.83284204e-04 1.72074733e-03 2.70403153e-03
      3.27761401e-04 3.11373337e-03 1.47492625e-03 2.37627025e-03
      1.06522453e-03 2.37627025e-03 2.62209121e-03 1.96656841e-03
      2.29432993e-03 1.88462809e-03 2.13044905e-03 3.19567369e-03
      1.55686669e-03 4.91642102e-04 1.80268777e-03 2.04850873e-03
      2.54015089e-03 1.47492625e-03 1.63880701e-03 2.37627025e-03
      2.21238937e-03 4.26089810e-03 2.45821057e-03 1.47492625e-03
      2.86791218e-03 2.21238937e-03 1.47492625e-03 2.45821057e-03
      1.14716496e-03 3.03179305e-03 6.14552619e-03 1.22910528e-03
      2.29432993e-03 1.47492625e-03 1.72074733e-03 1.55686669e-03
      1.31104561e-03 1.80268777e-03 2.54015089e-03 1.14716496e-03
      1.80268777e-03 1.06522453e-03 1.47492625e-03 2.86791218e-03
      1.96656841e-03 2.13044905e-03 2.29432993e-03 1.72074733e-03
      1.47492625e-03 2.62209121e-03 6.80104923e-03 3.19567369e-03
      2.21238937e-03 2.29432993e-03 2.54015089e-03 2.21238937e-03
      2.78597185e-03 1.47492625e-03 3.03179305e-03 7.37463124e-04
      1.96656841e-03 2.54015089e-03 4.34283866e-03 1.96656841e-03
      2.29432993e-03 2.37627025e-03 2.37627025e-03 1.31104561e-03
      2.21238937e-03 1.39298593e-03 1.80268777e-03 2.37627025e-03
      2.70403153e-03 2.78597185e-03 1.31104561e-03 1.47492625e-03
      1.96656841e-03 1.88462809e-03 1.88462809e-03 3.03179305e-03
      9.83284204e-04 1.14716496e-03 1.72074733e-03 1.47492625e-03
      1.72074733e-03 9.01343883e-04 2.37627025e-03 1.63880701e-03
      6.55522803e-04 1.14716496e-03 2.37627025e-03 1.47492625e-03
      1.80268777e-03 1.47492625e-03 1.22910528e-03 2.13044905e-03
      5.73582482e-04 1.72074733e-03 1.39298593e-03 2.04850873e-03
      9.83284204e-04 1.06522453e-03 2.29432993e-03 1.47492625e-03
      1.88462809e-03 2.21238937e-03 2.13044905e-03 1.80268777e-03
      2.13044905e-03 2.45821057e-03 1.72074733e-03 1.55686669e-03
      2.13044905e-03 1.80268777e-03 2.45821057e-03 1.96656841e-03
      1.88462809e-03 2.04850873e-03 2.29432993e-03 3.35955434e-03
      3.19567369e-03 2.78597185e-03 1.63880701e-03 1.96656841e-03
      2.54015089e-03 1.88462809e-03 1.06522453e-03 2.94985250e-03
      3.11373337e-03 1.22910528e-03 1.80268777e-03 1.55686669e-03
      3.03179305e-03 1.96656841e-03 1.06522453e-03 1.72074733e-03
      2.13044905e-03 1.88462809e-03 2.62209121e-03 9.01343883e-04
      2.21238937e-03 1.88462809e-03 2.45821057e-03 2.04850873e-03
      2.54015089e-03 2.21238937e-03 2.54015089e-03 9.83284204e-04
      1.14716496e-03 1.96656841e-03 1.55686669e-03 1.47492625e-03
      1.06522453e-03 2.86791218e-03 2.13044905e-03 3.35955434e-03
      1.72074733e-03 9.01343883e-04 3.68731585e-03 2.62209121e-03
      6.55522803e-04 6.30940683e-03 2.21238937e-03 1.47492625e-03
      2.62209121e-03 2.94985250e-03 2.86791218e-03 2.21238937e-03
      2.45821057e-03 2.78597185e-03 1.39298593e-03 1.55686669e-03
      2.54015089e-03 1.22910528e-03 2.94985250e-03 1.14716496e-03
      1.31104561e-03 2.04850873e-03 4.17895801e-03 1.47492625e-03
      2.21238937e-03 2.37627025e-03 1.63880701e-03 1.96656841e-03
      2.94985250e-03 1.47492625e-03 1.39298593e-03 1.14716496e-03
      1.31104561e-03 1.55686669e-03 3.93313682e-03 2.29432993e-03
      1.55686669e-03 2.94985250e-03 1.55686669e-03 6.55522803e-04
      2.04850873e-03 1.22910528e-03 9.01343883e-04 1.47492625e-03
      2.86791218e-03 1.14716496e-03 2.13044905e-03 5.49000362e-03
      2.78597185e-03 1.88462809e-03 3.27761401e-03 3.44149466e-03
      2.13044905e-03 8.19403504e-04 4.67059994e-03 1.14716496e-03
      2.54015089e-03 1.96656841e-03 3.76925617e-03 1.39298593e-03
      2.29432993e-03 1.22910528e-03 2.21238937e-03 1.31104561e-03
      1.14716496e-03 1.06522453e-03 1.47492625e-03 1.63880701e-03
      1.47492625e-03 1.14716496e-03 1.22910528e-03 4.09701752e-04
      1.55686669e-03 2.29432993e-03 1.96656841e-03 1.88462809e-03
      2.37627025e-03 2.45821051e-04 2.37627025e-03 1.06522453e-03
      2.21238937e-03 2.13044905e-03 1.22910528e-03 2.70403153e-03
      1.88462809e-03 4.58865985e-03 1.47492625e-03 3.11373337e-03
      2.29432993e-03 3.27761401e-03 1.39298593e-03 2.54015089e-03
      2.21238937e-03 1.22910528e-03 1.96656841e-03 1.22910528e-03
      3.93313682e-03 9.01343883e-04 1.96656841e-03 1.55686669e-03
      1.22910528e-03 2.62209121e-03 1.14716496e-03 2.13044905e-03
      1.72074733e-03 1.06522453e-03 1.39298593e-03 2.62209121e-03
      1.31104561e-03 2.70403153e-03 1.47492625e-03 3.19567369e-03
      2.78597185e-03 2.45821057e-03 1.55686669e-03 1.06522453e-03
      1.14716496e-03 2.54015089e-03 4.91642102e-04 5.73582482e-04
      2.70403153e-03 2.45821057e-03 2.62209121e-03 7.37463124e-04
      1.80268777e-03 1.96656841e-03 1.63880701e-03 4.01507737e-03
      9.83284204e-04 1.88462809e-03 2.04850873e-03 2.94985250e-03
      3.27761401e-03 2.45821051e-04 2.94985250e-03 1.63880701e-03
      1.06522453e-03 1.22910528e-03 2.04850873e-03 1.88462809e-03
      1.63880701e-03 1.63880701e-03 3.19567369e-03 1.14716496e-03
      1.14716496e-03 1.88462809e-03 1.14716496e-03 2.70403153e-03
      1.55686669e-03 6.55522803e-04 4.42477874e-03 1.96656841e-03
      1.47492625e-03 2.86791218e-03 2.78597185e-03 2.04850873e-03
      1.06522453e-03 2.70403153e-03 2.04850873e-03 8.19403504e-04
      1.80268777e-03 1.14716496e-03 3.60537553e-03 1.47492625e-03
      2.45821051e-04 2.86791218e-03 1.47492625e-03 1.39298593e-03
      9.01343883e-04 1.47492625e-03 3.44149466e-03 1.63880701e-03
      1.14716496e-03 2.37627025e-03 1.31104561e-03 2.13044905e-03
      8.19403504e-04 2.62209121e-03 1.96656841e-03 3.93313682e-03
      2.21238937e-03 3.27761401e-04 1.31104561e-03 1.88462809e-03
      1.39298593e-03 3.60537553e-03 8.19403504e-04 2.13044905e-03
      1.88462809e-03 2.13044905e-03 2.13044905e-03 1.72074733e-03
      7.37463124e-04 1.06522453e-03 1.72074733e-03 1.31104561e-03</_>
    <_>
      1.84774573e-03 1.84774573e-03 1.84774573e-03 2.21729488e-03
      1.84774573e-03 7.39098294e-04 1.84774573e-03 1.84774573e-03
      2.21729488e-03 1.47819659e-03 1.10864744e-03 2.58684391e-03
      3.69549147e-04 1.47819659e-03 4.43458976e-03 3.69549147e-04
      1.47819659e-03 1.10864744e-03 1.84774573e-03 1.84774573e-03 0.
      4.06504050e-03 1.10864744e-03 1.84774573e-03 1.10864744e-03
      1.47819659e-03 1.47819659e-03 0. 2.95639317e-03 4.43458976e-03
      1.84774573e-03 1.84774573e-03 3.69549147e-04 1.84774573e-03
      1.10864744e-03 1.10864744e-03 1.47819659e-03 1.84774573e-03
      2.21729488e-03 0. 5.17368782e-03 1.84774573e-03 7.39098294e-04
      3.69549147e-04 1.10864744e-03 4.06504050e-03 7.02143367e-03
      3.69549147e-03 2.58684391e-03 2.21729488e-03 1.10864744e-03
      3.69549147e-03 2.21729488e-03 1.10864744e-03 1.10864744e-03
      4.06504050e-03 4.06504050e-03 3.69549147e-04 2.21729488e-03
      1.10864744e-03 1.10864744e-03 7.39098294e-04 0. 3.69549147e-04
      1.10864744e-03 3.69549147e-03 1.47819659e-03 2.21729488e-03
      2.58684391e-03 3.69549147e-04 2.58684391e-03 1.10864744e-03 0.
      1.47819659e-03 2.95639317e-03 2.21729488e-03 1.84774573e-03
      1.84774573e-03 2.95639317e-03 3.69549147e-04 3.69549147e-04
      2.95639317e-03 1.47819659e-03 3.69549147e-04 2.58684391e-03
      3.69549147e-03 1.10864744e-03 7.39098294e-04 4.06504050e-03
      5.17368782e-03 7.39098294e-04 2.21729488e-03 0. 1.84774573e-03
      1.10864744e-03 1.10864744e-03 1.47819659e-03 2.95639317e-03
      3.32594244e-03 7.39098294e-04 7.39098294e-04 1.10864744e-03
      2.58684391e-03 0. 1.10864744e-03 1.10864744e-03 2.21729488e-03
      3.69549147e-04 7.39098294e-04 7.39098294e-04 3.69549147e-04
      3.69549147e-04 3.69549147e-04 0. 3.69549147e-03 7.76053220e-03
      1.84774573e-03 1.84774573e-03 1.84774573e-03 2.21729488e-03
      1.84774573e-03 3.69549147e-04 7.39098294e-04 1.84774573e-03
      1.10864744e-03 2.58684391e-03 3.32594244e-03 3.69549147e-04
      3.32594244e-03 1.10864744e-03 2.21729488e-03 1.47819659e-03
      1.84774573e-03 6.65188488e-03 4.80413903e-03 3.69549147e-04
      5.54323709e-03 1.47819659e-03 2.58684391e-03 1.47819659e-03 0.
      6.28233561e-03 1.84774573e-03 2.21729488e-03 2.21729488e-03 0.
      3.69549147e-03 2.95639317e-03 1.84774573e-03 2.95639317e-03
      1.47819659e-03 7.39098294e-04 5.17368782e-03 1.84774573e-03
      3.69549147e-03 1.84774573e-03 1.84774573e-03 3.69549147e-04
      5.17368782e-03 1.10864744e-03 1.84774573e-03 7.39098294e-04
      1.47819659e-03 1.10864744e-03 2.21729488e-03 3.69549147e-04
      4.06504050e-03 0. 2.95639317e-03 4.80413903e-03 1.84774573e-03
      1.47819659e-03 2.58684391e-03 4.06504050e-03 3.32594244e-03
      2.95639317e-03 7.39098294e-03 1.84774573e-03 1.40428673e-02
      1.10864744e-03 3.69549147e-04 7.39098294e-04 1.84774573e-03
      2.58684391e-03 0. 1.10864744e-03 2.21729488e-03 1.10864744e-03
      1.84774573e-03 0. 1.84774573e-03 2.58684391e-03 2.58684391e-03
      3.69549147e-03 7.39098294e-04 4.80413903e-03 2.58684391e-03
      1.10864744e-03 5.54323709e-03 1.84774573e-03 2.95639317e-03
      1.84774573e-03 8.13008100e-03 1.47819659e-03 1.84774573e-03
      7.39098294e-04 3.69549147e-04 0. 5.91278635e-03 1.84774573e-03
      1.47819659e-03 2.21729488e-03 1.47819659e-03 7.39098294e-04
      2.58684391e-03 2.58684391e-03 0. 3.69549147e-03 3.69549147e-03
      2.58684391e-03 7.39098294e-04 2.21729488e-03 3.69549147e-04
      3.69549147e-04 4.80413903e-03 2.95639317e-03 1.10864744e-03
      1.84774573e-03 1.84774573e-03 4.06504050e-03 2.58684391e-03
      1.84774573e-03 2.21729488e-03 3.32594244e-03 1.47819659e-03
      3.32594244e-03 1.84774573e-03 1.84774573e-03 7.39098294e-04
      6.65188488e-03 0. 7.39098294e-04 2.21729488e-03 3.32594244e-03 0.
      3.69549147e-04 1.47819659e-03 5.17368782e-03 1.10864744e-03
      7.39098294e-04 1.10864744e-03 1.10864744e-03 7.39098294e-04
      2.21729488e-03 3.69549147e-03 1.10864744e-03 3.69549147e-04
      7.39098294e-04 1.47819659e-03 1.47819659e-03 3.69549147e-04
      4.06504050e-03 2.21729488e-03 2.95639317e-03 2.58684391e-03
      3.69549147e-04 2.58684391e-03 2.95639317e-03 2.95639317e-03
      1.10864744e-03 1.47819659e-03 1.84774573e-03 0. 2.21729488e-03
      1.47819659e-03 1.10864744e-03 1.47819659e-03 3.69549147e-04 0.
      1.47819659e-03 3.32594244e-03 1.47819659e-03 4.43458976e-03
      3.69549147e-04 1.84774573e-03 1.47819659e-03 1.10864744e-03
      1.84774573e-03 1.47819659e-03 0. 1.84774573e-03 1.47819659e-03
      1.47819659e-03 1.84774573e-03 1.84774573e-03 3.69549147e-03 0.
      7.39098294e-04 2.58684391e-03 1.84774573e-03 7.39098294e-04
      3.69549147e-03 7.39098294e-04 7.39098294e-04 3.69549147e-04
      1.84774573e-03 4.06504050e-03 1.10864744e-03 7.39098294e-04
      1.47819659e-03 1.84774573e-03 1.47819659e-03 3.69549147e-04
      1.84774573e-03 3.69549147e-04 7.39098294e-03 7.39098294e-04
      4.43458976e-03 4.06504050e-03 3.69549147e-04 8.86917952e-03
      1.47819659e-03 7.39098294e-04 1.47819659e-03 3.32594244e-03
      1.10864744e-03 2.21729488e-03 3.69549147e-04 2.58684391e-03
      7.39098294e-04 2.21729488e-03 1.51515147e-02 2.58684391e-03
      1.47819659e-03 1.84774573e-03 1.84774573e-03 2.95639317e-03
      1.10864744e-03 1.10864744e-03 7.39098294e-04 3.69549147e-04
      2.58684391e-03 3.69549147e-04 0. 3.32594244e-03 3.69549147e-04
      2.95639317e-03 2.58684391e-03 3.32594244e-03 1.84774573e-03
      2.21729488e-03 2.58684391e-03 3.69549147e-03 2.21729488e-03
      3.69549147e-04 1.84774573e-03 7.39098294e-04 1.84774573e-03
      4.80413903e-03 3.69549147e-04 3.32594244e-03 2.58684391e-03
      1.84774573e-03 7.39098294e-04 3.69549147e-03 2.95639317e-03
      4.06504050e-03 1.10864744e-03 4.06504050e-03 2.95639317e-03 0.
      1.10864744e-03 1.84774573e-03 7.39098294e-04 1.10864744e-03
      3.69549147e-04 2.58684391e-03 3.69549147e-04 1.47819659e-03 0.
      2.58684391e-03 7.39098294e-04 3.69549147e-03 1.10864744e-03
      1.47819659e-03 2.95639317e-03 2.21729488e-03 7.39098294e-04
      7.39098294e-04 3.32594244e-03 4.06504050e-03 3.32594244e-03
      3.32594244e-03 2.21729488e-03 2.21729488e-03 3.69549147e-03
      6.65188488e-03 1.10864744e-03 2.21729488e-03 7.39098294e-04
      1.10864744e-03 0. 2.21729488e-03 4.43458976e-03 1.10864744e-03
      1.84774573e-03 7.39098294e-04 1.47819659e-03 2.21729488e-03 0.
      7.39098294e-04 0. 0. 0. 2.95639317e-03 1.10864744e-03
      1.47819659e-03 1.84774573e-03 7.39098294e-04 1.10864744e-03
      7.39098294e-04 0. 3.69549147e-04 3.69549147e-04 2.58684391e-03
      4.80413903e-03 1.84774573e-03 3.69549147e-04 2.21729488e-03
      5.54323709e-03 7.39098294e-04 9.60827805e-03 1.47819659e-03
      3.69549147e-04 3.69549147e-03 3.69549147e-03 2.21729488e-03
      7.39098294e-04 1.10864744e-03 4.06504050e-03 5.17368782e-03
      3.69549147e-04 4.06504050e-03 1.47819659e-03 2.21729488e-03
      2.95639317e-03 1.84774573e-03 1.47819659e-03 7.39098294e-04
      2.58684391e-03 3.69549147e-04 3.32594244e-03 3.69549147e-03
      1.10864744e-03 1.47819659e-03 1.10864744e-03 1.10864744e-03
      1.10864744e-03 1.10864744e-03 1.47819659e-03 3.69549147e-04
      1.47819659e-03 3.69549147e-03 3.69549147e-04 1.47819659e-03
      1.10864744e-03 1.10864744e-03 1.10864744e-03 7.39098294e-04
      1.10864744e-03 2.58684391e-03 7.39098294e-04 0. 3.69549147e-03
      7.39098294e-03 4.80413903e-03 0. 7.39098294e-04 3.69549147e-03
      2.21729488e-03 3.69549147e-03 1.84774573e-03 7.39098294e-04
      2.21729488e-03 3.69549147e-04 3.69549147e-04 1.47819659e-03
      1.47819659e-03 2.58684391e-03 1.84774573e-03 1.10864744e-03
      7.39098294e-04 7.39098294e-03 1.84774573e-03 2.21729488e-03
      7.39098294e-04 1.10864744e-03 1.84774573e-03 3.69549147e-04
      1.84774573e-03</_>
    <_>
      1.08108111e-03 1.08108111e-03 1.51351350e-03 1.51351350e-03
      2.37837830e-03 1.72972970e-03 2.16216213e-04 6.48648653e-04
      1.08108111e-03 1.29729731e-03 2.37837830e-03 1.08108111e-03
      6.48648653e-04 2.59459461e-03 7.78378360e-03 8.64864851e-04
      8.64864851e-04 1.08108111e-03 1.94594590e-03 8.64864851e-04
      7.99999945e-03 2.59459461e-03 2.59459461e-03 1.51351350e-03
      4.32432425e-04 1.29729731e-03 1.94594590e-03 6.48648653e-04
      2.37837830e-03 8.64864851e-04 3.89189180e-03 1.29729731e-03
      6.48648653e-04 1.08108111e-03 8.64864851e-04 4.32432425e-04
      1.72972970e-03 2.16216221e-03 2.16216213e-04 6.48648653e-04
      1.34054050e-02 1.94594590e-03 0. 2.16216213e-04 6.48648653e-04
      1.08108111e-03 1.72972970e-03 2.37837830e-03 1.94594590e-03
      1.94594590e-03 4.32432425e-04 2.37837830e-03 1.94594590e-03
      2.16216221e-03 8.64864851e-04 1.08108111e-03 7.78378360e-03
      1.08108111e-03 6.48648653e-04 1.08108111e-03 6.48648653e-04
      2.37837830e-03 4.32432425e-04 2.16216213e-04 4.75675659e-03
      2.16216221e-03 2.16216213e-04 1.72972970e-03 6.48648653e-04
      6.48648653e-04 1.21081080e-02 1.29729731e-03 6.48648653e-04
      6.48648653e-04 8.64864851e-04 8.64864851e-04 6.48648653e-04
      2.81081069e-03 2.16216221e-03 8.64864851e-04 2.16216213e-04
      5.62162139e-03 9.72972997e-03 2.16216221e-03 1.08108111e-03
      2.37837830e-03 1.94594590e-03 1.29729731e-03 1.51351350e-03
      4.75675659e-03 4.32432425e-04 1.51351350e-03 6.48648653e-04
      5.83783770e-03 1.29729731e-03 2.16216213e-04 2.16216221e-03
      1.08108111e-03 6.48648653e-04 1.94594590e-03 1.51351350e-03
      2.16216213e-04 2.16216213e-04 8.64864851e-04 1.94594590e-03
      4.32432425e-04 6.48648653e-04 2.37837830e-03 8.64864851e-04
      1.72972970e-03 4.32432425e-04 6.48648653e-04 4.32432425e-04
      6.48648653e-04 4.32432443e-03 8.64864851e-04 2.16216213e-04
      2.16216221e-03 1.94594590e-03 2.16216221e-03 6.48648653e-04
      4.32432425e-04 4.32432425e-04 1.29729731e-03 1.94594590e-03
      6.48648653e-04 1.51351350e-03 1.08108111e-03 8.64864851e-04
      6.48648653e-04 3.45945940e-03 6.48648653e-04 1.08108111e-03
      5.40540554e-03 2.81081069e-03 2.16216213e-04 7.78378360e-03
      8.64864851e-04 1.08108111e-03 1.72972970e-03 6.48648653e-04
      8.64864851e-04 6.48648653e-04 0. 3.67567572e-03 2.16216213e-04
      3.24324309e-03 2.16216213e-04 2.37837830e-03 6.48648653e-04
      6.48648653e-04 8.64864851e-04 3.02702701e-03 8.64864851e-04
      8.64864851e-04 8.64864851e-04 3.02702701e-03 6.48648653e-04
      5.40540554e-03 1.29729731e-03 1.40540535e-02 3.02702701e-03
      4.32432425e-04 1.08108111e-03 1.72972970e-03 6.48648653e-04
      1.72972970e-03 0. 1.08108111e-03 3.02702701e-03 8.64864851e-04
      1.51351350e-03 8.64864851e-04 1.94594590e-03 3.89189180e-03
      2.81081069e-03 2.16216221e-03 6.48648653e-04 1.55675672e-02
      8.64864851e-04 2.16216213e-04 2.16216213e-04 8.64864851e-04
      1.29729731e-03 8.64864851e-04 7.13513512e-03 4.32432425e-04
      1.94594590e-03 3.45945940e-03 2.16216213e-04 5.83783770e-03
      1.08108111e-03 8.64864851e-04 2.59459461e-03 2.16216213e-04
      8.64864886e-03 3.45945940e-03 1.29729731e-03 5.62162139e-03
      1.94594590e-03 5.83783770e-03 8.64864851e-04 3.02702701e-03
      4.75675659e-03 1.94594590e-03 1.72972970e-03 1.08108111e-03
      2.16216213e-04 7.56756729e-03 1.08108111e-03 3.67567572e-03
      6.48648653e-04 8.64864851e-04 2.16216213e-04 2.37837830e-03
      7.35135144e-03 4.32432425e-04 2.59459461e-03 4.75675659e-03
      2.16216213e-04 1.72972970e-03 1.94594590e-03 0. 3.24324309e-03
      1.51351350e-03 4.32432425e-04 8.64864851e-04 4.32432425e-04
      4.54054028e-03 2.16216213e-04 8.64864851e-04 1.29729731e-03
      1.08108111e-03 7.35135144e-03 6.48648653e-04 4.32432425e-04
      3.67567572e-03 6.48648653e-04 1.51351350e-03 1.94594590e-03
      6.48648653e-04 8.64864851e-04 2.16216213e-04 6.48648653e-04
      2.59459461e-03 1.08108111e-03 6.48648653e-04 1.29729731e-03
      1.94594590e-03 1.51351350e-03 0. 4.32432425e-04 8.64864851e-04
      1.51351350e-03 9.29729734e-03 4.32432425e-04 8.64864851e-04
      6.48648653e-04 1.72972970e-03 2.16216221e-03 1.94594590e-03
      4.32432425e-04 1.94594590e-03 4.10810811e-03 3.89189180e-03
      1.94594590e-03 6.48648653e-04 4.32432425e-04 2.81081069e-03
      1.51351350e-03 2.16216221e-03 6.48648653e-04 0. 6.48648653e-04
      1.72972970e-03 6.48648653e-04 4.32432425e-04 0. 6.48648653e-04
      1.51351350e-03 1.72972970e-03 2.37837830e-03 3.24324309e-03 0.
      5.62162139e-03 8.64864851e-04 8.64864851e-04 2.59459461e-03
      1.51351350e-03 0. 2.37837830e-03 4.32432443e-03 6.48648653e-04
      2.16216221e-03 4.32432425e-04 5.62162139e-03 0. 0. 1.29729731e-03
      1.72972970e-03 1.51351350e-03 6.48648618e-03 4.32432425e-04
      4.32432425e-04 1.94594590e-03 1.08108111e-03 3.24324309e-03
      1.08108111e-03 6.48648653e-04 8.64864851e-04 1.72972970e-03
      5.83783770e-03 2.16216213e-04 1.29729731e-03 2.81081069e-03
      1.83783788e-02 8.64864851e-04 4.97297291e-03 5.18918922e-03
      1.08108111e-03 9.94594581e-03 8.64864851e-04 2.16216213e-04
      1.08108111e-03 1.08108111e-03 8.64864851e-04 1.08108111e-03
      1.29729731e-03 2.16216213e-04 6.48648653e-04 1.51351350e-03
      1.94594590e-03 3.02702701e-03 2.81081069e-03 3.02702701e-03 0.
      6.48648653e-04 1.51351350e-03 1.29729731e-03 1.72972970e-03
      1.94594590e-03 1.08108111e-03 8.64864851e-04 6.48648653e-04
      4.32432425e-04 6.48648653e-04 1.94594590e-03 2.59459461e-03
      1.51351350e-03 3.89189180e-03 1.94594590e-03 1.29729731e-03
      2.16216213e-04 2.16216213e-04 1.51351350e-03 3.24324309e-03
      2.16216213e-04 1.51351350e-03 3.24324309e-03 2.16216213e-04
      2.16216221e-03 1.08108111e-03 3.02702701e-03 1.08108111e-03
      1.08108111e-03 6.48648653e-04 8.21621623e-03 2.16216213e-04
      1.94594590e-03 3.02702701e-03 4.32432425e-04 8.64864851e-04
      3.24324309e-03 2.59459461e-03 2.16216213e-04 2.59459461e-03
      5.62162139e-03 2.37837830e-03 2.16216213e-04 6.48648653e-04
      3.02702701e-03 2.59459461e-03 1.29729731e-03 4.97297291e-03
      1.94594590e-03 1.88108105e-02 1.29729731e-03 2.16216221e-03
      4.32432425e-04 3.89189180e-03 6.48648653e-04 8.64864851e-04
      2.81081069e-03 1.08108111e-03 2.16216213e-04 5.40540554e-03
      3.24324309e-03 2.16216213e-04 2.16216213e-04 1.08108111e-03
      2.16216221e-02 8.64864851e-04 1.51351350e-03 1.47027029e-02
      6.48648653e-04 1.29729731e-03 1.29729731e-03 8.64864851e-04
      8.64864851e-04 4.32432425e-04 0. 2.16216213e-04 4.32432425e-04
      1.51351350e-03 3.89189180e-03 1.08108111e-03 1.51351350e-03
      2.16216213e-04 1.51351350e-03 1.29729731e-03 1.72972970e-03
      1.51351350e-03 3.02702701e-03 8.64864851e-04 0. 4.32432425e-04
      2.59459461e-03 1.08108111e-03 1.51351350e-03 5.18918922e-03 0.
      1.05945943e-02 4.32432425e-04 0. 4.32432425e-04 8.64864851e-04
      6.48648653e-04 0. 1.51351350e-03 2.87567563e-02 2.16216221e-03
      2.16216213e-04 2.16216221e-03 7.99999945e-03 1.29729731e-03
      2.81081069e-03 1.29729731e-03 4.32432425e-04 4.32432425e-04
      1.08108111e-03 1.94594590e-03 8.21621623e-03 4.32432425e-04
      4.32432425e-04 8.64864851e-04 2.16216213e-04 3.45945940e-03
      1.08108111e-03 1.72972970e-03 1.03783784e-02 6.48648653e-04
      1.29729731e-03 8.64864851e-04 1.08108111e-03 6.48648653e-04
      6.48648653e-04 2.16216213e-04 4.32432425e-04 1.72972970e-03
      2.16216213e-04 1.51351350e-03 4.32432425e-04 8.64864851e-04
      1.29729731e-03 1.29729731e-03 1.51351350e-03 6.48648653e-04
      2.16216213e-04 2.81081069e-03 6.48648653e-04 2.59459461e-03
      1.51351350e-03 6.48648653e-04 1.29729731e-03 2.16216213e-04
      8.64864851e-04 6.48648653e-04 8.64864851e-04 2.81081069e-03
      1.51351350e-03 4.32432425e-04 4.32432425e-04 2.16216221e-03
      8.64864851e-04 6.48648653e-04 4.32432425e-04 2.16216213e-04
      1.08108111e-03 1.72972970e-03 8.64864851e-04</_>
    <_>
      2.76548672e-04 5.53097343e-04 8.29646015e-04 1.10619469e-03
      1.93584070e-03 2.48893816e-03 0. 1.10619469e-03 1.65929203e-03
      8.29646015e-04 5.25442464e-03 3.87168140e-03 5.53097343e-04
      1.93584070e-03 5.25442464e-03 8.29646015e-04 1.38274336e-03
      4.42477874e-03 3.04203527e-03 8.29646015e-04 6.91371690e-03
      4.70132753e-03 1.10619469e-03 1.65929203e-03 2.48893816e-03
      8.29646015e-04 1.10619469e-03 5.53097343e-04 4.14822996e-03
      1.10619469e-03 9.12610628e-03 8.29646015e-04 1.93584070e-03
      1.10619469e-03 1.10619469e-03 8.29646015e-04 1.38274336e-03
      4.97787632e-03 3.04203527e-03 3.31858406e-03 1.99115053e-02
      2.76548672e-04 5.53097343e-04 2.76548672e-03 8.29646015e-04
      3.04203527e-03 2.76548672e-03 1.65929203e-03 8.29646015e-04
      1.65929203e-03 2.76548672e-04 8.29646015e-04 2.76548672e-04
      7.19026569e-03 1.65929203e-03 2.76548672e-04 3.59513285e-03
      1.10619469e-03 5.53097343e-04 1.65929203e-03 5.53097343e-04
      2.48893816e-03 8.29646015e-04 0. 4.14822996e-03 1.65929203e-03
      2.76548672e-04 1.38274336e-03 1.10619469e-03 1.65929203e-03
      1.71460174e-02 1.93584070e-03 8.29646015e-04 1.38274336e-03
      2.21238937e-03 1.10619469e-03 1.93584070e-03 1.93584070e-03
      1.65929203e-03 5.53097343e-04 0. 1.93584070e-03 3.31858406e-03
      8.29646015e-04 5.53097343e-04 1.93584070e-03 1.10619469e-03
      8.29646015e-04 2.21238937e-03 4.97787632e-03 8.29646015e-04
      2.48893816e-03 1.10619469e-03 4.70132753e-03 2.48893816e-03
      1.10619469e-03 5.53097343e-04 1.10619469e-03 3.59513285e-03
      1.38274336e-03 3.31858406e-03 5.53097343e-04 0. 2.76548672e-04
      3.31858406e-03 8.29646015e-04 2.76548672e-04 1.10619469e-03
      1.38274336e-03 2.21238937e-03 5.53097343e-04 8.29646015e-04 0.
      1.10619469e-03 5.80752222e-03 1.93584070e-03 1.38274336e-03
      8.29646015e-04 1.93584070e-03 8.29646015e-04 0. 2.76548672e-04
      5.53097343e-04 1.38274336e-03 1.10619469e-03 1.10619469e-03 0.
      2.76548672e-03 2.76548672e-03 1.10619469e-03 8.29646015e-04
      2.76548672e-04 1.65929203e-03 3.59513285e-03 3.87168140e-03
      1.38274336e-03 7.19026569e-03 2.76548672e-04 5.53097343e-04
      1.10619469e-03 1.93584070e-03 5.53097343e-04 1.10619469e-03
      5.53097343e-04 2.76548672e-03 5.53097343e-04 4.14822996e-03
      8.29646015e-04 1.65929203e-03 2.76548672e-04 2.76548672e-04
      2.48893816e-03 6.08407054e-03 1.93584070e-03 2.76548672e-04
      2.21238937e-03 1.93584070e-03 2.76548672e-04 2.21238937e-03
      5.53097343e-04 7.74336280e-03 5.80752222e-03 0. 1.10619469e-03
      2.21238937e-03 1.38274336e-03 2.21238937e-03 2.76548672e-04
      2.76548672e-04 1.38274336e-03 1.65929203e-03 1.93584070e-03
      1.38274336e-03 3.31858406e-03 1.38274336e-03 4.97787632e-03
      2.48893816e-03 1.93584070e-03 1.21681411e-02 5.53097343e-04
      5.53097343e-04 1.10619469e-03 1.93584070e-03 8.29646015e-04
      1.93584070e-03 5.53097343e-03 1.65929203e-03 1.65929203e-03
      1.10619469e-03 1.65929203e-03 3.31858406e-03 5.53097343e-04
      1.93584070e-03 1.65929203e-03 2.76548672e-04 4.42477874e-03
      3.59513285e-03 8.29646015e-04 4.14822996e-03 3.04203527e-03
      4.42477874e-03 8.29646015e-04 3.04203527e-03 3.87168140e-03
      1.10619469e-03 1.65929203e-03 1.38274336e-03 2.76548672e-04
      5.53097343e-03 1.10619469e-03 5.53097343e-04 0. 1.65929203e-03
      8.29646015e-04 1.10619469e-03 5.25442464e-03 5.53097343e-04
      1.38274336e-03 7.46681402e-03 2.21238937e-03 8.29646015e-04
      8.29646015e-04 2.76548672e-04 1.38274336e-03 2.48893816e-03
      1.38274336e-03 1.38274336e-03 1.38274336e-03 5.25442464e-03 0.
      1.93584070e-03 1.65929203e-03 8.29646015e-04 2.76548672e-03
      8.29646015e-04 2.76548672e-04 3.59513285e-03 1.10619469e-03
      1.10619469e-03 1.65929203e-03 1.38274336e-03 8.29646015e-04
      8.29646015e-04 1.38274336e-03 1.93584070e-03 8.29646015e-04
      5.53097343e-04 1.93584070e-03 4.42477874e-03 2.48893816e-03
      8.29646015e-04 8.29646015e-04 1.93584070e-03 1.93584070e-03
      4.70132753e-03 1.65929203e-03 1.38274336e-03 5.53097343e-04
      5.53097343e-04 8.29646015e-04 1.10619469e-03 1.38274336e-03
      1.10619469e-03 8.84955749e-03 2.48893816e-03 1.65929203e-03
      1.65929203e-03 2.76548672e-03 1.10619469e-03 8.29646015e-04
      1.10619469e-03 1.93584070e-03 1.10619469e-03 4.14822996e-03
      1.93584070e-03 2.76548672e-04 2.76548672e-04 2.76548672e-04
      1.65929203e-03 1.10619469e-03 5.53097343e-04 2.76548672e-03
      3.04203527e-03 8.29646015e-04 6.36061933e-03 1.10619469e-03
      1.65929203e-03 3.04203527e-03 1.10619469e-03 0. 8.29646015e-04
      7.19026569e-03 5.53097343e-04 8.29646015e-04 5.53097343e-04
      3.87168140e-03 0. 8.29646015e-04 1.65929203e-03 1.65929203e-03
      5.53097343e-04 3.87168140e-03 5.53097343e-04 0. 1.65929203e-03
      8.29646015e-04 3.31858406e-03 0. 2.48893816e-03 2.21238937e-03
      1.93584070e-03 6.36061933e-03 3.04203527e-03 8.29646015e-04
      1.65929203e-03 9.40265507e-03 0. 1.38274336e-03 4.70132753e-03
      5.53097343e-04 4.42477874e-03 4.70132753e-03 5.53097343e-04
      8.29646015e-04 1.93584070e-03 1.10619469e-03 5.53097343e-04
      3.31858406e-03 1.38274336e-03 1.38274336e-03 1.93584070e-03
      1.10619469e-03 1.10619469e-03 1.93584070e-03 1.93584070e-03
      2.76548672e-04 3.04203527e-03 8.29646015e-04 2.21238937e-03
      1.38274336e-03 1.65929203e-03 1.65929203e-03 2.76548672e-04
      5.53097343e-04 2.76548672e-04 5.53097343e-04 4.14822996e-03
      1.93584070e-03 5.53097343e-04 4.42477874e-03 1.38274336e-03
      1.93584070e-03 1.38274336e-03 8.29646015e-04 1.93584070e-03
      8.29646015e-04 5.53097343e-04 3.87168140e-03 2.76548672e-03 0.
      4.97787632e-03 8.29646015e-04 1.93584070e-03 2.76548672e-04
      2.76548672e-03 5.53097343e-04 9.12610628e-03 8.29646015e-04
      1.38274336e-03 2.48893816e-03 1.65929203e-03 1.38274336e-03
      3.04203527e-03 2.21238937e-03 5.53097343e-04 1.10619469e-03
      3.31858406e-03 8.29646015e-04 5.53097343e-04 1.38274336e-03
      1.38274336e-03 4.42477874e-03 2.76548672e-04 8.29646015e-04
      2.21238937e-03 6.91371690e-03 5.53097343e-04 3.04203527e-03
      2.76548672e-04 1.65929203e-03 8.29646015e-04 3.04203527e-03
      6.08407054e-03 1.65929203e-03 1.10619469e-03 8.29645991e-03
      4.70132753e-03 0. 0. 2.48893816e-03 1.49336280e-02 2.76548672e-04
      2.48893816e-03 6.08407054e-03 5.53097343e-04 8.29646015e-04
      1.38274336e-03 5.53097343e-04 1.10619469e-03 8.29646015e-04
      8.29646015e-04 2.76548672e-04 2.21238937e-03 8.29646015e-04
      3.87168140e-03 0. 1.93584070e-03 0. 1.93584070e-03 2.76548672e-03
      8.29646015e-04 0. 3.87168140e-03 1.93584070e-03 1.10619469e-03
      1.65929203e-03 4.14822996e-03 3.31858406e-03 8.29646015e-04
      1.38274336e-03 2.76548672e-04 4.97787632e-03 1.38274336e-03 0.
      2.76548672e-04 1.65929203e-03 8.29646015e-04 5.53097343e-04
      5.53097343e-04 1.13384956e-02 8.29646015e-04 8.29646015e-04
      1.93584070e-03 5.53097343e-03 2.48893816e-03 2.48893816e-03
      5.80752222e-03 8.29646015e-04 8.29646015e-04 1.10619469e-03
      1.10619469e-03 4.14822996e-03 5.53097343e-04 3.04203527e-03
      5.53097343e-04 8.29646015e-04 5.53097343e-03 0. 3.31858406e-03
      9.95575264e-03 2.76548672e-04 1.10619469e-03 2.76548672e-04
      8.29646015e-04 8.29646015e-04 1.10619469e-03 2.76548672e-04
      1.65929203e-03 4.14822996e-03 1.38274336e-03 5.80752222e-03
      8.29646015e-04 8.29646015e-04 8.29646015e-04 8.29646015e-04
      2.48893816e-03 2.48893816e-03 5.53097343e-04 2.21238937e-03
      1.10619469e-03 1.93584070e-03 8.29646015e-04 1.38274336e-03
      2.48893816e-03 1.10619469e-03 3.31858406e-03 2.76548672e-04
      1.93584070e-03 5.25442464e-03 1.38274336e-03 3.04203527e-03
      2.76548672e-04 2.21238937e-03 1.93584070e-03 2.76548672e-04
      1.10619469e-03 3.31858406e-03 1.10619469e-03 2.76548672e-04
      1.38274336e-03</_>
    <_>
      4.34404879e-04 4.77845361e-03 1.30321458e-03 3.90964374e-03
      1.73761952e-03 0. 1.30321458e-03 8.68809759e-04 8.68809759e-04
      2.17202445e-03 3.04083410e-03 4.34404879e-04 4.34404879e-04 0.
      6.51607336e-03 1.30321458e-03 8.68809759e-04 0. 3.47523903e-03
      1.30321458e-03 2.17202445e-03 4.34404891e-03 1.30321458e-03
      4.34404879e-04 0. 4.34404879e-04 2.60642916e-03 4.34404879e-04
      7.38488277e-03 3.90964374e-03 7.38488277e-03 1.30321458e-03 0.
      3.04083410e-03 1.30321458e-03 3.47523903e-03 1.73761952e-03 0.
      8.68809759e-04 0. 5.64726349e-03 1.30321458e-03 0. 0.
      4.34404879e-04 6.51607336e-03 4.77845361e-03 3.90964374e-03
      8.68809759e-04 4.34404891e-03 1.30321458e-03 3.90964374e-03
      3.04083410e-03 3.04083410e-03 4.34404879e-04 1.73761952e-03
      3.47523903e-03 1.30321458e-03 4.34404879e-04 2.17202445e-03
      4.34404879e-04 2.60642916e-03 4.34404879e-04 0. 1.30321467e-02
      3.90964374e-03 1.73761952e-03 0. 4.34404879e-04 4.34404879e-04
      6.95047807e-03 0. 0. 2.17202445e-03 2.17202445e-03 2.17202445e-03
      0. 2.17202445e-03 4.34404891e-03 0. 4.34404879e-04 5.21285832e-03
      3.04083410e-03 4.34404879e-04 1.73761952e-03 2.60642916e-03
      2.60642916e-03 2.60642916e-03 1.73761952e-03 7.81928748e-03
      4.34404879e-04 2.60642916e-03 0. 7.81928748e-03 8.68809759e-04 0.
      2.17202445e-03 1.73761952e-03 3.04083410e-03 1.73761952e-03 0.
      8.68809759e-04 0. 4.34404879e-04 2.60642916e-03 0. 8.68809759e-04
      8.68809759e-04 0. 0. 0. 4.34404879e-04 4.34404879e-04 0.
      4.34404891e-03 4.34404891e-03 8.68809759e-04 1.30321458e-03
      1.73761952e-03 0. 1.30321458e-03 0. 4.34404879e-04 2.17202445e-03
      4.34404879e-04 2.17202445e-03 1.30321458e-03 0. 0. 4.34404879e-04
      8.68809759e-04 4.34404879e-04 0. 5.64726349e-03 3.04083410e-03
      4.34404879e-04 9.55690723e-03 8.68809759e-04 4.34404879e-04
      1.30321458e-03 4.34404879e-04 3.04083410e-03 8.68809759e-04
      4.34404879e-04 8.68809782e-03 4.34404879e-04 5.21285832e-03
      8.68809759e-04 8.68809759e-04 1.30321458e-03 0. 0. 6.95047807e-03
      1.73761952e-03 1.73761952e-03 1.73761952e-03 3.90964374e-03
      4.34404879e-04 3.04083410e-03 0. 2.17202445e-03 0. 4.34404879e-04
      1.73761952e-03 8.68809759e-04 8.68809759e-04 1.30321458e-03 0.
      2.60642916e-03 2.60642916e-03 1.30321458e-03 1.73761952e-03
      2.60642916e-03 2.17202445e-03 1.73761952e-03 6.51607336e-03
      7.38488277e-03 0. 1.95482187e-02 0. 8.68809759e-04 0.
      8.68809759e-04 4.34404879e-04 0. 1.30321467e-02 4.34404879e-04
      3.04083410e-03 2.60642916e-03 0. 3.90964374e-03 0. 8.68809759e-04
      8.68809759e-04 0. 6.95047807e-03 6.51607336e-03 1.30321458e-03
      7.38488277e-03 3.04083410e-03 4.34404891e-03 8.68809759e-04
      8.68809782e-03 2.17202445e-03 4.34404879e-04 4.34404879e-04
      1.73761952e-03 0. 8.68809782e-03 1.30321458e-03 1.30321458e-03
      4.34404879e-04 3.04083410e-03 2.17202445e-03 1.73761952e-03
      7.38488277e-03 8.68809759e-04 1.73761952e-03 7.81928748e-03 0.
      1.73761952e-03 8.68809759e-04 0. 0. 7.81928748e-03 2.17202445e-03
      0. 1.30321458e-03 2.17202445e-03 4.34404879e-04 4.34404879e-04
      4.34404879e-04 1.30321458e-03 1.56385750e-02 1.73761952e-03
      3.47523903e-03 2.17202445e-03 8.68809759e-04 3.04083410e-03
      6.08166819e-03 4.34404879e-04 4.34404879e-04 1.30321458e-03
      2.17202445e-03 0. 0. 4.34404879e-04 2.17202445e-03 9.12250206e-03
      1.73761952e-03 1.30321458e-03 4.34404879e-04 1.73761952e-03
      2.17202445e-03 9.12250206e-03 4.34404879e-04 0. 4.34404879e-04
      8.68809759e-04 1.30321458e-03 4.34404879e-04 1.30321458e-03
      1.30321458e-03 6.95047807e-03 5.64726349e-03 3.47523903e-03
      4.34404879e-04 3.47523903e-03 1.73761952e-03 4.34404879e-04
      8.68809759e-04 0. 0. 4.34404879e-04 8.68809759e-04 1.30321458e-03
      8.68809759e-04 0. 2.17202445e-03 2.17202445e-03 8.68809759e-04
      1.30321458e-03 3.04083410e-03 4.34404879e-04 1.30321458e-03
      8.68809759e-04 1.30321458e-03 4.34404879e-04 2.60642916e-03 0.
      1.73761952e-03 1.73761952e-03 0. 0. 4.34404879e-04 1.17289321e-02
      0. 4.34404879e-04 1.30321458e-03 2.17202445e-03 4.34404879e-04
      6.08166819e-03 0. 4.34404879e-04 1.30321458e-03 4.34404879e-04
      7.38488277e-03 4.34404879e-04 0. 4.34404879e-04 1.30321458e-03
      2.60642916e-03 4.34404879e-04 0. 1.30321458e-03 4.77845361e-03
      4.34404879e-04 1.73761952e-03 6.95047807e-03 4.34404879e-04
      4.77845361e-03 4.34404879e-04 0. 6.08166819e-03 5.21285832e-03 0.
      0. 4.34404879e-04 8.68809759e-04 4.34404879e-04 0. 3.90964374e-03
      1.30321458e-03 0. 2.17202445e-03 0. 0. 2.60642916e-03
      2.60642916e-03 8.68809759e-04 0. 0. 4.34404879e-04 0.
      4.34404879e-04 0. 3.47523903e-03 1.73761952e-03 8.68809759e-04
      8.68809759e-04 1.73761952e-03 3.90964374e-03 2.17202445e-03
      1.30321458e-03 8.68809759e-04 3.04083410e-03 0. 4.34404879e-04
      4.34404891e-03 4.34404879e-04 2.60642916e-03 4.34404879e-04
      8.68809759e-04 0. 4.34404891e-03 4.34404879e-04 6.95047807e-03
      4.34404879e-04 5.21285832e-03 1.30321458e-03 0. 1.30321458e-03
      3.90964374e-03 4.34404879e-04 0. 0. 5.64726349e-03 1.30321458e-03
      0. 8.68809759e-04 4.34404879e-04 4.34404891e-03 1.30321458e-03
      8.68809759e-04 2.60642916e-03 5.64726349e-03 0. 2.17202445e-03 0.
      2.17202445e-03 2.60642916e-03 2.60642916e-03 1.73761952e-03 0.
      1.30321458e-03 1.73761952e-03 2.47610789e-02 0. 4.34404879e-04 0.
      1.08601218e-02 0. 1.30321458e-03 9.12250206e-03 1.73761952e-03
      8.68809759e-04 4.34404879e-04 0. 1.73761952e-03 0. 8.68809759e-04
      0. 0. 4.34404879e-04 5.21285832e-03 1.30321458e-03 1.73761952e-03
      4.34404879e-04 3.47523903e-03 8.68809759e-04 3.47523903e-03
      4.34404879e-04 1.73761952e-03 4.34404879e-04 2.60642916e-03
      4.77845361e-03 1.30321458e-03 4.34404879e-04 1.30321458e-03
      2.17202445e-03 4.34404879e-04 1.52041707e-02 0. 0. 4.34404879e-04
      2.60642916e-03 8.68809759e-04 0. 1.30321458e-03 6.51607336e-03
      2.60642916e-03 4.34404879e-04 3.04083410e-03 6.51607336e-03
      2.17202445e-03 5.21285832e-03 3.90964374e-03 8.68809759e-04
      1.30321458e-03 4.34404879e-04 2.60642916e-03 3.04083410e-03 0. 0.
      8.68809759e-04 0. 6.08166819e-03 8.68809759e-04 2.60642916e-03
      4.77845361e-03 1.30321458e-03 3.47523903e-03 4.34404879e-04
      8.68809759e-04 4.34404879e-04 4.34404879e-04 8.68809759e-04
      1.30321458e-03 4.34404879e-04 4.34404879e-04 3.47523903e-03 0.
      8.68809759e-04 2.17202445e-03 3.90964374e-03 4.34404879e-04 0. 0.
      8.68809759e-04 4.34404879e-04 3.04083410e-03 0. 0. 5.21285832e-03
      4.34404879e-04 0. 0. 2.17202445e-03 1.04257166e-02 1.30321458e-03
      0. 4.34404879e-04 6.95047807e-03 1.73761952e-03 0. 1.73761952e-03
      0. 4.34404879e-04 0. 0.</_>
    <_>
      4.42869787e-04 0. 4.42869775e-03 3.10008856e-03 8.85739573e-04
      4.42869787e-04 4.42869787e-04 4.42869787e-04 8.85739573e-04
      4.42869787e-04 3.54295829e-03 4.42869787e-04 0. 8.85739573e-04
      7.08591659e-03 1.32860942e-03 0. 4.42869787e-04 1.77147915e-03
      2.65721884e-03 1.32860942e-03 3.98582825e-03 3.10008856e-03
      2.21434887e-03 4.42869787e-04 1.32860942e-03 1.77147915e-03
      4.42869787e-04 5.75730717e-03 3.54295829e-03 7.52878655e-03
      2.65721884e-03 1.32860942e-03 1.32860942e-03 4.42869787e-04
      8.85739573e-04 2.65721884e-03 8.85739573e-04 8.85739573e-04 0.
      1.32860932e-02 3.10008856e-03 1.77147915e-03 4.42869787e-04
      4.42869787e-04 2.65721884e-03 1.24003543e-02 2.21434887e-03
      1.32860942e-03 3.98582825e-03 0. 3.98582825e-03 1.32860942e-03
      3.10008856e-03 1.32860942e-03 2.65721884e-03 7.52878655e-03
      4.42869787e-04 0. 2.21434887e-03 4.42869787e-04 4.87156771e-03 0.
      0. 9.74313542e-03 1.77147915e-03 1.32860942e-03 8.85739573e-04
      4.42869787e-04 8.85739573e-04 9.74313542e-03 4.42869787e-04
      4.42869787e-04 4.42869787e-04 1.32860942e-03 8.85739573e-04
      8.85739573e-04 4.87156771e-03 2.65721884e-03 0. 0. 4.42869775e-03
      8.41452554e-03 0. 1.32860942e-03 1.77147915e-03 3.98582825e-03
      8.85739573e-04 1.77147915e-03 5.31443767e-03 4.42869787e-04
      1.32860942e-03 8.85739573e-04 5.31443767e-03 4.42869787e-04
      8.85739573e-04 1.77147915e-03 1.77147915e-03 8.85739573e-04
      1.32860942e-03 8.85739573e-04 2.21434887e-03 0. 0. 1.32860942e-03
      4.42869787e-04 0. 1.32860942e-03 4.42869787e-04 0. 0.
      8.85739573e-04 4.42869787e-04 4.42869787e-04 3.98582825e-03
      2.21434887e-03 1.77147915e-03 8.85739573e-04 8.85739573e-04
      1.32860942e-03 2.21434887e-03 8.85739573e-04 0. 2.21434887e-03
      2.21434887e-03 0. 4.42869787e-04 1.32860942e-03 8.85739573e-04
      1.77147915e-03 3.54295829e-03 4.42869787e-04 4.42869787e-04
      4.42869775e-03 3.10008856e-03 4.42869787e-04 9.30026546e-03 0.
      2.21434887e-03 1.77147915e-03 0. 8.85739573e-04 0. 4.42869787e-04
      2.21434887e-03 0. 5.31443767e-03 4.42869787e-04 5.31443767e-03
      1.32860942e-03 0. 0. 4.42869775e-03 5.31443767e-03 2.21434887e-03
      2.65721884e-03 8.85739573e-04 8.85739573e-04 2.21434887e-03
      4.42869787e-04 6.20017713e-03 1.32860942e-03 4.42869787e-04
      8.85739573e-04 1.77147915e-03 0. 1.10717444e-02 4.42869787e-04
      1.32860942e-03 3.98582825e-03 0. 2.65721884e-03 2.65721884e-03
      4.87156771e-03 5.75730717e-03 3.10008856e-03 1.15146143e-02
      1.77147915e-03 4.42869775e-03 1.32860942e-03 8.85739573e-04
      4.42869787e-04 8.85739573e-04 1.32860942e-03 0. 7.97165651e-03
      4.42869787e-04 4.42869775e-03 1.32860942e-03 0. 7.97165651e-03
      4.42869787e-04 4.42869787e-04 1.77147915e-03 8.85739573e-04
      7.52878655e-03 4.87156771e-03 3.10008856e-03 6.20017713e-03
      3.10008856e-03 2.21434887e-03 1.32860942e-03 7.97165651e-03
      2.65721884e-03 8.85739573e-04 8.85739573e-04 2.21434887e-03 0.
      1.32860932e-02 1.32860942e-03 1.32860942e-03 8.85739573e-04
      3.10008856e-03 4.42869787e-04 2.21434887e-03 1.19574843e-02
      4.42869787e-04 1.32860942e-03 7.52878655e-03 8.85739573e-04
      1.32860942e-03 1.32860942e-03 0. 1.32860942e-03 7.52878655e-03
      4.42869787e-04 0. 8.85739573e-04 6.64304662e-03 1.32860942e-03
      8.85739573e-04 2.21434887e-03 3.10008856e-03 2.65721884e-03 0.
      1.32860942e-03 8.85739573e-04 1.32860942e-03 2.21434887e-03
      9.30026546e-03 1.77147915e-03 1.77147915e-03 0. 1.77147915e-03
      4.42869787e-04 8.85739573e-04 8.85739573e-04 3.98582825e-03
      3.10008856e-03 8.85739573e-04 8.85739573e-04 1.32860942e-03
      1.32860942e-03 4.42869787e-04 2.65721884e-03 1.32860942e-03
      8.85739573e-04 8.85739573e-04 2.21434887e-03 4.42869787e-04
      4.42869787e-04 4.42869787e-04 1.32860942e-03 6.20017713e-03
      3.54295829e-03 8.85739573e-04 8.85739573e-04 2.21434887e-03
      2.65721884e-03 4.42869787e-04 2.21434887e-03 4.42869787e-04 0.
      1.32860942e-03 8.85739573e-04 8.85739573e-04 8.85739573e-04 0.
      4.42869787e-04 8.85739573e-04 3.98582825e-03 1.32860942e-03
      3.54295829e-03 0. 4.42869775e-03 8.85739573e-04 8.85739573e-04 0.
      3.98582825e-03 4.42869787e-04 2.65721884e-03 2.65721884e-03
      8.85739573e-04 0. 0. 8.85739573e-04 8.85739573e-04 4.42869787e-04
      4.42869787e-04 4.42869787e-04 1.32860942e-03 5.31443767e-03 0. 0.
      4.42869775e-03 0. 7.97165651e-03 1.32860942e-03 4.42869787e-04
      4.42869787e-04 4.42869787e-04 5.75730717e-03 0. 8.85739573e-04
      2.65721884e-03 1.15146143e-02 0. 2.21434887e-03 5.75730717e-03
      4.42869787e-04 3.98582825e-03 2.65721884e-03 3.10008856e-03
      3.54295829e-03 7.08591659e-03 2.21434887e-03 4.42869787e-04 0.
      8.85739573e-04 1.32860942e-03 4.42869787e-04 2.65721884e-03
      2.21434887e-03 4.42869787e-04 3.98582825e-03 0. 1.77147915e-03
      8.85739573e-04 1.32860942e-03 4.42869787e-04 4.87156771e-03
      1.32860942e-03 1.32860942e-03 4.42869787e-04 1.32860942e-03 0.
      2.65721884e-03 3.10008856e-03 4.87156771e-03 3.54295829e-03
      4.42869787e-04 8.85739573e-04 2.21434887e-03 0. 1.32860942e-03
      4.42869787e-04 0. 8.85739573e-04 3.10008856e-03 0. 4.42869787e-04
      4.42869787e-04 8.85739573e-04 4.42869787e-04 1.77147915e-03
      4.42869787e-04 6.64304662e-03 0. 3.10008856e-03 8.85739573e-04 0.
      4.42869787e-04 1.77147915e-03 8.85739573e-04 0. 2.21434887e-03
      1.77147915e-03 8.85739573e-04 0. 1.32860942e-03 3.54295829e-03
      4.42869787e-04 8.85739573e-04 2.21434887e-03 1.77147915e-03
      1.32860942e-03 8.85739573e-04 4.87156771e-03 4.42869787e-04
      5.75730717e-03 1.77147915e-03 4.42869775e-03 3.10008856e-03
      4.42869787e-04 4.42869787e-04 3.98582825e-03 4.87156771e-03 0.
      4.42869787e-04 7.08591659e-03 1.68290511e-02 0. 8.85739573e-04
      5.31443767e-03 1.32860942e-03 4.42869787e-04 0. 0. 8.85739573e-04
      4.42869787e-04 4.42869787e-04 8.85739573e-04 0. 8.85739573e-04
      1.41718332e-02 1.32860942e-03 2.21434887e-03 0. 4.42869787e-04 0.
      2.21434887e-03 0. 8.85739573e-04 4.42869787e-04 4.42869787e-04
      1.32860942e-03 4.42869787e-04 4.42869787e-04 4.42869787e-04
      2.21434887e-03 0. 6.64304662e-03 0. 8.85739573e-04 4.42869787e-04
      2.21434887e-03 0. 8.85739573e-04 1.32860942e-03 8.41452554e-03
      2.65721884e-03 0. 3.54295829e-03 1.28432242e-02 3.98582825e-03
      5.31443767e-03 4.42869775e-03 4.42869787e-04 8.85739573e-04
      4.42869787e-04 1.32860942e-03 5.31443767e-03 1.32860942e-03 0.
      1.32860942e-03 4.42869787e-04 5.31443767e-03 8.85739573e-04
      3.54295829e-03 4.42869775e-03 0. 8.85739573e-04 8.85739573e-04
      1.32860942e-03 8.85739573e-04 4.42869787e-04 8.85739573e-04
      1.77147915e-03 0. 8.85739573e-04 1.77147915e-03 8.85739573e-04 0.
      1.77147915e-03 2.21434887e-03 8.85739573e-04 0. 8.85739573e-04
      1.77147915e-03 4.42869787e-04 4.87156771e-03 1.32860942e-03
      4.42869787e-04 2.65721884e-03 4.42869787e-04 4.42869787e-04 0.
      4.42869787e-04 4.87156771e-03 1.32860942e-03 0. 4.42869787e-04
      3.98582825e-03 2.21434887e-03 4.42869787e-04 4.42869787e-04
      4.42869787e-04 8.85739573e-04 4.42869787e-04 0.</_>
    <_>
      3.10298009e-03 2.00400804e-03 2.32723518e-03 3.74943437e-03
      2.39188061e-03 1.42219930e-03 1.55149004e-03 1.42219930e-03
      4.46053408e-03 1.35755388e-03 2.26258975e-03 1.74542633e-03
      9.05035879e-04 2.19794433e-03 1.16361759e-03 1.29290845e-03
      3.23227094e-03 1.68078090e-03 1.93936261e-03 3.62014351e-03
      3.87872511e-04 5.81808796e-04 2.65046232e-03 1.74542633e-03
      2.65046232e-03 3.42620723e-03 2.19794433e-03 1.29290845e-03
      1.68078090e-03 3.55549809e-03 1.35755388e-03 3.16762552e-03
      1.48684473e-03 2.06865347e-03 2.32723518e-03 1.55149004e-03
      1.16361759e-03 1.03432673e-03 2.45652604e-03 1.03432673e-03
      1.29290845e-03 3.36156180e-03 6.46454224e-04 1.16361759e-03
      1.61613547e-03 1.22826302e-03 6.46454224e-04 1.48684473e-03
      1.61613547e-03 1.55149004e-03 1.87471719e-03 2.19794433e-03
      2.26258975e-03 2.06865347e-03 2.90904404e-03 2.26258975e-03
      5.17163367e-04 3.03833489e-03 2.26258975e-03 2.97368946e-03
      1.81007176e-03 1.55149004e-03 1.42219930e-03 2.97368946e-03
      2.77975318e-03 1.68078090e-03 3.03833489e-03 3.29691637e-03
      2.77975318e-03 1.81007176e-03 6.46454224e-04 2.58581690e-03
      1.09897216e-03 2.19794433e-03 1.42219930e-03 2.65046232e-03
      1.61613547e-03 2.26258975e-03 1.61613547e-03 9.05035879e-04
      1.74542633e-03 2.39188061e-03 6.46454224e-04 1.09897216e-03
      2.00400804e-03 1.03432673e-03 3.16762552e-03 1.87471719e-03
      1.74542633e-03 1.03432673e-03 1.55149004e-03 1.48684473e-03
      2.13329890e-03 9.05035879e-04 1.68078090e-03 2.77975318e-03
      1.68078090e-03 1.55149004e-03 2.52117147e-03 1.74542633e-03
      1.61613547e-03 2.77975318e-03 2.32723518e-03 1.29290845e-03
      1.35755388e-03 1.61613547e-03 2.00400804e-03 2.13329890e-03
      1.61613547e-03 1.81007176e-03 1.29290845e-03 1.55149004e-03
      1.74542633e-03 1.61613547e-03 1.29290845e-03 2.26258975e-03
      2.58581690e-03 4.39588865e-03 2.97368946e-03 1.48684473e-03
      2.77975318e-03 1.93936261e-03 1.16361759e-03 1.68078090e-03
      3.16762552e-03 2.77975318e-03 3.68478894e-03 1.68078090e-03
      2.06865347e-03 1.61613547e-03 2.13329890e-03 2.26258975e-03
      2.32723518e-03 1.68078090e-03 1.29290845e-03 9.05035879e-04
      1.29290845e-03 2.45652604e-03 4.26659780e-03 1.09897216e-03
      1.74542633e-03 1.93936261e-03 3.03833489e-03 2.13329890e-03
      1.74542633e-03 1.61613547e-03 1.22826302e-03 2.39188061e-03
      1.29290842e-04 2.26258975e-03 2.19794433e-03 2.06865347e-03
      1.87471719e-03 2.39188061e-03 3.49085266e-03 1.29290845e-03
      1.68078090e-03 1.74542633e-03 1.09897216e-03 2.39188061e-03
      1.81007176e-03 1.22826302e-03 2.97368946e-03 1.55149004e-03
      2.71510775e-03 1.81007176e-03 2.06865347e-03 2.77975318e-03
      2.19794433e-03 1.68078090e-03 2.45652604e-03 8.40390450e-04
      1.68078090e-03 2.00400804e-03 1.81007176e-03 2.90904404e-03
      1.42219930e-03 2.71510775e-03 1.81007176e-03 1.93936261e-03
      2.19794433e-03 1.74542633e-03 3.23227094e-03 1.81007176e-03
      1.29290845e-03 2.45652604e-03 1.74542633e-03 1.55149004e-03
      1.42219930e-03 9.69681307e-04 1.29290845e-03 2.71510775e-03
      1.42219930e-03 2.90904404e-03 2.26258975e-03 1.55149004e-03
      2.77975318e-03 1.29290845e-03 2.90904404e-03 4.78376122e-03
      3.55549809e-03 1.55149004e-03 1.61613547e-03 7.11099652e-04
      1.42219930e-03 2.00400804e-03 3.23227094e-03 1.48684473e-03
      1.16361759e-03 3.42620723e-03 4.33124322e-03 2.97368946e-03
      4.65447037e-03 2.65046232e-03 2.39188061e-03 2.65046232e-03
      2.32723518e-03 1.55149004e-03 3.03833489e-03 3.42620723e-03
      2.90904404e-03 2.97368946e-03 2.13329890e-03 1.09897216e-03
      1.55149004e-03 2.58581690e-03 1.93936261e-03 1.68078090e-03
      1.16361759e-03 1.61613547e-03 2.52117147e-03 1.35755388e-03
      2.19794433e-03 5.81808796e-04 2.77975318e-03 2.52117147e-03
      7.11099652e-04 1.29290845e-03 3.16762552e-03 1.16361759e-03
      1.48684473e-03 1.74542633e-03 1.87471719e-03 2.39188061e-03
      1.74542633e-03 1.68078090e-03 3.16762552e-03 2.97368946e-03
      1.29290845e-03 1.68078090e-03 2.13329890e-03 2.26258975e-03
      1.29290845e-03 1.42219930e-03 1.93936261e-03 2.77975318e-03
      1.81007176e-03 2.26258975e-03 9.69681307e-04 8.40390450e-04
      1.68078090e-03 1.55149004e-03 2.19794433e-03 1.74542633e-03
      1.61613547e-03 3.68478894e-03 1.42219930e-03 3.10298009e-03
      1.61613547e-03 2.65046232e-03 1.61613547e-03 3.23227094e-03
      3.81407980e-03 2.84439861e-03 1.87471719e-03 2.06865347e-03
      1.87471719e-03 8.40390450e-04 1.55149004e-03 1.68078090e-03
      2.77975318e-03 1.35755388e-03 6.46454224e-04 1.61613547e-03
      2.65046232e-03 2.13329890e-03 2.84439861e-03 1.35755388e-03
      3.74943437e-03 1.42219930e-03 1.42219930e-03 1.03432673e-03
      2.32723518e-03 2.13329890e-03 2.84439861e-03 3.87872511e-04
      2.45652604e-03 1.42219930e-03 1.87471719e-03 1.61613547e-03
      1.35755388e-03 2.00400804e-03 2.26258975e-03 2.52117147e-03
      1.68078090e-03 1.55149004e-03 3.29691637e-03 2.45652604e-03
      1.16361759e-03 3.16762552e-03 2.52117147e-03 6.46454224e-04
      2.39188061e-03 2.06865347e-03 2.39188061e-03 3.36156180e-03
      2.00400804e-03 6.46454224e-04 1.81007176e-03 1.81007176e-03
      1.22826302e-03 1.74542633e-03 1.93936261e-03 1.42219930e-03
      2.32723518e-03 2.52117147e-03 3.03833489e-03 1.09897216e-03
      2.52117147e-03 2.19794433e-03 2.00400804e-03 1.61613547e-03
      2.65046232e-03 2.58581690e-03 7.11099652e-04 1.35755388e-03
      1.93936261e-03 1.74542633e-03 2.26258975e-03 2.90904404e-03
      1.55149004e-03 2.58581690e-03 1.55149004e-03 9.05035879e-04
      1.42219930e-03 2.19794433e-03 1.48684473e-03 9.69681307e-04
      2.26258975e-03 1.55149004e-03 2.45652604e-03 3.23227094e-03
      2.39188061e-03 1.74542633e-03 3.10298009e-03 3.03833489e-03
      2.32723518e-03 2.00400804e-03 2.90904404e-03 1.81007176e-03
      6.46454224e-04 1.74542633e-03 1.61613547e-03 1.68078090e-03
      3.03833489e-03 2.13329890e-03 3.10298009e-03 1.87471719e-03
      1.09897216e-03 8.40390450e-04 2.00400804e-03 1.74542633e-03
      1.42219930e-03 1.74542633e-03 1.35755388e-03 1.74542633e-03
      1.48684473e-03 1.81007176e-03 1.87471719e-03 2.71510775e-03
      2.65046232e-03 6.46454224e-04 2.58581690e-03 4.52517939e-04
      1.16361759e-03 5.17163367e-04 2.65046232e-03 9.69681307e-04
      1.93936261e-03 4.65447037e-03 2.26258975e-03 2.13329890e-03
      1.09897216e-03 3.62014351e-03 3.29691637e-03 1.48684473e-03
      6.46454224e-04 2.00400804e-03 1.68078090e-03 6.46454224e-04
      1.29290842e-04 1.03432673e-03 1.93936261e-03 2.52117147e-03
      1.61613547e-03 3.10298009e-03 9.69681307e-04 1.68078090e-03
      1.61613547e-03 1.22826302e-03 2.19794433e-03 1.61613547e-03
      1.16361759e-03 2.19794433e-03 1.09897216e-03 3.23227094e-03
      1.03432673e-03 2.19794433e-03 2.52117147e-03 2.71510775e-03
      8.40390450e-04 4.07266151e-03 1.29290845e-03 8.40390450e-04
      2.84439861e-03 2.13329890e-03 1.55149004e-03 1.29290845e-03
      2.77975318e-03 1.22826302e-03 1.55149004e-03 2.77975318e-03
      1.87471719e-03 3.42620723e-03 2.84439861e-03 4.20195237e-03
      2.39188061e-03 7.75745022e-04 3.36156180e-03 1.87471719e-03
      1.35755388e-03 1.74542633e-03 3.23227094e-03 7.11099652e-04
      1.93936261e-03 1.09897216e-03 4.00801608e-03 1.35755388e-03
      2.19794433e-03 2.26258975e-03 1.16361759e-03 1.35755388e-03
      2.32723518e-03 1.74542633e-03 1.55149004e-03 2.52117147e-03
      1.29290845e-03 2.71510775e-03 2.52117147e-03 6.46454224e-04
      1.09897216e-03 1.74542633e-03 2.97368946e-03 1.81007176e-03
      1.48684473e-03 3.42620723e-03 2.58581690e-03 1.74542633e-03
      9.69681307e-04 2.19794433e-03 1.35755388e-03 1.48684473e-03
      1.93936261e-03 2.00400804e-03 4.58982494e-03 2.26258975e-03
      1.48684473e-03 2.65046232e-03 9.69681307e-04 1.81007176e-03
      9.69681307e-04 3.29691637e-03 2.00400804e-03 4.65447037e-03
      9.69681307e-04 1.03432673e-03 1.29290845e-03 1.68078090e-03
      1.68078090e-03 3.42620723e-03 1.48684473e-03 2.97368946e-03
      1.61613547e-03 3.49085266e-03 3.16762552e-03 2.39188061e-03
      1.29290845e-03 1.35755388e-03 2.90904404e-03 1.55149004e-03</_>
    <_>
      0. 3.29163903e-03 0. 2.63331132e-03 6.58327830e-04 0.
      1.31665566e-03 1.97498361e-03 3.94996721e-03 5.26662264e-03
      7.24160625e-03 0. 0. 1.97498361e-03 4.60829493e-03 6.58327830e-04
      6.58327830e-04 1.31665566e-03 2.63331132e-03 3.29163903e-03
      1.31665566e-03 1.31665566e-03 0. 1.31665566e-03 0. 0.
      3.29163903e-03 0. 4.60829493e-03 5.26662264e-03 4.60829493e-03
      1.97498361e-03 1.31665566e-03 1.97498361e-03 1.31665566e-03
      1.31665566e-03 1.97498361e-03 1.31665566e-03 0. 0. 1.11915730e-02
      5.26662264e-03 0. 1.31665566e-03 0. 5.26662264e-03 7.24160625e-03
      4.60829493e-03 0. 0. 6.58327830e-04 2.63331132e-03 1.97498361e-03
      1.97498361e-03 6.58327830e-04 1.97498361e-03 6.58327807e-03
      1.97498361e-03 0. 6.58327830e-04 0. 1.31665566e-03 0. 0.
      1.05332453e-02 3.94996721e-03 0. 6.58327830e-04 6.58327830e-04 0.
      3.29163903e-03 6.58327830e-04 0. 1.97498361e-03 4.60829493e-03
      3.94996721e-03 1.31665566e-03 5.26662264e-03 2.63331132e-03 0.
      6.58327830e-04 8.55826214e-03 4.60829493e-03 6.58327830e-04
      2.63331132e-03 1.31665566e-03 2.63331132e-03 1.31665566e-03
      1.97498361e-03 6.58327807e-03 1.97498361e-03 1.97498361e-03
      6.58327830e-04 3.29163903e-03 0. 6.58327830e-04 6.58327830e-04
      1.31665566e-03 1.31665566e-03 6.58327830e-04 0. 0. 6.58327830e-04
      6.58327830e-04 5.26662264e-03 1.31665566e-03 6.58327830e-04
      1.31665566e-03 0. 6.58327830e-04 6.58327830e-04 0. 0. 0.
      5.92495035e-03 6.58327830e-04 1.97498361e-03 1.97498361e-03
      1.97498361e-03 6.58327830e-04 2.63331132e-03 1.31665566e-03 0.
      1.97498361e-03 1.97498361e-03 2.63331132e-03 1.31665566e-03 0.
      6.58327830e-04 6.58327830e-04 1.31665566e-03 1.31665566e-03
      1.97498361e-03 1.51415402e-02 6.58327807e-03 1.31665566e-03
      6.58327807e-03 1.31665566e-03 3.29163903e-03 6.58327830e-04
      6.58327830e-04 3.29163903e-03 6.58327830e-04 0. 4.60829493e-03
      1.31665566e-03 3.94996721e-03 6.58327830e-04 6.58327830e-04 0.
      1.97498361e-03 6.58327830e-04 1.05332453e-02 5.26662264e-03
      2.63331132e-03 1.31665566e-03 1.97498361e-03 0. 3.94996721e-03 0.
      7.89993443e-03 0. 0. 1.31665566e-03 0. 0. 1.31665566e-03 0. 0.
      2.63331132e-03 0. 5.92495035e-03 2.63331132e-03 5.26662264e-03
      6.58327830e-04 2.63331132e-03 6.58327807e-03 6.58327830e-04
      5.92495035e-03 6.58327830e-04 1.31665566e-03 0. 6.58327830e-04
      1.97498361e-03 0. 9.87491757e-03 0. 1.97498361e-03 1.97498361e-03
      0. 5.26662264e-03 6.58327830e-04 1.31665566e-03 1.31665566e-03 0.
      7.89993443e-03 3.94996721e-03 1.31665566e-03 5.92495035e-03
      3.94996721e-03 6.58327807e-03 6.58327830e-04 5.26662264e-03
      5.26662264e-03 6.58327830e-04 6.58327830e-04 2.63331132e-03 0.
      2.04081628e-02 2.63331132e-03 3.29163903e-03 2.63331132e-03
      2.63331132e-03 6.58327830e-04 3.29163903e-03 5.92495035e-03
      1.97498361e-03 2.63331132e-03 9.21658985e-03 6.58327830e-04
      3.29163903e-03 1.31665566e-03 0. 6.58327830e-04 1.31665566e-03
      1.31665566e-03 6.58327830e-04 1.31665566e-03 2.63331132e-03
      2.63331132e-03 6.58327830e-04 0. 1.97498361e-03 1.31665566e-03 0.
      1.31665566e-03 8.55826214e-03 6.58327830e-04 1.31665566e-03
      8.55826214e-03 1.31665566e-03 6.58327830e-04 0. 1.97498361e-03
      1.31665566e-03 0. 1.97498361e-03 0. 5.26662264e-03 1.31665566e-03
      3.29163903e-03 0. 6.58327830e-04 1.97498361e-03 2.63331132e-03 0.
      6.58327830e-04 0. 6.58327830e-04 6.58327830e-04 1.97498361e-03
      1.31665566e-03 6.58327830e-04 1.97498361e-03 8.55826214e-03
      1.31665566e-03 1.31665566e-03 1.31665566e-03 2.63331132e-03 0.
      3.94996721e-03 0. 1.31665566e-03 1.31665566e-03 1.97498361e-03
      6.58327830e-04 1.31665566e-03 0. 0. 0. 1.31665566e-03
      1.97498361e-03 4.60829493e-03 0. 3.29163903e-03 6.58327830e-04
      1.97498361e-03 0. 2.63331132e-03 0. 6.58327830e-04 4.60829493e-03
      1.31665566e-03 2.63331132e-03 2.63331132e-03 1.31665566e-03 0.
      6.58327830e-04 3.29163903e-03 6.58327830e-04 6.58327830e-04
      2.63331132e-03 1.31665566e-03 0. 6.58327830e-04 0. 5.26662264e-03
      1.97498361e-03 6.58327830e-04 6.58327830e-04 0. 2.63331132e-03 0.
      6.58327830e-04 0. 9.87491757e-03 0. 6.58327830e-04 6.58327807e-03
      1.31665566e-03 9.21658985e-03 6.58327830e-04 6.58327830e-04
      1.97498361e-03 5.92495035e-03 1.31665566e-03 1.31665566e-03 0.
      1.97498361e-03 2.63331132e-03 0. 3.29163903e-03 2.63331132e-03 0.
      5.26662264e-03 6.58327830e-04 0. 6.58327830e-04 0. 6.58327830e-04
      6.58327830e-04 1.31665566e-03 0. 0. 1.31665566e-03 0.
      5.92495035e-03 1.31665566e-03 1.97498361e-03 1.31665566e-03 0.
      1.31665566e-03 1.97498361e-03 6.58327830e-04 1.31665566e-03
      4.60829493e-03 6.58327830e-04 6.58327830e-04 7.24160625e-03 0.
      4.60829493e-03 1.31665566e-03 1.97498361e-03 0. 1.31665566e-03
      6.58327830e-04 1.11915730e-02 6.58327830e-04 3.29163903e-03
      3.94996721e-03 0. 0. 3.29163903e-03 1.31665566e-03 0.
      3.29163903e-03 4.60829493e-03 6.58327830e-04 6.58327830e-04
      6.58327830e-04 1.31665566e-03 3.29163903e-03 6.58327830e-04
      3.94996721e-03 2.63331132e-03 7.24160625e-03 1.31665566e-03
      2.63331132e-03 6.58327830e-04 1.97498361e-03 2.63331132e-03 0.
      3.29163903e-03 1.31665566e-03 1.31665566e-03 3.94996721e-03 0. 0.
      6.58327830e-04 6.58327830e-04 5.92495035e-03 0. 0. 4.60829493e-03
      0. 1.97498361e-03 6.58327830e-04 1.31665566e-03 0. 6.58327830e-04
      6.58327830e-04 0. 0. 6.58327830e-04 3.29163903e-03 6.58327830e-04
      1.31665566e-03 6.58327830e-04 1.97498361e-03 0. 3.29163903e-03
      6.58327830e-04 4.60829493e-03 6.58327830e-04 3.29163903e-03
      1.31665566e-03 2.63331132e-03 0. 2.63331132e-03 7.89993443e-03
      6.58327830e-04 5.92495035e-03 0. 6.58327830e-04 6.58327830e-04
      1.97498361e-03 1.97498361e-03 0. 6.58327830e-04 1.05332453e-02
      1.97498361e-03 0. 1.97498361e-03 1.97498361e-03 5.26662264e-03
      5.92495035e-03 1.31665566e-03 6.58327830e-04 6.58327830e-04
      1.97498361e-03 1.97498361e-03 3.94996721e-03 1.31665566e-03 0. 0.
      1.31665566e-03 5.92495035e-03 1.31665566e-03 2.63331132e-03
      6.58327807e-03 6.58327830e-04 3.29163903e-03 3.29163903e-03
      1.97498361e-03 1.31665566e-03 2.63331132e-03 6.58327830e-04
      1.31665566e-03 0. 0. 1.31665566e-03 0. 1.31665566e-03
      1.97498361e-03 2.63331132e-03 6.58327830e-04 6.58327830e-04 0.
      1.97498361e-03 0. 1.31665566e-03 1.31665566e-03 6.58327830e-04
      1.97498361e-03 0. 0. 0. 0. 6.58327807e-03 6.58327830e-04 0.
      1.31665566e-03 9.87491757e-03 6.58327830e-04 6.58327830e-04
      1.31665566e-03 0. 0. 1.97498361e-03 6.58327830e-04</_>
    <_>
      1.51057402e-03 0. 1.51057402e-03 1.51057402e-03 0. 0.
      1.51057402e-03 0. 0. 4.53172205e-03 3.02114803e-03 0. 0.
      1.51057402e-03 3.02114803e-03 0. 0. 0. 3.02114803e-03
      1.51057402e-03 0. 0. 0. 1.51057402e-03 0. 0. 1.51057402e-03 0.
      1.35951657e-02 1.05740186e-02 6.04229607e-03 0. 0. 0. 0. 0. 0. 0.
      0. 0. 6.04229607e-03 4.53172205e-03 0. 0. 0. 2.41691843e-02
      4.53172205e-03 2.41691843e-02 0. 4.53172205e-03 0. 3.02114803e-03
      4.53172205e-03 1.51057402e-03 0. 9.06344410e-03 1.20845921e-02
      1.51057402e-03 1.51057402e-03 1.51057402e-03 0. 3.02114803e-03 0.
      0. 4.53172205e-03 3.02114803e-03 1.51057402e-03 0. 0. 0.
      7.55287008e-03 0. 0. 0. 1.51057402e-03 1.51057402e-03 0.
      1.51057402e-03 3.02114803e-03 0. 0. 6.04229607e-03 7.55287008e-03
      0. 1.05740186e-02 4.53172205e-03 0. 1.51057402e-03 3.02114803e-03
      1.05740186e-02 0. 0. 0. 3.02114803e-03 0. 0. 0. 4.53172205e-03
      1.51057402e-03 4.53172205e-03 0. 0. 0. 0. 1.51057402e-03 0. 0.
      6.04229607e-03 0. 0. 0. 0. 0. 0. 6.04229607e-03 1.51057402e-03 0.
      0. 0. 1.51057402e-03 0. 1.51057402e-03 0. 4.53172205e-03
      1.51057402e-03 0. 1.51057402e-03 0. 1.51057402e-03 1.51057402e-03
      0. 0. 0. 1.51057402e-03 1.51057402e-02 0. 1.05740186e-02 0. 0.
      1.51057402e-03 0. 0. 1.51057402e-03 0. 1.51057402e-02 0.
      4.53172205e-03 1.51057402e-03 0. 3.02114803e-03 0. 0.
      7.55287008e-03 1.51057402e-03 3.02114803e-03 3.02114803e-03 0. 0.
      1.51057402e-03 0. 4.53172205e-03 0. 0. 0. 0. 0. 0. 0.
      1.51057402e-03 1.51057402e-03 1.51057402e-03 1.51057402e-03
      4.53172205e-03 9.06344410e-03 1.51057402e-03 7.55287008e-03
      3.47432010e-02 0. 1.51057402e-03 0. 0. 0. 1.51057402e-03
      1.51057402e-03 0. 1.05740186e-02 0. 0. 6.04229607e-03 0.
      6.04229607e-03 3.02114803e-03 0. 0. 0. 6.04229607e-03
      9.06344410e-03 1.51057402e-03 1.51057402e-03 3.02114803e-03
      6.04229607e-03 0. 9.06344410e-03 1.51057402e-03 0. 1.51057402e-03
      1.05740186e-02 0. 4.53172205e-03 6.04229607e-03 0. 0.
      3.02114803e-03 0. 0. 7.55287008e-03 0. 4.53172205e-03
      1.20845921e-02 0. 0. 1.51057402e-03 0. 0. 1.35951657e-02 0. 0. 0.
      6.04229607e-03 0. 0. 1.51057402e-03 1.51057402e-03 1.51057402e-03
      1.51057402e-03 1.51057402e-02 3.02114803e-03 0. 6.04229607e-03
      6.04229607e-03 0. 4.53172205e-03 0. 6.04229607e-03 1.51057402e-03
      0. 0. 1.51057402e-03 9.06344410e-03 0. 0. 0. 0. 3.02114803e-03
      4.53172205e-03 0. 0. 0. 0. 0. 0. 0. 0. 1.66163146e-02
      3.02114803e-03 1.51057402e-03 0. 1.51057402e-03 0. 0. 0. 0. 0. 0.
      0. 1.51057402e-03 1.51057402e-03 0. 0. 0. 1.51057402e-03 0. 0. 0.
      6.04229607e-03 1.51057402e-03 0. 0. 4.53172205e-03 0.
      3.02114803e-03 1.51057402e-03 0. 0. 4.53172205e-03 1.51057402e-03
      0. 0. 3.02114803e-03 1.51057402e-03 0. 4.53172205e-03 0. 0. 0. 0.
      6.04229607e-03 0. 0. 0. 0. 1.51057402e-03 0. 0. 1.51057402e-03
      9.06344410e-03 0. 0. 1.51057402e-02 0. 0. 0. 0. 1.05740186e-02
      7.55287008e-03 0. 1.51057402e-03 0. 1.51057402e-03 1.51057402e-03
      0. 6.04229607e-03 1.51057402e-03 0. 3.02114803e-03 0. 0.
      1.51057402e-03 0. 0. 1.51057402e-03 0. 1.51057402e-03 0. 0. 0.
      1.96374618e-02 1.51057402e-03 1.51057402e-03 0. 1.51057402e-03
      1.51057402e-03 0. 0. 0. 4.53172205e-03 0. 0. 4.53172205e-03 0.
      3.02114803e-03 0. 0. 0. 3.02114803e-03 0. 1.51057402e-03 0.
      1.96374618e-02 0. 0. 0. 0. 0. 0. 0. 1.51057402e-03 0. 0.
      1.51057402e-03 0. 0. 0. 3.02114803e-03 1.51057402e-03 0.
      1.51057402e-03 1.51057402e-03 0. 0. 4.53172205e-03 0.
      3.02114803e-03 0. 0. 3.02114803e-03 1.51057402e-03 0. 0. 0. 0. 0.
      0. 0. 0. 0. 0. 0. 1.51057402e-03 0. 0. 0. 0. 0. 4.53172205e-03 0.
      1.51057402e-03 3.02114803e-03 3.02114803e-03 0. 1.51057402e-03 0.
      0. 0. 1.51057402e-03 4.53172205e-03 1.51057402e-03 0. 0.
      3.02114803e-03 0. 6.04229607e-03 0. 0. 0. 3.02114803e-03 0. 0.
      4.53172205e-03 6.04229607e-03 0. 0. 0. 3.02114803e-03
      7.55287008e-03 0. 4.53172205e-03 0. 0. 0. 3.02114803e-03
      1.51057402e-03 0. 0. 0. 1.51057402e-03 7.55287008e-03
      3.02114803e-03 3.02114803e-03 1.51057402e-03 0. 0. 0. 0. 0. 0. 0.
      1.51057402e-03 0. 0. 7.55287008e-03 0. 0. 0. 3.02114803e-03 0. 0.
      0. 3.02114803e-03 0. 3.17220539e-02 0. 0. 4.53172205e-03 0. 0. 0.
      3.02114803e-03 7.55287008e-03 0. 0. 0. 2.41691843e-02 0. 0. 0. 0.
      0. 1.51057402e-03 0.</_>
    <_>
      0. 4.32152126e-04 1.72860851e-03 2.16076057e-03 6.05012989e-03
      1.29645644e-03 1.29645644e-03 1.94468454e-03 8.64304253e-04
      1.29645644e-03 5.18582575e-03 6.48228219e-04 8.64304253e-04
      4.32152126e-04 4.32152115e-03 1.08038029e-03 4.32152126e-04
      8.64304253e-04 6.48228219e-04 4.32152126e-04 1.08038029e-03
      4.10544500e-03 1.08038029e-03 1.72860851e-03 8.64304253e-04
      1.29645644e-03 1.29645644e-03 2.16076063e-04 6.48228172e-03
      1.51253247e-03 6.05012989e-03 4.32152126e-04 2.16076063e-04
