<?xml version="1.0"?>
<opencv_storage>
<my_svm type_id="opencv-ml-svm">
  <svm_type>C_SVC</svm_type>
  <kernel><type>RBF</type>
    <gamma>5.0625000000000009e-01</gamma></kernel>
  <C>3.1250000000000000e+02</C>
  <term_criteria><epsilon>1.1920928955078125e-07</epsilon>
    <iterations>50000</iterations></term_criteria>
  <var_all>1000</var_all>
  <var_count>1000</var_count>
  <class_count>2</class_count>
  <class_labels type_id="opencv-matrix">
    <rows>1</rows>
    <cols>2</cols>
    <dt>i</dt>
    <data>
      0 1</data></class_labels>
  <sv_total>120</sv_total>
  <support_vectors>
    <_>
      0. 0. 1.62601622e-03 0. 0. 0. 0. 9.75609757e-03 0. 0. 0. 0. 0. 0.
      1.62601622e-03 0. 0. 0. 1.62601622e-03 0. 0. 1.62601622e-03 0. 0.
      0. 0. 0. 0. 0. 3.25203245e-03 0. 1.62601622e-03 0. 0.
      3.25203245e-03 0. 0. 0. 0. 0. 0. 0. 4.87804879e-03 0. 0.
      1.62601622e-03 0. 0. 0. 0. 0. 4.87804879e-03 0. 0. 3.25203245e-03
      1.62601622e-03 0. 4.87804879e-03 0. 0. 0. 0. 0. 0. 6.50406489e-03
      0. 0. 0. 4.87804879e-03 0. 0. 0. 0. 0. 0. 0. 0. 0. 1.62601622e-03
      9.75609757e-03 0. 0. 9.75609757e-03 0. 3.25203245e-03
      1.62601622e-03 0. 1.62601622e-03 1.62601622e-03 0. 1.30081298e-02
      0. 0. 0. 3.25203245e-03 0. 0. 0. 0. 0. 0. 8.13008100e-03 0. 0. 0.
      0. 0. 0. 0. 8.13008100e-03 0. 0. 0. 0. 0. 3.25203245e-03
      1.46341464e-02 0. 0. 4.87804879e-03 1.62601622e-03 0. 0.
      1.62601622e-03 0. 9.75609757e-03 0. 1.62601622e-03 0. 0. 0. 0. 0.
      0. 1.62601622e-03 0. 0. 0. 0. 0. 0. 0. 0. 0. 0. 0. 0. 0. 0. 0. 0.
      0. 0. 6.50406489e-03 0. 0. 0. 0. 0. 0. 0. 3.25203245e-03
      1.62601622e-03 0. 0. 0. 0. 0. 0. 0. 0. 0. 0. 0. 0. 0.
      6.50406489e-03 0. 0. 1.62601622e-03 0. 0. 0. 0. 0. 0. 0. 0. 0. 0.
      0. 0. 0. 0. 1.30081298e-02 0. 0. 3.25203245e-03 0. 4.87804879e-03
      0. 0. 0. 0. 0. 0. 0. 0. 0. 6.50406489e-03 1.30081298e-02 0. 0. 0.
      0. 3.25203245e-03 0. 0. 6.50406489e-03 0. 0. 0. 0. 0.
      1.62601622e-03 4.87804879e-03 0. 6.50406489e-03 0. 0. 0. 0. 0. 0.
      0. 0. 0. 0. 1.62601622e-03 0. 0. 0. 0. 0. 0. 8.13008100e-03 0. 0.
      0. 0. 0. 3.25203245e-03 0. 0. 0. 0. 0. 0. 6.50406489e-03 0. 0. 0.
      0. 0. 0. 0. 0. 0. 0. 0. 0. 0. 0. 1.62601622e-03 0. 4.87804879e-03
      0. 0. 1.62601622e-03 0. 0. 0. 0. 0. 0. 0. 0. 0. 4.87804879e-03
      3.25203245e-03 0. 0. 0. 0. 0. 0. 0. 0. 0. 4.87804879e-03 0. 0. 0.
      1.62601622e-03 0. 0. 1.62601622e-03 0. 0. 1.13821132e-02 0. 0. 0.
      0. 0. 0. 0. 1.62601622e-03 1.13821132e-02 0. 0. 0. 0.
      6.50406489e-03 1.62601622e-03 3.25203245e-03 0. 0. 0. 0. 0. 0. 0.
      6.50406489e-03 0. 0. 0. 9.75609757e-03 0. 0. 0. 0. 0.
      1.62601622e-03 0. 0. 0. 0. 1.30081298e-02 0. 0. 0. 1.62601622e-03
      0. 1.62601622e-03 0. 0. 0. 0. 0. 0. 0. 4.87804879e-03 0. 0. 0.
      4.87804879e-03 0. 0. 1.62601622e-03 0. 0. 3.25203245e-03 0. 0.
      3.25203245e-03 0. 1.62601622e-03 0. 4.87804879e-03 1.62601622e-03
      0. 0. 0. 0. 8.13008100e-03 0. 0. 1.62601622e-03 0. 0.
      8.13008100e-03 0. 4.87804879e-03 0. 0. 1.62601622e-03 0. 0. 0.
      4.87804879e-03 0. 0. 1.62601622e-03 0. 0. 0. 0. 0. 0. 0.
      1.62601622e-03 0. 0. 0. 0. 0. 0. 0. 0. 0. 0. 0. 0. 1.30081298e-02
      9.75609757e-03 0. 1.62601622e-03 3.25203245e-03 0. 0. 0. 0.
      3.25203245e-03 0. 0. 0. 0. 0. 1.62601622e-03 0. 1.62601622e-03
      6.50406489e-03 0. 1.62601622e-03 0. 0. 1.62601622e-03 0. 0. 0. 0.
      0. 0. 0. 0. 0. 0. 0. 0. 1.62601622e-03 0. 0. 0. 1.62601622e-03
      6.50406489e-03 0. 0. 6.50406489e-03 8.13008100e-03 3.25203245e-03
      0. 0. 0. 0. 0. 0. 0. 0. 0. 1.62601622e-03 0. 0. 0. 0.
      6.50406489e-03 0. 0. 0. 0. 0. 6.50406489e-03 0. 0. 0.
      8.13008100e-03 0. 0. 0. 0. 0. 3.25203245e-03 0. 0. 1.62601622e-03
      1.62601622e-03 0. 0. 0. 0. 0. 0. 0. 9.75609757e-03 1.62601622e-03
      1.62601622e-03 0. 1.13821132e-02 1.62601622e-03 0. 3.25203245e-03
      0. 0. 0. 0. 0. 0. 0. 0. 1.62601622e-03 0. 0. 0. 0. 0. 0. 0.
      1.62601622e-03 0. 0. 3.25203245e-03 0. 0. 0. 0. 0. 0.
      1.62601622e-03 0. 0. 1.62601622e-03 0. 0. 0. 0. 0. 0. 0. 0. 0. 0.
      0. 0. 0. 0. 6.50406489e-03 0. 0. 1.62601622e-03 0. 1.62601622e-03
      0. 8.13008100e-03 0. 0. 1.62601622e-03 1.62601622e-03 0.
      1.62601622e-03 0. 0. 0. 0. 0. 0. 0. 0. 0. 0. 4.87804879e-03
      3.25203245e-03 0. 0. 0. 1.62601622e-03 0. 0. 0. 0. 0. 0. 0. 0. 0.
      0. 0. 0. 0. 0. 0. 0. 3.25203245e-03 0. 0. 0. 0. 8.13008100e-03 0.
      0. 3.25203245e-03 1.62601622e-03 0. 0. 4.87804879e-03 0. 0. 0. 0.
      0. 0. 0. 0. 0. 0. 0. 0. 4.87804879e-03 1.62601622e-03
      1.62601622e-03 0. 0. 3.25203245e-03 0. 0. 0. 0. 1.62601622e-03 0.
      0. 0. 0. 0. 0. 1.62601622e-03 0. 1.62601622e-03 1.62601622e-03
      4.87804879e-03 1.62601622e-03 0. 0. 0. 0. 0. 0. 0. 0. 0. 0. 0.
      6.50406489e-03 1.62601622e-03 0. 0. 4.87804879e-03 0. 0. 0.
      1.78861786e-02 0. 0. 0. 0. 0. 0. 0. 0. 0. 4.87804879e-03 0. 0.
      8.13008100e-03 0. 0. 0. 0. 1.62601620e-02 0. 0. 0. 0. 0. 0. 0. 0.
      0. 1.62601622e-03 0. 2.11382117e-02 0. 0. 0. 0. 0. 0. 0. 0.
      3.25203245e-03 0. 0. 0. 0. 0. 6.50406489e-03 0. 0. 0. 0. 0. 0.
      1.13821132e-02 8.13008100e-03 0. 4.87804879e-03 0. 1.62601622e-03
      0. 0. 1.62601622e-03 0. 0. 0. 0. 0. 1.62601622e-03 0.
      1.62601622e-03 0. 0. 0. 0. 0. 0. 0. 0. 1.30081298e-02 0. 0. 0. 0.
      0. 0. 0. 1.62601622e-03 0. 0. 0. 0. 0. 0. 6.50406489e-03 0. 0. 0.
      0. 0. 0. 0. 4.87804879e-03 3.25203245e-03 1.62601620e-02
      6.50406489e-03 1.62601622e-03 0. 0. 0. 0. 0. 0. 1.62601622e-03
      9.75609757e-03 0. 1.62601622e-03 0. 0. 0. 1.62601622e-03
      1.62601622e-03 0. 0. 0. 0. 1.62601622e-03 0. 0. 0. 0. 0.
      1.62601622e-03 0. 0. 0. 0. 0. 0. 0. 0. 3.25203245e-03 0. 0. 0.
      4.87804879e-03 0. 0. 0. 0. 0. 1.62601622e-03 0. 6.50406489e-03 0.
      0. 0. 0. 0. 0. 0. 0. 0. 0. 9.75609757e-03 0. 0. 0. 0.
      8.13008100e-03 0. 0. 0. 0. 0. 1.62601622e-03 0. 0. 1.62601622e-03
      0. 0. 6.50406489e-03 6.50406489e-03 0. 3.25203245e-03 0. 0. 0.
      4.87804879e-03 1.62601622e-03 0. 6.50406489e-03 0. 0. 0. 0. 0. 0.
      0. 0. 0. 0. 0. 0. 0. 0. 0. 0. 0. 0. 0. 0. 0. 0. 0. 0.
      4.87804879e-03 4.87804879e-03 1.62601622e-03 3.25203245e-03
      3.25203245e-03 0. 0. 0. 0. 0. 0. 1.62601622e-03 0. 0. 0.
      3.25203245e-03 0. 0. 1.62601622e-03 0. 0. 0. 3.25203245e-03 0. 0.
      1.62601622e-03 1.62601622e-03 9.75609757e-03 0. 3.25203245e-03 0.
      0. 0. 0. 0. 0. 0. 0. 0. 1.62601622e-03 0. 0. 0. 0. 0.
      1.62601622e-03 4.87804879e-03 0. 1.62601622e-03 0. 0. 0. 0. 0. 0.
      0. 0. 0. 0. 0. 0. 1.62601622e-03 0. 1.62601622e-03 0. 0. 0. 0. 0.
      0. 8.13008100e-03 0. 0. 0. 0. 0. 0. 4.87804879e-03 4.87804879e-03
      0. 0. 0. 0. 0. 1.62601622e-03 1.62601622e-03 0. 0. 0.
      1.62601622e-03 0. 0. 0. 4.87804879e-03 0. 0. 0. 0. 0.
      9.75609757e-03 0. 9.75609757e-03 0. 0. 1.62601622e-03 0. 0. 0.</_>
    <_>
      1.30321458e-03 0. 0. 0. 0. 0. 1.30321458e-03 4.77845361e-03 0. 0.
      1.73761952e-03 0. 4.34404879e-04 0. 3.04083410e-03 0. 0. 0. 0.
      8.68809759e-04 0. 8.68809759e-04 0. 2.60642916e-03 4.34404879e-04
      0. 0. 0. 0. 4.77845361e-03 0. 1.73761952e-03 0. 8.68809759e-04
      2.17202445e-03 4.34404879e-04 0. 8.68809759e-04 1.30321458e-03 0.
      8.68809759e-04 4.34404879e-04 2.60642916e-03 0. 1.30321458e-03
      8.68809759e-04 4.34404879e-04 0. 0. 8.68809759e-04 3.47523903e-03
      4.77845361e-03 0. 0. 3.04083410e-03 2.60642916e-03 0.
      2.60642916e-03 6.08166819e-03 3.04083410e-03 1.30321458e-03 0. 0.
      8.68809759e-04 1.30321458e-03 0. 4.34404879e-04 0. 1.30321458e-03
      0. 0. 0. 1.73761952e-03 0. 0. 8.68809759e-04 0. 1.73761952e-03
      3.47523903e-03 3.90964374e-03 2.60642916e-03 0. 4.77845361e-03
      4.77845361e-03 8.68809759e-04 0. 0. 8.68809759e-04 0. 0.
      1.12945270e-02 0. 2.60642916e-03 8.68809759e-04 1.73761952e-03
      4.34404879e-04 0. 1.30321458e-03 2.17202445e-03 4.34404879e-04
      1.30321458e-03 2.60642916e-03 0. 2.60642916e-03 0. 0.
      1.73761952e-03 0. 4.34404879e-04 3.47523903e-03 8.68809759e-04
      8.68809759e-04 4.77845361e-03 2.60642916e-03 0. 1.73761952e-03
      2.60642916e-03 1.30321458e-03 8.68809759e-04 7.38488277e-03
      3.90964374e-03 0. 0. 4.34404879e-04 0. 1.73761952e-03
      4.34404879e-04 1.30321458e-03 0. 0. 1.73761952e-03 0.
      8.68809759e-04 4.34404879e-04 8.68809759e-04 4.34404879e-04
      8.68809759e-04 3.47523903e-03 4.34404879e-04 3.04083410e-03 0. 0.
      0. 0. 0. 0. 4.34404879e-04 0. 0. 0. 4.34404879e-04 0.
      4.34404879e-04 3.04083410e-03 0. 8.68809759e-04 0. 4.34404879e-04
      0. 4.34404879e-04 4.34404879e-04 4.34404879e-04 8.68809759e-04
      8.68809759e-04 0. 4.34404879e-04 0. 0. 0. 1.73761952e-03 0. 0. 0.
      4.34404879e-04 8.68809759e-04 8.68809759e-04 2.17202445e-03 0.
      1.73761952e-03 2.17202445e-03 0. 4.34404879e-04 1.30321458e-03 0.
      0. 5.64726349e-03 0. 4.34404879e-04 0. 0. 0. 0. 1.73761952e-03
      4.34404879e-04 4.34404891e-03 4.34404879e-04 0. 4.34404879e-04
      4.34404879e-04 1.73761952e-03 1.73761952e-03 4.34404879e-04
      4.34404879e-04 4.34404879e-04 1.30321458e-03 2.60642916e-03 0.
      4.34404879e-04 2.60642916e-03 8.68809759e-04 3.90964374e-03
      8.68809759e-04 4.34404879e-04 1.73761952e-03 0. 8.68809759e-04
      4.34404879e-04 8.68809759e-04 4.34404891e-03 8.68809759e-04
      8.68809759e-04 4.34404879e-04 0. 4.34404879e-04 3.04083410e-03
      3.47523903e-03 0. 1.30321458e-03 8.68809759e-04 0. 4.34404879e-04
      0. 4.34404879e-04 8.68809759e-04 0. 4.34404879e-04 4.34404879e-04
      8.68809759e-04 4.34404879e-04 8.68809759e-04 1.12945270e-02 0.
      4.34404879e-04 2.60642916e-03 0. 4.77845361e-03 4.34404879e-04 0.
      1.73761952e-03 8.68809759e-04 4.77845361e-03 1.30321458e-03
      8.68809759e-04 1.30321458e-03 4.34404879e-04 8.68809759e-04
      1.73761952e-03 8.68809759e-04 3.47523903e-03 8.68809759e-04
      1.73761952e-03 0. 4.34404879e-04 0. 3.04083410e-03 0. 0. 0. 0. 0.
      8.68809759e-04 0. 3.90964374e-03 3.47523903e-03 0. 8.68809759e-04
      0. 0. 1.30321458e-03 4.34404879e-04 8.68809759e-04 0. 0.
      4.34404891e-03 4.34404879e-04 0. 0. 0. 2.17202445e-03
      1.73761952e-03 8.68809759e-04 8.68809759e-04 0. 4.34404879e-04
      1.30321458e-03 4.34404879e-04 1.30321458e-03 0. 8.68809759e-04
      4.34404879e-04 4.34404879e-04 0. 0. 4.34404879e-04 2.17202445e-03
      3.47523903e-03 8.68809759e-04 4.34404879e-04 4.34404879e-04
      8.68809759e-04 0. 8.68809759e-04 2.60642916e-03 0. 0. 0. 0.
      3.04083410e-03 4.34404891e-03 0. 4.34404879e-04 4.34404879e-04 0.
      8.68809759e-04 8.68809759e-04 4.77845361e-03 0. 4.34404879e-04
      1.30321458e-03 0. 1.73761952e-03 0. 0. 3.04083410e-03
      4.34404879e-04 0. 4.34404879e-04 1.73761952e-03 1.73761952e-03
      2.17202445e-03 1.30321458e-03 0. 0. 2.17202445e-03 0. 0.
      2.60642916e-03 4.34404879e-04 3.47523903e-03 0. 4.34404879e-04 0.
      4.34404879e-04 0. 2.17202445e-03 0. 6.51607336e-03 0.
      4.34404879e-04 1.30321458e-03 1.30321458e-03 4.34404879e-04
      8.68809759e-04 8.68809759e-04 4.34404879e-04 1.73761952e-03 0.
      8.68809759e-04 0. 4.34404879e-04 8.68809759e-04 4.34404879e-04
      1.73761952e-03 0. 0. 1.73761952e-03 1.30321458e-03 2.60642916e-03
      8.68809759e-04 8.68809759e-04 4.34404879e-04 0. 1.30321458e-03 0.
      8.68809759e-04 1.30321458e-03 4.34404879e-04 0. 4.34404879e-04 0.
      4.34404879e-04 2.17202445e-03 8.68809759e-04 6.08166819e-03
      4.34404879e-04 0. 8.68809759e-04 0. 0. 4.34404879e-04
      5.64726349e-03 0. 1.73761952e-03 4.34404879e-04 1.30321458e-03
      2.17202445e-03 2.60642916e-03 1.30321458e-03 0. 4.34404879e-04
      1.30321458e-03 1.30321458e-03 1.73761952e-03 1.30321458e-03
      8.68809759e-04 4.34404879e-04 4.34404879e-04 4.34404879e-04 0. 0.
      0. 4.34404879e-04 2.60642916e-03 0. 4.34404891e-03 7.38488277e-03
      0. 1.73761952e-03 1.30321458e-03 3.90964374e-03 0. 0.
      1.30321458e-03 8.68809759e-04 4.34404879e-04 0. 0. 0.
      8.68809759e-04 1.30321458e-03 0. 3.04083410e-03 2.60642916e-03 0.
      8.68809759e-04 8.68809759e-04 1.30321458e-03 4.34404879e-04 0.
      4.34404879e-04 0. 0. 3.04083410e-03 4.34404879e-04 8.68809759e-04
      0. 8.68809759e-04 4.34404879e-04 4.34404879e-04 4.34404879e-04
      8.68809759e-04 0. 4.34404879e-04 4.34404879e-04 2.17202445e-03
      8.68809759e-04 0. 4.34404879e-04 4.77845361e-03 1.73761952e-03
      4.34404879e-04 1.30321458e-03 0. 4.34404879e-04 8.68809759e-04
      2.17202445e-03 8.68809759e-04 8.68809759e-04 0. 4.34404879e-04
      4.34404879e-04 4.34404879e-04 0. 2.17202445e-03 0. 2.17202445e-03
      0. 1.30321458e-03 4.34404879e-04 0. 0. 2.60642916e-03 0.
      4.34404879e-04 0. 2.17202445e-03 1.30321458e-03 8.68809759e-04
      4.34404891e-03 3.04083410e-03 0. 1.30321458e-03 4.34404879e-04 0.
      1.30321458e-03 1.30321458e-03 0. 0. 0. 0. 0. 2.17202445e-03
      2.60642916e-03 4.34404879e-04 1.73761952e-03 3.04083410e-03
      1.30321458e-03 1.30321458e-03 4.34404879e-04 4.34404879e-04
      3.47523903e-03 4.34404879e-04 4.34404879e-04 0. 5.64726349e-03 0.
      8.68809759e-04 2.17202445e-03 0. 1.30321458e-03 0. 0.
      4.34404879e-04 4.34404879e-04 8.68809759e-04 4.34404879e-04
      8.68809759e-04 4.34404879e-04 4.34404879e-04 0. 8.68809759e-04
      1.30321458e-03 0. 4.34404879e-04 8.68809759e-04 0. 3.04083410e-03
      3.90964374e-03 0. 2.17202445e-03 5.21285832e-03 0. 0.
      1.30321458e-03 0. 0. 1.30321458e-03 4.34404879e-04 0. 0. 0.
      4.34404879e-04 1.73761952e-03 8.68809759e-04 0. 4.34404891e-03
      2.60642916e-03 4.34404879e-04 0. 1.73761952e-03 4.34404879e-04
      1.30321458e-03 1.30321458e-03 0. 0. 0. 2.17202445e-03
      1.73761952e-03 8.68809759e-04 2.60642916e-03 0. 0. 0.
      4.34404879e-04 0. 0. 0. 0. 0. 0. 1.73761952e-03 4.34404879e-04 0.
      0. 0. 8.68809759e-04 0. 0. 4.34404891e-03 4.34404879e-04 0.
      8.68809759e-04 0. 0. 0. 0. 2.17202445e-03 8.68809759e-04
      4.34404879e-04 4.34404879e-04 0. 1.73761952e-03 0. 0.
      1.52041707e-02 0. 2.17202445e-03 0. 0. 8.68809759e-04 0.
      1.30321458e-03 4.34404879e-04 3.47523903e-03 0. 4.34404879e-04 0.
      0. 1.30321458e-03 0. 4.34404879e-04 0. 4.34404879e-04
      8.68809759e-04 4.34404879e-04 4.34404879e-04 0. 0. 4.77845361e-03
      4.34404879e-04 3.04083410e-03 1.30321458e-03 0. 3.04083410e-03 0.
      2.60642916e-03 5.21285832e-03 0. 4.34404879e-04 0. 0.
      4.34404879e-04 0. 1.73761952e-03 8.68809759e-04 5.64726349e-03
      8.68809759e-04 2.17202445e-03 4.34404879e-04 0. 4.34404879e-04 0.
      8.68809759e-04 4.34404879e-04 1.30321458e-03 4.34404879e-04 0. 0.
      1.30321458e-03 1.73761952e-03 3.04083410e-03 1.73761952e-03
      2.73675080e-02 0. 3.04083410e-03 4.34404879e-04 8.68809759e-04
      4.34404879e-04 6.51607336e-03 0. 0. 0. 0. 4.34404879e-04
      8.68809759e-04 0. 0. 0. 2.60642916e-03 0. 4.34404879e-04
      2.60642916e-03 8.68809759e-04 3.04083410e-03 1.30321458e-03 0.
      1.30321458e-03 0. 4.34404879e-04 0. 0. 2.60642916e-03
      8.68809759e-04 8.68809759e-04 0. 0. 4.34404879e-04 0.
      4.34404891e-03 0. 1.30321458e-03 0. 0. 4.34404879e-04 0. 0.
      4.34404879e-04 3.04083410e-03 0. 0. 4.34404879e-04 1.30321458e-03
      8.68809759e-04 4.34404879e-04 8.68809759e-04 4.34404879e-04
      1.30321458e-03 0. 0. 0. 1.30321458e-03 2.17202445e-03
      8.68809759e-04 8.68809759e-04 2.17202445e-03 2.60642916e-03
      8.68809759e-04 4.34404891e-03 0. 0. 0. 4.34404879e-04
      2.60642916e-03 4.34404879e-04 4.34404879e-04 4.34404879e-04
      1.73761952e-03 1.30321458e-03 4.34404879e-04 0. 0. 1.73761952e-03
      0. 0. 4.34404879e-04 1.73761952e-03 0. 8.68809759e-04
      8.68809759e-04 2.60642916e-03 4.34404879e-04 4.34404879e-04
      1.30321458e-03 0. 2.60642916e-03 4.34404879e-04 8.68809759e-04
      1.73761952e-03 0. 2.17202445e-03 1.73761952e-03 8.68809759e-04 0.
      0. 0. 4.34404879e-04 8.68809759e-04 4.34404879e-04 8.68809759e-04
      2.60642916e-03 6.08166819e-03 0. 0. 0. 0. 0. 0. 4.34404879e-04 0.
      4.34404879e-04 1.30321458e-03 4.34404879e-04 4.34404879e-04 0. 0.
      0. 1.73761952e-03 1.30321458e-03 0. 8.68809759e-04 1.30321458e-03
      4.34404879e-04 8.68809759e-04 0. 0. 4.34404879e-04 8.68809759e-04
      3.90964374e-03 4.34404879e-04 0. 4.34404879e-04 8.68809759e-04
      4.34404879e-04 0. 1.73761952e-03 4.34404879e-04 1.30321458e-03
      5.21285832e-03 1.30321458e-03 1.73761952e-03 2.17202445e-03
      8.68809759e-04 0. 8.68809759e-04 0. 8.68809759e-04 1.30321458e-03
      8.68809759e-04 0. 1.73761952e-03 0. 8.68809759e-04 0. 0.
      1.30321458e-03 0. 0. 2.60642916e-03 0. 0. 4.34404891e-03 0. 0.
      8.68809759e-04 8.68809759e-04 3.04083410e-03 0. 4.34404879e-04 0.
      8.68809759e-04 8.68809759e-04 8.68809759e-04 4.34404879e-04 0.
      4.34404879e-04 4.34404879e-04 0. 2.60642916e-03 3.47523903e-03
      4.34404879e-04 1.73761952e-03 8.68809759e-04 1.73761952e-03
      1.30321458e-03 1.73761952e-03 0. 4.34404879e-04 2.60642916e-03
      1.30321458e-03 4.34404879e-04 8.68809759e-04 8.68809759e-04 0. 0.
      4.34404879e-04 4.34404879e-04 8.68809759e-04 0. 0. 0.
      1.12945270e-02 8.68809759e-04 0. 1.30321458e-03 0. 0.
      4.34404879e-04 2.17202445e-03 8.68809759e-04 4.34404879e-04 0.
      8.68809759e-04 1.73761952e-03 1.30321458e-03 4.34404879e-04
      1.30321458e-03 4.34404879e-04 1.30321458e-03 4.34404879e-04
      4.34404879e-04 1.30321458e-03 1.73761952e-03 3.04083410e-03
      8.68809759e-04 0. 8.68809759e-04 1.30321458e-03 4.34404879e-04
      8.68809759e-04 4.34404879e-04 0. 0. 1.30321458e-03 0.
      3.04083410e-03 0. 4.34404879e-04 8.68809759e-04 1.30321458e-03
      8.68809759e-04 0. 1.73761952e-03 0. 0. 3.47523903e-03 0. 0. 0. 0.
      0. 0. 4.34404879e-04 0. 0. 0. 0. 0. 1.30321458e-03 2.60642916e-03
      0. 4.34404879e-04 0. 4.34404879e-04 8.68809759e-04 0.
      8.68809759e-04 0. 0. 2.17202445e-03 4.34404879e-04 0. 0.
      8.68809759e-04 1.73761952e-03 4.34404879e-04 8.68809759e-04
      4.34404879e-04 8.68809759e-04 0. 8.68809759e-04 0. 0.
      1.73761952e-03 1.21633364e-02 4.34404879e-04 4.34404879e-04
      8.68809759e-04 0. 1.30321458e-03 8.68809759e-04 4.34404891e-03 0.
      4.34404879e-04 0. 0. 0. 4.34404879e-04 4.34404879e-04
      4.34404879e-04 0. 8.68809759e-04 0. 0. 0. 3.04083410e-03
      3.47523903e-03 0. 0. 4.34404879e-04 0. 8.68809759e-04
      6.51607336e-03 0. 2.60642916e-03 0. 4.34404879e-04 8.68809759e-04
      0. 4.34404879e-04 4.34404879e-04</_>
    <_>
      2.23820936e-03 0. 9.59232566e-04 1.27897679e-03 6.39488397e-04
      4.79616283e-04 2.39808159e-03 1.75859313e-03 6.39488397e-04
      7.99360510e-04 1.11910468e-03 1.91846513e-03 3.19744198e-04
      7.99360510e-04 9.59232566e-04 1.27897679e-03 3.19744198e-04
      6.39488397e-04 4.79616283e-04 6.39488397e-04 4.79616283e-04
      7.99360510e-04 1.59872099e-04 6.39488397e-04 7.99360510e-04
      9.59232566e-04 1.11910468e-03 9.59232566e-04 9.59232566e-04
      1.27897679e-03 3.19744198e-04 1.11910468e-03 7.99360510e-04
      1.59872102e-03 1.27897679e-03 6.39488397e-04 0. 1.11910468e-03
      2.07833736e-03 3.19744198e-04 9.59232566e-04 7.99360510e-04
      2.23820936e-03 1.75859313e-03 1.75859313e-03 1.75859313e-03
      3.19744198e-04 7.99360510e-04 4.79616283e-04 6.39488397e-04
      1.75859313e-03 1.91846513e-03 3.19744198e-04 1.75859313e-03
      1.59872102e-03 4.79616283e-04 7.99360510e-04 7.99360510e-04
      4.79616318e-03 1.59872102e-03 1.59872102e-03 1.27897679e-03
      1.59872099e-04 7.99360510e-04 1.43884891e-03 6.39488397e-04
      4.79616283e-04 7.99360510e-04 2.23820936e-03 9.59232566e-04
      4.79616283e-04 1.59872102e-03 9.59232566e-04 1.43884891e-03
      9.59232566e-04 1.11910468e-03 4.79616283e-04 7.99360510e-04
      2.39808159e-03 1.11910468e-03 6.39488397e-04 0. 1.75859313e-03
      4.79616283e-04 6.39488397e-04 9.59232566e-04 4.79616283e-04
      1.59872099e-04 7.99360510e-04 6.39488397e-04 3.03756981e-03
      1.59872099e-04 1.59872102e-03 1.11910468e-03 1.11910468e-03
      1.59872102e-03 7.99360510e-04 1.27897679e-03 4.79616283e-04
      9.59232566e-04 7.99360510e-04 2.55795359e-03 1.11910468e-03
      1.43884891e-03 3.19744198e-04 6.39488397e-04 1.11910468e-03
      9.59232566e-04 6.39488397e-04 1.91846513e-03 7.99360510e-04
      1.11910468e-03 7.99360510e-04 2.07833736e-03 9.59232566e-04
      7.99360510e-04 7.99360510e-04 7.99360510e-04 6.39488397e-04
      3.67705827e-03 2.23820936e-03 9.59232566e-04 1.43884891e-03
      7.99360510e-04 4.79616283e-04 7.99360510e-04 7.99360510e-04
      3.19744198e-04 6.39488397e-04 1.11910468e-03 4.79616283e-04
      9.59232566e-04 6.39488397e-04 1.59872099e-04 9.59232566e-04
      9.59232566e-04 2.71782558e-03 1.43884891e-03 7.99360510e-04
      1.59872102e-03 7.99360510e-04 1.27897679e-03 6.39488397e-04
      3.19744198e-04 1.43884891e-03 7.99360510e-04 1.59872102e-03
      4.79616283e-04 3.19744198e-04 6.39488397e-04 4.79616283e-04
      4.79616283e-04 6.39488397e-04 1.75859313e-03 3.19744198e-04
      1.27897679e-03 6.39488397e-04 9.59232566e-04 3.19744198e-04
      9.59232566e-04 1.75859313e-03 1.11910468e-03 7.99360510e-04
      7.99360510e-04 9.59232566e-04 4.79616283e-04 1.43884891e-03
      1.27897679e-03 6.39488397e-04 2.07833736e-03 4.79616283e-04
      6.39488397e-04 0. 7.99360510e-04 1.43884891e-03 1.27897679e-03
      9.59232566e-04 7.99360510e-04 1.11910468e-03 7.99360510e-04
      6.39488397e-04 9.59232566e-04 0. 3.19744198e-04 7.99360510e-04
      2.39808159e-03 7.99360510e-04 6.39488397e-04 3.19744198e-04
      4.79616283e-04 9.59232566e-04 6.39488397e-04 1.27897679e-03
      4.79616283e-04 3.03756981e-03 1.43884891e-03 3.19744198e-04
      6.39488397e-04 4.79616283e-04 1.59872102e-03 7.99360510e-04
      1.75859313e-03 1.11910468e-03 3.19744198e-04 1.27897679e-03
      1.27897679e-03 1.27897679e-03 1.11910468e-03 1.27897679e-03
      1.11910468e-03 2.07833736e-03 1.27897679e-03 4.79616283e-04
      1.11910468e-03 1.59872099e-04 1.11910468e-03 9.59232566e-04
      9.59232566e-04 3.99680249e-03 1.11910468e-03 6.39488397e-04
      1.59872099e-04 3.19744198e-04 3.19744198e-04 1.59872102e-03
      2.23820936e-03 4.79616283e-04 1.11910468e-03 1.11910468e-03
      1.59872099e-04 6.39488397e-04 6.39488397e-04 1.27897679e-03
      4.79616283e-04 1.11910468e-03 7.99360510e-04 6.39488397e-04
      1.11910468e-03 1.43884891e-03 1.91846513e-03 7.99360510e-04
      9.59232566e-04 4.79616283e-04 2.07833736e-03 7.99360510e-04
      1.11910468e-03 3.19744198e-04 1.59872099e-04 1.27897679e-03
      6.39488397e-04 4.47641872e-03 9.59232566e-04 7.99360510e-04
      7.99360510e-04 4.79616283e-04 7.99360510e-04 1.27897679e-03
      4.79616283e-04 1.43884891e-03 7.99360510e-04 1.91846513e-03
      6.39488397e-04 3.19744198e-04 1.11910468e-03 6.39488397e-04 0.
      4.79616283e-04 6.39488397e-04 6.39488397e-04 1.11910468e-03
      3.19744198e-04 6.39488397e-04 1.27897679e-03 2.39808159e-03
      7.99360510e-04 1.91846513e-03 4.79616283e-04 2.23820936e-03 0.
      9.59232566e-04 0. 0. 1.11910468e-03 3.83693026e-03 1.59872102e-03
      7.99360510e-04 9.59232566e-04 7.99360510e-04 2.39808159e-03
      1.11910468e-03 1.59872102e-03 1.59872102e-03 1.59872099e-04
      3.19744198e-04 1.75859313e-03 1.59872099e-04 1.59872102e-03
      1.27897679e-03 2.23820936e-03 1.27897679e-03 9.59232566e-04
      1.27897679e-03 3.19744198e-04 4.79616283e-04 1.11910468e-03
      9.59232566e-04 2.07833736e-03 1.11910468e-03 9.59232566e-04
      4.79616283e-04 6.39488397e-04 1.59872102e-03 6.39488397e-04 0.
      1.59872099e-04 3.19744198e-04 6.39488397e-04 1.91846513e-03
      2.39808159e-03 1.43884891e-03 7.99360510e-04 7.99360510e-04
      6.39488397e-04 1.91846513e-03 1.27897679e-03 1.75859313e-03
      1.43884891e-03 6.39488397e-04 1.43884891e-03 1.11910468e-03
      2.23820936e-03 9.59232566e-04 1.11910468e-03 1.75859313e-03
      7.99360510e-04 4.79616283e-04 9.59232566e-04 1.11910468e-03
      1.59872102e-03 7.99360510e-04 3.19744198e-04 0. 1.27897679e-03
      1.91846513e-03 3.19744198e-04 1.59872099e-04 1.59872102e-03
      1.11910468e-03 1.91846513e-03 3.19744198e-04 1.59872099e-04
      1.11910468e-03 1.11910468e-03 7.99360510e-04 1.27897679e-03
      7.99360510e-04 1.43884891e-03 1.43884891e-03 9.59232566e-04
      9.59232566e-04 3.19744198e-04 1.11910468e-03 1.11910468e-03
      6.39488397e-04 9.59232566e-04 1.11910468e-03 1.11910468e-03
      7.99360510e-04 6.39488397e-04 1.11910468e-03 1.27897679e-03
      9.59232566e-04 7.99360510e-04 0. 3.19744198e-04 7.99360510e-04
      1.75859313e-03 1.27897679e-03 2.23820936e-03 1.27897679e-03
      6.39488397e-04 1.59872099e-04 1.11910468e-03 6.39488397e-04
      6.39488397e-04 3.19744198e-04 4.79616283e-04 1.59872099e-04
      1.43884891e-03 3.19744198e-04 7.99360510e-04 7.99360510e-04
      4.79616283e-04 1.43884891e-03 9.59232566e-04 6.39488397e-04
      1.43884891e-03 3.19744198e-04 7.99360510e-04 6.39488397e-04
      1.27897679e-03 6.39488397e-04 7.99360510e-04 6.39488397e-04
      9.59232566e-04 9.59232566e-04 1.59872102e-03 1.59872102e-03
      7.99360510e-04 3.19744198e-04 4.79616283e-04 9.59232566e-04
      2.07833736e-03 7.99360510e-04 1.11910468e-03 3.19744198e-04
      7.99360510e-04 9.59232566e-04 4.79616283e-04 3.19744198e-04
      4.79616283e-04 6.39488397e-04 1.11910468e-03 4.79616283e-04
      7.99360510e-04 4.79616318e-03 7.99360510e-04 1.43884891e-03
      1.27897679e-03 2.23820936e-03 4.79616283e-04 4.79616283e-04
      6.39488397e-04 1.27897679e-03 1.27897679e-03 1.27897679e-03
      7.99360510e-04 4.79616283e-04 1.11910468e-03 1.43884891e-03
      6.39488397e-04 4.15667472e-03 1.11910468e-03 6.39488397e-04
      1.11910468e-03 3.19744198e-04 6.39488397e-04 1.27897679e-03
      1.11910468e-03 1.11910468e-03 1.43884891e-03 1.59872099e-04
      1.59872102e-03 4.79616283e-04 1.59872099e-04 1.59872099e-04
      1.27897679e-03 1.43884891e-03 9.59232566e-04 9.59232566e-04
      1.11910468e-03 3.19744198e-04 3.19744198e-04 6.39488397e-04
      1.59872102e-03 1.59872102e-03 1.59872099e-04 1.59872102e-03
      3.03756981e-03 9.59232566e-04 1.27897679e-03 1.75859313e-03
      1.27897679e-03 1.27897679e-03 9.59232566e-04 1.11910468e-03
      1.59872099e-04 1.43884891e-03 1.59872099e-04 4.79616283e-04
      1.43884891e-03 1.59872099e-04 3.19744198e-04 6.39488397e-04
      6.39488397e-04 1.59872102e-03 1.59872102e-03 6.39488397e-04
      1.91846513e-03 9.59232566e-04 1.11910468e-03 2.07833736e-03
      9.59232566e-04 9.59232566e-04 1.59872102e-03 1.91846513e-03
      1.59872102e-03 9.59232566e-04 2.07833736e-03 2.07833736e-03
      7.99360510e-04 6.39488397e-04 6.39488397e-04 6.39488397e-04
      6.39488397e-04 1.27897679e-03 7.99360510e-04 6.39488397e-04
      6.39488397e-04 4.79616283e-04 9.59232566e-04 1.11910468e-03
      1.11910468e-03 7.99360510e-04 1.27897679e-03 2.39808159e-03
      4.79616283e-04 2.39808159e-03 1.27897679e-03 9.59232566e-04
      2.39808159e-03 1.27897679e-03 1.59872102e-03 4.79616283e-04
      3.99680249e-03 3.19744198e-04 4.79616283e-04 1.27897679e-03
      9.59232566e-04 1.59872102e-03 6.39488397e-04 7.99360510e-04
      1.43884891e-03 1.43884891e-03 6.39488397e-04 6.39488397e-04
      4.79616283e-04 1.27897679e-03 1.27897679e-03 3.19744198e-04
      1.91846513e-03 1.59872102e-03 3.19744198e-04 4.79616283e-04
      1.91846513e-03 7.99360510e-04 3.35731404e-03 1.11910468e-03
      3.19744198e-04 1.43884891e-03 2.23820936e-03 9.59232566e-04
      6.39488397e-04 1.11910468e-03 1.59872099e-04 7.99360510e-04
      9.59232566e-04 6.39488397e-04 0. 9.59232566e-04 4.79616283e-04
      6.39488397e-04 4.79616283e-04 2.23820936e-03 9.59232566e-04
      2.23820936e-03 1.11910468e-03 1.11910468e-03 6.39488397e-04
      7.99360510e-04 9.59232566e-04 1.59872099e-04 7.99360510e-04
      4.79616283e-04 4.79616283e-04 6.39488397e-04 4.79616283e-04
      9.59232566e-04 1.75859313e-03 9.59232566e-04 3.19744198e-04
      7.99360510e-04 4.79616283e-04 4.79616283e-04 1.43884891e-03
      1.11910468e-03 6.39488397e-04 1.43884891e-03 1.59872102e-03
      1.43884891e-03 1.27897679e-03 6.39488397e-04 0. 6.39488397e-04
      6.39488397e-04 7.99360510e-04 6.39488397e-04 4.79616283e-04
      1.59872102e-03 9.59232566e-04 3.19744198e-04 3.19744198e-04
      1.43884891e-03 3.19744198e-04 9.59232566e-04 4.79616283e-04
      4.79616283e-04 2.23820936e-03 9.59232566e-04 7.99360510e-04
      3.19744198e-04 3.19744204e-03 1.59872099e-04 1.59872099e-04
      1.75859313e-03 3.19744198e-04 4.79616283e-04 7.99360510e-04
      3.19744198e-04 1.11910468e-03 6.39488397e-04 1.91846513e-03
      6.39488397e-04 1.43884891e-03 7.99360510e-04 1.75859313e-03
      1.59872099e-04 7.99360510e-04 6.39488397e-04 0. 9.59232566e-04
      7.99360510e-04 6.39488397e-04 2.07833736e-03 7.99360510e-04
      6.39488397e-04 1.27897679e-03 4.79616283e-04 2.39808159e-03
      1.27897679e-03 2.87769781e-03 6.39488397e-04 6.39488397e-04
      7.99360510e-04 4.79616283e-04 9.59232566e-04 1.59872102e-03
      4.79616283e-04 9.59232566e-04 1.59872099e-04 1.75859313e-03
      4.79616283e-04 1.59872102e-03 1.27897679e-03 1.43884891e-03
      2.23820936e-03 1.27897679e-03 4.79616283e-04 7.99360510e-04
      3.19744198e-04 1.27897679e-03 7.99360510e-04 9.59232566e-04
      1.11910468e-03 1.11910468e-03 7.99360510e-04 7.99360510e-04
      6.39488397e-04 1.59872102e-03 4.79616283e-04 1.11910468e-03
      3.19744198e-04 7.99360510e-04 9.59232566e-04 2.39808159e-03
      1.59872102e-03 1.27897679e-03 4.79616283e-04 1.43884891e-03
      7.99360510e-04 1.59872099e-04 1.11910468e-03 3.19744198e-04
      9.59232566e-04 7.99360510e-04 4.79616283e-04 4.79616283e-04 0.
      1.11910468e-03 3.19744198e-04 9.59232566e-04 1.11910468e-03
      9.59232566e-04 1.75859313e-03 1.27897679e-03 3.19744198e-04
      2.55795359e-03 1.11910468e-03 3.19744198e-04 1.27897679e-03
      3.19744198e-04 1.59872099e-04 1.59872099e-04 1.75859313e-03
      1.11910468e-03 9.59232566e-04 6.39488397e-04 7.99360510e-04
      1.75859313e-03 4.79616283e-04 6.39488397e-04 6.39488397e-04
      6.39488397e-04 9.59232566e-04 4.79616283e-04 9.59232566e-04
      4.79616283e-04 1.27897679e-03 4.79616283e-04 6.39488397e-04
      9.59232566e-04 6.39488397e-04 9.59232566e-04 9.59232566e-04
      4.79616283e-04 4.79616283e-04 1.91846513e-03 6.39488397e-04
      1.43884891e-03 4.79616283e-04 1.43884891e-03 2.55795359e-03
      6.39488397e-04 1.11910468e-03 1.11910468e-03 1.27897679e-03
      7.99360510e-04 2.07833736e-03 9.59232566e-04 4.79616283e-04
      7.99360510e-04 3.19744198e-04 1.75859313e-03 3.19744198e-04
      1.11910468e-03 2.07833736e-03 2.39808159e-03 4.79616283e-04
      3.19744198e-04 1.43884891e-03 6.39488397e-04 1.11910468e-03
      3.19744198e-04 1.43884891e-03 7.99360510e-04 2.39808159e-03
      6.39488397e-04 7.99360510e-04 1.11910468e-03 6.39488397e-04
      1.11910468e-03 6.39488397e-04 1.11910468e-03 9.59232566e-04
      1.43884891e-03 3.19744198e-04 1.11910468e-03 1.11910468e-03
      1.11910468e-03 2.71782558e-03 7.99360510e-04 1.27897679e-03
      9.59232566e-04 6.39488397e-04 4.79616283e-04 1.11910468e-03
      9.59232566e-04 1.59872099e-04 4.79616283e-04 1.43884891e-03
      1.75859313e-03 1.59872102e-03 6.39488397e-04 1.11910468e-03
      7.99360510e-04 9.59232566e-04 7.99360510e-04 9.59232566e-04
      4.79616283e-04 6.39488397e-04 6.39488397e-04 4.79616283e-04
      7.99360510e-04 6.39488397e-04 7.99360510e-04 9.59232566e-04
      2.23820936e-03 4.79616283e-04 0. 7.99360510e-04 1.27897679e-03
      9.59232566e-04 4.79616283e-04 7.99360510e-04 3.19744198e-04
      1.11910468e-03 9.59232566e-04 2.23820936e-03 4.79616283e-04
      9.59232566e-04 4.79616283e-04 3.19744198e-04 4.79616283e-04 0.
      7.99360510e-04 9.59232566e-04 4.79616283e-04 1.27897679e-03
      7.99360510e-04 6.39488397e-04 1.59872099e-04 9.59232566e-04
      6.39488397e-04 1.11910468e-03 3.19744198e-04 7.99360510e-04
      2.39808159e-03 7.99360510e-04 7.99360510e-04 7.99360510e-04
      1.27897679e-03 1.27897679e-03 4.79616283e-04 9.59232566e-04
      3.19744198e-04 4.79616283e-04 1.59872099e-04 1.91846513e-03
      3.19744198e-04 6.39488397e-04 2.07833736e-03 1.59872099e-04
      6.39488397e-04 1.75859313e-03 6.39488397e-04 1.27897679e-03
      3.19744198e-04 9.59232566e-04 7.99360510e-04 1.43884891e-03
      1.11910468e-03 1.27897679e-03 6.39488397e-04 1.11910468e-03
      1.11910468e-03 1.11910468e-03 1.11910468e-03 1.43884891e-03
      2.07833736e-03 1.43884891e-03 4.47641872e-03 6.39488397e-04
      1.11910468e-03 3.19744198e-04 6.39488397e-04 4.79616283e-04
      1.27897679e-03 6.39488397e-04 1.27897679e-03 3.19744198e-04
      1.11910468e-03 9.59232566e-04 9.59232566e-04 6.39488397e-04
      1.27897679e-03 1.75859313e-03 1.11910468e-03 1.59872099e-04
      1.59872099e-04 1.11910468e-03 1.59872102e-03 1.27897679e-03
      6.39488397e-04 6.39488397e-04 1.11910468e-03 9.59232566e-04
      1.59872099e-04 1.11910468e-03 4.79616283e-04 1.91846513e-03
      4.79616283e-04 1.27897679e-03 2.39808159e-03 9.59232566e-04
      1.27897679e-03 9.59232566e-04 6.39488397e-04 1.43884891e-03
      3.19744198e-04 1.59872102e-03 4.79616283e-04 1.43884891e-03
      1.91846513e-03 7.99360510e-04 4.79616283e-04 9.59232566e-04
      1.43884891e-03 1.27897679e-03 6.39488397e-04 6.39488397e-04
      7.99360510e-04 4.79616283e-04 7.99360510e-04 4.79616283e-04
      1.11910468e-03 3.19744198e-04 1.59872102e-03 1.43884891e-03
      1.11910468e-03 3.03756981e-03 7.99360510e-04 6.39488397e-04
      1.59872099e-04 6.39488397e-04 1.91846513e-03 6.39488397e-04
      3.19744198e-04 1.59872099e-04 9.59232566e-04 3.19744198e-04
      6.39488397e-04 4.79616283e-04 1.11910468e-03 1.59872099e-04
      4.79616283e-04 3.19744198e-04 4.79616283e-04 4.79616283e-04
      1.91846513e-03 3.19744198e-04 1.59872102e-03 1.11910468e-03
      9.59232566e-04 0. 1.27897679e-03 1.11910468e-03 1.11910468e-03
      7.99360510e-04 1.91846513e-03 7.99360510e-04 4.79616283e-04
      3.19744198e-04 9.59232566e-04 1.27897679e-03 1.11910468e-03
      1.11910468e-03 6.39488397e-04 6.39488397e-04 7.99360510e-04
      6.39488397e-04 1.59872102e-03 7.99360510e-04 2.71782558e-03
      2.87769781e-03 6.39488397e-04 1.43884891e-03 4.79616283e-04
      7.99360510e-04 9.59232566e-04 1.59872102e-03 2.87769781e-03
      1.59872099e-04 1.11910468e-03 1.11910468e-03 3.19744198e-04
      3.19744198e-04 1.27897679e-03 1.11910468e-03 7.99360510e-04
      7.99360510e-04 4.79616283e-04 1.11910468e-03 7.99360510e-04
      1.75859313e-03 3.19744198e-04 1.75859313e-03 1.11910468e-03
      1.11910468e-03 3.19744198e-04 3.19744198e-04 9.59232566e-04
      1.27897679e-03 4.79616283e-04 1.91846513e-03 4.79616283e-04
      1.11910468e-03 9.59232566e-04 1.11910468e-03 9.59232566e-04
      6.39488397e-04</_>
    <_>
      1.57150347e-03 0. 0. 4.71451040e-03 5.23834489e-04 0.
      5.23834489e-04 2.61917245e-03 0. 0. 1.04766898e-03 0. 0.
      1.04766898e-03 6.80984836e-03 0. 0. 1.04766898e-03 5.23834489e-04
      5.23834489e-04 0. 1.04766898e-03 1.04766898e-03 4.19067591e-03
      5.23834489e-04 5.23834489e-04 5.23834489e-04 0. 0. 1.04766898e-03
      0. 5.23834489e-04 1.04766898e-03 2.09533796e-03 1.04766898e-03 0.
      0. 1.04766898e-03 0. 0. 0. 0. 5.23834489e-03 1.04766898e-03
      5.23834489e-04 0. 5.23834489e-04 1.04766898e-03 0. 1.04766898e-03
      0. 1.57150347e-03 0. 1.04766898e-03 8.90518632e-03 0.
      5.23834489e-04 1.04766898e-03 3.66684143e-03 2.09533796e-03 0.
      5.23834489e-04 0. 0. 2.61917245e-03 0. 5.23834489e-04
      1.57150347e-03 2.61917245e-03 5.23834489e-04 5.23834489e-04
      5.23834489e-04 4.19067591e-03 0. 5.23834489e-04 0. 5.23834489e-04
      1.04766898e-03 2.61917245e-03 5.23834489e-04 4.19067591e-03
      5.23834489e-04 5.23834489e-04 2.61917245e-03 1.04766898e-03 0. 0.
      0. 5.23834489e-04 1.04766898e-03 4.71451040e-03 1.04766898e-03
      6.80984836e-03 5.23834489e-04 5.23834489e-04 1.04766898e-03
      5.23834489e-04 3.66684143e-03 2.09533796e-03 0. 0. 2.09533796e-03
      0. 0. 0. 5.23834489e-04 0. 5.23834489e-04 5.76217938e-03
      2.61917245e-03 0. 0. 1.57150347e-03 6.28601387e-03 0.
      1.57150347e-03 3.14300694e-03 5.23834489e-04 5.23834489e-04
      1.57150347e-03 6.80984836e-03 0. 1.04766898e-03 5.23834489e-04 0.
      0. 0. 1.04766898e-03 1.57150347e-03 1.57150347e-03 2.09533796e-03
      5.23834489e-04 0. 0. 1.57150347e-03 0. 4.19067591e-03
      3.14300694e-03 0. 2.09533796e-03 1.04766898e-03 5.23834489e-04 0.
      0. 7.33368285e-03 5.23834489e-04 0. 5.23834489e-04 0. 0. 0.
      5.23834489e-04 0. 4.71451040e-03 0. 5.23834489e-04 1.57150347e-03
      0. 5.23834489e-04 5.23834489e-04 1.04766898e-03 1.04766898e-03
      1.04766898e-03 1.04766898e-03 5.23834489e-04 5.23834489e-04 0.
      1.04766898e-03 1.04766898e-03 5.23834489e-04 0. 0. 0.
      5.23834489e-04 1.57150347e-03 5.23834489e-04 5.23834489e-04
      5.23834489e-04 5.23834489e-04 5.23834489e-04 5.23834489e-04 0. 0.
      0. 1.04766898e-03 1.04766898e-03 5.23834489e-04 0. 0. 0.
      5.23834489e-04 0. 1.04766898e-03 2.61917245e-03 3.66684143e-03
      2.09533796e-03 0. 5.23834489e-04 1.57150347e-03 0. 1.57150347e-03
      1.57150347e-03 0. 0. 1.57150347e-03 1.04766898e-03 5.23834489e-04
      2.09533796e-03 5.23834489e-04 1.57150347e-03 5.76217938e-03
      2.09533796e-03 5.23834489e-04 0. 0. 5.23834489e-04 5.23834489e-04
      5.23834489e-04 1.04766898e-03 0. 5.23834489e-04 5.23834489e-04
      5.23834489e-04 0. 1.04766898e-03 4.71451040e-03 5.23834489e-04
      3.14300694e-03 1.04766898e-03 1.57150347e-03 1.04766898e-03 0.
      5.23834489e-04 1.04766898e-03 0. 5.23834489e-04 5.23834489e-04
      5.23834489e-04 5.23834489e-04 1.04766898e-03 2.09533796e-03 0.
      5.23834489e-04 2.09533796e-03 0. 4.19067591e-03 5.23834489e-04
      5.23834489e-04 0. 1.04766898e-03 2.09533796e-03 2.61917245e-03
      1.04766898e-03 1.04766898e-03 0. 0. 0. 1.04766898e-03
      2.09533796e-03 5.23834489e-03 0. 1.57150347e-03 1.04766898e-03
      1.04766898e-03 5.23834489e-04 0. 0. 5.23834489e-04 0.
      1.57150347e-03 2.61917245e-03 5.23834489e-04 1.57150347e-03
      3.14300694e-03 1.04766898e-03 1.04766898e-03 5.23834489e-04
      1.04766898e-03 1.57150347e-03 0. 0. 5.23834489e-04 5.23834489e-04
      1.04766898e-03 1.57150347e-03 5.23834489e-04 5.23834489e-04
      1.57150347e-03 1.04766898e-03 5.23834489e-04 1.04766898e-03 0. 0.
      5.23834489e-04 5.23834489e-04 2.61917245e-03 1.04766898e-03
      5.23834489e-04 2.09533796e-03 1.04766898e-03 5.23834489e-04
      5.23834489e-04 0. 5.23834489e-04 1.57150347e-03 5.23834489e-04
      2.09533796e-03 0. 6.80984836e-03 1.04766898e-03 0. 1.04766898e-03
      3.66684143e-03 1.04766898e-03 1.57150347e-03 0. 0. 8.38135183e-03
      1.57150347e-03 5.23834489e-04 0. 5.23834489e-04 0. 5.23834489e-04
      0. 2.09533796e-03 5.23834489e-04 1.04766898e-03 2.61917245e-03
      5.23834489e-04 5.23834489e-04 0. 0. 1.57150347e-03 0.
      2.09533796e-03 1.04766898e-03 1.57150347e-03 1.04766898e-03
      1.57150347e-03 0. 0. 1.57150347e-03 1.57150347e-03 2.09533796e-03
      0. 2.09533796e-03 0. 1.57150347e-03 0. 0. 0. 1.04766898e-03
      5.23834489e-04 2.61917245e-03 0. 4.19067591e-03 5.23834489e-04 0.
      1.04766898e-03 7.33368285e-03 0. 0. 5.23834489e-04 0. 0.
      2.09533796e-03 0. 0. 5.23834489e-04 1.04766898e-03 5.23834489e-04
      4.71451040e-03 1.04766898e-03 0. 1.57150347e-03 5.23834489e-04 0.
      5.23834489e-04 3.14300694e-03 0. 5.23834489e-04 2.61917245e-03
      5.23834489e-04 0. 2.61917245e-03 0. 5.23834489e-04 0.
      5.23834489e-04 0. 2.09533796e-03 5.23834489e-04 1.57150347e-03 0.
      5.23834489e-04 5.23834489e-04 0. 0. 2.09533796e-03 3.66684143e-03
      0. 1.04766898e-03 1.57150347e-03 2.61917245e-03 5.23834489e-04
      5.23834489e-04 1.04766898e-03 1.04766898e-03 5.23834489e-04
      1.57150347e-03 5.23834489e-04 5.23834489e-04 5.23834489e-04 0.
      5.23834489e-04 0. 5.23834489e-04 5.23834489e-04 0. 5.23834489e-04
      1.04766898e-03 0. 0. 1.04766898e-03 4.71451040e-03 5.23834489e-04
      1.04766898e-03 1.57150347e-03 6.28601387e-03 0. 0. 5.23834489e-04
      0. 5.23834489e-04 5.23834489e-04 1.04766898e-03 0. 0.
      1.57150347e-03 0. 1.25720277e-02 0. 5.23834489e-04 1.57150347e-03
      5.23834489e-04 3.14300694e-03 5.23834489e-04 0. 5.23834489e-04
      6.28601387e-03 1.04766898e-03 5.76217938e-03 1.04766898e-03 0. 0.
      5.23834489e-04 0. 6.28601387e-03 0. 1.57150347e-03 5.23834489e-04
      1.04766898e-03 0. 3.14300694e-03 5.23834489e-04 0. 5.23834489e-04
      2.09533796e-03 5.23834489e-04 1.04766898e-03 0. 2.09533796e-03
      5.23834489e-04 0. 5.23834489e-04 1.04766898e-03 5.23834489e-04
      5.23834489e-04 5.23834489e-04 0. 5.23834489e-04 1.04766898e-03
      1.57150347e-03 5.23834489e-04 1.04766898e-03 3.66684143e-03
      5.23834489e-04 0. 0. 0. 8.38135183e-03 0. 0. 1.04766898e-03
      1.57150347e-03 3.14300694e-03 5.23834489e-04 4.19067591e-03
      1.57150347e-03 5.23834489e-04 5.23834489e-04 5.23834489e-04 0.
      5.23834489e-04 0. 1.04766898e-03 0. 0. 0. 1.04766898e-03 0.
      1.04766898e-03 5.23834489e-04 5.23834489e-04 2.09533796e-03 0.
      5.23834489e-04 5.23834489e-04 2.09533796e-03 2.61917245e-03
      5.23834489e-04 0. 5.23834489e-04 2.61917245e-03 0. 1.04766898e-03
      1.57150347e-03 5.23834489e-04 1.57150347e-03 5.23834489e-04
      2.61917245e-03 0. 0. 0. 5.23834489e-04 1.04766898e-03
      5.23834489e-04 0. 5.23834489e-04 2.09533796e-03 0. 0.
      5.23834489e-04 0. 5.23834489e-04 1.04766898e-03 3.14300694e-03
      5.23834489e-04 5.23834489e-04 4.19067591e-03 0. 0. 1.57150347e-03
      0. 0. 1.04766898e-03 0. 0. 5.23834489e-04 0. 0. 5.23834489e-04
      1.04766898e-03 5.23834489e-04 4.71451040e-03 0. 1.57150347e-03
      1.04766898e-03 0. 1.57150347e-03 5.23834489e-04 2.61917245e-03 0.
      0. 5.23834489e-04 3.14300694e-03 5.23834489e-04 0. 5.23834489e-04
      0. 1.57150347e-03 0. 0. 0. 5.23834489e-04 0. 0. 5.23834489e-04
      2.09533796e-03 1.57150347e-03 1.04766898e-03 0. 0. 0.
      1.04766898e-03 5.23834489e-04 5.23834489e-04 6.28601387e-03 0. 0.
      0. 0. 5.76217938e-03 5.23834489e-04 5.23834489e-04 0.
      1.57150347e-03 0. 0. 0. 1.04766898e-02 0. 5.23834489e-04
      2.61917245e-03 1.04766898e-03 1.04766898e-03 0. 0. 5.23834489e-04
      5.23834489e-04 2.61917245e-03 0. 6.80984836e-03 0. 1.04766898e-03
      0. 0. 0. 0. 5.23834489e-04 0. 5.23834489e-04 2.61917245e-03
      1.04766898e-03 3.14300694e-03 3.14300694e-03 0. 2.61917245e-03 0.
      4.19067591e-03 0. 0. 5.23834489e-04 0. 1.04766898e-03
      3.14300694e-03 0. 5.23834489e-04 0. 5.23834489e-04 0.
      5.23834489e-04 1.04766898e-03 5.23834489e-04 3.66684143e-03 0.
      5.23834489e-04 1.04766898e-03 0. 5.23834489e-04 5.23834489e-04 0.
      0. 1.04766898e-03 5.23834489e-04 1.04766898e-03 0. 1.57150347e-03
      1.04766898e-03 3.14300694e-03 4.71451040e-03 1.04766898e-03
      2.09533796e-03 3.14300694e-03 0. 5.23834489e-04 1.04766898e-03
      3.66684143e-03 1.04766898e-03 1.04766898e-03 1.04766898e-03
      5.23834489e-04 1.04766898e-03 5.23834489e-04 0. 5.23834489e-04
      5.23834489e-04 5.23834489e-04 0. 1.57150347e-03 3.14300694e-03
      1.04766898e-03 2.09533796e-03 5.23834489e-04 5.23834489e-04
      3.14300694e-03 1.04766898e-03 1.04766898e-03 1.04766898e-03 0.
      2.09533796e-03 1.57150347e-03 0. 1.57150347e-03 0. 5.23834489e-04
      5.23834489e-04 2.09533796e-03 0. 1.04766898e-03 0. 2.09533796e-03
      1.04766898e-03 1.04766898e-03 0. 0. 1.04766898e-03 0. 0.
      5.23834489e-04 1.04766898e-03 2.09533796e-03 1.04766898e-03
      5.23834489e-04 0. 2.09533796e-03 1.04766898e-03 1.04766898e-03 0.
      2.09533796e-03 4.71451040e-03 0. 1.04766898e-03 1.57150347e-03
      5.23834489e-04 2.09533796e-03 5.23834489e-03 5.23834489e-04 0.
      5.23834489e-04 0. 0. 5.23834489e-04 0. 1.04766898e-03
      3.14300694e-03 1.57150347e-03 3.66684143e-03 5.23834489e-04
      5.23834489e-04 5.23834489e-04 0. 1.04766898e-03 2.09533796e-03
      1.04766898e-03 1.04766898e-03 2.09533796e-03 5.23834489e-04 0.
      2.61917245e-03 5.23834489e-04 2.61917245e-03 5.23834489e-04
      1.04766898e-03 5.23834489e-04 5.23834489e-04 0. 0. 5.23834489e-03
      1.04766898e-03 0. 0. 5.23834489e-04 0. 0. 0. 5.23834489e-04
      3.66684143e-03 5.23834489e-04 1.57150347e-03 1.04766898e-03
      5.23834489e-04 5.23834489e-04 1.04766898e-03 0. 1.57150347e-03
      1.04766898e-03 0. 5.23834489e-04 0. 5.23834489e-04 1.04766898e-03
      0. 5.23834489e-04 0. 5.23834489e-04 1.57150347e-03 5.23834489e-04
      0. 0. 1.57150347e-03 0. 0. 1.04766898e-03 1.04766898e-03
      1.04766898e-03 0. 5.23834489e-04 0. 5.23834489e-04 0.
      1.04766898e-03 0. 1.04766898e-03 5.23834489e-04 0. 1.57150347e-03
      0. 0. 6.28601387e-03 1.57150347e-03 5.23834489e-04 5.23834489e-04
      5.23834489e-04 1.04766898e-03 1.04766898e-03 5.23834489e-04 0. 0.
      1.04766898e-03 0. 0. 5.23834489e-04 1.04766898e-03 0. 0.
      2.09533796e-03 5.23834489e-04 5.23834489e-04 2.09533796e-03 0. 0.
      0. 5.23834489e-04 1.57150347e-03 0. 1.04766898e-03 0.
      5.23834489e-04 5.23834489e-04 5.23834489e-04 0. 5.23834489e-04 0.
      0. 5.23834489e-04 3.14300694e-03 5.23834489e-04 5.23834489e-04
      5.76217938e-03 1.04766898e-03 5.23834489e-04 0. 1.04766898e-03
      5.23834489e-04 0. 1.57150347e-03 3.66684143e-03 5.23834489e-04
      5.23834489e-04 0. 0. 0. 2.61917245e-03 5.23834489e-04
      5.23834489e-04 5.23834489e-04 5.23834489e-04 1.57150347e-03
      2.61917245e-03 1.57150347e-03 1.04766898e-03 0. 0. 0. 0.
      2.61917245e-03 2.09533796e-03 5.23834489e-04 2.09533796e-03
      1.57150347e-03 1.57150347e-03 2.09533796e-03 1.04766898e-03
      2.09533796e-03 2.61917245e-03 0. 5.23834489e-04 1.04766898e-03
      5.23834489e-04 0. 3.66684143e-03 4.19067591e-03 1.04766898e-03
      2.09533796e-03 5.23834489e-04 0. 0. 0. 5.23834489e-04
      1.04766898e-03 2.09533796e-03 1.04766898e-03 1.04766898e-03
      1.04766898e-03 5.23834489e-04 5.23834489e-04 5.23834489e-04
      5.23834489e-04 0. 0. 0. 1.04766898e-03 2.09533796e-03
      2.09533796e-03 5.23834489e-04 3.14300694e-03 1.04766898e-03
      5.23834489e-04 5.23834489e-04 5.23834489e-04 5.23834489e-04
      5.23834489e-04 0. 0. 1.04766898e-03 0. 5.23834489e-04 0.
      1.04766898e-03 0. 0. 0. 5.23834489e-04 5.23834489e-04 0. 0.
      2.09533796e-03 1.04766898e-03 0. 0. 1.04766898e-03 2.61917245e-03
      0. 5.23834489e-04 0. 5.23834489e-04 0. 1.04766898e-03 0.
      2.09533796e-03 0. 3.14300694e-03 1.04766898e-03 3.14300694e-03
      5.23834489e-04 0. 0. 2.09533796e-03 1.57150347e-03 0. 0. 0. 0. 0.
      2.09533796e-03 5.23834489e-04 1.04766898e-03 1.04766898e-03
      1.57150347e-03 0. 1.04766898e-03 5.23834489e-04 2.61917245e-03
      2.61917245e-03 5.23834489e-04 0. 0. 5.23834489e-04 5.23834489e-04
      2.09533796e-03 5.23834489e-04 0. 5.23834489e-04 0. 5.23834489e-04
      5.23834489e-04 0. 5.23834489e-04</_>
    <_>
      1.51601294e-03 5.68504853e-04 3.79003235e-04 0. 1.13700971e-03
      3.79003235e-04 2.84252432e-03 3.41102900e-03 1.70551450e-03
      3.79003235e-04 9.47508088e-04 2.46352097e-03 1.89501618e-04
      9.47508088e-04 1.13700971e-03 1.70551450e-03 7.58006470e-04
      5.68504853e-04 5.68504853e-04 5.68504853e-04 3.79003235e-04
      2.84252432e-03 0. 9.47508088e-04 3.79003235e-04 1.89501618e-04
      7.58006470e-04 0. 9.47508088e-04 2.27401941e-03 0. 5.68504853e-04
      1.89501618e-04 9.47508088e-04 7.58006470e-04 9.47508088e-04
      9.47508088e-04 2.27401941e-03 5.68504853e-04 1.89501618e-04
      9.47508088e-04 0. 1.13700971e-03 1.70551450e-03 1.13700971e-03
      7.58006470e-04 0. 5.68504853e-04 3.79003235e-04 1.51601294e-03
      2.27401941e-03 1.89501618e-03 0. 2.08451785e-03 2.08451785e-03
      7.58006470e-04 7.58006470e-04 1.13700971e-03 4.16903570e-03
      7.58006470e-04 9.47508088e-04 7.58006470e-04 5.68504853e-04
      7.58006470e-04 2.46352097e-03 3.79003235e-04 1.32651138e-03
      1.89501618e-03 2.46352097e-03 1.32651138e-03 0. 1.13700971e-03
      7.58006470e-04 3.79003235e-04 5.68504853e-04 1.89501618e-04 0.
      5.68504853e-04 2.08451785e-03 7.58006470e-04 1.89501618e-04
      3.79003235e-04 9.47508088e-04 7.58006470e-04 5.30604552e-03
      9.47508088e-04 5.68504853e-04 1.51601294e-03 7.58006470e-04
      3.79003235e-04 1.70551450e-03 0. 3.79003235e-04 1.13700971e-03
      1.51601294e-03 3.79003235e-03 9.47508088e-04 1.89501618e-04
      7.58006470e-04 1.89501618e-04 7.58006470e-04 1.13700971e-03
      7.58006470e-04 9.47508088e-04 1.89501618e-04 7.58006470e-04
      9.47508088e-04 3.79003235e-04 5.68504853e-04 1.32651138e-03
      1.89501618e-04 5.68504853e-04 9.47508088e-04 9.47508088e-04 0.
      9.47508088e-04 2.08451785e-03 3.79003235e-04 9.47508088e-04
      2.46352097e-03 7.58006470e-04 5.68504853e-04 1.70551450e-03
      1.13700971e-03 7.58006470e-04 3.22152744e-03 1.89501618e-04
      2.27401941e-03 5.68504853e-04 1.70551450e-03 3.79003235e-04
      1.89501618e-04 1.70551450e-03 3.79003235e-04 1.70551450e-03
      9.47508088e-04 3.79003235e-04 1.70551450e-03 1.89501618e-04
      7.58006470e-04 1.89501618e-03 5.68504853e-04 1.89501618e-04
      1.89501618e-04 3.79003235e-04 1.89501618e-04 3.79003235e-04
      1.89501618e-04 5.68504853e-04 1.32651138e-03 2.65302276e-03
      1.32651138e-03 5.68504853e-04 2.65302276e-03 0. 0. 9.47508088e-04
      3.79003235e-04 9.47508088e-04 2.46352097e-03 1.32651138e-03
      2.08451785e-03 1.13700971e-03 1.89501618e-04 3.79003235e-04
      1.13700971e-03 1.89501618e-04 1.51601294e-03 1.70551450e-03
      1.13700971e-03 9.47508088e-04 3.79003235e-04 1.89501618e-04
      7.58006470e-04 3.03202588e-03 9.47508088e-04 2.27401941e-03
      1.13700971e-03 1.89501618e-03 3.79003235e-04 0. 1.70551450e-03 0.
      5.68504853e-04 7.58006470e-04 2.65302276e-03 1.32651138e-03
      5.68504853e-04 1.89501618e-04 3.79003235e-04 3.79003235e-04
      3.79003235e-04 0. 3.79003235e-04 2.08451785e-03 9.47508088e-04
      7.58006470e-04 1.51601294e-03 7.58006470e-04 1.13700971e-03
      1.51601294e-03 1.32651138e-03 5.68504853e-04 1.51601294e-03
      1.70551450e-03 1.70551450e-03 3.79003235e-04 1.13700971e-03
      1.89501618e-03 9.47508088e-04 1.32651138e-03 7.58006470e-04
      3.79003235e-04 1.51601294e-03 0. 5.68504853e-04 1.89501618e-04
      1.32651138e-03 5.68504853e-04 1.70551450e-03 7.58006470e-04
      1.51601294e-03 9.47508088e-04 7.58006470e-04 1.13700971e-03
      1.13700971e-03 1.51601294e-03 1.70551450e-03 1.89501618e-04
      5.68504853e-04 9.47508088e-04 1.89501618e-04 9.47508088e-04
      1.13700971e-03 7.58006470e-04 3.79003235e-04 1.32651138e-03
      1.32651138e-03 2.46352097e-03 2.27401941e-03 3.79003235e-04
      3.79003235e-04 5.68504853e-04 2.65302276e-03 3.79003235e-04
      3.79003235e-04 0. 5.68504853e-04 3.79003235e-04 1.32651138e-03
      7.01155979e-03 1.70551450e-03 1.32651138e-03 1.32651138e-03
      1.70551450e-03 9.47508088e-04 2.65302276e-03 3.79003235e-04
      1.32651138e-03 0. 2.46352097e-03 9.47508088e-04 3.79003235e-04 0.
      3.03202588e-03 1.89501618e-04 3.79003235e-04 9.47508088e-04
      1.89501618e-04 2.46352097e-03 1.89501618e-04 9.47508088e-04
      2.46352097e-03 1.32651138e-03 5.68504853e-04 2.46352097e-03
      5.68504853e-04 7.58006470e-04 3.79003235e-04 5.68504853e-04
      7.58006470e-04 1.89501618e-04 1.51601294e-03 3.79003235e-03
      1.89501618e-04 9.47508088e-04 1.13700971e-03 5.68504853e-04
      9.47508088e-04 4.35853703e-03 9.47508088e-04 3.79003235e-04
      1.89501618e-04 3.79003235e-04 1.70551450e-03 9.47508088e-04
      1.89501618e-03 3.79003235e-04 2.46352097e-03 2.08451785e-03
      1.89501618e-04 9.47508088e-04 1.89501618e-04 7.58006470e-04
      5.68504853e-04 9.47508088e-04 7.58006470e-04 1.70551450e-03 0.
      1.13700971e-03 1.51601294e-03 3.79003235e-04 5.68504853e-04 0.
      5.68504853e-04 1.89501618e-04 3.79003235e-04 1.32651138e-03
      3.41102900e-03 7.58006470e-04 5.68504853e-04 7.58006470e-04
      3.79003235e-04 1.13700971e-03 7.58006470e-04 1.89501618e-03
      9.47508088e-04 0. 1.32651138e-03 9.47508088e-04 7.58006470e-04
      5.68504853e-04 5.68504853e-04 1.32651138e-03 1.89501618e-03
      7.58006470e-04 7.58006470e-04 1.70551450e-03 1.70551450e-03
      5.68504853e-04 9.47508088e-04 0. 7.58006470e-04 1.89501618e-04
      7.58006470e-04 1.89501618e-04 2.84252432e-03 1.89501618e-04
      1.13700971e-03 5.68504853e-04 3.79003235e-04 1.89501618e-04
      1.32651138e-03 5.68504853e-04 3.41102900e-03 1.13700971e-03
      2.08451785e-03 3.79003235e-04 5.68504853e-04 1.89501618e-03
      7.58006470e-04 5.68504853e-04 1.13700971e-03 1.13700971e-03
      3.79003235e-04 2.65302276e-03 1.51601294e-03 1.32651138e-03
      5.68504853e-04 3.79003235e-04 9.47508088e-04 2.46352097e-03
      3.60053079e-03 5.68504853e-04 1.13700971e-03 2.84252432e-03
      1.13700971e-03 1.51601294e-03 7.58006470e-04 5.68504853e-04
      9.47508088e-04 3.79003235e-04 9.47508088e-04 7.58006470e-04
      1.89501618e-04 0. 1.89501618e-04 3.79003235e-04 1.51601294e-03
      1.89501618e-04 1.89501618e-03 2.65302276e-03 1.89501618e-04
      1.51601294e-03 7.58006470e-04 3.79003235e-04 1.13700971e-03
      5.68504853e-04 3.79003235e-04 0. 2.27401941e-03 5.68504853e-04
      1.13700971e-03 1.70551450e-03 7.58006470e-04 9.47508088e-04
      7.58006470e-04 1.32651138e-03 7.58006470e-04 1.89501618e-04
      1.13700971e-03 9.47508088e-04 1.70551450e-03 2.08451785e-03
      1.32651138e-03 1.32651138e-03 1.89501618e-04 1.13700971e-03
      1.89501618e-04 1.89501618e-04 0. 1.13700971e-03 1.13700971e-03
      5.68504853e-04 5.68504853e-04 3.22152744e-03 3.79003235e-04
      1.70551450e-03 1.13700971e-03 1.51601294e-03 5.68504853e-04
      7.58006470e-04 1.89501618e-04 1.32651138e-03 7.58006470e-04
      1.13700971e-03 7.58006470e-04 1.89501618e-04 3.79003235e-04
      4.16903570e-03 1.89501618e-04 9.47508088e-04 2.84252432e-03
      7.58006470e-04 2.08451785e-03 9.47508088e-04 5.68504853e-04
      9.47508088e-04 5.68504853e-04 1.70551450e-03 1.89501618e-04
      5.68504853e-04 1.51601294e-03 7.58006470e-04 1.89501618e-03
      3.79003235e-04 3.79003235e-04 7.58006470e-04 0. 1.89501618e-03
      7.58006470e-04 3.79003235e-04 1.89501618e-04 5.68504853e-04
      1.89501618e-04 1.32651138e-03 3.79003235e-04 7.58006470e-04
      3.22152744e-03 1.32651138e-03 1.13700971e-03 2.46352097e-03
      7.58006470e-04 1.13700971e-03 7.58006470e-04 1.89501618e-03
      3.79003235e-04 1.13700971e-03 0. 1.70551450e-03 5.68504853e-04
      5.68504853e-04 1.51601294e-03 7.58006470e-04 3.79003235e-04
      1.89501618e-03 1.89501618e-04 1.51601294e-03 9.47508088e-04
      5.68504853e-04 5.68504853e-04 1.32651138e-03 5.68504853e-04
      1.51601294e-03 1.51601294e-03 2.46352097e-03 2.84252432e-03
      5.68504853e-04 2.27401941e-03 3.79003235e-03 5.68504853e-04
      3.79003235e-04 1.89501618e-04 0. 7.58006470e-04 2.84252432e-03
      1.51601294e-03 3.79003235e-04 7.58006470e-04 0. 3.79003235e-04
      1.51601294e-03 1.70551450e-03 1.32651138e-03 2.46352097e-03
      1.13700971e-03 1.89501618e-04 1.32651138e-03 9.47508088e-04
      1.32651138e-03 2.27401941e-03 1.13700971e-03 3.79003235e-04
      1.32651138e-03 5.30604552e-03 0. 2.65302276e-03 5.68504853e-04
      1.13700971e-03 3.22152744e-03 1.89501618e-04 1.89501618e-04
      9.47508088e-04 1.51601294e-03 3.79003235e-04 7.58006470e-04
      1.32651138e-03 1.51601294e-03 5.68504853e-04 1.89501618e-03
      9.47508088e-04 5.68504853e-04 0. 1.32651138e-03 3.79003235e-04
      7.58006470e-04 2.84252432e-03 3.79003235e-04 9.47508088e-04
      1.51601294e-03 5.68504864e-03 1.51601294e-03 1.32651138e-03
      1.89501618e-04 1.89501618e-04 1.89501618e-04 7.58006470e-04 0. 0.
      1.89501618e-04 1.13700971e-03 3.79003235e-04 3.79003235e-04
      7.58006470e-04 5.68504853e-04 2.27401941e-03 1.89501618e-04
      1.13700971e-03 1.89501618e-04 2.65302276e-03 7.58006470e-04
      1.13700971e-03 2.84252432e-03 1.89501618e-04 3.79003235e-04
      1.70551450e-03 1.32651138e-03 0. 1.89501618e-03 1.32651138e-03
      1.51601294e-03 2.27401941e-03 3.79003235e-04 1.89501618e-04
      3.79003235e-04 9.47508088e-04 3.79003235e-04 7.58006470e-04
      7.58006470e-04 5.68504853e-04 9.47508088e-04 1.70551450e-03
      1.89501618e-04 7.58006470e-04 9.47508088e-04 5.68504853e-04
      5.68504853e-04 0. 5.68504853e-04 7.58006470e-04 1.89501618e-04 0.
      1.13700971e-03 0. 5.68504853e-04 5.68504853e-04 1.32651138e-03
      1.89501618e-04 9.47508088e-04 7.58006470e-04 1.89501618e-04
      1.32651138e-03 1.89501618e-04 3.79003235e-04 4.92704194e-03
      9.47508088e-04 2.84252432e-03 1.89501618e-04 5.68504853e-04
      3.79003235e-03 1.70551450e-03 7.58006470e-04 9.47508088e-04
      1.51601294e-03 3.79003235e-04 5.68504853e-04 5.68504853e-04 0.
      7.58006470e-04 3.79003235e-04 7.58006470e-04 3.79003235e-04
      7.58006470e-04 1.13700971e-03 1.89501618e-03 1.89501618e-04
      2.08451785e-03 7.58006470e-04 2.08451785e-03 5.68504853e-04
      1.51601294e-03 1.51601294e-03 9.47508088e-04 1.13700971e-03
      1.89501618e-03 7.58006470e-04 9.47508088e-04 0. 5.68504853e-04
      5.68504853e-04 1.89501618e-04 5.68504853e-04 7.58006470e-04
      9.47508088e-04 1.89501618e-04 2.65302276e-03 9.47508088e-04
      5.68504853e-04 1.13700971e-03 0. 1.70551450e-03 1.89501618e-04
      3.79003235e-04 1.32651138e-03 1.13700971e-03 1.13700971e-03
      5.68504853e-04 1.89501618e-04 1.13700971e-03 5.68504853e-04
      2.08451785e-03 1.89501618e-04 1.89501618e-04 1.70551450e-03
      7.58006470e-04 1.32651138e-03 5.68504853e-04 5.68504853e-04
      3.79003235e-04 0. 5.68504853e-04 9.47508088e-04 5.68504853e-04 0.
      3.79003235e-04 5.68504853e-04 1.89501618e-04 7.58006470e-04
      2.08451785e-03 3.79003235e-04 1.89501618e-04 7.58006470e-04
      7.58006470e-04 1.32651138e-03 1.51601294e-03 3.79003235e-04
      2.08451785e-03 1.13700971e-03 1.89501618e-04 1.32651138e-03
      5.68504853e-04 7.58006470e-04 0. 1.89501618e-04 1.51601294e-03
      9.47508088e-04 2.08451785e-03 7.58006470e-04 3.79003235e-04 0.
      5.68504853e-04 1.89501618e-04 0. 5.68504853e-04 1.32651138e-03
      1.32651138e-03 5.68504853e-04 3.79003235e-04 1.89501618e-04
      1.89501618e-04 7.58006470e-04 1.13700971e-03 2.08451785e-03
      5.68504853e-04 5.68504853e-04 9.47508088e-04 5.68504853e-04
      9.47508088e-04 1.89501618e-04 3.79003235e-04 1.89501618e-03
      2.65302276e-03 1.89501618e-04 7.58006470e-04 2.27401941e-03
      1.32651138e-03 1.51601294e-03 5.68504853e-04 0. 5.68504853e-04
      1.51601294e-03 3.79003235e-04 2.27401941e-03 2.65302276e-03 0.
      7.58006470e-04 3.03202588e-03 9.47508088e-04 3.79003235e-04
      3.79003235e-04 3.79003235e-04 9.47508088e-04 0. 1.32651138e-03
      3.79003235e-04 9.47508088e-04 7.58006470e-04 5.68504853e-04
      1.13700971e-03 1.13700971e-03 5.68504853e-04 7.58006470e-04
      5.68504853e-04 9.47508088e-04 1.89501618e-03 5.68504853e-04
      1.32651138e-03 2.08451785e-03 7.58006470e-04 2.65302276e-03
      5.68504853e-04 1.13700971e-03 0. 3.79003235e-04 9.47508088e-04
      9.47508088e-04 9.47508088e-04 1.89501618e-04 7.58006470e-04
      2.27401941e-03 3.79003235e-04 1.70551450e-03 1.13700971e-03
      5.68504853e-04 7.58006470e-04 5.68504853e-04 9.47508088e-04
      7.58006470e-04 7.58006470e-04 7.58006470e-04 7.58006470e-04
      1.32651138e-03 1.89501618e-03 7.58006470e-04 1.51601294e-03 0.
      1.89501618e-03 7.58006470e-04 3.79003235e-04 1.13700971e-03
      7.58006470e-04 7.58006470e-04 3.79003235e-04 9.47508088e-04
      7.58006470e-04 7.58006470e-04 7.58006470e-04 5.68504853e-04
      1.13700971e-03 1.13700971e-03 9.47508088e-04 3.79003235e-04
      5.68504853e-04 5.68504853e-04 7.58006470e-04 7.58006470e-04
      1.89501618e-04 3.79003235e-04 5.68504853e-04 5.68504853e-04
      1.89501618e-04 2.84252432e-03 1.89501618e-04 1.32651138e-03
      5.68504853e-04 5.68504853e-04 3.97953391e-03 2.08451785e-03
      1.89501618e-04 5.68504853e-04 2.08451785e-03 1.70551450e-03
      9.47508088e-04 5.68504853e-04 3.79003235e-04 5.68504853e-04
      3.79003235e-04 1.32651138e-03 5.68504853e-04 0. 7.58006470e-04
      5.68504853e-04 9.47508088e-04 7.58006470e-04 1.70551450e-03
      2.27401941e-03 3.79003235e-04 1.13700971e-03 1.13700971e-03
      1.13700971e-03 1.13700971e-03 1.32651138e-03 7.58006470e-04
      7.58006470e-04 1.89501618e-03 5.68504853e-04 1.13700971e-03
      2.08451785e-03 3.79003235e-03 1.32651138e-03 7.58006470e-04
      5.68504853e-04 1.89501618e-03 0. 1.70551450e-03 3.79003235e-04
      1.13700971e-03 1.89501618e-04 1.70551450e-03 5.68504853e-04
      1.13700971e-03 3.79003235e-04 0. 5.68504853e-04 1.89501618e-04
      1.13700971e-03 1.13700971e-03 0. 3.79003235e-04 9.47508088e-04
      5.68504853e-04 7.58006470e-04 1.89501618e-04 7.58006470e-04
      3.79003235e-04 1.70551450e-03 1.89501618e-04 7.58006470e-04
      1.89501618e-04 1.32651138e-03 5.68504853e-04 2.46352097e-03
      9.47508088e-04 1.32651138e-03 2.27401941e-03 5.68504853e-04
      1.51601294e-03 3.79003235e-04 1.89501618e-04 5.68504853e-04
      1.51601294e-03 5.68504853e-04 9.47508088e-04 5.68504853e-04 0.
      9.47508088e-04 7.58006470e-04 1.89501618e-03 5.68504853e-04
      7.58006470e-04 1.32651138e-03 3.79003235e-04 5.68504853e-04
      1.89501618e-04 1.32651138e-03 1.13700971e-03 5.68504853e-04
      5.68504853e-04 3.79003235e-04 3.41102900e-03 3.79003235e-04
      1.32651138e-03 1.89501618e-04 1.13700971e-03 1.51601294e-03
      1.13700971e-03 9.47508088e-04 5.68504853e-04 1.13700971e-03
      3.79003235e-04 5.68504853e-04 0. 9.47508088e-04 1.89501618e-04
      3.79003235e-04 9.47508088e-04 7.58006470e-04 1.13700971e-03
      9.47508088e-04 3.79003235e-04 2.84252432e-03 1.13700971e-03
      5.68504853e-04 0. 2.46352097e-03 3.79003235e-04 5.68504853e-04
      9.47508088e-04 3.79003235e-04 5.68504853e-04 1.32651138e-03
      5.68504853e-04 1.13700971e-03 1.32651138e-03 9.47508088e-04
      1.51601294e-03 5.68504853e-04 9.47508088e-04 5.68504853e-04
      1.51601294e-03 1.13700971e-03 2.08451785e-03 2.27401941e-03
      2.08451785e-03 7.58006470e-04 1.70551450e-03 1.89501618e-04
      1.89501618e-04 1.89501618e-04 1.89501618e-03 5.11654373e-03
      3.79003235e-04 1.13700971e-03 7.58006470e-04 0. 5.68504853e-04
      2.65302276e-03 5.68504853e-04 1.89501618e-03 5.68504853e-04
      7.58006470e-04 7.58006470e-04 2.46352097e-03 7.58006470e-04
      1.89501618e-04 1.89501618e-03 2.08451785e-03 1.13700971e-03
      1.13700971e-03 9.47508088e-04 9.47508088e-04 5.68504853e-04
      1.13700971e-03 4.35853703e-03 9.47508088e-04 0. 1.70551450e-03
      5.68504853e-04 9.47508088e-04 5.68504853e-04</_>
    <_>
      9.88337677e-04 3.95335053e-04 9.88337677e-04 7.90670107e-04
      1.58134021e-03 1.97667527e-04 1.58134021e-03 1.77900773e-03
      7.90670107e-04 0. 9.88337677e-04 9.88337677e-04 1.97667527e-04
      1.18600519e-03 2.76734540e-03 1.77900773e-03 5.93002595e-04
      7.90670107e-04 9.88337677e-04 1.97667527e-04 0. 7.90670107e-04
      1.97667527e-04 9.88337677e-04 1.97667527e-04 1.97667527e-04
      5.93002595e-04 1.18600519e-03 3.95335053e-04 1.97667535e-03
      5.93002595e-04 3.95335053e-04 1.38367270e-03 1.18600519e-03
      1.58134021e-03 1.97667527e-04 7.90670107e-04 7.90670107e-04
      1.97667527e-04 1.38367270e-03 7.90670107e-04 3.95335053e-04
      1.38367270e-03 9.88337677e-04 0. 5.93002595e-04 5.93002595e-04
      9.88337677e-04 1.18600519e-03 3.95335053e-04 2.56967777e-03
      5.93002595e-04 9.88337677e-04 9.88337677e-04 6.91836327e-03
      1.18600519e-03 3.95335053e-04 1.97667527e-04 4.15101787e-03
      5.93002595e-04 1.58134021e-03 7.90670107e-04 0. 1.97667535e-03
      1.18600519e-03 7.90670107e-04 2.37201038e-03 7.90670107e-04
      1.97667527e-04 3.95335053e-04 5.93002595e-04 5.93002595e-04
      1.18600519e-03 1.38367270e-03 0. 7.90670107e-04 3.95335053e-04
      3.95335053e-04 7.90670107e-04 2.56967777e-03 9.88337677e-04
      7.90670107e-04 1.38367270e-03 9.88337677e-04 1.77900773e-03
      1.97667535e-03 3.95335053e-04 1.97667527e-04 1.97667527e-04
      1.18600519e-03 2.37201038e-03 7.90670107e-04 1.38367270e-03
      7.90670107e-04 3.95335053e-04 9.88337677e-04 1.38367270e-03
      1.58134021e-03 2.37201038e-03 1.18600519e-03 0. 2.56967777e-03
      1.97667527e-04 2.17434275e-03 3.95335053e-04 7.90670107e-04
      1.18600519e-03 3.95335053e-04 0. 9.88337677e-04 9.88337677e-04
      1.97667535e-03 7.90670107e-04 1.18600519e-03 1.97667527e-04
      1.97667527e-04 1.18600519e-03 1.97667527e-04 5.93002595e-04
      1.58134021e-03 1.58134021e-03 5.93002595e-04 1.38367270e-03
      3.95335053e-04 7.90670107e-04 7.90670107e-04 0. 1.97667527e-04
      1.97667535e-03 1.97667527e-04 1.97667527e-04 7.90670107e-04
      1.18600519e-03 2.37201038e-03 1.77900773e-03 7.90670107e-04
      5.93002595e-04 3.55801545e-03 1.38367270e-03 1.18600519e-03
      9.88337677e-04 1.97667527e-04 1.58134021e-03 5.93002595e-04 0.
      1.97667527e-04 7.90670107e-04 1.97667527e-04 9.88337677e-04
      7.90670107e-04 1.58134021e-03 3.95335053e-04 9.88337677e-04
      2.17434275e-03 9.88337677e-04 7.90670107e-04 1.58134021e-03
      1.18600519e-03 3.95335053e-04 5.93002595e-04 1.97667527e-04
      7.90670107e-04 9.88337677e-04 3.95335053e-04 7.90670107e-04
      5.93002595e-04 1.97667535e-03 1.58134021e-03 9.88337677e-04
      1.18600519e-03 5.93002595e-04 5.93002595e-04 5.93002595e-04
      3.95335053e-04 5.93002595e-04 9.88337677e-04 9.88337677e-04
      1.97667527e-04 1.38367270e-03 1.97667527e-04 1.97667527e-04
      7.90670107e-04 9.88337677e-04 9.88337677e-04 7.90670107e-04
      2.96501280e-03 1.58134021e-03 1.58134021e-03 1.38367270e-03
      7.90670107e-04 3.95335053e-04 5.93002595e-04 7.90670107e-04
      2.96501280e-03 2.17434275e-03 9.88337677e-04 7.90670107e-04
      3.95335053e-04 1.18600519e-03 2.56967777e-03 7.90670107e-04
      5.93002595e-04 3.95335053e-04 7.90670107e-04 2.17434275e-03
      2.96501280e-03 5.93002595e-04 1.38367270e-03 1.18600519e-03
      5.93002595e-04 7.90670107e-04 7.90670107e-04 3.95335053e-04
      1.97667527e-04 7.90670107e-04 1.18600519e-03 3.95335053e-04
      7.90670107e-04 2.76734540e-03 1.58134021e-03 0. 9.88337677e-04
      5.93002595e-04 5.93002595e-04 5.93002595e-04 1.58134021e-03
      9.88337677e-04 7.90670107e-04 1.38367270e-03 1.18600519e-03
      1.97667535e-03 7.90670107e-04 3.95335053e-04 9.88337677e-04
      5.93002595e-04 1.18600519e-03 3.95335053e-04 5.93002595e-04
      1.18600519e-03 1.18600519e-03 2.37201038e-03 1.58134021e-03
      3.95335053e-04 9.88337677e-04 5.93002595e-04 9.88337677e-04
      1.38367270e-03 1.18600519e-03 1.38367270e-03 3.95335053e-04
      5.33702318e-03 3.95335053e-04 1.77900773e-03 5.93002595e-04
      1.97667527e-04 9.88337677e-04 1.38367270e-03 7.90670107e-04
      3.95335053e-04 9.88337677e-04 1.77900773e-03 3.95335053e-04
      1.38367270e-03 7.90670107e-04 1.97667527e-04 7.90670107e-04
      1.58134021e-03 1.97667527e-04 1.97667527e-04 5.93002595e-04
      3.16268043e-03 3.95335053e-04 1.97667535e-03 2.37201038e-03
      3.95335053e-04 5.93002595e-04 0. 9.88337677e-04 1.97667527e-04
      1.58134021e-03 1.97667527e-04 3.95335053e-04 1.58134021e-03
      2.96501280e-03 2.37201038e-03 1.97667527e-04 5.93002595e-04
      9.88337677e-04 2.96501280e-03 3.16268043e-03 3.95335053e-04
      1.77900773e-03 7.90670107e-04 5.93002595e-04 1.18600519e-03
      3.95335053e-04 3.95335053e-04 1.97667527e-04 1.18600519e-03
      3.95335053e-04 1.18600519e-03 5.93002595e-04 3.95335053e-04
      2.17434275e-03 1.77900773e-03 1.58134021e-03 9.88337677e-04
      5.93002595e-04 5.93002595e-04 7.90670107e-04 1.38367270e-03
      1.18600519e-03 3.95335053e-04 1.58134021e-03 0. 9.88337677e-04
      5.93002595e-04 3.16268043e-03 1.77900773e-03 5.93002595e-04
      5.93002595e-04 1.97667527e-04 5.93002595e-04 1.97667535e-03
      1.18600519e-03 2.37201038e-03 3.95335053e-04 3.95335053e-04
      9.88337677e-04 5.93002595e-04 3.16268043e-03 3.95335053e-04
      7.90670107e-04 5.93002595e-04 9.88337677e-04 1.58134021e-03
      9.88337677e-04 5.93002595e-04 9.88337677e-04 7.90670107e-04
      3.95335053e-04 3.95335053e-04 3.95335053e-04 1.97667527e-04
      1.58134021e-03 3.95335053e-04 2.17434275e-03 5.93002595e-04
      5.93002595e-04 3.95335053e-04 5.93002595e-04 1.38367270e-03 0.
      1.38367270e-03 2.37201038e-03 3.95335053e-04 1.97667535e-03
      1.18600519e-03 5.93002595e-04 1.18600519e-03 2.37201038e-03
      3.95335053e-04 3.95335053e-04 1.18600519e-03 5.93002595e-04
      9.88337677e-04 1.97667527e-04 9.88337677e-04 9.88337677e-04
      1.77900773e-03 7.90670107e-04 1.18600519e-03 1.38367270e-03
      3.95335053e-04 1.97667527e-04 5.93002595e-04 3.95335053e-04
      1.18600519e-03 1.38367270e-03 5.93002595e-04 3.95335053e-04
      3.95335053e-04 1.77900773e-03 1.97667527e-04 2.17434275e-03
      9.88337677e-04 3.95335053e-04 1.18600519e-03 1.38367270e-03
      1.38367270e-03 1.18600519e-03 7.90670107e-04 7.90670107e-04
      1.18600519e-03 7.90670107e-04 5.93002595e-04 1.18600519e-03
      9.88337677e-04 1.58134021e-03 1.38367270e-03 1.58134021e-03
      9.88337677e-04 2.37201038e-03 1.18600519e-03 1.58134021e-03
      1.38367270e-03 1.97667535e-03 7.90670107e-04 1.97667527e-04
      3.95335053e-04 1.77900773e-03 1.97667527e-04 9.88337677e-04
      2.17434275e-03 9.88337677e-04 3.95335053e-04 3.95335053e-04
      1.58134021e-03 9.88337677e-04 1.18600519e-03 3.95335053e-04
      1.18600519e-03 7.90670107e-04 5.93002595e-04 5.93002595e-04
      3.36034806e-03 3.95335053e-04 1.77900773e-03 1.38367270e-03
      1.38367270e-03 5.93002595e-04 0. 7.90670107e-04 5.93002595e-04
      1.97667527e-04 9.88337677e-04 5.93002595e-04 9.88337677e-04
      9.88337677e-04 1.18600519e-03 1.97667527e-04 7.31369853e-03
      1.38367270e-03 5.93002595e-04 1.77900773e-03 7.90670107e-04
      9.88337677e-04 1.58134021e-03 7.90670107e-04 1.97667535e-03
      1.18600519e-03 7.90670107e-04 3.75568308e-03 3.95335053e-04
      7.90670107e-04 1.97667527e-04 7.90670107e-04 5.93002595e-04
      9.88337677e-04 5.93002595e-04 1.97667535e-03 3.95335053e-04
      3.95335053e-04 3.95335053e-04 7.90670107e-04 9.88337677e-04
      5.93002595e-04 9.88337677e-04 2.76734540e-03 5.93002595e-04
      7.90670107e-04 9.88337677e-04 1.97667527e-04 0. 5.93002595e-04
      5.93002595e-04 7.90670107e-04 1.18600519e-03 1.77900773e-03
      9.88337677e-04 1.97667527e-04 7.90670107e-04 9.88337677e-04
      3.55801545e-03 1.77900773e-03 0. 9.88337677e-04 7.90670107e-04
      1.97667535e-03 9.88337677e-04 5.93002595e-04 1.97667527e-04 0.
      1.18600519e-03 5.93002595e-04 7.90670107e-04 2.76734540e-03
      9.88337677e-04 3.95335071e-03 3.75568308e-03 0. 5.93002595e-04
      3.95335053e-04 3.95335053e-04 3.95335053e-04 9.88337677e-04
      1.38367270e-03 5.93002595e-04 5.93002595e-04 0. 1.97667527e-04
      2.37201038e-03 1.38367270e-03 7.90670107e-04 7.90670107e-04
      9.88337677e-04 1.97667527e-04 3.95335053e-04 7.90670107e-04
      1.58134021e-03 6.91836327e-03 0. 3.95335053e-04 3.95335053e-04
      3.95335071e-03 3.95335053e-04 0. 1.97667527e-04 5.93002595e-04
      7.90670107e-04 1.18600519e-03 3.95335053e-04 5.93002595e-04 0. 0.
      7.90670107e-04 3.95335053e-04 0. 7.90670107e-04 0. 5.93002595e-04
      1.77900773e-03 1.97667527e-04 9.88337677e-04 1.58134021e-03
      5.93002595e-04 3.75568308e-03 2.17434275e-03 1.97667527e-04
      5.93002595e-04 4.74402076e-03 1.38367270e-03 7.90670107e-04
      3.95335053e-04 3.95335053e-04 1.18600519e-03 3.95335053e-04
      3.95335053e-04 5.93002595e-04 5.93002595e-04 7.90670107e-04
      1.38367270e-03 1.18600519e-03 1.58134021e-03 1.18600519e-03
      5.93002595e-04 5.93002595e-04 1.38367270e-03 7.90670107e-04
      1.18600519e-03 5.93002595e-04 9.88337677e-04 1.18600519e-03
      1.97667527e-04 9.88337677e-04 5.93002595e-04 2.37201038e-03
      1.18600519e-03 7.90670107e-04 2.76734540e-03 1.58134021e-03
      7.90670107e-04 7.90670107e-04 1.18600519e-03 7.90670107e-04
      3.95335053e-04 5.93002595e-04 3.95335053e-04 1.97667535e-03
      9.88337677e-04 5.93002595e-04 3.95335053e-04 1.18600519e-03
      3.95335053e-04 3.95335053e-04 3.95335053e-04 1.77900773e-03
      3.95335053e-04 2.96501280e-03 1.18600519e-03 3.95335053e-04
      3.95335053e-04 1.77900773e-03 1.97667527e-04 1.97667527e-04
      9.88337677e-04 3.95335053e-04 7.90670107e-04 7.90670107e-04
      7.90670107e-04 9.88337677e-04 6.12769322e-03 3.95335053e-04
      3.95335053e-04 5.13935555e-03 3.95335053e-04 5.93002595e-04
      5.93002595e-04 7.90670107e-04 1.77900773e-03 9.88337677e-04
      3.16268043e-03 3.95335053e-04 9.88337677e-04 0. 5.93002595e-04
      9.88337677e-04 5.93002595e-04 1.38367270e-03 0. 3.95335053e-04
      5.93002595e-04 3.95335053e-04 3.95335053e-04 5.93002595e-04
      3.95335053e-04 5.93002595e-04 5.93002595e-04 1.58134021e-03
      5.93002595e-04 4.74402076e-03 7.90670107e-04 0. 5.93002595e-04
      1.97667527e-04 7.90670107e-04 5.93002595e-04 7.90670107e-04
      1.38367270e-03 3.95335053e-04 1.77900773e-03 1.38367270e-03
      1.38367270e-03 5.93002595e-04 7.90670107e-04 6.12769322e-03
      9.88337677e-04 9.88337677e-04 3.95335053e-04 7.90670107e-04
      5.93002595e-04 1.18600519e-03 3.95335053e-04 5.93002595e-04
      1.77900773e-03 9.88337677e-04 1.38367270e-03 9.88337677e-04
      1.58134021e-03 1.77900773e-03 5.93002595e-04 7.90670107e-04
      7.90670107e-04 3.95335053e-04 7.90670107e-04 3.95335053e-04
      1.18600519e-03 7.90670107e-04 7.90670107e-04 2.37201038e-03
      7.90670107e-04 7.90670107e-04 9.88337677e-04 3.95335053e-04
      1.18600519e-03 1.97667527e-04 7.90670107e-04 3.95335053e-04
      1.58134021e-03 7.90670107e-04 3.95335053e-04 9.88337677e-04
      1.58134021e-03 1.38367270e-03 5.93002595e-04 7.90670107e-04
      1.97667527e-04 5.93002595e-04 2.56967777e-03 1.97667527e-04
      5.93002595e-04 3.95335053e-04 0. 9.88337677e-04 5.93002595e-04
      5.93002595e-04 7.90670107e-04 1.97667527e-04 1.38367270e-03
      3.95335053e-04 2.37201038e-03 9.88337677e-04 1.38367270e-03
      5.93002595e-04 3.95335053e-04 1.58134021e-03 5.93002595e-04
      4.34868550e-03 1.97667527e-04 1.97667527e-04 3.95335053e-04
      1.38367270e-03 5.93002595e-04 1.97667527e-04 3.95335053e-04
      5.93002595e-04 9.88337677e-04 1.38367270e-03 9.88337677e-04
      3.95335053e-04 9.88337677e-04 1.18600519e-03 1.38367270e-03
      9.88337677e-04 7.90670107e-04 1.18600519e-03 5.93002595e-04
      1.58134021e-03 1.38367270e-03 9.88337677e-04 9.88337677e-04
      5.93002595e-04 1.77900773e-03 7.90670107e-04 9.88337677e-04
      5.93002595e-04 2.56967777e-03 1.38367270e-03 5.93002595e-04
      1.18600519e-03 9.88337677e-04 7.90670107e-04 9.88337677e-04
      3.95335053e-04 9.88337677e-04 9.88337677e-04 7.90670107e-04
      1.58134021e-03 9.88337677e-04 5.93002595e-04 5.93002595e-04
      9.88337677e-04 7.90670107e-04 3.95335053e-04 1.97667527e-04
      9.88337677e-04 9.88337677e-04 1.58134021e-03 7.90670107e-04
      3.16268043e-03 1.58134021e-03 7.90670107e-04 9.88337677e-04
      9.88337677e-04 3.95335053e-04 0. 1.18600519e-03 5.93002595e-04
      1.77900773e-03 3.95335053e-04 1.97667527e-04 1.97667535e-03
      5.93002595e-04 1.38367270e-03 5.93002595e-04 1.97667527e-04
      1.97667535e-03 5.93002595e-04 5.93002595e-04 9.88337677e-04
      7.90670107e-04 7.90670107e-04 1.97667527e-04 1.38367270e-03
      9.88337677e-04 5.93002595e-04 1.77900773e-03 5.93002595e-04
      1.18600519e-03 3.95335053e-04 9.88337677e-04 3.95335053e-04
      3.95335053e-04 7.90670107e-04 2.76734540e-03 3.95335053e-04
      3.95335053e-04 3.16268043e-03 7.90670107e-04 1.18600519e-03
      1.58134021e-03 1.58134021e-03 9.88337677e-04 7.90670107e-04
      1.77900773e-03 1.58134021e-03 2.76734540e-03 2.96501280e-03
      5.93002595e-04 5.93002595e-04 9.88337677e-04 1.38367270e-03
      5.93002595e-04 3.95335053e-04 5.93002595e-04 5.93002595e-04
      1.18600519e-03 3.95335053e-04 3.95335053e-04 1.18600519e-03
      7.90670107e-04 1.58134021e-03 9.88337677e-04 1.58134021e-03
      9.88337677e-04 0. 1.38367270e-03 9.88337677e-04 0. 5.93002595e-04
      0. 7.90670107e-04 3.95335053e-04 7.90670107e-04 1.18600519e-03
      3.95335053e-04 5.93002595e-04 7.90670107e-04 1.97667527e-04
      3.16268043e-03 1.77900773e-03 1.18600519e-03 1.97667527e-04
      1.77900773e-03 9.88337677e-04 1.97667527e-04 5.93002595e-04
      7.90670107e-04 7.90670107e-04 9.88337677e-04 4.34868550e-03
      3.95335053e-04 1.38367270e-03 3.95335053e-04 1.58134021e-03
      1.38367270e-03 7.90670107e-04 9.88337677e-04 7.90670107e-04
      3.95335053e-04 7.90670107e-04 7.90670107e-04 1.97667527e-04
      9.88337677e-04 5.93002595e-04 7.90670107e-04 5.93002595e-04
      5.93002595e-04 9.88337677e-04 3.95335053e-04 1.58134021e-03
      1.18600519e-03 5.93002595e-04 5.93002595e-04 1.18600519e-03
      9.88337677e-04 2.17434275e-03 3.95335053e-04 2.17434275e-03
      3.75568308e-03 1.77900773e-03 5.93002595e-04 1.97667527e-04
      5.93002595e-04 1.38367270e-03 5.93002595e-04 0. 5.93002595e-04
      9.88337677e-04 5.93002595e-04 3.95335053e-04 3.95335053e-04
      2.17434275e-03 1.97667535e-03 7.90670107e-04 1.77900773e-03
      1.18600519e-03 1.77900773e-03 7.90670107e-04 3.95335053e-04
      5.93002595e-04 1.18600519e-03 1.18600519e-03 7.90670107e-04
      5.93002595e-04 7.90670107e-04 1.18600519e-03 3.95335053e-04
      3.95335053e-04 2.17434275e-03 1.97667527e-04 1.97667527e-04
      1.97667527e-04 1.97667535e-03 7.90670107e-04 7.90670107e-04 0.
      3.95335053e-04 5.93002595e-04 1.58134021e-03 9.88337677e-04
      9.88337677e-04 7.90670107e-04 3.95335053e-04 1.18600519e-03
      1.97667527e-04 1.97667527e-04 1.97667527e-04 3.95335053e-04
      5.93002595e-04 5.93002595e-04 7.90670107e-04 7.90670107e-04
      1.97667527e-04 1.58134021e-03 1.38367270e-03 7.90670107e-04
      5.93002595e-04 3.95335053e-04 1.18600519e-03 1.97667527e-04 0.
      2.37201038e-03 9.88337677e-04 1.18600519e-03 5.93002595e-04
      3.95335053e-04 7.90670107e-04 3.95335053e-04 7.90670107e-04
      7.90670107e-04 1.18600519e-03 9.88337677e-04 3.36034806e-03
      5.93002595e-04 9.88337677e-04 3.95335053e-04 1.18600519e-03
      9.88337677e-04 3.95335053e-04 2.76734540e-03 9.88337677e-04
      9.88337677e-04 0. 1.18600519e-03 1.38367270e-03 5.93002595e-04
      1.58134021e-03 5.93002595e-04 7.90670107e-04 5.93002595e-04
      2.76734540e-03 7.90670107e-04 1.18600519e-03 1.38367270e-03
      5.93002595e-04 1.18600519e-03 5.93002595e-04 7.90670107e-04
      1.97667527e-04 1.97667527e-04 9.88337677e-04 5.93002595e-04
      7.90670107e-04 1.97667527e-04 7.90670107e-04 1.97667527e-04
      1.97667527e-04 0. 1.97667527e-04</_>
    <_>
      1.74520072e-03 0. 0. 0. 0. 0. 8.72600358e-04 1.48342066e-02
      8.72600358e-04 0. 0. 8.72600358e-04 0. 0. 1.74520072e-03
      8.72600358e-04 8.72600358e-04 0. 1.74520072e-03 0. 0.
      1.74520072e-03 0. 0. 0. 0. 0. 1.74520072e-03 0. 1.74520072e-03 0.
      0. 8.72600358e-04 1.74520072e-03 8.72600358e-04 0. 0.
      8.72600358e-04 0. 0. 0. 0. 3.49040143e-03 5.23560215e-03
      1.74520072e-03 1.74520072e-03 0. 8.72600358e-04 0. 2.61780107e-03
      1.74520072e-03 8.72600358e-04 0. 0. 4.36300179e-03 0.
      8.72600358e-04 1.74520072e-03 8.72600358e-04 8.72600358e-04
      1.74520072e-03 1.74520072e-03 0. 0. 6.98080286e-03 0. 0. 0. 0. 0.
      0. 0. 4.36300179e-03 0. 8.72600358e-04 0. 0. 1.74520072e-03
      5.23560215e-03 4.36300179e-03 1.74520072e-03 0. 3.49040143e-03 0.
      3.49040143e-03 0. 0. 0. 3.49040143e-03 0. 4.36300179e-03 0. 0.
      2.61780107e-03 3.49040143e-03 0. 0. 0. 0. 0. 0. 4.36300179e-03
      8.72600358e-04 0. 0. 0. 0. 8.72600358e-04 8.72600358e-04
      5.23560215e-03 8.72600358e-04 8.72600358e-04 3.49040143e-03
      8.72600358e-04 0. 8.72600358e-04 6.10820251e-03 1.74520072e-03
      1.74520072e-03 5.23560215e-03 1.74520072e-03 0. 0. 0. 0.
      6.98080286e-03 0. 2.61780107e-03 0. 1.74520072e-03 0. 0.
      8.72600358e-04 0. 8.72600358e-04 8.72600358e-04 0. 3.49040143e-03
      0. 8.72600358e-04 0. 0. 0. 0. 0. 0. 0. 0. 0. 0. 8.72600358e-04
      8.72600358e-04 8.72600358e-04 6.10820251e-03 0. 8.72600358e-04
      8.72600358e-04 0. 0. 3.49040143e-03 1.74520072e-03 0.
      8.72600358e-04 8.72600358e-04 0. 8.72600358e-04 0. 0. 0.
      8.72600358e-04 0. 0. 0. 0. 1.74520072e-03 8.72600358e-04
      4.36300179e-03 0. 8.72600358e-04 8.72600358e-04 8.72600358e-04
      1.74520072e-03 0. 0. 1.74520072e-03 6.10820251e-03 0.
      1.74520072e-03 0. 8.72600358e-04 8.72600358e-04 0. 1.74520072e-03
      8.72600358e-04 1.13438051e-02 0. 0. 2.61780107e-03 3.49040143e-03
      0. 0. 0. 0. 0. 0. 8.72600358e-04 0. 8.72600358e-04 1.74520072e-03
      1.74520072e-03 2.61780107e-03 1.74520072e-03 0. 0. 0.
      2.61780107e-03 0. 0. 1.74520072e-03 0. 8.72600358e-04 0.
      1.74520072e-03 0. 0. 6.98080286e-03 0. 2.61780107e-03 0. 0.
      1.74520072e-03 0. 0. 0. 8.72600358e-04 1.74520072e-03 0.
      8.72600358e-04 0. 0. 8.72600358e-04 0. 8.72600358e-04
      1.74520072e-03 0. 4.36300179e-03 0. 0. 0. 3.49040143e-03
      1.74520072e-03 8.72600358e-04 0. 0. 1.74520072e-03 0.
      8.72600358e-04 8.72600358e-04 6.98080286e-03 8.72600358e-04
      1.74520072e-03 0. 0. 0. 8.72600358e-04 0. 0. 0. 0. 8.72600358e-04
      0. 0. 8.72600358e-04 3.49040143e-03 8.72600358e-04 8.72600358e-04
      0. 1.74520072e-03 5.23560215e-03 0. 8.72600358e-04 0. 0.
      8.72600358e-04 0. 0. 8.72600358e-04 8.72600358e-04 1.74520072e-03
      3.49040143e-03 0. 8.72600358e-04 0. 1.74520072e-03 3.49040143e-03
      0. 8.72600358e-04 0. 0. 0. 0. 0. 0. 0. 8.72600358e-04
      1.74520072e-03 8.72600358e-04 1.74520072e-03 0. 4.36300179e-03 0.
      0. 0. 0. 0. 0. 0. 0. 2.61780107e-03 8.72600358e-04 0.
      1.74520072e-03 8.72600358e-04 8.72600358e-04 8.72600358e-04
      1.74520072e-03 0. 8.72600358e-04 0. 0. 8.72600358e-04 0. 0.
      2.61780107e-03 1.74520072e-03 0. 8.72600358e-04 8.72600358e-04
      1.74520072e-03 0. 1.74520072e-03 8.72600358e-04 0. 0.
      8.72600358e-04 0. 0. 0. 2.61780107e-03 0. 0. 8.72600358e-04 0. 0.
      4.36300179e-03 8.72600358e-04 8.72600358e-04 0. 1.74520072e-03 0.
      1.74520072e-03 0. 1.74520072e-03 8.72600358e-04 0. 2.61780107e-03
      2.61780107e-03 8.72600358e-04 0. 0. 8.72600358e-04 0.
      1.74520072e-03 0. 0. 2.61780107e-03 0. 3.49040143e-03
      4.36300179e-03 4.36300179e-03 0. 0. 0. 0. 8.72600358e-04
      8.72600358e-04 0. 0. 1.74520072e-03 0. 0. 8.72600358e-04
      8.72600358e-04 6.98080286e-03 0. 0. 3.49040143e-03 8.72600358e-04
      0. 0. 8.72600358e-04 0. 8.72600358e-04 8.72600358e-04
      8.72600358e-04 1.74520072e-03 0. 3.49040143e-03 8.72600358e-04 0.
      8.72600358e-04 1.74520072e-03 2.61780107e-03 3.49040143e-03
      1.74520072e-03 0. 0. 0. 0. 8.72600358e-04 0. 0. 1.74520072e-03 0.
      3.49040143e-03 4.36300179e-03 0. 4.36300179e-03 1.74520072e-03
      4.36300179e-03 0. 0. 0. 3.49040143e-03 0. 0. 0. 0. 3.49040143e-03
      1.74520072e-03 0. 2.61780107e-03 8.72600358e-04 0. 2.61780107e-03
      8.72600358e-04 8.72600358e-04 0. 0. 0. 0. 0. 0. 8.72600358e-04
      8.72600358e-04 0. 8.72600358e-04 0. 0. 0. 0. 1.74520072e-03
      3.49040143e-03 0. 0. 8.72600358e-04 1.74520072e-03 0.
      8.72600358e-04 6.98080286e-03 3.49040143e-03 8.72600358e-04
      8.72600358e-04 0. 0. 3.49040143e-03 0. 1.74520072e-03 0. 0. 0. 0.
      0. 0. 8.72600358e-04 2.61780107e-03 0. 1.74520072e-03
      8.72600358e-04 8.72600358e-04 0. 8.72600358e-04 0. 8.72600358e-04
      0. 4.36300179e-03 1.74520072e-03 8.72600358e-04 3.49040143e-03
      1.74520072e-03 0. 0. 8.72600358e-04 3.49040143e-03 8.72600358e-04
      1.74520072e-03 0. 8.72600358e-04 0. 8.72600358e-04 8.72600358e-04
      0. 8.72600358e-04 3.49040143e-03 8.72600358e-04 8.72600358e-04 0.
      2.61780107e-03 2.61780107e-03 8.72600358e-04 6.10820251e-03 0.
      8.72600358e-04 0. 1.74520072e-03 0. 3.49040143e-03 1.74520072e-03
      8.72600358e-04 2.61780107e-03 0. 8.72600358e-04 8.72600358e-04
      2.61780107e-03 0. 1.74520072e-03 0. 0. 0. 8.72600358e-04 0. 0. 0.
      8.72600358e-04 8.72600358e-04 0. 8.72600358e-04 1.74520072e-03
      1.74520072e-03 0. 4.36300179e-03 0. 0. 1.74520072e-03 0. 0. 0. 0.
      0. 8.72600358e-04 0. 0. 0. 2.61780107e-03 0. 1.13438051e-02
      2.61780107e-03 8.72600358e-04 1.74520072e-03 0. 8.72600358e-04 0.
      2.61780107e-03 0. 8.72600358e-04 0. 8.72600358e-04 1.74520072e-03
      5.23560215e-03 0. 0. 0. 0. 8.72600358e-04 8.72600358e-04
      8.72600358e-04 0. 8.72600358e-04 0. 1.74520072e-03 8.72600358e-04
      0. 0. 0. 0. 0. 1.74520072e-03 0. 3.49040143e-03 0. 0. 0. 0.
      8.72600358e-04 8.72600358e-04 1.74520072e-03 4.36300179e-03 0. 0.
      0. 0. 5.23560215e-03 0. 0. 6.98080286e-03 0. 8.72600358e-04 0. 0.
      0. 1.74520072e-03 0. 0. 5.23560215e-03 8.72600358e-04 0. 0. 0.
      1.74520072e-03 0. 1.74520072e-03 0. 0. 8.72600358e-04 0. 0.
      8.72600358e-04 0. 8.72600358e-04 0. 4.36300179e-03 1.74520072e-03
      0. 4.36300179e-03 8.72600358e-04 8.72600358e-04 0. 0. 0. 0.
      1.74520072e-03 0. 0. 2.61780107e-03 3.49040143e-03 1.13438051e-02
      6.10820251e-03 1.74520072e-03 8.72600358e-04 0. 8.72600358e-04 0.
      0. 0. 8.72600358e-04 0. 0. 0. 0. 8.72600358e-04 2.61780107e-03
      6.98080286e-03 1.74520072e-03 8.72600358e-04 6.10820251e-03 0. 0.
      0. 4.36300179e-03 0. 8.72600358e-04 0. 0. 1.74520072e-03
      8.72600358e-04 0. 0. 0. 8.72600358e-04 0. 8.72600358e-04
      8.72600358e-04 8.72600358e-04 2.61780107e-03 0. 0. 3.49040143e-03
      8.72600358e-04 0. 0. 8.72600358e-04 8.72600358e-04 0. 0. 0. 0.
      8.72600358e-04 0. 4.36300179e-03 0. 0. 0. 0. 0. 0. 0. 0.
      8.72600358e-04 0. 0. 0. 2.61780107e-03 8.72600358e-04
      2.61780107e-03 0. 0. 1.74520072e-03 8.72600358e-04 0. 0.
      1.74520072e-03 1.74520072e-03 0. 2.61780107e-03 1.74520072e-03
      8.72600358e-04 8.72600358e-04 8.72600358e-04 0. 0. 1.74520072e-03
      1.74520072e-03 6.10820251e-03 8.72600358e-04 2.61780107e-03 0.
      1.74520072e-03 8.72600358e-04 0. 0. 0. 8.72600358e-04 0.
      8.72600358e-04 0. 1.74520072e-03 8.72600358e-04 8.72600358e-04 0.
      1.74520072e-03 1.74520072e-03 8.72600358e-04 0. 0. 1.74520072e-03
      0. 8.72600358e-04 2.61780107e-03 8.72600358e-04 0. 1.74520072e-03
      1.74520072e-03 0. 1.74520072e-03 0. 8.72600358e-04 0. 0.
      8.72600358e-04 3.49040143e-03 3.49040143e-03 8.72600358e-04
      8.72600358e-04 0. 8.72600358e-04 8.72600358e-04 0. 0. 0. 0.
      1.74520072e-03 0. 0. 8.72600358e-04 0. 0. 0. 8.72600358e-04 0. 0.
      1.74520072e-03 8.72600358e-04 0. 8.72600358e-04 0. 0.
      2.61780107e-03 1.74520072e-03 3.49040143e-03 0. 0. 8.72600358e-04
      0. 0. 6.98080286e-03 0. 0. 1.74520072e-03 8.72600358e-04 0.
      2.61780107e-03 3.49040143e-03 8.72600358e-04 8.72600358e-04 0.
      1.74520072e-03 1.74520072e-03 1.74520072e-03 0. 6.10820251e-03 0.
      0. 0. 0. 8.72600358e-04 0. 0. 0. 8.72600358e-04 0. 8.72600358e-04
      0. 8.72600358e-04 3.49040143e-03 8.72600358e-04 1.74520072e-03
      8.72600358e-04 2.61780107e-03 0. 0. 1.74520072e-03 8.72600358e-04
      0. 1.74520072e-03 8.72600358e-04 8.72600358e-04 0. 1.74520072e-03
      3.49040143e-03 0. 4.36300179e-03 0. 1.74520072e-03 8.72600358e-04
      0. 1.74520072e-03 8.72600358e-04 4.36300179e-03 2.61780107e-03
      8.72600358e-04 8.72600358e-04 0. 0. 0. 1.74520072e-03 0. 0. 0.
      1.74520072e-03 0. 8.72600358e-04 0. 0. 0. 0. 8.72600358e-04 0.
      8.72600358e-04 0. 1.74520072e-03 0. 6.10820251e-03 1.74520072e-03
      8.72600358e-04 5.23560215e-03 8.72600358e-04 2.61780107e-03 0. 0.
      0. 8.72600358e-04 0. 1.74520072e-03 8.72600358e-04 0.
      8.72600358e-04 8.72600358e-04 1.74520072e-03 8.72600358e-04
      2.61780107e-03 0. 0. 0. 8.72600358e-04 4.36300179e-03
      8.72600358e-04 1.74520072e-03 0. 8.72600358e-04 0. 0.
      1.74520072e-03 0. 0. 1.74520072e-03 0. 8.72600358e-04 0. 0. 0. 0.
      0. 2.61780107e-03 0. 0. 0. 1.74520072e-03 1.74520072e-03
      1.74520072e-03 0. 0. 0. 0. 0. 8.72600358e-04 0. 0. 8.72600358e-04
      8.72600358e-04 1.74520072e-03 8.72600358e-04 0. 3.49040143e-03
      1.74520072e-03 8.72600358e-04 8.72600358e-04 8.72600358e-04
      8.72600358e-04 0. 0. 0. 0. 2.61780107e-03 7.85340369e-03 0.
      8.72600358e-04 2.61780107e-03 0. 0. 0. 8.72600358e-04 0. 0.
      1.74520072e-03 0. 0. 2.61780107e-03 0. 0. 0. 0. 0. 1.74520072e-03
      8.72600358e-04 0. 3.49040143e-03 1.74520072e-03 0. 0.
      8.72600358e-04 2.61780107e-03 4.36300179e-03 0. 1.74520072e-03 0.
      1.74520072e-03 0. 0. 0. 0.</_>
    <_>
      8.85739573e-04 4.42869787e-04 8.85739573e-04 0. 0. 4.42869787e-04
      4.42869787e-04 5.31443767e-03 0. 0. 1.77147915e-03 8.85739573e-04
      0. 4.42869787e-04 6.20017713e-03 1.32860942e-03 0. 2.65721884e-03
      4.42869787e-04 0. 0. 8.85739573e-04 0. 1.32860942e-03 0.
      4.42869787e-04 4.42869787e-04 0. 4.42869787e-04 8.41452554e-03 0.
      8.85739573e-04 0. 2.21434887e-03 5.31443767e-03 0. 0.
      4.42869787e-04 4.42869787e-04 0. 8.85739573e-04 0. 1.77147915e-03
      1.32860942e-03 8.85739573e-04 4.42869787e-04 0. 4.42869787e-04 0.
      8.85739573e-04 1.77147915e-03 1.32860942e-03 0. 8.85739573e-04
      3.98582825e-03 8.85739573e-04 0. 8.85739573e-04 3.98582825e-03
      4.42869787e-04 8.85739573e-04 4.42869787e-04 4.42869787e-04
      1.32860942e-03 8.85739573e-04 0. 4.42869787e-04 4.42869787e-04
      4.42869787e-04 8.85739573e-04 0. 0. 4.42869787e-04 4.42869787e-04
      8.85739573e-04 0. 0. 2.21434887e-03 3.54295829e-03 8.85739550e-03
      0. 0. 3.10008856e-03 8.85739573e-04 3.10008856e-03 1.77147915e-03
      0. 4.42869787e-04 0. 8.85739573e-04 4.87156771e-03 4.42869787e-04
      6.64304662e-03 0. 4.42869787e-04 8.85739573e-04 4.42869787e-04
      2.65721884e-03 1.32860942e-03 0. 1.32860942e-03 4.87156771e-03 0.
      4.42869787e-04 0. 0. 4.42869787e-04 4.42869787e-04 2.65721884e-03
      2.21434887e-03 4.42869787e-04 4.42869787e-04 8.85739573e-04
      5.31443767e-03 0. 4.42869787e-04 1.32860942e-03 4.42869787e-04
      2.65721884e-03 4.87156771e-03 2.21434887e-03 0. 4.42869787e-04
      8.85739573e-04 0. 4.42869787e-04 8.85739573e-04 0. 4.42869787e-04
      4.42869787e-04 4.42869787e-04 4.42869787e-04 4.42869787e-04
      4.42869787e-04 4.42869787e-04 0. 1.32860942e-03 1.77147915e-03
      4.42869787e-04 2.21434887e-03 0. 4.42869787e-04 4.42869787e-04 0.
      8.85739573e-04 0. 8.85739573e-04 0. 0. 0. 4.42869787e-04
      4.42869787e-04 8.85739573e-04 2.21434887e-03 0. 8.85739573e-04 0.
      8.85739573e-04 0. 1.77147915e-03 0. 1.77147915e-03 4.42869787e-04
      5.31443767e-03 0. 8.85739573e-04 4.42869787e-04 4.42869787e-04
      4.42869787e-04 4.42869787e-04 4.42869787e-04 0. 0. 8.85739573e-04
      4.42869787e-04 4.42869787e-04 2.21434887e-03 0. 1.32860942e-03
      4.42869787e-04 0. 0. 1.32860942e-03 0. 8.85739573e-04
      1.77147915e-03 0. 4.42869787e-04 8.85739573e-04 0. 4.42869787e-04
      0. 1.77147915e-03 8.85739573e-04 2.21434887e-03 8.85739573e-04
      8.85739573e-04 1.32860942e-03 4.42869787e-04 3.98582825e-03
      4.42869787e-04 0. 4.42869787e-04 4.42869787e-04 8.85739573e-04
      1.32860942e-03 4.42869787e-04 1.32860942e-03 8.85739573e-04
      8.85739573e-04 3.98582825e-03 0. 4.42869787e-04 3.10008856e-03 0.
      8.85739573e-04 0. 8.85739573e-04 1.06288753e-02 4.42869787e-04
      8.85739573e-04 8.85739573e-04 0. 0. 4.42869775e-03 7.08591659e-03
      4.42869787e-04 1.32860942e-03 1.32860942e-03 0. 0. 0. 0.
      3.10008856e-03 0. 1.77147915e-03 8.85739573e-04 0. 1.32860942e-03
      8.85739573e-04 4.42869787e-04 1.32860942e-03 0. 4.42869787e-04
      4.42869787e-04 2.21434887e-03 8.85739573e-04 0. 1.32860942e-03
      4.42869787e-04 3.10008856e-03 4.42869787e-04 0. 4.42869787e-04 0.
      0. 4.42869787e-04 4.42869787e-04 4.42869775e-03 4.42869787e-04
      2.21434887e-03 0. 0. 4.42869787e-04 4.42869787e-04 0.
      4.42869787e-04 0. 0. 8.85739573e-04 2.21434887e-03 0.
      1.32860942e-03 4.87156771e-03 8.85739573e-04 8.85739573e-04 0.
      2.65721884e-03 4.42869787e-04 4.42869787e-04 4.42869787e-04
      4.42869787e-04 1.77147915e-03 3.54295829e-03 2.65721884e-03
      4.42869787e-04 0. 0. 5.75730717e-03 2.21434887e-03 4.42869787e-04
      0. 4.42869787e-04 4.42869787e-04 1.77147915e-03 0. 0.
      8.85739573e-04 1.32860942e-03 8.85739573e-04 4.42869787e-04
      8.85739573e-04 0. 4.42869787e-04 0. 2.21434887e-03 2.65721884e-03
      1.32860942e-03 1.77147915e-03 2.21434887e-03 8.85739573e-04
      1.77147915e-03 1.77147915e-03 0. 0. 0. 0. 5.31443767e-03
      1.32860942e-03 4.42869787e-04 0. 0. 0. 5.31443767e-03 0.
      4.42869775e-03 4.42869787e-04 0. 1.32860942e-03 4.42869787e-04
      3.98582825e-03 0. 0. 2.21434887e-03 8.85739573e-04 1.32860942e-03
      4.42869787e-04 1.32860942e-03 1.77147915e-03 4.42869787e-04
      4.42869787e-04 0. 8.85739573e-04 4.42869787e-04 4.42869787e-04 0.
      1.32860942e-03 0. 4.42869775e-03 0. 0. 0. 0. 0. 3.10008856e-03 0.
      4.87156771e-03 8.85739573e-04 0. 4.42869787e-04 8.85739573e-04 0.
      4.42869787e-04 0. 4.42869787e-04 1.32860942e-03 1.77147915e-03
      1.32860942e-03 0. 4.42869787e-04 1.32860942e-03 0. 4.42869775e-03
      0. 4.42869787e-04 0. 4.42869787e-04 1.32860942e-03 4.42869787e-04
      1.77147915e-03 4.42869787e-04 0. 2.21434887e-03 0. 4.42869787e-04
      2.21434887e-03 8.85739573e-04 0. 8.85739573e-04 4.42869787e-04
      3.10008856e-03 1.77147915e-03 8.85739573e-04 2.65721884e-03
      1.32860942e-03 4.42869787e-04 8.85739573e-04 0. 8.85739573e-04
      4.42869787e-04 2.21434887e-03 0. 1.77147915e-03 4.42869787e-04
      4.42869787e-04 8.85739573e-04 0. 0. 0. 0. 1.32860942e-03
      8.85739573e-04 8.85739573e-04 4.42869787e-04 8.85739573e-04 0. 0.
      4.42869787e-04 4.42869787e-04 0. 4.42869787e-04 8.85739573e-04
      8.85739573e-04 4.42869787e-04 3.98582825e-03 5.31443767e-03
      4.42869787e-04 1.32860942e-03 1.32860942e-03 9.74313542e-03
      4.42869787e-04 4.42869787e-04 0. 3.98582825e-03 8.85739573e-04 0.
      0. 0. 0. 1.77147915e-03 0. 7.97165651e-03 2.65721884e-03 0.
      8.85739573e-04 0. 4.42869787e-04 4.42869787e-04 0. 4.42869787e-04
      0. 0. 8.85739573e-04 0. 4.42869787e-04 8.85739573e-04
      4.42869787e-04 1.32860942e-03 3.98582825e-03 8.85739573e-04 0. 0.
      1.77147915e-03 8.85739573e-04 8.85739573e-04 1.77147915e-03 0. 0.
      2.21434887e-03 3.10008856e-03 1.32860942e-03 4.42869787e-04
      4.42869787e-04 8.85739573e-04 4.42869787e-04 1.77147915e-03
      4.42869787e-04 4.42869787e-04 0. 0. 4.42869787e-04 0.
      4.42869787e-04 3.10008856e-03 8.85739573e-04 8.85739573e-04
      2.21434887e-03 8.85739573e-04 4.42869787e-04 0. 4.42869787e-04
      2.21434887e-03 0. 1.32860942e-03 4.42869787e-04 1.77147915e-03
      3.10008856e-03 1.32860942e-03 3.54295829e-03 1.77147915e-03
      8.85739573e-04 4.42869787e-04 0. 4.42869787e-04 8.85739573e-04
      1.32860942e-03 8.85739573e-04 4.42869787e-04 0. 0. 0.
      3.10008856e-03 1.32860942e-03 1.32860942e-03 8.85739573e-04
      8.85739573e-04 8.85739573e-04 8.85739573e-04 8.85739573e-04
      4.42869787e-04 3.54295829e-03 0. 0. 0. 2.21434887e-03 0. 0.
      1.32860942e-03 4.42869787e-04 1.32860942e-03 8.85739573e-04
      1.32860942e-03 4.42869787e-04 4.42869787e-04 0. 0. 0.
      8.85739573e-04 4.42869787e-04 0. 8.85739573e-04 1.77147915e-03 0.
      0. 4.42869787e-04 0. 2.65721884e-03 7.97165651e-03 0.
      2.21434887e-03 3.54295829e-03 0. 8.85739573e-04 0. 8.85739573e-04
      0. 8.85739573e-04 0. 0. 0. 0. 0. 0. 1.77147915e-03 0.
      5.75730717e-03 4.42869787e-04 8.85739573e-04 4.42869787e-04
      4.42869787e-04 4.42869787e-04 1.32860942e-03 8.85739573e-04
      8.85739573e-04 0. 0. 3.10008856e-03 1.77147915e-03 0.
      2.21434887e-03 0. 0. 1.32860942e-03 8.85739573e-04 4.42869787e-04
      1.77147915e-03 0. 0. 1.32860942e-03 8.85739573e-04 3.10008856e-03
      0. 0. 0. 0. 4.42869787e-04 4.42869787e-04 4.42869787e-04
      8.85739573e-04 4.42869787e-04 4.42869787e-04 8.85739573e-04 0.
      4.42869787e-04 0. 4.42869787e-04 4.42869787e-04 1.77147915e-03 0.
      0. 0. 3.98582825e-03 0. 0. 2.65721884e-03 0. 8.85739573e-04
      8.85739573e-04 0. 4.42869787e-04 8.85739573e-04 1.77147915e-03
      4.42869787e-04 1.32860942e-03 0. 4.42869787e-04 8.85739573e-04 0.
      4.42869787e-04 0. 1.77147915e-03 0. 0. 4.42869787e-04
      8.85739573e-04 0. 8.85739573e-04 0. 5.75730717e-03 8.85739573e-04
      5.75730717e-03 1.32860942e-03 1.32860942e-03 4.42869787e-04
      1.32860942e-03 2.21434887e-03 3.10008856e-03 4.42869787e-04
      4.42869787e-04 0. 3.54295829e-03 8.85739573e-04 2.21434887e-03
      8.85739573e-04 1.32860942e-03 7.97165651e-03 8.85739573e-04
      1.32860942e-03 0. 0. 8.85739573e-04 4.42869787e-04 4.42869787e-04
      0. 8.85739573e-04 8.85739573e-04 4.42869787e-04 0. 8.85739573e-04
      8.85739573e-04 1.77147915e-03 2.65721884e-03 1.32860942e-03
      4.42869787e-04 1.32860942e-03 0. 4.42869787e-04 0. 3.98582825e-03
      1.32860942e-03 0. 0. 0. 1.32860942e-03 1.77147915e-03
      4.42869787e-04 0. 0. 1.32860942e-03 0. 0. 3.10008856e-03
      4.42869787e-04 1.77147915e-03 8.85739573e-04 4.42869787e-04
      3.98582825e-03 4.42869787e-04 4.42869787e-04 1.32860942e-03
      4.42869787e-04 4.42869787e-04 0. 2.21434887e-03 0. 0.
      4.42869787e-04 8.85739573e-04 2.21434887e-03 0. 2.65721884e-03
      4.42869787e-04 4.42869787e-04 8.85739573e-04 1.32860942e-03
      4.42869787e-04 0. 3.98582825e-03 4.42869787e-04 4.42869787e-04
      4.42869787e-04 0. 1.77147915e-03 3.10008856e-03 0. 0.
      1.32860942e-03 0. 0. 0. 1.77147915e-03 3.98582825e-03 0.
      2.21434887e-03 1.77147915e-03 2.21434887e-03 4.42869787e-04
      3.10008856e-03 8.85739573e-04 0. 8.85739573e-04 0. 8.85739573e-04
      4.42869787e-04 4.42869787e-04 4.42869787e-04 1.32860942e-03
      1.77147915e-03 8.85739573e-04 4.42869787e-04 0. 2.21434887e-03 0.
      8.85739573e-04 8.85739573e-04 5.31443767e-03 0. 4.42869787e-04
      4.42869787e-04 8.85739573e-04 0. 8.85739573e-04 4.42869787e-04
      4.42869787e-04 1.32860942e-03 0. 0. 0. 0. 3.54295829e-03
      8.85739573e-04 4.42869787e-04 8.85739573e-04 0. 0. 4.42869787e-04
      4.42869787e-04 8.85739573e-04 2.21434887e-03 0. 3.10008856e-03
      1.77147915e-03 4.42869787e-04 0. 4.42869787e-04 8.85739573e-04 0.
      1.77147915e-03 0. 1.32860942e-03 3.10008856e-03 4.42869787e-04
      4.42869787e-04 0. 0. 1.32860942e-03 1.32860942e-03 0. 0. 0.
      4.42869787e-04 8.85739573e-04 8.85739573e-04 4.42869787e-04
      4.42869787e-04 0. 1.77147915e-03 6.20017713e-03 4.42869787e-04 0.
      0. 4.42869787e-04 1.77147915e-03 4.42869787e-04 4.42869787e-04
      4.42869787e-04 8.85739573e-04 1.01860054e-02 4.42869787e-04 0.
      3.98582825e-03 4.42869787e-04 1.77147915e-03 0. 0. 0.
      2.65721884e-03 1.32860942e-03 0. 1.32860942e-03 0. 4.42869787e-04
      0. 1.32860942e-03 5.75730717e-03 0. 0. 1.32860942e-03
      4.42869787e-04 0. 1.77147915e-03 0. 4.42869787e-04 2.65721884e-03
      1.32860942e-03 1.32860942e-03 0. 1.32860942e-03 4.42869787e-04
      1.32860942e-03 1.32860942e-03 8.85739573e-04 4.42869787e-04
      4.42869787e-04 0. 0. 4.42869787e-04 5.75730717e-03 8.85739573e-04
      4.42869787e-04 7.08591659e-03 4.42869787e-04 1.32860942e-03
      4.42869787e-04 3.98582825e-03 5.75730717e-03 0. 8.85739573e-04
      8.85739573e-04 8.85739573e-04 4.42869787e-04 0. 4.42869787e-04 0.
      1.32860942e-03 8.85739573e-04 0. 0. 0. 0. 1.32860942e-03
      4.42869787e-04 0. 4.42869787e-04 0. 4.42869787e-04 4.42869787e-04
      1.77147915e-03 8.85739573e-04 4.42869775e-03 4.42869787e-04
      8.85739573e-04 3.98582825e-03 1.32860942e-03 0. 1.32860942e-03
      8.85739573e-04 1.32860942e-03 1.32860942e-03 0. 8.85739573e-04
      1.77147915e-03 3.98582825e-03 8.85739573e-04 0. 1.77147915e-03
      8.85739573e-04 8.85739573e-04 4.42869787e-04 4.42869787e-04 0.
      4.42869787e-04 2.21434887e-03 0. 1.77147915e-03 8.85739573e-04
      4.42869787e-04 0. 4.42869787e-04 4.42869787e-04 0. 1.77147915e-03
      0. 4.42869787e-04 3.54295829e-03 0. 8.85739573e-04 0.
      8.85739573e-04 4.42869787e-04 0. 0. 0. 0. 0. 0. 0. 0.
      8.85739573e-04 0. 1.77147915e-03 0. 0. 0. 4.42869787e-04
      4.42869787e-04 4.42869787e-04 4.42869787e-04 4.42869787e-04 0.
