<?xml version="1.0"?>
<opencv_storage>
<my_svm type_id="opencv-ml-svm">
  <svm_type>C_SVC</svm_type>
  <kernel><type>RBF</type>
    <gamma>5.0625000000000009e-01</gamma></kernel>
  <C>6.2500000000000000e+01</C>
  <term_criteria><epsilon>1.1920928955078125e-07</epsilon>
    <iterations>50000</iterations></term_criteria>
  <var_all>1000</var_all>
  <var_count>1000</var_count>
  <class_count>2</class_count>
  <class_labels type_id="opencv-matrix">
    <rows>1</rows>
    <cols>2</cols>
    <dt>i</dt>
    <data>
      0 1</data></class_labels>
  <sv_total>190</sv_total>
  <support_vectors>
    <_>
      0. 0. 2.29357788e-03 0. 0. 0. 0. 0. 2.29357788e-03 0. 0. 0. 0. 0.
      0. 0. 0. 0. 2.29357788e-03 0. 0. 0. 0. 2.29357788e-03 0.
      2.29357788e-03 2.29357788e-03 0. 0. 2.29357788e-03 2.29357788e-03
      0. 0. 0. 0. 0. 2.29357788e-03 0. 0. 4.58715577e-03 0. 0. 0. 0. 0.
      0. 0. 0. 0. 0. 0. 2.29357788e-03 0. 0. 0. 0. 2.29357788e-03 0. 0.
      0. 6.88073365e-03 2.29357788e-03 0. 0. 0. 0. 0. 2.29357788e-03
      2.29357788e-03 4.58715577e-03 0. 0. 2.29357788e-03 0.
      4.58715577e-03 0. 0. 0. 0. 0. 2.29357788e-03 2.29357788e-03 0.
      2.29357788e-03 0. 0. 2.29357788e-03 0. 2.29357788e-03
      4.58715577e-03 2.29357788e-03 0. 0. 4.58715577e-03 9.17431153e-03
      2.29357788e-03 0. 0. 0. 4.58715577e-03 2.29357788e-03 0.
      6.88073365e-03 0. 0. 0. 4.58715577e-03 0. 9.17431153e-03 0.
      2.29357788e-03 0. 2.29357788e-03 0. 2.29357788e-03 0.
      2.29357788e-03 0. 0. 0. 4.58715577e-03 0. 0. 0. 6.88073365e-03
      2.29357788e-03 0. 0. 0. 0. 0. 0. 0. 0. 0. 0. 0. 0. 0. 0. 0. 0.
      2.29357788e-03 0. 0. 0. 0. 2.29357788e-03 2.29357788e-03 0. 0. 0.
      0. 0. 0. 0. 0. 0. 2.29357788e-03 2.29357788e-03 2.29357788e-03
      2.29357788e-03 0. 2.29357788e-03 0. 0. 0. 2.29357788e-03
      2.29357788e-03 0. 2.29357788e-03 0. 2.29357788e-03 0.
      2.29357788e-03 0. 0. 2.29357788e-03 0. 4.58715577e-03 0. 0.
      9.17431153e-03 0. 4.58715577e-03 0. 0. 6.88073365e-03 0. 0. 0. 0.
      0. 2.29357788e-03 2.29357788e-03 4.58715577e-03 0. 0. 0. 0. 0. 0.
      0. 0. 2.29357788e-03 2.29357788e-03 0. 2.29357788e-03 0. 0. 0. 0.
      0. 0. 0. 0. 2.29357788e-03 2.29357788e-03 0. 0. 2.29357788e-03 0.
      0. 0. 0. 0. 0. 0. 4.58715577e-03 0. 0. 2.29357788e-03
      6.88073365e-03 0. 0. 0. 0. 0. 0. 0. 0. 0. 0. 0. 0. 0. 0. 0.
      2.29357788e-03 0. 0. 0. 0. 0. 0. 0. 0. 0. 4.58715577e-03
      2.29357788e-03 0. 0. 0. 0. 0. 0. 0. 0. 0. 0. 0. 0. 1.14678890e-02
      2.29357788e-03 0. 0. 0. 2.29357788e-03 0. 0. 2.29357788e-03 0. 0.
      0. 0. 2.29357788e-03 0. 4.58715577e-03 2.29357788e-03 0.
      4.58715577e-03 0. 0. 4.58715577e-03 0. 0. 0. 0. 2.29357788e-03 0.
      0. 0. 0. 0. 2.29357788e-03 0. 0. 0. 0. 0. 0. 2.29357788e-03 0. 0.
      0. 0. 2.29357788e-03 0. 4.58715577e-03 4.58715577e-03 0. 0. 0. 0.
      0. 0. 0. 0. 0. 0. 0. 0. 0. 0. 0. 0. 0. 0. 2.29357788e-03 0. 0. 0.
      0. 0. 0. 0. 2.29357788e-03 0. 2.29357788e-03 0. 0. 2.29357788e-03
      0. 0. 0. 2.29357788e-03 0. 6.88073365e-03 0. 0. 0. 0. 0. 0.
      4.58715577e-03 0. 0. 0. 4.58715577e-03 0. 0. 0. 0. 0. 0. 0. 0. 0.
      0. 0. 2.29357788e-03 2.29357788e-03 0. 4.58715577e-03 0.
      2.29357788e-03 2.29357788e-03 2.29357788e-03 0. 0. 0. 0. 0. 0. 0.
      0. 2.29357788e-03 4.58715577e-03 0. 6.88073365e-03 0. 0. 0.
      2.29357788e-03 0. 2.29357788e-03 0. 0. 6.88073365e-03 0. 0.
      2.29357788e-03 0. 0. 0. 2.29357788e-03 0. 0. 0. 0. 0. 0. 0. 0. 0.
      0. 2.29357788e-03 2.29357788e-03 0. 0. 0. 0. 2.29357788e-03
      4.58715577e-03 2.29357788e-03 0. 0. 4.58715577e-03 0. 0.
      4.58715577e-03 0. 0. 0. 0. 4.58715577e-03 0. 0. 0. 0. 0.
      2.29357788e-03 6.88073365e-03 0. 0. 2.29357788e-03 0. 0. 0. 0. 0.
      0. 0. 2.29357788e-03 0. 0. 0. 4.58715577e-03 0. 0. 0. 0. 0. 0. 0.
      0. 0. 0. 9.17431153e-03 4.58715577e-03 0. 2.29357788e-03 0. 0. 0.
      0. 0. 2.29357788e-03 0. 0. 2.29357788e-03 0. 0. 1.37614673e-02
      2.29357788e-03 0. 0. 0. 0. 0. 0. 2.29357788e-03 0. 0. 0. 0. 0. 0.
      2.29357788e-03 0. 0. 0. 0. 0. 2.29357788e-03 0. 0. 0.
      2.29357788e-03 0. 0. 4.58715577e-03 0. 0. 4.58715577e-03 0. 0. 0.
      0. 0. 0. 0. 0. 6.88073365e-03 2.29357788e-03 2.29357788e-03 0. 0.
      0. 0. 0. 2.29357788e-03 0. 0. 0. 0. 0. 0. 2.29357788e-03 0. 0.
      2.29357788e-03 0. 0. 0. 0. 0. 2.29357788e-03 0. 6.88073365e-03 0.
      0. 0. 4.58715577e-03 0. 2.29357788e-03 0. 2.29357788e-03 0. 0. 0.
      0. 0. 2.29357788e-03 0. 0. 0. 2.29357788e-03 0. 0. 0. 0. 0. 0. 0.
      0. 0. 2.29357788e-03 0. 0. 0. 0. 4.58715577e-03 0. 2.29357788e-03
      2.29357788e-03 2.29357788e-03 0. 0. 2.29357788e-03 2.29357788e-03
      0. 4.58715577e-03 0. 2.29357788e-03 0. 0. 0. 4.58715577e-03
      2.29357788e-03 0. 2.29357788e-03 0. 0. 6.88073365e-03 0. 0. 0. 0.
      0. 4.58715577e-03 0. 0. 2.29357788e-03 0. 0. 0. 0. 0. 0. 0. 0. 0.
      2.29357788e-03 0. 2.29357788e-03 0. 2.29357788e-03 0.
      2.29357788e-03 2.29357788e-03 2.29357788e-03 0. 2.29357788e-03 0.
      0. 0. 2.29357788e-03 0. 2.29357788e-03 0. 0. 0. 0. 4.58715577e-03
      2.29357788e-03 0. 0. 2.29357788e-03 0. 0. 2.29357788e-03 0.
      2.29357788e-03 0. 6.88073365e-03 0. 0. 0. 0. 0. 0. 2.29357788e-03
      4.58715577e-03 0. 0. 0. 0. 4.58715577e-03 0. 2.29357788e-03 0. 0.
      0. 0. 2.29357788e-03 2.29357788e-03 2.29357788e-03 0.
      9.17431153e-03 0. 6.88073365e-03 2.29357788e-03 2.29357788e-03 0.
      0. 2.29357788e-03 4.58715577e-03 0. 0. 0. 6.88073365e-03 0. 0.
      2.29357788e-03 0. 0. 0. 0. 2.29357788e-03 0. 0. 2.29357788e-03
      6.88073365e-03 0. 6.88073365e-03 0. 0. 0. 0. 0. 0. 0. 0.
      2.29357788e-03 0. 2.29357788e-03 0. 0. 2.29357788e-03 0. 0.
      4.58715577e-03 0. 0. 2.29357788e-03 2.29357788e-03 0. 0. 0. 0. 0.
      0. 0. 2.29357788e-03 0. 0. 2.29357788e-03 1.37614673e-02 0.
      2.29357788e-03 4.58715577e-03 4.58715577e-03 0. 0. 0. 0. 0.
      6.88073365e-03 0. 0. 4.58715577e-03 0. 2.29357788e-03 0. 0.
      4.58715577e-03 0. 0. 0. 0. 0. 0. 0. 0. 4.58715577e-03 0. 0. 0. 0.
      4.58715577e-03 2.29357788e-03 2.29357788e-03 0. 0. 2.29357788e-03
      4.58715577e-03 0. 0. 0. 0. 0. 0. 0. 0. 0. 0. 0. 2.29357788e-03
      2.29357788e-03 0. 2.29357788e-03 0. 0. 0. 0. 0. 0. 0. 0. 0. 0. 0.
      0. 2.29357788e-03 4.58715577e-03 0. 0. 0. 0. 0. 0. 2.29357788e-03
      0. 0. 0. 2.29357788e-03 6.88073365e-03 0. 0. 0. 0. 0.
      4.58715577e-03 2.29357788e-03 2.29357788e-03 2.29357788e-03 0. 0.
      0. 0. 6.88073365e-03 0. 6.88073365e-03 0. 0. 2.29357788e-03
      2.29357788e-03 0. 0. 0. 0. 2.29357788e-03 0. 0. 6.88073365e-03 0.
      0. 0. 2.29357788e-03 6.88073365e-03 2.29357788e-03 2.29357788e-03
      0. 0. 0. 2.29357788e-03 2.29357788e-03 0. 2.29357788e-03 0. 0. 0.
      4.58715577e-03 0. 0. 0. 0. 0. 0. 4.58715577e-03 0. 2.29357788e-03
      0. 0. 4.58715577e-03 0. 0. 0. 6.88073365e-03 0. 2.29357788e-03
      2.29357788e-03 0. 0. 0. 0. 0. 2.29357788e-03 0. 0. 0. 0. 0. 0. 0.
      0. 0. 0. 2.29357788e-03 0. 2.29357788e-03 2.29357788e-03 0.
      4.58715577e-03 9.17431153e-03 0. 0. 0. 0. 2.29357788e-03 0. 0. 0.
      2.29357788e-03 2.29357788e-03 0. 0. 4.58715577e-03 4.58715577e-03
      0. 2.29357788e-03 0. 2.29357788e-03 0. 0. 0. 2.29357788e-03 0. 0.
      0. 0. 2.29357788e-03 0. 2.29357788e-03 0. 0. 0. 2.29357788e-03 0.
      4.58715577e-03 0. 0. 0. 2.29357788e-03 0. 0. 0. 0. 9.17431153e-03
      0. 4.58715577e-03 4.58715577e-03 2.29357788e-03 2.29357788e-03 0.
      2.29357788e-03 0. 4.58715577e-03 0. 2.29357788e-03 6.88073365e-03
      0. 0. 0. 0. 2.29357788e-03 0. 0. 0. 0. 0. 0. 2.29357788e-03
      2.29357788e-03 2.29357788e-03 0. 0. 0. 0. 0. 9.17431153e-03 0. 0.
      0. 2.29357788e-03 2.29357788e-03 2.29357788e-03 0. 0.</_>
    <_>
      6.04229607e-03 0. 3.02114803e-03 3.02114803e-03 0. 0. 0. 0.
      3.02114803e-03 0. 0. 0. 0. 9.06344410e-03 3.02114803e-03
      3.02114803e-03 0. 9.06344410e-03 0. 0. 0. 0. 3.02114803e-03
      3.02114803e-03 0. 0. 3.02114803e-03 3.02114803e-03 0. 0. 0. 0. 0.
      0. 0. 0. 0. 3.02114803e-03 0. 0. 0. 0. 0. 0. 0. 3.02114803e-03
      3.02114803e-03 3.02114803e-03 0. 0. 0. 3.02114803e-03 0. 0. 0. 0.
      0. 0. 0. 3.02114803e-03 3.02114803e-03 0. 0. 3.02114803e-03 0. 0.
      0. 6.04229607e-03 0. 0. 0. 0. 0. 6.04229607e-03 0. 0.
      3.02114803e-03 0. 0. 0. 0. 0. 0. 0. 0. 3.02114803e-03 0. 0. 0.
      1.20845921e-02 0. 3.02114803e-03 0. 0. 6.04229607e-03 0.
      3.02114803e-03 0. 0. 1.20845921e-02 0. 0. 0. 0. 0. 0. 0. 0.
      1.20845921e-02 0. 0. 0. 0. 0. 0. 0. 0. 6.04229607e-03 0. 0. 0. 0.
      0. 0. 0. 0. 0. 0. 0. 0. 3.02114803e-03 0. 0. 0. 0. 0.
      6.04229607e-03 0. 0. 0. 0. 0. 0. 0. 3.02114803e-03 0. 0. 0. 0.
      3.02114803e-03 3.02114803e-03 3.02114803e-03 3.02114803e-03 0.
      3.02114803e-03 3.02114803e-03 0. 0. 0. 0. 0. 6.04229607e-03 0. 0.
      0. 3.02114803e-03 0. 0. 0. 0. 0. 0. 0. 3.02114803e-03
      3.02114803e-03 0. 0. 0. 0. 3.02114803e-03 3.02114803e-03 0. 0. 0.
      3.02114803e-03 3.02114803e-03 0. 3.02114803e-03 3.02114803e-03 0.
      0. 0. 0. 0. 0. 0. 0. 0. 0. 3.02114803e-03 0. 1.81268882e-02 0. 0.
      0. 0. 0. 0. 0. 3.02114803e-03 0. 3.02114803e-03 0. 2.11480372e-02
      0. 0. 0. 0. 0. 0. 0. 6.04229607e-03 3.02114803e-03 3.02114803e-03
      3.02114803e-03 0. 0. 0. 0. 0. 0. 0. 3.02114803e-03 0.
      3.02114803e-03 3.02114803e-03 0. 0. 0. 3.02114803e-03
      9.06344410e-03 0. 0. 0. 0. 0. 3.02114803e-03 0. 0. 0.
      3.02114803e-03 0. 0. 0. 3.02114803e-03 0. 0. 3.02114803e-03 0.
      9.06344410e-03 0. 0. 0. 0. 0. 0. 0. 0. 0. 0. 3.02114803e-03 0.
      6.04229607e-03 0. 0. 6.04229607e-03 0. 9.06344410e-03
      3.02114803e-03 0. 0. 0. 0. 0. 6.04229607e-03 3.02114803e-03
      3.02114803e-03 0. 0. 0. 0. 6.04229607e-03 0. 0. 3.02114803e-03 0.
      6.04229607e-03 9.06344410e-03 0. 3.02114803e-03 6.04229607e-03 0.
      0. 0. 0. 0. 0. 0. 3.02114803e-03 6.04229607e-03 0. 0. 0.
      3.02114803e-03 3.02114803e-03 0. 0. 0. 0. 3.02114803e-03 0. 0. 0.
      0. 0. 0. 0. 0. 0. 3.02114803e-03 0. 0. 0. 0. 3.02114803e-03 0. 0.
      0. 0. 0. 0. 0. 0. 0. 0. 0. 0. 3.02114803e-03 0. 0. 6.04229607e-03
      0. 0. 3.02114803e-03 0. 3.02114803e-03 0. 0. 0. 0. 0. 0. 0. 0. 0.
      0. 6.04229607e-03 0. 0. 0. 0. 3.02114803e-03 0. 0. 0.
      3.02114803e-03 0. 0. 0. 0. 0. 0. 0. 0. 0. 0. 0. 0. 0.
      3.02114803e-03 0. 0. 0. 0. 0. 0. 0. 0. 0. 1.81268882e-02 0. 0.
      3.02114803e-03 0. 0. 0. 0. 0. 0. 0. 0. 0. 0. 0. 0. 0.
      3.02114803e-03 0. 0. 0. 0. 0. 0. 0. 3.02114803e-03 0. 0. 0. 0. 0.
      0. 0. 3.02114803e-03 0. 0. 0. 6.04229607e-03 3.02114803e-03
      6.04229607e-03 6.04229607e-03 6.04229607e-03 0. 0. 0. 0. 0.
      6.04229607e-03 0. 0. 0. 0. 0. 0. 0. 0. 0. 0. 0. 0. 0.
      3.02114803e-03 0. 0. 3.02114803e-03 0. 0. 6.04229607e-03
      3.02114803e-03 0. 0. 0. 0. 6.04229607e-03 3.02114803e-03 0.
      9.06344410e-03 0. 1.51057402e-02 0. 0. 0. 0. 0. 0. 0. 0.
      3.02114803e-03 0. 0. 0. 6.04229607e-03 0. 0. 0. 0. 0. 0. 0.
      6.04229607e-03 0. 0. 0. 0. 0. 0. 0. 0. 0. 9.06344410e-03 0. 0. 0.
      0. 0. 0. 3.02114803e-03 0. 0. 0. 0. 0. 0. 0. 0. 0. 3.02114803e-03
      0. 3.02114803e-03 0. 0. 0. 0. 0. 0. 0. 0. 0. 0. 0. 3.02114803e-03
      0. 0. 0. 0. 0. 0. 0. 3.02114803e-03 0. 0. 0. 0. 0. 0. 0. 0.
      3.02114803e-03 0. 0. 0. 0. 0. 3.02114803e-03 0. 0. 0. 0. 0.
      3.02114803e-03 0. 0. 0. 0. 0. 0. 0. 0. 6.04229607e-03 0.
      3.02114803e-03 0. 0. 3.02114803e-03 0. 0. 0. 0. 3.02114803e-03 0.
      3.02114803e-03 0. 0. 0. 0. 9.06344410e-03 3.02114803e-03
      9.06344410e-03 3.02114803e-03 3.02114803e-03 0. 0. 0. 0. 0. 0.
      9.06344410e-03 0. 0. 0. 0. 0. 3.02114803e-03 0. 0. 0. 0. 0. 0. 0.
      0. 0. 0. 0. 0. 3.02114803e-03 0. 0. 0. 3.02114803e-03
      3.02114803e-03 0. 0. 0. 0. 0. 0. 6.04229607e-03 0. 0. 0. 0.
      9.06344410e-03 3.02114803e-03 0. 0. 0. 0. 0. 0. 6.04229607e-03 0.
      0. 0. 0. 6.04229607e-03 0. 0. 0. 3.02114803e-03 0. 0. 0. 0. 0. 0.
      0. 0. 0. 0. 6.04229607e-03 0. 0. 0. 0. 0. 0. 0. 0. 0.
      3.02114803e-03 0. 0. 0. 0. 0. 0. 0. 0. 0. 6.04229607e-03
      3.02114803e-03 3.02114803e-03 3.02114803e-03 1.20845921e-02
      3.02114803e-03 0. 3.02114803e-03 0. 0. 0. 0. 0. 0. 0.
      3.02114803e-03 0. 0. 0. 0. 3.02114803e-03 0. 0. 0. 0. 0. 0. 0. 0.
      3.02114803e-03 0. 0. 6.04229607e-03 0. 0. 0. 0. 3.02114803e-03 0.
      0. 0. 0. 0. 0. 6.04229607e-03 0. 0. 0. 0. 0. 0. 0. 0. 0. 0. 0.
      3.02114803e-03 0. 0. 3.02114803e-03 0. 0. 0. 3.02114803e-03 0. 0.
      0. 0. 0. 0. 0. 3.02114803e-03 3.02114803e-03 0. 3.02114803e-03 0.
      0. 3.02114803e-03 0. 0. 3.02114803e-03 3.02114803e-03 0. 0. 0. 0.
      0. 0. 0. 0. 0. 3.02114803e-03 0. 0. 0. 0. 0. 0. 0. 0. 0.
      3.02114803e-03 3.02114803e-03 0. 0. 0. 0. 0. 0. 0. 3.02114803e-03
      3.02114803e-03 0. 0. 0. 0. 0. 0. 0. 0. 0. 0. 0. 6.04229607e-03 0.
      0. 0. 0. 0. 0. 0. 0. 0. 0. 3.02114803e-03 3.02114803e-03 0. 0. 0.
      0. 0. 3.02114803e-03 0. 0. 3.02114803e-03 0. 0. 0. 0.
      3.02114803e-03 3.02114803e-03 0. 6.04229607e-03 0. 6.04229607e-03
      0. 0. 0. 3.02114803e-03 0. 0. 6.04229607e-03 0. 3.02114803e-03 0.
      0. 3.02114803e-03 3.02114803e-03 0. 0. 0. 0. 0. 0. 0.
      3.02114803e-03 0. 0. 0. 0. 3.02114803e-03 0. 0. 0. 3.02114803e-03
      0. 0. 0. 0. 3.02114803e-03 0. 3.02114803e-03 0. 0. 0.
      9.06344410e-03 0. 3.02114803e-03 0. 6.04229607e-03 0.
      3.02114803e-03 0. 0. 0. 3.02114803e-03 3.02114803e-03 0.
      3.02114803e-03 0. 6.04229607e-03 0. 0. 0. 0. 3.02114803e-03 0.
      3.02114803e-03 9.06344410e-03 6.04229607e-03 0. 0. 3.02114803e-03
      0. 0. 0. 0. 0. 3.02114803e-03 0. 0. 0. 0. 0. 0. 0. 6.04229607e-03
      0. 0. 0. 0. 0. 0. 0. 0. 0. 0. 3.02114803e-03 3.02114803e-03 0. 0.
      0. 0. 0. 0. 0. 0. 0. 6.04229607e-03 0. 0. 0. 0. 0. 0. 0. 0. 0. 0.
      0. 0. 0. 3.02114803e-03 0. 0. 0. 0. 0. 0. 0. 0. 0. 0. 0. 0. 0. 0.
      0. 0. 0. 0. 3.02114803e-03 6.04229607e-03 0. 0. 3.02114803e-03 0.
      3.02114803e-03 3.02114803e-03 0. 6.04229607e-03 0. 0. 0. 0.
      6.04229607e-03 0. 3.02114803e-03 0. 0. 0.</_>
    <_>
      0. 0. 0. 0. 0. 0. 0. 0. 0. 0. 0. 0. 0. 0. 0. 0. 0. 0. 0. 0. 0. 0.
      0. 0. 0. 0. 0. 0. 0. 6.09756075e-03 0. 0. 0. 0. 0. 0. 0. 0.
      1.21951215e-02 0. 0. 0. 1.82926822e-02 0. 0. 0. 0. 0. 0. 0. 0. 0.
      6.09756075e-03 0. 0. 0. 0. 0. 0. 0. 6.09756075e-03 1.21951215e-02
      0. 0. 0. 0. 0. 0. 0. 0. 6.09756075e-03 0. 6.09756075e-03 0. 0. 0.
      0. 6.09756075e-03 0. 0. 0. 0. 0. 0. 0. 0. 0. 0. 0. 0. 0. 0. 0. 0.
      0. 0. 0. 0. 6.09756075e-03 0. 0. 0. 0. 0. 0. 0. 0. 0. 0. 0. 0.
      6.09756075e-03 0. 0. 0. 0. 0. 0. 0. 0. 0. 0. 0. 0. 0. 0. 0. 0. 0.
      0. 0. 0. 0. 0. 0. 0. 0. 0. 0. 0. 0. 0. 0. 0. 0. 0. 0. 0. 0. 0. 0.
      0. 0. 0. 0. 0. 0. 6.09756075e-03 0. 0. 0. 0. 6.09756075e-03 0. 0.
      6.09756075e-03 0. 0. 0. 6.09756075e-03 6.09756075e-03 0. 0. 0. 0.
      0. 0. 0. 0. 0. 0. 0. 0. 1.21951215e-02 6.09756075e-03 0. 0.
      6.09756075e-03 0. 0. 6.09756075e-03 0. 6.09756075e-03 0. 0. 0.
      6.09756075e-03 0. 0. 1.21951215e-02 0. 0. 0. 0. 0. 6.09756075e-03
      0. 0. 1.21951215e-02 6.09756075e-03 0. 0. 0. 0. 0. 0. 0. 0.
      6.09756075e-03 1.21951215e-02 0. 0. 0. 0. 6.09756075e-03 0. 0. 0.
      0. 0. 0. 0. 0. 0. 0. 0. 0. 0. 0. 0. 0. 0. 0. 0. 1.21951215e-02 0.
      0. 1.21951215e-02 0. 0. 0. 0. 0. 0. 0. 0. 0. 0. 0. 6.09756075e-03
      0. 6.09756075e-03 0. 0. 0. 0. 6.09756075e-03 0. 0. 0. 0. 0. 0. 0.
      0. 0. 0. 0. 0. 0. 0. 0. 6.09756075e-03 6.09756075e-03 0. 0.
      1.21951215e-02 0. 0. 0. 0. 6.09756075e-03 0. 0. 0. 0. 0. 0.
      6.09756075e-03 6.09756075e-03 0. 0. 0. 0. 1.82926822e-02
      6.09756075e-03 0. 0. 0. 0. 0. 0. 0. 0. 0. 0. 0. 0. 0. 0. 0. 0. 0.
      0. 0. 0. 0. 0. 0. 6.09756075e-03 0. 0. 0. 0. 0. 0. 0. 0. 0. 0. 0.
      0. 0. 0. 0. 0. 1.21951215e-02 0. 0. 0. 0. 0. 0. 0. 0.
      6.09756075e-03 0. 0. 0. 0. 0. 0. 0. 0. 0. 0. 0. 0. 0.
      6.09756075e-03 0. 0. 0. 0. 0. 0. 0. 0. 0. 0. 0. 0. 6.09756075e-03
      0. 0. 6.09756075e-03 0. 1.21951215e-02 0. 0. 0. 0. 0. 0. 0. 0. 0.
      0. 0. 0. 0. 0. 6.09756075e-03 6.09756075e-03 0. 0. 0. 0. 0. 0. 0.
      0. 0. 0. 0. 6.09756075e-03 0. 0. 0. 0. 0. 0. 0. 6.09756075e-03 0.
      6.09756075e-03 0. 0. 0. 0. 0. 0. 0. 0. 0. 0. 0. 0. 0. 0.
      6.09756075e-03 0. 0. 0. 0. 0. 6.09756075e-03 0. 6.09756075e-03 0.
      6.09756075e-03 6.09756075e-03 0. 0. 0. 0. 0. 0. 0. 0. 0. 0. 0. 0.
      0. 0. 0. 0. 0. 0. 6.09756075e-03 0. 0. 0. 0. 0. 6.09756075e-03 0.
      0. 0. 0. 6.09756075e-03 0. 0. 0. 0. 6.09756075e-03 0. 0. 0. 0. 0.
      0. 0. 0. 6.09756075e-03 0. 1.21951215e-02 0. 0. 0. 0. 0. 0. 0. 0.
      0. 0. 0. 0. 0. 0. 0. 0. 0. 0. 0. 0. 0. 0. 0. 1.21951215e-02
      6.09756075e-03 0. 0. 6.09756075e-03 0. 0. 0. 0. 0. 0. 0. 0. 0.
      1.21951215e-02 0. 0. 0. 6.09756075e-03 6.09756075e-03 0. 0.
      6.09756075e-03 0. 0. 0. 0. 0. 6.09756075e-03 0. 0. 6.09756075e-03
      0. 0. 0. 0. 0. 0. 0. 0. 0. 0. 0. 0. 0. 0. 1.21951215e-02 0. 0. 0.
      0. 0. 0. 6.09756075e-03 0. 6.09756075e-03 0. 6.09756075e-03 0. 0.
      0. 0. 0. 0. 0. 0. 0. 0. 6.09756075e-03 0. 6.09756075e-03 0. 0. 0.
      0. 0. 0. 0. 0. 6.09756075e-03 0. 6.09756075e-03 0. 0. 0. 0. 0. 0.
      0. 0. 0. 0. 1.82926822e-02 0. 0. 2.43902430e-02 0. 0. 0. 0.
      6.09756075e-03 0. 0. 0. 0. 0. 0. 0. 0. 0. 0. 0. 0. 0. 0. 0. 0. 0.
      0. 0. 0. 0. 0. 0. 0. 0. 0. 6.09756075e-03 0. 0. 0. 0. 0. 0. 0. 0.
      0. 0. 0. 0. 0. 0. 0. 0. 0. 0. 0. 0. 0. 0. 0. 0. 0. 0. 0. 0. 0. 0.
      0. 0. 0. 0. 0. 0. 0. 0. 0. 0. 0. 0. 0. 0. 1.82926822e-02 0. 0.
      3.04878037e-02 0. 0. 6.09756075e-03 0. 0. 0. 0. 0. 0. 0. 0. 0. 0.
      6.09756075e-03 0. 0. 0. 0. 0. 0. 0. 0. 0. 0. 0. 0. 0.
      6.09756075e-03 0. 0. 0. 6.09756075e-03 0. 0. 0. 0. 0. 0. 0. 0. 0.
      0. 0. 0. 0. 0. 0. 0. 0. 0. 0. 0. 0. 0. 0. 0. 0. 0. 0.
      6.09756075e-03 0. 0. 6.09756075e-03 6.09756075e-03 0. 0. 0. 0. 0.
      0. 0. 0. 0. 0. 6.09756075e-03 0. 0. 0. 0. 0. 0. 0. 0. 0. 0.
      6.09756075e-03 0. 0. 0. 0. 0. 0. 0. 0. 0. 0. 0. 0. 0. 0. 0. 0. 0.
      0. 0. 6.09756075e-03 0. 0. 0. 0. 6.09756075e-03 0. 0. 0. 0. 0. 0.
      0. 0. 0. 0. 0. 0. 6.09756075e-03 0. 0. 6.09756075e-03 0. 0.
      6.09756075e-03 0. 0. 0. 0. 0. 6.09756075e-03 0. 0. 0. 0. 0.
      6.09756075e-03 6.09756075e-03 0. 0. 0. 0. 0. 6.09756075e-03 0. 0.
      0. 0. 0. 0. 0. 0. 1.21951215e-02 0. 6.09756075e-03 0. 0. 0. 0. 0.
      0. 0. 0. 6.09756075e-03 0. 6.09756075e-03 0. 0. 0. 0. 0.
      6.09756075e-03 0. 0. 0. 0. 0. 0. 0. 1.21951215e-02 0. 0. 0. 0. 0.
      0. 0. 3.65853645e-02 0. 0. 0. 0. 0. 0. 0. 6.09756075e-03 0. 0. 0.
      0. 0. 0. 6.09756075e-03 0. 0. 6.09756075e-03 6.09756075e-03 0. 0.
      0. 0. 6.09756075e-03 0. 0. 0. 0. 0. 0. 0. 0. 0. 0. 0. 0. 0. 0.
      6.09756075e-03 0. 0. 0. 0. 0. 0. 0. 0. 1.21951215e-02 0. 0. 0. 0.
      0. 0. 0. 0. 6.09756075e-03 0. 0. 0. 0. 0. 0. 0. 0. 0. 0. 0. 0. 0.
      6.09756075e-03 0. 0. 6.09756075e-03 0. 0. 0. 0. 0. 0. 0. 0. 0. 0.
      0. 0. 0. 0. 0. 0. 0. 0. 0. 0. 0. 0. 0. 0. 0. 0. 0. 0.
      1.21951215e-02 0. 0. 0. 0. 0. 0. 6.09756075e-03</_>
    <_>
      0. 0. 0. 0. 0. 0. 0. 0. 0. 0. 0. 0. 0. 0. 0. 0. 0. 0. 0. 0. 0. 0.
      5.88235296e-02 0. 0. 0. 0. 0. 0. 0. 0. 0. 0. 0. 0. 0. 0.
      5.88235296e-02 0. 0. 0. 0. 0. 0. 0. 0. 0. 0. 0. 0. 0. 0. 0. 0. 0.
      0. 0. 0. 0. 0. 0. 0. 0. 0. 0. 0. 0. 0. 0. 0. 0. 0. 0. 0. 0. 0. 0.
      0. 0. 0. 0. 0. 0. 0. 0. 0. 0. 0. 0. 0. 0. 0. 0. 0. 0. 0. 0. 0. 0.
      0. 0. 0. 0. 0. 0. 0. 0. 0. 0. 0. 0. 0. 0. 0. 0. 0. 0. 0. 0. 0. 0.
      0. 0. 0. 0. 0. 0. 0. 0. 0. 0. 0. 0. 0. 0. 0. 0. 0. 0. 0. 0. 0. 0.
      0. 0. 0. 0. 0. 0. 0. 0. 0. 0. 0. 0. 0. 0. 0. 0. 0. 0. 0. 0. 0. 0.
      0. 0. 0. 0. 0. 0. 0. 0. 0. 0. 0. 0. 0. 0. 0. 0. 0. 5.88235296e-02
      0. 0. 0. 0. 0. 0. 0. 0. 0. 0. 0. 0. 0. 0. 0. 0. 0. 0. 0. 0. 0. 0.
      0. 0. 0. 0. 0. 0. 0. 0. 0. 0. 0. 0. 0. 0. 0. 0. 0. 0. 0. 0. 0. 0.
      0. 0. 0. 0. 0. 0. 0. 0. 0. 0. 0. 0. 0. 0. 0. 0. 0. 0. 0. 0. 0. 0.
      0. 0. 0. 0. 0. 0. 0. 0. 0. 0. 0. 0. 0. 0. 0. 0. 0. 0. 0. 0. 0. 0.
      0. 0. 0. 0. 0. 0. 0. 0. 0. 0. 0. 0. 0. 0. 0. 0. 0. 0. 0. 0. 0.
      5.88235296e-02 0. 0. 0. 0. 0. 0. 0. 0. 0. 0. 0. 0. 0. 0. 0. 0. 0.
      0. 0. 0. 0. 0. 0. 0. 0. 0. 0. 0. 0. 0. 0. 0. 0. 0. 0. 0. 0. 0. 0.
      0. 0. 0. 0. 0. 0. 0. 0. 0. 0. 0. 0. 0. 0. 0. 0. 0. 0. 0. 0. 0. 0.
      0. 0. 0. 0. 0. 0. 0. 0. 0. 0. 0. 0. 0. 0. 0. 0. 0. 0. 0. 0. 0. 0.
      0. 0. 0. 0. 0. 0. 0. 0. 0. 0. 0. 0. 0. 0. 0. 0. 0. 0. 0. 0. 0. 0.
      0. 0. 0. 0. 0. 0. 0. 0. 0. 0. 0. 0. 0. 0. 0. 0. 0. 0. 0. 0. 0. 0.
      0. 0. 0. 0. 0. 0. 0. 0. 0. 0. 0. 0. 0. 0. 0. 0. 0. 0. 0. 0. 0. 0.
      0. 0. 0. 0. 0. 0. 0. 0. 0. 0. 0. 0. 0. 0. 0. 0. 0. 0. 0. 0. 0. 0.
      0. 0. 0. 0. 0. 0. 0. 0. 0. 0. 0. 0. 0. 0. 0. 0. 0. 0. 0. 0. 0. 0.
      0. 0. 0. 0. 0. 0. 0. 0. 5.88235296e-02 0. 0. 0. 0. 0. 0. 0. 0. 0.
      0. 0. 0. 0. 0. 0. 0. 0. 0. 0. 0. 0. 0. 0. 0. 0. 0. 0. 0. 0. 0. 0.
      0. 0. 0. 0. 0. 0. 0. 0. 0. 0. 0. 0. 0. 0. 0. 0. 0. 0. 0. 0. 0. 0.
      0. 0. 0. 0. 0. 0. 0. 0. 0. 0. 0. 0. 0. 0. 0. 0. 0. 0. 0. 0. 0. 0.
      0. 0. 0. 0. 0. 0. 0. 1.17647059e-01 0. 0. 0. 0. 0. 0. 0. 0. 0. 0.
      0. 0. 0. 0. 0. 0. 0. 0. 0. 0. 0. 0. 0. 0. 0. 0. 0. 0. 0. 0. 0. 0.
      0. 0. 0. 0. 0. 0. 0. 0. 0. 0. 0. 0. 0. 0. 0. 0. 0. 0. 0. 0. 0. 0.
      0. 0. 0. 0. 0. 0. 0. 0. 0. 0. 0. 0. 0. 0. 0. 0. 0. 0. 0. 0. 0. 0.
      0. 0. 0. 0. 0. 0. 0. 0. 0. 0. 0. 0. 0. 0. 0. 0. 0. 0. 0. 0. 0. 0.
      0. 0. 0. 0. 0. 0. 0. 0. 0. 0. 0. 0. 0. 0. 0. 1.17647059e-01 0. 0.
      0. 0. 0. 0. 0. 0. 0. 0. 0. 0. 0. 0. 0. 0. 0. 0. 0. 0. 0. 0. 0. 0.
      0. 0. 0. 0. 0. 0. 0. 0. 0. 0. 0. 0. 0. 0. 0. 0. 0. 0. 0. 0. 0. 0.
      0. 0. 0. 0. 0. 0. 0. 0. 0. 0. 0. 0. 0. 0. 0. 0. 0. 0. 0. 0. 0. 0.
      0. 0. 0. 0. 0. 0. 0. 0. 0. 0. 0. 0. 0. 0. 0. 0. 0. 0. 0. 0. 0. 0.
      0. 0. 0. 0. 0. 0. 0. 0. 0. 0. 0. 0. 0. 0. 0. 0. 5.88235296e-02
      5.88235296e-02 0. 0. 0. 0. 0. 0. 0. 0. 0. 0. 0. 0. 0. 0. 0. 0. 0.
      0. 0. 0. 0. 0. 0. 0. 0. 0. 0. 0. 0. 0. 5.88235296e-02 0. 0. 0. 0.
      5.88235296e-02 0. 0. 0. 0. 0. 5.88235296e-02 0. 0. 0. 0. 0. 0. 0.
      0. 0. 0. 0. 0. 0. 0. 0. 0. 0. 0. 0. 0. 0. 0. 0. 0. 0. 0. 0. 0. 0.
      0. 0. 0. 0. 0. 0. 0. 0. 0. 0. 0. 0. 0. 0. 0. 0. 0. 0. 0. 0. 0. 0.
      0. 0. 0. 0. 0. 0. 0. 0. 0. 0. 0. 0. 0. 0. 0. 0. 5.88235296e-02 0.
      0. 0. 0. 0. 0. 0. 0. 0. 0. 0. 0. 0. 0. 0. 0. 0. 0. 0. 0. 0. 0. 0.
      0. 0. 0. 0. 0. 0. 0. 0. 0. 0. 0. 0. 0. 0. 0. 0. 0. 0. 0. 0. 0. 0.
      0. 0. 0. 0. 0. 0. 0. 0. 0. 0. 0. 0. 0. 0. 0. 0. 0. 0. 0. 0. 0. 0.
      0. 0. 0. 0. 0. 0. 0. 0. 0. 0. 0. 0. 0. 0. 0. 5.88235296e-02 0. 0.
      0. 0. 5.88235296e-02 0. 0.</_>
    <_>
      0. 0. 0. 1.07296137e-03 0. 0. 2.14592274e-03 0. 1.07296137e-03
      3.21888411e-03 1.07296137e-03 1.07296137e-03 1.07296137e-03 0. 0.
      0. 3.21888411e-03 1.07296137e-03 2.14592274e-03 1.07296137e-03 0.
      4.29184549e-03 0. 0. 1.07296137e-03 0. 1.07296137e-03 0. 0. 0.
      2.14592274e-03 0. 1.07296137e-03 0. 0. 0. 2.14592274e-03 0. 0.
      2.14592274e-03 0. 0. 0. 0. 0. 3.21888411e-03 0. 0. 0. 0.
      6.43776823e-03 7.51072960e-03 0. 6.43776823e-03 0. 0. 0. 0.
      4.29184549e-03 0. 0. 0. 0. 6.43776823e-03 0. 0. 0. 0. 0. 0. 0.
      1.07296137e-03 0. 1.07296137e-03 0. 0. 0. 0. 0. 0. 1.07296137e-03
      0. 0. 0. 0. 3.21888411e-03 0. 0. 0. 0. 1.07296137e-03 0. 0.
      1.07296137e-03 1.07296137e-03 2.14592274e-03 3.21888411e-03 0. 0.
      0. 0. 0. 0. 0. 4.29184549e-03 0. 1.07296137e-03 0. 4.29184549e-03
      3.21888411e-03 1.07296137e-03 0. 3.21888411e-03 1.07296137e-03 0.
      1.07296137e-03 0. 1.07296137e-03 1.07296137e-03 0. 0. 0. 0.
      1.07296137e-03 0. 1.07296137e-03 0. 1.07296137e-03 0. 0.
      4.29184549e-03 0. 1.07296137e-03 1.07296137e-03 0. 0. 0.
      1.07296137e-03 1.07296137e-03 4.29184549e-03 0. 0. 0. 0.
      1.07296137e-03 0. 3.21888411e-03 0. 0. 4.29184549e-03
      1.07296137e-03 6.43776823e-03 0. 0. 1.07296137e-03 0.
      2.14592274e-03 1.07296137e-03 1.07296137e-03 0. 3.21888411e-03 0.
      0. 0. 0. 0. 0. 0. 1.07296137e-03 0. 0. 1.07296137e-03
      1.07296137e-03 0. 0. 3.21888411e-03 3.21888411e-03 1.07296137e-03
      0. 0. 0. 0. 0. 2.14592274e-03 0. 1.07296137e-03 3.21888411e-03 0.
      2.14592274e-03 2.14592274e-03 0. 0. 1.07296137e-03 2.14592274e-03
      0. 0. 1.07296137e-03 0. 1.07296137e-03 1.07296137e-03 0. 0. 0.
      2.14592274e-03 3.21888411e-03 0. 0. 0. 0. 0. 1.07296137e-03 0.
      1.07296137e-03 0. 4.29184549e-03 0. 0. 2.14592274e-03
      3.21888411e-03 1.07296137e-03 1.07296137e-03 1.07296137e-03 0.
      2.14592274e-03 0. 1.07296137e-03 7.51072960e-03 5.36480686e-03
      1.07296137e-03 0. 0. 0. 0. 1.07296137e-03 0. 3.21888411e-03 0. 0.
      0. 0. 3.21888411e-03 1.07296137e-03 2.14592274e-03 1.07296137e-03
      0. 0. 0. 4.29184549e-03 1.07296137e-03 2.14592274e-03
      1.07296137e-03 2.14592274e-03 0. 1.07296137e-03 0. 0. 0. 0. 0.
      1.07296137e-03 1.07296137e-03 0. 2.14592274e-03 2.14592274e-03
      1.07296137e-03 0. 0. 0. 2.14592274e-03 0. 0. 2.14592274e-03 0.
      2.14592274e-03 2.14592274e-03 0. 2.14592274e-03 0. 0. 0. 0.
      2.14592274e-03 7.51072960e-03 1.07296137e-03 0. 1.07296137e-03 0.
      0. 0. 0. 0. 0. 0. 0. 0. 0. 0. 2.14592274e-03 1.07296137e-03 0.
      1.07296137e-03 0. 4.29184549e-03 3.21888411e-03 0. 0. 0.
      1.07296137e-03 0. 0. 0. 0. 1.07296137e-03 3.21888411e-03
      1.07296137e-03 0. 1.07296137e-03 0. 0. 0. 0. 0. 3.21888411e-03
      5.36480686e-03 0. 4.29184549e-03 3.21888411e-03 1.07296137e-03
      1.07296137e-03 4.29184549e-03 0. 0. 0. 0. 2.14592274e-03 0. 0. 0.
      0. 1.07296137e-03 0. 2.14592274e-03 0. 0. 0. 0. 2.14592274e-03 0.
      0. 0. 0. 0. 1.07296137e-03 2.14592274e-03 0. 0. 1.07296137e-03
      1.07296137e-03 0. 1.07296137e-03 1.07296137e-03 0. 0.
      1.07296137e-03 1.07296137e-03 0. 1.07296137e-03 0. 2.14592274e-03
      2.14592274e-03 0. 0. 0. 0. 1.07296137e-03 0. 2.14592274e-03
      1.07296137e-03 0. 0. 0. 0. 5.36480686e-03 0. 3.21888411e-03 0.
      1.07296137e-03 0. 1.07296137e-03 2.14592274e-03 0. 1.07296137e-03
      2.14592274e-03 0. 0. 1.07296137e-03 0. 1.07296137e-03 0.
      1.07296137e-03 1.07296137e-03 0. 1.07296137e-03 0. 1.07296137e-03
      0. 3.21888411e-03 0. 0. 3.21888411e-03 0. 5.36480686e-03 0.
      1.07296137e-03 1.07296137e-03 0. 0. 0. 3.21888411e-03
      2.14592274e-03 0. 0. 0. 0. 0. 0. 0. 4.29184549e-03 2.14592274e-03
      0. 3.21888411e-03 2.14592274e-03 0. 2.14592274e-03 0. 0.
      3.21888411e-03 3.21888411e-03 0. 0. 1.07296137e-03 3.21888411e-03
      1.07296137e-03 1.07296137e-03 0. 0. 0. 0. 0. 0. 5.36480686e-03 0.
      0. 0. 0. 1.07296137e-03 0. 1.07296137e-03 1.07296137e-03
      3.21888411e-03 0. 0. 3.21888411e-03 0. 2.14592274e-03
      2.14592274e-03 0. 1.07296137e-03 0. 1.07296137e-03 0. 0.
      5.36480686e-03 0. 0. 0. 0. 0. 2.14592274e-03 0. 1.07296137e-03
      2.14592274e-03 0. 0. 1.07296137e-03 0. 3.21888411e-03
      2.14592274e-03 3.21888411e-03 0. 0. 1.07296137e-03 0.
      8.58369097e-03 2.14592274e-03 5.36480686e-03 3.21888411e-03 0. 0.
      0. 2.14592274e-03 0. 0. 1.07296137e-03 6.43776823e-03
      1.07296137e-03 0. 0. 0. 0. 0. 1.07296137e-03 2.14592274e-03 0. 0.
      0. 0. 1.07296137e-03 2.14592274e-03 1.07296137e-03 0. 0.
      3.21888411e-03 2.14592274e-03 1.07296137e-03 2.14592274e-03 0. 0.
      0. 1.07296137e-03 1.07296137e-03 5.36480686e-03 3.21888411e-03 0.
      0. 0. 1.07296137e-03 0. 0. 0. 1.07296137e-03 1.07296137e-03 0. 0.
      0. 0. 1.07296137e-03 2.14592274e-03 0. 2.14592274e-03 0. 0.
      3.21888411e-03 2.14592274e-03 1.07296137e-03 0. 3.21888411e-03 0.
      0. 2.14592274e-03 0. 0. 4.29184549e-03 1.07296137e-03 0. 0. 0.
      3.21888411e-03 0. 2.03862656e-02 3.21888411e-03 0. 0. 0.
      2.14592274e-03 0. 1.07296137e-03 1.07296137e-03 0. 2.14592274e-03
      1.07296137e-03 0. 1.07296137e-03 1.07296137e-03 0. 2.14592274e-03
      0. 0. 2.14592274e-03 0. 0. 0. 1.07296137e-03 3.21888411e-03 0. 0.
      0. 7.51072960e-03 0. 1.07296137e-03 0. 4.29184549e-03 0. 0. 0. 0.
      0. 0. 0. 2.14592274e-03 0. 1.07296137e-03 1.07296137e-03 0.
      1.07296137e-03 1.07296137e-03 0. 3.21888411e-03 0. 2.14592274e-03
      0. 2.14592274e-03 4.29184549e-03 0. 2.14592274e-03 3.21888411e-03
      0. 1.07296137e-03 0. 1.07296137e-03 0. 2.14592274e-03
      1.07296137e-03 2.14592274e-03 1.07296137e-03 0. 0. 0. 0. 0. 0.
      3.21888411e-03 0. 4.29184549e-03 0. 0. 0. 1.07296137e-03 0. 0.
      3.21888411e-03 0. 0. 0. 0. 1.07296137e-03 1.07296137e-03
      4.29184549e-03 1.07296137e-03 4.29184549e-03 4.29184549e-03
      1.07296137e-03 1.07296137e-03 1.07296137e-03 0. 0. 0.
      3.21888411e-03 0. 4.29184549e-03 0. 0. 0. 1.07296137e-03 0.
      1.07296137e-03 2.14592274e-03 1.07296137e-03 1.07296137e-03
      1.07296137e-03 1.07296137e-03 2.14592274e-03 0. 0. 3.21888411e-03
      0. 2.14592274e-03 0. 0. 2.14592274e-03 0. 0. 0. 2.78969966e-02 0.
      0. 0. 0. 1.07296137e-03 0. 0. 1.07296137e-03 1.07296137e-03
      2.14592274e-03 5.36480686e-03 0. 0. 0. 2.14592274e-03 0. 0.
      1.07296137e-03 0. 1.07296137e-03 0. 1.07296137e-03 0.
      7.51072960e-03 1.07296137e-03 1.07296137e-03 0. 0. 1.07296137e-03
      0. 1.07296137e-03 1.07296137e-03 0. 1.07296137e-03 1.07296137e-03
      0. 0. 1.07296137e-03 3.21888411e-03 0. 3.21888411e-03
      7.51072960e-03 0. 1.07296137e-03 1.07296137e-03 3.21888411e-03
      3.21888411e-03 0. 0. 2.14592274e-03 1.07296137e-03 1.07296137e-03
      2.14592274e-03 0. 1.07296137e-03 2.14592274e-03 0. 2.14592274e-03
      1.07296137e-03 2.14592274e-03 0. 0. 0. 2.14592274e-03 0. 0. 0. 0.
      1.07296137e-03 0. 0. 0. 2.14592274e-03 0. 0. 0. 0. 6.43776823e-03
      1.07296137e-03 1.07296137e-03 2.14592274e-03 0. 0. 0. 0. 0. 0. 0.
      1.07296137e-03 0. 0. 0. 6.43776823e-03 0. 1.07296137e-03
      1.07296137e-03 0. 0. 0. 0. 6.43776823e-03 0. 1.07296137e-03 0. 0.
      0. 0. 0. 0. 0. 0. 0. 0. 0. 2.14592274e-03 0. 0. 2.14592274e-03 0.
      0. 0. 0. 0. 0. 0. 1.07296137e-03 3.21888411e-03 0. 0. 0.
      4.29184549e-03 0. 0. 0. 1.07296137e-03 1.07296137e-03 0. 0.
      2.14592274e-03 0. 0. 0. 3.21888411e-03 0. 1.07296137e-03
      1.07296137e-03 0. 0. 0. 1.07296137e-03 5.36480686e-03
      2.14592274e-03 0. 2.14592274e-03 1.07296137e-02 0. 1.07296137e-03
      0. 1.07296137e-03 0. 0. 0. 0. 2.14592274e-03 1.07296137e-03 0. 0.
      0. 0. 1.07296137e-03 2.14592274e-03 0. 0. 0. 0. 0. 3.21888411e-03
      1.07296137e-03 0. 0. 0. 0. 0. 4.29184549e-03 0. 0. 1.07296137e-03
      2.14592274e-03 2.14592274e-03 0. 0. 1.07296137e-03 0.
      8.58369097e-03 6.43776823e-03 0. 3.21888411e-03 1.07296137e-03 0.
      0. 0. 0. 0. 1.07296137e-03 1.07296137e-03 0. 0. 0. 1.07296137e-03
      1.07296137e-03 0. 1.07296137e-03 0. 0. 2.14592274e-03 0.
      3.21888411e-03 0. 0. 3.21888411e-03 0. 0. 0. 1.07296137e-03 0.
      1.07296137e-03 1.07296137e-03 3.21888411e-03 0. 1.07296137e-03
      1.07296137e-03 0. 2.14592274e-03 5.36480686e-03 0. 0. 0.
      1.07296137e-03 0. 0. 0. 1.07296137e-03 1.07296137e-03 0. 0. 0.
      4.29184549e-03 0. 0. 0. 0. 1.07296137e-03 0. 0. 0. 0. 0. 0.
      1.50214592e-02 1.07296137e-03 1.07296137e-03 0. 0. 0.
      5.36480686e-03 0. 2.14592274e-03 0. 2.14592274e-03 1.07296137e-03
      1.07296137e-03 0. 2.14592274e-03 0. 0. 0. 0. 0. 1.07296137e-03
      1.07296137e-03 2.14592274e-03 0. 0. 0. 0. 2.14592274e-03
      1.07296137e-03 0. 1.07296137e-03 4.29184549e-03 1.60944201e-02
      1.07296137e-03 3.21888411e-03 0. 1.07296137e-03 1.07296137e-03 0.
      0. 2.14592274e-03 0. 0. 0. 1.07296137e-03 1.07296137e-03 0. 0.</_>
    <_>
      0. 0. 0. 0. 0. 0. 0. 0. 0. 0. 0. 0. 0. 0. 0. 0. 0. 0. 0. 0. 0. 0.
      0. 0. 0. 0. 0. 0. 0. 0. 0. 0. 0. 0. 0. 0. 0. 0. 0. 0. 0. 0. 0. 0.
      0. 0. 0. 0. 0. 0. 0. 0. 0. 0. 1.99999996e-02 0. 0. 0. 0. 0. 0. 0.
      0. 0. 0. 0. 0. 0. 0. 0. 0. 0. 0. 0. 0. 0. 0. 0. 0. 0. 0. 0. 0. 0.
      0. 0. 0. 0. 0. 1.99999996e-02 0. 0. 0. 0. 0. 0. 0. 0. 0. 0. 0. 0.
      0. 0. 0. 0. 0. 0. 0. 0. 0. 0. 0. 0. 0. 0. 0. 0. 0. 0. 0. 0. 0. 0.
      0. 0. 0. 0. 0. 0. 0. 0. 0. 0. 0. 0. 0. 0. 0. 0. 0. 0. 0. 0. 0. 0.
      0. 0. 0. 0. 0. 0. 0. 0. 0. 3.99999991e-02 0. 0. 0. 0. 0. 0. 0. 0.
      0. 0. 0. 0. 0. 0. 0. 0. 0. 0. 0. 0. 0. 0. 0. 0. 0. 0. 0. 0. 0. 0.
      0. 0. 0. 0. 0. 1.99999996e-02 0. 0. 0. 0. 0. 0. 0. 0. 0. 0. 0. 0.
      0. 0. 0. 0. 0. 0. 0. 0. 0. 0. 0. 0. 0. 0. 0. 0. 0. 0. 0. 0. 0. 0.
      0. 0. 0. 0. 0. 0. 0. 0. 3.99999991e-02 0. 0. 0. 0. 0. 0. 0. 0. 0.
      0. 0. 0. 0. 0. 0. 0. 0. 0. 0. 0. 0. 0. 0. 0. 0. 0. 0. 0. 0. 0. 0.
      0. 0. 0. 0. 0. 0. 0. 0. 0. 0. 0. 0. 0. 0. 0. 0. 0. 0. 0. 0. 0. 0.
      0. 0. 0. 0. 0. 0. 0. 0. 0. 0. 0. 0. 3.99999991e-02 0. 0. 0. 0. 0.
      0. 0. 0. 0. 0. 0. 0. 0. 0. 0. 0. 0. 0. 0. 0. 0. 0. 0. 0. 0. 0. 0.
      0. 0. 0. 0. 0. 0. 0. 0. 0. 0. 0. 1.99999996e-02 0. 0. 0. 0. 0. 0.
      0. 0. 0. 0. 0. 0. 1.99999996e-02 0. 0. 0. 0. 0. 0. 0. 0. 0. 0. 0.
      0. 0. 0. 0. 0. 0. 0. 0. 0. 0. 0. 0. 0. 0. 0. 0. 0. 0.
      1.99999996e-02 0. 0. 0. 0. 0. 0. 0. 0. 0. 0. 0. 0. 0. 0. 0. 0. 0.
      0. 0. 0. 0. 0. 0. 0. 1.99999996e-02 1.99999996e-02 0. 0. 0. 0. 0.
      0. 1.99999996e-02 0. 0. 0. 0. 0. 0. 0. 0. 0. 0. 0. 0. 0. 0. 0. 0.
      0. 0. 0. 0. 0. 1.99999996e-02 0. 0. 0. 0. 0. 0. 0. 0. 0. 0. 0. 0.
      0. 0. 0. 0. 0. 0. 0. 0. 1.99999996e-02 0. 0. 0. 0. 0. 0. 0. 0. 0.
      0. 0. 0. 0. 0. 1.99999996e-02 0. 0. 0. 0. 0. 0. 0. 0. 0. 0. 0. 0.
      0. 0. 0. 0. 1.99999996e-02 0. 0. 0. 0. 0. 0. 0. 0. 0. 0. 0. 0. 0.
      0. 0. 0. 0. 0. 0. 0. 1.99999996e-02 0. 0. 0. 0. 0. 0. 0. 0. 0. 0.
      0. 0. 0. 0. 0. 0. 0. 0. 0. 0. 0. 0. 0. 0. 0. 0. 0. 0. 0. 0. 0. 0.
      0. 0. 0. 0. 0. 0. 3.99999991e-02 0. 0. 0. 0. 0. 0. 0. 0. 0. 0. 0.
      0. 0. 0. 0. 0. 0. 0. 0. 0. 0. 0. 0. 0. 0. 0. 0. 0. 0. 0. 0. 0. 0.
      0. 0. 0. 0. 0. 0. 0. 0. 0. 0. 0. 0. 0. 0. 0. 0. 1.99999996e-02 0.
      0. 0. 0. 0. 0. 1.99999996e-02 0. 1.99999996e-02 0. 0. 0. 0. 0. 0.
      0. 0. 0. 0. 0. 0. 0. 0. 0. 0. 0. 0. 0. 0. 0. 0. 0. 0. 0. 0.
      1.19999997e-01 0. 0. 0. 0. 0. 0. 0. 0. 0. 0. 1.99999996e-02 0. 0.
      0. 0. 0. 0. 0. 0. 0. 1.99999996e-02 0. 0. 0. 0. 0. 0. 0.
      1.99999996e-02 0. 0. 0. 0. 0. 0. 1.99999996e-02 0. 0. 0.
      1.99999996e-02 0. 0. 0. 0. 0. 0. 0. 0. 0. 0. 0. 0. 0. 0. 0. 0. 0.
      0. 0. 0. 0. 0. 0. 0. 0. 0. 0. 0. 0. 0. 0. 0. 0. 0. 0. 0. 0. 0. 0.
      0. 0. 0. 0. 0. 0. 0. 0. 0. 0. 0. 0. 0. 0. 0. 0. 0. 0. 0. 0. 0. 0.
      0. 0. 0. 0. 0. 0. 0. 0. 0. 0. 0. 0. 0. 0. 0. 0. 0. 0. 0. 0. 0. 0.
      0. 0. 0. 0. 0. 0. 0. 0. 0. 0. 0. 0. 0. 0. 0. 0. 0. 0. 0. 0. 0. 0.
      0. 0. 0. 0. 0. 0. 0. 0. 0. 0. 0. 0. 0. 0. 0. 0. 0. 0. 0. 0. 0. 0.
      0. 0. 0. 0. 0. 0. 0. 0. 0. 0. 0. 0. 0. 0. 0. 0. 0. 0. 0. 0. 0. 0.
      1.19999997e-01 0. 0. 0. 0. 0. 0. 0. 0. 0. 0. 0. 1.99999996e-02 0.
      0. 0. 0. 0. 0. 3.99999991e-02 0. 0. 0. 0. 0. 0. 0. 0. 0. 0. 0. 0.
      0. 0. 0. 0. 0. 0. 0. 1.99999996e-02 0. 0. 0. 1.99999996e-02 0. 0.
      0. 0. 0. 0. 0. 0. 0. 0. 0. 0. 0. 0. 0. 0. 0. 0. 0. 0. 0. 0. 0. 0.
      0. 0. 0. 0. 0. 0. 0. 0. 0. 0. 0. 0. 0. 0. 0. 0. 0. 0. 0. 0. 0. 0.
      0. 0. 0. 0. 0. 0. 0. 0. 0. 0. 0. 0. 0. 0. 0. 0. 0. 0. 0. 0. 0. 0.
      0. 0. 0. 0. 0. 0. 0. 0. 0. 0. 0. 0. 0. 0. 0. 0. 0. 0. 0. 0. 0. 0.
      0. 0. 0. 0. 0. 0. 0. 0. 0. 0. 0. 0. 0. 0. 0. 5.99999987e-02 0. 0.
      0. 0. 0. 0. 0. 0. 0. 0. 0. 0. 0. 0. 0. 0. 0. 0. 0. 0. 0. 0. 0. 0.</_>
    <_>
      0. 0. 0. 0. 0. 0. 0. 0. 3.24675324e-03 0. 0. 0. 0. 0. 0. 0.
      3.24675324e-03 0. 0. 0. 0. 0. 0. 0. 0. 0. 0. 6.49350649e-03
      3.24675324e-03 0. 0. 0. 6.49350649e-03 0. 0. 0. 0. 0. 0. 0. 0. 0.
      0. 3.24675324e-03 0. 3.24675324e-03 3.24675324e-03 0. 0. 0. 0.
      3.24675324e-03 3.24675324e-03 0. 0. 0. 0. 0. 3.24675324e-03 0.
      6.49350649e-03 0. 0. 9.74025950e-03 0. 0. 0. 0. 0. 3.24675324e-03
      0. 0. 3.24675324e-03 0. 0. 0. 3.24675324e-03 0. 0. 0. 0. 0. 0. 0.
      0. 0. 0. 3.24675324e-03 0. 0. 0. 0. 0. 0. 6.49350649e-03 0. 0. 0.
      0. 3.24675324e-03 0. 0. 0. 3.24675324e-03 0. 0. 3.24675324e-03 0.
      3.24675324e-03 0. 0. 0. 0. 0. 0. 0. 0. 0. 0. 0. 3.24675324e-03 0.
      0. 0. 0. 0. 0. 0. 3.24675324e-03 0. 0. 0. 0. 0. 0. 0.
      3.24675324e-03 0. 1.94805190e-02 0. 0. 0. 1.62337665e-02 0. 0. 0.
      0. 3.24675324e-03 0. 3.24675324e-03 0. 0. 0. 0. 0. 3.24675324e-03
      3.24675324e-03 0. 0. 0. 0. 1.62337665e-02 0. 0. 3.24675324e-03 0.
      0. 0. 0. 0. 0. 0. 3.24675324e-03 0. 0. 3.24675324e-03 0. 0. 0. 0.
      0. 0. 0. 0. 0. 0. 0. 9.74025950e-03 0. 0. 0. 0. 3.24675324e-03 0.
      0. 0. 0. 0. 3.24675324e-03 0. 0. 3.24675324e-03 9.74025950e-03 0.
      0. 3.24675324e-03 0. 3.24675324e-03 0. 0. 0. 0. 3.24675324e-03
      6.49350649e-03 0. 3.24675324e-03 0. 3.24675324e-03 0.
      9.74025950e-03 0. 0. 0. 0. 0. 0. 0. 0. 3.24675324e-03 0. 0. 0. 0.
      0. 0. 0. 0. 0. 0. 0. 0. 0. 3.24675324e-03 0. 0. 0. 6.49350649e-03
      3.24675324e-03 0. 0. 0. 0. 0. 0. 0. 0. 0. 3.24675324e-03 0. 0. 0.
      3.24675324e-03 3.24675324e-03 0. 0. 0. 0. 0. 0. 0. 3.24675324e-03
      0. 0. 0. 0. 0. 1.29870130e-02 0. 0. 3.24675324e-03 3.24675324e-03
      0. 0. 0. 0. 0. 0. 3.24675324e-03 0. 9.74025950e-03 0. 0. 0. 0.
      9.74025950e-03 0. 0. 0. 0. 0. 3.24675324e-03 0. 0. 3.24675324e-03
      9.74025950e-03 3.24675324e-03 3.24675324e-03 0. 0. 0.
      3.24675324e-03 0. 9.74025950e-03 0. 0. 3.24675324e-03 0. 0.
      1.29870130e-02 0. 0. 0. 0. 0. 3.24675324e-03 0. 0. 0. 0. 0. 0.
      3.24675324e-03 0. 0. 3.24675324e-03 0. 3.24675324e-03 0. 0. 0. 0.
      0. 0. 0. 0. 3.24675324e-03 0. 0. 0. 3.24675324e-03 0. 0. 0. 0. 0.
      0. 0. 3.24675324e-03 0. 6.49350649e-03 0. 0. 0. 0. 3.24675324e-03
      0. 0. 3.24675324e-03 0. 0. 0. 0. 0. 0. 0. 0. 0. 0. 6.49350649e-03
      0. 0. 0. 0. 3.24675324e-03 0. 3.24675324e-03 0. 0. 0. 0.
      3.24675324e-03 3.24675324e-03 3.24675324e-03 0. 0. 0. 0. 0. 0.
      3.24675324e-03 0. 0. 0. 3.24675324e-03 0. 0. 0. 0. 0.
      3.24675324e-03 0. 0. 3.24675324e-03 0. 3.24675324e-03
      6.49350649e-03 0. 0. 0. 0. 0. 3.24675324e-03 0. 0. 0. 0. 0. 0. 0.
      3.24675324e-03 0. 0. 0. 0. 3.24675324e-03 0. 3.24675324e-03 0. 0.
      0. 0. 0. 0. 0. 0. 0. 0. 0. 0. 0. 0. 0. 0. 0. 0. 0. 0.
      3.24675324e-03 0. 0. 0. 0. 0. 0. 0. 0. 0. 3.24675324e-03 0. 0. 0.
      0. 0. 0. 0. 0. 0. 0. 3.24675324e-03 0. 0. 3.24675324e-03 0. 0. 0.
      0. 3.24675324e-03 0. 0. 0. 6.49350649e-03 0. 0. 0. 0. 0. 0.
      3.24675324e-03 0. 0. 0. 0. 0. 0. 0. 0. 0. 0. 0. 0. 0. 0. 0. 0.
      3.24675324e-03 0. 0. 0. 3.24675324e-03 0. 0. 0. 3.24675324e-03
      3.24675324e-03 0. 0. 0. 0. 0. 0. 0. 0. 0. 0. 3.24675324e-03 0.
      3.24675324e-03 0. 0. 6.49350649e-03 0. 0. 0. 1.29870130e-02 0. 0.
      0. 0. 0. 6.49350649e-03 0. 0. 0. 0. 6.49350649e-03 0. 0. 0. 0.
      3.24675324e-03 0. 0. 3.24675324e-03 0. 9.74025950e-03 0. 0.
      6.49350649e-03 0. 3.24675324e-03 0. 0. 0. 0. 0. 6.49350649e-03 0.
      3.24675324e-03 6.49350649e-03 0. 0. 0. 0. 0. 0. 0. 0. 0. 0.
      3.24675324e-03 0. 3.24675324e-03 0. 0. 3.24675324e-03 0. 0. 0. 0.
      0. 0. 0. 3.24675324e-03 0. 0. 0. 0. 0. 0. 3.24675324e-03 0. 0. 0.
      0. 0. 0. 0. 0. 0. 0. 0. 3.24675324e-03 0. 0. 0. 0. 0. 0. 0.
      3.24675324e-03 0. 0. 6.49350649e-03 0. 3.24675324e-03 0. 0. 0. 0.
      0. 3.24675324e-03 6.49350649e-03 3.24675324e-03 0. 3.24675324e-03
      0. 0. 0. 0. 0. 0. 0. 9.74025950e-03 0. 0. 0. 0. 0. 0. 0. 0. 0. 0.
      0. 3.24675324e-03 3.24675324e-03 3.24675324e-03 0. 0. 0. 0. 0. 0.
      0. 0. 0. 0. 0. 0. 0. 0. 0. 0. 0. 3.24675324e-03 0. 0. 0. 0. 0. 0.
      6.49350649e-03 3.24675324e-03 6.49350649e-03 0. 0. 0. 0. 0.
      6.49350649e-03 0. 0. 0. 0. 3.24675324e-03 0. 0. 0. 0. 0. 0. 0. 0.
      3.24675324e-03 0. 0. 3.24675324e-03 0. 0. 0. 3.24675324e-03 0. 0.
      0. 0. 0. 0. 0. 0. 3.24675324e-03 0. 0. 0. 0. 0. 0. 0. 0. 0.
      3.24675324e-03 0. 6.49350649e-03 0. 0. 0. 0. 0. 0. 0. 0. 0. 0.
      6.49350649e-03 0. 3.24675324e-03 0. 0. 0. 0. 0. 3.24675324e-03 0.
      0. 0. 0. 0. 3.24675324e-03 0. 0. 0. 3.24675324e-03 0. 0. 0.
      3.24675324e-03 0. 0. 0. 0. 0. 0. 0. 3.24675324e-03 3.24675324e-03
      0. 9.74025950e-03 0. 0. 0. 0. 0. 0. 0. 0. 0. 0. 0. 0. 0.
      3.24675324e-03 3.24675324e-03 6.49350649e-03 6.49350649e-03 0. 0.
      0. 3.24675324e-03 3.24675324e-03 0. 6.49350649e-03 0. 0. 0. 0. 0.
      0. 0. 3.24675324e-03 3.24675324e-03 3.24675324e-03 0. 0. 0. 0. 0.
      3.24675324e-03 0. 0. 0. 3.24675324e-03 0. 3.24675324e-03
      3.24675324e-03 0. 0. 6.49350649e-03 3.24675324e-03 0. 0. 0. 0.
      6.49350649e-03 0. 0. 0. 3.24675324e-03 0. 0. 6.49350649e-03 0. 0.
      0. 0. 0. 0. 6.49350649e-03 0. 3.24675324e-03 3.24675324e-03 0. 0.
      0. 0. 0. 9.74025950e-03 3.24675324e-03 0. 0. 0. 0. 0. 0. 0. 0. 0.
      0. 0. 0. 0. 0. 0. 3.24675324e-03 0. 0. 0. 0. 0. 0. 0. 0. 0. 0.
      3.24675324e-03 0. 3.24675324e-03 0. 0. 0. 3.24675324e-03
      3.24675324e-03 0. 3.24675324e-03 3.24675324e-03 0. 0. 0.
      3.24675324e-03 0. 0. 2.59740259e-02 0. 6.49350649e-03
      3.24675324e-03 3.24675324e-03 3.24675324e-03 0. 0. 3.24675324e-03
      0. 0. 0. 0. 3.24675324e-03 0. 0. 0. 0. 0. 0. 1.62337665e-02 0. 0.
      3.24675324e-03 0. 0. 0. 0. 0. 3.24675324e-03 0. 0. 3.24675324e-03
      3.24675324e-03 3.24675324e-03 0. 0. 0. 0. 0. 0. 0. 0. 0. 0. 0. 0.
      0. 0. 0. 0. 0. 0. 0. 0. 0. 3.24675324e-03 0. 0. 0. 3.24675324e-03
      1.29870130e-02 0. 0. 0. 0. 0. 0. 0. 0. 0. 0. 0. 6.49350649e-03 0.
      0. 3.24675324e-03 3.24675324e-03 0. 0. 0. 0. 3.24675324e-03
      3.24675324e-03 0. 3.24675324e-03 0. 0. 9.74025950e-03 0. 0.</_>
    <_>
      3.10559012e-03 0. 0. 0. 0. 0. 0. 0. 0. 1.55279506e-02 0. 0. 0. 0.
      0. 0. 3.10559012e-03 0. 0. 0. 0. 0. 0. 0. 0. 0. 0. 0. 0. 0. 0.
      3.10559012e-03 0. 0. 0. 0. 0. 3.10559012e-03 0. 0. 0. 0.
      3.10559012e-03 0. 0. 0. 0. 0. 0. 0. 0. 9.31677036e-03 0. 0. 0. 0.
      0. 0. 0. 0. 0. 3.10559012e-03 0. 0. 0. 0. 3.10559012e-03 0. 0. 0.
      9.31677036e-03 3.10559012e-03 0. 0. 6.21118024e-03 0. 0. 0. 0. 0.
      3.10559012e-03 0. 0. 0. 0. 9.31677036e-03 0. 0. 0. 3.10559012e-03
      0. 0. 0. 0. 0. 0. 0. 0. 0. 3.10559012e-03 0. 0. 0. 0. 0. 0. 0. 0.
      1.86335407e-02 0. 0. 3.10559012e-03 2.48447210e-02 3.10559012e-03
      0. 0. 0. 0. 0. 0. 0. 0. 3.10559012e-03 0. 0. 0. 0. 0. 0. 0. 0. 0.
      9.31677036e-03 0. 0. 0. 0. 0. 0. 0. 0. 0. 0. 3.10559012e-03 0. 0.
      0. 3.10559012e-03 6.21118024e-03 0. 0. 3.10559012e-03 0. 0. 0. 0.
      3.10559012e-03 0. 0. 0. 0. 0. 3.10559012e-03 0. 0. 3.10559012e-03
      0. 0. 0. 0. 0. 0. 3.10559012e-03 0. 3.10559012e-03 3.10559012e-03
      0. 3.10559012e-03 0. 3.10559012e-03 0. 6.21118024e-03
      3.10559012e-03 0. 0. 0. 0. 6.21118024e-03 0. 0. 0. 0.
      3.10559012e-03 6.21118024e-03 0. 0. 0. 0. 0. 0. 0. 0. 0. 0. 0. 0.
      0. 0. 0. 1.55279506e-02 0. 0. 0. 0. 0. 0. 0. 0. 0. 0.
      3.10559012e-03 0. 3.10559012e-03 0. 0. 0. 0. 1.24223605e-02 0. 0.
      0. 0. 0. 0. 0. 0. 0. 0. 0. 0. 0. 0. 0. 0. 0. 0. 0. 0. 0. 0.
      3.10559012e-03 0. 0. 0. 0. 0. 0. 0. 0. 6.21118024e-03 0. 0. 0.
      3.10559012e-03 3.10559012e-03 0. 0. 0. 3.10559012e-03
      3.10559012e-03 0. 0. 0. 0. 0. 0. 0. 0. 0. 0. 0. 0. 0.
      3.10559012e-03 0. 0. 0. 0. 9.31677036e-03 0. 0. 0. 0. 0. 0. 0. 0.
      3.10559012e-03 3.10559012e-03 0. 0. 0. 0. 3.10559012e-03
      9.31677036e-03 0. 0. 0. 0. 0. 0. 0. 3.10559012e-03 0. 0.
      6.21118024e-03 0. 6.21118024e-03 0. 0. 0. 0. 0. 0. 0. 0. 0. 0. 0.
      3.10559012e-03 3.10559012e-03 0. 0. 0. 0. 0. 6.21118024e-03 0. 0.
      0. 0. 0. 3.10559012e-03 0. 0. 0. 0. 0. 3.10559012e-03 0. 0. 0.
      3.10559012e-03 0. 0. 0. 0. 3.10559012e-03 0. 3.10559012e-03
      3.10559012e-03 0. 0. 0. 3.10559012e-03 3.10559012e-03 0. 0. 0. 0.
      0. 0. 0. 0. 0. 0. 0. 6.21118024e-03 0. 0. 6.21118024e-03 0.
      1.86335407e-02 0. 3.10559012e-03 6.21118024e-03 0. 0. 0. 0.
      9.31677036e-03 0. 0. 0. 0. 0. 0. 0. 0. 6.21118024e-03 0. 0. 0. 0.
      0. 0. 0. 0. 0. 0. 0. 3.10559012e-03 0. 9.31677036e-03 0. 0. 0. 0.
      0. 0. 3.10559012e-03 3.10559012e-03 0. 0. 0. 6.21118024e-03
      3.10559012e-03 0. 0. 0. 3.10559012e-03 0. 0. 3.10559012e-03 0. 0.
      6.21118024e-03 1.55279506e-02 0. 0. 0. 0. 3.10559012e-03 0. 0. 0.
      0. 0. 0. 0. 0. 0. 0. 0. 6.21118024e-03 1.24223605e-02 0. 0. 0. 0.
      0. 0. 0. 0. 0. 0. 0. 0. 0. 0. 0. 0. 0. 0. 0. 0. 0. 6.21118024e-03
      0. 0. 0. 0. 3.10559012e-03 0. 0. 6.21118024e-03 3.10559012e-03
      3.10559012e-03 0. 3.10559012e-03 0. 0. 0. 0. 0. 2.48447210e-02 0.
      0. 0. 6.21118024e-03 0. 6.21118024e-03 0. 0. 3.10559012e-03 0. 0.
      3.10559012e-03 0. 0. 0. 3.10559012e-03 0. 0. 0. 0. 0. 0. 0. 0. 0.
      0. 0. 0. 0. 0. 0. 0. 0. 0. 0. 0. 3.10559012e-03 0. 0.
      9.31677036e-03 0. 0. 0. 0. 0. 0. 0. 0. 0. 0. 0. 1.24223605e-02 0.
      0. 3.10559012e-03 0. 0. 0. 0. 0. 0. 0. 0. 0. 0. 0. 0. 0. 0. 0. 0.
      0. 0. 0. 0. 0. 0. 0. 0. 3.10559012e-03 0. 0. 0. 0. 3.10559012e-03
      0. 3.10559012e-03 0. 0. 0. 0. 0. 3.10559012e-03 0. 0. 0. 0.
      3.10559012e-03 0. 0. 6.21118024e-03 0. 0. 0. 0. 0. 0. 0. 0. 0. 0.
      0. 0. 0. 0. 0. 0. 0. 0. 0. 0. 0. 0. 3.10559012e-03 0. 0. 0. 0. 0.
      0. 0. 0. 0. 0. 0. 3.10559012e-03 0. 0. 0. 0. 9.31677036e-03 0. 0.
      0. 0. 0. 0. 0. 0. 0. 0. 0. 0. 0. 0. 0. 0. 6.21118024e-03 0. 0. 0.
      6.21118024e-03 0. 0. 6.21118024e-03 0. 0. 3.10559012e-03 0. 0. 0.
      3.10559012e-03 0. 0. 0. 6.21118024e-03 6.21118024e-03 0. 0. 0. 0.
      0. 0. 0. 0. 0. 0. 3.10559012e-03 0. 0. 6.21118024e-03 0. 0.
      9.31677036e-03 0. 0. 3.10559012e-03 2.17391308e-02 0. 0. 0. 0. 0.
      0. 0. 3.10559012e-03 0. 0. 1.55279506e-02 0. 0. 0. 0. 0. 0. 0. 0.
      0. 0. 0. 0. 0. 0. 0. 0. 0. 0. 0. 0. 0. 0. 0. 0. 0. 0.
      6.21118024e-03 0. 0. 0. 0. 0. 0. 0. 0. 0. 0. 0. 0. 0. 0.
      3.10559012e-03 0. 0. 3.10559012e-03 0. 0. 1.24223605e-02 0. 0. 0.
      0. 1.55279506e-02 3.10559012e-03 0. 0. 0. 0. 0. 0. 3.10559012e-03
      0. 0. 0. 0. 0. 0. 0. 0. 0. 0. 0. 0. 0. 0. 0. 0. 0. 0.
      6.21118024e-03 0. 0. 0. 0. 0. 0. 0. 0. 0. 0. 0. 0. 0. 0. 0.
      6.21118024e-03 1.24223605e-02 0. 0. 0. 6.21118024e-03 0. 0. 0. 0.
      0. 0. 0. 0. 3.10559012e-03 0. 0. 0. 0. 0. 0. 0. 0. 0. 0. 0.
      3.10559012e-03 0. 0. 3.10559012e-03 0. 0. 0. 3.10559012e-03 0.
      3.10559012e-03 0. 0. 0. 0. 0. 0. 0. 0. 0. 6.21118024e-03 0. 0. 0.
      0. 0. 0. 0. 6.21118024e-03 0. 3.10559012e-03 1.24223605e-02 0.
      3.10559012e-03 0. 0. 0. 0. 0. 0. 0. 0. 0. 0. 0. 0. 0. 0. 0. 0. 0.
      0. 0. 0. 3.10559012e-03 0. 0. 0. 0. 3.10559012e-03 0. 0. 0. 0. 0.
      3.10559012e-03 3.10559012e-03 0. 0. 0. 0. 3.10559012e-03 0. 0. 0.
      3.10559012e-03 0. 0. 0. 3.10559012e-03 0. 0. 2.79503111e-02 0. 0.
      0. 6.21118024e-03 3.10559012e-03 0. 0. 6.21118024e-03 0. 0. 0. 0.
      3.10559012e-03 3.10559012e-03 0. 0. 0. 3.10559012e-03
      3.10559012e-03 0. 0. 0. 0. 0. 0. 6.21118024e-03 0. 0. 0. 0. 0. 0.
      3.10559012e-03 0. 0. 3.10559012e-03 3.10559012e-03 0.
      3.10559012e-03 0. 0. 0. 0. 0. 0. 0. 0. 0. 0. 3.10559012e-03 0.
      6.21118024e-03 0. 0. 0. 0. 3.10559012e-03 0. 0. 0. 0.
      9.31677036e-03 0. 3.10559012e-03 0. 1.55279506e-02 0.
      3.10559012e-03 0. 0. 0. 0. 0. 0. 9.31677036e-03 3.10559012e-03 0.
      0. 0. 0. 0. 0. 0. 0. 0. 0. 0. 0. 3.10559012e-03 0. 0. 0.</_>
    <_>
      0. 0. 1.75131345e-03 0. 1.75131345e-03 1.75131345e-03 0. 0.
      3.50262690e-03 1.75131345e-03 0. 0. 0. 1.75131345e-03 0.
      1.75131345e-03 0. 0. 1.75131345e-03 0. 3.50262690e-03 0.
      1.75131345e-03 1.75131345e-03 0. 0. 0. 0. 0. 0. 0. 0. 0. 0. 0. 0.
      0. 1.75131345e-03 0. 0. 0. 1.75131345e-03 0. 0. 0. 0. 0.
      1.75131345e-03 0. 1.75131345e-03 0. 0. 0. 0. 1.75131345e-03 0. 0.
      1.75131345e-03 0. 1.75131345e-03 5.25394036e-03 1.05078807e-02 0.
      0. 0. 0. 0. 0. 0. 0. 0. 1.75131345e-03 0. 0. 8.75656679e-03 0. 0.
      0. 1.75131345e-03 3.50262690e-03 0. 0. 0. 0. 0. 3.50262690e-03 0.
      0. 0. 0. 0. 0. 1.75131345e-03 5.25394036e-03 3.50262690e-03 0. 0.
      0. 0. 0. 0. 0. 1.75131345e-03 0. 0. 0. 0. 0. 1.75131345e-03 0. 0.
      0. 3.50262690e-03 3.50262690e-03 0. 0. 0. 1.75131345e-03 0.
      1.75131345e-03 0. 0. 0. 1.75131345e-03 0. 1.75131345e-03 0.
      1.75131345e-03 1.75131345e-03 0. 0. 0. 1.75131345e-03 0. 0. 0.
      1.75131345e-03 0. 1.75131345e-03 1.75131345e-03 3.50262690e-03 0.
      0. 0. 3.50262690e-03 0. 3.50262690e-03 0. 1.75131345e-03
      1.75131345e-03 1.75131345e-03 0. 0. 0. 1.75131345e-03 0.
      1.75131345e-03 3.50262690e-03 0. 3.50262690e-03 0. 0. 0. 0. 0. 0.
      0. 0. 0. 0. 0. 1.75131345e-03 0. 0. 1.75131345e-03 1.75131345e-03
      0. 0. 0. 3.50262690e-03 0. 0. 5.25394036e-03 0. 1.75131345e-03 0.
      1.75131345e-03 1.75131345e-03 3.50262690e-03 0. 0. 0.
      1.75131345e-03 0. 3.50262690e-03 1.75131345e-03 0. 1.75131345e-03
      3.50262690e-03 0. 0. 0. 1.75131345e-03 0. 0. 0. 0. 0. 0.
      3.50262690e-03 0. 3.50262690e-03 5.25394036e-03 0. 0.
      1.75131345e-03 0. 1.75131345e-03 7.00525381e-03 0. 1.75131345e-03
      0. 1.75131345e-03 0. 0. 3.50262690e-03 0. 0. 0. 0. 1.75131345e-03
      0. 0. 3.50262690e-03 0. 0. 0. 3.50262690e-03 0. 0. 0. 0. 0.
      1.75131345e-03 7.00525381e-03 7.00525381e-03 0. 0. 0. 0.
      1.75131345e-03 1.75131345e-03 0. 0. 0. 0. 0. 0. 0. 0. 0. 0. 0.
      3.50262690e-03 0. 0. 0. 0. 0. 0. 0. 1.05078807e-02 5.25394036e-03
      0. 0. 0. 0. 0. 0. 1.75131345e-03 0. 0. 0. 1.75131345e-03 0. 0. 0.
      0. 0. 0. 0. 0. 0. 3.50262690e-03 0. 0. 0. 0. 0. 0. 1.75131345e-03
      0. 0. 1.75131345e-03 0. 5.25394036e-03 0. 0. 0. 0. 0.
      5.25394036e-03 0. 0. 1.75131345e-03 0. 1.75131345e-03
      5.25394036e-03 1.05078807e-02 1.75131345e-03 0. 0. 1.75131345e-03
      0. 0. 0. 3.50262690e-03 0. 0. 0. 1.75131345e-03 0. 0. 0. 0. 0. 0.
      0. 1.75131345e-03 1.75131345e-03 0. 0. 0. 0. 1.75131345e-03 0. 0.
      0. 0. 1.05078807e-02 1.75131345e-03 0. 0. 0. 1.75131345e-03
      3.50262690e-03 0. 0. 0. 0. 3.50262690e-03 0. 0. 0. 8.75656679e-03
      0. 1.05078807e-02 1.05078807e-02 0. 0. 0. 0. 0. 0. 0. 0. 0. 0. 0.
      0. 0. 3.50262690e-03 3.50262690e-03 1.75131345e-03 0.
      1.75131345e-03 3.50262690e-03 0. 1.75131345e-03 0. 0. 0. 0. 0. 0.
      1.75131345e-03 0. 0. 0. 0. 0. 0. 0. 1.75131345e-03 0. 0. 0. 0. 0.
      0. 0. 5.25394036e-03 0. 3.50262690e-03 0. 5.25394036e-03 0. 0. 0.
      0. 0. 0. 0. 0. 0. 1.75131345e-03 1.75131345e-03 0. 0. 0.
      3.50262690e-03 0. 1.75131345e-03 0. 0. 0. 1.75131345e-03 0. 0. 0.
      0. 3.50262690e-03 0. 5.25394036e-03 3.50262690e-03 1.75131345e-03
      0. 0. 0. 5.25394036e-03 0. 3.50262690e-03 3.50262690e-03
      1.75131345e-03 0. 0. 0. 0. 0. 1.75131345e-03 0. 0. 0. 0. 0.
      3.50262690e-03 0. 0. 0. 3.50262690e-03 0. 3.50262690e-03 0. 0. 0.
      5.25394036e-03 7.00525381e-03 0. 0. 0. 0. 0. 1.75131345e-03 0. 0.
      0. 0. 1.75131345e-03 0. 0. 3.50262690e-03 0. 0. 0. 0. 0. 0. 0. 0.
      1.75131345e-03 0. 0. 0. 1.75131345e-03 0. 0. 0. 0. 0. 0. 0. 0. 0.
      0. 0. 3.50262690e-03 0. 0. 1.05078807e-02 0. 0. 0. 0. 0. 0. 0.
      1.75131345e-03 3.50262690e-03 0. 0. 0. 0. 0. 0. 1.75131345e-03
      1.75131345e-03 0. 0. 1.75131345e-03 8.75656679e-03 1.75131345e-03
      3.50262690e-03 1.75131345e-03 1.22591946e-02 0. 0. 7.00525381e-03
      0. 1.75131345e-03 0. 3.50262690e-03 8.75656679e-03 0. 0. 0.
      1.75131345e-03 0. 3.50262690e-03 0. 0. 1.75131345e-03 0.
      1.75131345e-03 1.75131345e-03 0. 0. 0. 3.50262690e-03
      1.75131345e-03 0. 0. 0. 1.75131345e-03 0. 0. 0. 3.50262690e-03
      5.25394036e-03 0. 1.75131345e-03 0. 1.75131345e-03 0. 0. 0.
      1.75131345e-03 0. 0. 0. 0. 0. 3.50262690e-03 3.50262690e-03
      5.25394036e-03 3.50262690e-03 5.25394036e-03 1.75131345e-03 0. 0.
      1.75131345e-03 0. 0. 3.50262690e-03 0. 0. 0. 1.75131345e-03 0.
      1.75131345e-03 1.75131345e-03 0. 0. 0. 1.75131345e-03 0. 0. 0. 0.
      0. 0. 0. 0. 0. 0. 1.75131345e-03 3.50262690e-03 0. 0.
      1.75131345e-03 0. 0. 0. 0. 0. 0. 0. 1.75131345e-03 1.75131345e-03
      3.50262690e-03 1.75131345e-03 1.75131345e-03 0. 0. 0. 0. 0. 0.
      3.50262690e-03 1.75131345e-03 1.75131345e-03 1.75131345e-03
      1.75131345e-03 0. 1.75131345e-03 3.50262690e-03 0. 5.25394036e-03
      0. 3.50262690e-03 0. 0. 0. 0. 0. 1.05078807e-02 0. 0.
      1.75131345e-03 0. 5.25394036e-03 0. 0. 1.75131345e-03
      1.75131345e-03 0. 0. 0. 0. 1.75131345e-03 1.75131345e-03 0. 0. 0.
      1.75131345e-03 1.75131345e-03 0. 0. 0. 1.75131345e-03 0. 0.
      1.75131345e-03 1.75131345e-03 0. 0. 0. 1.75131345e-03
      1.75131345e-03 0. 1.05078807e-02 3.50262690e-03 0. 0. 0. 0. 0. 0.
      3.50262690e-03 1.75131345e-03 0. 0. 0. 1.75131345e-03 0. 0.
      1.75131345e-03 0. 0. 3.50262690e-03 0. 8.75656679e-03 0.
      1.75131345e-03 0. 1.75131345e-03 0. 0. 3.50262690e-03
      1.75131345e-03 0. 0. 0. 0. 0. 0. 0. 0. 0. 0. 0. 0. 0. 0.
      3.50262690e-03 0. 0. 0. 0. 0. 0. 1.75131345e-03 0. 0. 0. 0. 0. 0.
      0. 7.00525381e-03 0. 0. 0. 0. 0. 0. 1.75131345e-03 1.75131345e-03
      1.75131345e-03 0. 0. 5.25394036e-03 5.25394036e-03 0. 0.
      1.75131345e-03 0. 0. 0. 1.75131345e-03 0. 0. 3.50262690e-03
      1.75131345e-03 0. 0. 1.75131345e-03 5.25394036e-03 0.
      1.75131345e-03 0. 0. 0. 0. 0. 0. 0. 0. 0. 0. 1.75131345e-03 0.
      1.75131345e-03 0. 1.75131345e-03 0. 3.50262690e-03 1.75131345e-03
      0. 0. 0. 0. 3.50262690e-03 0. 0. 0. 0. 0. 0. 1.75131345e-03 0. 0.
      0. 0. 0. 0. 0. 1.75131345e-03 0. 0. 0. 0. 1.75131345e-03 0.
      1.75131345e-03 0. 1.75131345e-03 0. 5.25394036e-03 3.50262690e-03
      1.75131345e-03 0. 1.75131345e-03 0. 0. 1.75131345e-03
      1.75131345e-03 0. 0. 1.75131345e-03 0. 0. 0. 3.50262690e-03 0.
      3.50262690e-03 3.50262690e-03 0. 0. 8.75656679e-03 0. 0. 0.
      7.00525381e-03 3.50262690e-03 0. 3.50262690e-03 3.50262690e-03 0.
      2.10157614e-02 0. 0. 0. 0. 0. 0. 0. 0. 0. 5.25394036e-03
      1.75131345e-03 7.00525381e-03 0. 1.75131345e-03 0. 0.
      1.75131345e-03 0. 1.75131345e-03 0. 0. 0. 0. 0. 1.75131345e-03
      3.50262690e-03 0. 0. 3.50262690e-03 0. 0. 0. 0. 3.50262690e-03
      1.75131345e-03 0. 0. 1.75131345e-03 1.75131345e-03 0.
      1.75131345e-03 0. 0. 1.75131345e-03 0. 0. 1.75131345e-03 0. 0.
      1.75131345e-03 3.50262690e-03 0. 0. 0. 1.75131345e-03 0.
      1.75131345e-03 1.75131345e-03 1.75131345e-03 1.75131345e-03 0.
      5.25394036e-03 1.75131345e-03 0. 0. 3.50262690e-03 1.75131345e-03
      0. 0. 0. 0. 1.75131345e-03 0. 0. 1.75131345e-03 0. 1.75131345e-03
      0. 0. 0. 1.75131345e-03 0. 0. 1.75131345e-03 1.75131345e-03
      3.50262690e-03 0. 0. 3.50262690e-03 0. 3.50262690e-03 0. 0.
      3.50262690e-03 0. 0. 8.75656679e-03 1.75131345e-03 1.75131345e-03
      0. 0. 5.25394036e-03 0. 0. 1.75131345e-03 0. 0. 0. 1.75131345e-03
      0. 0. 0. 0. 0. 0. 0. 0. 0. 0. 1.75131345e-03 7.00525381e-03 0. 0.
      0. 1.75131345e-03 0. 0. 0. 5.25394036e-03 0. 3.50262690e-03</_>
    <_>
      2.11640215e-03 2.11640215e-03 0. 1.05820107e-03 1.05820107e-03 0.
      1.05820107e-03 0. 0. 1.05820107e-03 1.05820107e-03 0. 0. 0. 0.
      2.11640215e-03 0. 2.11640215e-03 0. 1.05820107e-03 2.11640215e-03
      1.05820107e-03 1.05820107e-03 1.05820107e-03 2.11640215e-03
      1.05820107e-03 0. 2.11640215e-03 1.05820107e-03 1.05820107e-03 0.
      0. 0. 1.05820107e-03 1.05820107e-03 2.11640215e-03 0. 0.
      1.05820107e-03 1.05820107e-03 0. 1.05820107e-03 0. 0.
      1.05820107e-03 0. 1.26984129e-02 0. 0. 0. 8.46560858e-03 0. 0.
      2.11640215e-03 1.05820107e-03 1.05820107e-03 1.05820107e-03
      2.11640215e-03 3.17460322e-03 2.11640215e-03 2.11640215e-03
      1.05820107e-03 0. 1.05820107e-03 0. 1.05820107e-03 1.05820107e-03
      0. 1.05820107e-03 1.05820107e-03 0. 0. 0. 1.05820107e-03
      1.05820107e-03 0. 2.11640215e-03 0. 2.11640215e-03 1.05820107e-03
      2.11640215e-03 0. 2.11640215e-03 0. 0. 1.05820107e-03 0. 0.
      2.11640215e-03 1.05820107e-03 1.05820107e-03 0. 0. 0.
      2.11640215e-03 4.23280429e-03 0. 0. 0. 0. 0. 1.05820107e-03 0. 0.
      2.11640215e-03 1.05820107e-03 1.05820107e-03 0. 0. 2.11640215e-03
      0. 2.11640215e-03 0. 0. 3.17460322e-03 0. 1.05820107e-03
      2.11640215e-03 1.05820107e-03 0. 1.05820107e-03 0. 4.23280429e-03
      2.11640215e-03 0. 0. 1.05820107e-03 0. 1.05820107e-03
      1.05820107e-03 0. 1.05820107e-03 2.11640215e-03 0. 0.
      2.11640215e-03 3.17460322e-03 0. 0. 0. 2.11640215e-03
      1.05820107e-03 1.05820107e-03 1.05820107e-03 0. 0. 1.05820107e-03
      2.11640215e-03 5.29100560e-03 0. 0. 1.05820107e-03 0. 0.
      1.05820107e-03 0. 2.11640215e-03 2.11640215e-03 1.05820107e-03
      1.05820107e-03 0. 7.40740728e-03 3.17460322e-03 2.11640215e-03
      1.05820107e-03 6.34920644e-03 0. 0. 7.40740728e-03 3.17460322e-03
      0. 2.11640215e-03 0. 1.05820107e-03 1.05820107e-03 1.05820107e-03
      0. 0. 0. 1.05820107e-03 1.05820107e-03 0. 1.05820107e-03 0. 0.
      1.05820107e-03 2.11640215e-03 1.05820107e-03 1.05820107e-03 0.
      1.05820107e-03 0. 1.05820107e-03 0. 0. 0. 1.05820107e-03
      3.17460322e-03 0. 2.11640215e-03 1.05820107e-03 2.11640215e-03
      4.23280429e-03 0. 2.11640215e-03 1.05820107e-03 0. 0. 0.
      2.11640215e-03 1.05820107e-03 1.05820107e-03 0. 2.11640215e-03
      1.05820107e-03 2.11640215e-03 0. 3.17460322e-03 0. 2.11640215e-03
      4.23280429e-03 1.05820107e-03 1.05820107e-03 2.11640215e-03
      1.05820107e-03 0. 0. 0. 1.05820107e-03 1.05820107e-03
      3.17460322e-03 1.05820107e-03 2.11640215e-03 1.05820107e-03
      2.11640215e-03 2.11640215e-03 1.05820107e-03 3.17460322e-03
      1.05820107e-03 0. 3.17460322e-03 0. 0. 1.05820107e-03 0. 0.
      2.11640215e-03 1.05820107e-03 2.11640215e-03 2.11640215e-03
      1.05820107e-03 2.11640215e-03 1.05820107e-03 1.05820107e-03
      2.11640215e-03 0. 1.16402116e-02 0. 1.05820107e-03 1.05820107e-03
      0. 3.17460322e-03 0. 2.11640215e-03 2.11640215e-03 1.05820107e-03
      2.11640215e-03 2.11640215e-03 0. 0. 2.11640215e-03 0. 0.
      5.29100560e-03 2.11640215e-03 0. 0. 0. 1.05820107e-03
      1.05820107e-03 2.11640215e-03 0. 3.17460322e-03 2.11640215e-03
      1.05820107e-03 0. 1.05820107e-03 6.34920644e-03 0. 1.05820107e-03
      1.05820107e-03 0. 0. 0. 1.05820107e-03 0. 0. 0. 0. 0.
      2.11640215e-03 0. 0. 0. 0. 2.11640215e-03 3.17460322e-03 0. 0.
      2.11640215e-03 1.05820107e-03 1.05820107e-03 0. 1.05820107e-03
      1.05820107e-03 0. 0. 0. 2.11640215e-03 0. 0. 5.29100560e-03
      2.11640215e-03 1.05820107e-03 0. 0. 0. 7.40740728e-03
      1.05820107e-03 0. 1.05820107e-03 0. 0. 0. 1.05820107e-03
      2.11640215e-03 1.05820107e-03 1.05820107e-03 4.23280429e-03 0. 0.
      3.17460322e-03 0. 0. 0. 0. 0. 2.11640215e-03 0. 3.17460322e-03
      2.11640215e-03 0. 0. 0. 0. 2.11640215e-03 1.05820107e-03 0.
      2.11640215e-03 0. 1.05820107e-03 0. 1.05820107e-03 0. 0.
      2.11640215e-03 1.05820107e-03 1.05820107e-03 1.05820107e-03
      2.11640215e-03 0. 1.05820107e-03 4.23280429e-03 2.11640215e-03 0.
      2.11640215e-03 0. 0. 0. 0. 0. 1.05820107e-03 0. 0. 0. 0.
      1.05820107e-03 1.05820107e-03 1.05820107e-03 2.11640215e-03 0.
      1.05820107e-03 1.05820107e-03 1.05820107e-03 1.05820107e-03
      1.05820107e-03 2.11640215e-03 2.11640215e-03 3.17460322e-03
      2.11640215e-03 1.05820107e-03 1.05820107e-03 1.05820107e-03
      1.05820107e-03 2.11640215e-03 0. 3.17460322e-03 3.17460322e-03
      2.11640215e-03 1.05820107e-03 3.17460322e-03 0. 3.17460322e-03
      1.05820107e-03 0. 1.05820107e-03 0. 0. 1.05820107e-03 0. 0.
      2.11640215e-03 0. 2.11640215e-03 3.17460322e-03 0. 0.
      2.11640215e-03 2.11640215e-03 2.11640215e-03 0. 0. 0.
      1.05820107e-03 1.05820107e-03 6.34920644e-03 0. 0. 0. 0.
      1.05820107e-03 1.05820107e-03 1.05820107e-03 0. 1.05820107e-03 0.
      1.05820107e-03 0. 0. 2.11640215e-03 0. 0. 0. 1.05820107e-03
      2.11640215e-03 0. 0. 2.11640215e-03 0. 0. 2.11640215e-03 0. 0.
      1.05820107e-03 0. 0. 2.11640215e-03 4.23280429e-03 2.11640215e-03
      1.05820107e-03 0. 0. 0. 2.11640215e-03 2.11640215e-03 0.
      2.11640215e-03 1.05820107e-03 0. 0. 0. 1.05820107e-03
      1.05820107e-03 2.11640215e-03 0. 1.05820107e-03 0. 2.11640215e-03
      0. 1.05820107e-03 0. 0. 1.05820107e-03 0. 0. 0. 1.05820107e-03 0.
      1.05820107e-03 0. 0. 3.17460322e-03 0. 5.29100560e-03 0.
      1.05820107e-03 1.05820107e-03 3.17460322e-03 0. 2.11640215e-03
      1.05820107e-03 1.05820107e-03 5.29100560e-03 0. 0. 0. 0. 0.
      1.05820107e-03 0. 4.23280429e-03 0. 1.05820107e-03 2.11640215e-03
      1.05820107e-03 0. 0. 2.11640215e-03 0. 0. 2.11640215e-03 0. 0.
      2.11640215e-03 0. 4.23280429e-03 0. 2.11640215e-03 0.
      1.05820107e-03 1.05820107e-03 1.05820107e-03 4.23280429e-03
      2.11640215e-03 0. 0. 0. 0. 2.11640215e-03 3.17460322e-03 0. 0. 0.
      2.11640215e-03 0. 1.05820107e-03 0. 0. 0. 1.05820107e-03
      1.05820107e-03 2.11640215e-03 1.05820107e-03 2.11640215e-03 0. 0.
      1.05820107e-03 0. 3.17460322e-03 0. 1.05820107e-03 0.
      3.17460322e-03 0. 0. 2.11640215e-03 0. 3.17460322e-03 0.
      1.05820107e-03 1.05820107e-03 0. 2.11640215e-03 1.05820107e-03
      1.05820107e-03 1.05820107e-03 3.17460322e-03 0. 0. 0. 0. 0.
      1.05820107e-03 0. 2.11640215e-03 2.11640215e-03 2.11640215e-03
      3.17460322e-03 0. 3.17460322e-03 0. 3.17460322e-03 0. 0. 0. 0.
      1.05820107e-03 1.05820107e-03 0. 0. 0. 1.05820107e-03 0.
      1.05820107e-03 2.11640215e-03 1.05820107e-03 2.11640215e-03 0. 0.
      0. 1.05820107e-03 1.05820107e-03 0. 1.05820107e-03 0. 0. 0.
      1.05820107e-03 0. 1.05820107e-03 1.05820107e-03 1.05820107e-03
      1.05820107e-03 2.11640215e-03 0. 0. 0. 0. 0. 1.05820107e-03 0. 0.
      0. 0. 1.05820107e-03 1.05820107e-03 9.52380989e-03 0.
      1.05820107e-03 1.05820107e-03 0. 1.05820107e-03 0. 0.
      6.34920644e-03 0. 0. 1.05820107e-03 1.05820107e-03 1.05820107e-03
      3.17460322e-03 0. 3.17460322e-03 2.11640215e-03 0. 3.17460322e-03
      0. 0. 0. 1.05820107e-03 1.05820107e-03 0. 1.05820107e-03 0. 0. 0.
      1.05820107e-03 0. 1.05820107e-03 2.11640215e-03 1.05820107e-03
      1.05820107e-03 1.05820107e-03 0. 1.05820107e-03 1.05820107e-03
      2.11640215e-03 2.11640215e-03 1.05820107e-03 5.29100560e-03
      1.05820107e-03 2.11640215e-03 1.05820107e-03 2.11640215e-03
      1.05820107e-03 1.05820107e-03 0. 0. 0. 1.05820107e-03 0.
      1.05820107e-03 2.11640215e-03 0. 3.17460322e-03 0. 0. 0.
      2.11640215e-03 2.11640215e-03 1.26984129e-02 0. 0. 1.05820107e-03
      1.05820107e-03 0. 1.05820107e-03 0. 0. 0. 1.05820107e-03 0. 0. 0.
      0. 3.17460322e-03 0. 0. 0. 3.17460322e-03 0. 1.05820107e-03
      1.05820107e-03 1.05820107e-03 1.05820107e-03 1.05820107e-03
      1.05820107e-03 0. 0. 0. 0. 0. 1.05820107e-03 0. 0. 0. 0.
      1.05820107e-03 1.05820107e-03 1.05820107e-03 0. 1.05820107e-03 0.
      0. 0. 0. 6.34920644e-03 0. 2.11640215e-03 1.05820107e-03 0. 0.
      1.05820107e-03 0. 1.05820107e-03 1.05820107e-03 1.05820107e-03 0.
      0. 0. 0. 0. 0. 2.11640215e-03 1.05820107e-03 0. 0. 1.05820107e-03
      0. 2.11640215e-03 2.11640215e-03 0. 1.05820107e-03 0.
      1.05820107e-03 1.05820107e-03 0. 2.11640215e-03 3.17460322e-03 0.
      1.05820107e-03 0. 4.23280429e-03 1.05820107e-03 2.11640215e-03 0.
      2.11640215e-03 0. 0. 1.05820107e-03 2.11640215e-03 0.
      1.05820107e-03 5.29100560e-03 1.05820107e-03 0. 1.05820107e-03 0.
      1.05820107e-03 3.17460322e-03 0. 0. 0. 2.11640215e-03
      1.05820107e-03 0. 2.11640215e-03 0. 0. 0. 5.29100560e-03 0. 0.
      4.23280429e-03 0. 0. 2.11640215e-03 0. 0. 1.05820107e-03
      1.05820107e-03 1.05820107e-03 1.05820107e-03 0. 0. 3.17460322e-03
      0. 0. 1.05820107e-03 1.05820107e-03 1.05820107e-03 3.17460322e-03
      0. 1.05820107e-03 0. 0. 1.05820107e-03 0. 1.05820107e-03 0. 0. 0.
      1.05820107e-03 1.05820107e-03 0. 0. 0. 0. 0. 3.17460322e-03
      1.05820107e-03 1.05820107e-03 1.05820107e-03 1.05820107e-03 0. 0.
      1.05820107e-03 0. 3.17460322e-03 0. 1.05820107e-03 0.
      3.17460322e-03 1.05820107e-03 3.17460322e-03 0. 1.05820107e-03
      1.05820107e-03 1.05820107e-03 0. 0. 0. 1.05820107e-03 0.
      1.05820107e-03 1.05820107e-03 0. 0. 0. 2.11640215e-03
      1.05820107e-03 1.05820107e-03 1.05820107e-03 1.05820107e-03 0.
      1.05820107e-03 0. 3.17460322e-03 0. 2.11640215e-03 0. 0.
      1.05820107e-03 1.05820107e-03 0. 2.11640215e-03 1.05820107e-03
      2.11640215e-03 1.05820107e-03 5.29100560e-03 0. 0. 0.
      7.40740728e-03 0. 0. 0. 2.11640215e-03 0. 0. 0. 0. 3.17460322e-03
      2.11640215e-03 1.05820107e-03 0. 1.05820107e-03 0. 1.05820107e-03
      0. 6.34920644e-03 0. 2.11640215e-03 0. 1.05820107e-03 0. 0. 0.
      2.11640215e-03 0. 0. 1.05820107e-03 1.05820107e-03 0. 0. 0.
      1.05820107e-03 0. 2.11640215e-03 1.05820107e-03 2.11640215e-03 0.
      0. 0. 0. 1.05820107e-03 0. 0. 2.11640215e-03 0. 1.05820107e-03
      4.23280429e-03 1.05820107e-03 0. 1.05820107e-03 0. 0. 0. 0. 0. 0.
      5.29100560e-03 0. 1.05820107e-03 0. 0. 0. 0. 0. 2.11640215e-03 0.
      0. 1.05820107e-03 0. 3.17460322e-03 0. 0. 0. 4.23280429e-03
      1.05820107e-03 0. 0. 1.05820107e-03 0. 0. 0. 1.05820107e-03
      2.11640215e-03 0. 1.05820107e-03</_>
    <_>
      3.41880345e-03 0. 0. 1.70940172e-03 1.70940172e-03 0.
      1.70940172e-03 5.12820529e-03 0. 1.70940172e-03 0. 1.70940172e-03
      0. 0. 1.70940172e-03 0. 0. 0. 0. 0. 0. 0. 0. 0. 0. 1.70940172e-03
      0. 1.70940172e-03 0. 5.12820529e-03 3.41880345e-03 3.41880345e-03
      0. 0. 0. 0. 3.41880345e-03 1.70940172e-03 0. 0. 0. 3.41880345e-03
      2.05128212e-02 0. 0. 1.70940172e-03 1.70940172e-03 1.70940172e-03
      0. 0. 0. 0. 0. 0. 0. 0. 0. 1.70940172e-03 0. 0. 0. 0. 0. 0. 0. 0.
      3.41880345e-03 0. 0. 0. 0. 0. 0. 0. 0. 0. 0. 0. 0. 0.
      5.12820529e-03 1.70940172e-03 5.12820529e-03 0. 0. 0. 0.
      1.70940172e-03 0. 1.70940172e-03 3.41880345e-03 0. 1.70940172e-03
      0. 0. 0. 0. 0. 3.41880345e-03 1.02564106e-02 0. 1.70940172e-03 0.
      0. 0. 0. 0. 0. 2.22222228e-02 0. 0. 0. 0. 6.83760690e-03 0.
      1.70940172e-03 0. 3.41880345e-03 1.70940172e-03 0. 0. 0. 0.
      1.70940172e-03 1.70940172e-03 1.70940172e-03 0. 1.70940172e-03 0.
      8.54700897e-03 0. 0. 0. 0. 3.41880345e-03 0. 0. 0. 0.
      1.70940172e-03 1.70940172e-03 0. 0. 0. 3.41880345e-03 0.
      1.70940172e-03 0. 0. 0. 0. 3.41880345e-03 0. 0. 1.70940172e-03
      3.41880345e-03 3.41880345e-03 0. 0. 0. 1.70940172e-03 0. 0.
      1.70940172e-03 0. 3.41880345e-03 0. 1.70940172e-03 0. 0.
      1.70940172e-03 1.70940172e-03 3.41880345e-03 0. 1.02564106e-02 0.
      1.70940172e-03 0. 0. 1.70940172e-03 0. 1.70940172e-03 0. 0. 0. 0.
      1.70940172e-03 1.70940172e-03 0. 3.41880345e-03 0. 0.
      1.70940172e-03 0. 0. 0. 0. 0. 3.41880345e-03 1.70940172e-03 0. 0.
      0. 0. 0. 0. 1.70940172e-03 0. 0. 3.41880345e-03 0. 0. 0. 0. 0.
      6.83760690e-03 0. 0. 0. 0. 0. 3.41880345e-03 0. 0. 1.70940172e-03
      0. 0. 3.41880345e-03 1.70940172e-03 3.41880345e-03 0.
      8.54700897e-03 0. 0. 0. 1.70940172e-03 1.70940172e-03
      1.70940172e-03 0. 1.70940172e-03 1.70940172e-03 3.41880345e-03 0.
      1.70940172e-03 0. 0. 0. 0. 0. 0. 0. 5.12820529e-03 0. 0. 0.
      3.41880345e-03 0. 5.12820529e-03 0. 5.12820529e-03 0. 0. 0.
      3.41880345e-03 0. 3.41880345e-03 3.41880345e-03 0. 0.
      1.02564106e-02 0. 0. 1.70940172e-03 1.70940172e-03 0.
      1.70940172e-03 1.70940172e-03 3.41880345e-03 1.70940172e-03 0. 0.
      0. 0. 1.70940172e-03 0. 0. 0. 1.70940172e-03 0. 3.41880345e-03 0.
      0. 0. 0. 0. 0. 0. 0. 0. 0. 0. 0. 1.70940172e-03 0. 1.70940172e-03
      0. 0. 0. 0. 0. 0. 0. 0. 5.12820529e-03 1.70940172e-03 0.
      1.70940172e-03 1.70940172e-03 0. 0. 0. 1.70940172e-03 0.
      1.70940172e-03 0. 0. 0. 0. 0. 1.70940172e-03 0. 0. 0.
      3.41880345e-03 0. 3.41880345e-03 0. 1.70940172e-03 0. 0.
      1.70940172e-03 5.12820529e-03 0. 0. 1.70940172e-03 0. 0. 0. 0. 0.
      0. 0. 0. 0. 0. 0. 1.70940172e-03 3.41880345e-03 1.70940172e-03
      5.12820529e-03 0. 3.41880345e-03 0. 0. 0. 0. 0. 0. 0. 0.
      1.70940172e-03 0. 1.70940172e-03 1.70940172e-03 0. 1.70940172e-03
      0. 0. 0. 0. 0. 0. 0. 0. 0. 1.70940172e-03 1.70940172e-03
      1.70940172e-03 0. 5.12820529e-03 1.70940172e-03 0. 0. 0. 0. 0. 0.
      1.70940172e-03 0. 0. 0. 0. 0. 0. 0. 1.70940172e-03 1.70940172e-03
      0. 0. 0. 1.70940172e-03 3.41880345e-03 3.41880345e-03
      3.41880345e-03 0. 0. 0. 1.70940172e-03 1.70940172e-03
      1.70940172e-03 5.12820529e-03 5.12820529e-03 0. 1.70940172e-03
      6.83760690e-03 0. 0. 0. 3.41880345e-03 0. 1.70940172e-03
      1.70940172e-03 1.70940172e-03 1.70940172e-03 1.70940172e-03 0. 0.
      0. 0. 0. 1.70940172e-03 0. 0. 0. 0. 1.70940172e-03 0.
      5.12820529e-03 0. 0. 1.70940172e-03 1.70940172e-03 1.70940172e-03
      1.70940172e-03 1.70940172e-03 0. 0. 1.70940172e-03 0.
      1.70940172e-03 1.70940172e-03 1.70940172e-03 0. 0. 0.
      3.41880345e-03 1.70940172e-03 5.12820529e-03 0. 1.70940172e-03
      1.70940172e-03 1.70940172e-03 6.83760690e-03 0. 0. 1.70940172e-03
      0. 0. 0. 1.70940172e-03 0. 0. 1.70940172e-03 1.70940172e-03
      1.70940172e-03 1.70940172e-03 3.41880345e-03 0. 1.70940172e-03
      1.70940172e-03 0. 0. 0. 0. 0. 0. 0. 1.70940172e-03 1.70940172e-03
      8.54700897e-03 0. 0. 0. 6.83760690e-03 0. 0. 0. 0. 0. 0. 0. 0. 0.
      3.41880345e-03 0. 0. 0. 0. 0. 1.70940172e-03 1.70940172e-03
      5.12820529e-03 0. 0. 0. 1.70940172e-03 1.70940172e-03 0. 0. 0. 0.
      0. 1.70940172e-03 5.12820529e-03 0. 0. 1.70940172e-03
      5.12820529e-03 3.41880345e-03 0. 3.41880345e-03 1.70940172e-03 0.
      1.70940172e-03 1.70940172e-03 0. 1.70940172e-03 5.12820529e-03 0.
      0. 3.41880345e-03 6.83760690e-03 1.70940172e-03 0. 0. 0.
      1.70940172e-03 1.70940172e-03 1.70940172e-03 1.70940172e-03 0. 0.
      1.70940172e-03 0. 0. 1.70940172e-03 0. 0. 3.41880345e-03 0.
      1.70940172e-03 0. 0. 0. 1.70940172e-03 0. 1.70940172e-03 0. 0.
      3.41880345e-03 0. 0. 0. 0. 0. 0. 1.70940172e-03 0. 0.
      1.70940172e-03 1.70940172e-03 0. 0. 0. 0. 0. 3.41880345e-03 0. 0.
      0. 0. 0. 0. 0. 0. 0. 0. 0. 0. 3.41880345e-03 0. 1.70940172e-03
      3.41880345e-03 1.70940172e-03 0. 1.70940172e-03 1.70940172e-03 0.
      0. 0. 1.70940172e-03 0. 0. 0. 1.70940172e-03 0. 0. 1.70940172e-03
      0. 3.41880345e-03 1.70940172e-03 0. 0. 0. 0. 0. 1.70940172e-03 0.
      0. 3.41880345e-03 0. 1.70940172e-03 0. 0. 1.70940172e-03
      1.70940172e-03 0. 0. 1.70940172e-03 1.70940172e-03 0. 0.
      3.41880345e-03 0. 0. 1.70940172e-03 0. 0. 1.70940172e-03 0. 0.
      1.70940172e-03 0. 0. 0. 0. 0. 0. 1.70940172e-03 1.70940172e-03
      1.70940172e-03 1.70940172e-03 0. 0. 0. 0. 0. 1.70940172e-03
      1.70940172e-03 0. 3.41880345e-03 1.70940172e-03 1.70940172e-03 0.
      0. 0. 0. 1.70940172e-03 0. 0. 0. 3.41880345e-03 0. 8.54700897e-03
      0. 0. 0. 0. 1.70940172e-03 3.41880345e-03 0. 0. 0. 0. 0.
      3.41880345e-03 0. 1.70940172e-03 1.70940172e-03 1.70940172e-03
      1.70940172e-03 0. 1.70940172e-03 0. 0. 1.70940172e-03
      1.70940172e-03 3.41880345e-03 3.41880345e-03 0. 0. 0. 0. 0. 0. 0.
      0. 1.70940172e-03 0. 0. 3.41880345e-03 6.83760690e-03
      1.70940172e-03 0. 1.70940172e-03 1.70940172e-03 0. 0.
      5.12820529e-03 0. 0. 0. 0. 1.70940172e-03 0. 3.41880345e-03 0. 0.
      0. 1.70940172e-03 0. 0. 0. 0. 0. 0. 1.70940172e-03 1.70940172e-03
      0. 0. 0. 1.70940172e-03 0. 0. 0. 0. 0. 1.70940172e-03
      1.70940172e-03 0. 1.70940172e-03 0. 1.70940172e-03 0. 0. 0. 0.
      3.41880345e-03 0. 0. 0. 1.70940172e-03 1.70940172e-03 0. 0. 0. 0.
      0. 0. 0. 0. 0. 0. 1.70940172e-03 0. 0. 0. 1.70940172e-03 0. 0. 0.
      1.70940172e-03 0. 0. 3.41880345e-03 0. 1.70940172e-03 0. 0. 0.
      3.41880345e-03 0. 0. 3.41880345e-03 0. 0. 1.70940172e-03
      6.83760690e-03 0. 1.70940172e-03 1.70940172e-03 0. 0. 0.
      5.12820529e-03 0. 0. 0. 1.70940172e-03 0. 3.41880345e-03 0. 0. 0.
      1.70940172e-03 0. 0. 0. 0. 0. 0. 0. 0. 0. 5.12820529e-03 0. 0.
      1.70940172e-03 0. 0. 0. 0. 1.70940172e-03 1.70940172e-03 0.
      1.70940172e-03 3.41880345e-03 0. 3.41880345e-03 0. 0.
      6.83760690e-03 0. 0. 1.70940172e-03 0. 3.41880345e-03 0. 0. 0.
      1.70940172e-03 1.70940172e-03 0. 3.41880345e-03 0. 3.41880345e-03
      1.70940172e-03 0. 1.70940172e-03 0. 0. 0. 0. 5.12820529e-03 0. 0.
      0. 0. 5.12820529e-03 0. 0. 1.70940172e-03 0. 0. 0. 0.
      5.12820529e-03 0. 0. 0. 0. 0. 1.70940172e-03 3.41880345e-03
      6.83760690e-03 1.70940172e-03 3.41880345e-03 0. 5.12820529e-03 0.
      0. 1.70940172e-03 0. 1.70940172e-03 0. 0. 0. 0. 3.41880345e-03
      3.41880345e-03 0. 0. 8.54700897e-03 0. 0. 0. 0. 0. 0. 0. 0.
      1.70940172e-03 1.70940172e-03 0. 0. 0. 1.70940172e-03
      1.70940172e-03 3.41880345e-03 0. 0. 3.41880345e-03 1.70940172e-03
      1.70940172e-03 0. 1.70940172e-03 0. 0. 3.41880345e-03
      1.70940172e-03 6.83760690e-03 3.41880345e-03 0. 0. 0. 0.
      1.70940172e-03 1.70940172e-03 1.70940172e-03 0. 0. 1.70940172e-03
      0. 1.70940172e-03 0. 0. 1.70940172e-03 0. 0. 0. 0. 1.70940172e-03
      0. 1.70940172e-03 1.70940172e-03 3.41880345e-03 0. 0.
      5.12820529e-03 0. 3.41880345e-03 1.70940172e-03 0. 0.
      1.70940172e-03 0. 1.70940172e-03 0. 0. 0. 5.12820529e-03 0. 0. 0.
      0. 0. 0. 0. 0. 1.70940172e-03</_>
    <_>
      0. 0. 1.75438600e-03 0. 3.50877200e-03 0. 0. 0. 0. 0.
      1.75438600e-03 5.26315812e-03 0. 0. 1.75438600e-03 0. 0. 0.
      1.75438600e-03 0. 0. 0. 0. 0. 0. 1.75438600e-03 0. 0.
      1.75438600e-03 1.75438600e-03 0. 0. 1.75438600e-03 0. 0. 0.
      1.75438600e-03 0. 0. 0. 0. 0. 0. 0. 0. 0. 0. 3.50877200e-03 0. 0.
      0. 0. 0. 1.75438600e-03 0. 1.75438600e-03 0. 1.75438600e-03 0. 0.
      0. 1.75438600e-03 0. 0. 0. 3.50877200e-03 1.75438600e-03
      1.75438600e-03 1.75438600e-03 1.75438600e-03 1.75438600e-03 0. 0.
      1.75438600e-03 1.75438600e-03 0. 1.75438600e-03 1.75438600e-03
      1.75438600e-03 0. 0. 3.50877200e-03 0. 0. 0. 0. 0. 0.
      3.50877200e-03 0. 3.50877200e-03 0. 0. 3.50877200e-03
      7.01754401e-03 0. 0. 0. 3.50877200e-03 1.75438600e-03 0.
      1.75438600e-03 0. 0. 1.75438600e-03 1.75438600e-03 0.
      3.50877200e-03 0. 0. 0. 0. 1.75438600e-03 0. 3.50877200e-03
      1.75438600e-03 1.75438600e-03 0. 0. 0. 0. 0. 0. 1.75438600e-03
      1.75438600e-03 1.75438600e-03 0. 1.75438600e-03 0. 1.75438600e-03
      1.75438600e-03 0. 0. 1.75438600e-03 1.75438600e-03 1.75438600e-03
      0. 0. 0. 3.50877200e-03 0. 0. 0. 1.75438600e-03 0. 0. 0.
      3.50877200e-03 0. 0. 0. 0. 3.50877200e-03 0. 0. 1.75438600e-03
      1.75438600e-03 0. 0. 0. 0. 3.50877200e-03 0. 0. 0. 1.75438600e-03
      5.26315812e-03 0. 0. 1.75438600e-03 0. 0. 0. 3.50877200e-03 0. 0.
      0. 7.01754401e-03 1.75438600e-03 1.75438600e-03 0. 3.50877200e-03
      0. 1.75438598e-02 5.26315812e-03 0. 5.26315812e-03 0. 0.
      1.75438600e-03 0. 0. 0. 0. 1.75438600e-03 0. 0. 0. 0.
      1.75438600e-03 0. 0. 1.22807017e-02 3.50877200e-03 1.75438600e-03
      1.75438600e-03 0. 0. 0. 0. 0. 3.50877200e-03 1.75438600e-03
      5.26315812e-03 0. 0. 1.75438600e-03 1.75438600e-03 0.
      1.75438600e-03 3.50877200e-03 0. 0. 0. 3.50877200e-03 0. 0. 0. 0.
      0. 0. 0. 1.75438600e-03 1.75438600e-03 0. 0. 0. 0. 0. 0.
      1.75438600e-03 0. 0. 0. 0. 0. 3.50877200e-03 0. 0. 0. 0. 0.
      5.26315812e-03 0. 1.75438600e-03 0. 3.50877200e-03 0. 0.
      1.75438600e-03 0. 0. 0. 0. 0. 0. 0. 1.75438600e-03 0. 0. 0.
      1.75438600e-03 3.50877200e-03 0. 0. 1.75438600e-03 0. 0. 0. 0.
      3.50877200e-03 1.75438600e-03 0. 0. 1.75438600e-03 1.75438600e-03
      0. 5.26315812e-03 0. 3.50877200e-03 0. 0. 0. 3.50877200e-03
      1.75438600e-03 0. 0. 3.50877200e-03 5.26315812e-03 0. 0. 0.
      5.26315812e-03 0. 0. 1.75438600e-03 0. 0. 0. 0. 1.75438600e-03
      1.75438600e-03 0. 0. 0. 0. 1.75438600e-03 0. 1.75438600e-03 0. 0.
      0. 0. 0. 0. 0. 0. 3.50877200e-03 0. 1.75438600e-03 0. 0. 0. 0.
      1.75438600e-03 3.50877200e-03 1.75438600e-03 0. 0. 0. 0.
      1.75438600e-03 1.75438600e-03 3.50877200e-03 1.75438600e-03 0.
      5.26315812e-03 7.01754401e-03 1.75438600e-03 3.50877200e-03 0. 0.
      0. 0. 0. 1.75438600e-03 0. 0. 1.75438600e-03 0. 1.75438600e-03 0.
      0. 1.75438600e-03 0. 1.75438600e-03 0. 0. 0. 0. 7.01754401e-03
      1.75438600e-03 0. 3.50877200e-03 1.75438600e-03 3.50877200e-03
      3.50877200e-03 3.50877200e-03 3.50877200e-03 1.75438600e-03 0. 0.
      0. 0. 0. 0. 0. 1.75438600e-03 0. 5.26315812e-03 0. 0.
      1.75438600e-03 1.75438600e-03 0. 1.75438600e-03 0. 0.
      3.50877200e-03 3.50877200e-03 0. 0. 0. 0. 0. 0. 0. 1.75438600e-03
      0. 0. 1.75438600e-03 0. 0. 0. 0. 1.75438600e-03 0. 3.50877200e-03
      0. 0. 0. 0. 0. 1.75438600e-03 3.50877200e-03 0. 0. 1.75438600e-03
      0. 0. 0. 0. 0. 0. 0. 0. 0. 0. 0. 0. 0. 1.75438600e-03 0.
      1.75438600e-03 0. 0. 0. 0. 0. 0. 0. 0. 0. 8.77192989e-03 0.
      1.75438600e-03 0. 0. 0. 0. 0. 0. 0. 1.75438600e-03 0. 0.
      1.75438600e-03 0. 1.75438600e-03 0. 0. 0. 0. 0. 0. 0. 0.
      3.50877200e-03 3.50877200e-03 3.50877200e-03 1.57894734e-02 0.
      1.75438600e-03 0. 0. 1.75438600e-03 0. 0. 1.75438600e-03 0. 0. 0.
      0. 0. 1.75438600e-03 0. 0. 0. 0. 0. 0. 1.75438600e-03 0.
      1.75438600e-03 0. 0. 0. 0. 0. 1.75438600e-03 0. 3.50877200e-03 0.
      1.75438600e-03 1.40350880e-02 0. 3.50877200e-03 0. 0. 0. 0.
      1.75438600e-03 0. 1.75438600e-03 0. 0. 0. 3.50877200e-03 0.
      1.75438600e-03 0. 0. 0. 1.75438600e-03 0. 8.77192989e-03 0. 0. 0.
      1.75438600e-03 0. 0. 0. 1.75438600e-03 0. 0. 1.75438600e-03 0.
      1.75438600e-03 0. 1.75438600e-03 5.26315812e-03 1.75438600e-03 0.
      0. 1.75438600e-03 1.75438600e-03 5.26315812e-03 0. 0. 0. 0. 0. 0.
      1.75438600e-03 1.75438600e-03 1.75438600e-03 1.75438600e-03 0. 0.
      0. 0. 0. 1.75438600e-03 1.75438600e-03 1.75438600e-03
      1.75438600e-03 3.50877200e-03 0. 0. 3.50877200e-03 0.
      3.50877200e-03 0. 0. 1.75438600e-03 0. 0. 1.75438600e-03
      1.75438600e-03 0. 0. 0. 0. 3.50877200e-03 0. 3.50877200e-03 0. 0.
      1.75438600e-03 0. 1.75438600e-03 0. 0. 1.75438600e-03 0.
      1.75438600e-03 1.75438600e-03 3.50877200e-03 0. 0. 1.75438600e-03
      0. 1.75438600e-03 0. 1.75438600e-03 1.75438600e-03 0. 0. 0. 0. 0.
      0. 0. 0. 0. 0. 0. 0. 0. 0. 1.75438600e-03 0. 0. 0. 0. 0. 0. 0.
      1.75438600e-03 0. 1.75438600e-03 1.75438600e-03 0. 0. 0.
      1.75438600e-03 1.75438600e-03 3.50877200e-03 0. 0. 0. 0. 0. 0.
      1.75438600e-03 0. 0. 0. 0. 3.50877200e-03 5.26315812e-03 0.
      3.50877200e-03 0. 0. 0. 0. 0. 1.75438600e-03 0. 0. 3.50877200e-03
      0. 1.75438600e-03 3.50877200e-03 0. 0. 1.75438600e-03 0.
      3.50877200e-03 0. 0. 5.26315812e-03 0. 0. 0. 0. 3.50877200e-03
      1.22807017e-02 1.75438600e-03 3.50877200e-03 0. 0. 0. 0. 0. 0. 0.
      0. 0. 1.75438600e-03 3.50877200e-03 0. 0. 1.75438600e-03
      1.75438600e-03 0. 0. 0. 0. 0. 0. 1.75438600e-03 0. 1.75438600e-03
      0. 0. 0. 0. 0. 5.26315812e-03 3.50877200e-03 1.75438600e-03 0. 0.
      0. 1.75438600e-03 1.75438600e-03 0. 0. 1.75438600e-03
      1.75438600e-03 1.75438600e-03 0. 0. 5.26315812e-03 0. 0.
      7.01754401e-03 1.75438600e-03 3.50877200e-03 1.75438600e-03 0.
      1.75438600e-03 0. 0. 0. 7.01754401e-03 0. 0. 0. 8.77192989e-03 0.
      0. 0. 0. 1.75438600e-03 0. 0. 1.75438600e-03 0. 3.50877200e-03 0.
      0. 0. 0. 0. 3.50877200e-03 0. 0. 0. 0. 0. 0. 0. 0. 0. 0.
      1.75438600e-03 3.50877200e-03 1.75438600e-03 1.75438600e-03 0. 0.
      7.01754401e-03 0. 1.75438600e-03 0. 0. 1.75438600e-03 0. 0. 0. 0.
      3.50877200e-03 0. 0. 1.75438600e-03 0. 1.75438600e-03
      1.75438600e-03 1.75438600e-03 0. 5.26315812e-03 1.75438600e-03
      1.75438600e-03 0. 0. 1.75438600e-03 3.50877200e-03 0.
      1.75438600e-03 3.50877200e-03 1.75438600e-03 1.75438600e-03
      1.75438600e-03 0. 0. 0. 0. 2.10526325e-02 0. 0. 0. 0. 0.
      1.75438600e-03 0. 0. 1.75438600e-03 1.75438600e-03 1.75438600e-03
      0. 0. 1.75438600e-03 0. 0. 1.75438600e-03 0. 0. 1.75438600e-03 0.
      0. 0. 1.75438600e-03 0. 1.75438600e-03 1.75438600e-03
      5.26315812e-03 0. 0. 0. 1.75438600e-03 0. 0. 1.75438600e-03
      1.75438600e-03 0. 0. 5.26315812e-03 0. 0. 1.75438600e-03
      1.75438600e-03 5.26315812e-03 0. 0. 0. 0. 0. 0. 1.75438600e-03
      1.40350880e-02 1.75438600e-03 0. 1.75438600e-03 0. 0. 0.
      1.75438600e-03 0. 0. 1.75438600e-03 0. 0. 1.75438600e-03 0. 0.
      3.50877200e-03 5.26315812e-03 0. 0. 0. 0. 0. 0. 0. 0. 0. 0. 0. 0.
      0. 0. 0. 0. 5.26315812e-03 0. 3.50877200e-03 0. 3.50877200e-03
      1.75438600e-03 1.75438600e-03 0. 0. 0. 0. 0. 0. 0. 0.
      1.75438600e-03 1.75438600e-03 0. 1.75438600e-03 0. 0. 0. 0. 0. 0.
      3.50877200e-03 0. 0. 0. 1.75438600e-03 0. 0. 0. 0. 0. 0.
      8.77192989e-03 0. 5.26315812e-03 0. 0. 0. 1.75438600e-03 0.
      1.75438600e-03 0. 0. 0. 0. 0. 0. 0. 0. 8.77192989e-03 0. 0. 0. 0.
      0. 0. 0. 5.26315812e-03 5.26315812e-03 1.75438600e-03 0. 0. 0.
      3.50877200e-03 1.75438600e-03 1.75438600e-03 0. 0. 0.
      1.75438600e-03 0. 0. 5.26315812e-03 1.75438600e-03 3.50877200e-03
      0. 0. 0. 0. 0. 1.75438600e-03 3.50877200e-03 0. 0. 1.75438600e-03
      0. 0. 1.75438600e-03 1.75438600e-03</_>
    <_>
      1.03626947e-03 2.07253895e-03 1.03626947e-03 0. 1.03626947e-03 0.
      0. 0. 2.07253895e-03 1.03626947e-03 0. 3.10880831e-03
      1.03626947e-03 2.07253895e-03 0. 0. 0. 1.03626947e-03 0.
      1.03626947e-03 1.03626947e-03 0. 1.03626947e-03 2.07253895e-03 0.
      2.07253895e-03 3.10880831e-03 0. 1.03626947e-03 4.14507790e-03
      3.10880831e-03 4.14507790e-03 0. 0. 0. 1.03626947e-03
      1.03626947e-03 0. 0. 0. 0. 0. 8.29015579e-03 0. 0. 0. 0.
      4.14507790e-03 1.03626947e-03 0. 0. 1.03626947e-03 0.
      1.03626947e-03 0. 0. 2.07253895e-03 2.07253895e-03 1.03626947e-03
      3.10880831e-03 0. 0. 0. 0. 1.03626947e-03 0. 0. 4.14507790e-03
      1.03626947e-03 0. 0. 0. 1.03626947e-03 0. 0. 0. 2.07253895e-03 0.
      6.21761661e-03 1.03626947e-03 2.07253895e-03 0. 1.03626947e-03
      1.03626947e-03 2.07253895e-03 2.07253895e-03 4.14507790e-03 0. 0.
      0. 1.03626947e-03 0. 1.03626947e-03 0. 2.07253895e-03 0.
      1.03626947e-03 1.03626947e-03 3.10880831e-03 0. 2.07253895e-03 0.
      0. 0. 0. 0. 4.14507790e-03 1.03626947e-03 0. 1.03626947e-03 0. 0.
      0. 0. 1.03626947e-03 1.03626947e-03 3.10880831e-03 1.03626947e-03
      0. 0. 0. 0. 2.07253895e-03 2.07253895e-03 6.21761661e-03 0.
      3.10880831e-03 0. 1.03626947e-03 0. 0. 0. 0. 4.14507790e-03
      2.07253895e-03 1.03626947e-03 1.03626947e-03 0. 1.03626947e-03 0.
      4.14507790e-03 1.03626947e-03 1.03626947e-03 0. 0. 1.03626947e-03
      2.07253895e-03 1.03626947e-03 1.03626947e-03 1.03626947e-03
      9.32642538e-03 0. 0. 1.03626947e-03 2.07253895e-03 1.03626947e-03
      2.07253895e-03 0. 0. 0. 0. 1.03626947e-03 1.03626947e-03 0. 0. 0.
      0. 1.03626947e-03 1.03626947e-03 5.18134749e-03 2.07253895e-03 0.
      1.03626947e-03 1.03626947e-03 0. 1.03626947e-03 0. 1.03626947e-03
      0. 0. 6.21761661e-03 2.07253895e-03 0. 0. 0. 0. 2.07253895e-03
      2.07253895e-03 4.14507790e-03 1.03626947e-03 1.03626947e-03 0.
      1.03626947e-03 0. 0. 5.18134749e-03 1.03626947e-03 0.
      1.03626947e-03 2.07253895e-03 1.03626947e-03 0. 0. 1.03626947e-03
      0. 0. 2.07253895e-03 1.03626947e-03 1.03626947e-03 2.07253895e-03
      0. 0. 0. 0. 0. 0. 0. 3.10880831e-03 1.03626947e-03 2.07253895e-03
      0. 1.03626947e-03 0. 3.10880831e-03 3.10880831e-03 1.03626947e-03
      0. 0. 2.07253895e-03 0. 1.03626947e-03 3.10880831e-03 0.
      4.14507790e-03 2.07253895e-03 1.03626947e-03 3.10880831e-03
      1.03626947e-03 0. 0. 1.03626947e-03 1.03626947e-03 0. 0. 0. 0.
      1.03626947e-03 1.03626947e-03 2.07253895e-03 0. 0. 1.03626947e-03
      1.03626947e-03 0. 0. 1.03626947e-03 1.03626947e-03 1.03626947e-03
      1.03626947e-03 3.10880831e-03 0. 0. 0. 1.03626947e-03
      2.07253895e-03 1.03626947e-03 0. 0. 2.07253895e-03 2.07253895e-03
      1.03626947e-03 2.07253895e-03 3.10880831e-03 0. 0. 1.03626947e-03
      0. 2.07253895e-03 0. 0. 1.03626947e-03 0. 0. 2.07253895e-03 0.
      2.07253895e-03 4.14507790e-03 2.07253895e-03 1.03626947e-03
      1.03626947e-03 0. 2.07253895e-03 1.03626947e-03 1.03626947e-03 0.
      2.07253895e-03 3.10880831e-03 0. 0. 0. 0. 1.03626947e-03 0.
      1.03626947e-03 2.07253895e-03 0. 0. 0. 0. 1.03626947e-03 0. 0.
      1.03626947e-03 2.07253895e-03 6.21761661e-03 2.07253895e-03 0.
      2.07253895e-03 1.03626947e-03 0. 0. 0. 1.03626947e-03 0.
      2.07253895e-03 1.03626947e-03 1.03626947e-03 0. 0. 0.
      2.07253895e-03 0. 1.03626947e-03 0. 6.21761661e-03 3.10880831e-03
      0. 0. 0. 0. 2.07253895e-03 0. 0. 1.03626947e-03 0. 1.03626947e-03
      0. 0. 3.10880831e-03 1.03626947e-03 3.10880831e-03 1.03626947e-03
      6.21761661e-03 0. 0. 3.10880831e-03 1.03626947e-03 3.10880831e-03
      1.03626947e-03 2.07253895e-03 0. 1.03626947e-03 2.07253895e-03 0.
      1.03626947e-03 1.03626947e-03 1.03626947e-03 0. 0. 0. 0.
      6.21761661e-03 0. 0. 0. 1.03626947e-03 0. 0. 0. 0. 3.10880831e-03
      0. 0. 0. 0. 4.14507790e-03 1.03626947e-03 0. 3.10880831e-03
      1.03626947e-03 0. 0. 0. 0. 0. 2.07253895e-03 1.03626947e-03 0. 0.
      2.07253895e-03 1.03626947e-03 0. 0. 1.03626947e-03 0.
      3.10880831e-03 0. 0. 0. 3.10880831e-03 0. 1.03626947e-03
      2.07253895e-03 0. 0. 0. 0. 0. 0. 0. 0. 3.10880831e-03 0.
      2.07253895e-03 2.07253895e-03 0. 2.07253895e-03 0. 0. 0.
      2.07253895e-03 8.29015579e-03 0. 1.03626947e-03 5.18134749e-03
      1.03626947e-03 0. 0. 0. 1.03626947e-03 1.03626947e-03 0.
      2.07253895e-03 0. 0. 0. 0. 0. 1.03626947e-03 0. 0. 0.
      2.07253895e-03 0. 0. 0. 0. 0. 0. 0. 3.10880831e-03 1.03626947e-03
      0. 3.10880831e-03 0. 4.14507790e-03 2.07253895e-03 1.03626947e-03
      1.03626947e-03 2.07253895e-03 1.03626947e-03 0. 0. 3.10880831e-03
      0. 0. 0. 1.03626947e-03 6.21761661e-03 1.03626947e-03
      1.03626947e-03 6.21761661e-03 5.18134749e-03 2.07253895e-03 0. 0.
      0. 1.03626947e-03 1.03626947e-03 0. 0. 0. 1.03626947e-03 0. 0. 0.
      1.03626947e-03 0. 2.07253895e-03 0. 0. 0. 0. 1.03626947e-03 0.
      3.10880831e-03 0. 2.07253895e-03 1.24352332e-02 2.07253895e-03 0.
      5.18134749e-03 0. 3.10880831e-03 0. 1.03626947e-03 0.
      1.03626947e-03 2.07253895e-03 0. 0. 5.18134749e-03 1.03626947e-03
      0. 0. 1.03626947e-03 1.03626947e-03 2.07253895e-03 1.24352332e-02
      0. 0. 0. 4.14507790e-03 1.03626947e-03 4.14507790e-03
      1.03626947e-03 2.07253895e-03 0. 0. 0. 2.07253895e-03
      2.07253895e-03 0. 0. 2.07253895e-03 0. 0. 1.03626947e-03 0. 0. 0.
      3.10880831e-03 0. 1.03626947e-03 1.03626947e-03 1.03626947e-03 0.
      2.07253895e-03 0. 0. 0. 0. 1.03626947e-03 2.07253895e-03
      1.03626947e-03 0. 4.14507790e-03 0. 2.07253895e-03 0. 0. 0.
      1.03626947e-03 2.07253895e-03 0. 0. 5.18134749e-03 1.03626947e-03
      0. 1.03626947e-03 0. 1.03626947e-03 0. 0. 0. 1.03626947e-03 0. 0.
      2.07253895e-03 2.07253895e-03 1.03626947e-03 0. 2.07253895e-03 0.
      0. 2.07253895e-03 0. 1.03626947e-03 3.10880831e-03 3.10880831e-03
      0. 1.03626947e-03 2.07253895e-03 1.03626947e-03 4.14507790e-03 0.
      1.03626947e-03 1.03626947e-03 3.10880831e-03 0. 0. 0.
      1.03626947e-03 1.03626947e-03 2.07253895e-03 5.18134749e-03 0.
      1.03626947e-03 0. 0. 3.10880831e-03 0. 0. 1.03626947e-03 0.
      1.03626947e-03 0. 0. 2.07253895e-03 0. 0. 0. 3.10880831e-03 0. 0.
      0. 2.07253895e-03 0. 3.10880831e-03 0. 2.07253895e-03 0.
      1.03626947e-03 2.07253895e-03 1.03626947e-03 2.07253895e-03
      3.10880831e-03 1.03626947e-03 0. 0. 0. 0. 3.10880831e-03 0. 0.
      1.03626947e-03 1.03626947e-03 0. 2.07253895e-03 0. 0. 0. 0. 0. 0.
      1.03626947e-03 1.03626947e-03 0. 0. 1.03626947e-03 1.03626947e-03
      3.10880831e-03 2.07253895e-03 1.03626947e-03 0. 0. 0. 0.
      1.03626947e-03 0. 0. 1.03626947e-03 1.03626947e-03 0. 0. 0. 0. 0.
      0. 0. 0. 0. 1.03626947e-03 0. 2.07253895e-03 0. 1.03626947e-03
      3.10880831e-03 1.03626947e-03 0. 2.07253895e-03 0. 0. 0. 0. 0. 0.
      2.07253895e-03 0. 1.03626947e-03 0. 1.03626947e-03 1.03626947e-03
      0. 0. 2.07253895e-03 0. 0. 1.03626947e-03 4.14507790e-03 0. 0.
      1.03626947e-03 0. 4.14507790e-03 0. 0. 2.07253895e-03
      3.10880831e-03 1.03626947e-03 1.03626947e-03 3.10880831e-03
      1.03626947e-03 2.07253895e-03 1.03626947e-03 0. 1.03626947e-03
      4.14507790e-03 0. 0. 0. 0. 4.14507790e-03 0. 2.07253895e-03
      1.03626947e-03 1.03626947e-03 0. 0. 0. 1.03626947e-03 0.
      1.03626947e-03 0. 0. 7.25388620e-03 1.03626947e-03 0.
      1.03626947e-03 0. 0. 1.03626947e-03 0. 2.07253895e-03
      1.03626947e-03 0. 0. 2.07253895e-03 0. 1.03626947e-03
      1.03626947e-03 0. 2.07253895e-03 0. 3.10880831e-03 0. 0.
      3.10880831e-03 0. 0. 1.03626947e-03 0. 0. 1.03626947e-03
      1.03626947e-03 0. 0. 0. 0. 0. 0. 0. 0. 0. 0. 2.07253895e-03 0. 0.
      1.03626947e-03 1.03626947e-03 0. 0. 0. 0. 2.07253895e-03
      1.03626947e-03 5.18134749e-03 1.03626947e-03 3.10880831e-03 0.
      2.07253895e-03 0. 2.07253895e-03 0. 3.10880831e-03 5.18134749e-03
      2.07253895e-03 0. 0. 0. 0. 0. 1.03626947e-03 4.14507790e-03 0. 0.
      0. 0. 1.03626947e-03 0. 0. 0. 1.03626947e-03 8.29015579e-03
      1.03626947e-03 0. 0. 1.03626947e-03 3.10880831e-03 0.
      2.07253895e-03 0. 3.10880831e-03 0. 0. 0. 1.03626947e-03
      1.03626947e-03 0. 0. 4.14507790e-03 4.14507790e-03 1.03626947e-03
      0. 0. 4.14507790e-03 1.03626947e-03 1.03626947e-03 1.03626947e-03
      2.07253895e-03 0. 1.03626947e-03 0. 0. 0. 2.07253895e-03 0. 0. 0.
      0. 0. 0. 0. 0. 0. 2.07253895e-03 0. 0. 2.07253895e-03
      2.07253895e-03 0. 0. 4.14507790e-03 2.07253895e-03 0. 0.
      2.07253895e-03 0. 0. 2.07253895e-03 3.10880831e-03 0. 0.
      1.03626947e-03 3.10880831e-03 1.03626947e-03 2.07253895e-03 0. 0.
      2.07253895e-03 0. 0. 2.07253895e-03 1.03626947e-03 0.
      2.07253895e-03 6.21761661e-03 1.03626947e-03 0. 0. 2.07253895e-03
      0. 2.07253895e-03 4.14507790e-03 1.03626947e-03 1.03626947e-03 0.
      0. 0. 1.03626947e-03 0. 0. 1.03626947e-03 0. 1.03626947e-03
      1.03626947e-03 0. 0. 1.03626947e-03 0. 0. 2.07253895e-03 0.
      2.07253895e-03 5.18134749e-03 1.03626947e-03 1.03626950e-02
      4.14507790e-03 0. 0. 0. 0. 0. 0. 0. 1.03626947e-03 0. 0.
      3.10880831e-03 2.07253895e-03 2.07253895e-03 0. 0. 0.
      2.07253895e-03 0. 0. 3.10880831e-03 1.03626947e-03 1.03626947e-03
      0. 1.03626947e-03 1.03626947e-03 0. 3.10880831e-03 0.
      2.07253895e-03 0. 0. 0. 0. 1.03626947e-03 0. 1.03626947e-03
      1.03626947e-03 0. 4.14507790e-03 2.07253895e-03 1.03626947e-03 0.
      0. 0. 1.03626947e-03 0. 0. 2.07253895e-03 2.07253895e-03 0.
      1.03626947e-03 1.03626947e-03 1.03626947e-03 0. 3.10880831e-03
      1.03626947e-03 0. 1.03626947e-03 0. 1.03626947e-03 1.03626947e-03
      2.07253895e-03</_>
    <_>
      0. 0. 0. 3.30033014e-03 0. 0. 2.20022001e-03 2.20022001e-03
      1.10011001e-03 0. 0. 0. 0. 1.10011001e-03 1.10011001e-03 0.
      1.10011001e-03 0. 0. 0. 1.10011001e-03 5.50054992e-03
      1.10011001e-03 1.10011001e-03 2.20022001e-03 0. 2.20022001e-03 0.
      0. 3.30033014e-03 1.10011001e-03 3.30033014e-03 1.10011001e-03 0.
      1.10011001e-03 1.10011001e-03 0. 1.10011001e-03 2.20022001e-03
      1.10011001e-03 0. 2.20022001e-03 0. 3.85038517e-02 0. 0.
      6.60066027e-03 5.50054992e-03 0. 1.10011001e-03 3.52035202e-02
      1.10011001e-03 0. 0. 0. 1.10011001e-03 0. 2.20022001e-03 0.
      2.20022001e-03 0. 1.10011001e-03 1.10011001e-03 1.10011001e-03 0.
      1.10011001e-03 0. 1.10011001e-03 0. 0. 1.10011001e-03 0.
      1.10011001e-03 0. 0. 0. 1.10011001e-03 0. 1.10011001e-03
      3.30033014e-03 0. 0. 2.20022001e-03 1.10011001e-03 0. 0.
      4.40044003e-03 0. 0. 2.20022001e-03 0. 0. 1.10011001e-03 0. 0.
      1.10011001e-03 4.40044003e-03 4.40044003e-03 1.10011001e-03 0.
      2.20022001e-03 0. 3.30033014e-03 0. 1.43014304e-02 0. 0.
      2.20022001e-03 8.80088005e-03 1.10011001e-03 0. 4.40044003e-03 0.
      1.10011001e-03 0. 0. 0. 1.10011001e-03 1.10011001e-03 0.
      1.10011001e-03 2.20022001e-03 6.60066027e-03 0. 0. 1.10011001e-03
      0. 2.20022001e-03 0. 1.10011001e-03 0. 2.20022001e-03 0.
      1.10011001e-03 0. 1.10011001e-03 0. 0. 0. 1.10011001e-03
      1.10011001e-03 0. 2.20022001e-03 0. 2.20022001e-03 1.10011001e-03
      0. 0. 0. 1.10011001e-03 1.10011001e-03 1.10011001e-03
      1.10011001e-03 0. 0. 1.10011001e-03 0. 0. 0. 2.20022001e-03 0. 0.
      0. 0. 0. 2.20022001e-03 0. 0. 3.30033014e-03 1.10011001e-03 0.
      1.10011001e-03 0. 1.10011001e-03 0. 0. 0. 5.50054992e-03 0. 0. 0.
      0. 0. 4.40044003e-03 0. 1.10011001e-03 0. 1.10011001e-03
      1.10011001e-03 1.10011001e-03 2.20022001e-03 0. 0. 3.30033014e-03
      2.20022001e-03 0. 0. 0. 0. 0. 0. 0. 1.10011001e-03 0.
      1.10011001e-03 2.20022001e-03 2.20022001e-03 3.30033014e-03 0.
      2.20022001e-03 3.30033014e-03 0. 1.10011001e-03 0. 0.
      1.10011001e-03 0. 1.10011001e-03 1.10011001e-03 4.40044003e-03
      1.10011001e-03 0. 0. 0. 0. 1.10011001e-03 1.10011001e-03
      1.10011001e-03 0. 1.10011001e-03 1.10011001e-03 0. 0.
      1.10011001e-03 0. 0. 1.10011001e-03 1.10011001e-03 0. 0.
      1.10011001e-03 0. 1.32013205e-02 0. 0. 0. 0. 0. 0. 0.
      1.10011001e-03 1.10011001e-03 0. 2.20022001e-03 0. 0.
      3.30033014e-03 2.20022001e-03 2.20022001e-03 1.10011001e-03 0.
      2.20022001e-03 0. 0. 0. 1.10011001e-03 0. 1.10011001e-03
      1.10011001e-03 1.10011001e-03 0. 0. 0. 5.50054992e-03
      6.60066027e-03 0. 2.20022001e-03 4.40044003e-03 1.10011001e-03 0.
      1.10011001e-03 0. 1.10011001e-03 1.10011001e-03 0. 0.
      2.20022001e-03 0. 1.10011001e-03 2.20022001e-03 0. 0. 0.
      1.10011001e-03 0. 1.10011001e-03 1.10011001e-03 2.20022001e-03
      3.30033014e-03 0. 2.20022001e-03 0. 1.10011001e-03 1.10011001e-03
      2.20022001e-03 1.10011001e-03 0. 1.10011001e-03 1.10011001e-03 0.
      2.20022001e-03 0. 0. 3.30033014e-03 0. 0. 0. 1.10011001e-03 0.
      1.10011001e-03 1.10011001e-03 0. 0. 0. 0. 0. 1.10011001e-03
      1.10011001e-03 0. 0. 1.10011001e-03 0. 1.10011001e-03 0. 0.
      1.10011001e-03 0. 0. 0. 0. 0. 0. 0. 1.10011001e-03 0.
      1.10011001e-03 1.10011001e-03 0. 0. 1.10011001e-03 0. 0.
      2.20022001e-03 1.10011001e-03 0. 0. 2.20022001e-03 0. 0. 0.
      1.10011001e-03 0. 2.20022001e-03 0. 1.10011001e-03 0. 0. 0. 0.
      2.20022001e-03 0. 0. 1.10011001e-03 1.10011001e-03 3.30033014e-03
      5.50054992e-03 0. 0. 2.20022001e-03 0. 0. 0. 0. 2.20022001e-03 0.
      0. 2.20022001e-03 0. 1.10011001e-03 0. 1.10011001e-03 0.
      2.20022001e-03 1.10011001e-03 0. 3.30033014e-03 0. 0. 0.
      1.10011001e-03 0. 0. 0. 0. 0. 0. 0. 1.10011001e-03 0.
      5.50054992e-03 0. 0. 1.10011001e-03 0. 0. 0. 0. 0. 1.10011001e-03
      0. 0. 1.10011001e-03 1.10011001e-03 0. 2.20022001e-03
      3.30033014e-03 0. 3.30033014e-03 1.10011001e-03 0. 0.
      2.20022001e-03 2.20022001e-03 2.20022001e-03 0. 2.20022001e-03 0.
      1.10011001e-03 0. 1.10011001e-03 1.10011001e-03 0. 0.
      2.20022001e-03 0. 2.20022001e-03 4.40044003e-03 0. 0.
      1.10011001e-03 0. 1.10011001e-03 0. 0. 0. 0. 1.10011001e-03 0.
      1.10011001e-03 0. 0. 0. 0. 0. 0. 0. 1.10011001e-03 2.20022001e-03
      0. 1.10011001e-03 1.10011001e-03 1.10011001e-03 0. 1.10011001e-03
      0. 0. 0. 2.20022001e-03 0. 0. 3.30033014e-03 0. 0. 0. 0.
      1.10011001e-03 1.10011001e-03 2.20022001e-03 0. 1.10011001e-03
      3.30033014e-03 0. 3.30033014e-03 4.40044003e-03 2.20022001e-03
      1.10011001e-03 0. 1.10011001e-03 0. 0. 0. 0. 0. 0. 0. 0. 0. 0. 0.
      2.20022001e-03 1.10011001e-03 0. 4.40044003e-03 1.10011001e-03 0.
      1.10011001e-03 0. 2.20022001e-03 0. 1.10011001e-03 4.40044003e-03
      0. 0. 1.10011001e-03 0. 6.60066027e-03 0. 1.10011001e-03 0. 0. 0.
      0. 0. 0. 5.50054992e-03 4.40044003e-03 0. 0. 0. 1.10011001e-03 0.
      2.20022001e-03 0. 0. 1.10011001e-03 1.10011001e-03 1.10011001e-03
      3.30033014e-03 1.10011001e-03 7.70077016e-03 0. 0. 1.10011001e-03
      0. 0. 1.10011001e-03 1.10011001e-03 1.10011001e-03 1.10011001e-03
      0. 6.60066027e-03 0. 0. 0. 2.20022001e-03 1.10011001e-03 0. 0. 0.
      1.10011001e-03 2.20022001e-03 0. 1.10011001e-03 1.10011001e-03 0.
      1.10011001e-03 1.10011001e-03 2.20022001e-03 1.10011001e-03 0.
      2.20022001e-03 0. 1.10011001e-03 0. 1.10011001e-03 2.20022001e-03
      1.10011001e-03 1.10011001e-03 0. 0. 0. 0. 0. 4.40044003e-03
      2.20022001e-03 1.10011001e-03 0. 0. 0. 2.20022001e-03
      4.40044003e-03 0. 0. 0. 0. 0. 1.10011001e-03 0. 1.10011001e-03
      9.90098994e-03 5.50054992e-03 0. 0. 1.10011001e-03 0. 0. 0.
      1.10011001e-03 0. 3.30033014e-03 0. 0. 0. 0. 0. 0. 0.
      1.10011001e-03 0. 1.10011001e-03 2.20022001e-03 0. 0.
      2.20022001e-03 2.20022001e-03 1.10011001e-03 0. 1.10011001e-03 0.
      2.20022001e-03 0. 1.10011001e-03 1.10011001e-03 2.20022001e-03 0.
      0. 0. 1.10011001e-03 0. 1.10011001e-03 3.30033014e-03 0. 0. 0.
      3.30033014e-03 1.10011001e-03 2.20022001e-03 1.21012097e-02 0. 0.
      1.10011001e-03 1.10011001e-03 0. 2.20022001e-03 0. 0. 0.
      1.10011001e-03 0. 2.20022001e-03 0. 1.10011001e-03 0.
      2.20022001e-03 1.10011001e-03 0. 0. 0. 0. 1.10011001e-03 0. 0. 0.
      0. 0. 0. 1.21012097e-02 0. 1.10011001e-03 0. 0. 0. 0. 0. 0. 0.
      2.20022001e-03 0. 1.10011001e-03 2.20022001e-03 0. 1.10011001e-03
      4.40044003e-03 3.30033014e-03 0. 0. 1.10011001e-03 0.
      1.10011001e-03 0. 0. 2.20022001e-03 1.10011001e-03 0. 0. 0. 0. 0.
      4.40044003e-03 1.10011001e-03 0. 0. 0. 0. 0. 0. 0. 1.10011001e-03
      0. 0. 0. 1.10011001e-03 1.10011001e-03 3.30033014e-03 0.
      1.10011001e-03 1.10011001e-03 1.10011001e-03 0. 0. 0. 0. 0. 0. 0.
      0. 0. 0. 0. 5.50054992e-03 0. 4.40043993e-02 1.10011001e-03 0. 0.
      0. 0. 0. 0. 2.20022001e-03 2.20022001e-03 5.50054992e-03 0.
      4.40044003e-03 0. 2.20022001e-03 0. 0. 0. 0. 0. 0. 0.
      1.10011001e-03 0. 0. 0. 0. 0. 2.20022001e-03 1.10011001e-03 0. 0.
      0. 2.20022001e-03 0. 0. 0. 0. 0. 0. 0. 3.30033014e-03 0.
      1.10011001e-03 0. 1.10011001e-03 1.10011001e-03 3.30033014e-03
      2.20022001e-03 2.20022001e-03 0. 2.20022001e-03 4.40044003e-03
      1.10011001e-03 0. 1.10011001e-03 1.10011001e-03 0. 0. 0. 0. 0. 0.
      0. 1.10011001e-03 0. 0. 1.10011001e-03 4.40044003e-03
      1.10011001e-03 1.10011001e-03 0. 0. 0. 4.40044003e-03
      1.10011001e-03 0. 0. 1.10011001e-03 1.10011001e-03 1.10011001e-03
      0. 0. 0. 0. 1.10011001e-03 1.10011001e-03 0. 0. 0. 1.10011001e-03
      0. 0. 1.10011001e-03 1.10011001e-03 0. 1.10011001e-03 0. 0.
      3.30033014e-03 1.10011001e-03 0. 0. 1.10011001e-03 2.20022001e-03
      2.20022001e-03 3.30033014e-03 0. 0. 4.40044003e-03 0.
      2.20022001e-03 0. 3.30033014e-03 0. 0. 0. 0. 1.10011001e-03 0. 0.
      2.20022001e-03 0. 0. 1.10011001e-03 0. 0. 1.10011001e-03 0. 0. 0.
      0. 0. 0. 0. 0. 1.10011001e-03 1.10011001e-03 1.10011001e-03
      1.10011001e-03 2.20022001e-03 0. 0. 1.10011001e-03 0. 0.
      4.40044003e-03 1.10011001e-03 0. 0. 1.10011001e-03 0.
      1.10011001e-03 0. 0. 0. 0. 0. 0. 0. 1.10011001e-03 0. 0.
      2.20022001e-03 1.10011001e-03 1.10011001e-03 0. 0. 3.30033014e-03
      0. 0. 1.10011001e-03 0. 0. 0. 1.10011001e-03 5.50054992e-03
      2.20022001e-03 2.20022001e-03 1.10011001e-03 3.30033014e-03 0. 0.
      0. 0. 1.10011001e-03 1.10011001e-03 0. 0. 0. 0. 0. 0. 0. 0. 0.
      1.10011001e-03 1.10011001e-03 0. 0. 0. 3.30033014e-03 0. 0.
      1.10011001e-03 0. 0. 0. 1.10011001e-03 5.50054992e-03 0. 0. 0. 0.
      0. 0. 1.10011001e-03 4.40044003e-03 0. 0. 5.50054992e-03
      2.20022001e-03 0. 3.30033014e-03 0. 0. 1.10011001e-03
      3.30033014e-03 0. 1.10011001e-03 0. 0. 0. 0. 1.10011001e-03
      1.10011001e-03 0. 0. 0. 0. 3.30033014e-03 2.20022001e-03 0.
      1.10011001e-03 0. 0. 0. 1.10011001e-03 0.</_>
    <_>
      1.01832999e-03 0. 0. 2.03665998e-03 1.01832999e-03 3.05498997e-03
      1.01832999e-03 1.01832999e-03 1.01832999e-03 0. 2.03665998e-03
      2.03665998e-03 0. 1.01832999e-03 0. 0. 6.10997993e-03
      3.05498997e-03 0. 3.05498997e-03 0. 0. 1.01832999e-03
      3.05498997e-03 0. 2.03665998e-03 0. 2.03665998e-03 0.
      3.05498997e-03 0. 2.03665998e-03 2.03665998e-03 2.03665998e-03
      3.05498997e-03 0. 1.01832999e-03 4.07331996e-03 0. 0. 0.
      2.03665998e-03 0. 0. 3.05498997e-03 5.09164995e-03 0. 0.
      2.03665998e-03 1.01832999e-03 0. 5.09164995e-03 1.01832999e-03
      1.01832999e-03 0. 0. 1.01832999e-03 1.01832999e-03 1.01832999e-03
      1.01832999e-03 1.01832999e-03 0. 6.10997993e-03 0. 0.
      7.12830992e-03 1.01832999e-03 1.01832999e-03 8.14663991e-03 0.
      2.03665998e-03 0. 0. 0. 0. 0. 2.03665998e-03 2.03665998e-03
      3.05498997e-03 0. 2.03665998e-03 3.05498997e-03 0. 0. 0. 0.
      4.07331996e-03 0. 1.01832999e-03 0. 1.01832999e-03 0.
