<?xml version="1.0"?>
<opencv_storage>
<my_svm type_id="opencv-ml-svm">
  <svm_type>C_SVC</svm_type>
  <kernel><type>RBF</type>
    <gamma>5.0625000000000009e-01</gamma></kernel>
  <C>3.1250000000000000e+02</C>
  <term_criteria><epsilon>1.1920928955078125e-07</epsilon>
    <iterations>50000</iterations></term_criteria>
  <var_all>500</var_all>
  <var_count>500</var_count>
  <class_count>2</class_count>
  <class_labels type_id="opencv-matrix">
    <rows>1</rows>
    <cols>2</cols>
    <dt>i</dt>
    <data>
      0 1</data></class_labels>
  <sv_total>175</sv_total>
  <support_vectors>
    <_>
      0. 0. 0. 0. 3.78787890e-03 0. 0. 0. 0. 3.78787890e-03 0. 0. 0.
      3.78787890e-03 0. 0. 0. 3.78787890e-03 1.13636367e-02
      3.78787890e-03 3.78787890e-03 3.78787890e-03 0. 0. 1.13636367e-02
      0. 0. 0. 3.78787890e-03 3.78787890e-03 3.78787890e-03 0.
      3.78787890e-03 3.78787890e-03 0. 0. 0. 3.78787890e-03 0.
      3.78787890e-03 0. 3.78787890e-03 3.78787890e-03 3.78787890e-03 0.
      0. 0. 3.78787890e-03 7.57575780e-03 0. 0. 0. 1.51515156e-02 0.
      3.78787890e-03 3.78787890e-03 0. 0. 0. 0. 0. 0. 4.92424257e-02
      4.16666679e-02 0. 0. 0. 3.78787890e-03 0. 3.78787890e-03 0. 0. 0.
      0. 0. 0. 0. 0. 3.78787890e-03 3.78787890e-03 0. 0. 3.78787890e-03
      0. 0. 0. 0. 0. 0. 3.78787890e-03 3.78787890e-03 7.57575780e-03
      3.78787890e-03 7.57575780e-03 0. 0. 0. 0. 0. 3.78787890e-03 0. 0.
      0. 3.78787890e-03 0. 0. 3.78787890e-03 0. 0. 0. 0. 1.13636367e-02
      3.78787890e-03 7.57575780e-03 0. 0. 0. 7.57575780e-03
      3.78787890e-03 0. 3.78787890e-03 0. 0. 0. 0. 0. 1.13636367e-02 0.
      0. 7.57575780e-03 0. 0. 0. 0. 0. 3.78787890e-03 0. 7.57575780e-03
      3.78787890e-03 0. 0. 0. 3.78787890e-03 0. 3.78787890e-03 0. 0. 0.
      3.78787890e-03 0. 0. 0. 0. 3.78787890e-03 0. 0. 3.78787890e-03 0.
      3.78787890e-03 3.78787890e-03 0. 0. 0. 3.78787890e-03 0. 0. 0. 0.
      0. 0. 3.78787890e-03 0. 3.78787890e-03 0. 3.78787890e-03 0. 0. 0.
      0. 0. 3.78787890e-03 0. 0. 3.78787890e-03 0. 3.78787890e-03
      7.57575780e-03 1.13636367e-02 3.78787890e-03 0. 0. 0. 0. 0.
      1.13636367e-02 0. 0. 0. 0. 0. 0. 0. 0. 0. 0. 0. 0. 0. 0. 0.
      3.78787890e-03 3.78787890e-03 3.78787890e-03 0. 3.78787890e-03 0.
      0. 0. 3.78787890e-03 7.57575780e-03 0. 0. 0. 0. 0. 7.57575780e-03
      0. 3.78787890e-03 0. 0. 3.78787890e-03 0. 3.78787890e-03 0. 0.
      1.13636367e-02 0. 3.78787890e-03 3.78787890e-03 3.78787890e-03
      3.78787890e-03 3.78787890e-03 0. 3.78787890e-03 0. 0. 0. 0. 0.
      7.57575780e-03 3.78787890e-03 7.57575780e-03 0. 0. 3.78787890e-03
      3.78787890e-03 0. 3.78787890e-03 0. 0. 3.78787890e-03
      3.78787890e-03 7.57575780e-03 0. 3.78787890e-03 0. 0. 0. 0. 0.
      3.78787890e-03 0. 0. 0. 3.78787890e-03 0. 0. 0. 0. 0.
      3.78787890e-03 0. 0. 0. 3.78787890e-03 0. 0. 3.78787890e-03
      3.78787890e-03 0. 3.78787890e-03 0. 0. 1.51515156e-02 0.
      3.78787890e-03 7.57575780e-03 3.78787890e-03 0. 1.13636367e-02
      7.57575780e-03 0. 0. 0. 0. 0. 0. 0. 0. 0. 0. 0. 1.89393945e-02 0.
      0. 0. 3.78787890e-03 0. 0. 0. 3.78787890e-03 0. 3.78787890e-03 0.
      0. 0. 3.78787890e-03 0. 0. 0. 3.78787890e-03 0. 0. 0.
      3.78787890e-03 0. 0. 3.78787890e-03 0. 0. 0. 0. 0. 0. 0. 0.
      3.78787890e-03 0. 0. 0. 0. 0. 0. 0. 0. 3.78787890e-03 0.
      3.78787890e-03 2.65151523e-02 0. 3.78787890e-03 0. 0.
      3.78787890e-03 0. 3.78787890e-03 0. 7.57575780e-03 1.89393945e-02
      0. 0. 7.57575780e-03 3.78787890e-03 0. 0. 0. 0. 0. 3.78787890e-03
      0. 0. 0. 3.78787890e-03 0. 0. 0. 3.78787890e-03 0. 0. 0. 0. 0.
      3.78787890e-03 0. 3.78787890e-03 3.78787890e-03 0. 0. 0.
      1.51515156e-02 0. 3.78787890e-03 0. 2.27272734e-02 0. 0.
      7.57575780e-03 0. 0. 3.78787890e-03 0. 0. 0. 3.78787890e-03 0. 0.
      0. 0. 0. 0. 1.51515156e-02 3.78787890e-03 0. 3.78787890e-03
      3.78787890e-03 0. 0. 0. 0. 0. 0. 0. 0. 0. 7.57575780e-03
      3.78787890e-03 0. 0. 7.57575780e-03 0. 0. 0. 7.57575780e-03 0. 0.
      0. 3.78787890e-03 0. 3.78787890e-03 1.89393945e-02 0. 0. 0. 0. 0.
      0. 0. 0. 0. 0. 0. 0. 3.78787890e-03 0. 0. 3.78787890e-03 0.
      3.78787890e-03 3.78787890e-03 0. 0. 0. 7.57575780e-03 0. 0. 0. 0.
      1.13636367e-02 3.78787890e-03 7.57575780e-03 3.78787890e-03
      1.13636367e-02 0. 0. 0. 0. 7.57575780e-03 0. 3.78787890e-03 0. 0.
      0. 0. 0. 0. 3.78787890e-03 0. 0. 0. 0.</_>
    <_>
      2.39234441e-03 0. 0. 0. 4.78468882e-03 4.78468882e-03 0. 0. 0. 0.
      0. 0. 0. 0. 7.17703346e-03 1.19617218e-02 0. 7.17703346e-03 0.
      2.39234441e-03 0. 4.78468882e-03 1.43540669e-02 0. 4.78468882e-03
      2.39234441e-03 0. 0. 0. 7.17703346e-03 0. 0. 4.78468882e-03 0.
      2.39234441e-03 0. 2.39234441e-03 2.39234441e-03 0. 0. 0. 0. 0.
      1.67464111e-02 0. 0. 0. 0. 0. 0. 0. 0. 0. 2.39234441e-03
      7.17703346e-03 0. 0. 0. 0. 2.39234441e-03 0. 0. 0. 2.39234441e-03
      2.39234441e-03 0. 0. 4.78468882e-03 0. 0. 0. 2.39234441e-03
      4.78468882e-03 0. 0. 0. 0. 2.39234441e-03 0. 2.39234441e-03 0. 0.
      0. 0. 0. 4.78468882e-03 2.39234441e-03 2.39234441e-03
      4.78468882e-03 1.67464111e-02 9.56937764e-03 2.39234441e-03 0.
      2.39234441e-03 4.78468882e-03 4.78468882e-03 0. 9.56937764e-03 0.
      0. 0. 0. 2.39234441e-03 0. 2.39234441e-03 2.39234441e-03
      7.17703346e-03 0. 0. 2.39234441e-03 0. 0. 4.78468882e-03
      7.17703346e-03 0. 2.39234441e-03 2.39234441e-03 0. 0. 0. 0. 0. 0.
      9.56937764e-03 0. 0. 0. 9.56937764e-03 0. 0. 4.78468882e-03 0. 0.
      0. 0. 0. 2.39234441e-03 0. 0. 2.39234441e-03 0. 4.78468882e-03 0.
      2.39234441e-03 4.78468882e-03 2.39234441e-03 7.17703346e-03
      4.78468882e-03 0. 0. 0. 0. 0. 2.39234441e-03 0. 2.39234441e-03 0.
      0. 4.78468882e-03 0. 0. 0. 0. 0. 0. 0. 0. 0. 0. 0. 2.39234441e-03
      2.39234441e-03 0. 0. 0. 0. 4.78468882e-03 0. 0. 0. 0.
      7.17703346e-03 2.39234441e-03 4.78468882e-03 0. 2.39234441e-03 0.
      0. 1.43540669e-02 0. 2.39234441e-03 2.39234441e-03 0.
      2.39234441e-03 0. 0. 0. 2.39234441e-03 4.78468882e-03
      2.39234441e-03 4.78468882e-03 0. 0. 9.56937764e-03 2.39234441e-03
      2.39234441e-03 0. 0. 4.78468882e-03 0. 4.78468882e-03 0. 0. 0. 0.
      0. 0. 4.78468882e-03 0. 0. 9.56937764e-03 0. 4.78468882e-03
      2.39234441e-03 0. 2.39234441e-03 0. 2.39234441e-03 0.
      4.78468882e-03 2.39234441e-03 1.67464111e-02 2.39234441e-03
      2.39234441e-03 4.78468882e-03 0. 0. 9.56937764e-03 4.78468882e-03
      0. 7.17703346e-03 7.17703346e-03 1.91387553e-02 0. 0.
      2.39234441e-03 0. 0. 0. 2.39234441e-03 2.39234441e-03 0.
      4.78468882e-03 0. 0. 2.39234441e-03 0. 0. 1.19617218e-02 0. 0. 0.
      0. 0. 9.56937764e-03 0. 0. 2.39234441e-03 0. 0. 9.56937764e-03 0.
      0. 2.39234441e-03 2.39234441e-03 2.39234441e-03 0. 7.17703346e-03
      0. 2.39234441e-03 0. 0. 0. 0. 2.39234441e-03 1.19617218e-02
      2.39234441e-03 2.39234441e-03 2.39234441e-03 0. 9.56937764e-03 0.
      0. 0. 0. 0. 9.56937764e-03 0. 4.78468882e-03 4.78468882e-03 0.
      2.63157878e-02 0. 0. 0. 2.39234441e-03 2.39234441e-03 0. 0.
      2.39234441e-03 2.39234441e-03 0. 2.39234441e-03 0. 2.39234441e-03
      2.39234441e-03 4.78468882e-03 0. 2.39234441e-03 4.78468882e-03
      4.78468882e-03 0. 9.56937764e-03 0. 0. 2.39234441e-03 0. 0. 0.
      4.78468882e-03 7.17703346e-03 2.39234441e-03 0. 0. 2.39234441e-03
      0. 0. 0. 2.39234441e-03 4.78468882e-03 0. 0. 0. 0. 0. 0. 0. 0. 0.
      0. 2.39234441e-03 0. 2.39234441e-03 0. 0. 0. 0. 2.39234441e-03
      2.39234441e-03 0. 4.78468882e-03 0. 0. 0. 0. 0. 4.78468882e-03
      9.56937764e-03 2.39234441e-03 0. 2.39234441e-03 2.39234441e-03 0.
      4.78468882e-03 0. 0. 0. 0. 0. 0. 0. 0. 1.19617218e-02
      2.39234441e-03 0. 4.78468882e-03 0. 0. 4.78468882e-03
      2.39234441e-03 0. 0. 0. 0. 7.17703346e-03 2.39234441e-03 0.
      2.39234441e-03 0. 7.17703346e-03 1.19617218e-02 2.39234441e-03 0.
      9.56937764e-03 0. 2.39234441e-03 0. 0. 0. 0. 4.78468882e-03 0.
      7.17703346e-03 0. 0. 0. 0. 1.67464111e-02 2.39234441e-03 0. 0. 0.
      0. 2.39234441e-03 0. 0. 0. 7.17703346e-03 0. 4.78468882e-03 0. 0.
      0. 0. 0. 0. 0. 2.39234441e-03 4.78468882e-03 0. 0. 7.17703346e-03
      0. 0. 0. 4.78468882e-03 2.39234441e-03 0. 9.56937764e-03 0.
      9.56937764e-03 0. 4.78468882e-03 0. 0. 0. 0. 2.39234441e-03 0.
      4.78468882e-03 0. 0. 0. 0. 4.78468882e-03 0. 0. 4.78468882e-03
      2.39234441e-03 1.19617218e-02 4.78468882e-03 0. 0. 2.39234441e-03
      0. 0. 4.78468882e-03 2.39234441e-03 0. 2.39234441e-03 0.
      2.39234441e-03 0. 0. 0. 0. 1.91387553e-02 0. 0. 2.39234441e-03 0.
      0. 2.39234441e-03 0. 0. 0. 0. 4.78468882e-03 7.17703346e-03
      7.17703346e-03</_>
    <_>
      8.53242259e-03 1.70648459e-03 1.70648459e-03 0. 0. 1.70648459e-03
      0. 1.70648459e-03 1.70648459e-03 1.70648459e-03 3.41296918e-03 0.
      0. 0. 1.70648459e-03 1.70648459e-03 0. 1.70648459e-03 0.
      1.70648459e-03 0. 1.70648459e-03 2.04778146e-02 0. 6.82593836e-03
      3.41296918e-03 1.70648459e-03 3.41296918e-03 1.70648459e-03 0.
      1.70648459e-03 0. 1.70648459e-03 0. 1.70648459e-03 0.
      1.70648459e-03 0. 0. 1.70648459e-03 1.02389073e-02 0.
      1.70648459e-03 0. 3.41296918e-03 0. 0. 0. 6.82593836e-03
      5.11945365e-03 8.53242259e-03 0. 6.82593836e-03 0. 0. 0. 0.
      1.70648459e-03 5.11945365e-03 1.70648459e-03 1.70648459e-03
      1.70648459e-03 1.70648459e-03 1.70648459e-03 1.70648459e-03 0.
      3.41296918e-03 1.70648459e-03 0. 0. 0. 1.70648459e-03 0.
      1.70648459e-03 0. 0. 1.70648459e-03 1.70648459e-03 0. 0.
      5.11945365e-03 3.41296918e-03 0. 0. 1.70648459e-03 0.
      1.70648459e-03 0. 1.70648459e-03 0. 3.41296918e-03 3.41296918e-03
      1.70648459e-03 3.41296918e-03 0. 0. 1.70648459e-03 0. 0.
      3.41296918e-03 0. 3.41296918e-03 6.82593836e-03 5.11945365e-03
      3.41296918e-03 0. 0. 0. 0. 0. 3.41296918e-03 1.70648459e-03
      1.70648459e-03 0. 1.70648459e-03 0. 3.41296918e-03 1.70648459e-03
      1.70648459e-03 1.70648459e-03 1.70648459e-03 1.02389073e-02 0. 0.
      1.70648459e-03 0. 6.82593836e-03 1.70648459e-03 5.11945365e-03
      1.70648459e-03 0. 1.70648459e-03 5.11945365e-03 0. 1.70648459e-03
      1.70648459e-03 5.11945365e-03 3.41296918e-03 3.41296918e-03
      1.70648459e-03 5.11945365e-03 0. 3.41296918e-03 0. 0.
      5.11945365e-03 0. 1.70648459e-03 0. 1.70648459e-03 1.70648459e-03
      1.70648459e-03 0. 0. 5.11945365e-03 0. 8.53242259e-03
      3.41296918e-03 5.11945365e-03 0. 0. 1.70648459e-03 0.
      1.70648459e-03 3.41296918e-03 0. 1.70648459e-03 5.11945365e-03
      1.70648459e-03 3.41296918e-03 1.70648459e-03 0. 3.41296918e-03 0.
      6.82593836e-03 0. 1.70648459e-03 1.70648459e-03 1.70648459e-03
      3.41296918e-03 1.70648459e-03 0. 1.70648459e-03 5.11945365e-03 0.
      1.02389073e-02 3.41296918e-03 0. 0. 5.11945365e-03 0.
      1.70648459e-03 5.11945365e-03 1.70648459e-03 3.41296918e-03
      1.70648459e-03 0. 0. 0. 0. 0. 0. 1.70648459e-03 3.41296918e-03
      3.41296918e-03 1.70648459e-03 3.41296918e-03 0. 1.70648459e-03
      3.41296918e-03 3.41296918e-03 1.70648459e-03 3.41296918e-03 0.
      3.41296918e-03 0. 5.11945365e-03 1.70648459e-03 1.70648459e-03
      6.82593836e-03 0. 0. 3.41296918e-03 1.70648459e-03 0. 0. 0.
      1.70648459e-03 6.82593836e-03 0. 3.41296918e-03 0. 3.41296918e-03
      0. 1.70648459e-03 5.11945365e-03 8.53242259e-03 0. 1.70648459e-03
      5.11945365e-03 5.11945365e-03 0. 0. 1.70648459e-03 1.70648459e-03
      0. 0. 0. 0. 8.53242259e-03 0. 3.41296918e-03 0. 3.41296918e-03
      1.70648459e-03 0. 1.70648459e-03 8.53242259e-03 0. 3.41296918e-03
      3.41296918e-03 3.41296918e-03 0. 0. 0. 0. 1.70648459e-03
      5.11945365e-03 3.41296918e-03 1.70648459e-03 1.70648459e-03
      5.11945365e-03 0. 3.41296918e-03 1.70648459e-03 0. 1.70648459e-03
      0. 0. 8.53242259e-03 5.11945365e-03 0. 0. 0. 0. 0. 0. 0.
      6.82593836e-03 5.11945365e-03 0. 1.70648459e-03 5.11945365e-03 0.
      0. 1.70648459e-03 0. 1.70648459e-03 1.70648459e-03 5.11945365e-03
      5.11945365e-03 1.70648459e-03 5.11945365e-03 1.70648459e-03
      1.70648459e-03 1.70648459e-03 1.70648459e-03 1.70648459e-03 0. 0.
      0. 3.41296918e-03 5.11945365e-03 1.70648459e-03 0. 1.70648459e-03
      0. 1.70648459e-03 3.41296918e-03 1.70648459e-03 3.41296918e-03
      3.41296918e-03 0. 0. 3.41296918e-03 0. 5.11945365e-03
      5.11945365e-03 3.41296918e-03 0. 1.70648459e-03 1.70648459e-03
      1.70648459e-03 0. 0. 1.70648459e-03 0. 8.53242259e-03
      1.70648459e-03 1.70648459e-03 0. 5.11945365e-03 3.41296918e-03
      1.02389073e-02 1.70648459e-03 1.70648459e-03 5.11945365e-03 0. 0.
      0. 0. 3.41296918e-03 0. 3.41296918e-03 1.70648459e-03 0.
      1.70648459e-03 1.70648459e-03 3.41296918e-03 0. 1.70648459e-03
      1.70648459e-03 3.41296918e-03 1.70648459e-03 3.41296918e-03 0. 0.
      1.70648459e-03 1.70648459e-03 1.70648459e-03 5.11945365e-03
      1.70648459e-03 3.41296918e-03 0. 1.02389073e-02 1.70648459e-03
      3.41296918e-03 1.70648459e-03 1.70648459e-03 5.11945365e-03
      1.70648459e-03 6.82593836e-03 0. 1.70648459e-03 5.11945365e-03
      5.11945365e-03 1.70648459e-03 6.82593836e-03 0. 1.70648459e-03
      1.02389073e-02 1.70648459e-03 5.11945365e-03 1.19453920e-02 0. 0.
      6.82593836e-03 0. 1.70648459e-03 0. 3.41296918e-03 1.70648459e-03
      0. 0. 1.70648459e-03 0. 5.11945365e-03 1.70648459e-03
      1.70648459e-03 0. 0. 0. 0. 0. 0. 0. 3.41296918e-03 0.
      3.41296918e-03 1.70648459e-03 1.70648459e-03 0. 0. 1.70648459e-03
      1.70648459e-03 1.70648459e-03 0. 0. 6.82593836e-03 0.
      6.82593836e-03 0. 0. 0. 1.70648459e-03 1.70648459e-03
      3.41296918e-03 0. 1.70648459e-03 3.41296918e-03 1.70648459e-03 0.
      3.41296918e-03 6.82593836e-03 0. 1.70648459e-03 0. 0. 0.
      3.41296918e-03 3.41296918e-03 1.70648459e-03 0. 1.70648459e-03
      3.41296918e-03 0. 6.82593836e-03 1.70648459e-03 0. 1.70648459e-03
      1.70648459e-03 5.11945365e-03 0. 0. 0. 0. 0. 5.11945365e-03
      1.70648459e-03 0. 0. 3.41296918e-03 1.70648459e-03 5.11945365e-03
      1.02389073e-02 3.41296918e-03 0. 1.70648459e-03 3.41296918e-03
      3.41296918e-03 0. 1.70648459e-03 0. 0. 5.11945365e-03
      5.11945365e-03 0. 1.70648459e-03 1.70648459e-03 1.70648459e-03 0.
      1.70648459e-03 0. 0. 0. 1.70648459e-03 0. 0. 0. 1.70648459e-03</_>
    <_>
      0. 1.82149361e-03 1.82149361e-03 5.46448072e-03 5.46448072e-03 0.
      0. 1.82149361e-03 0. 0. 1.82149361e-03 3.64298723e-03
      1.82149361e-03 1.09289614e-02 1.82149361e-03 3.64298723e-03 0.
      3.64298723e-03 1.82149361e-03 0. 0. 0. 1.82149361e-03 0. 0.
      1.82149361e-03 0. 0. 0. 1.82149361e-03 0. 1.82149361e-03 0. 0.
      1.82149361e-03 3.64298723e-03 1.82149361e-03 0. 0. 3.64298723e-03
      0. 1.82149361e-03 0. 1.82149361e-03 0. 3.64298723e-03
      7.28597445e-03 1.82149361e-03 0. 0. 0. 0. 0. 0. 5.46448072e-03
      1.82149361e-03 0. 0. 0. 7.28597445e-03 3.64298723e-03
      1.82149361e-03 7.28597445e-03 1.82149361e-03 0. 7.28597445e-03 0.
      7.28597445e-03 3.64298723e-03 0. 5.46448072e-03 1.82149361e-03
      1.82149361e-03 3.64298723e-03 0. 1.82149361e-03 1.82149361e-03
      1.82149361e-03 3.64298723e-03 5.46448072e-03 0. 3.64298723e-03
      3.64298723e-03 0. 0. 7.28597445e-03 0. 1.82149361e-03 0.
      1.45719489e-02 3.64298723e-03 0. 5.46448072e-03 5.46448072e-03 0.
      3.64298723e-03 0. 1.82149361e-03 1.82149361e-03 0. 0.
      3.64298723e-03 3.64298723e-03 0. 0. 0. 5.46448072e-03 0. 0.
      5.46448072e-03 0. 0. 9.10746772e-03 7.28597445e-03 0. 0. 0.
      1.82149361e-03 3.64298723e-03 0. 1.82149361e-03 1.82149361e-03 0.
      3.64298723e-03 1.82149361e-03 0. 0. 3.64298723e-03 0. 0. 0. 0. 0.
      0. 3.64298723e-03 0. 0. 1.82149361e-03 0. 1.82149361e-03 0. 0. 0.
      0. 0. 0. 1.82149361e-03 1.82149361e-03 1.82149361e-03 0. 0.
      1.82149361e-03 0. 0. 0. 7.28597445e-03 1.82149361e-03 0.
      1.82149361e-03 1.82149361e-03 1.82149361e-03 0. 0. 0.
      3.64298723e-03 0. 0. 1.82149361e-03 0. 7.28597445e-03 0. 0.
      3.64298723e-03 0. 0. 0. 0. 1.82149361e-03 1.82149361e-03
      5.46448072e-03 3.64298723e-03 1.82149361e-03 3.64298723e-03 0.
      3.64298723e-03 0. 1.82149361e-03 3.64298723e-03 1.45719489e-02
      3.64298723e-03 5.46448072e-03 0. 0. 3.64298723e-03 3.64298723e-03
      3.64298723e-03 0. 0. 0. 9.10746772e-03 0. 0. 0. 3.64298723e-03
      3.64298723e-03 1.82149361e-03 0. 0. 7.28597445e-03 1.82149361e-03
      3.64298723e-03 0. 0. 1.82149361e-03 1.82149361e-03 1.82149361e-03
      1.82149361e-03 0. 0. 0. 3.64298723e-03 0. 1.82149361e-03
      5.46448072e-03 0. 1.82149361e-03 1.82149361e-03 1.82149361e-03 0.
      3.64298723e-03 0. 3.64298723e-03 0. 5.46448072e-03 3.64298723e-03
      3.64298723e-03 0. 0. 0. 1.82149361e-03 5.46448072e-03
      3.64298723e-03 5.46448072e-03 9.10746772e-03 1.82149361e-03
      1.82149361e-03 0. 0. 0. 3.64298723e-03 1.27504552e-02 0.
      5.46448072e-03 0. 0. 5.46448072e-03 0. 0. 5.46448072e-03 0. 0. 0.
      0. 0. 0. 0. 3.64298723e-03 1.82149361e-03 0. 1.82149361e-03 0. 0.
      3.64298723e-03 1.82149361e-03 1.82149361e-03 1.82149361e-03
      3.64298723e-03 3.64298723e-03 1.82149361e-03 0. 3.64298723e-03
      3.64298723e-03 1.82149361e-03 0. 0. 0. 1.82149361e-03 0. 0. 0.
      2.36794166e-02 0. 3.64298723e-03 5.46448072e-03 1.82149361e-03 0.
      1.82149361e-03 0. 5.46448072e-03 0. 3.64298723e-03 5.46448072e-03
      0. 1.82149361e-03 3.64298723e-03 1.82149361e-03 0. 1.82149361e-03
      1.82149361e-03 7.28597445e-03 1.82149361e-03 0. 7.28597445e-03 0.
      5.46448072e-03 1.82149361e-03 1.82149361e-03 0. 1.82149361e-03
      7.28597445e-03 1.82149361e-03 0. 1.27504552e-02 1.82149361e-03
      1.82149361e-03 3.64298723e-03 0. 0. 1.82149361e-03 1.82149361e-03
      1.82149361e-03 5.46448072e-03 1.82149361e-03 1.82149361e-03
      7.28597445e-03 1.82149361e-03 3.64298723e-03 1.82149361e-03
      3.64298723e-03 3.64298723e-03 0. 0. 0. 0. 1.82149361e-03 0. 0. 0.
      1.82149361e-03 1.45719489e-02 0. 0. 0. 0. 3.64298723e-03 0. 0.
      1.82149361e-03 0. 1.82149361e-03 1.82149361e-03 0. 0. 0.
      3.64298723e-03 0. 0. 0. 0. 1.82149361e-03 3.64298723e-03 0. 0. 0.
      0. 1.82149361e-03 1.82149361e-03 0. 0. 1.82149361e-03 0.
      1.82149361e-03 5.46448072e-03 0. 0. 0. 0. 0. 5.46448072e-03
      1.82149361e-03 0. 0. 0. 1.82149361e-03 1.82149361e-03
      1.82149361e-03 0. 1.82149361e-03 1.82149361e-03 0. 5.46448072e-03
      0. 1.82149361e-03 5.46448072e-03 3.64298723e-03 0. 7.28597445e-03
      1.82149361e-03 0. 1.82149361e-03 0. 3.64298723e-03 1.82149361e-03
      0. 3.64298723e-03 0. 0. 3.64298723e-03 0. 1.82149361e-03
      3.64298723e-03 3.64298723e-03 0. 5.46448072e-03 0. 0.
      3.64298723e-03 0. 1.82149361e-03 5.46448072e-03 0. 1.82149361e-03
      1.82149361e-03 5.46448072e-03 0. 3.64298723e-03 3.64298723e-03
      1.82149361e-03 1.82149361e-03 1.82149361e-03 7.28597445e-03
      7.28597445e-03 1.82149361e-03 1.82149361e-03 1.82149361e-03
      3.64298723e-03 1.82149361e-03 3.64298723e-03 1.82149354e-02
      3.64298723e-03 3.64298723e-03 0. 0. 1.82149361e-03 1.82149361e-03
      1.82149361e-03 0. 1.82149361e-03 0. 0. 0. 0. 1.82149361e-03
      1.82149361e-03 1.82149361e-03 1.82149361e-03 1.82149361e-03
      1.82149361e-03 1.82149361e-03 3.64298723e-03 1.82149361e-03 0.
      1.82149361e-03 0. 3.64298723e-03 0. 0. 0. 1.82149361e-03
      1.82149361e-03 0. 5.46448072e-03 0. 1.82149361e-03 0. 0.
      1.82149354e-02 1.82149361e-03 0. 1.82149361e-03 0. 1.82149361e-03
      5.46448072e-03 1.82149361e-03 1.82149361e-03 5.46448072e-03
      1.82149361e-03 9.10746772e-03 3.64298723e-03 1.82149361e-03</_>
    <_>
      1.09950523e-03 1.64925784e-03 5.49752614e-04 5.49752614e-04
      2.19901046e-03 3.29851569e-03 3.84826818e-03 2.19901046e-03
      3.29851569e-03 0. 3.29851569e-03 2.74876319e-03 1.09950523e-03
      2.19901046e-03 0. 3.84826818e-03 2.19901046e-03 5.49752614e-04
      1.09950523e-03 1.64925784e-03 1.09950523e-03 2.19901046e-03
      4.94777365e-03 3.29851569e-03 1.64925784e-03 1.64925784e-03
      3.84826818e-03 1.09950523e-03 2.74876319e-03 5.49752614e-04
      2.19901046e-03 5.49752638e-03 3.84826818e-03 0. 5.49752614e-04 0.
      5.49752614e-04 4.39802092e-03 2.19901046e-03 2.19901046e-03
      1.09950523e-03 1.64925784e-03 3.84826818e-03 1.09950523e-03
      2.74876319e-03 5.49752614e-04 5.49752614e-04 4.94777365e-03
      5.49752614e-04 1.64925784e-03 1.64925784e-03 2.74876319e-03
      3.29851569e-03 3.29851569e-03 1.64925784e-03 2.74876319e-03
      1.64925784e-03 2.74876319e-03 2.74876319e-03 0. 2.19901046e-03
      3.29851569e-03 1.64925784e-03 2.19901046e-03 1.64925784e-03
      5.49752614e-04 1.09950523e-03 0. 1.64925784e-03 1.64925784e-03
      2.74876319e-03 1.64925784e-03 5.49752614e-04 1.64925784e-03
      3.29851569e-03 2.74876319e-03 1.09950523e-03 1.64925784e-03
      2.19901046e-03 1.64925784e-03 4.39802092e-03 2.74876319e-03
      5.49752614e-04 5.49752614e-04 3.84826818e-03 5.49752614e-04 0.
      1.09950523e-03 1.64925784e-03 0. 1.09950523e-03 1.09950523e-03 0.
      1.64925784e-03 4.94777365e-03 1.09950523e-03 3.84826818e-03
      2.74876319e-03 2.19901046e-03 2.19901046e-03 3.84826818e-03
      1.64925784e-03 3.29851569e-03 1.09950523e-03 3.29851569e-03 0.
      1.09950523e-03 2.74876319e-03 2.19901046e-03 5.49752614e-04
      5.49752614e-04 0. 2.19901046e-03 1.64925784e-03 3.84826818e-03
      1.09950523e-03 4.94777365e-03 2.74876319e-03 1.09950523e-03
      3.29851569e-03 1.64925784e-03 2.19901046e-03 3.29851569e-03 0.
      3.29851569e-03 5.49752614e-04 2.74876319e-03 2.74876319e-03
      2.19901046e-03 2.74876319e-03 2.19901046e-03 0. 1.64925784e-03
      4.94777365e-03 5.49752614e-04 1.09950523e-03 5.49752614e-04
      3.29851569e-03 2.19901046e-03 1.09950523e-03 2.19901046e-03
      1.64925784e-03 2.74876319e-03 1.09950523e-03 3.29851569e-03
      1.64925784e-03 0. 5.49752614e-04 2.19901046e-03 4.39802092e-03
      2.19901046e-03 2.19901046e-03 1.09950523e-03 3.29851569e-03
      5.49752614e-04 4.94777365e-03 6.04727864e-03 1.09950523e-03
      1.64925784e-03 2.74876319e-03 2.19901046e-03 4.39802092e-03
      1.64925784e-03 3.29851569e-03 3.84826818e-03 5.49752614e-04
      1.09950523e-03 2.19901046e-03 4.39802092e-03 5.49752614e-04
      2.19901046e-03 2.19901046e-03 5.49752614e-04 2.19901046e-03
      1.09950523e-03 0. 2.19901046e-03 1.09950523e-03 1.64925784e-03
      1.09950523e-03 1.09950523e-03 5.49752614e-04 2.19901046e-03
      1.64925784e-03 4.94777365e-03 3.84826818e-03 2.19901046e-03
      1.64925784e-03 3.84826818e-03 1.64925784e-03 1.64925784e-03
      1.64925784e-03 1.09950523e-03 0. 1.09950523e-03 3.29851569e-03
      3.29851569e-03 0. 1.09950523e-03 3.84826818e-03 5.49752614e-04
      1.64925784e-03 2.19901046e-03 2.19901046e-03 3.29851569e-03
      2.19901046e-03 5.49752638e-03 1.09950523e-03 1.09950523e-03
      3.84826818e-03 5.49752614e-04 0. 1.09950523e-03 1.64925784e-03
      2.74876319e-03 2.19901046e-03 4.94777365e-03 5.49752614e-04
      1.09950523e-03 3.29851569e-03 2.19901046e-03 1.64925784e-03
      1.64925784e-03 5.49752614e-04 5.49752614e-04 5.49752614e-04
      5.49752614e-04 2.19901046e-03 2.19901046e-03 2.19901046e-03
      2.74876319e-03 1.09950523e-03 1.64925784e-03 5.49752638e-03
      1.09950523e-03 1.64925784e-03 2.74876319e-03 0. 1.64925784e-03
      3.29851569e-03 1.09950523e-03 5.49752614e-04 1.09950523e-03
      3.29851569e-03 1.64925784e-03 2.19901046e-03 0. 6.59703137e-03
      2.74876319e-03 2.19901046e-03 1.64925784e-03 2.74876319e-03
      2.74876319e-03 3.84826818e-03 2.19901046e-03 1.09950523e-03
      4.94777365e-03 1.64925784e-03 1.64925784e-03 5.49752614e-04
      2.19901046e-03 4.39802092e-03 0. 1.09950523e-03 1.09950523e-03
      1.64925784e-03 5.49752614e-04 3.29851569e-03 2.19901046e-03
      2.19901046e-03 1.64925784e-03 1.64925784e-03 3.84826818e-03
      5.49752638e-03 5.49752614e-04 5.49752614e-04 2.74876319e-03
      5.49752614e-04 1.64925784e-03 2.19901046e-03 6.59703137e-03
      2.74876319e-03 1.09950523e-03 2.74876319e-03 2.19901046e-03
      1.09950523e-03 2.19901046e-03 1.64925784e-03 5.49752614e-04
      4.94777365e-03 1.09950523e-03 1.09950523e-03 4.39802092e-03 0.
      1.64925784e-03 1.64925784e-03 2.19901046e-03 1.09950523e-03
      1.64925784e-03 5.49752614e-04 4.94777365e-03 1.64925784e-03
      1.64925784e-03 1.09950523e-03 1.64925784e-03 1.09950523e-03
      1.09950523e-03 3.84826818e-03 0. 3.29851569e-03 5.49752614e-04
      2.19901046e-03 0. 4.39802092e-03 2.74876319e-03 1.09950523e-03
      1.64925784e-03 1.09950523e-03 3.29851569e-03 3.84826818e-03
      3.29851569e-03 2.74876319e-03 0. 3.84826818e-03 1.64925784e-03
      2.74876319e-03 1.09950523e-03 2.74876319e-03 2.19901046e-03
      5.49752614e-04 1.09950523e-03 3.29851569e-03 0. 1.64925784e-03
      1.64925784e-03 2.19901046e-03 2.74876319e-03 0. 0. 1.64925784e-03
      3.84826818e-03 3.29851569e-03 5.49752614e-04 5.49752638e-03
      4.94777365e-03 2.74876319e-03 1.09950523e-03 2.19901046e-03
      2.19901046e-03 0. 1.64925784e-03 1.64925784e-03 1.64925784e-03
      4.39802092e-03 4.94777365e-03 2.74876319e-03 4.39802092e-03
      1.64925784e-03 1.09950523e-03 1.64925784e-03 1.64925784e-03
      3.29851569e-03 1.09950523e-03 3.29851569e-03 4.94777365e-03
      4.39802092e-03 3.84826818e-03 1.09950523e-03 4.39802092e-03
      3.84826818e-03 1.09950523e-03 3.29851569e-03 4.94777365e-03
      3.84826818e-03 5.49752614e-04 2.74876319e-03 1.09950523e-03
      1.09950523e-03 5.49752614e-04 0. 2.19901046e-03 2.74876319e-03
      5.49752614e-04 3.29851569e-03 2.19901046e-03 1.64925784e-03
      1.64925784e-03 1.09950523e-03 1.64925784e-03 1.64925784e-03
      3.84826818e-03 3.29851569e-03 2.19901046e-03 1.64925784e-03 0. 0.
      1.09950523e-03 2.19901046e-03 2.19901046e-03 1.09950523e-03
      1.64925784e-03 2.74876319e-03 1.64925784e-03 0. 1.09950523e-03
      5.49752614e-04 3.84826818e-03 0. 3.84826818e-03 2.19901046e-03
      5.49752614e-04 1.09950523e-03 2.74876319e-03 2.19901046e-03
      2.19901046e-03 2.74876319e-03 1.64925784e-03 1.64925784e-03
      3.29851569e-03 3.29851569e-03 0. 1.09950523e-03 0. 2.19901046e-03
      1.64925784e-03 3.84826818e-03 2.74876319e-03 0. 1.64925784e-03
      5.49752614e-04 5.49752614e-04 2.19901046e-03 1.64925784e-03
      1.09950523e-03 1.09950523e-03 3.29851569e-03 3.29851569e-03
      2.19901046e-03 0. 2.74876319e-03 3.29851569e-03 1.09950523e-03
      3.84826818e-03 3.29851569e-03 3.29851569e-03 0. 1.09950523e-03
      1.64925784e-03 0. 0. 1.64925784e-03 2.19901046e-03 1.09950523e-03
      4.94777365e-03 0. 3.29851569e-03 1.09950523e-03 5.49752614e-04
      3.29851569e-03 3.84826818e-03 3.84826818e-03 5.49752614e-04
      5.49752614e-04 5.49752614e-04 1.09950523e-03 5.49752614e-04
      5.49752614e-04 5.49752614e-04 6.59703137e-03 1.64925784e-03
      1.09950523e-03 4.39802092e-03 2.19901046e-03 1.64925784e-03
      2.19901046e-03 1.09950523e-03 1.64925784e-03 5.49752614e-04
      1.09950523e-03 2.19901046e-03 0. 0. 1.64925784e-03 3.29851569e-03
      4.39802092e-03 1.64925784e-03 3.84826818e-03 0. 3.29851569e-03
      2.19901046e-03 5.49752614e-04 1.64925784e-03 1.64925784e-03
      2.74876319e-03 2.19901046e-03 1.64925784e-03 5.49752614e-04
      2.19901046e-03 1.09950523e-03 1.64925784e-03</_>
    <_>
      0. 0. 0. 0. 4.80769249e-03 1.20192310e-02 2.40384624e-03 0.
      2.40384624e-03 7.21153896e-03 0. 0. 4.80769249e-03 0. 0. 0. 0. 0.
      0. 2.40384624e-03 0. 0. 4.80769249e-03 0. 7.21153896e-03 0. 0. 0.
      0. 4.80769249e-03 0. 0. 4.80769249e-03 4.80769249e-03
      2.40384624e-03 2.40384624e-03 0. 0. 0. 2.40384624e-03 0. 0. 0.
      2.40384624e-03 0. 4.80769249e-03 0. 0. 2.40384624e-03
      2.40384624e-03 0. 9.61538497e-03 4.80769249e-03 1.20192310e-02 0.
      4.80769249e-03 0. 0. 2.40384624e-03 2.40384624e-03 0. 0.
      2.64423080e-02 0. 0. 0. 4.80769249e-03 2.40384624e-03
      7.21153896e-03 7.21153896e-03 0. 0. 0. 2.40384624e-03 0.
      2.40384624e-03 2.40384624e-03 2.40384624e-03 2.40384624e-03
      4.80769249e-03 0. 2.40384624e-03 4.80769249e-03 0. 0. 0. 0. 0. 0.
      2.40384624e-03 0. 0. 4.80769249e-03 4.80769249e-03 0. 0. 0.
      2.40384624e-03 9.61538497e-03 0. 0. 2.40384624e-03 0. 0.
      4.80769249e-03 2.40384624e-03 0. 0. 0. 0. 2.40384624e-03
      7.21153896e-03 0. 0. 0. 2.40384624e-03 0. 0. 0. 0. 4.80769249e-03
      2.40384624e-03 0. 0. 0. 0. 0. 0. 0. 0. 7.21153896e-03 0.
      1.44230779e-02 0. 7.21153896e-03 0. 2.40384624e-03 9.61538497e-03
      2.40384624e-03 2.40384624e-03 2.40384624e-03 7.21153896e-03
      4.80769249e-03 0. 2.40384624e-03 4.80769249e-03 0. 0. 0.
      4.80769249e-03 7.21153896e-03 0. 0. 9.61538497e-03 0. 0.
      2.40384624e-03 2.40384624e-03 0. 0. 0. 0. 0. 2.40384624e-03
      4.80769249e-03 0. 0. 2.40384624e-03 4.80769249e-03 2.40384624e-03
      4.80769249e-03 2.40384624e-03 0. 0. 0. 0. 2.40384624e-03 0.
      9.61538497e-03 4.80769249e-03 2.40384624e-03 0. 0. 2.40384624e-03
      0. 0. 0. 0. 0. 2.40384624e-03 0. 0. 4.80769249e-03 0.
      2.40384624e-03 0. 0. 0. 2.40384624e-03 4.80769249e-03
      2.40384624e-03 2.40384624e-03 4.80769249e-03 4.80769249e-03 0. 0.
      0. 2.40384624e-03 0. 2.40384624e-03 2.40384624e-03 0.
      7.21153896e-03 0. 0. 2.40384624e-03 0. 2.40384624e-03 0. 0. 0. 0.
      0. 9.61538497e-03 0. 0. 0. 4.80769249e-03 2.40384624e-03 0.
      2.40384624e-03 2.40384624e-03 0. 4.80769249e-03 0. 0. 0. 0. 0.
      2.40384624e-03 7.21153896e-03 4.80769249e-03 0. 4.80769249e-03 0.
      0. 0. 0. 0. 0. 2.40384624e-03 0. 0. 4.80769249e-03 0.
      7.21153896e-03 0. 2.40384624e-03 2.40384624e-03 2.16346160e-02
      4.80769249e-03 2.40384624e-03 0. 0. 0. 2.40384624e-03 0. 0. 0. 0.
      0. 2.40384624e-03 0. 0. 2.40384624e-03 2.40384624e-03 0. 0. 0.
      2.40384624e-03 0. 0. 0. 0. 0. 0. 4.80769249e-03 2.40384624e-03
      7.21153896e-03 4.80769249e-03 0. 2.40384624e-03 2.40384624e-03
      2.40384624e-03 2.40384624e-03 0. 0. 0. 0. 0. 4.80769249e-03
      4.80769249e-03 2.40384624e-03 0. 0. 4.80769249e-03 0.
      2.40384624e-03 2.40384624e-03 0. 4.80769249e-03 0. 4.80769249e-03
      0. 0. 0. 0. 0. 0. 2.40384624e-03 2.40384624e-03 0. 0. 0.
      2.40384624e-03 0. 0. 4.80769249e-03 4.80769249e-03 2.40384624e-03
      4.80769249e-03 2.40384624e-03 0. 2.40384624e-03 0. 0. 0. 0. 0. 0.
      4.56730798e-02 2.40384624e-03 0. 0. 0. 0. 2.40384624e-03 0.
      4.80769249e-03 2.40384624e-03 2.40384624e-03 4.80769249e-03 0. 0.
      0. 2.40384624e-03 0. 4.80769249e-03 1.20192310e-02 0. 0. 0.
      4.80769249e-03 0. 2.40384624e-03 2.40384624e-03 0. 0.
      4.80769249e-03 0. 0. 0. 0. 0. 0. 7.21153896e-03 0. 0.
      2.40384624e-03 0. 2.40384624e-03 0. 0. 2.40384624e-03
      4.80769249e-03 9.61538497e-03 2.40384624e-03 0. 4.80769249e-03
      2.40384624e-03 0. 2.40384624e-03 0. 0. 0. 2.40384624e-03
      2.40384624e-03 0. 4.80769249e-03 0. 0. 2.40384624e-03 0.
      7.21153896e-03 0. 4.80769249e-03 0. 0. 2.40384624e-03
      7.21153896e-03 4.80769249e-03 2.40384624e-03 0. 0. 0.
      2.40384624e-03 0. 0. 0. 0. 0. 0. 0. 4.80769249e-03 0.
      9.61538497e-03 2.40384624e-03 7.21153896e-03 4.80769249e-03 0. 0.
      0. 0. 4.80769249e-03 2.40384624e-03 0. 0. 0. 4.80769249e-03
      2.40384624e-03 9.61538497e-03 0. 7.21153896e-03 0. 2.40384624e-03
      0. 2.40384624e-03 4.80769249e-03 2.40384624e-03 4.80769249e-03
      2.40384624e-03 4.80769249e-03 0. 0. 4.80769249e-03 7.21153896e-03
      4.80769249e-03 0. 7.21153896e-03 7.21153896e-03 0. 0.
      4.80769249e-03 2.40384624e-03 0. 0. 2.40384624e-03 0.
      2.40384624e-03 2.40384624e-03 2.40384624e-03 0. 2.40384624e-03
      2.40384624e-03 2.40384624e-03 2.40384624e-03 4.80769249e-03
      7.21153896e-03 2.40384624e-03 0. 2.40384624e-03 4.80769249e-03 0.
      0. 1.20192310e-02 2.40384624e-03 0. 2.40384624e-03 0. 0. 0. 0.
      2.40384624e-03 2.40384624e-03 4.80769249e-03 0. 0. 0. 0. 0.</_>
    <_>
      0. 0. 0. 1.07526882e-02 0. 0. 0. 0. 0. 0. 0. 0. 0. 0.
      2.15053763e-02 0. 0. 3.22580636e-02 1.07526882e-02 0. 0. 0.
      4.30107526e-02 0. 0. 0. 0. 0. 0. 0. 0. 0. 0. 0. 0. 0. 0. 0. 0. 0.
      0. 0. 0. 0. 1.07526882e-02 1.07526882e-02 0. 0. 0. 0. 0. 0. 0. 0.
      0. 0. 0. 0. 0. 0. 0. 0. 0. 0. 0. 0. 0. 1.07526882e-02 0. 0. 0. 0.
      0. 0. 0. 0. 0. 0. 1.07526882e-02 0. 0. 0. 0. 0. 0. 0. 0.
      2.15053763e-02 0. 0. 5.37634417e-02 1.07526882e-02 1.07526882e-02
      0. 0. 0. 0. 1.07526882e-02 0. 0. 0. 0. 0. 0. 0. 0. 0. 0. 0. 0. 0.
      1.07526882e-02 0. 0. 0. 0. 0. 0. 0. 0. 0. 0. 0. 1.07526882e-02 0.
      0. 1.07526882e-02 0. 0. 0. 0. 0. 0. 0. 0. 0. 0. 1.07526882e-02 0.
      0. 0. 0. 0. 0. 0. 0. 0. 1.07526882e-02 0. 0. 0. 0. 0. 0. 0. 0. 0.
      0. 0. 0. 0. 0. 0. 0. 0. 0. 0. 0. 0. 0. 0. 0. 1.07526882e-02 0. 0.
      0. 1.07526882e-02 0. 0. 0. 0. 0. 0. 0. 0. 0. 0. 0. 8.60215053e-02
      0. 0. 0. 0. 0. 0. 0. 0. 1.07526882e-02 0. 0. 0. 0. 0.
      1.07526882e-02 0. 0. 0. 0. 0. 0. 0. 0. 0. 0. 0. 0. 0. 0. 0. 0. 0.
      0. 0. 0. 0. 0. 0. 0. 0. 1.07526882e-02 1.07526882e-02 0. 0. 0. 0.
      0. 0. 0. 1.07526882e-02 0. 1.07526882e-02 0. 0. 0. 0. 0. 0. 0. 0.
      0. 0. 0. 0. 0. 0. 0. 0. 0. 5.37634417e-02 0. 1.07526882e-02 0. 0.
      0. 2.15053763e-02 1.07526882e-02 0. 0. 0. 0. 0. 0. 1.07526882e-02
      0. 0. 0. 1.07526882e-02 0. 0. 0. 0. 0. 0. 0. 0. 0. 0. 0. 0. 0.
      2.15053763e-02 0. 0. 1.07526882e-02 0. 0. 0. 0. 0. 0. 0.
      5.37634417e-02 0. 1.07526882e-02 0. 0. 0. 0. 0. 0. 1.07526882e-02
      0. 0. 0. 1.07526882e-02 0. 0. 1.07526882e-02 0. 0. 1.07526882e-02
      0. 1.07526882e-02 1.07526882e-02 0. 1.07526882e-02 0. 0. 0. 0. 0.
      0. 0. 0. 0. 0. 0. 0. 0. 0. 0. 0. 0. 0. 0. 0. 0. 0. 0. 0. 0. 0. 0.
      0. 0. 0. 0. 0. 0. 0. 0. 0. 0. 0. 0. 0. 0. 0. 0. 1.07526882e-02 0.
      0. 0. 0. 2.15053763e-02 0. 0. 0. 0. 0. 0. 0. 0. 0. 0. 0. 0. 0. 0.
      0. 0. 0. 0. 0. 0. 0. 0. 0. 0. 0. 0. 0. 0. 0. 0. 1.07526882e-02 0.
      0. 0. 0. 0. 0. 0. 1.07526882e-02 0. 0. 0. 0. 0. 0. 1.07526882e-02
      0. 0. 0. 0. 0. 0. 0. 0. 0. 0. 1.07526882e-02 0. 0. 0. 0. 0. 0.
      2.15053763e-02 0. 0. 0. 0. 0. 0. 0. 0. 0. 0. 0. 0. 0. 0. 0. 0. 0.
      0. 3.22580636e-02 0. 0. 0. 0. 0. 0. 0. 0. 0. 1.07526882e-02
      1.07526882e-02 0. 0. 0. 0. 0. 2.15053763e-02 0. 0. 0. 0. 0. 0. 0.
      0. 0. 0. 0. 2.15053763e-02 0. 0. 0. 1.07526882e-02 0. 0. 0. 0. 0.
      0. 0. 1.07526882e-02 0.</_>
    <_>
      8.91265552e-03 8.91265576e-04 1.78253115e-03 5.34759369e-03
      1.78253115e-03 8.91265576e-04 1.78253115e-03 0. 0. 1.78253115e-03
      1.78253115e-03 2.67379684e-03 3.56506230e-03 0. 0. 0. 0.
      8.02139007e-03 3.56506230e-03 3.56506230e-03 0. 0. 4.45632776e-03
      2.67379684e-03 5.34759369e-03 1.78253115e-03 0. 0. 0. 0. 0. 0.
      8.91265576e-04 8.91265576e-04 2.67379684e-03 1.78253115e-03
      2.67379684e-03 0. 8.91265576e-04 0. 8.91265576e-04 8.91265576e-04
      6.23885915e-03 4.45632776e-03 0. 8.91265552e-03 0. 8.91265576e-04
      2.67379684e-03 1.78253115e-03 1.78253115e-03 8.91265576e-04
      4.45632776e-03 8.91265576e-04 8.91265576e-04 1.78253115e-03
      1.78253115e-03 0. 0. 1.78253115e-03 1.78253115e-03 0.
      4.81283404e-02 1.78253115e-03 8.91265576e-04 0. 1.78253115e-03
      1.78253115e-03 0. 2.67379684e-03 0. 8.91265576e-04 8.91265576e-04
      1.78253115e-03 0. 1.78253115e-03 1.78253115e-03 2.67379684e-03
      8.91265576e-04 4.45632776e-03 1.78253115e-03 8.91265576e-04
      4.45632776e-03 0. 0. 0. 0. 0. 2.67379684e-03 8.91265576e-04 0.
      8.91265576e-04 0. 1.78253115e-03 0. 1.78253115e-03 8.91265576e-04
      8.91265576e-04 1.78253115e-03 4.45632776e-03 8.91265576e-04
      8.91265576e-04 8.91265576e-04 3.56506230e-03 2.67379684e-03
      8.91265576e-04 0. 8.91265576e-04 8.91265576e-04 1.78253115e-03
      8.91265576e-04 0. 8.91265576e-04 1.78253115e-03 8.91265576e-04
      1.78253115e-03 8.91265576e-04 2.67379684e-03 4.45632776e-03
      8.91265576e-04 0. 1.78253115e-03 8.91265576e-04 0. 2.67379684e-03
      8.91265576e-04 8.91265552e-03 8.91265576e-04 8.91265576e-04
      6.23885915e-03 8.91265576e-04 0. 2.67379684e-03 2.67379684e-03
      2.67379684e-03 3.56506230e-03 8.91265576e-04 8.91265576e-04
      1.78253115e-03 1.78253115e-03 6.23885915e-03 2.67379684e-03
      4.45632776e-03 8.91265576e-04 1.78253115e-03 6.23885915e-03 0. 0.
      1.78253115e-03 7.13012461e-03 8.91265576e-04 0. 2.67379684e-03
      8.91265576e-04 0. 0. 0. 1.78253115e-03 8.91265576e-04
      2.67379684e-03 8.91265576e-04 8.91265576e-04 0. 6.23885915e-03
      2.67379684e-03 0. 0. 4.45632776e-03 1.78253115e-03 8.91265576e-04
      1.78253115e-03 2.67379684e-03 8.91265576e-04 8.91265576e-04
      2.67379684e-03 0. 1.78253115e-03 5.34759369e-03 1.78253115e-03
      7.13012461e-03 3.56506230e-03 2.67379684e-03 8.91265576e-04
      1.78253115e-03 2.67379684e-03 8.91265576e-04 1.78253115e-03
      8.91265576e-04 1.78253115e-03 2.67379684e-03 0. 1.78253115e-03
      8.91265576e-04 0. 8.91265576e-04 1.78253115e-03 2.67379684e-03
      8.91265576e-04 0. 8.91265576e-04 1.78253115e-03 8.91265576e-04
      2.67379684e-03 6.23885915e-03 8.91265576e-04 0. 8.91265576e-04
      1.78253115e-03 0. 4.45632776e-03 2.67379684e-03 1.78253115e-03
      5.34759369e-03 1.78253115e-03 1.78253115e-03 8.91265576e-04
      2.67379684e-03 0. 8.91265576e-04 9.80392098e-03 8.91265576e-04
      1.78253115e-03 0. 8.02139007e-03 0. 3.56506230e-03 0. 0.
      2.67379684e-03 0. 8.91265576e-04 0. 8.91265576e-04 8.91265576e-04
      0. 3.56506230e-03 1.78253115e-03 2.67379684e-03 8.91265576e-04 0.
      4.45632776e-03 0. 0. 3.56506230e-03 8.02139007e-03 8.91265576e-04
      0. 1.78253115e-03 0. 1.78253115e-03 8.91265576e-04 2.67379684e-03
      8.91265552e-03 1.78253115e-03 8.91265576e-04 1.78253115e-03 0.
      8.91265576e-04 8.91265576e-04 8.91265576e-04 2.67379684e-03
      2.67379684e-03 0. 2.67379684e-03 8.91265576e-04 8.91265576e-04 0.
      8.91265576e-04 0. 8.91265576e-04 0. 0. 8.91265576e-04
      2.67379684e-03 1.78253115e-03 7.13012461e-03 0. 0. 2.67379684e-03
      2.67379684e-03 3.56506230e-03 0. 0. 0. 3.56506230e-03
      8.91265576e-04 6.23885915e-03 2.67379684e-03 1.78253115e-03
      5.34759369e-03 0. 2.67379684e-03 8.91265576e-04 7.13012461e-03 0.
      0. 2.67379684e-03 7.13012461e-03 1.78253115e-03 3.56506230e-03
      8.91265576e-04 0. 2.67379684e-03 0. 0. 8.91265576e-04
      8.91265576e-04 2.67379684e-03 2.67379684e-03 0. 1.78253115e-03
      5.34759369e-03 5.34759369e-03 8.91265576e-04 2.67379684e-03 0.
      8.91265576e-04 8.91265576e-04 4.45632776e-03 1.78253115e-03
      8.91265576e-04 5.34759369e-03 8.91265576e-04 8.91265576e-04
      8.91265576e-04 0. 4.45632776e-03 4.45632776e-03 1.78253115e-03
      8.91265552e-03 1.78253115e-03 2.67379684e-03 7.13012461e-03
      4.45632776e-03 8.91265576e-04 2.67379684e-03 1.78253115e-03
      2.67379684e-03 4.45632776e-03 2.67379684e-03 2.67379684e-03
      1.78253115e-03 2.67379684e-03 4.45632776e-03 1.78253115e-03 0.
      3.56506230e-03 1.78253115e-03 0. 8.91265576e-04 2.67379684e-03
      2.67379684e-03 3.56506230e-03 0. 2.67379684e-03 8.91265576e-04 0.
      1.78253115e-03 2.67379684e-03 1.78253115e-03 1.78253115e-03
      1.78253115e-03 8.91265576e-04 1.78253115e-03 0. 8.91265576e-04
      1.78253115e-03 8.91265576e-04 2.67379684e-03 8.91265576e-04 0. 0.
      1.78253115e-03 0. 8.91265552e-03 2.67379684e-03 2.67379684e-03
      4.45632776e-03 0. 2.67379684e-03 2.67379684e-03 1.78253115e-03
      8.91265576e-04 1.78253115e-03 0. 8.91265576e-04 8.91265576e-04
      8.91265576e-04 2.67379684e-03 2.67379684e-03 8.91265576e-04
      8.91265576e-04 3.56506230e-03 7.13012461e-03 7.13012461e-03 0.
      2.67379684e-03 0. 1.78253115e-03 8.91265552e-03 8.91265576e-04
      1.78253115e-03 8.91265576e-04 5.34759369e-03 8.91265576e-04
      1.78253115e-03 2.67379684e-03 6.23885915e-03 0. 1.78253115e-03
      8.91265576e-04 8.91265576e-04 1.78253115e-03 1.78253115e-03 0.
      1.78253115e-03 2.67379684e-03 0. 0. 1.78253115e-03 1.78253115e-03
      2.67379684e-03 0. 3.56506230e-03 0. 2.67379684e-03 0.
      7.13012461e-03 2.67379684e-03 8.91265576e-04 1.78253115e-03 0.
      8.91265576e-04 3.56506230e-03 0. 8.91265576e-04 3.56506230e-03
      8.91265576e-04 5.34759369e-03 1.78253115e-03 3.56506230e-03
      8.91265576e-04 2.67379684e-03 1.78253115e-03 0. 1.78253115e-03
      4.45632776e-03 2.67379684e-03 8.91265576e-04 1.06951874e-02
      5.34759369e-03 8.91265576e-04 0. 0. 8.91265576e-04 1.78253115e-03
      1.78253115e-03 0. 1.78253115e-03 0. 0. 1.78253115e-03
      8.91265576e-04 0. 0. 8.91265576e-04 3.56506230e-03 1.78253115e-03
      2.67379684e-03 8.91265576e-04 8.91265576e-04 0. 1.78253115e-03
      1.78253115e-03 1.78253115e-03 8.91265576e-04 1.78253115e-03
      3.56506230e-03 8.91265576e-04 1.06951874e-02 1.78253115e-03
      5.34759369e-03 1.78253115e-03 0. 8.91265576e-04 7.13012461e-03 0.
      1.78253115e-03 4.45632776e-03 1.78253115e-03 8.91265576e-04
      4.45632776e-03 1.78253115e-03 1.78253115e-03 3.56506230e-03
      1.78253115e-03 8.91265576e-04 0. 8.91265576e-04 2.67379684e-03</_>
    <_>
      2.37154146e-03 7.90513819e-04 0. 2.37154146e-03 1.58102764e-03 0.
      7.90513819e-04 2.37154146e-03 5.53359650e-03 7.90513819e-04 0.
      7.90513819e-04 7.90513866e-03 1.58102764e-03 0. 1.58102764e-03
      1.58102764e-03 7.90513819e-04 3.16205528e-03 0. 0. 7.90513819e-04
      3.16205528e-03 0. 7.11462460e-03 1.58102764e-03 0. 3.16205528e-03
      1.58102764e-03 1.58102764e-03 2.37154146e-03 3.16205528e-03
      7.90513819e-04 7.90513819e-04 1.58102764e-03 0. 7.90513819e-04
      1.58102764e-03 1.58102764e-03 3.16205528e-03 5.53359650e-03
      2.37154146e-03 3.16205528e-03 7.90513819e-04 0. 3.16205528e-03 0.
      3.16205528e-03 1.58102764e-03 7.90513819e-04 3.95256933e-03
      7.90513819e-04 1.58102764e-03 1.58102764e-03 7.90513819e-04 0. 0.
      2.37154146e-03 0. 1.58102764e-03 1.58102764e-03 1.58102764e-03
      2.37154146e-03 3.16205528e-03 1.58102764e-03 7.90513819e-04 0.
      2.37154146e-03 7.90513819e-04 3.95256933e-03 0. 3.16205528e-03 0.
      0. 0. 0. 3.95256933e-03 1.58102764e-03 7.90513819e-04
      1.58102764e-03 3.16205528e-03 7.90513819e-04 7.90513819e-04
      7.90513819e-04 0. 7.90513819e-04 7.90513819e-04 1.58102764e-03
      1.58102764e-03 3.95256933e-03 2.37154146e-03 0. 1.58102764e-03
      2.37154146e-03 4.74308291e-03 3.95256933e-03 0. 7.90513819e-04
      1.58102764e-03 4.74308291e-03 1.58102764e-03 1.58102764e-03
      7.90513819e-04 3.95256933e-03 3.95256933e-03 0. 1.58102764e-03 0.
      7.90513819e-04 3.95256933e-03 7.90513819e-04 3.16205528e-03
      7.90513819e-04 1.58102764e-03 1.58102764e-03 0. 7.90513819e-04
      2.37154146e-03 1.58102764e-03 3.16205528e-03 1.58102764e-03
      3.16205528e-03 1.58102764e-03 1.58102764e-03 4.74308291e-03
      3.95256933e-03 1.58102764e-03 2.37154146e-03 3.16205528e-03 0.
      1.58102764e-03 0. 1.58102764e-03 7.90513866e-03 2.37154146e-03
      3.95256933e-03 1.58102764e-03 7.90513819e-04 3.16205528e-03
      3.16205528e-03 3.16205528e-03 2.37154146e-03 3.16205528e-03
      2.37154146e-03 1.58102764e-03 4.74308291e-03 0. 2.37154146e-03
      7.90513819e-04 7.11462460e-03 3.16205528e-03 0. 7.90513819e-04
      7.90513819e-04 1.58102764e-03 1.58102764e-03 0. 7.90513819e-04 0.
      2.37154146e-03 2.37154146e-03 2.37154146e-03 1.58102764e-03
      3.16205528e-03 4.74308291e-03 0. 7.90513819e-04 7.90513819e-04
      7.90513819e-04 2.37154146e-03 2.37154146e-03 3.16205528e-03
      7.90513819e-04 2.37154146e-03 4.74308291e-03 0. 7.90513819e-04
      1.58102764e-03 1.58102764e-03 3.16205528e-03 3.95256933e-03
      7.90513819e-04 0. 7.90513819e-04 1.58102764e-03 3.16205528e-03
      1.58102764e-03 7.90513819e-04 7.90513819e-04 1.58102764e-03
      1.58102764e-03 1.58102764e-03 6.32411055e-03 3.16205528e-03
      1.58102764e-03 4.74308291e-03 4.74308291e-03 0. 0. 1.58102764e-03
      0. 2.37154146e-03 0. 3.16205528e-03 7.90513819e-04 0.
      2.37154146e-03 7.90513819e-04 7.90513819e-04 2.37154146e-03
      7.90513819e-04 3.16205528e-03 7.11462460e-03 2.37154146e-03
      1.58102764e-03 7.90513819e-04 3.16205528e-03 7.90513819e-04 0.
      7.90513819e-04 1.58102764e-03 2.37154146e-03 2.37154146e-03 0.
      1.58102764e-03 7.90513819e-04 0. 1.58102764e-03 7.90513819e-04
      1.58102764e-03 1.58102764e-03 3.16205528e-03 1.58102764e-03
      3.16205528e-03 1.58102764e-03 3.95256933e-03 2.37154146e-03 0. 0.
      2.37154146e-03 3.95256933e-03 7.90513819e-04 7.90513819e-04
      3.16205528e-03 7.90513819e-04 1.58102764e-03 0. 2.37154146e-03
      3.16205528e-03 3.16205528e-03 2.37154146e-03 4.74308291e-03
      7.90513819e-04 2.37154146e-03 7.90513819e-04 1.58102764e-03
      2.37154146e-03 3.95256933e-03 6.32411055e-03 7.90513819e-04
      5.53359650e-03 2.37154146e-03 0. 1.58102764e-03 3.95256933e-03
      7.90513819e-04 7.90513819e-04 2.37154146e-03 2.37154146e-03
      1.58102764e-03 7.90513819e-04 1.58102764e-03 2.37154146e-03
      2.37154146e-03 1.58102764e-03 7.90513819e-04 2.37154146e-03
      7.90513819e-04 0. 4.74308291e-03 2.37154146e-03 1.58102764e-03
      1.58102764e-03 7.90513819e-04 3.95256933e-03 7.90513819e-04
      1.58102764e-03 1.58102764e-03 2.37154146e-03 2.37154146e-03 0.
      2.37154146e-03 7.90513819e-04 7.90513819e-04 2.37154146e-03
      3.16205528e-03 3.95256933e-03 1.58102764e-03 3.16205528e-03
      7.90513819e-04 2.37154146e-03 3.95256933e-03 0. 7.90513819e-04 0.
      2.37154146e-03 7.90513819e-04 1.58102764e-03 1.58102764e-03
      5.53359650e-03 3.16205528e-03 3.16205528e-03 5.53359650e-03
      7.90513819e-04 2.37154146e-03 7.90513819e-04 0. 0. 1.58102764e-03
      2.37154146e-03 4.74308291e-03 2.37154146e-03 7.90513819e-04
      5.53359650e-03 2.37154146e-03 3.16205528e-03 0. 6.32411055e-03 0.
      0. 0. 3.95256933e-03 2.37154146e-03 6.32411055e-03 2.37154146e-03
      0. 3.16205528e-03 4.74308291e-03 0. 2.37154146e-03 0.
      3.16205528e-03 2.37154146e-03 3.16205528e-03 0. 5.53359650e-03
      1.58102764e-03 3.16205528e-03 7.90513819e-04 0. 7.90513819e-04
      1.58102764e-03 3.16205528e-03 1.58102764e-03 2.37154146e-03
      4.74308291e-03 3.16205528e-03 3.95256933e-03 1.58102764e-03
      7.90513819e-04 7.90513819e-04 7.90513819e-04 7.90513819e-04
      3.16205528e-03 1.58102764e-03 7.90513819e-04 7.90513819e-04
      3.16205528e-03 2.37154146e-03 1.58102764e-03 7.90513819e-04
      2.37154146e-03 1.58102764e-03 2.37154146e-03 2.37154146e-03
      4.74308291e-03 0. 3.16205528e-03 7.90513819e-04 1.58102764e-03
      3.16205528e-03 0. 7.90513819e-04 2.37154146e-03 3.16205528e-03
      7.90513819e-04 4.74308291e-03 2.37154146e-03 1.58102764e-03
      7.90513819e-04 7.90513819e-04 3.95256933e-03 3.16205528e-03
      3.95256933e-03 3.16205528e-03 0. 3.16205528e-03 1.58102764e-03
      3.16205528e-03 2.37154146e-03 4.74308291e-03 3.16205528e-03 0.
      1.58102764e-03 1.58102764e-03 7.90513819e-04 4.74308291e-03
      1.58102764e-03 2.37154146e-03 7.11462460e-03 3.95256933e-03
      1.58102764e-03 4.74308291e-03 7.90513819e-04 0. 7.90513819e-04
      3.95256933e-03 1.58102764e-03 3.16205528e-03 7.90513819e-04
      7.90513819e-04 1.58102764e-03 2.37154146e-03 4.74308291e-03
      1.58102764e-03 3.95256933e-03 0. 2.37154146e-03 2.37154146e-03
      3.16205528e-03 5.53359650e-03 3.16205528e-03 1.58102764e-03
      3.95256933e-03 4.74308291e-03 7.90513819e-04 0. 0. 3.95256933e-03
      3.16205528e-03 7.90513819e-04 1.58102764e-03 5.53359650e-03
      3.95256933e-03 1.58102764e-03 1.58102764e-03 7.90513819e-04
      3.16205528e-03 3.16205528e-03 3.95256933e-03 2.37154146e-03 0.
      3.95256933e-03 2.37154146e-03 3.16205528e-03 4.74308291e-03
      3.95256933e-03 3.95256933e-03 7.90513819e-04 2.37154146e-03
      2.37154146e-03 3.95256933e-03 3.16205528e-03 3.16205528e-03
      7.90513819e-04 7.90513819e-04 3.16205528e-03 2.37154146e-03
      7.90513819e-04 1.58102764e-03 1.58102764e-03 1.58102764e-03 0.
      3.16205528e-03 7.90513819e-04 7.90513819e-04 0. 0. 2.37154146e-03
      0. 7.90513819e-04 1.58102764e-03 1.58102764e-03 0. 2.37154146e-03
      5.53359650e-03 1.58102764e-03 7.90513819e-04 7.90513819e-04 0.
      3.16205528e-03 3.95256933e-03 1.58102764e-03 7.90513819e-04
      5.53359650e-03 5.53359650e-03 2.37154146e-03 2.37154146e-03
      7.90513819e-04 2.37154146e-03</_>
    <_>
      0. 0. 0. 1.97238661e-03 0. 3.94477323e-03 0. 0. 1.97238661e-03
      3.94477323e-03 0. 1.97238661e-03 1.97238661e-03 1.97238661e-03
      9.86193307e-03 0. 0. 1.97238661e-03 7.88954645e-03 0. 0.
      3.94477323e-03 5.91715984e-03 5.91715984e-03 0. 0. 0.
      1.97238661e-03 0. 3.94477323e-03 0. 0. 0. 3.94477323e-03
      3.94477323e-03 0. 0. 0. 5.91715984e-03 0. 0. 0. 1.97238661e-03
      1.97238661e-03 0. 0. 9.86193307e-03 1.97238661e-03 1.97238661e-03
      3.94477323e-03 1.97238661e-03 0. 0. 0. 3.94477323e-03 0. 0.
      1.97238661e-03 0. 1.97238661e-03 1.97238661e-03 0. 2.16962527e-02
      3.94477323e-03 0. 1.38067063e-02 0. 7.88954645e-03 1.97238661e-03
      1.97238661e-03 1.97238661e-03 0. 0. 0. 1.97238661e-03 0.
      3.94477323e-03 1.97238661e-03 7.88954645e-03 0. 1.97238661e-03
      1.97238661e-03 1.97238661e-03 0. 0. 7.88954645e-03 0.
      3.94477323e-03 3.94477323e-03 0. 7.88954645e-03 5.91715984e-03
      1.97238661e-03 0. 0. 0. 1.97238661e-03 3.94477323e-03 0.
      3.94477323e-03 1.97238661e-03 1.97238661e-03 0. 0. 1.97238661e-03
      0. 3.94477323e-03 1.97238661e-03 0. 0. 1.38067063e-02 0. 0. 0. 0.
      1.97238661e-03 0. 1.97238661e-03 0. 0. 1.97238661e-03
      1.97238661e-03 0. 0. 0. 3.94477323e-03 1.97238661e-03 0. 0.
      3.94477323e-03 0. 0. 1.97238661e-03 0. 3.94477323e-03 0.
      1.97238661e-03 1.97238661e-03 0. 0. 1.97238661e-03 1.97238661e-03
      0. 0. 0. 3.94477323e-03 2.36686394e-02 0. 0. 1.97238661e-03 0. 0.
      0. 3.94477323e-03 0. 1.97238661e-03 0. 0. 0. 0. 7.88954645e-03 0.
      0. 0. 0. 5.91715984e-03 1.97238661e-03 0. 0. 0. 1.97238661e-03
      1.97238661e-03 5.91715984e-03 0. 0. 0. 0. 0. 1.97238661e-03
      1.97238661e-03 1.97238661e-03 0. 0. 3.94477323e-03 1.97238661e-03
      1.97238661e-03 3.94477323e-03 0. 0. 3.94477323e-03 0. 0.
      1.97238661e-03 0. 3.94477323e-03 1.97238661e-03 1.97238661e-03
      1.97238661e-03 1.18343197e-02 0. 1.97238661e-03 0. 3.94477323e-03
      1.97238661e-03 1.97238661e-03 0. 0. 7.88954645e-03 5.91715984e-03
      1.97238661e-03 0. 0. 0. 0. 1.97238661e-03 3.94477323e-03
      1.97238661e-03 0. 1.97238661e-03 0. 1.97238661e-03 0. 0.
      5.91715984e-03 5.91715984e-03 0. 0. 0. 0. 1.18343197e-02
      1.97238661e-03 0. 1.97238661e-03 1.97238661e-03 3.94477323e-03 0.
      0. 1.97238661e-03 0. 1.97238661e-03 0. 7.88954645e-03 0.
      3.94477323e-03 1.97238661e-03 0. 1.38067063e-02 0. 0. 0.
      1.97238661e-03 0. 3.94477323e-03 0. 1.97238661e-03 5.91715984e-03
      1.97238661e-03 0. 1.97238661e-03 0. 0. 1.97238661e-03
      1.97238661e-03 0. 1.97238661e-03 1.97238661e-03 0. 1.97238661e-03
      3.94477323e-03 0. 0. 1.97238661e-03 0. 1.97238661e-03
      3.94477323e-03 1.97238661e-03 0. 1.97238661e-03 1.97238661e-03 0.
      1.97238661e-03 1.97238661e-03 5.91715984e-03 3.94477323e-03 0. 0.
      0. 1.97238661e-03 0. 0. 5.91715984e-03 0. 0. 7.88954645e-03
      9.86193307e-03 0. 5.91715984e-03 0. 7.88954645e-03 9.86193307e-03
      0. 1.97238661e-03 0. 0. 0. 1.97238661e-03 1.97238661e-03 0. 0. 0.
      0. 1.97238661e-03 1.97238661e-03 0. 1.97238661e-03 0.
      2.16962527e-02 0. 0. 1.97238661e-03 1.97238661e-03 0.
      7.88954645e-03 0. 3.94477323e-03 1.97238661e-03 0. 0. 0.
      3.94477323e-03 1.97238661e-03 1.18343197e-02 0. 0. 1.97238661e-03
      0. 0. 0. 0. 0. 0. 0. 0. 1.97238661e-03 0. 1.97238661e-03 0.
      3.94477323e-03 0. 1.97238661e-03 0. 0. 0. 0. 0. 0. 3.94477323e-03
      1.97238661e-03 3.94477323e-03 0. 0. 0. 0. 1.97238661e-03 0. 0. 0.
      5.91715984e-03 0. 1.97238661e-03 3.94477323e-03 1.97238661e-03
      1.97238661e-03 0. 9.86193307e-03 0. 1.97238661e-03 1.18343197e-02
      1.97238661e-03 0. 0. 3.94477323e-03 0. 0. 0. 1.38067063e-02 0. 0.
      3.94477323e-03 1.97238661e-03 0. 0. 0. 0. 1.97238661e-03 0. 0. 0.
      1.97238661e-03 1.77514795e-02 3.94477323e-03 0. 0. 3.94477323e-03
      0. 0. 0. 9.86193307e-03 0. 0. 1.97238661e-03 1.18343197e-02 0. 0.
      5.91715984e-03 0. 0. 0. 0. 1.97238661e-03 9.86193307e-03 0.
      5.91715984e-03 0. 5.91715984e-03 0. 1.97238661e-03 5.91715984e-03
      1.97238661e-03 7.88954645e-03 1.97238661e-03 3.94477323e-03
      1.97238661e-03 1.97238661e-03 1.97238661e-03 1.97238661e-03
      3.94477323e-03 0. 1.97238661e-03 0. 3.94477323e-03 5.91715984e-03
      0. 3.94477323e-03 0. 5.91715984e-03 0. 0. 9.86193307e-03
      3.94477323e-03 1.97238661e-03 5.91715984e-03 0. 0. 0. 0. 0.
      1.97238661e-02 0. 1.97238661e-03 0. 0. 0. 0. 0. 1.97238661e-03
      1.97238661e-03 0. 0. 5.91715984e-03 0. 3.94477323e-03 0. 0.
      1.97238661e-03 1.77514795e-02 0. 5.91715984e-03 0. 3.94477323e-03
      0. 0. 0. 0. 0. 3.94477323e-03 1.97238661e-03 0. 0. 0.
      5.91715984e-03 0. 3.94477323e-03 0. 0. 0. 0. 0. 1.97238661e-03 0.</_>
    <_>
      4.08496754e-03 2.45098048e-03 8.16993474e-04 5.71895437e-03
      2.45098048e-03 4.90196096e-03 0. 2.45098048e-03 2.45098048e-03
      1.63398695e-03 1.63398695e-03 4.08496754e-03 2.45098048e-03
      8.16993474e-04 2.45098048e-03 1.63398695e-03 8.16993474e-04
      4.90196096e-03 3.26797389e-03 8.16993474e-04 1.63398695e-03
      4.08496754e-03 4.08496754e-03 8.16993474e-04 4.08496754e-03
      1.63398695e-03 1.63398695e-03 1.63398695e-03 1.63398695e-03
      1.63398695e-03 8.16993474e-04 8.16993474e-04 0. 4.08496754e-03
      1.63398695e-03 4.08496754e-03 0. 8.16993474e-04 2.45098048e-03
      1.63398695e-03 0. 8.16993474e-04 1.63398695e-03 5.71895437e-03
      8.16993474e-04 4.08496754e-03 3.26797389e-03 2.45098048e-03 0.
      2.45098048e-03 2.45098048e-03 8.16993474e-04 2.45098048e-03
      2.45098048e-03 4.90196096e-03 1.63398695e-03 4.08496754e-03
      8.16993474e-04 2.45098048e-03 8.16993474e-04 2.45098048e-03 0.
      6.53594779e-03 4.08496754e-03 0. 0. 3.26797389e-03 2.45098048e-03
      8.16993474e-04 2.45098048e-03 8.16993474e-04 0. 2.45098048e-03
      1.63398695e-03 8.16993474e-04 1.63398695e-03 2.45098048e-03
      1.63398695e-03 8.16993474e-04 8.16993474e-04 1.63398695e-03 0. 0.
      2.45098048e-03 8.16993474e-04 7.35294120e-03 1.63398695e-03
      8.16993474e-04 1.63398695e-03 0. 2.45098048e-03 3.26797389e-03
      8.16993474e-04 4.08496754e-03 8.16993474e-04 2.45098048e-03 0.
      2.45098048e-03 8.16993474e-04 0. 4.08496754e-03 1.63398695e-03
      8.16993474e-04 1.63398695e-03 3.26797389e-03 0. 0. 0.
      2.45098048e-03 1.63398695e-03 4.08496754e-03 3.26797389e-03
      8.16993474e-04 4.90196096e-03 8.16993474e-04 3.26797389e-03
      8.16993474e-04 3.26797389e-03 3.26797389e-03 0. 1.63398695e-03
      8.16993474e-04 3.26797389e-03 2.45098048e-03 8.16993474e-04
      2.45098048e-03 1.63398695e-03 2.45098048e-03 0. 4.08496754e-03 0.
      0. 0. 1.63398695e-03 0. 3.26797389e-03 1.63398695e-03
      3.26797389e-03 3.26797389e-03 1.63398695e-03 3.26797389e-03
      4.08496754e-03 2.45098048e-03 5.71895437e-03 1.06209153e-02
      1.63398695e-03 0. 0. 1.63398695e-03 1.63398695e-03 8.16993474e-04
      1.63398695e-03 8.16993474e-04 1.63398695e-03 7.35294120e-03
      3.26797389e-03 1.63398695e-03 8.16993474e-04 2.45098048e-03
      8.16993474e-04 4.08496754e-03 8.16993474e-04 0. 8.16993474e-04 0.
      0. 2.45098048e-03 2.45098048e-03 2.45098048e-03 8.16993474e-04
      3.26797389e-03 2.45098048e-03 1.63398695e-03 8.16993474e-04
      8.16993474e-04 0. 4.90196096e-03 2.45098048e-03 0. 8.16993474e-04
      0. 1.63398695e-03 8.16993474e-04 3.26797389e-03 1.63398695e-03
      1.63398695e-03 8.16993474e-04 0. 1.14379087e-02 1.63398695e-03
      1.63398695e-03 5.71895437e-03 1.63398695e-03 1.63398695e-03
      1.63398695e-03 1.63398695e-03 8.16993474e-04 8.16993474e-04
      4.08496754e-03 8.16993474e-04 1.63398695e-03 2.45098048e-03 0.
      4.08496754e-03 0. 1.63398695e-03 2.45098048e-03 8.16993474e-04
      2.45098048e-03 8.16993508e-03 8.16993474e-04 0. 8.16993474e-04 0.
      0. 2.45098048e-03 0. 2.45098048e-03 8.16993474e-04 8.16993474e-04
      3.26797389e-03 8.16993474e-04 0. 3.26797389e-03 0. 8.16993474e-04
      0. 2.45098048e-03 0. 8.16993474e-04 3.26797389e-03 8.16993474e-04
      4.90196096e-03 3.26797389e-03 4.08496754e-03 4.08496754e-03 0.
      3.26797389e-03 1.63398695e-03 8.16993474e-04 2.45098048e-03
      8.16993474e-04 0. 3.26797389e-03 3.26797389e-03 1.63398695e-03 0.
      0. 2.45098048e-03 5.71895437e-03 4.90196096e-03 1.63398695e-03
      2.45098048e-03 1.63398695e-03 1.63398695e-03 8.16993474e-04
      3.26797389e-03 0. 2.45098048e-03 0. 3.26797389e-03 3.26797389e-03
      1.63398695e-03 8.16993474e-04 1.63398695e-03 2.45098048e-03 0.
      8.16993474e-04 8.16993474e-04 0. 1.63398695e-03 3.26797389e-03
      1.63398695e-03 8.16993474e-04 8.16993474e-04 0. 3.26797389e-03
      1.63398695e-03 1.63398695e-03 3.26797389e-03 0. 0. 8.16993474e-04
      1.63398695e-03 0. 2.45098048e-03 2.45098048e-03 8.16993474e-04
      2.45098048e-03 4.90196096e-03 4.90196096e-03 4.08496754e-03
      1.63398695e-03 2.45098048e-03 4.90196096e-03 1.63398695e-03
      8.16993474e-04 8.16993474e-04 1.63398695e-03 4.90196096e-03
      2.45098048e-03 3.26797389e-03 1.63398695e-03 1.63398695e-03
      4.90196096e-03 0. 2.45098048e-03 0. 8.16993474e-04 0.
      8.16993474e-04 8.16993474e-04 8.16993474e-04 0. 0. 2.45098048e-03
      8.16993474e-04 0. 1.63398695e-03 0. 7.35294120e-03 2.45098048e-03
      8.16993474e-04 4.08496754e-03 8.98692850e-03 8.16993474e-04
      8.16993474e-04 0. 1.63398695e-03 4.08496754e-03 2.45098048e-03 0.
      7.35294120e-03 1.63398695e-03 8.16993474e-04 0. 0. 7.35294120e-03
      8.16993474e-04 2.45098048e-03 0. 8.16993474e-04 8.16993474e-04
      1.63398695e-03 1.63398695e-03 2.45098048e-03 3.26797389e-03
      1.63398695e-03 1.63398695e-03 0. 8.16993474e-04 8.16993474e-04
      1.63398695e-03 2.45098048e-03 8.16993508e-03 1.63398695e-03 0.
      1.63398695e-03 8.16993508e-03 4.08496754e-03 1.63398695e-03
      8.16993474e-04 8.16993474e-04 3.26797389e-03 4.08496754e-03
      1.63398695e-03 3.26797389e-03 5.71895437e-03 8.16993474e-04
      1.63398695e-03 0. 3.26797389e-03 1.63398695e-03 0. 3.26797389e-03
      1.63398695e-03 2.45098048e-03 8.16993474e-04 1.63398695e-03
      2.45098048e-03 1.63398695e-03 0. 2.45098048e-03 0. 2.45098048e-03
      8.16993474e-04 2.45098048e-03 0. 1.63398695e-03 2.45098048e-03
      1.63398695e-03 1.63398695e-03 1.63398695e-03 5.71895437e-03
      2.45098048e-03 0. 2.45098048e-03 8.16993474e-04 2.45098048e-03
      8.16993508e-03 2.45098048e-03 3.26797389e-03 8.16993474e-04
      4.90196096e-03 1.63398695e-03 2.45098048e-03 3.26797389e-03
      2.45098048e-03 1.63398695e-03 8.16993474e-04 1.63398695e-03
      4.08496754e-03 2.45098048e-03 3.26797389e-03 8.16993474e-04
      8.16993474e-04 0. 2.45098048e-03 8.16993474e-04 0. 4.08496754e-03
      8.16993474e-04 8.16993474e-04 8.16993474e-04 1.63398695e-03
      3.26797389e-03 1.63398695e-03 1.63398695e-03 1.63398695e-03
      8.16993474e-04 5.71895437e-03 8.16993474e-04 2.45098048e-03
      4.08496754e-03 8.16993474e-04 7.35294120e-03 3.26797389e-03
      8.16993474e-04 1.63398695e-03 8.16993474e-04 4.08496754e-03
      1.63398695e-03 1.63398695e-03 1.63398695e-03 3.26797389e-03
      2.45098048e-03 1.63398695e-03 2.45098048e-03 8.16993474e-04
      6.53594779e-03 3.26797389e-03 0. 2.45098048e-03 8.16993474e-04
      2.45098048e-03 1.63398695e-03 0. 1.63398695e-03 1.63398695e-03
      1.63398695e-03 0. 0. 8.16993474e-04 8.16993474e-04 1.63398695e-03
      1.63398695e-03 8.16993474e-04 1.63398695e-03 3.26797389e-03 0.
      2.45098048e-03 8.16993474e-04 8.16993474e-04 8.16993474e-04
      2.45098048e-03 0. 8.16993474e-04 2.45098048e-03 1.63398695e-03
      2.45098048e-03 0. 2.45098048e-03 8.16993474e-04 2.45098048e-03
      4.90196096e-03 4.90196096e-03 1.87908504e-02 3.26797389e-03
      1.63398695e-03 8.16993474e-04 4.08496754e-03 8.16993474e-04 0.
      8.16993474e-04 1.63398695e-03 4.08496754e-03 2.45098048e-03
      8.16993474e-04 2.45098048e-03 8.16993474e-04</_>
    <_>
      1.81818183e-03 2.27272720e-03 4.54545458e-04 3.63636366e-03
      4.54545458e-04 1.36363634e-03 1.36363634e-03 2.27272720e-03
      1.81818183e-03 1.81818183e-03 2.27272720e-03 4.54545458e-04
      1.36363634e-03 2.27272720e-03 0. 9.09090915e-04 1.81818183e-03
      3.63636366e-03 1.36363634e-03 1.36363634e-03 4.54545458e-04
      1.81818183e-03 2.72727269e-03 1.81818183e-03 2.27272720e-03
      2.72727269e-03 1.81818183e-03 2.72727269e-03 1.36363634e-03
      1.36363634e-03 4.54545440e-03 4.54545458e-04 0. 1.36363634e-03
      2.27272720e-03 1.36363634e-03 1.81818183e-03 1.36363634e-03
      3.18181817e-03 3.18181817e-03 3.18181817e-03 9.09090915e-04
      4.54545458e-04 3.18181817e-03 4.54545458e-04 4.54545440e-03
      9.09090915e-04 1.81818183e-03 4.54545440e-03 1.36363634e-03
      1.81818183e-03 1.36363634e-03 2.27272720e-03 1.81818183e-03
      2.72727269e-03 1.81818183e-03 1.81818183e-03 1.81818183e-03
      2.27272720e-03 4.54545458e-04 1.81818183e-03 1.81818183e-03
      4.54545440e-03 2.27272720e-03 1.36363634e-03 9.09090915e-04
      2.72727269e-03 4.54545458e-04 2.72727269e-03 1.81818183e-03
      1.36363634e-03 1.36363634e-03 4.54545458e-04 1.81818183e-03
      1.81818183e-03 4.54545458e-04 1.36363634e-03 4.54545458e-04
      9.09090915e-04 0. 1.36363634e-03 2.72727269e-03 2.27272720e-03 0.
      4.54545458e-04 5.45454537e-03 3.63636366e-03 0. 1.36363634e-03
      2.27272720e-03 2.72727269e-03 1.81818183e-03 4.54545458e-04
      4.54545440e-03 9.09090915e-04 1.81818183e-03 9.09090915e-04
      9.09090915e-04 2.27272720e-03 4.54545458e-04 1.36363634e-03
      9.09090915e-04 9.09090915e-04 9.09090915e-04 2.27272720e-03
      9.09090915e-04 0. 2.27272720e-03 1.36363634e-03 9.09090915e-04
      9.09090915e-04 3.63636366e-03 9.09090915e-04 4.54545440e-03
      1.81818183e-03 1.81818183e-03 3.63636366e-03 2.72727269e-03
      4.54545458e-04 1.36363634e-03 3.18181817e-03 1.36363634e-03
      1.81818183e-03 1.36363634e-03 1.81818183e-03 3.63636366e-03
      2.27272720e-03 4.54545440e-03 2.72727269e-03 2.72727269e-03
      1.81818183e-03 4.54545458e-04 2.27272720e-03 1.81818183e-03
      2.72727269e-03 1.36363634e-03 1.81818183e-03 3.18181817e-03
      1.36363634e-03 1.36363634e-03 1.81818183e-03 1.36363634e-03
      3.18181817e-03 9.09090915e-04 1.36363634e-03 1.81818183e-03
      9.09090915e-04 9.09090915e-04 2.27272720e-03 3.18181817e-03
      9.09090915e-04 2.27272720e-03 2.27272720e-03 1.36363634e-03
      9.09090915e-04 1.36363634e-03 1.81818183e-03 2.27272720e-03
      9.09090915e-04 9.09090915e-04 3.63636366e-03 9.09090915e-04
      4.54545458e-04 1.81818183e-03 2.27272720e-03 9.09090915e-04
      1.81818183e-03 9.09090915e-04 3.18181817e-03 2.72727269e-03
      1.36363634e-03 2.72727269e-03 9.09090915e-04 3.18181817e-03
      9.09090915e-04 0. 1.36363634e-03 9.09090915e-04 3.18181817e-03
      1.81818183e-03 1.36363634e-03 1.81818183e-03 3.18181817e-03
      4.54545458e-04 2.72727269e-03 9.09090915e-04 1.36363634e-03 0.
      4.54545440e-03 2.72727269e-03 1.81818183e-03 2.27272720e-03
      2.72727269e-03 1.81818183e-03 4.54545440e-03 1.81818183e-03
      2.72727269e-03 4.54545458e-04 4.09090891e-03 2.27272720e-03
      4.54545458e-04 2.72727269e-03 3.18181817e-03 4.09090891e-03
      2.72727269e-03 4.54545458e-04 2.72727269e-03 4.54545458e-04
      1.81818183e-03 5.45454537e-03 3.63636366e-03 2.72727269e-03
      1.36363634e-03 3.63636366e-03 2.72727269e-03 2.27272720e-03
      3.63636366e-03 1.36363634e-03 4.54545458e-04 1.36363634e-03
      2.72727269e-03 2.72727269e-03 4.54545458e-04 4.09090891e-03
      4.54545458e-04 9.09090915e-04 0. 9.09090915e-04 3.18181817e-03
      9.09090915e-04 2.27272720e-03 4.54545458e-04 2.72727269e-03
      1.81818183e-03 4.09090891e-03 3.63636366e-03 4.54545458e-04
      1.36363634e-03 1.36363634e-03 1.81818183e-03 3.63636366e-03
      9.09090915e-04 4.54545458e-04 4.54545440e-03 4.54545458e-04
      4.54545458e-04 0. 9.09090915e-04 4.54545458e-04 2.72727269e-03
      4.09090891e-03 4.09090891e-03 2.72727269e-03 2.72727269e-03
      1.81818183e-03 1.36363634e-03 1.81818183e-03 2.27272720e-03
      1.36363634e-03 9.09090915e-04 9.09090915e-04 5.90909086e-03 0.
      1.36363634e-03 1.81818183e-03 9.09090915e-04 2.27272720e-03
      1.36363634e-03 2.27272720e-03 1.36363634e-03 4.54545458e-04
      1.81818183e-03 2.72727269e-03 1.36363634e-03 9.09090915e-04
      1.81818183e-03 3.18181817e-03 1.81818183e-03 9.09090915e-04
      1.81818183e-03 1.36363634e-03 9.09090915e-04 9.09090915e-04
      1.36363634e-03 3.63636366e-03 1.36363634e-03 3.18181817e-03
      1.81818183e-03 3.18181817e-03 1.36363634e-03 4.54545458e-04
      3.63636366e-03 2.27272720e-03 3.18181817e-03 4.54545440e-03
      2.27272720e-03 2.27272720e-03 1.36363634e-03 7.27272732e-03
      4.54545440e-03 2.72727269e-03 1.36363634e-03 3.18181817e-03
      9.09090915e-04 1.36363634e-03 2.72727269e-03 1.36363634e-03
      1.36363634e-03 1.81818183e-03 1.81818183e-03 9.09090915e-04
      2.27272720e-03 1.81818183e-03 3.63636366e-03 2.72727269e-03
      1.81818183e-03 2.72727269e-03 3.18181817e-03 1.81818183e-03
      3.18181817e-03 3.63636366e-03 1.36363634e-03 9.09090915e-04
      4.54545458e-04 1.81818183e-03 1.36363634e-03 1.81818183e-03
      1.36363634e-03 9.09090915e-04 2.72727269e-03 4.09090891e-03
      2.27272720e-03 7.27272732e-03 1.36363634e-03 3.18181817e-03
      4.09090891e-03 2.27272720e-03 9.09090915e-04 4.09090891e-03
      2.27272720e-03 0. 1.36363634e-03 9.09090915e-04 4.09090891e-03
      1.36363634e-03 0. 4.54545458e-04 2.27272720e-03 9.09090915e-04
      3.18181817e-03 3.18181817e-03 3.63636366e-03 3.18181817e-03
      1.36363634e-03 3.63636366e-03 2.72727269e-03 9.09090915e-04
      4.09090891e-03 2.72727269e-03 4.54545458e-04 2.27272720e-03
      2.27272720e-03 9.09090915e-04 2.72727269e-03 3.63636366e-03
      4.99999989e-03 2.72727269e-03 2.72727269e-03 3.18181817e-03
      1.36363634e-03 4.54545458e-04 3.18181817e-03 2.72727269e-03
      1.36363634e-03 2.27272720e-03 1.36363634e-03 1.81818183e-03
      1.36363634e-03 1.36363634e-03 1.36363634e-03 2.27272720e-03
      3.18181817e-03 1.36363634e-03 1.36363634e-03 2.27272720e-03
      3.63636366e-03 1.36363634e-03 9.09090915e-04 2.72727269e-03
      1.81818183e-03 9.09090915e-04 9.09090915e-04 2.72727269e-03
      2.27272720e-03 3.18181817e-03 0. 2.27272720e-03 1.81818183e-03
      2.27272720e-03 3.63636366e-03 1.81818183e-03 4.09090891e-03
      4.54545458e-04 2.27272720e-03 1.36363634e-03 1.36363634e-03
      4.54545440e-03 3.18181817e-03 3.63636366e-03 4.54545440e-03
      1.36363634e-03 9.09090915e-04 9.09090915e-04 2.27272720e-03
      4.54545458e-04 1.36363634e-03 1.81818183e-03 0. 1.36363634e-03
      1.81818183e-03 9.09090915e-04 1.81818183e-03 0. 9.09090915e-04 0.
      4.99999989e-03 4.09090891e-03 3.63636366e-03 2.27272720e-03
      4.54545458e-04 2.27272720e-03 4.54545458e-04 2.72727269e-03
      3.18181817e-03 2.27272720e-03 2.72727269e-03 3.18181817e-03
      2.72727269e-03 2.72727269e-03 1.36363634e-03 4.09090891e-03
      1.36363634e-03 1.36363634e-03 9.09090915e-04 3.18181817e-03
      1.36363634e-03 9.09090915e-04 1.81818183e-03 1.36363634e-03
      4.99999989e-03 2.27272720e-03 2.27272720e-03 1.81818183e-03
      1.81818183e-03 3.63636366e-03 9.09090915e-04 1.36363634e-03
      9.09090915e-04 2.72727269e-03 4.09090891e-03 9.09090915e-04
      2.27272720e-03 3.18181817e-03 1.81818183e-03 9.09090915e-04
      2.27272720e-03 1.81818183e-03 2.27272720e-03 3.63636366e-03
      2.72727269e-03 9.09090915e-04 9.09090915e-04 0. 1.36363634e-03
      9.09090915e-04 9.09090915e-04 1.36363634e-03 1.36363634e-03
      2.27272720e-03 4.09090891e-03 0. 3.63636366e-03 4.54545458e-04
      4.54545458e-04 1.36363634e-03 9.09090915e-04 1.18181817e-02
      3.18181817e-03 3.63636366e-03 9.09090915e-04 4.54545458e-04
      4.09090891e-03 4.09090891e-03 2.27272720e-03 3.18181817e-03
      4.09090891e-03 0. 4.54545458e-04 9.09090915e-04 2.72727269e-03</_>
    <_>
      7.94912595e-03 0. 0. 6.35930058e-03 0. 3.17965029e-03 0. 0.
      4.76947520e-03 3.17965029e-03 1.58982514e-03 0. 0. 4.76947520e-03
      4.76947520e-03 6.35930058e-03 0. 4.76947520e-03 1.58982514e-03
      3.17965029e-03 1.58982514e-03 3.17965029e-03 3.17965029e-03 0.
      3.17965029e-03 0. 0. 0. 0. 3.17965029e-03 4.76947520e-03 0. 0. 0.
      1.58982514e-03 1.58982514e-03 6.35930058e-03 4.76947520e-03 0.
      4.76947520e-03 4.76947520e-03 0. 0. 1.58982514e-03 0.
      1.58982514e-03 1.58982514e-03 0. 4.76947520e-03 0. 0.
      6.35930058e-03 0. 1.58982514e-03 6.35930058e-03 1.58982514e-03 0.
      0. 1.58982514e-03 3.17965029e-03 0. 0. 0. 3.17965029e-03 0. 0.
      1.58982514e-03 1.58982514e-03 0. 1.58982514e-03 1.58982514e-03 0.
      0. 0. 4.76947520e-03 1.58982514e-03 1.58982514e-03 3.17965029e-03
      0. 7.94912595e-03 0. 0. 1.58982514e-03 0. 0. 6.35930058e-03 0.
      1.58982514e-03 0. 1.58982514e-03 1.58982514e-03 3.17965029e-03 0.
      6.35930058e-03 0. 3.17965029e-03 0. 1.58982514e-03 1.58982514e-03
      1.58982514e-03 3.17965029e-03 0. 1.58982514e-03 0. 0.
      4.76947520e-03 1.58982514e-03 0. 1.58982514e-03 1.58982514e-03
      1.58982514e-03 3.17965029e-03 1.58982514e-03 3.17965029e-03
      1.58982514e-03 1.58982514e-03 4.76947520e-03 0. 1.58982514e-03 0.
      0. 0. 4.76947520e-03 7.94912595e-03 0. 0. 7.94912595e-03
      4.76947520e-03 0. 4.76947520e-03 0. 0. 0. 3.17965029e-03 0.
      1.11287758e-02 1.58982514e-03 0. 3.17965029e-03 0. 0.
      4.76947520e-03 1.58982514e-03 1.58982514e-03 0. 0. 6.35930058e-03
      1.58982514e-03 0. 0. 0. 0. 1.58982514e-03 4.76947520e-03
      1.58982514e-03 2.06677262e-02 1.58982514e-03 1.58982514e-03
      3.17965029e-03 1.58982514e-03 1.58982514e-03 4.76947520e-03 0. 0.
      1.58982514e-03 0. 1.58982514e-03 1.58982514e-03 0. 0.
      4.76947520e-03 1.58982514e-03 1.58982514e-03 0. 1.58982514e-03 0.
      1.58982514e-03 0. 0. 1.58982514e-03 1.58982514e-03 3.17965029e-03
      0. 4.76947520e-03 0. 0. 1.58982514e-03 3.17965029e-03
      1.58982514e-03 3.17965029e-03 3.17965029e-03 1.58982514e-03
      4.76947520e-03 1.58982514e-03 1.58982514e-03 0. 1.58982514e-03 0.
      1.11287758e-02 6.35930058e-03 0. 4.76947520e-03 1.58982514e-03
      3.17965029e-03 0. 1.58982514e-03 0. 3.17965029e-03 0.
      1.58982514e-03 1.58982514e-03 1.58982514e-03 1.58982514e-03
      1.58982514e-03 0. 0. 3.17965029e-03 1.58982514e-03 1.58982514e-03
      6.35930058e-03 6.35930058e-03 0. 1.58982514e-03 3.17965029e-03 0.
      0. 7.94912595e-03 1.58982514e-03 1.58982514e-03 1.58982514e-03
      1.58982514e-03 3.17965029e-03 1.58982514e-03 3.17965029e-03
      3.17965029e-03 3.17965029e-03 0. 4.76947520e-03 4.76947520e-03
      1.58982514e-03 4.76947520e-03 1.58982514e-03 0. 3.17965029e-03 0.
      0. 0. 4.76947520e-03 0. 1.58982514e-03 9.53895040e-03 0. 0.
      1.58982514e-03 3.17965029e-03 3.17965029e-03 1.58982514e-03 0.
      3.17965029e-03 1.58982514e-03 0. 3.17965029e-03 0. 0. 0. 0.
      6.35930058e-03 1.58982514e-03 0. 0. 6.35930058e-03 3.17965029e-03
      0. 1.58982514e-03 4.76947520e-03 0. 3.17965029e-03 1.58982514e-03
      1.58982514e-03 3.17965029e-03 0. 0. 0. 0. 3.17965029e-03
      3.17965029e-03 4.76947520e-03 4.76947520e-03 0. 3.17965029e-03
      9.53895040e-03 0. 0. 6.35930058e-03 1.58982514e-03 1.58982514e-03
      0. 3.17965029e-03 1.58982514e-03 4.76947520e-03 4.76947520e-03
      9.53895040e-03 0. 0. 1.58982514e-03 1.58982514e-03 0.
      3.17965029e-03 1.58982514e-03 7.94912595e-03 1.58982514e-03 0.
      1.58982514e-03 0. 4.76947520e-03 0. 1.58982514e-03 0.
      3.17965029e-03 1.58982514e-03 7.94912595e-03 1.27186012e-02
      4.76947520e-03 0. 0. 0. 0. 3.17965029e-03 0. 1.58982514e-03
      4.76947520e-03 3.17965029e-03 4.76947520e-03 1.58982514e-03 0.
      1.58982514e-03 0. 0. 0. 0. 1.58982514e-03 1.58982514e-03 0.
      1.58982514e-03 0. 1.58982514e-03 3.17965029e-03 3.17965029e-03 0.
      6.35930058e-03 3.17965029e-03 3.17965029e-03 0. 0. 0. 0. 0. 0.
      3.17965029e-03 0. 1.58982514e-03 3.17965029e-03 1.58982514e-03 0.
      0. 1.58982514e-03 3.17965029e-03 0. 3.17965029e-03 0.
      1.58982514e-03 0. 0. 0. 0. 1.58982514e-03 1.58982514e-03
      6.35930058e-03 1.58982514e-03 3.17965029e-03 0. 0. 1.58982514e-03
      0. 1.58982514e-03 3.17965029e-03 0. 0. 3.17965029e-03
      3.17965029e-03 0. 0. 0. 9.53895040e-03 4.76947520e-03 0.
      1.58982514e-03 1.58982514e-03 1.58982514e-03 4.76947520e-03
      3.17965029e-03 1.58982514e-03 0. 0. 6.35930058e-03 3.17965029e-03
      0. 0. 4.76947520e-03 1.58982514e-03 0. 1.58982514e-03
      7.94912595e-03 1.58982514e-03 1.58982514e-03 0. 0. 1.58982514e-03
      3.17965029e-03 0. 4.76947520e-03 1.58982514e-03 0. 1.58982514e-03
      0. 0. 0. 1.58982514e-03 0. 1.58982514e-03 1.58982514e-03
      1.58982514e-03 0. 1.58982514e-03 1.58982514e-03 1.58982514e-03 0.
      1.58982514e-03 1.58982514e-03 1.58982514e-03 9.53895040e-03
      1.58982514e-03 0. 4.76947520e-03 1.58982514e-03 0. 3.17965029e-03
      1.58982514e-03 4.76947520e-03 4.76947520e-03 4.76947520e-03 0. 0.
      0. 0. 0. 0. 9.53895040e-03 1.58982514e-03 1.58982514e-03
      1.58982514e-03 0. 6.35930058e-03 0. 3.17965029e-03 1.58982514e-03
      0. 7.94912595e-03 1.58982514e-03 1.58982514e-03 0. 3.17965029e-03
      1.58982514e-03 1.58982514e-03 0. 0. 0. 1.58982514e-03 0. 0.
      3.17965029e-03 1.58982514e-03 3.17965029e-03 0. 1.58982514e-03
      6.35930058e-03 7.94912595e-03 1.58982519e-02 0. 4.76947520e-03 0.
      3.17965029e-03 3.17965029e-03 3.17965029e-03 0. 3.17965029e-03
      1.58982514e-03 3.17965029e-03 1.58982514e-03 3.17965029e-03</_>
    <_>
      2.42214534e-03 2.07612454e-03 6.92041533e-04 3.11418693e-03
      1.38408307e-03 0. 2.42214534e-03 1.38408307e-03 1.38408307e-03
      2.42214534e-03 2.76816613e-03 1.73010386e-03 1.03806227e-03
      2.42214534e-03 2.42214534e-03 1.38408307e-03 6.92041533e-04
      1.38408307e-03 2.42214534e-03 1.38408307e-03 3.46020766e-04
      3.46020766e-04 3.46020772e-03 2.07612454e-03 6.92041533e-04
      1.03806227e-03 4.49826987e-03 3.11418693e-03 6.92041533e-04
      3.46020766e-04 0. 3.46020772e-03 6.92041533e-04 3.11418693e-03
      1.73010386e-03 1.73010386e-03 1.38408307e-03 2.42214534e-03
      1.38408307e-03 1.73010386e-03 3.46020766e-04 2.07612454e-03
      1.38408307e-03 3.46020766e-04 2.07612454e-03 3.46020772e-03
      1.03806227e-03 6.92041533e-04 1.03806227e-03 1.73010386e-03
      1.73010386e-03 3.11418693e-03 1.03806227e-03 1.73010386e-03
      2.07612454e-03 6.92041533e-04 6.92041533e-04 2.07612454e-03
      6.92041533e-04 2.07612454e-03 1.03806227e-03 2.07612454e-03
      1.73010386e-03 1.73010386e-03 1.73010386e-03 3.46020766e-04
      1.38408307e-03 1.03806227e-03 6.92041533e-04 1.03806227e-03
      2.07612454e-03 1.03806227e-03 1.03806227e-03 1.73010386e-03
      1.03806227e-03 2.42214534e-03 6.92041533e-04 1.73010386e-03
      2.07612454e-03 6.92041533e-04 1.38408307e-03 2.76816613e-03
      1.73010386e-03 3.46020766e-04 3.11418693e-03 6.92041533e-04
      3.46020766e-04 6.92041533e-04 6.92041533e-04 3.46020766e-04
      1.03806227e-03 6.92041533e-04 1.03806227e-03 2.76816613e-03
      1.73010386e-03 1.38408307e-03 1.73010386e-03 1.38408307e-03
      1.38408307e-03 6.92041533e-04 1.73010386e-03 2.76816613e-03
      1.38408307e-03 3.46020766e-04 2.07612454e-03 2.07612454e-03
      2.07612454e-03 6.92041533e-04 3.46020766e-04 1.73010386e-03
      6.92041533e-04 1.03806227e-03 1.38408307e-03 3.80622852e-03
      1.73010386e-03 1.38408307e-03 2.07612454e-03 1.03806227e-03
      3.46020766e-04 1.03806227e-03 1.03806227e-03 5.19031147e-03
      2.42214534e-03 1.38408307e-03 1.03806227e-03 1.03806227e-03
      1.38408307e-03 6.92041533e-04 1.73010386e-03 1.38408307e-03
      1.03806227e-03 1.73010386e-03 2.07612454e-03 2.76816613e-03
      2.07612454e-03 2.07612454e-03 1.38408307e-03 3.46020772e-03
      3.46020766e-04 0. 6.92041533e-04 6.92041533e-04 0. 1.03806227e-03
      1.03806227e-03 1.38408307e-03 6.92041533e-04 1.38408307e-03
      1.38408307e-03 1.03806227e-03 1.03806227e-03 1.38408307e-03
      2.42214534e-03 6.92041533e-04 4.15224908e-03 1.03806227e-03
      1.38408307e-03 0. 1.38408307e-03 2.42214534e-03 2.42214534e-03
      6.92041533e-04 1.03806227e-03 1.38408307e-03 2.42214534e-03 0.
      3.46020766e-04 1.38408307e-03 1.03806227e-03 1.03806227e-03
      1.38408307e-03 6.92041533e-04 3.46020766e-04 3.46020766e-04
      1.03806227e-03 9.72318351e-02 1.38408307e-03 6.92041533e-04
      2.42214534e-03 1.73010386e-03 1.03806227e-03 3.46020766e-04
      3.46020772e-03 6.92041533e-04 1.03806227e-03 2.76816613e-03
      3.46020766e-04 3.46020766e-04 1.03806227e-03 1.38408307e-03
      6.92041533e-04 1.03806227e-03 2.42214534e-03 6.92041533e-04
      1.03806227e-03 1.73010386e-03 1.03806227e-03 3.46020766e-04
      1.03806227e-03 2.42214534e-03 6.92041533e-04 2.07612454e-03
      2.76816613e-03 2.07612454e-03 3.46020766e-04 2.07612454e-03
      2.07612454e-03 1.38408307e-03 3.46020766e-04 1.03806227e-03
      1.73010386e-03 6.92041533e-04 1.03806227e-03 6.92041533e-04
      1.38408307e-03 1.03806227e-03 0. 6.92041533e-04 2.07612454e-03
      1.38408307e-03 1.38408307e-03 2.07612454e-03 2.76816613e-03
      1.73010386e-03 1.03806227e-03 1.03806227e-03 3.46020772e-03
      2.07612454e-03 6.92041533e-04 1.38408307e-03 3.11418693e-03
      3.46020766e-04 3.80622852e-03 2.07612454e-03 1.38408307e-03
      6.92041533e-04 2.42214534e-03 3.46020772e-03 2.76816613e-03
      3.80622852e-03 2.42214534e-03 3.11418693e-03 3.46020766e-04
      6.92041533e-04 3.46020766e-04 1.73010386e-03 1.65051907e-01
      1.38408307e-03 2.76816613e-03 1.38408307e-03 6.92041533e-04
      1.03806227e-03 1.03806227e-03 2.07612454e-03 1.03806227e-03
      1.38408307e-03 6.92041533e-04 3.46020772e-03 6.92041533e-04
      6.92041533e-04 3.46020766e-04 1.38408307e-03 4.84429067e-03
      1.03806227e-03 2.42214534e-03 1.03806227e-03 1.73010386e-03
      6.92041533e-04 3.46020766e-04 1.73010386e-03 1.03806227e-03
      1.38408307e-03 1.03806227e-03 6.92041533e-04 1.03806227e-03
      1.73010386e-03 2.07612454e-03 1.03806227e-03 1.03806227e-03
      6.92041533e-04 3.46020766e-04 1.38408307e-03 1.73010386e-03
      1.38408307e-03 1.03806227e-03 6.92041533e-04 1.03806227e-03
      1.38408307e-03 0. 1.38408307e-03 6.92041533e-04 1.73010386e-03
      3.46020766e-04 6.92041533e-04 6.92041533e-04 1.38408307e-03
      6.92041533e-04 1.38408307e-03 1.73010386e-03 2.07612454e-03
      6.92041533e-04 1.73010386e-03 1.03806227e-03 2.42214534e-03
      3.80622852e-03 2.07612454e-03 1.38408307e-03 2.07612454e-03
      2.42214534e-03 1.73010386e-03 1.03806227e-03 2.76816613e-03
      2.07612454e-03 6.92041533e-04 0. 1.03806227e-03 1.38408307e-03
      3.46020766e-04 1.38408307e-03 3.46020766e-04 3.11418693e-03
      1.03806227e-03 1.38408307e-03 6.92041533e-04 3.46020766e-04
      3.11418693e-03 6.92041533e-04 3.46020766e-04 3.11418693e-03 0.
      1.03806227e-03 1.03806227e-03 4.15224908e-03 1.03806227e-03
      1.03806227e-03 1.03806227e-03 1.03806227e-03 3.46020766e-04
      6.92041533e-04 1.03806227e-03 1.38408307e-03 1.73010386e-03
      6.92041533e-04 6.92041533e-04 1.73010386e-03 2.07612454e-03 0.
      3.46020766e-04 0. 1.38408307e-03 2.76816613e-03 6.92041533e-04
      1.38408307e-03 1.38408307e-03 1.73010386e-03 1.73010386e-03
      1.38408307e-03 1.38408307e-03 6.92041533e-04 1.38408307e-03
      1.73010386e-03 1.73010386e-03 2.76816613e-03 6.92041533e-04
      2.07612454e-03 2.07612454e-03 3.46020766e-04 3.46020772e-03
      6.92041533e-04 1.73010386e-03 1.38408307e-03 1.38408307e-03
      6.92041533e-04 3.11418693e-03 1.73010386e-03 1.03806227e-03
      1.73010386e-03 1.73010386e-03 1.38408307e-03 6.92041533e-04
      1.73010386e-03 2.07612454e-03 1.73010386e-03 1.38408307e-03
      1.03806227e-03 1.03806227e-03 1.73010386e-03 6.92041533e-04
      1.73010386e-03 2.42214534e-03 2.42214534e-03 1.38408307e-03
      1.38408307e-03 1.03806227e-03 2.07612454e-03 2.76816613e-03
      2.07612454e-03 6.92041533e-04 1.73010386e-03 1.38408307e-03
      1.38408307e-03 6.92041533e-04 3.11418693e-03 1.38408307e-03
      2.76816613e-03 1.03806227e-03 2.07612454e-03 6.92041533e-04
      6.92041533e-04 6.92041533e-04 3.46020766e-04 4.49826987e-03
      6.92041533e-04 1.73010386e-03 1.73010386e-03 1.38408307e-03 0.
      6.92041533e-04 2.42214534e-03 1.73010386e-03 5.53633226e-03
      6.92041533e-04 3.46020766e-04 1.73010386e-03 1.38408307e-03
      1.03806227e-03 2.07612454e-03 2.07612454e-03 2.07612454e-03
      2.07612454e-03 1.38408307e-03 2.42214534e-03 6.92041533e-04
      2.07612454e-03 1.03806227e-03 6.92041533e-04 2.07612454e-03
      1.38408307e-03 2.07612454e-03 1.03806227e-03 0. 3.46020766e-04
      1.03806227e-03 1.73010386e-03 1.03806227e-03 1.03806227e-03
      1.38408307e-03 6.92041533e-04 1.38408307e-03 2.42214534e-03
      1.73010386e-03 3.80622852e-03 4.49826987e-03 1.03806227e-03
      6.92041533e-04 1.73010386e-03 2.42214534e-03 6.92041533e-04
      1.38408307e-03 1.38408307e-03 1.73010386e-03 2.07612454e-03
      1.38408307e-03 0. 1.73010386e-03 1.73010386e-03 2.07612454e-03
      2.07612454e-03 1.73010386e-03 1.03806227e-03 2.07612454e-03
      2.07612454e-03 1.03806227e-03 3.11418693e-03 6.92041533e-04
      6.22837385e-03 3.46020766e-04 1.03806227e-03 1.03806227e-03 0.
      1.38408307e-03 1.03806227e-03 3.46020772e-03 1.73010386e-03
      1.03806227e-03 3.46020766e-04 2.07612454e-03 1.03806227e-03
      2.76816613e-03 1.03806227e-03 2.42214534e-03 1.38408307e-03
      1.38408307e-03 1.03806227e-03 6.92041533e-04 1.38408307e-03
      1.38408307e-03 1.73010386e-03 3.80622852e-03 1.38408307e-03</_>
    <_>
      3.87596898e-03 1.29198970e-03 5.16795879e-03 7.75193796e-03 0.
      2.58397940e-03 3.87596898e-03 0. 0. 0. 1.29198970e-03 0.
      1.29198970e-03 1.29198970e-03 2.58397940e-03 0. 0. 5.16795879e-03
      5.16795879e-03 1.29198970e-03 0. 1.29198970e-03 1.55038759e-02
      1.29198970e-03 1.29198970e-03 0. 0. 1.29198970e-03 0.
      1.29198970e-03 1.29198970e-03 1.29198970e-03 1.29198970e-03 0.
      5.16795879e-03 1.29198970e-03 6.45994861e-03 1.29198970e-03
      2.58397940e-03 0. 0. 5.16795879e-03 0. 0. 1.29198970e-03
      5.16795879e-03 3.87596898e-03 0. 1.29198970e-03 1.29198970e-03
      2.58397940e-03 5.16795879e-03 0. 0. 6.45994861e-03 1.29198970e-03
      0. 2.58397940e-03 1.29198970e-03 1.29198970e-03 0. 0.
      1.29198970e-03 1.29198970e-03 1.29198970e-03 0. 3.87596898e-03 0.
      0. 1.29198970e-03 1.29198970e-03 0. 5.16795879e-03 2.58397940e-03
      1.29198970e-03 1.29198970e-03 2.58397940e-03 2.58397940e-03
      1.29198970e-03 0. 1.29198970e-03 0. 0. 0. 1.29198970e-03
      1.03359176e-02 1.29198970e-03 1.29198970e-03 3.87596898e-03
      1.29198970e-03 0. 2.58397940e-03 2.58397940e-03 7.75193796e-03 0.
      2.58397940e-03 1.29198970e-03 1.29198970e-03 2.58397940e-03 0.
      1.29198970e-03 3.87596898e-03 2.58397940e-03 1.29198970e-03
      1.29198970e-03 1.29198970e-03 1.29198970e-03 2.58397940e-03
      2.58397940e-03 0. 0. 6.45994861e-03 2.58397940e-03 6.45994861e-03
      1.29198970e-03 0. 2.58397940e-03 0. 1.29198970e-03 1.29198970e-03
      1.29198970e-03 0. 0. 3.87596898e-03 0. 0. 1.29198970e-03
      3.87596898e-03 2.58397940e-03 2.58397940e-03 0. 0. 0.
      2.58397940e-03 2.58397940e-03 1.29198970e-03 1.29198970e-03
      5.16795879e-03 1.29198970e-03 0. 0. 2.58397940e-03 2.58397940e-03
      0. 2.58397940e-03 1.29198970e-03 0. 0. 1.29198970e-03
      2.58397940e-03 1.29198970e-03 0. 0. 0. 0. 2.58397940e-03
      6.45994861e-03 1.29198970e-03 1.29198970e-03 0. 2.58397940e-03
      1.29198970e-03 0. 2.58397940e-03 5.16795879e-03 0. 0. 0.
      6.45994861e-03 0. 1.29198970e-03 1.29198970e-03 1.29198970e-03
      3.87596898e-03 1.29198970e-03 0. 3.87596898e-03 0. 2.58397940e-03
      2.58397940e-03 0. 6.45994861e-03 0. 3.87596898e-03 0.
      1.29198970e-03 6.45994861e-03 2.58397940e-03 2.71317828e-02
      6.45994861e-03 2.58397940e-03 0. 0. 0. 2.58397940e-03 0.
      1.29198970e-03 1.29198970e-03 1.29198970e-03 1.29198970e-03
      3.87596898e-03 0. 5.16795879e-03 2.58397940e-03 0. 1.29198970e-03
      0. 1.29198970e-03 0. 5.16795879e-03 1.29198970e-03 1.29198970e-03
      0. 0. 2.58397940e-03 0. 1.29198970e-03 2.58397940e-03
      1.29198970e-03 0. 9.04392824e-03 1.29198970e-03 3.87596898e-03
      1.16279069e-02 1.29198970e-03 0. 0. 0. 1.29198970e-03
      5.16795879e-03 1.29198970e-03 6.45994861e-03 2.58397940e-03
      1.29198970e-03 3.87596898e-03 2.58397940e-03 1.29198970e-03
      3.87596898e-03 0. 0. 3.87596898e-03 6.45994861e-03 2.58397940e-03
      1.29198972e-02 2.58397940e-03 1.29198970e-03 0. 5.16795879e-03
      2.58397940e-03 0. 0. 0. 0. 2.58397940e-03 0. 1.29198970e-03
      1.29198970e-03 0. 0. 1.29198970e-03 0. 0. 0. 2.58397940e-03
      3.87596898e-03 0. 5.16795879e-03 0. 0. 0. 1.29198970e-03
      2.58397940e-03 0. 0. 3.87596898e-03 5.16795879e-03 0.
      1.29198970e-03 1.29198970e-03 0. 0. 0. 0. 3.87596898e-03
      1.29198970e-03 0. 6.45994861e-03 0. 1.29198970e-03 0.
      5.16795879e-03 0. 0. 3.87596898e-03 3.87596898e-03 1.29198970e-03
      0. 0. 3.87596898e-03 6.45994861e-03 1.29198970e-03 0.
      3.87596898e-03 0. 3.87596898e-03 2.58397940e-03 1.29198970e-03 0.
      5.16795879e-03 5.16795879e-03 1.29198970e-03 0. 7.75193796e-03 0.
      1.29198970e-03 1.29198970e-03 1.29198970e-03 6.45994861e-03 0.
      1.29198970e-03 1.29198970e-03 2.58397940e-03 1.29198970e-03
      1.29198970e-03 3.87596898e-03 1.29198970e-03 2.58397940e-03 0. 0.
      1.29198970e-03 5.16795879e-03 1.29198970e-03 9.04392824e-03
      1.29198970e-03 0. 1.29198970e-03 2.58397940e-03 1.29198970e-03
      6.45994861e-03 3.87596898e-03 0. 0. 0. 1.29198970e-03 0.
      1.29198970e-03 2.58397940e-03 2.58397940e-03 2.58397940e-03
      1.29198970e-03 1.29198970e-03 0. 0. 1.29198970e-03 2.58397940e-03
      0. 0. 3.87596898e-03 1.29198970e-03 0. 3.87596898e-03 0. 0. 0. 0.
      3.87596898e-03 1.29198970e-03 3.87596898e-03 1.29198970e-03 0. 0.
      0. 0. 1.29198970e-03 5.16795879e-03 2.58397940e-03 1.29198970e-03
      1.29198970e-03 5.16795879e-03 2.58397940e-03 1.29198970e-03 0.
      3.87596898e-03 2.58397940e-03 3.87596898e-03 2.58397940e-03
      1.29198970e-03 0. 1.29198970e-03 2.58397940e-03 2.58397940e-03
      1.29198970e-03 1.29198970e-03 1.29198970e-03 0. 1.29198970e-03
      1.29198970e-03 2.58397940e-03 0. 1.29198970e-03 0. 0.
      6.45994861e-03 1.03359176e-02 1.29198970e-03 2.58397940e-03 0.
      3.87596898e-03 0. 0. 1.29198970e-03 1.29198970e-03 5.16795879e-03
      3.87596898e-03 1.29198970e-03 0. 0. 1.29198970e-03 0.
      5.16795879e-03 2.58397940e-03 1.29198970e-03 0. 0. 3.87596898e-03
      3.87596898e-03 5.16795879e-03 2.58397940e-03 1.29198970e-03
      2.58397940e-03 2.58397940e-03 2.58397940e-03 0. 1.29198970e-03
      5.16795879e-03 3.87596898e-03 2.58397940e-03 0. 3.87596898e-03
      1.29198970e-03 9.04392824e-03 2.58397940e-03 0. 0. 3.87596898e-03
      1.29198970e-03 2.58397940e-03 0. 0. 5.16795879e-03 6.45994861e-03
      0. 0. 0. 2.58397940e-03 0. 1.29198970e-03 6.45994861e-03 0. 0. 0.
      2.58397940e-03 6.45994861e-03 1.29198970e-03 1.29198970e-03
      9.04392824e-03 1.29198970e-03 1.29198970e-03 3.87596898e-03
      1.29198970e-03 1.29198970e-03 0. 2.58397940e-03 1.29198970e-03
      1.29198970e-03 1.29198970e-03 3.87596898e-03 2.58397940e-03 0.
      3.87596898e-03 2.58397940e-03 7.75193796e-03 0. 2.58397940e-03 0.
      1.29198970e-03 5.16795879e-03 1.93798449e-02 0. 0. 3.87596898e-03
      1.29198970e-03 0. 1.29198970e-03 0. 5.16795879e-03 0.
      1.29198970e-03 1.29198970e-03 5.16795879e-03</_>
    <_>
      1.31752307e-03 1.31752307e-03 0. 6.58761524e-03 1.31752307e-03 0.
      1.31752307e-03 0. 2.63504614e-03 5.27009228e-03 1.31752307e-03
      2.63504614e-03 1.31752307e-03 1.31752307e-03 2.63504614e-03
      6.58761524e-03 0. 2.63504614e-03 0. 1.31752307e-03 0.
      1.31752307e-03 1.18577080e-02 1.31752307e-03 1.31752307e-03
      1.31752307e-03 0. 1.31752307e-03 0. 7.90513866e-03 2.63504614e-03
      2.63504614e-03 1.31752307e-03 0. 3.95256933e-03 0. 1.31752307e-03
      3.95256933e-03 1.31752307e-03 1.31752307e-03 0. 0. 0.
      2.63504614e-03 3.95256933e-03 1.58102773e-02 1.31752307e-03
      1.31752307e-03 0. 0. 1.31752307e-03 0. 0. 2.63504614e-03
      6.58761524e-03 0. 0. 1.31752307e-03 0. 0. 0. 3.95256933e-03
      1.31752307e-03 2.63504614e-03 2.63504614e-03 1.31752307e-03 0.
      5.27009228e-03 0. 1.31752307e-03 2.63504614e-03 1.31752307e-03
      1.31752307e-03 0. 0. 1.31752307e-03 2.63504614e-03 1.31752307e-03
      0. 3.95256933e-03 1.31752307e-03 1.31752307e-03 3.95256933e-03
      1.31752307e-03 2.63504614e-03 5.27009228e-03 0. 3.95256933e-03
      1.31752307e-03 9.22266115e-03 0. 2.63504614e-03 1.31752307e-03
      3.95256933e-03 1.31752307e-03 2.63504614e-03 1.31752307e-03 0.
      1.31752307e-03 0. 1.31752307e-03 1.31752307e-03 0. 3.95256933e-03
      0. 1.31752307e-03 0. 1.31752307e-03 0. 2.63504614e-03
      1.31752307e-03 1.31752307e-03 0. 0. 0. 1.31752307e-03 0.
      3.95256933e-03 1.31752307e-03 1.31752307e-03 1.31752307e-03 0.
      2.63504614e-03 1.71278007e-02 0. 2.63504614e-03 1.31752307e-03
      2.63504614e-03 1.31752307e-03 1.31752307e-03 1.31752307e-03 0. 0.
      0. 1.31752307e-03 0. 1.31752307e-03 6.58761524e-03 1.31752307e-03
      1.31752307e-03 0. 0. 0. 0. 1.31752307e-03 0. 5.27009228e-03
      1.31752307e-03 2.63504614e-03 0. 2.63504614e-03 1.31752307e-03
      1.31752307e-03 1.31752307e-03 1.31752307e-03 9.22266115e-03 0. 0.
      0. 1.31752307e-03 2.63504614e-03 1.31752307e-03 0. 0. 0. 0. 0.
      2.63504614e-03 7.90513866e-03 1.31752307e-03 2.63504614e-03 0.
      1.31752307e-03 2.63504614e-03 2.63504614e-03 0. 0. 2.63504614e-03
      2.63504614e-03 2.63504614e-03 2.63504614e-03 1.31752307e-03
      6.58761524e-03 1.31752307e-03 5.27009228e-03 0. 0. 3.95256933e-03
      1.05401846e-02 3.95256933e-03 2.63504614e-03 3.95256933e-03
      1.31752307e-03 2.63504614e-03 1.31752307e-03 0. 0. 0.
      7.90513866e-03 3.95256933e-03 2.63504614e-03 0. 2.63504614e-03
      2.63504614e-03 0. 0. 2.63504614e-03 1.31752307e-03 1.31752307e-03
      3.95256933e-03 1.31752307e-03 0. 0. 0. 1.31752307e-03
      2.63504614e-03 0. 2.63504614e-03 0. 1.31752307e-03 1.05401846e-02
      0. 1.31752307e-03 5.27009228e-03 1.31752307e-03 1.31752307e-03
      3.95256933e-03 0. 0. 0. 0. 1.05401846e-02 1.31752307e-03
      3.95256933e-03 3.95256933e-03 1.31752307e-03 2.63504614e-03 0.
      2.63504614e-03 0. 2.63504614e-03 1.18577080e-02 3.95256933e-03
      2.63504614e-03 1.31752307e-03 1.31752307e-03 0. 0. 0.
      2.63504614e-03 1.58102773e-02 1.31752307e-03 0. 0. 3.95256933e-03
      2.63504614e-03 0. 1.31752307e-03 3.95256933e-03 1.31752307e-03 0.
      0. 0. 0. 1.31752307e-03 0. 1.31752307e-03 1.31752307e-03
      1.31752307e-03 0. 0. 1.31752307e-03 1.31752307e-03 0.
      1.31752307e-03 7.90513866e-03 6.58761524e-03 2.63504614e-03
      1.31752307e-03 0. 0. 1.31752307e-03 3.95256933e-03 1.31752307e-03
      1.31752307e-03 2.63504614e-03 0. 1.31752307e-03 1.31752307e-03 0.
      3.82081680e-02 0. 2.63504614e-03 0. 2.63504614e-03 1.31752307e-03
      0. 1.31752307e-03 9.22266115e-03 0. 5.27009228e-03 3.95256933e-03
      0. 1.18577080e-02 1.31752307e-03 1.31752307e-03 0. 0.
      5.27009228e-03 1.05401846e-02 7.90513866e-03 0. 0. 1.31752307e-03
      5.27009228e-03 5.27009228e-03 5.27009228e-03 2.63504614e-03
      1.31752307e-03 3.95256933e-03 5.27009228e-03 1.31752307e-03
      1.31752307e-03 0. 3.95256933e-03 1.44927539e-02 0. 0. 0.
      6.58761524e-03 1.31752307e-03 0. 0. 0. 0. 0. 2.63504614e-03
      2.63504614e-03 0. 1.31752307e-03 0. 0. 0. 0. 2.63504614e-03 0. 0.
      1.31752307e-03 3.95256933e-03 5.27009228e-03 0. 0. 0. 0.
      2.63504614e-03 0. 1.31752307e-03 1.31752307e-03 0. 2.63504614e-03
      3.95256933e-03 0. 0. 0. 0. 9.22266115e-03 0. 1.31752307e-03
      1.31752307e-03 2.63504614e-03 2.63504614e-03 0. 1.31752307e-03
      1.31752307e-03 0. 1.31752307e-03 3.95256933e-03 0. 1.31752307e-03
      2.63504614e-03 0. 0. 6.58761524e-03 0. 0. 0. 0. 0. 1.31752307e-03
      1.31752307e-03 2.63504614e-03 3.95256933e-03 0. 1.31752307e-03 0.
      1.31752307e-03 0. 1.31752307e-03 3.95256933e-03 2.63504614e-03
      3.95256933e-03 2.63504614e-03 0. 2.63504614e-03 2.63504614e-03
      2.63504614e-03 0. 2.63504614e-03 5.27009228e-03 1.31752307e-03
      2.63504614e-03 2.63504614e-03 9.22266115e-03 1.31752307e-03
      2.63504614e-03 0. 1.31752307e-03 3.95256933e-03 0. 1.31752307e-03
      0. 2.63504614e-03 3.95256933e-03 0. 0. 0. 1.31752307e-03
      3.95256933e-03 0. 1.31752307e-03 0. 1.31752307e-03 2.63504614e-03
      1.31752307e-03 0. 1.31752307e-03 1.31752307e-03 1.31752307e-03
      2.63504614e-03 2.63504614e-03 1.31752307e-03 1.31752307e-03 0.
      1.31752307e-03 1.31752307e-03 1.31752307e-03 0. 5.27009228e-03
      1.31752307e-03 0. 0. 0. 7.90513866e-03 1.31752307e-03
      2.63504614e-03 0. 2.63504614e-03 1.31752307e-03 0. 3.95256933e-03
      1.31752307e-03 0. 1.31752307e-03 1.31752307e-03 7.90513866e-03 0.
      0. 2.63504614e-03 2.63504614e-03 2.63504614e-03 3.95256933e-03 0.
      9.22266115e-03 0. 0. 1.31752307e-03 2.63504614e-03 2.63504614e-03
      0. 3.95256933e-03 1.31752307e-03 0. 0. 0. 3.95256933e-03 0.
      6.58761524e-03 1.31752307e-03 0. 2.63504614e-03 0. 2.63504614e-03
      7.90513866e-03 0. 2.63504614e-03 0. 0. 1.31752307e-03
      3.95256933e-03 3.95256933e-03</_>
    <_>
      4.73186141e-03 0. 1.57728710e-03 9.46372282e-03 3.15457419e-03
      4.73186141e-03 0. 1.57728710e-03 0. 1.57728710e-03 0. 0.
      6.30914839e-03 0. 1.57728710e-03 0. 0. 7.88643584e-03
      1.57728710e-03 1.57728710e-03 0. 1.57728710e-03 1.10410098e-02
      1.57728710e-03 1.57728710e-03 1.57728710e-03 0. 1.57728710e-03 0.
      0. 0. 0. 1.57728710e-03 4.73186141e-03 1.57728710e-03 0.
      3.15457419e-03 1.57728710e-03 1.57728710e-03 0. 1.57728710e-03
      3.15457419e-03 0. 9.46372282e-03 0. 1.10410098e-02 1.57728710e-03
      3.15457419e-03 1.57728710e-03 0. 0. 1.57728710e-03 1.57728710e-03
      0. 9.46372282e-03 1.57728710e-03 0. 0. 0. 1.57728710e-03 0. 0.
      2.20820196e-02 1.57728710e-03 0. 0. 1.57728710e-03 4.73186141e-03
      6.30914839e-03 0. 0. 0. 1.10410098e-02 0. 0. 1.57728710e-03
      1.57728710e-03 3.15457419e-03 0. 3.15457419e-03 0. 3.15457419e-03
      0. 0. 0. 2.20820196e-02 1.57728710e-03 1.57728710e-03 0.
      1.57728710e-03 7.88643584e-03 0. 6.30914839e-03 6.30914839e-03 0.
      1.57728710e-03 0. 3.15457419e-03 3.15457419e-03 0. 0.
      3.15457419e-03 0. 0. 1.57728710e-03 0. 1.57728710e-03 0. 0.
      7.88643584e-03 0. 3.15457419e-03 1.57728710e-03 7.88643584e-03 0.
      3.15457419e-03 0. 3.15457419e-03 0. 0. 0. 0. 0. 4.73186141e-03 0.
      3.15457419e-03 0. 1.57728710e-03 0. 0. 0. 9.46372282e-03 0. 0.
      1.57728710e-03 1.57728710e-03 0. 1.10410098e-02 3.15457419e-03
      4.73186141e-03 1.57728710e-03 1.57728710e-03 7.88643584e-03 0.
      4.73186141e-03 7.88643584e-03 1.57728710e-03 0. 0. 6.30914839e-03
      1.57728710e-03 0. 9.46372282e-03 1.57728710e-03 4.73186141e-03
      1.57728710e-03 1.57728710e-03 1.57728710e-03 1.57728710e-03 0. 0.
      3.15457419e-03 3.15457419e-03 0. 1.57728710e-03 3.15457419e-03
      1.57728710e-03 4.73186141e-03 4.73186141e-03 1.57728710e-03 0. 0.
      6.30914839e-03 3.15457419e-03 0. 0. 0. 1.57728710e-03 0.
      1.57728710e-03 3.15457419e-03 3.15457419e-03 0. 0. 0.
      1.57728710e-03 0. 0. 7.88643584e-03 1.57728710e-03 1.57728710e-03
      0. 0. 0. 0. 0. 0. 0. 9.46372282e-03 0. 3.15457419e-03 0. 0.
      7.88643584e-03 0. 0. 0. 0. 1.57728710e-03 3.15457419e-03 0. 0.
      1.57728710e-03 0. 1.57728710e-03 6.30914839e-03 3.15457419e-03
      3.15457419e-03 0. 0. 1.57728710e-03 0. 0. 1.89274456e-02 0.
      7.88643584e-03 1.57728710e-03 1.57728710e-03 0. 3.15457419e-03 0.
      1.57728710e-03 1.57728710e-03 4.73186141e-03 3.15457419e-03
      4.73186141e-03 0. 1.57728710e-03 1.57728710e-03 0. 3.15457419e-03
      0. 3.15457419e-03 3.15457419e-03 0. 0. 0. 0. 0. 7.88643584e-03
      1.10410098e-02 1.57728710e-03 1.57728710e-03 0. 3.15457419e-03 0.
      1.57728710e-03 0. 6.30914839e-03 0. 3.15457419e-03 1.57728710e-03
      0. 0. 1.10410098e-02 3.15457419e-03 0. 0. 0. 0. 0. 3.15457419e-03
      0. 0. 0. 3.15457419e-03 0. 1.57728710e-03 0. 1.57728710e-03 0. 0.
      0. 3.15457419e-03 1.57728710e-03 0. 0. 1.57728710e-03 0.
      1.57728710e-03 1.10410098e-02 0. 1.57728710e-03 7.88643584e-03
      3.15457419e-03 1.57728710e-03 7.88643584e-03 0. 4.73186141e-03
      3.15457419e-03 3.15457419e-03 4.73186141e-03 0. 0. 7.88643584e-03
      1.57728710e-03 0. 0. 1.57728710e-03 3.15457419e-03 1.57728710e-03
      0. 3.15457419e-03 0. 0. 1.57728710e-03 0. 3.15457419e-03
      1.57728710e-03 0. 0. 1.57728710e-03 0. 0. 0. 0. 0. 0. 0.
      4.73186141e-03 1.57728710e-03 0. 6.30914839e-03 0. 3.15457419e-03
      0. 0. 0. 0. 0. 1.57728710e-03 0. 0. 0. 0. 1.57728710e-03
      1.57728710e-03 0. 0. 0. 0. 1.57728710e-03 0. 0. 1.57728710e-03 0.
      0. 3.15457419e-03 4.73186141e-03 0. 0. 0. 1.57728710e-03
      4.73186141e-03 0. 1.57728710e-03 0. 0. 1.57728710e-03
      3.15457419e-03 0. 1.57728710e-03 0. 0. 3.15457419e-03
      3.15457419e-03 0. 1.57728710e-03 1.57728710e-03 0. 0.
      1.57728710e-03 3.15457419e-03 1.57728710e-03 0. 1.57728710e-03
      4.73186141e-03 0. 0. 0. 1.57728710e-03 1.57728710e-03
      1.57728710e-03 1.57728710e-03 4.73186141e-03 4.73186141e-03 0. 0.
      0. 1.73501577e-02 0. 4.73186141e-03 0. 9.46372282e-03
      1.57728710e-03 1.57728710e-03 0. 9.46372282e-03 1.57728710e-03 0.
      1.57728710e-03 0. 1.57728710e-03 4.73186141e-03 1.57728710e-03 0.
      0. 3.15457419e-03 0. 0. 7.88643584e-03 0. 0. 0. 0. 0.
      4.73186141e-03 4.73186141e-03 3.15457419e-03 6.30914839e-03
      3.15457419e-03 1.57728710e-03 0. 0. 0. 3.15457419e-03 0.
      1.57728710e-03 9.46372282e-03 1.57728710e-03 3.15457419e-03
      4.73186141e-03 3.15457419e-03 1.57728710e-03 4.73186141e-03
      3.15457419e-03 3.15457419e-03 3.15457419e-03 1.57728710e-03
      6.30914839e-03 4.73186141e-03 0. 3.15457419e-03 0. 3.15457419e-03
      1.57728710e-03 1.57728710e-03 0. 0. 0. 0. 0. 0. 1.57728710e-03
      1.10410098e-02 0. 0. 4.73186141e-03 3.15457419e-03 1.57728710e-03
      0. 0. 3.15457419e-03 1.57728710e-03 0. 0. 7.88643584e-03
      6.30914839e-03 1.57728710e-03 3.15457419e-03 0. 4.73186141e-03 0.
      0. 0. 3.15457419e-03 4.73186141e-03 1.57728710e-03 1.57728710e-03
      0. 3.15457419e-03 1.57728710e-03 1.57728710e-03 1.57728710e-03 0.
      9.46372282e-03 0. 1.57728710e-03 3.15457419e-03 3.15457419e-03</_>
    <_>
      4.40528663e-03 1.76211458e-03 4.40528663e-03 3.52422916e-03
      1.76211458e-03 2.64317193e-03 8.81057291e-04 3.52422916e-03
      1.76211458e-03 1.76211458e-03 0. 0. 2.64317193e-03 6.16740109e-03
      7.92951602e-03 8.81057291e-04 1.76211458e-03 3.52422916e-03
      1.76211458e-03 1.14537450e-02 0. 5.28634386e-03 4.40528663e-03
      8.81057291e-04 8.81057291e-04 0. 1.76211458e-03 0. 2.64317193e-03
      5.28634386e-03 1.76211458e-03 0. 8.81057291e-04 0. 0.
      8.81057291e-04 1.76211458e-03 0. 0. 8.81057291e-04 1.76211458e-03
      0. 2.64317193e-03 2.64317193e-03 0. 0. 2.02643182e-02
      8.81057291e-04 2.64317193e-03 0. 2.64317193e-03 8.81057291e-04
      1.76211458e-03 1.76211458e-03 1.76211458e-03 1.76211458e-03
      1.76211458e-03 8.81057291e-04 0. 8.81057291e-04 8.81057291e-04 0.
      2.64317193e-03 8.81057291e-04 4.40528663e-03 0. 0. 5.28634386e-03
      8.81057291e-04 8.81057291e-04 0. 8.81057291e-04 1.76211458e-03 0.
      0. 0. 8.81057291e-04 8.81057291e-04 6.16740109e-03 4.40528663e-03
      0. 8.81057291e-04 8.81057291e-04 0. 1.76211458e-03 3.52422916e-03
      5.28634386e-03 1.76211458e-03 3.52422916e-03 8.81057291e-04
      8.81057291e-04 2.64317193e-03 8.81057291e-04 4.40528663e-03 0.
      8.81057291e-04 1.76211458e-03 2.64317193e-03 8.81057291e-04
