<?xml version="1.0"?>
<opencv_storage>
<my_svm type_id="opencv-ml-svm">
  <svm_type>C_SVC</svm_type>
  <kernel><type>RBF</type>
    <gamma>5.0625000000000009e-01</gamma></kernel>
  <C>6.2500000000000000e+01</C>
  <term_criteria><epsilon>1.1920928955078125e-07</epsilon>
    <iterations>50000</iterations></term_criteria>
  <var_all>1000</var_all>
  <var_count>1000</var_count>
  <class_count>2</class_count>
  <class_labels type_id="opencv-matrix">
    <rows>1</rows>
    <cols>2</cols>
    <dt>i</dt>
    <data>
      0 1</data></class_labels>
  <sv_total>254</sv_total>
  <support_vectors>
    <_>
      1.09769485e-03 5.48847427e-04 5.48847427e-04 1.09769485e-03 0.
      1.09769485e-03 1.64654222e-03 5.48847427e-04 2.19538971e-03
      5.48847427e-04 5.48847427e-04 5.48847427e-04 5.48847427e-04
      5.48847427e-04 5.48847427e-04 1.09769485e-03 1.09769485e-03 0.
      1.64654222e-03 5.48847427e-04 1.64654222e-03 5.48847427e-04 0.
      5.48847427e-04 1.09769485e-03 0. 0. 5.48847427e-04 0. 0.
      2.19538971e-03 1.09769485e-03 1.64654222e-03 9.33040585e-03
      3.84193193e-03 5.48847427e-04 1.64654222e-03 5.48847427e-04
      5.48847427e-04 5.48847427e-04 5.48847427e-04 5.48847427e-04 0. 0.
      0. 5.48847427e-04 0. 5.48847427e-04 0. 0. 2.19538971e-03
      1.09769485e-03 5.48847427e-04 5.48847427e-04 5.48847427e-04
      1.64654222e-03 0. 0. 0. 0. 5.48847427e-04 1.64654222e-03
      5.48847427e-04 5.48847427e-04 0. 5.48847427e-04 0. 5.48847427e-04
      1.64654222e-03 5.48847427e-04 5.48847427e-04 5.48847427e-04
      1.64654222e-03 0. 2.74423719e-03 0. 5.48847427e-04 0.
      1.64654222e-03 0. 5.48847427e-04 1.64654222e-03 5.48847427e-04
      1.09769485e-03 1.09769485e-03 5.48847427e-04 0. 0. 5.48847427e-04
      2.19538971e-03 1.09769485e-03 3.84193193e-03 0. 0. 0. 0.
      5.48847427e-04 1.09769485e-03 0. 5.48847427e-04 5.48847427e-04
      1.09769485e-03 0. 0. 1.09769485e-03 0. 0. 1.09769485e-03
      5.48847427e-04 0. 1.09769485e-03 2.74423719e-03 0. 0.
      5.48847427e-04 5.48847427e-04 1.64654222e-03 0. 5.48847427e-04 0.
      0. 2.19538971e-03 0. 2.19538971e-03 0. 0. 0. 5.48847427e-04 0.
      3.29308445e-03 1.09769485e-03 0. 5.48847427e-04 0. 1.64654222e-03
      5.48847427e-04 5.48847427e-04 0. 1.09769485e-03 5.48847439e-03
      5.48847439e-03 0. 1.64654222e-03 1.09769485e-03 0. 5.48847427e-04
      0. 5.48847427e-04 1.09769485e-03 5.48847427e-04 4.93962690e-03
      1.09769485e-03 5.48847427e-04 1.64654222e-03 0. 0. 1.09769485e-03
      0. 5.48847427e-04 0. 2.19538971e-03 2.74423719e-03 0. 0.
      1.64654222e-03 1.09769485e-03 2.74423719e-03 1.09769485e-03 0.
      5.48847427e-04 1.09769485e-03 5.48847427e-04 1.09769485e-03
      4.39077942e-03 5.48847427e-04 5.48847427e-04 0. 1.64654222e-03 0.
      0. 4.93962690e-03 0. 2.19538971e-03 0. 1.09769485e-03 0.
      5.48847427e-04 2.74423719e-03 4.93962690e-03 1.09769485e-03
      5.48847427e-04 5.48847427e-04 3.84193193e-03 1.09769485e-03 0.
      1.64654222e-03 0. 1.09769485e-03 3.29308445e-03 0. 1.09769485e-03
      2.19538971e-03 0. 2.19538971e-03 0. 0. 3.29308445e-03
      1.09769485e-03 1.09769485e-03 0. 0. 0. 2.19538971e-03 0.
      5.48847427e-04 2.19538971e-03 5.48847427e-04 0. 5.48847427e-04
      5.48847427e-04 0. 0. 1.64654222e-03 0. 1.64654222e-03
      1.09769485e-03 0. 1.09769485e-03 5.48847427e-04 1.64654222e-03
      5.48847427e-04 1.09769485e-03 0. 0. 0. 0. 0. 1.64654222e-03
      2.74423719e-03 2.19538971e-03 0. 0. 2.74423719e-03 0.
      5.48847427e-04 5.48847427e-04 8.78155883e-03 5.48847427e-04
      5.48847427e-04 5.48847427e-04 0. 1.64654222e-03 0. 0.
      5.48847427e-04 1.09769485e-03 0. 5.48847427e-04 1.64654222e-03 0.
      0. 5.48847427e-04 0. 0. 5.48847427e-04 5.48847427e-04
      2.74423719e-03 4.39077942e-03 1.64654222e-03 1.64654222e-03 0.
      1.09769485e-03 5.48847439e-03 5.48847427e-04 1.64654222e-03
      1.09769485e-03 5.48847427e-04 0. 0. 0. 4.39077942e-03
      2.74423719e-03 5.48847427e-04 5.48847427e-04 1.09769485e-03
      4.93962690e-03 5.48847427e-04 1.09769485e-03 5.48847427e-04
      5.48847427e-04 5.48847427e-04 0. 2.19538971e-03 1.09769485e-03
      5.48847427e-04 5.48847427e-04 5.48847427e-04 1.64654222e-03
      5.48847427e-04 3.84193193e-03 5.48847427e-04 0. 2.74423719e-03
      1.09769485e-03 1.64654222e-03 5.48847427e-04 5.48847427e-04 0.
      5.48847427e-04 1.64654222e-03 0. 5.48847427e-04 5.48847427e-04
      1.64654222e-03 0. 2.19538971e-03 5.48847427e-04 1.64654222e-03 0.
      6.03732187e-03 5.48847427e-04 0. 0. 0. 0. 1.09769485e-03
      5.48847427e-04 0. 1.09769485e-03 1.64654222e-03 0. 0.
      1.09769485e-03 1.09769485e-03 0. 0. 5.48847427e-04 5.48847427e-04
      0. 0. 5.48847427e-04 4.39077942e-03 0. 1.09769485e-03 0.
      1.09769485e-03 0. 0. 1.09769485e-03 0. 3.84193193e-03 0.
      1.09769485e-03 1.09769485e-03 0. 0. 3.29308445e-03 0. 0.
      2.74423719e-03 1.09769485e-03 1.64654222e-03 0. 0. 1.64654222e-03
      0. 0. 2.19538971e-03 0. 5.48847427e-04 1.09769485e-03 0. 0.
      4.39077942e-03 0. 1.64654222e-03 0. 1.09769485e-03 5.48847427e-04
      0. 0. 3.29308445e-03 5.48847427e-04 0. 0. 0. 0. 1.09769485e-03 0.
      0. 5.48847427e-04 0. 1.09769485e-03 5.48847427e-04 3.29308445e-03
      1.09769485e-03 0. 4.39077942e-03 2.19538971e-03 1.64654222e-03
      2.19538971e-03 5.48847427e-04 5.48847427e-04 0. 5.48847427e-04
      1.09769485e-03 1.09769485e-03 2.19538971e-03 0. 0. 0. 0. 0. 0. 0.
      5.48847427e-04 4.93962690e-03 5.48847427e-04 0. 0. 1.64654222e-03
      1.09769485e-03 5.48847427e-04 0. 5.48847427e-04 5.48847427e-04
      2.74423719e-03 2.19538971e-03 0. 1.64654222e-03 0. 1.09769485e-03
      1.64654222e-03 0. 0. 0. 5.48847427e-04 1.64654222e-03
      1.09769485e-03 0. 0. 5.48847427e-04 5.48847427e-04 1.09769485e-03
      1.09769485e-03 2.19538971e-03 1.09769485e-03 0. 6.03732187e-03 0.
      0. 0. 5.48847427e-04 2.19538971e-03 5.48847427e-04 1.64654222e-03
      1.09769485e-03 0. 5.48847427e-04 0. 5.48847427e-04 3.29308445e-03
      1.09769485e-03 0. 5.48847427e-04 5.48847427e-04 0. 3.29308445e-03
      1.64654222e-03 1.64654222e-03 5.48847427e-04 1.09769485e-03
      1.64654222e-03 0. 1.09769485e-03 0. 3.29308445e-03 0.
      5.48847427e-04 0. 1.09769485e-03 0. 3.84193193e-03 5.48847427e-04
      0. 2.74423719e-03 0. 0. 5.48847427e-04 5.48847427e-04
      5.48847427e-04 2.19538971e-03 3.29308445e-03 1.09769485e-03
      5.48847427e-04 1.09769485e-03 5.48847427e-04 4.93962690e-03
      2.74423719e-03 0. 5.48847427e-04 0. 4.39077942e-03 0.
      5.48847427e-04 1.64654222e-03 1.64654222e-03 1.09769485e-03
      5.48847427e-04 5.48847427e-04 1.64654222e-03 5.48847427e-04
      1.64654222e-03 1.09769485e-03 5.48847427e-04 1.64654222e-03
      1.64654222e-03 0. 5.48847427e-04 3.29308445e-03 0. 1.09769485e-03
      1.09769485e-03 5.48847427e-04 0. 5.48847439e-03 0. 1.09769485e-03
      2.19538971e-03 3.84193193e-03 0. 5.48847427e-04 1.09769485e-03 0.
      5.48847427e-04 8.78155883e-03 1.09769488e-02 1.64654222e-03
      5.48847427e-04 2.19538971e-03 0. 0. 1.09769485e-03 1.09769485e-03
      5.48847427e-04 0. 5.48847427e-04 1.64654222e-03 5.48847427e-04
      5.48847427e-04 5.48847427e-04 0. 0. 5.48847427e-04 0.
      2.74423719e-03 0. 1.09769485e-03 1.09769485e-03 1.20746437e-02
      4.39077942e-03 1.09769485e-03 0. 2.19538971e-03 1.09769485e-03 0.
      0. 0. 0. 1.09769485e-03 1.09769485e-03 5.48847427e-04
      3.84193193e-03 5.48847427e-04 2.74423719e-03 1.09769485e-03
      1.64654222e-03 5.48847427e-04 5.48847427e-04 0. 0. 0. 0.
      1.64654222e-03 1.09769485e-03 5.48847427e-04 0. 1.09769485e-03
      3.84193193e-03 0. 2.74423719e-03 1.09769485e-03 6.58616889e-03
      2.19538971e-03 1.64654222e-03 2.19538971e-03 0. 1.09769485e-03 0.
      0. 5.48847427e-04 1.09769485e-03 5.48847427e-04 0. 5.48847427e-04
      5.48847427e-04 0. 5.48847427e-04 1.09769485e-03 1.09769485e-03 0.
      3.84193193e-03 5.48847427e-04 0. 1.09769485e-03 5.48847427e-04 0.
      2.19538971e-03 1.09769485e-03 5.48847427e-04 0. 1.09769485e-03
      5.48847427e-04 1.09769485e-03 2.19538971e-03 5.48847427e-04
      1.09769485e-03 5.48847427e-04 0. 3.29308445e-03 0. 5.48847427e-04
      0. 5.48847427e-04 1.09769485e-03 0. 5.48847427e-04 5.48847427e-04
      1.09769485e-03 1.09769485e-03 0. 2.74423719e-03 1.09769485e-03
      5.48847427e-04 1.09769485e-03 0. 1.09769485e-03 5.48847427e-04
      4.39077942e-03 5.48847427e-04 2.19538971e-03 5.48847427e-04
      5.48847427e-04 5.48847427e-04 0. 5.48847427e-04 5.48847427e-04
      5.48847427e-04 1.09769485e-03 5.48847427e-04 0. 2.74423719e-03 0.
      1.64654222e-03 5.48847427e-04 5.48847427e-04 0. 1.09769485e-03 0.
      0. 0. 0. 0. 3.29308445e-03 1.09769485e-03 5.48847427e-04
      5.48847427e-04 0. 5.48847427e-04 5.48847427e-04 0. 5.48847427e-04
      5.48847427e-04 1.09769485e-03 0. 5.48847427e-04 2.19538971e-03
      1.09769485e-03 0. 5.48847427e-04 1.09769485e-03 2.19538971e-03
      2.19538971e-03 0. 3.84193193e-03 3.84193193e-03 5.48847427e-04 0.
      2.19538971e-03 5.48847427e-04 5.48847427e-04 5.48847427e-04
      2.19538971e-03 5.48847427e-04 0. 2.74423719e-03 0. 5.48847427e-04
      0. 5.48847427e-04 1.64654222e-03 1.64654222e-03 1.09769485e-03 0.
      1.09769485e-03 5.48847427e-04 0. 0. 0. 0. 1.09769485e-03
      5.48847427e-04 1.09769485e-03 1.64654222e-03 0. 0. 1.64654222e-03
      1.09769485e-03 1.09769485e-03 1.09769485e-03 2.74423719e-03
      3.84193193e-03 5.48847427e-04 1.09769485e-03 5.48847427e-04
      5.48847427e-04 0. 1.64654222e-03 2.19538971e-03 5.48847427e-04
      1.09769485e-03 2.74423719e-03 5.48847427e-04 1.64654222e-03
      1.64654222e-03 0. 0. 3.29308445e-03 3.29308445e-03 0.
      1.09769485e-03 1.09769485e-03 5.48847427e-04 1.09769485e-03 0.
      7.13501638e-03 0. 5.48847427e-04 0. 5.48847427e-04 0.
      2.19538971e-03 4.39077942e-03 2.74423719e-03 5.48847427e-04 0. 0.
      1.64654222e-03 1.64654222e-03 0. 5.48847427e-04 1.09769485e-03 0.
      2.74423719e-03 2.19538971e-03 5.48847427e-04 5.48847427e-04
      1.09769485e-03 0. 1.09769488e-02 0. 1.64654222e-03 5.48847427e-04
      0. 2.19538971e-03 5.48847427e-04 1.09769485e-03 0. 1.09769485e-03
      0. 3.84193193e-03 0. 1.09769485e-03 0. 5.48847427e-04
      5.48847427e-04 0. 2.19538971e-03 2.74423719e-03 0. 2.74423719e-03
      4.39077942e-03 1.64654222e-03 5.48847427e-04 0. 5.48847427e-04
      2.19538971e-03 2.74423719e-03 0. 5.48847427e-04 5.48847427e-04
      1.64654222e-03 1.09769485e-03 2.19538971e-03 0. 0. 0.
      5.48847427e-04 1.64654222e-03 0. 0. 5.48847427e-04 1.09769485e-03
      1.09769485e-03 0. 0. 0. 5.48847427e-04 1.64654222e-03
      2.74423719e-03 1.09769485e-03 2.19538971e-03 1.09769485e-03 0. 0.
      1.09769485e-03 0. 1.09769485e-03 5.48847427e-04 3.84193193e-03
      5.48847427e-04 1.09769485e-03 0. 3.29308445e-03 1.09769485e-03
      1.64654222e-03 0. 5.48847427e-04 2.74423719e-03 0. 0.
      2.74423719e-03 1.09769485e-03 0. 0. 0. 0. 0. 2.74423719e-03
      1.64654222e-03 5.48847427e-04 0. 1.09769485e-03 0. 1.09769485e-03
      0. 5.48847427e-04 5.48847427e-04 5.48847427e-04 2.19538971e-03 0.
      5.48847427e-04 7.13501638e-03 1.09769485e-03 5.48847427e-04
      5.48847427e-04 1.64654222e-03 0. 0. 0. 0. 5.48847427e-04
      5.48847427e-04 1.09769485e-03 0. 0. 0. 0. 2.74423719e-03
      5.48847427e-04 1.09769485e-03 7.68386386e-03 3.29308445e-03 0.
      1.64654222e-03 2.19538971e-03 1.09769485e-03 1.09769485e-03 0.
      5.48847427e-04 5.48847427e-04 0. 0. 1.09769485e-03 0. 0.
      5.48847427e-04 0. 2.74423719e-03 0. 5.48847427e-04 0.
      2.74423719e-03 5.48847427e-04 0. 5.48847427e-04 0. 5.48847427e-04
      1.09769485e-03 0. 0. 1.64654222e-03 0. 7.13501638e-03
      5.48847427e-04 1.09769485e-03 1.09769485e-03 5.48847427e-04
      1.09769485e-03 1.64654222e-03 5.48847427e-04 5.48847427e-04 0.
      5.48847427e-04 0. 0. 5.48847427e-04 1.09769485e-03 0. 0.
      1.64654222e-03 1.64654222e-03 0. 1.09769485e-03 1.09769485e-03 0.
      1.09769485e-03 1.64654222e-03 1.64654222e-03 5.48847427e-04 0. 0.
      4.39077942e-03 0. 3.29308445e-03 5.48847427e-04 0. 2.19538971e-03
      0. 1.09769485e-03 0. 1.09769485e-03 0. 0. 5.48847427e-04 0. 0. 0.
      2.19538971e-03 1.09769485e-03 0. 0. 2.19538971e-03 2.19538971e-03
      0. 0. 4.39077942e-03 1.09769485e-03 0. 0. 5.48847427e-04 0.
      5.48847427e-04 0. 5.48847439e-03 5.48847427e-04 0. 0.
      5.48847427e-04 2.19538971e-03 1.09769485e-03 1.64654222e-03
      5.48847427e-04 0. 1.64654222e-03 5.48847427e-04 1.09769485e-03 0.
      1.09769485e-03 1.09769485e-03</_>
    <_>
      1.01522845e-03 1.01522845e-03 0. 0. 0. 4.06091381e-03
      3.04568536e-03 1.01522845e-03 2.03045690e-03 1.01522845e-03 0. 0.
      0. 0. 0. 3.04568536e-03 1.01522845e-03 2.03045690e-03 0. 0. 0. 0.
      2.03045690e-03 2.03045690e-03 1.01522845e-03 1.01522845e-03
      2.03045690e-03 0. 1.01522845e-03 0. 2.03045690e-03 2.03045690e-03
      3.04568536e-03 0. 0. 1.01522845e-03 0. 1.01522845e-03
      3.04568536e-03 0. 1.01522845e-03 3.04568536e-03 0. 2.03045690e-03
      1.01522845e-03 1.01522845e-03 0. 1.01522845e-03 1.01522845e-03 0.
      1.01522845e-03 0. 0. 2.03045690e-03 0. 0. 2.03045690e-03
      3.04568536e-03 2.03045690e-03 1.01522845e-03 2.03045690e-03 0. 0.
      1.01522845e-03 1.01522845e-03 0. 1.01522845e-03 0. 0.
      1.01522845e-03 1.01522845e-03 0. 1.01522845e-03 0. 5.07614203e-03
      0. 0. 0. 0. 2.03045690e-03 1.01522845e-03 3.04568536e-03 0.
      1.01522845e-03 3.04568536e-03 0. 1.01522845e-03 1.01522845e-03
      1.01522845e-03 1.01522845e-03 2.03045690e-03 4.06091381e-03 0.
      1.01522845e-03 1.01522845e-03 0. 0. 1.01522845e-03 0.
      1.01522845e-03 2.03045690e-03 0. 2.03045690e-03 0. 0.
      1.01522845e-03 2.03045690e-03 3.04568536e-03 1.01522845e-03 0. 0.
      1.01522845e-03 0. 1.01522845e-03 1.01522845e-03 0. 3.04568536e-03
      0. 5.07614203e-03 0. 0. 0. 1.01522845e-03 2.03045690e-03 0. 0.
      1.01522845e-03 0. 1.01522845e-03 0. 4.06091381e-03 2.03045690e-03
      2.03045690e-03 1.01522845e-03 2.03045690e-03 1.01522845e-03
      1.01522845e-03 0. 0. 2.03045690e-03 1.01522845e-03 1.01522845e-03
      0. 2.03045690e-03 0. 1.01522845e-03 1.01522845e-03 3.04568536e-03
      0. 1.01522845e-03 5.07614203e-03 0. 3.04568536e-03 1.01522845e-03
      1.01522845e-03 0. 0. 0. 2.03045690e-03 0. 1.01522845e-03
      1.01522845e-03 0. 0. 0. 0. 0. 2.03045690e-03 1.01522845e-03 0.
      3.04568536e-03 1.01522845e-03 2.03045690e-03 1.01522845e-03
      2.03045690e-03 1.01522845e-03 0. 0. 1.01522845e-03 1.01522845e-03
      2.03045690e-03 1.01522845e-03 2.03045690e-03 2.03045690e-03 0.
      1.01522845e-03 2.03045690e-03 1.01522845e-03 2.03045690e-03
      4.06091381e-03 0. 2.03045690e-03 0. 1.01522845e-03 0. 0. 0. 0. 0.
      1.01522845e-03 0. 1.01522845e-03 2.03045690e-03 0. 0.
      1.01522845e-03 1.01522845e-03 2.03045690e-03 0. 3.04568536e-03 0.
      0. 0. 0. 1.01522845e-03 1.01522845e-03 1.01522845e-03
      1.01522845e-03 1.01522845e-03 2.03045690e-03 1.01522845e-03 0.
      1.01522845e-03 2.03045690e-03 0. 2.03045690e-03 1.01522845e-03
      1.01522845e-03 1.01522845e-03 0. 1.01522845e-03 2.03045690e-03
      3.04568536e-03 0. 0. 1.01522845e-03 0. 2.03045690e-03
      1.01522845e-03 1.01522845e-03 0. 0. 1.01522845e-03 0.
      1.01522845e-03 0. 1.01522845e-03 0. 1.01522845e-03 0.
      1.01522845e-03 2.03045690e-03 3.04568536e-03 1.01522845e-03 0.
      4.06091381e-03 0. 2.03045690e-03 2.03045690e-03 0. 3.04568536e-03
      0. 1.01522845e-03 1.01522845e-03 1.01522845e-03 2.03045690e-03 0.
      0. 1.01522845e-03 2.03045690e-03 1.01522845e-03 2.03045690e-03
      1.01522845e-03 0. 0. 3.04568536e-03 0. 1.01522845e-03
      1.01522845e-03 1.01522845e-03 0. 3.04568536e-03 1.01522845e-03
      1.01522845e-03 0. 0. 1.01522845e-03 1.01522845e-03 0. 0.
      3.04568536e-03 2.03045690e-03 1.01522845e-03 2.03045690e-03
      2.03045690e-03 1.01522845e-03 0. 1.01522845e-03 2.03045690e-03 0.
      0. 2.03045690e-03 0. 1.01522845e-03 2.03045690e-03 3.04568536e-03
      1.01522845e-03 2.03045690e-03 1.01522845e-03 2.03045690e-03 0. 0.
      2.03045690e-03 0. 0. 0. 1.01522845e-03 0. 2.03045690e-03
      1.01522845e-03 1.01522845e-03 1.01522845e-03 2.03045690e-03 0.
      1.01522845e-03 3.04568536e-03 0. 1.01522845e-03 1.01522845e-03
      1.01522845e-03 0. 2.03045690e-03 2.03045690e-03 1.01522845e-03
      1.01522845e-03 2.03045690e-03 0. 1.01522845e-03 0. 0.
      2.03045690e-03 3.04568536e-03 0. 1.01522845e-03 1.01522845e-03
      3.04568536e-03 2.03045690e-03 1.01522845e-03 1.01522845e-03 0.
      1.01522845e-03 3.04568536e-03 1.01522845e-03 1.01522845e-03
      2.03045690e-03 1.01522845e-03 1.01522845e-03 1.01522845e-03 0. 0.
      1.01522845e-03 1.01522845e-03 0. 1.01522845e-03 1.01522845e-03
      1.01522845e-03 0. 1.01522845e-03 0. 0. 0. 1.01522845e-03
      1.01522845e-03 1.01522845e-03 0. 1.01522845e-03 2.03045690e-03 0.
      0. 3.04568536e-03 0. 1.01522845e-03 0. 1.01522845e-03 0.
      2.03045690e-03 1.01522845e-03 0. 3.04568536e-03 2.03045690e-03
      2.03045690e-03 0. 0. 2.03045690e-03 1.01522845e-03 2.03045690e-03
      1.01522845e-03 0. 0. 0. 1.01522845e-03 2.03045690e-03
      1.01522845e-03 1.01522845e-03 1.01522845e-03 1.01522845e-03
      1.01522845e-03 0. 3.04568536e-03 0. 2.03045690e-03 0.
      2.03045690e-03 0. 2.03045690e-03 0. 2.03045690e-03 0. 0. 0. 0.
      2.03045690e-03 0. 0. 2.03045690e-03 1.01522845e-03 0.
      1.01522845e-03 1.01522845e-03 0. 0. 4.06091381e-03 1.01522845e-03
      1.01522845e-03 1.01522845e-03 1.01522845e-03 1.01522845e-03
      2.03045690e-03 2.03045690e-03 2.03045690e-03 1.01522845e-03 0. 0.
      0. 3.04568536e-03 2.03045690e-03 0. 4.06091381e-03 1.01522845e-03
      1.01522845e-03 1.01522845e-03 0. 0. 1.01522845e-03 1.01522845e-03
      0. 0. 1.01522845e-03 0. 2.03045690e-03 2.03045690e-03
      1.01522845e-03 1.01522845e-03 0. 1.01522845e-03 1.01522845e-03
      2.03045690e-03 0. 0. 3.04568536e-03 0. 0. 2.03045690e-03 0.
      1.01522845e-03 1.01522845e-03 1.01522845e-03 2.03045690e-03
      1.01522845e-03 0. 0. 1.01522845e-03 1.01522845e-03 0.
      1.01522845e-03 0. 1.01522845e-03 1.01522845e-03 3.04568536e-03
      2.03045690e-03 0. 0. 2.03045690e-03 3.04568536e-03 0. 0. 0.
      1.01522845e-03 0. 3.04568536e-03 0. 0. 0. 2.03045690e-03
      2.03045690e-03 0. 1.01522845e-03 4.06091381e-03 0. 1.01522845e-03
      0. 1.01522845e-03 0. 2.03045690e-03 0. 3.04568536e-03
      2.03045690e-03 4.06091381e-03 1.01522845e-03 0. 0. 1.01522845e-03
      1.01522845e-03 1.01522845e-03 0. 0. 0. 0. 1.01522845e-03 0.
      3.04568536e-03 0. 4.06091381e-03 1.01522845e-03 0. 0.
      1.01522845e-03 0. 1.01522845e-03 2.03045690e-03 0. 0.
      2.03045690e-03 1.01522845e-03 0. 0. 1.01522845e-03 0.
      2.03045690e-03 1.01522845e-03 0. 0. 0. 2.03045690e-03
      1.01522845e-03 1.01522845e-03 2.03045690e-03 0. 0. 0.
      1.01522845e-03 2.03045690e-03 0. 9.13705584e-03 0. 1.01522845e-03
      0. 1.01522845e-03 0. 0. 1.01522845e-03 0. 1.01522845e-03
      3.04568536e-03 2.03045690e-03 1.01522845e-03 1.01522845e-03 0.
      2.03045690e-03 1.01522845e-03 1.01522845e-03 0. 1.01522845e-03
      1.01522845e-03 0. 1.01522845e-03 2.03045690e-03 1.01522845e-03
      2.03045690e-03 0. 1.01522845e-03 3.04568536e-03 0. 0. 0.
      1.01522845e-03 0. 0. 2.03045690e-03 0. 1.01522845e-03 0.
      2.03045690e-03 1.01522845e-03 0. 2.03045690e-03 0. 1.01522845e-03
      7.10659940e-03 1.01522845e-03 0. 1.01522845e-03 0. 0.
      1.01522845e-03 0. 1.01522845e-03 1.01522845e-03 0. 0.
      3.04568536e-03 0. 2.03045690e-03 0. 1.01522845e-03 0.
      4.06091381e-03 3.04568536e-03 1.01522845e-03 2.03045690e-03
      5.07614203e-03 0. 1.01522845e-03 2.03045690e-03 1.01522845e-03
      1.01522845e-03 4.06091381e-03 0. 2.03045690e-03 1.01522845e-03
      1.01522845e-03 0. 2.03045690e-03 0. 1.01522845e-03 0.
      4.06091381e-03 0. 0. 1.01522845e-03 1.01522845e-03 0.
      1.01522845e-03 0. 1.01522845e-03 1.01522845e-03 0. 0.
      2.03045690e-03 1.01522845e-03 1.01522845e-03 1.01522845e-03
      1.01522845e-03 1.01522845e-03 6.09137071e-03 1.01522845e-03 0.
      2.03045690e-03 1.01522845e-03 0. 2.03045690e-03 2.03045690e-03
      2.03045690e-03 1.01522845e-03 2.03045690e-03 0. 1.01522845e-03 0.
      0. 3.04568536e-03 0. 1.01522845e-03 0. 1.01522845e-03
      2.03045690e-03 1.01522845e-03 0. 0. 1.01522845e-03 1.01522845e-03
      0. 1.01522845e-03 0. 1.01522845e-03 0. 0. 0. 0. 0. 1.01522845e-03
      0. 0. 0. 0. 0. 1.01522845e-03 0. 0. 3.04568536e-03 2.03045690e-03
      2.03045690e-03 0. 0. 0. 1.01522845e-03 2.03045690e-03 0.
      1.01522845e-03 0. 1.01522845e-03 3.04568536e-03 3.04568536e-03
      2.03045690e-03 1.01522845e-03 0. 1.01522845e-03 0. 0.
      4.06091381e-03 2.03045690e-03 1.01522845e-03 0. 3.04568536e-03
      1.01522845e-03 1.01522845e-03 1.01522845e-03 2.03045690e-03 0.
      1.01522845e-03 0. 1.01522845e-03 1.01522845e-03 1.01522845e-03
      1.01522845e-03 0. 0. 1.01522845e-03 1.01522845e-03 0.
      1.01522845e-03 2.03045690e-03 3.04568536e-03 2.03045690e-03
      1.01522845e-03 0. 0. 1.01522845e-03 1.01522845e-03 1.01522845e-03
      1.01522845e-03 0. 4.06091381e-03 4.06091381e-03 1.01522845e-03
      2.03045690e-03 1.01522845e-03 1.01522845e-03 0. 0. 0. 0. 0.
      3.04568536e-03 0. 0. 0. 0. 0. 3.04568536e-03 0. 0. 0. 0. 0.
      1.01522845e-03 0. 1.01522845e-03 0. 1.01522845e-03 1.01522845e-03
      1.01522845e-03 0. 1.01522845e-03 2.03045690e-03 0. 1.01522845e-03
      1.01522845e-03 0. 0. 2.03045690e-03 3.04568536e-03 4.06091381e-03
      2.03045690e-03 0. 1.01522845e-03 2.03045690e-03 1.01522845e-03
      1.01522845e-03 3.04568536e-03 1.01522845e-03 1.01522845e-03 0.
      4.06091381e-03 0. 3.04568536e-03 1.01522845e-03 4.06091381e-03
      2.03045690e-03 0. 1.01522845e-03 1.01522845e-03 1.01522845e-03
      2.03045690e-03 1.01522845e-03 1.01522845e-03 1.01522845e-03
      1.01522845e-03 0. 4.06091381e-03 2.03045690e-03 1.01522845e-03 0.
      1.01522845e-03 0. 0. 1.01522845e-03 1.01522845e-03 1.01522845e-03
      0. 0. 0. 1.01522845e-03 0. 1.01522845e-03 3.04568536e-03
      1.01522845e-03 1.01522845e-03 9.13705584e-03 1.01522845e-03 0.
      1.01522845e-03 6.09137071e-03 0. 1.01522845e-03 0. 1.01522845e-03
      1.01522845e-03 1.01522845e-03 1.01522845e-03 0. 0. 2.03045690e-03
      7.10659940e-03 1.01522845e-03 3.04568536e-03 0. 2.03045690e-03 0.
      0. 0. 1.01522845e-03 0. 0. 1.01522845e-03 2.03045690e-03 0.
      1.01522845e-03 2.03045690e-03 0. 0. 3.04568536e-03 0. 0. 0.
      1.01522845e-03 1.01522845e-03 0. 0. 1.01522845e-03 0.
      1.01522845e-03 0. 0. 2.03045690e-03 1.01522845e-03 0.
      3.04568536e-03 1.01522845e-03 1.01522845e-03 3.04568536e-03
      2.03045690e-03 1.01522845e-03 1.01522845e-03 1.01522845e-03 0.
      3.04568536e-03 2.03045690e-03 1.01522845e-03 0. 2.03045690e-03
      1.01522845e-03 1.01522845e-03 0. 0. 1.01522845e-03 1.01522845e-03
      0. 0. 3.04568536e-03 4.06091381e-03 3.04568536e-03 0. 0. 0. 0.
      2.03045690e-03 0. 0. 0. 2.03045690e-03 3.04568536e-03 0. 0.
      1.01522845e-03 0. 0. 1.01522845e-03 4.06091381e-03 1.01522845e-03
      2.03045690e-03 1.01522845e-03 0. 1.01522845e-03 2.03045690e-03 0.
      1.01522845e-03 1.01522845e-03 1.01522845e-03 0. 0. 0. 0.
      1.01522845e-03 1.01522845e-03 0. 0. 0. 0. 3.04568536e-03
      1.01522845e-03 1.01522845e-03 0. 0. 0. 0. 0. 4.06091381e-03 0.
      1.01522845e-03 1.01522845e-03 0. 1.01522845e-03 0. 0. 0.
      4.06091381e-03 0. 0. 2.03045690e-03 0. 0. 0. 0. 0. 1.01522845e-03
      0. 1.01522845e-03 0. 2.03045690e-03 0. 0. 0. 0. 2.03045690e-03
      1.01522845e-03 0. 2.03045690e-03 2.03045690e-03 1.01522845e-03 0.</_>
    <_>
      1.14678894e-03 2.29357788e-03 1.72018341e-03 1.72018341e-03
      1.72018341e-03 5.73394471e-04 5.73394471e-04 0. 0. 0.
      1.14678894e-03 0. 1.72018341e-03 5.73394471e-04 0. 1.72018334e-02
      5.73394471e-04 5.73394471e-04 0. 5.73394471e-04 0. 5.73394471e-04
      2.29357788e-03 1.14678894e-03 1.14678894e-03 0. 5.73394471e-04
      2.86697224e-03 0. 5.73394471e-04 0. 5.16055012e-03 2.86697224e-03
      0. 5.73394471e-04 1.72018341e-03 1.14678894e-03 1.72018341e-03
      5.73394471e-04 1.14678894e-03 5.73394471e-04 3.44036683e-03
      2.29357788e-03 5.73394471e-04 1.14678894e-03 5.73394471e-04
      5.73394471e-04 0. 5.73394471e-04 1.72018341e-03 1.14678894e-03
      1.14678894e-03 0. 1.14678894e-03 1.14678894e-03 2.29357788e-03 0.
      5.73394471e-04 1.14678894e-03 5.73394471e-04 1.14678894e-03
      5.73394471e-04 1.14678894e-03 1.14678894e-03 0. 5.73394471e-04
      4.58715577e-03 1.72018341e-03 0. 0. 1.72018341e-03 5.73394471e-04
      1.72018341e-03 5.73394471e-04 5.73394471e-04 1.72018341e-03
      1.14678894e-03 5.73394471e-04 5.73394471e-04 5.73394471e-04
      1.72018341e-03 0. 5.73394471e-04 5.73394471e-04 0. 5.73394471e-04
      5.73394471e-04 5.73394471e-04 5.73394471e-04 2.29357788e-03
      2.86697224e-03 0. 1.14678894e-03 1.14678894e-03 5.73394471e-04
      1.72018341e-03 0. 1.14678894e-03 1.14678894e-03 5.73394471e-04
      5.73394471e-04 1.14678894e-03 0. 0. 0. 5.73394471e-04
      5.73394471e-04 1.14678894e-03 2.86697224e-03 5.73394471e-04
      2.86697224e-03 4.58715577e-03 5.73394471e-04 5.73394471e-04
      5.73394471e-04 0. 5.73394471e-04 0. 2.29357788e-03 5.73394471e-04
      5.73394471e-04 0. 1.14678894e-03 3.44036683e-03 5.73394471e-04
      1.72018341e-03 0. 5.73394471e-04 0. 0. 0. 0. 0. 1.72018341e-03
      2.29357788e-03 1.14678894e-03 2.86697224e-03 0. 0. 5.73394471e-04
      2.29357788e-03 5.73394471e-04 0. 1.72018341e-03 1.14678894e-03
      1.14678894e-03 2.86697224e-03 0. 2.86697224e-03 0. 1.72018341e-03
      0. 3.44036683e-03 0. 2.29357788e-03 1.14678894e-03 0.
      1.72018341e-03 0. 3.44036683e-03 2.86697224e-03 0. 0.
      1.14678894e-03 5.73394471e-04 0. 0. 0. 1.72018341e-03
      1.14678894e-03 1.14678894e-03 0. 5.73394471e-04 0. 5.73394471e-04
      0. 1.14678894e-03 1.14678894e-03 5.73394471e-04 0. 0. 0.
      5.73394471e-04 1.72018341e-03 0. 5.73394471e-04 5.73394471e-04
      5.73394471e-04 0. 1.14678894e-03 0. 5.73394471e-04 5.73394471e-04
      0. 1.14678894e-03 2.86697224e-03 3.44036683e-03 1.72018341e-03
      5.73394471e-04 5.73394471e-04 0. 0. 1.72018341e-03 5.73394471e-04
      1.72018341e-03 1.72018341e-03 0. 2.29357788e-03 1.72018341e-03
      5.73394471e-04 5.73394471e-04 2.29357788e-03 0. 0. 5.73394471e-04
      0. 5.73394471e-04 1.14678894e-03 1.14678894e-03 5.73394471e-04 0.
      5.73394471e-04 3.44036683e-03 5.73394471e-04 1.14678894e-03
      2.86697224e-03 5.73394471e-04 1.14678894e-03 4.01376141e-03 0.
      1.72018341e-03 3.44036683e-03 1.14678894e-03 0. 4.01376141e-03
      1.14678894e-03 0. 1.14678894e-03 5.73394471e-04 2.29357788e-03
      5.73394471e-04 5.73394471e-04 5.73394471e-04 1.72018341e-03
      5.73394471e-04 1.14678894e-03 0. 1.14678894e-03 5.73394471e-04
      1.72018341e-03 2.29357788e-03 0. 2.29357788e-03 0. 0. 0. 0. 0.
      1.14678894e-03 2.29357788e-03 5.73394471e-04 5.73394471e-04
      5.73394471e-04 5.73394471e-04 2.86697224e-03 5.73394471e-04
      1.14678894e-03 0. 1.14678894e-03 5.73394471e-04 1.14678894e-03 0.
      1.72018341e-03 1.14678894e-03 1.14678894e-03 1.14678894e-03
      1.72018341e-03 5.73394471e-04 2.86697224e-03 2.86697224e-03
      5.73394471e-04 1.14678894e-03 5.73394471e-04 0. 0. 2.29357788e-03
      0. 1.14678894e-03 5.73394471e-04 1.14678894e-03 1.72018341e-03
      1.14678894e-03 5.73394471e-04 0. 2.86697224e-03 1.14678894e-03 0.
      5.73394471e-04 0. 5.73394471e-04 0. 1.14678894e-03 1.14678894e-03
      5.73394471e-04 5.73394471e-04 1.72018341e-03 1.72018341e-03
      1.14678894e-03 1.72018341e-03 5.73394471e-04 1.14678894e-03 0.
      1.72018341e-03 2.86697224e-03 5.73394471e-04 1.14678894e-03 0. 0.
      5.73394471e-04 3.44036683e-03 5.73394471e-04 1.14678894e-03
      5.73394471e-04 2.29357788e-03 1.14678894e-03 0. 5.73394471e-04
      1.14678894e-03 0. 1.14678894e-03 5.73394471e-04 0. 1.72018341e-03
      1.14678894e-03 0. 0. 0. 3.44036683e-03 1.14678894e-03
      5.73394471e-04 1.14678894e-03 5.73394471e-04 5.73394471e-04
      5.73394471e-04 1.72018341e-03 0. 1.14678894e-03 5.73394471e-04
      1.14678894e-03 0. 0. 1.14678894e-03 5.73394471e-04 0.
      5.73394471e-04 1.72018341e-03 1.14678894e-03 5.73394471e-04
      5.73394471e-04 1.14678894e-03 1.14678894e-03 0. 2.86697224e-03
      1.72018341e-03 2.86697224e-03 0. 5.73394471e-04 5.73394471e-04
      1.14678894e-03 5.73394471e-04 0. 0. 1.14678894e-03 5.73394471e-04
      1.14678894e-03 1.14678894e-03 1.72018341e-03 1.72018341e-03
      5.73394471e-04 2.29357788e-03 1.14678894e-03 5.73394471e-04
      5.73394471e-04 0. 1.14678894e-03 1.14678894e-03 5.73394471e-04
      2.29357788e-03 0. 5.73394471e-04 1.14678894e-03 0. 1.72018341e-03
      1.14678894e-03 5.73394471e-04 1.14678894e-03 0. 0. 0. 0. 0. 0.
      1.14678894e-03 1.72018341e-03 1.14678894e-03 1.72018341e-03 0.
      5.73394471e-04 2.29357788e-03 0. 5.73394471e-04 1.14678894e-03 0.
      5.73394471e-04 1.14678894e-03 0. 5.73394471e-04 2.86697224e-03 0.
      1.72018341e-03 1.72018341e-03 1.14678894e-03 5.73394471e-04
      1.14678894e-03 5.73394471e-04 1.14678894e-03 1.14678894e-03
      5.73394471e-04 1.14678894e-03 0. 0. 1.72018341e-03 3.44036683e-03
      0. 5.73394471e-04 5.73394471e-04 5.73394471e-04 1.14678894e-03
      3.44036683e-03 1.72018341e-03 5.73394471e-04 0. 1.14678894e-03
      5.73394471e-04 5.73394471e-04 0. 0. 5.73394471e-04 2.29357788e-03
      0. 1.14678894e-03 4.01376141e-03 2.29357788e-03 5.73394471e-04
      2.29357788e-03 1.14678894e-03 0. 5.73394471e-04 1.14678894e-03
      5.73394471e-04 5.73394471e-04 5.73394471e-04 1.14678894e-03 0.
      5.73394471e-04 0. 0. 0. 0. 1.14678894e-03 1.72018341e-03 0. 0.
      4.01376141e-03 5.73394471e-04 1.72018341e-03 2.29357788e-03 0.
      1.14678894e-03 0. 5.73394471e-04 5.73394471e-04 1.72018341e-03 0.
      2.29357788e-03 3.44036683e-03 0. 3.44036683e-03 1.14678894e-03
      1.14678894e-03 2.29357788e-03 1.72018341e-03 5.73394471e-04
      2.29357788e-03 5.73394471e-04 1.14678894e-03 5.73394471e-04
      2.29357788e-03 5.73394471e-04 1.14678894e-03 5.73394471e-04
      1.14678894e-03 1.72018341e-03 0. 2.29357788e-03 1.14678894e-03
      1.14678894e-03 1.72018341e-03 5.73394471e-04 1.14678894e-03 0.
      5.73394471e-04 2.86697224e-03 1.14678894e-03 5.73394471e-04
      5.73394471e-04 0. 5.73394471e-04 0. 1.14678894e-03 2.86697224e-03
      0. 5.73394471e-04 2.29357788e-03 5.73394471e-04 0. 1.72018341e-03
      0. 5.73394471e-04 0. 2.29357788e-03 1.72018341e-03 4.01376141e-03
      0. 1.72018341e-03 1.14678894e-03 0. 5.73394471e-04 2.29357788e-03
      1.72018341e-03 1.14678894e-03 0. 1.14678894e-03 5.73394471e-04
      5.73394471e-04 1.14678894e-03 0. 0. 2.29357788e-03 5.73394471e-04
      0. 1.14678894e-03 5.73394471e-04 5.73394471e-04 5.73394471e-04 0.
      5.73394471e-04 5.73394471e-04 2.86697224e-03 0. 2.86697224e-03
      5.73394471e-04 0. 1.72018341e-03 2.86697224e-03 0. 0. 0.
      1.72018341e-03 0. 1.14678894e-03 1.72018341e-03 5.73394471e-04
      1.14678894e-03 3.44036683e-03 1.14678894e-03 5.73394471e-04 0.
      5.73394471e-04 5.73394471e-04 1.72018341e-03 1.14678894e-03
      1.72018341e-03 1.72018341e-03 0. 5.73394471e-04 1.14678894e-03 0.
      1.72018341e-03 2.29357788e-03 1.72018341e-03 5.73394471e-04 0.
      1.14678894e-03 5.73394471e-04 1.14678894e-03 1.72018341e-03 0. 0.
      5.73394471e-04 1.14678894e-03 5.73394471e-04 1.72018341e-03
      1.14678894e-03 1.14678894e-03 5.73394471e-04 2.29357788e-03
      5.73394471e-04 1.72018341e-03 2.29357788e-03 0. 5.73394471e-04
      1.72018341e-03 1.72018341e-03 5.73394471e-04 1.14678894e-03
      1.72018341e-03 1.14678894e-03 1.72018341e-03 0. 5.73394471e-04
      5.73394471e-04 1.72018341e-03 5.73394471e-04 0. 0. 4.01376141e-03
      0. 1.72018341e-03 1.14678894e-03 2.86697224e-03 5.73394471e-04
      2.29357788e-03 0. 3.44036683e-03 1.72018341e-03 2.86697224e-03
      5.73394471e-04 0. 2.86697224e-03 4.58715577e-03 5.73394471e-04
      1.72018341e-03 0. 1.14678894e-03 5.73394471e-04 2.29357788e-03
      1.72018341e-03 1.72018341e-03 5.73394471e-04 0. 1.14678894e-03
      1.14678894e-03 1.14678894e-03 1.14678894e-03 5.73394471e-04
      1.14678894e-03 2.86697224e-03 1.72018341e-03 0. 1.72018341e-03
      1.72018341e-03 0. 1.14678894e-03 0. 0. 1.14678894e-03 0.
      5.73394471e-04 0. 2.29357788e-03 2.86697224e-03 3.44036683e-03
      1.14678894e-03 5.73394471e-04 0. 1.72018341e-03 5.73394471e-04 0.
      0. 1.14678894e-03 5.73394471e-04 1.14678894e-03 4.01376141e-03
      1.72018341e-03 0. 5.73394471e-04 5.73394471e-04 5.73394471e-04
      1.14678894e-03 0. 5.73394471e-04 5.73394471e-04 1.72018341e-03 0.
      1.14678894e-03 5.73394471e-04 0. 5.73394471e-04 0. 5.73394471e-04
      5.73394471e-04 5.73394471e-04 1.14678894e-03 1.14678894e-03
      5.73394471e-04 5.73394471e-04 0. 1.72018341e-03 1.72018341e-03
      1.14678894e-03 5.73394471e-04 5.73394471e-04 1.72018341e-03 0. 0.
      1.72018341e-03 1.14678894e-03 0. 0. 1.72018341e-03 1.14678894e-03
      0. 5.73394471e-04 0. 2.86697224e-03 1.14678894e-03 1.72018341e-03
      1.72018341e-03 1.14678894e-03 0. 5.73394471e-04 0. 5.73394471e-04
      0. 1.72018341e-03 1.14678894e-03 0. 1.72018341e-03 1.72018341e-03
      1.72018341e-03 1.72018341e-03 1.14678894e-03 5.73394471e-04 0.
      2.29357788e-03 0. 2.29357788e-03 5.73394471e-04 3.44036683e-03
      1.14678894e-03 5.73394471e-04 5.73394471e-04 0. 1.14678894e-03
      1.72018341e-03 1.72018341e-03 1.14678894e-03 5.73394448e-03
      1.14678894e-03 1.72018341e-03 0. 0. 0. 5.73394471e-04 0.
      1.72018341e-03 0. 0. 0. 0. 2.86697224e-03 5.73394471e-04
      5.73394471e-04 0. 0. 0. 2.86697224e-03 5.73394471e-04 0. 0.
      2.29357788e-03 1.14678894e-03 5.73394471e-04 0. 1.72018341e-03
      5.73394471e-04 5.73394471e-04 5.73394471e-04 5.73394471e-04
      1.14678894e-03 0. 1.14678894e-03 5.73394471e-04 0. 0.
      5.73394471e-04 1.72018341e-03 1.14678894e-03 1.14678894e-03 0. 0.
      2.29357788e-03 0. 1.72018341e-03 1.72018341e-03 1.14678894e-03
      1.72018341e-03 5.73394471e-04 1.14678894e-03 0. 0. 1.14678894e-03
      1.14678894e-03 2.29357788e-03 1.14678894e-03 5.73394471e-04
      5.73394471e-04 1.14678894e-03 2.86697224e-03 5.73394471e-04
      1.14678894e-03 2.29357788e-03 2.29357788e-03 5.73394471e-04
      2.86697224e-03 1.14678894e-03 1.14678894e-03 0. 0. 1.14678894e-03
      2.29357788e-03 5.73394471e-04 5.73394471e-04 0. 1.14678894e-03
      1.72018341e-03 5.73394471e-04 5.73394471e-04 0. 1.14678894e-03
      2.86697224e-03 5.73394471e-04 5.73394471e-04 1.72018341e-03
      1.14678894e-03 1.72018341e-03 5.73394471e-04 5.73394471e-04 0.
      2.86697224e-03 0. 1.72018341e-03 0. 1.14678894e-03 5.73394471e-04
      5.73394471e-04 1.72018341e-03 1.72018341e-03 5.73394471e-04
      1.14678894e-03 5.73394471e-04 5.73394471e-04 1.14678894e-03
      5.73394471e-04 0. 5.73394471e-04 5.73394471e-04 5.73394471e-04 0.
      0. 5.73394471e-04 0. 5.73394471e-04 1.14678894e-03 0.
      1.14678894e-03 1.72018341e-03 1.14678894e-03 1.72018341e-03 0.
      5.73394471e-04 5.73394471e-04 5.73394471e-04 0. 5.73394471e-04 0.
      1.72018341e-03 5.73394471e-04 0. 5.73394471e-04 2.29357788e-03
      1.72018341e-03 5.73394471e-04 0. 1.14678894e-03 5.73394471e-04
      5.73394471e-04 1.14678894e-03 3.44036683e-03 1.14678894e-03
      1.14678894e-03 1.14678894e-03 5.73394471e-04 5.73394471e-04
      1.14678894e-03 1.72018341e-03 2.29357788e-03 5.73394471e-04
      2.29357788e-03 0. 5.73394471e-04 1.14678894e-03 1.72018341e-03
      1.14678894e-03 5.73394471e-04 0. 0. 1.14678894e-03 2.86697224e-03
      1.14678894e-03 1.14678894e-03 1.14678894e-03 0. 1.72018341e-03
      5.73394471e-04 0. 5.73394471e-04 1.14678894e-03 1.72018341e-03
      5.73394471e-04 5.73394471e-04 1.14678894e-03 1.72018341e-03
      1.14678894e-03 1.72018341e-03 1.72018341e-03 1.14678894e-03
      1.72018341e-03 2.86697224e-03 5.73394471e-04 5.73394471e-04 0.
      1.14678894e-03 5.73394471e-04 1.14678894e-03 5.73394471e-04
      1.14678894e-03 1.72018341e-03 0. 5.73394471e-04 1.14678894e-03
      1.72018341e-03 1.14678894e-03 1.14678894e-03 1.72018341e-03 0.
      1.14678894e-03 5.73394471e-04 5.73394471e-04 1.72018341e-03
      1.14678894e-03 5.73394471e-04 0. 5.73394471e-04 5.73394471e-04
      1.14678894e-03 5.73394471e-04 5.73394471e-04 0. 0. 1.14678894e-03
      0. 2.29357788e-03 2.29357788e-03 0. 0. 1.14678894e-03
      5.73394471e-04 3.44036683e-03 2.29357788e-03 1.14678894e-03
      5.73394471e-04 5.73394471e-04 2.86697224e-03 5.73394471e-04
      5.73394471e-04 2.29357788e-03 5.73394471e-04 5.73394471e-04 0.
      2.29357788e-03 5.73394471e-04 1.14678894e-03 1.14678894e-03 0. 0.
      1.14678894e-03 2.29357788e-03 2.86697224e-03</_>
    <_>
      1.93610846e-03 0. 0. 0. 0. 3.87221691e-03 0. 9.68054228e-04
      3.87221691e-03 4.84027108e-03 0. 0. 0. 0. 9.68054228e-04 0. 0.
      2.90416274e-03 9.68054228e-04 1.93610846e-03 9.68054228e-04
      1.93610846e-03 0. 2.90416274e-03 1.93610846e-03 2.90416274e-03 0.
      0. 9.68054228e-04 0. 1.93610846e-03 9.68054228e-04 2.90416274e-03
      0. 0. 0. 9.68054228e-04 1.93610846e-03 0. 9.68054228e-04
      9.68054228e-04 9.68054228e-04 0. 1.93610846e-03 9.68054228e-04 0.
      1.93610846e-03 2.90416274e-03 2.90416274e-03 0. 0. 0.
      9.68054228e-04 0. 9.68054228e-04 9.68054228e-04 1.93610846e-03
      3.87221691e-03 0. 3.87221691e-03 1.93610846e-03 1.93610846e-03
      1.93610846e-03 0. 3.87221691e-03 0. 9.68054228e-04 1.93610846e-03
      0. 0. 0. 3.87221691e-03 9.68054228e-04 0. 9.68054228e-04 0.
      9.68054228e-04 0. 0. 0. 3.87221691e-03 0. 9.68054228e-04
      2.90416274e-03 9.68054228e-04 9.68054228e-04 2.90416274e-03 0. 0.
      9.68054228e-04 1.93610846e-03 3.87221691e-03 9.68054228e-04
      9.68054228e-04 9.68054228e-04 9.68054228e-04 0. 0. 2.90416274e-03
      1.93610846e-03 1.93610846e-03 2.90416274e-03 9.68054228e-04
      9.68054228e-04 0. 0. 9.68054228e-04 0. 9.68054228e-04
      9.68054228e-04 1.93610846e-03 0. 9.68054228e-04 4.84027108e-03
      1.93610846e-03 0. 9.68054228e-04 9.68054228e-04 1.93610846e-03
      1.93610846e-03 0. 0. 9.68054228e-04 0. 9.68054228e-04 0. 0.
      9.68054228e-04 2.90416274e-03 0. 0. 9.68054228e-04 0. 0.
      2.90416274e-03 9.68054228e-04 1.93610846e-03 0. 0. 0.
      3.87221691e-03 3.87221691e-03 0. 0. 1.93610846e-03 0. 0.
      9.68054228e-04 9.68054228e-04 0. 0. 9.68054228e-04 0. 0.
      9.68054228e-04 9.68054228e-04 0. 9.68054228e-04 0. 9.68054228e-04
      9.68054228e-04 0. 0. 9.68054228e-04 1.93610846e-03 0.
      9.68054228e-04 1.93610846e-03 1.93610846e-03 1.93610846e-03
      1.93610846e-03 0. 1.93610846e-03 0. 9.68054228e-04 1.93610846e-03
      9.68054228e-04 2.90416274e-03 0. 9.68054228e-04 0. 0. 0.
      2.90416274e-03 1.93610846e-03 1.93610846e-03 9.68054228e-04 0.
      9.68054228e-04 0. 0. 3.87221691e-03 0. 1.93610846e-03 0. 0.
      9.68054228e-04 9.68054228e-04 9.68054228e-04 1.93610846e-03 0. 0.
      9.68054228e-04 9.68054228e-04 9.68054228e-04 0. 0. 0. 0.
      1.93610846e-03 1.93610846e-03 1.93610846e-03 2.90416274e-03
      1.93610846e-03 0. 1.93610846e-03 3.87221691e-03 0. 0. 0.
      9.68054228e-04 9.68054228e-04 1.93610846e-03 9.68054228e-04
      1.93610846e-03 9.68054228e-04 1.93610846e-03 1.93610846e-03
      9.68054228e-04 0. 1.93610846e-03 2.90416274e-03 0. 2.90416274e-03
      0. 0. 0. 0. 0. 9.68054228e-04 0. 0. 0. 0. 1.93610846e-03 0. 0.
      2.90416274e-03 0. 0. 0. 0. 9.68054228e-04 9.68054228e-04
      9.68054228e-04 1.93610846e-03 0. 0. 9.68054228e-04 9.68054228e-04
      2.90416274e-03 9.68054228e-04 0. 0. 0. 2.90416274e-03 0. 0.
      9.68054228e-04 9.68054228e-04 1.93610846e-03 9.68054228e-04
      9.68054228e-04 0. 0. 1.93610846e-03 9.68054228e-04 9.68054228e-04
      0. 9.68054228e-04 0. 0. 1.93610846e-03 0. 1.93610846e-03 0.
      2.90416274e-03 9.68054228e-04 2.90416274e-03 0. 9.68054228e-04
      9.68054228e-04 0. 1.93610846e-03 0. 1.93610846e-03 0.
      9.68054228e-04 0. 9.68054228e-04 1.93610846e-03 9.68054228e-04
      9.68054228e-04 1.93610846e-03 9.68054228e-04 9.68054228e-04
      9.68054228e-04 9.68054228e-04 1.93610846e-03 0. 9.68054228e-04 0.
      2.90416274e-03 1.93610846e-03 0. 0. 9.68054228e-04 0.
      9.68054228e-04 0. 9.68054228e-04 1.93610846e-03 3.87221691e-03
      9.68054228e-04 2.90416274e-03 9.68054228e-04 9.68054228e-04
      3.87221691e-03 0. 0. 9.68054228e-04 0. 9.68054228e-04
      9.68054228e-04 0. 1.93610846e-03 9.68054228e-04 1.93610846e-03 0.
      2.90416274e-03 2.90416274e-03 0. 9.68054228e-04 9.68054228e-04
      2.90416274e-03 0. 3.87221691e-03 9.68054228e-04 1.93610846e-03
      9.68054228e-04 1.93610846e-03 0. 0. 9.68054228e-04 1.93610846e-03
      2.90416274e-03 1.93610846e-03 1.93610846e-03 0. 9.68054228e-04 0.
      0. 0. 3.87221691e-03 1.93610846e-03 9.68054228e-04 0.
      9.68054228e-04 0. 0. 2.90416274e-03 0. 1.93610846e-03 0.
      1.93610846e-03 1.93610846e-03 3.87221691e-03 1.93610846e-03
      3.87221691e-03 9.68054228e-04 1.93610846e-03 0. 0. 9.68054228e-04
      0. 9.68054228e-04 0. 9.68054228e-04 9.68054228e-04 7.74443382e-03
      9.68054228e-04 0. 9.68054228e-04 0. 9.68054228e-04 9.68054228e-04
      9.68054228e-04 0. 9.68054228e-04 9.68054228e-04 0. 6.77637942e-03
      0. 5.80832548e-03 2.90416274e-03 9.68054228e-04 0. 9.68054228e-04
      9.68054228e-04 0. 1.93610846e-03 0. 9.68054228e-04 9.68054228e-04
      0. 1.93610846e-03 9.68054228e-04 2.90416274e-03 9.68054228e-04 0.
      0. 1.93610846e-03 2.90416274e-03 9.68054228e-04 9.68054228e-04
      9.68054228e-04 1.93610846e-03 9.68054228e-04 1.93610846e-03
      1.93610846e-03 0. 0. 0. 9.68054228e-04 9.68054228e-04 0.
      9.68054228e-04 9.68054228e-04 0. 1.93610846e-03 9.68054228e-04
      9.68054228e-04 0. 9.68054228e-04 1.93610846e-03 2.90416274e-03 0.
      1.93610846e-03 9.68054228e-04 9.68054228e-04 2.90416274e-03 0. 0.
      0. 9.68054228e-04 0. 9.68054228e-04 1.93610846e-03 1.93610846e-03
      9.68054228e-04 9.68054228e-04 0. 9.68054228e-04 9.68054228e-04
      9.68054228e-04 0. 0. 0. 9.68054228e-04 9.68054228e-04 0.
      9.68054228e-04 0. 9.68054228e-04 0. 9.68054228e-04 1.93610846e-03
      1.93610846e-03 0. 0. 2.90416274e-03 3.87221691e-03 0. 0. 0.
      9.68054228e-04 0. 9.68054228e-04 1.93610846e-03 9.68054228e-04 0.
      2.90416274e-03 0. 0. 0. 9.68054228e-04 9.68054228e-04 0.
      9.68054228e-04 1.93610846e-03 0. 1.93610846e-03 1.93610846e-03 0.
      1.93610846e-03 0. 9.68054228e-04 0. 0. 0. 0. 0. 9.68054228e-04
      1.93610846e-03 9.68054228e-04 0. 0. 9.68054228e-04 1.93610846e-03
      0. 0. 0. 9.68054228e-04 0. 9.68054228e-04 9.68054228e-04
      9.68054228e-04 1.93610846e-03 0. 0. 9.68054228e-04 9.68054228e-04
      0. 0. 9.68054228e-04 0. 9.68054228e-04 1.93610846e-03
      1.93610846e-03 1.93610846e-03 0. 9.68054228e-04 1.93610846e-03
      3.87221691e-03 1.93610846e-03 1.93610846e-03 1.93610846e-03
      9.68054228e-04 9.68054228e-04 0. 3.87221691e-03 1.93610846e-03
      9.68054228e-04 0. 1.93610846e-03 0. 9.68054228e-04 0.
      4.84027108e-03 0. 9.68054228e-04 0. 0. 0. 0. 9.68054228e-04 0. 0.
      1.93610846e-03 1.93610846e-03 0. 0. 9.68054228e-04 1.93610846e-03
      0. 0. 9.68054228e-04 9.68054228e-04 1.93610846e-03 9.68054228e-04
      1.93610846e-03 2.90416274e-03 1.93610846e-03 1.93610846e-03 0.
      2.90416274e-03 9.68054228e-04 9.68054228e-04 9.68054228e-04
      9.68054228e-04 1.93610846e-03 0. 0. 0. 0. 0. 9.68054228e-04 0.
      9.68054228e-04 0. 0. 0. 2.90416274e-03 0. 2.90416274e-03 0. 0.
      1.93610846e-03 0. 9.68054228e-04 0. 0. 3.87221691e-03
      9.68054228e-04 0. 1.93610846e-03 2.90416274e-03 0. 9.68054228e-04
      1.93610846e-03 9.68054228e-04 9.68054228e-04 0. 0. 0. 0.
      9.68054228e-04 9.68054228e-04 1.93610846e-03 9.68054228e-04 0. 0.
      0. 0. 0. 9.68054228e-04 0. 0. 0. 0. 1.93610846e-03 9.68054228e-04
      0. 0. 9.68054228e-04 0. 2.90416274e-03 0. 9.68054228e-04
      9.68054228e-04 0. 9.68054228e-04 1.93610846e-03 1.93610846e-03
      9.68054228e-04 0. 1.93610846e-03 0. 1.93610846e-03 2.90416274e-03
      0. 1.93610846e-03 0. 0. 1.93610846e-03 9.68054228e-04
      2.90416274e-03 0. 0. 0. 0. 9.68054228e-04 9.68054228e-04 0. 0. 0.
      0. 0. 0. 0. 9.68054228e-04 1.93610846e-03 0. 0. 0. 0. 0. 0. 0.
      9.68054228e-04 9.68054228e-04 2.90416274e-03 0. 0. 2.90416274e-03
      9.68054228e-04 9.68054228e-04 9.68054228e-04 0. 9.68054228e-04
      9.68054228e-04 0. 0. 0. 9.68054228e-04 0. 9.68054228e-04
      9.68054228e-04 1.93610846e-03 9.68054228e-04 9.68054228e-04
      3.87221691e-03 0. 0. 1.93610846e-03 9.68054228e-04 9.68054228e-04
      0. 0. 0. 0. 0. 0. 1.93610846e-03 1.93610846e-03 0. 1.93610846e-03
      9.68054228e-04 1.93610846e-03 9.68054228e-04 9.68054228e-04
      9.68054228e-04 1.93610846e-03 9.68054228e-04 2.90416274e-03 0.
      1.93610846e-03 1.93610846e-03 9.68054228e-04 0. 0. 1.93610846e-03
      9.68054228e-04 0. 0. 9.68054228e-04 0. 1.93610846e-03 0.
      3.87221691e-03 9.68054228e-04 0. 1.93610846e-03 9.68054228e-04
      9.68054228e-04 9.68054228e-04 2.90416274e-03 9.68054228e-04
      1.93610846e-03 0. 9.68054228e-04 2.90416274e-03 1.93610846e-03
      9.68054228e-04 9.68054228e-04 0. 0. 1.93610846e-03 1.93610846e-03
      9.68054228e-04 0. 0. 9.68054228e-04 9.68054228e-04 0. 0.
      2.90416274e-03 0. 1.93610846e-03 0. 9.68054228e-04 3.87221691e-03
      2.90416274e-03 1.93610846e-03 0. 0. 0. 1.93610846e-03
      9.68054228e-04 0. 0. 2.90416274e-03 9.68054228e-04 0.
      9.68054228e-04 0. 1.93610846e-03 0. 0. 0. 0. 9.68054228e-04 0.
      2.90416274e-03 2.90416274e-03 9.68054228e-04 1.93610846e-03 0.
      1.93610846e-03 1.93610846e-03 1.93610846e-03 9.68054228e-04
      9.68054228e-04 9.68054228e-04 1.93610846e-03 0. 2.90416274e-03
      9.68054228e-04 9.68054228e-04 2.90416274e-03 9.68054228e-04
      2.90416274e-03 9.68054228e-04 1.93610846e-03 1.93610846e-03 0. 0.
      9.68054228e-04 0. 1.93610846e-03 9.68054228e-04 9.68054228e-04
      9.68054228e-04 0. 9.68054228e-04 0. 9.68054228e-04 9.68054228e-04
      0. 0. 0. 2.90416274e-03 9.68054228e-04 9.68054228e-04
      2.90416274e-03 0. 0. 1.93610846e-03 1.93610846e-03 9.68054228e-04
      4.84027108e-03 0. 4.84027108e-03 9.68054228e-04 0. 9.68054228e-04
      9.68054228e-04 9.68054228e-04 1.93610846e-03 0. 9.68054228e-04
      9.68054228e-04 0. 0. 0. 2.90416274e-03 2.90416274e-03
      9.68054228e-04 0. 0. 1.93610846e-03 0. 0. 1.93610846e-03
      1.93610846e-03 0. 0. 1.93610846e-03 1.93610846e-03 1.93610846e-03
      9.68054228e-04 0. 1.93610846e-03 0. 0. 0. 1.93610846e-03 0. 0. 0.
      0. 0. 1.93610846e-03 1.93610846e-03 0. 0. 1.93610846e-03 0.
      2.90416274e-03 0. 9.68054228e-04 9.68054228e-04 9.68054228e-04 0.
      1.93610846e-03 9.68054228e-04 0. 0. 2.90416274e-03 9.68054228e-04
      0. 1.93610846e-03 0. 0. 1.93610846e-03 0. 9.68054228e-04
      4.84027108e-03 0. 9.68054228e-04 2.90416274e-03 9.68054228e-04
      9.68054228e-04 0. 0. 1.93610846e-03 1.93610846e-03 0.
      9.68054228e-04 0. 9.68054228e-04 9.68054228e-04 9.68054228e-04
      9.68054228e-04 9.68054228e-04 9.68054228e-04 9.68054228e-04
      2.90416274e-03 9.68054228e-04 0. 9.68054228e-04 3.87221691e-03
      1.93610846e-03 0. 9.68054228e-04 1.93610846e-03 0. 0. 0.
      9.68054228e-04 0. 1.93610846e-03 0. 0. 9.68054228e-04 0.
      9.68054228e-04 1.93610846e-03 0. 1.93610846e-03 0. 9.68054228e-04
      9.68054228e-04 0. 2.90416274e-03 0. 1.93610846e-03 9.68054228e-04
      0. 0. 9.68054228e-04 0. 9.68054228e-04 9.68054228e-04 0.
      1.93610846e-03 1.93610846e-03 2.90416274e-03 2.90416274e-03
      1.93610846e-03 9.68054228e-04 0. 0. 0. 1.93610846e-03
      1.93610846e-03 1.93610846e-03 9.68054228e-04 1.93610846e-03
      9.68054228e-04 3.87221691e-03 0. 0. 2.90416274e-03 9.68054228e-04
      0. 0. 9.68054228e-04 9.68054228e-04 2.90416274e-03</_>
    <_>
      4.31034481e-03 1.07758620e-03 0. 0. 0. 4.31034481e-03
      2.15517241e-03 2.15517241e-03 0. 0. 1.07758620e-03 0.
      2.15517241e-03 3.23275849e-03 2.15517241e-03 0. 1.07758620e-03
      1.07758620e-03 1.07758620e-03 5.38793113e-03 0. 2.15517241e-03
      4.31034481e-03 3.23275849e-03 1.07758620e-03 0. 1.07758620e-03
      2.15517241e-03 0. 0. 0. 1.07758620e-03 0. 0. 0. 2.15517241e-03 0.
      0. 2.15517241e-03 0. 1.07758620e-03 1.07758620e-03 0.
      2.15517241e-03 0. 0. 1.07758620e-03 0. 2.15517241e-03 0. 0. 0.
      1.07758620e-03 1.07758620e-03 0. 3.23275849e-03 5.38793113e-03
      1.07758620e-03 2.15517241e-03 0. 1.07758620e-03 0. 1.07758620e-03
      0. 1.07758620e-03 1.07758620e-03 4.31034481e-03 0. 0. 0. 0.
      3.23275849e-03 0. 0. 0. 1.07758620e-03 0. 0. 2.15517241e-03 0.
      1.07758620e-03 2.15517241e-03 1.07758620e-03 2.15517241e-03 0.
      1.07758620e-03 1.07758620e-03 0. 0. 0. 3.23275849e-03
      1.07758620e-03 5.38793113e-03 0. 2.15517241e-03 0. 0.
      2.15517241e-03 5.38793113e-03 1.07758620e-03 1.07758620e-03 0. 0.
      1.07758620e-03 0. 1.07758620e-03 0. 1.07758620e-03 2.15517241e-03
      1.07758620e-03 2.15517241e-03 1.07758620e-03 4.31034481e-03
      1.07758620e-03 1.07758620e-03 0. 0. 0. 3.23275849e-03
      2.15517241e-03 0. 0. 0. 0. 0. 1.07758620e-03 0. 2.15517241e-03
      3.23275849e-03 1.07758620e-03 2.15517241e-03 1.07758620e-03 0.
      3.23275849e-03 1.07758620e-03 0. 1.07758620e-03 0. 1.07758620e-03
      1.07758620e-03 0. 0. 1.07758620e-03 1.07758620e-03 2.15517241e-03
      1.07758620e-03 2.15517241e-03 2.15517241e-03 1.07758620e-03
      1.07758620e-03 1.07758620e-03 0. 1.07758620e-03 0. 2.15517241e-03
      0. 2.15517241e-03 0. 1.07758620e-03 1.07758620e-03 1.07758620e-03
      0. 0. 1.07758620e-03 1.07758620e-03 0. 1.07758620e-03 0.
      1.07758620e-03 1.07758620e-03 3.23275849e-03 1.07758620e-03
      1.07758620e-03 1.07758620e-03 1.07758620e-03 1.07758620e-03
      4.31034481e-03 2.15517241e-03 0. 0. 1.07758620e-03 2.15517241e-03
      0. 3.23275849e-03 1.07758620e-03 3.23275849e-03 0. 0. 0.
      2.15517241e-03 0. 0. 1.07758620e-03 0. 0. 1.07758620e-03
      1.07758620e-03 1.07758620e-03 0. 2.15517241e-03 1.07758620e-03
      2.15517241e-03 1.07758620e-03 0. 1.07758620e-03 0. 1.07758620e-03
      0. 1.07758620e-03 0. 3.23275849e-03 1.07758620e-03 0.
      1.07758620e-03 0. 1.07758620e-03 0. 1.07758620e-03 3.23275849e-03
      1.07758620e-03 0. 1.07758620e-03 0. 1.07758620e-03 2.15517241e-03
      2.15517241e-03 1.07758620e-03 1.07758620e-03 0. 1.07758620e-03
      4.31034481e-03 0. 3.23275849e-03 0. 3.23275849e-03 1.07758620e-03
      0. 2.15517241e-03 0. 0. 0. 1.07758620e-03 0. 0. 0. 1.07758620e-03
      0. 3.23275849e-03 1.07758620e-03 2.15517241e-03 2.15517241e-03
      2.15517241e-03 0. 1.07758620e-03 1.07758620e-03 0. 0.
      1.07758620e-03 2.15517241e-03 0. 0. 1.07758620e-03 3.23275849e-03
      0. 2.15517241e-03 2.15517241e-03 0. 0. 1.07758620e-03
      2.15517241e-03 2.15517241e-03 2.15517241e-03 0. 1.07758620e-03
      1.07758620e-03 2.15517241e-03 0. 2.15517241e-03 1.07758620e-03
      3.23275849e-03 0. 0. 1.07758620e-03 2.15517241e-03 2.15517241e-03
      0. 1.07758620e-03 0. 0. 0. 0. 0. 0. 0. 1.07758620e-03
      1.07758620e-03 1.07758620e-03 0. 2.15517241e-03 0. 0. 0.
      1.07758620e-03 0. 0. 1.07758620e-03 3.23275849e-03 4.31034481e-03
      1.07758620e-03 1.07758620e-03 0. 1.07758620e-03 2.15517241e-03
      2.15517241e-03 0. 0. 1.07758620e-03 1.07758620e-03 2.15517241e-03
      0. 1.07758620e-03 0. 0. 3.23275849e-03 2.15517241e-03 0.
      1.07758620e-03 2.15517241e-03 0. 1.07758620e-03 0. 1.07758620e-03
      0. 0. 1.07758620e-03 2.15517241e-03 0. 0. 1.07758620e-03
      2.15517241e-03 2.15517241e-03 1.07758620e-03 1.07758620e-03 0.
      2.15517241e-03 1.07758620e-03 1.07758620e-03 0. 0. 1.07758620e-03
      0. 1.07758620e-03 1.07758620e-03 0. 1.07758620e-03 3.23275849e-03
      1.07758620e-03 3.23275849e-03 2.15517241e-03 0. 3.23275849e-03 0.
      0. 0. 0. 0. 1.07758620e-03 2.15517241e-03 1.07758620e-03
      1.07758620e-03 2.15517241e-03 0. 1.07758620e-03 0. 4.31034481e-03
      0. 0. 0. 2.15517241e-03 0. 0. 1.07758620e-03 0. 0. 1.07758620e-03
      2.15517241e-03 1.07758620e-03 0. 2.15517241e-03 4.31034481e-03 0.
      2.15517241e-03 0. 1.07758620e-03 0. 0. 1.07758620e-03 0. 0. 0.
      1.07758620e-03 2.15517241e-03 0. 1.07758620e-03 0. 0.
      2.15517241e-03 0. 0. 1.07758620e-03 2.15517241e-03 3.23275849e-03
      1.07758620e-03 2.15517241e-03 2.15517241e-03 0. 0. 1.07758620e-03
      1.07758620e-03 0. 0. 0. 2.15517241e-03 3.23275849e-03
      3.23275849e-03 0. 0. 1.07758620e-03 0. 1.07758620e-03 0.
      1.07758620e-03 2.15517241e-03 0. 0. 2.15517241e-03 0. 0.
      1.07758620e-03 2.15517241e-03 2.15517241e-03 0. 2.15517241e-03 0.
      6.46551698e-03 0. 0. 1.07758620e-03 0. 3.23275849e-03
      4.31034481e-03 1.07758620e-03 0. 0. 2.15517241e-03 0.
      1.07758620e-03 0. 1.07758620e-03 1.07758620e-03 1.07758620e-03 0.
      1.07758620e-03 2.15517241e-03 1.07758620e-03 0. 1.07758620e-03
      1.07758620e-03 0. 1.07758620e-03 0. 0. 1.07758620e-03
      1.07758620e-03 1.07758620e-03 3.23275849e-03 1.07758620e-03
      3.23275849e-03 2.15517241e-03 0. 0. 0. 0. 0. 0. 2.15517241e-03
      1.07758620e-03 0. 2.15517241e-03 0. 0. 4.31034481e-03 0.
      2.15517241e-03 2.15517241e-03 0. 2.15517241e-03 0. 0.
      1.07758620e-03 0. 1.07758620e-03 0. 4.31034481e-03 1.07758620e-03
      0. 2.15517241e-03 1.07758620e-03 0. 0. 1.07758620e-03 0.
      1.07758620e-03 2.15517241e-03 2.15517241e-03 0. 0. 2.15517241e-03
      0. 0. 2.15517241e-03 0. 2.15517241e-03 1.07758620e-03
      1.07758620e-03 0. 1.07758620e-03 0. 2.15517241e-03 0.
      3.23275849e-03 1.07758620e-03 0. 0. 0. 1.07758620e-03 0. 0.
      1.07758620e-03 0. 2.15517241e-03 0. 0. 1.07758620e-03
      1.07758620e-03 3.23275849e-03 0. 0. 1.07758620e-03 1.07758620e-03
      0. 0. 0. 0. 2.15517241e-03 1.07758620e-03 0. 0. 1.07758620e-03 0.
      1.07758620e-03 0. 0. 1.07758620e-03 1.07758620e-03 0. 0. 0.
      4.31034481e-03 0. 1.07758620e-03 1.07758620e-03 0. 1.07758620e-03
      0. 0. 2.15517241e-03 1.07758620e-03 0. 2.15517241e-03
      1.07758620e-03 1.07758620e-03 2.15517241e-03 0. 1.07758620e-03
      1.07758620e-03 0. 2.15517241e-03 2.15517241e-03 0. 2.15517241e-03
      2.15517241e-03 3.23275849e-03 0. 0. 1.07758620e-03 0.
      3.23275849e-03 1.07758620e-03 1.07758620e-03 0. 0. 3.23275849e-03
      0. 1.07758620e-03 1.07758620e-03 0. 2.15517241e-03 2.15517241e-03
      1.07758620e-03 1.07758620e-03 0. 3.23275849e-03 1.07758620e-03 0.
      0. 0. 0. 0. 0. 2.15517241e-03 2.15517241e-03 0. 1.07758620e-03 0.
      1.07758620e-03 1.07758620e-03 0. 3.23275849e-03 4.31034481e-03
      1.07758620e-03 0. 1.07758620e-03 1.07758620e-03 2.15517241e-03
      4.31034481e-03 1.07758620e-03 1.07758620e-03 0. 0. 0.
      1.07758620e-03 0. 1.07758620e-03 0. 0. 0. 1.07758620e-03 0.
      1.07758620e-03 1.07758620e-03 2.15517241e-03 1.07758620e-03
      2.15517241e-03 0. 1.07758620e-03 1.07758620e-03 0. 0. 0.
      1.07758620e-03 1.07758620e-03 1.07758620e-03 0. 0. 0.
      3.23275849e-03 4.31034481e-03 1.07758620e-03 0. 1.07758620e-03
      1.07758620e-03 0. 0. 0. 0. 0. 0. 0. 1.07758620e-03 2.15517241e-03
      1.07758620e-03 3.23275849e-03 1.07758620e-03 0. 2.15517241e-03 0.
      2.15517241e-03 2.15517241e-03 0. 0. 0. 0. 0. 1.07758620e-03
      1.07758620e-03 0. 0. 2.15517241e-03 1.07758620e-03 1.07758620e-03
      0. 0. 1.07758620e-03 1.07758620e-03 2.15517241e-03 0.
      1.07758620e-03 1.07758620e-03 0. 0. 0. 1.07758620e-03
      1.07758620e-03 1.07758620e-03 0. 1.07758620e-03 1.07758620e-03 0.
      1.07758620e-03 0. 0. 0. 1.07758620e-03 4.31034481e-03
      2.15517241e-03 0. 1.07758620e-03 1.07758620e-03 0. 0. 0. 0.
      1.07758620e-03 1.07758620e-03 2.15517241e-03 0. 0. 0.
      2.15517241e-03 0. 0. 1.07758620e-03 2.15517241e-03 0. 0. 0. 0. 0.
      1.07758620e-03 0. 1.07758620e-03 0. 1.07758620e-03 0. 0.
      5.38793113e-03 2.15517241e-03 0. 1.07758620e-03 4.31034481e-03 0.
      0. 2.15517241e-03 0. 0. 1.07758620e-03 0. 0. 0. 0. 2.15517241e-03
      1.07758620e-03 0. 1.07758620e-03 2.15517241e-03 1.07758620e-03
      2.15517241e-03 3.23275849e-03 0. 0. 3.23275849e-03 2.15517241e-03
      0. 1.07758620e-03 0. 0. 1.07758620e-03 0. 3.23275849e-03 0.
      2.15517241e-03 3.23275849e-03 2.15517241e-03 1.07758620e-03 0. 0.
      0. 1.07758620e-03 1.07758620e-03 2.15517241e-03 0. 1.07758620e-03
      2.15517241e-03 2.15517241e-03 0. 3.23275849e-03 3.23275849e-03
      1.07758620e-03 2.15517241e-03 3.23275849e-03 0. 1.07758620e-03
      2.15517241e-03 0. 1.07758620e-03 2.15517241e-03 5.38793113e-03
      2.15517241e-03 3.23275849e-03 3.23275849e-03 3.23275849e-03 0. 0.
      0. 1.07758620e-03 4.31034481e-03 0. 1.07758620e-03 1.07758620e-03
      1.07758620e-03 1.07758620e-03 0. 0. 1.07758620e-03 3.23275849e-03
      0. 0. 0. 0. 6.46551698e-03 2.15517241e-03 0. 1.07758620e-03
      1.07758620e-03 0. 3.23275849e-03 1.07758620e-03 0. 2.15517241e-03
      3.23275849e-03 1.07758620e-03 0. 0. 0. 0. 2.15517241e-03
      1.07758620e-03 2.15517241e-03 1.07758620e-03 0. 0. 3.23275849e-03
      2.15517241e-03 0. 0. 0. 3.23275849e-03 1.07758620e-03 0.
      2.15517241e-03 0. 0. 0. 1.07758620e-03 1.07758620e-03 0. 0. 0.
      1.07758620e-03 5.38793113e-03 3.23275849e-03 1.07758620e-03 0. 0.
      0. 1.07758620e-03 0. 0. 3.23275849e-03 1.07758620e-03 0.
      3.23275849e-03 3.23275849e-03 0. 0. 2.15517241e-03 0.
      1.07758620e-03 0. 0. 0. 1.07758620e-03 0. 2.15517241e-03 0. 0. 0.
      2.15517241e-03 4.31034481e-03 0. 0. 1.07758620e-03 0.
      2.15517241e-03 0. 2.15517241e-03 0. 1.07758620e-03 4.31034481e-03
      0. 0. 1.07758620e-03 0. 0. 0. 1.07758620e-03 0. 0. 0.
      1.07758620e-03 1.07758620e-03 2.15517241e-03 2.15517241e-03 0.
      1.07758620e-03 0. 1.07758620e-03 0. 0. 2.15517241e-03
      1.07758620e-03 0. 0. 2.15517241e-03 1.07758620e-03 0.
      1.07758620e-03 3.23275849e-03 0. 0. 1.07758620e-03 0.
      1.07758620e-03 1.07758620e-03 0. 0. 1.07758620e-03 1.07758620e-03
      4.31034481e-03 1.07758620e-03 1.07758620e-03 1.07758620e-03
      4.31034481e-03 0. 0. 1.07758620e-03 2.15517241e-03 0. 0.
      2.15517241e-03 2.15517241e-03 0. 1.07758620e-03 0. 0. 0. 0.
      2.15517241e-03 0. 1.07758620e-03 0. 0. 0. 0. 0. 2.15517241e-03 0.
      0. 0. 3.23275849e-03 0. 0. 1.07758620e-03 1.07758620e-03
      2.15517241e-03 1.07758620e-03 1.07758620e-03 1.07758620e-03
      2.15517241e-03</_>
    <_>
      3.21543403e-03 0. 1.07181130e-03 2.14362261e-03 0. 1.07181130e-03
      0. 0. 0. 0. 0. 1.07181130e-03 0. 2.14362261e-03 2.14362261e-03 0.
      1.07181130e-03 0. 7.50267925e-03 0. 1.07181130e-03 2.14362261e-03
      1.07181130e-03 0. 0. 2.14362261e-03 2.14362261e-03 0. 0.
      1.07181130e-03 1.07181130e-03 1.07181130e-03 0. 1.07181130e-03
      1.07181130e-03 0. 1.07181130e-03 0. 0. 1.07181130e-03 0.
      2.14362261e-03 0. 0. 1.07181130e-03 2.14362261e-03 0. 0.
      4.28724522e-03 0. 0. 2.14362261e-03 0. 1.07181130e-03
      5.35905641e-03 3.21543403e-03 1.07181130e-03 1.07181130e-03 0.
      4.28724522e-03 1.07181128e-02 1.07181130e-03 0. 0. 2.14362261e-03
      1.07181130e-03 4.28724522e-03 0. 0. 1.07181130e-03 0.
      2.14362261e-03 0. 1.07181130e-03 0. 3.21543403e-03 0. 0.
      4.28724522e-03 1.07181130e-03 4.28724522e-03 2.14362261e-03 0.
      1.07181130e-03 0. 0. 0. 1.07181130e-03 0. 0. 0. 2.14362261e-03
      1.07181130e-03 0. 0. 0. 1.07181130e-03 1.07181130e-03
      1.07181130e-03 0. 1.07181130e-03 1.07181130e-03 0. 0.
      1.07181130e-03 0. 1.07181130e-03 2.14362261e-03 0. 3.21543403e-03
      2.14362261e-03 0. 0. 0. 1.07181130e-03 0. 4.28724522e-03
      4.28724522e-03 0. 1.07181130e-03 6.43086806e-03 0. 1.07181130e-03
      0. 0. 0. 0. 0. 1.07181130e-03 1.07181130e-03 1.07181130e-03 0.
      1.07181130e-03 2.14362261e-03 2.14362261e-03 1.07181130e-03
      2.14362261e-03 0. 0. 0. 2.14362261e-03 2.14362261e-03 0. 0. 0.
      2.14362261e-03 0. 3.21543403e-03 0. 0. 1.07181130e-03 0. 0. 0. 0.
      0. 2.14362261e-03 2.14362261e-03 0. 2.14362261e-03 1.07181130e-03
      0. 0. 0. 0. 0. 0. 0. 1.07181130e-03 0. 0. 1.07181130e-03 0. 0. 0.
      1.07181130e-03 0. 0. 3.21543403e-03 0. 1.07181130e-03 0. 0.
      5.35905641e-03 4.28724522e-03 0. 2.14362261e-03 1.07181130e-03 0.
      1.07181130e-03 0. 0. 0. 0. 1.07181130e-03 0. 0. 0. 1.07181130e-03
      2.14362261e-03 0. 2.14362261e-03 0. 4.28724522e-03 4.28724522e-03
      0. 0. 0. 1.07181130e-03 4.28724522e-03 1.07181130e-03
      1.07181130e-03 3.21543403e-03 2.14362261e-03 1.07181130e-03
      1.07181130e-03 0. 2.14362261e-03 0. 3.21543403e-03 0.
      1.07181130e-03 0. 0. 3.21543403e-03 1.07181130e-03 0.
      2.14362261e-03 0. 1.07181130e-03 0. 3.21543403e-03 2.14362261e-03
      2.14362261e-03 5.35905641e-03 2.14362261e-03 1.07181130e-03 0.
      1.07181130e-03 0. 0. 1.07181130e-03 0. 1.07181130e-03 0.
      1.07181130e-03 0. 0. 0. 1.07181130e-03 4.28724522e-03
      5.35905641e-03 2.14362261e-03 0. 0. 0. 0. 0. 5.35905641e-03
      6.43086806e-03 2.14362261e-03 4.28724522e-03 1.07181130e-03 0.
      2.14362261e-03 1.07181130e-03 0. 1.07181130e-03 0. 1.07181130e-03
      1.07181130e-03 0. 1.07181130e-03 1.07181130e-03 0. 0. 0.
      4.28724522e-03 1.07181130e-03 1.07181130e-03 0. 2.14362261e-03
      1.07181130e-03 1.07181130e-03 1.07181130e-03 0. 0. 0.
      1.07181130e-03 2.14362261e-03 0. 0. 2.14362261e-03 0.
      1.07181130e-03 0. 1.07181130e-03 0. 1.07181130e-03 0. 0. 0. 0.
      1.07181130e-03 0. 1.07181130e-03 0. 0. 2.14362261e-03
      2.14362261e-03 0. 0. 0. 4.28724522e-03 1.07181130e-03
      6.43086806e-03 0. 1.07181130e-03 2.14362261e-03 1.07181130e-03
      1.07181130e-03 0. 0. 0. 1.07181130e-03 0. 0. 2.14362261e-03 0.
      1.07181130e-03 0. 1.07181130e-03 2.14362261e-03 0. 0. 0. 0.
      1.07181130e-03 1.07181130e-03 4.28724522e-03 1.07181130e-03 0.
      2.14362261e-03 1.07181130e-03 0. 0. 2.14362261e-03 1.07181130e-03
      2.14362261e-03 1.07181130e-03 1.07181130e-03 2.14362261e-03 0. 0.
      0. 2.14362261e-03 1.07181130e-03 0. 0. 2.14362261e-03 0. 0.
      1.07181130e-03 1.07181130e-03 2.14362261e-03 0. 0. 0.
      1.07181130e-03 0. 1.07181130e-03 1.07181130e-03 1.07181130e-03
      2.14362261e-03 2.14362261e-03 1.07181130e-03 2.14362261e-03 0. 0.
      1.07181130e-03 0. 0. 0. 0. 0. 2.14362261e-03 0. 1.07181130e-03 0.
      2.14362261e-03 2.14362261e-03 1.07181130e-03 0. 0. 1.07181130e-03
      0. 0. 2.14362261e-03 4.28724522e-03 1.07181130e-03 1.07181130e-03
      0. 1.07181130e-03 2.14362261e-03 3.21543403e-03 3.21543403e-03
      1.07181130e-03 0. 0. 1.07181130e-03 1.07181130e-03 0.
      1.07181130e-03 0. 0. 0. 1.07181130e-03 1.07181130e-03 0.
      1.07181130e-03 0. 0. 2.14362261e-03 0. 0. 3.21543403e-03 0.
      1.07181130e-03 1.07181130e-03 2.14362261e-03 1.07181130e-03
      1.07181130e-03 0. 0. 0. 4.28724522e-03 0. 1.07181130e-03 0. 0. 0.
      3.21543403e-03 1.07181130e-03 3.21543403e-03 5.35905641e-03 0. 0.
      0. 1.07181130e-03 0. 1.07181130e-03 2.14362261e-03 1.07181130e-03
      0. 1.07181130e-03 2.14362261e-03 2.14362261e-03 0. 2.14362261e-03
      1.07181130e-03 0. 0. 1.07181130e-03 0. 0. 0. 2.14362261e-03 0.
      1.07181130e-03 0. 2.14362261e-03 0. 2.14362261e-03 1.07181130e-03
      0. 0. 0. 0. 3.21543403e-03 0. 0. 0. 0. 0. 0. 1.07181130e-03 0.
      4.28724522e-03 0. 0. 0. 1.07181130e-03 1.07181130e-03
      1.07181130e-03 0. 0. 0. 0. 0. 3.21543403e-03 0. 1.07181130e-03
      1.07181130e-03 3.21543403e-03 0. 2.14362261e-03 1.07181130e-03 0.
      1.07181130e-03 1.07181130e-03 0. 0. 2.14362261e-03 0. 0. 0. 0. 0.
      2.14362261e-03 0. 0. 0. 0. 1.07181130e-03 2.14362261e-03
      1.07181130e-03 0. 0. 0. 1.07181130e-03 0. 0. 2.14362261e-03
      2.14362261e-03 0. 0. 2.14362261e-03 0. 3.21543403e-03
      2.14362261e-03 1.07181130e-03 1.07181130e-03 0. 2.14362261e-03 0.
      0. 2.14362261e-03 0. 2.14362261e-03 0. 0. 0. 1.07181130e-03
      1.07181130e-03 1.07181130e-03 0. 2.14362261e-03 2.14362261e-03 0.
      0. 0. 1.07181130e-03 3.21543403e-03 2.14362261e-03 0. 0. 0.
      1.07181130e-03 1.07181130e-03 0. 0. 3.21543403e-03 0.
      2.14362261e-03 0. 2.14362261e-03 0. 0. 1.07181130e-03
      3.21543403e-03 1.07181130e-03 1.07181130e-03 0. 1.07181130e-03
      1.07181130e-03 0. 1.07181130e-03 1.07181130e-03 0. 2.14362261e-03
      0. 2.14362261e-03 0. 0. 1.07181130e-03 0. 1.07181130e-03 0.
      1.07181130e-03 2.14362261e-03 0. 0. 3.21543403e-03 0.
      1.07181130e-03 0. 0. 2.14362261e-03 1.07181130e-03 0.
      7.50267925e-03 2.14362261e-03 1.07181130e-03 0. 2.14362261e-03 0.
      1.07181130e-03 0. 0. 0. 1.07181130e-03 1.07181130e-03
      1.07181130e-03 0. 5.35905641e-03 0. 6.43086806e-03 1.07181130e-03
      4.28724522e-03 0. 5.35905641e-03 1.07181130e-03 4.28724522e-03
      1.07181130e-03 0. 0. 4.28724522e-03 0. 1.07181130e-03
      1.07181130e-03 6.43086806e-03 0. 0. 0. 1.07181130e-03 0.
      1.07181130e-03 1.07181130e-03 0. 0. 1.07181130e-03 0.
      1.07181130e-03 0. 2.14362261e-03 0. 1.07181130e-03 0. 0. 0.
      2.14362261e-03 0. 1.07181130e-03 0. 0. 0. 2.14362261e-03
      1.07181130e-03 0. 0. 5.35905641e-03 4.28724522e-03 3.21543403e-03
      0. 0. 0. 1.07181130e-03 0. 0. 0. 0. 5.35905641e-03 1.07181130e-03
      0. 0. 1.07181130e-03 1.07181130e-03 0. 1.07181130e-03 0.
      2.14362261e-03 6.43086806e-03 0. 1.07181130e-03 0. 2.14362261e-03
      0. 0. 1.07181130e-03 2.14362261e-03 0. 0. 0. 0. 0. 0.
      1.07181130e-03 3.21543403e-03 3.21543403e-03 0. 0. 1.07181130e-03
      2.14362261e-03 1.07181130e-03 0. 0. 0. 0. 0. 0. 1.07181130e-03 0.
      0. 0. 3.21543403e-03 1.07181130e-03 1.07181130e-03 1.07181130e-03
      3.21543403e-03 1.07181130e-03 0. 0. 3.21543403e-03 0.
      1.07181130e-03 0. 0. 2.14362261e-03 0. 2.14362261e-03 0.
      2.14362261e-03 1.07181130e-03 3.21543403e-03 0. 1.07181130e-03
      2.14362261e-03 0. 0. 2.14362261e-03 1.07181130e-03 1.07181130e-03
      1.07181130e-03 1.07181130e-03 0. 0. 2.14362261e-03 0.
      1.07181130e-03 3.21543403e-03 2.14362261e-03 1.07181130e-03
      1.07181130e-03 3.21543403e-03 1.07181130e-03 1.07181130e-03 0.
      1.07181130e-03 0. 1.07181130e-03 1.07181130e-03 0. 0. 0.
      1.07181130e-03 1.07181130e-03 0. 1.07181130e-03 0. 1.07181130e-03
      2.14362261e-03 1.07181130e-03 1.07181130e-03 1.07181130e-03
      1.07181130e-03 1.07181130e-03 0. 2.14362261e-03 4.28724522e-03 0.
      3.21543403e-03 0. 1.07181130e-03 1.07181130e-03 2.14362261e-03 0.
      1.07181130e-03 0. 1.07181130e-03 1.07181130e-03 1.07181130e-03 0.
      2.14362261e-03 3.21543403e-03 1.07181130e-03 0. 0. 2.14362261e-03
      2.14362261e-03 0. 2.14362261e-03 1.07181130e-03 3.21543403e-03
      3.21543403e-03 4.28724522e-03 3.21543403e-03 0. 0. 1.07181130e-03
      0. 0. 0. 0. 1.07181130e-03 1.07181130e-03 0. 0. 1.07181130e-03
      2.14362261e-03 0. 0. 0. 0. 0. 0. 0. 0. 0. 0. 0. 2.14362261e-03
      3.21543403e-03 0. 2.14362261e-03 1.07181130e-03 0. 0.
      5.35905641e-03 0. 0. 5.35905641e-03 0. 2.14362261e-03 0.
      1.07181130e-03 1.07181130e-03 1.07181130e-03 1.07181130e-03
      5.35905641e-03 1.07181130e-03 1.07181130e-03 0. 2.14362261e-03
      1.07181130e-03 1.07181130e-03 1.07181130e-03 1.07181130e-03 0. 0.
      0. 0. 1.07181130e-03 1.07181130e-03 0. 2.14362261e-03
      1.07181130e-03 0. 0. 0. 0. 1.07181130e-03 1.07181130e-03
      2.14362261e-03 0. 0. 2.14362261e-03 0. 0. 0. 0. 1.07181130e-03 0.
      0. 2.14362261e-03 1.07181130e-03 0. 4.28724522e-03 0.
      2.14362261e-03 4.28724522e-03 1.07181130e-03 5.35905641e-03
      2.14362261e-03 1.07181130e-03 1.07181130e-03 2.14362261e-03
      1.07181130e-03 0. 0. 2.14362261e-03 0. 1.07181130e-03
      1.07181130e-03 4.28724522e-03 1.07181130e-03 1.07181130e-03
      2.14362261e-03 0. 3.21543403e-03 0. 0. 1.07181130e-03 0.
      1.07181130e-03 0. 4.28724522e-03 0. 0. 2.14362261e-03
      1.07181130e-03 1.07181130e-03 1.07181130e-03 1.07181130e-03
      1.07181130e-03 1.07181130e-03 0. 0. 1.07181130e-03 1.07181130e-03
      1.07181130e-03 0. 3.21543403e-03 0. 0. 0. 1.07181130e-03 0.
      1.07181130e-03 2.14362261e-03 0. 0. 2.14362261e-03 4.28724522e-03
      1.07181130e-03 0. 1.07181130e-03 0. 0. 0. 1.07181130e-03 0.
      1.07181130e-03 0. 1.07181130e-03 0. 1.07181130e-03 0.
      2.14362261e-03 1.07181130e-03 1.07181130e-03 1.07181130e-03 0. 0.
      0. 0. 0. 0. 1.07181130e-03 3.21543403e-03 2.14362261e-03 0. 0.
      1.07181130e-03 0. 0. 2.14362261e-03 0. 0. 1.07181130e-03
      1.07181130e-03 3.21543403e-03 2.14362261e-03 0. 0. 3.21543403e-03
      0. 0. 2.14362261e-03 2.14362261e-03 1.07181130e-03</_>
    <_>
      0. 7.56429625e-04 0. 2.26928899e-03 0. 1.51285925e-03 0.
      2.26928899e-03 1.51285925e-03 1.51285925e-03 0. 3.02571850e-03
      7.56429625e-04 1.51285925e-03 7.56429625e-04 1.51285920e-02 0. 0.
      7.56429625e-04 0. 0. 1.51285925e-03 3.78214801e-03 7.56429625e-04
      0. 0. 2.26928899e-03 7.56429625e-04 7.56429625e-04 0.
      1.51285925e-03 0. 3.78214801e-03 3.78214801e-03 7.56429625e-04
      7.56429625e-04 1.51285925e-03 1.51285925e-03 1.51285925e-03 0.
      1.51285925e-03 7.56429625e-04 7.56429625e-04 0. 0. 1.51285925e-03
      0. 7.56429625e-04 1.51285925e-03 1.51285925e-03 2.26928899e-03
      2.26928899e-03 0. 2.26928899e-03 0. 0. 0. 1.51285925e-03
      7.56429625e-04 0. 3.78214801e-03 0. 2.26928899e-03 7.56429625e-04
      0. 0. 1.51285925e-03 7.56429625e-04 0. 7.56429625e-04 0.
      7.56429625e-04 0. 0. 7.56429625e-04 7.56429625e-04 0.
      7.56429625e-04 7.56429625e-04 7.56429625e-04 0. 2.26928899e-03 0.
      3.02571850e-03 0. 7.56429625e-04 0. 3.02571850e-03 0.
      7.56429625e-04 7.56429625e-04 4.53857798e-03 0. 0. 7.56429625e-04
      7.56429625e-04 0. 3.02571850e-03 7.56429625e-04 0. 0. 0.
      4.53857798e-03 1.51285925e-03 0. 0. 1.51285925e-03 1.51285925e-03
      0. 0. 2.26928899e-03 1.51285925e-03 1.51285925e-03 0. 0. 0.
      7.56429625e-04 0. 9.07715596e-03 7.56429625e-04 1.51285925e-03 0.
      7.56429625e-04 1.51285925e-03 0. 4.53857798e-03 3.78214801e-03 0.
      1.51285925e-03 7.56429625e-04 1.51285925e-03 7.56429625e-04
      2.26928899e-03 3.02571850e-03 0. 7.56429625e-04 7.56429625e-04 0.
      0. 7.56429625e-04 9.83358547e-03 3.78214801e-03 0. 0. 0.
      7.56429625e-04 0. 2.26928899e-03 1.51285925e-03 0. 3.78214801e-03
      1.51285925e-03 0. 0. 1.51285925e-03 7.56429625e-04 2.26928899e-03
      7.56429625e-04 0. 2.26928899e-03 7.56429625e-04 1.51285925e-03 0.
      7.56429625e-04 7.56429625e-04 0. 0. 1.51285925e-03 0.
      7.56429625e-04 7.56429625e-04 7.56429625e-04 0. 0. 0. 0. 0.
      3.02571850e-03 7.56429625e-04 0. 3.02571850e-03 7.56429625e-04 0.
      3.02571850e-03 1.51285925e-03 0. 2.26928899e-03 1.51285925e-03
      3.02571850e-03 7.56429625e-04 7.56429625e-04 7.56429625e-04
      1.51285925e-03 7.56429625e-04 7.56429625e-04 0. 0. 0. 0.
      7.56429625e-04 0. 2.26928899e-03 1.51285925e-03 3.02571850e-03
      7.56429625e-04 0. 7.56429625e-04 0. 1.51285925e-03 3.78214801e-03
      1.51285925e-03 0. 1.51285925e-03 0. 0. 7.56429625e-04
      7.56429625e-04 2.26928899e-03 0. 0. 0. 0. 7.56429625e-04 0.
      7.56429625e-04 3.02571850e-03 0. 7.56429625e-04 0. 0.
      7.56429625e-04 3.02571850e-03 3.02571850e-03 7.56429625e-04
      1.51285925e-03 2.26928899e-03 0. 7.56429625e-04 0. 7.56429625e-04
      7.56429625e-04 0. 0. 7.56429625e-04 0. 2.26928899e-03
      4.53857798e-03 2.26928899e-03 0. 0. 0. 4.53857798e-03
      1.51285925e-03 7.56429625e-04 1.51285925e-03 7.56429625e-04
      4.53857798e-03 7.56429625e-04 3.02571850e-03 7.56429625e-04 0.
      1.51285925e-03 0. 0. 0. 3.78214801e-03 0. 1.51285925e-03 0.
      3.78214801e-03 7.56429625e-04 0. 3.02571850e-03 0. 7.56429625e-04
      0. 0. 2.26928899e-03 1.51285925e-03 7.56429625e-04 3.78214801e-03
      0. 3.78214801e-03 7.56429625e-04 0. 7.56429625e-04 0.
      7.56429625e-04 0. 7.56429625e-04 7.56429625e-04 0. 0.
      7.56429625e-04 7.56429625e-04 7.56429625e-04 2.26928899e-03
      7.56429625e-04 1.51285925e-03 2.26928899e-03 0. 0. 1.51285925e-03
      0. 0. 3.78214801e-03 3.02571850e-03 0. 1.51285925e-03
      7.56429625e-04 0. 0. 0. 1.51285925e-03 0. 7.56429625e-04 0.
      3.78214801e-03 7.56429625e-04 3.02571850e-03 0. 7.56429625e-04
      7.56429625e-04 0. 7.56429625e-04 3.02571850e-03 0. 0.
      7.56429625e-04 0. 7.56429625e-04 0. 2.26928899e-03 0.
      7.56429625e-04 7.56429625e-04 1.51285925e-03 0. 0. 7.56429625e-04
      0. 7.56429625e-04 0. 1.51285925e-03 0. 1.51285925e-03
      7.56429625e-04 0. 7.56429625e-04 0. 2.26928899e-03 0. 0.
      2.26928899e-03 0. 7.56429625e-04 3.78214801e-03 0. 0.
      7.56429625e-04 0. 2.26928899e-03 0. 0. 2.26928899e-03 0. 0.
      7.56429625e-04 0. 0. 7.56429625e-04 1.51285925e-03 0.
      1.05900150e-02 2.26928899e-03 0. 7.56429625e-04 1.51285925e-03
      7.56429625e-04 0. 7.56429625e-04 0. 7.56429625e-04 0.
      1.51285925e-03 7.56429625e-04 7.56429625e-04 7.56429625e-04 0. 0.
      1.51285925e-03 0. 0. 0. 3.02571850e-03 7.56429625e-04
      7.56429625e-04 0. 2.26928899e-03 0. 0. 0. 0. 1.51285925e-03
      7.56429625e-04 0. 7.56429625e-04 2.26928899e-03 0. 0.
      1.51285925e-03 0. 7.56429625e-04 0. 7.56429625e-04 7.56429625e-04
      0. 7.56429625e-04 0. 0. 7.56429625e-04 0. 2.26928899e-03 0. 0.
      7.56429625e-04 7.56429625e-04 0. 0. 2.26928899e-03 0. 0.
      2.26928899e-03 0. 0. 1.51285925e-03 7.56429625e-04 7.56429625e-04
      7.56429625e-04 1.51285925e-03 7.56429625e-04 1.51285925e-03 0. 0.
      0. 0. 7.56429625e-04 0. 9.07715596e-03 7.56429625e-04
      7.56429625e-04 3.02571850e-03 1.51285925e-03 7.56429625e-04
      3.78214801e-03 1.51285925e-03 7.56429625e-04 0. 0. 3.78214801e-03
      2.26928899e-03 2.26928899e-03 0. 0. 0. 3.78214801e-03
      7.56429625e-04 0. 7.56429625e-04 2.26928899e-03 0. 2.26928899e-03
      0. 1.51285925e-03 0. 7.56429625e-04 7.56429625e-04 1.51285925e-03
      7.56429625e-04 0. 1.51285925e-03 7.56429625e-04 7.56429625e-04 0.
      0. 7.56429625e-04 7.56429625e-04 7.56429625e-04 2.26928899e-03
      7.56429625e-04 0. 2.26928899e-03 7.56429625e-04 1.51285925e-03
      1.51285925e-03 7.56429625e-04 1.51285925e-03 1.51285925e-03
      2.26928899e-03 0. 1.51285925e-03 2.26928899e-03 1.51285925e-03
      1.51285925e-03 0. 0. 7.56429625e-04 7.56429625e-04 3.02571850e-03
      0. 7.56429625e-04 0. 1.51285925e-03 0. 7.56429625e-04
      7.56429625e-04 7.56429625e-04 2.26928899e-03 7.56429625e-04
      7.56429625e-04 7.56429625e-04 1.51285925e-03 7.56429625e-04 0.
      3.02571850e-03 3.78214801e-03 0. 0. 7.56429625e-04 1.51285925e-03
      0. 7.56429625e-04 3.02571850e-03 7.56429625e-04 0. 0.
      9.83358547e-03 1.51285925e-03 1.51285925e-03 3.02571850e-03
      7.56429625e-04 7.56429625e-04 0. 0. 1.51285925e-03 1.51285925e-03
      0. 5.29500749e-03 7.56429625e-04 0. 7.56429625e-04 0. 0.
      1.51285925e-03 3.02571850e-03 7.56429625e-04 7.56429625e-04
      7.56429625e-04 0. 0. 0. 1.51285925e-03 1.51285925e-03
      7.56429625e-04 1.51285925e-03 0. 0. 7.56429625e-04 0. 0.
      7.56429625e-04 1.51285925e-03 0. 0. 2.26928899e-03 1.51285925e-03
      7.56429625e-04 0. 2.26928899e-03 0. 0. 7.56429625e-04
      7.56429625e-04 0. 0. 0. 0. 0. 2.26928899e-03 3.02571850e-03
      1.51285925e-03 1.51285925e-03 0. 7.56429625e-04 0. 7.56429625e-04
      0. 0. 0. 0. 1.51285925e-03 0. 7.56429625e-04 7.56429625e-04
      7.56429625e-04 2.26928899e-03 7.56429625e-04 1.51285925e-03
      2.26928899e-03 1.51285925e-03 7.56429625e-04 0. 1.51285925e-03
      7.56429625e-04 1.51285925e-03 7.56429625e-04 0. 7.56429625e-04 0.
      0. 0. 0. 7.56429625e-04 1.51285925e-03 2.26928899e-03 0.
      7.56429625e-04 1.51285925e-03 0. 0. 0. 7.56429625e-04 0. 0. 0. 0.
      3.78214801e-03 7.56429625e-04 7.56429625e-04 7.56429625e-04
      1.51285925e-03 0. 7.56429625e-04 7.56429625e-04 7.56429625e-04
      7.56429625e-04 7.56429625e-04 0. 3.78214801e-03 0. 2.26928899e-03
      0. 7.56429625e-04 0. 7.56429625e-04 2.26928899e-03 7.56429625e-04
      2.26928899e-03 0. 3.78214801e-03 2.26928899e-03 0. 7.56429625e-04
      4.53857798e-03 0. 0. 0. 1.51285925e-03 7.56429625e-04
      7.56429625e-04 0. 2.26928899e-03 7.56429625e-04 7.56429625e-04
      7.56429625e-04 1.51285925e-03 2.26928899e-03 0. 7.56429625e-04
      7.56429625e-04 0. 1.51285925e-03 0. 7.56429625e-04 7.56429625e-04
      7.56429625e-04 0. 1.51285925e-03 7.56429625e-04 1.51285925e-03 0.
      0. 1.51285925e-03 1.51285925e-03 0. 1.51285925e-03 7.56429625e-04
      7.56429625e-04 3.78214801e-03 7.56429625e-04 3.02571850e-03
      1.51285925e-03 1.51285925e-03 1.51285925e-03 0. 0. 2.26928899e-03
      1.51285925e-03 1.51285925e-03 7.56429625e-04 3.02571850e-03 0. 0.
      7.56429625e-04 0. 3.02571850e-03 0. 2.26928899e-03 0.
      7.56429625e-04 0. 0. 7.56429625e-04 7.56429625e-04 0.
      7.56429625e-04 0. 0. 3.02571850e-03 0. 0. 1.21028740e-02
      5.29500749e-03 7.56429625e-04 0. 7.56429625e-04 7.56429625e-04
      3.02571850e-03 7.56429625e-04 0. 0. 0. 1.51285925e-03
      7.56429625e-04 0. 7.56429625e-04 0. 2.26928899e-03 3.02571850e-03
      0. 7.56429625e-04 7.56429625e-04 3.02571850e-03 2.26928899e-03
      1.51285925e-03 0. 0. 0. 0. 7.56429625e-04 7.56429625e-04
      7.56429625e-04 6.80786651e-03 0. 7.56429625e-04 7.56429625e-04
      1.51285925e-03 7.56429625e-04 0. 7.56429625e-04 1.51285925e-03
      7.56429625e-04 7.56429625e-04 0. 0. 7.56429625e-04 7.56429625e-04
      0. 0. 9.07715596e-03 7.56429625e-04 1.51285925e-03 0.
      2.26928899e-03 0. 0. 7.56429625e-04 7.56429625e-04 7.56429625e-04
      0. 4.53857798e-03 7.56429625e-04 3.02571850e-03 7.56429625e-04 0.
      0. 7.56429625e-04 0. 7.56429625e-04 1.51285925e-03 3.02571850e-03
      7.56429625e-04 2.26928899e-03 7.56429625e-04 3.02571850e-03 0.
      7.56429625e-04 0. 0. 0. 0. 3.02571850e-03 7.56429625e-04
      1.51285925e-03 7.56429625e-04 0. 3.78214801e-03 0. 7.56429625e-04
      0. 0. 1.51285925e-03 7.56429625e-04 7.56429625e-04 2.26928899e-03
      0. 0. 3.02571850e-03 1.51285925e-03 7.56429625e-04 0.
      7.56429625e-04 0. 7.56429625e-04 7.56429625e-04 1.51285925e-03
      1.51285925e-03 7.56429625e-04 7.56429625e-04 0. 0. 0. 0.
      7.56429625e-04 0. 7.56429625e-04 0. 5.29500749e-03 7.56429625e-04
      1.51285925e-03 7.56429625e-04 4.53857798e-03 2.26928899e-03 0.
      1.51285925e-03 0. 0. 2.26928899e-03 2.26928899e-03 7.56429625e-04
      0. 7.56429625e-04 1.51285925e-03 7.56429625e-04 0. 7.56429625e-04
      0. 7.56429625e-04 0. 0. 7.56429625e-04 7.56429625e-04
      9.07715596e-03 7.56429625e-04 7.56429625e-04 0. 0. 0.
      7.56429625e-04 0. 0. 0. 2.26928899e-03 0. 0. 0. 7.56429625e-04
      2.26928899e-03 0. 0. 2.26928899e-03 3.02571850e-03 7.56429625e-04
      0. 0. 0. 3.02571850e-03 7.56429625e-04 1.51285925e-03 0. 0. 0. 0.
      1.51285925e-03 7.56429625e-04 0. 3.02571850e-03 7.56429625e-04 0.
      0. 0. 0. 7.56429625e-04 0. 0. 0. 0. 0. 1.51285925e-03
      1.51285925e-03 0. 0. 0. 3.78214801e-03 0. 2.26928899e-03
      1.51285925e-03 3.02571850e-03 0. 0. 3.02571850e-03 0. 0. 0. 0.
      7.56429625e-04 1.51285925e-03 7.56429625e-04 1.51285925e-03
      7.56429625e-04 0. 7.56429625e-04 1.51285925e-03 1.51285925e-03
      7.56429625e-04 7.56429625e-04 9.07715596e-03 1.51285925e-03
      1.51285925e-03 0. 7.56429625e-04 7.56429625e-04 6.80786651e-03 0.
      4.53857798e-03 7.56429625e-04 0. 7.56429625e-04 0. 0.
      7.56429625e-04 7.56429625e-04 0. 7.56429625e-04 7.56429625e-04 0.
      0. 0. 1.51285925e-03 0. 7.56429625e-04 0. 0. 2.26928899e-03
      1.51285925e-03 1.51285925e-03 7.56429625e-04 0. 0. 0.
      3.02571850e-03 2.26928899e-03 7.56429625e-04 7.56429625e-04
      7.56429625e-04 0. 7.56429625e-04 1.51285925e-03 7.56429625e-04 0.
      0. 2.26928899e-03 0. 2.26928899e-03 7.56429625e-04 0. 0.
      1.51285925e-03 0. 3.02571850e-03</_>
    <_>
      1.17302057e-03 1.17302057e-03 0. 1.17302057e-03 2.34604115e-03
      2.93255132e-03 5.86510287e-04 1.75953086e-03 0. 0. 5.86510287e-04
      1.17302057e-03 0. 5.86510287e-04 1.17302057e-03 2.34604115e-03
      1.75953086e-03 2.93255132e-03 5.86510287e-04 1.75953086e-03
      5.86510287e-04 5.86510287e-04 0. 0. 0. 1.17302057e-03
      1.17302057e-03 1.17302057e-03 1.75953086e-03 0. 1.75953086e-03
      1.75953086e-03 1.17302057e-03 0. 0. 2.93255132e-03 1.17302057e-03
      0. 1.17302057e-03 1.17302057e-03 3.51906172e-03 0. 1.17302057e-03
      0. 5.86510287e-04 1.75953086e-03 1.17302057e-03 0. 1.17302057e-03
      0. 2.93255132e-03 4.10557212e-03 1.17302057e-03 2.93255132e-03 0.
      5.86510287e-04 5.86510287e-04 0. 5.86510287e-04 1.75953086e-03
      1.75953086e-03 5.86510287e-04 0. 5.86510287e-04 5.86510287e-04
      1.75953086e-03 1.75953086e-03 1.17302057e-03 0. 1.17302057e-03
      1.17302057e-03 1.17302057e-03 0. 0. 2.34604115e-03 1.17302057e-03
      1.75953086e-03 5.86510287e-04 1.75953086e-03 5.86510287e-04 0.
      1.75953086e-03 5.86510287e-04 5.86510287e-04 0. 1.17302057e-03 0.
      1.17302057e-03 1.75953086e-03 0. 0. 5.86510287e-04 5.86510287e-04
      1.17302057e-03 1.17302057e-03 5.86510287e-04 0. 2.34604115e-03
      1.75953086e-03 5.86510287e-04 1.75953086e-03 0. 5.86510287e-04
      1.17302057e-03 0. 3.51906172e-03 1.17302057e-03 5.86510287e-04
      1.75953086e-03 5.86510287e-04 5.86510287e-04 5.86510287e-04 0.
      1.75953086e-03 1.17302057e-03 1.75953086e-03 2.34604115e-03
      1.17302057e-03 2.34604115e-03 1.75953086e-03 1.17302057e-03
      1.75953086e-03 5.86510287e-04 5.86510287e-04 0. 4.10557212e-03 0.
      5.86510287e-04 2.93255132e-03 0. 5.86510287e-04 1.17302057e-03
      4.69208229e-03 5.86510287e-04 0. 1.17302057e-03 1.17302057e-03 0.
      5.86510287e-04 0. 2.34604115e-03 1.17302057e-03 5.86510287e-04 0.
      5.86510287e-04 0. 5.86510287e-04 1.75953086e-03 1.75953086e-03
      1.75953086e-03 2.93255132e-03 2.93255132e-03 1.17302057e-03 0.
      2.34604115e-03 2.93255132e-03 1.17302057e-03 1.17302057e-03 0. 0.
      0. 5.86510287e-04 5.86510287e-04 2.34604115e-03 0. 1.17302057e-03
      1.75953086e-03 1.75953086e-03 1.75953086e-03 1.17302057e-03
      1.75953086e-03 0. 0. 0. 1.75953086e-03 5.86510287e-04
      5.86510287e-04 0. 5.86510287e-04 5.86510287e-04 3.51906172e-03
      5.86510287e-04 1.17302057e-03 5.86510287e-04 5.86510287e-04
      1.17302057e-03 0. 1.17302057e-03 2.34604115e-03 1.17302057e-03
      2.93255132e-03 5.86510287e-04 5.86510287e-04 2.34604115e-03
      5.86510287e-04 2.34604115e-03 5.86510287e-04 5.86510287e-04 0. 0.
      1.17302057e-03 2.34604115e-03 0. 5.86510287e-04 1.17302057e-03
      5.86510287e-04 1.17302057e-03 1.17302057e-03 1.17302057e-03
      5.86510287e-04 5.86510287e-04 1.17302057e-03 0. 1.17302057e-03
      1.75953086e-03 1.17302057e-03 0. 1.17302057e-03 2.34604115e-03
      1.75953086e-03 5.86510287e-04 1.17302057e-03 5.86510287e-04
      5.86510287e-04 1.17302057e-03 5.86510287e-04 1.17302057e-03
      1.17302057e-03 1.75953086e-03 0. 5.86510287e-04 1.75953086e-03
      1.17302057e-03 1.17302057e-03 1.17302057e-03 2.34604115e-03
      1.17302057e-03 0. 4.69208229e-03 5.86510287e-04 1.17302057e-03
      1.75953086e-03 5.86510287e-04 1.75953086e-03 2.34604115e-03
      5.86510287e-04 5.86510287e-04 5.86510287e-04 5.86510287e-04
      5.86510287e-04 1.75953086e-03 5.86510287e-04 2.34604115e-03 0.
      1.75953086e-03 5.86510287e-04 0. 1.17302057e-03 5.86510287e-04
      1.17302057e-03 1.75953086e-03 5.86510287e-04 1.17302057e-03
      1.17302057e-03 5.86510287e-04 1.17302057e-03 2.34604115e-03
      5.86510287e-04 1.75953086e-03 0. 5.86510287e-04 0. 3.51906172e-03
      1.17302057e-03 0. 0. 1.17302057e-03 1.75953086e-03 1.17302057e-03
      1.17302057e-03 5.86510287e-04 1.17302057e-03 5.86510287e-04
      5.86510287e-04 1.17302057e-03 5.86510287e-04 1.17302057e-03
      1.17302057e-03 1.17302057e-03 1.75953086e-03 1.17302057e-03 0.
      1.75953086e-03 5.86510287e-04 5.86510287e-04 5.86510287e-04
      2.34604115e-03 1.17302057e-03 5.86510287e-04 1.75953086e-03
      1.17302057e-03 1.17302057e-03 5.86510287e-04 5.86510287e-04
      1.17302057e-03 1.17302057e-03 1.17302057e-03 5.86510287e-04
      1.75953086e-03 1.17302057e-03 2.34604115e-03 5.86510287e-04
      5.86510287e-04 2.34604115e-03 2.34604115e-03 1.75953086e-03 0.
      3.51906172e-03 1.75953086e-03 2.34604115e-03 0. 0. 1.75953086e-03
      4.10557212e-03 2.34604115e-03 2.93255132e-03 0. 1.17302057e-03 0.
      5.86510287e-04 1.17302057e-03 5.86510287e-04 5.86510287e-04
      4.10557212e-03 1.75953086e-03 0. 1.75953086e-03 1.17302057e-03 0.
      1.75953086e-03 5.86510287e-04 1.17302057e-03 1.17302057e-03
      1.17302057e-03 0. 0. 5.86510287e-04 5.86510287e-04 5.86510287e-04
      0. 1.17302057e-03 1.17302057e-03 1.17302057e-03 2.93255132e-03
      5.86510287e-04 1.17302057e-03 5.86510287e-04 5.86510287e-04
      1.75953086e-03 1.17302057e-03 0. 5.86510287e-04 2.34604115e-03
      5.86510287e-04 1.75953086e-03 5.86510287e-04 0. 0. 1.17302057e-03
      0. 0. 0. 1.17302057e-03 0. 1.17302057e-03 1.17302057e-03 0.
      2.93255132e-03 5.86510287e-04 5.86510287e-04 1.17302057e-03
      1.17302057e-03 1.17302057e-03 5.86510287e-04 0. 5.86510287e-04
      5.86510287e-04 0. 1.17302057e-03 2.34604115e-03 1.75953086e-03
      1.17302057e-03 2.93255132e-03 1.17302057e-03 5.86510287e-04
      5.86510287e-04 5.86510287e-04 1.75953086e-03 2.34604115e-03 0. 0.
      0. 1.17302057e-03 5.86510287e-04 0. 2.34604115e-03 0.
      5.86510287e-04 1.17302057e-03 1.17302057e-03 2.34604115e-03
      5.86510287e-04 3.51906172e-03 5.86510287e-04 1.75953086e-03 0. 0.
      5.86510287e-04 0. 1.17302057e-03 5.86510287e-04 1.75953086e-03
      5.86510287e-04 0. 5.86510287e-04 5.86510287e-04 0. 1.17302057e-03
      1.75953086e-03 1.17302057e-03 5.86510287e-04 1.75953086e-03
      1.17302057e-03 0. 0. 4.69208229e-03 5.86510287e-04 2.34604115e-03
      2.34604115e-03 1.75953086e-03 5.86510287e-04 1.75953086e-03
      5.86510287e-04 5.86510287e-04 1.17302057e-03 5.86510287e-04 0.
      1.17302057e-03 5.86510287e-04 0. 5.86510287e-04 1.17302057e-03
      5.86510287e-04 5.86510287e-04 1.17302057e-03 1.75953086e-03
      5.86510287e-04 5.86510287e-04 1.75953086e-03 2.93255132e-03 0. 0.
      1.17302057e-03 2.34604115e-03 0. 1.17302057e-03 5.86510287e-04
      5.86510287e-04 5.86510287e-04 5.86510287e-04 5.86510287e-04
      5.86510287e-04 5.86510287e-04 1.75953086e-03 1.75953086e-03
      3.51906172e-03 2.34604115e-03 1.17302057e-03 1.75953086e-03
      5.86510287e-04 2.93255132e-03 1.75953086e-03 1.17302057e-03 0.
      1.17302057e-03 0. 5.86510287e-04 5.86510287e-04 0. 5.86510287e-04
      5.86510287e-04 1.75953086e-03 1.17302057e-03 5.86510287e-04
      1.17302057e-03 5.86510287e-04 0. 2.34604115e-03 0. 1.17302057e-03
      0. 1.75953086e-03 5.86510287e-04 1.17302057e-03 5.86510287e-04
      5.86510287e-04 2.34604115e-03 1.17302057e-03 0. 1.17302057e-03
      5.86510287e-04 0. 1.17302057e-03 5.86510287e-04 5.86510287e-04
      1.75953086e-03 5.86510287e-04 0. 0. 1.17302057e-03 5.86510287e-04
      0. 0. 1.75953086e-03 3.51906172e-03 0. 1.17302057e-03
      1.17302057e-03 0. 1.75953086e-03 0. 1.75953086e-03 1.17302057e-03
      0. 1.75953086e-03 5.86510287e-04 0. 5.86510287e-04 5.86510287e-04
      5.86510287e-04 1.17302057e-03 1.75953086e-03 3.51906172e-03
      1.75953086e-03 5.86510287e-04 1.17302057e-03 1.17302057e-03
      1.17302057e-03 0. 1.17302057e-03 0. 5.86510287e-04 1.17302057e-03
      5.86510287e-04 5.86510287e-04 1.75953086e-03 1.75953086e-03 0.
      1.75953086e-03 1.17302057e-03 2.93255132e-03 0. 1.17302057e-03
      5.86510287e-04 1.17302057e-03 1.17302057e-03 0. 1.17302057e-03
      2.34604115e-03 0. 1.75953086e-03 5.86510287e-04 3.51906172e-03
      1.17302057e-03 1.17302057e-03 5.86510287e-04 5.86510287e-04
      5.86510287e-04 5.86510287e-04 5.86510287e-04 5.86510287e-04
      1.17302057e-03 5.86510287e-04 5.86510287e-04 1.17302057e-03 0.
      1.17302057e-03 5.86510287e-04 1.17302057e-03 5.86510287e-04 0.
      1.17302057e-03 2.93255132e-03 2.34604115e-03 2.34604115e-03 0.
      5.86510287e-04 5.86510287e-04 0. 2.93255132e-03 5.86510287e-04
      1.75953086e-03 5.86510287e-04 0. 0. 3.51906172e-03 0.
      5.86510287e-04 1.17302057e-03 2.34604115e-03 5.86510287e-04 0.
      5.86510287e-04 0. 5.86510287e-04 1.17302057e-03 1.75953086e-03
      1.75953086e-03 0. 0. 1.75953086e-03 2.93255132e-03 1.75953086e-03
      1.17302057e-03 1.17302057e-03 1.75953086e-03 1.17302057e-03
      1.17302057e-03 0. 1.75953086e-03 0. 0. 2.34604115e-03
      5.86510287e-04 5.86510287e-04 1.17302057e-03 1.17302057e-03 0. 0.
      2.34604115e-03 5.86510287e-04 5.86510287e-04 5.86510287e-04
      5.86510287e-04 1.17302057e-03 5.86510287e-04 0. 0. 1.75953086e-03
      5.86510287e-04 1.17302057e-03 5.86510287e-04 1.75953086e-03
      5.86510287e-04 2.34604115e-03 0. 5.86510287e-04 5.86510287e-04
      5.86510287e-04 5.86510287e-04 5.86510287e-04 0. 5.86510287e-04 0.
      5.86510287e-04 1.75953086e-03 5.86510287e-04 1.17302057e-03
      1.17302057e-03 0. 5.86510287e-04 1.75953086e-03 1.17302057e-03
      1.17302057e-03 0. 1.17302057e-03 1.17302057e-03 0. 1.17302057e-03
      4.69208229e-03 1.17302057e-03 0. 5.86510287e-04 1.17302057e-03
      1.17302057e-03 0. 1.75953086e-03 2.93255132e-03 2.34604115e-03
      5.86510287e-04 0. 1.17302057e-03 1.75953086e-03 0. 5.86510287e-04
      5.86510287e-04 1.75953086e-03 1.17302057e-03 1.17302057e-03 0.
      1.75953086e-03 0. 1.17302057e-03 5.86510287e-04 1.17302057e-03 0.
      2.93255132e-03 1.75953086e-03 1.17302057e-03 0. 0. 1.17302057e-03
      1.17302057e-03 5.86510287e-04 5.86510287e-04 5.86510287e-04
      5.86510287e-04 1.17302057e-03 5.86510287e-04 1.17302057e-03
      5.86510287e-04 1.75953086e-03 1.17302057e-03 2.93255132e-03
      5.86510287e-04 0. 0. 1.17302057e-03 1.17302057e-03 5.86510287e-04
      5.86510287e-04 5.86510287e-04 2.34604115e-03 5.86510287e-04
      5.86510287e-04 3.51906172e-03 1.17302057e-03 2.34604115e-03
      5.86510287e-04 1.17302057e-03 5.86510287e-04 5.86510287e-04
      1.75953086e-03 1.75953086e-03 1.17302057e-03 5.86510287e-04 0.
      5.86510287e-04 1.17302057e-03 5.86510287e-04 5.86510287e-04 0. 0.
      0. 1.17302057e-03 1.17302057e-03 5.86510287e-04 0. 5.86510287e-04
      1.17302057e-03 1.17302057e-03 0. 5.86510287e-04 2.34604115e-03
      2.93255132e-03 5.86510287e-04 5.86510287e-04 5.86510287e-04 0.
      1.17302057e-03 1.75953086e-03 0. 5.86510287e-04 1.75953086e-03
      5.86510287e-04 5.86510287e-04 1.17302057e-03 1.17302057e-03 0. 0.
      5.86510287e-04 1.75953086e-03 5.86510287e-04 1.75953086e-03
      5.86510287e-04 5.86510287e-04 5.86510287e-04 2.34604115e-03
      5.86510287e-04 1.17302057e-03 2.93255132e-03 5.86510287e-04
      2.34604115e-03 1.17302057e-03 1.75953086e-03 0. 5.86510287e-04
      5.86510287e-04 5.86510287e-04 5.86510287e-04 1.75953086e-03 0. 0.
      5.86510287e-04 5.27859246e-03 1.17302057e-03 1.75953086e-03
      1.75953086e-03 1.17302057e-03 5.86510287e-04 2.34604115e-03 0.
      1.17302057e-03 0. 1.75953086e-03 5.86510287e-04 1.17302057e-03 0.
      0. 5.86510287e-04 1.75953086e-03 1.17302057e-03 0. 5.86510287e-04
      2.34604115e-03 0. 0. 2.34604115e-03 5.86510287e-04 0.
      2.34604115e-03 1.17302057e-03 0. 0. 0. 0. 5.86510287e-04 0. 0.
      5.86510287e-04 5.86510287e-04 5.86510287e-04 5.86510287e-04
      5.86510287e-04 5.86510287e-04 1.17302057e-03 1.75953086e-03
      2.34604115e-03 0. 0. 5.86510287e-04 2.93255132e-03 0.
      5.86510287e-04 0. 5.86510287e-04 5.86510287e-04 1.17302057e-03
      5.86510287e-04 1.75953086e-03 5.86510287e-04 0. 1.17302057e-03
      5.86510287e-04 0. 5.86510287e-04 1.75953086e-03 5.86510287e-04 0.
      0. 0. 1.17302057e-03 5.86510287e-04 0. 1.75953086e-03
      5.86510287e-04 5.86510287e-04 1.75953086e-03 1.17302057e-03
      1.17302057e-03 5.86510287e-04 1.17302057e-03 5.86510287e-04
      5.86510287e-04 1.17302057e-03 2.34604115e-03 0. 5.86510287e-04
      5.86510287e-04 1.17302057e-03 1.17302057e-03 2.34604115e-03
      2.93255132e-03 1.17302057e-03 0. 0. 2.93255132e-03 1.75953086e-03
      5.86510287e-04 2.34604115e-03 0. 1.17302057e-03 1.17302057e-03 0.
      1.17302057e-03 5.86510287e-04 2.93255132e-03 1.75953086e-03
      5.86510287e-04 5.27859246e-03 0. 0. 5.86510287e-04 5.86510287e-04
      0. 0. 1.75953086e-03 0. 0. 0. 5.86510287e-04 0. 1.75953086e-03
      2.34604115e-03 1.17302057e-03 5.86510287e-04 0. 0. 2.34604115e-03
      5.86510287e-04 5.86510287e-04 5.86510287e-04 0. 1.17302057e-03
      1.17302057e-03 5.86510287e-04 0. 1.75953086e-03 1.17302057e-03 0.
      1.17302057e-03 5.86510287e-04 1.17302057e-03 0. 1.17302057e-03
      1.75953086e-03 1.17302057e-03 0. 2.93255132e-03 5.86510287e-04
      1.17302057e-03 1.17302057e-03 3.51906172e-03 0. 1.75953086e-03
      5.86510287e-04 0. 5.86510287e-04 5.86510287e-04 5.86510287e-04
      1.17302057e-03 1.17302057e-03 1.75953086e-03 5.86510287e-04
      1.17302057e-03 5.86510287e-04 1.75953086e-03 5.86510287e-04 0.
      1.17302057e-03 0. 1.75953086e-03 2.93255132e-03 5.86510287e-04
      1.75953086e-03 5.86510287e-04 1.17302057e-03 0. 5.86510287e-04 0.
      5.86510287e-04 1.17302057e-03 1.75953086e-03 1.17302057e-03
      5.86510287e-04 1.17302057e-03 5.86510287e-04 1.17302057e-03
      1.75953086e-03 0. 5.86510287e-04 5.86510287e-04 1.17302057e-03
      1.17302057e-03 0. 1.17302057e-03 2.34604115e-03 5.86510287e-04
      5.86510287e-04 1.75953086e-03</_>
    <_>
      1.10619469e-03 3.31858406e-03 0. 1.10619469e-03 5.53097343e-04
      1.10619469e-03 1.10619469e-03 0. 5.53097343e-04 1.10619469e-03
      1.10619469e-03 4.97787632e-03 1.65929203e-03 1.65929203e-03
      1.10619469e-03 1.38274338e-02 1.65929203e-03 2.76548672e-03 0.
      1.65929203e-03 1.10619469e-03 1.10619469e-03 5.53097343e-04
      1.65929203e-03 2.21238937e-03 5.53097343e-04 1.10619469e-03
      5.53097343e-04 5.53097343e-04 5.53097343e-04 5.53097343e-04
      2.21238937e-03 1.10619469e-03 0. 5.53097343e-04 1.10619469e-03 0.
      1.10619469e-03 1.65929203e-03 0. 1.10619469e-03 0. 1.10619469e-03
      1.65929203e-03 5.53097343e-04 1.65929203e-03 3.31858406e-03
      5.53097343e-04 1.10619469e-03 0. 5.53097343e-04 0. 1.10619469e-03
      1.65929203e-03 5.53097343e-04 1.10619469e-03 1.65929203e-03
      2.76548672e-03 5.53097343e-04 1.65929203e-03 5.53097343e-04
      5.53097343e-04 0. 0. 1.65929203e-03 0. 2.21238937e-03
      5.53097343e-04 0. 5.53097343e-04 5.53097343e-04 1.10619469e-03 0.
      0. 5.53097343e-04 5.53097343e-04 2.21238937e-03 0. 1.10619469e-03
      5.53097343e-04 1.65929203e-03 0. 1.10619469e-03 0. 1.10619469e-03
      0. 1.10619469e-03 0. 0. 5.53097343e-04 1.10619469e-03
      5.53097343e-04 1.10619469e-03 1.10619469e-03 1.65929203e-03
      5.53097343e-04 5.53097343e-04 0. 2.21238937e-03 0. 1.10619469e-03
      1.10619469e-03 1.10619469e-03 5.53097343e-04 0. 5.53097343e-04 0.
      1.65929203e-03 5.53097343e-04 1.10619469e-03 5.53097343e-04 0.
      5.53097343e-04 2.21238937e-03 1.10619469e-03 1.10619469e-03 0.
      1.10619469e-03 5.53097343e-04 2.21238937e-03 0. 0. 2.21238937e-03
      0. 0. 3.31858406e-03 5.53097343e-04 1.10619469e-03 5.53097343e-04
      1.65929203e-03 1.65929203e-03 1.10619469e-03 2.21238937e-03
      1.10619469e-03 1.10619469e-03 1.10619469e-03 1.10619469e-03
      5.53097343e-04 1.65929203e-03 0. 5.53097343e-04 2.21238937e-03
      1.10619469e-03 0. 1.65929203e-03 5.53097343e-04 5.53097343e-04
      2.21238937e-03 1.65929203e-03 1.65929203e-03 0. 0. 1.10619469e-03
      1.10619469e-03 3.87168140e-03 5.53097343e-04 0. 5.53097343e-04
      2.21238937e-03 0. 5.53097343e-04 0. 1.65929203e-03 2.21238937e-03
      1.65929203e-03 0. 0. 1.10619469e-03 5.53097343e-04 1.65929203e-03
      1.65929203e-03 0. 5.53097343e-04 0. 0. 5.53097343e-04
      5.53097343e-04 5.53097343e-04 0. 1.10619469e-03 5.53097343e-04
      1.65929203e-03 5.53097343e-04 5.53097343e-04 0. 2.21238937e-03 0.
      0. 0. 1.65929203e-03 1.10619469e-03 5.53097343e-04 5.53097343e-04
      5.53097343e-04 5.53097343e-04 1.10619469e-03 1.65929203e-03
      1.65929203e-03 0. 1.10619469e-03 0. 0. 5.53097343e-04
      1.10619469e-03 1.10619469e-03 0. 1.10619469e-03 0. 5.53097343e-04
      2.21238937e-03 1.65929203e-03 1.65929203e-03 0. 1.65929203e-03
      5.53097343e-04 5.53097343e-04 1.10619469e-03 1.10619469e-03
      2.21238937e-03 2.21238937e-03 2.21238937e-03 1.10619469e-03
      1.10619469e-03 1.10619469e-03 1.10619469e-03 5.53097343e-04
      1.65929203e-03 2.76548672e-03 5.53097343e-04 0. 2.21238937e-03
      5.53097343e-04 0. 0. 4.42477874e-03 2.21238937e-03 5.53097343e-04
      1.65929203e-03 1.10619469e-03 0. 0. 5.53097343e-04 0.
      2.21238937e-03 1.65929203e-03 2.21238937e-03 5.53097343e-04
      1.65929203e-03 2.21238937e-03 1.10619469e-03 5.53097343e-04
      2.21238937e-03 2.21238937e-03 1.65929203e-03 1.65929203e-03 0.
      1.10619469e-03 0. 0. 0. 0. 0. 1.65929203e-03 1.10619469e-03
      1.65929203e-03 1.10619469e-03 5.53097343e-04 1.65929203e-03
      1.10619469e-03 5.53097343e-04 5.53097343e-04 5.53097343e-04
      1.10619469e-03 1.10619469e-03 5.53097343e-04 0. 0. 0.
      1.10619469e-03 3.31858406e-03 0. 0. 0. 5.53097343e-04
      5.53097343e-04 0. 1.10619469e-03 2.21238937e-03 0. 1.65929203e-03
      0. 1.10619469e-03 5.53097343e-04 1.65929203e-03 1.65929203e-03
      2.21238937e-03 5.53097343e-04 2.76548672e-03 2.21238937e-03 0.
      1.10619469e-03 5.53097343e-04 0. 1.10619469e-03 5.53097343e-04
      1.65929203e-03 1.10619469e-03 2.76548672e-03 5.53097343e-04
      5.53097343e-04 0. 5.53097343e-04 0. 5.53097343e-04 1.10619469e-03
      0. 5.53097343e-04 0. 2.21238937e-03 1.10619469e-03 1.10619469e-03
      0. 1.65929203e-03 1.65929203e-03 1.65929203e-03 0. 1.65929203e-03
      2.76548672e-03 2.21238937e-03 1.10619469e-03 0. 1.10619469e-03
      1.65929203e-03 5.53097343e-04 5.53097343e-04 1.10619469e-03 0.
      1.10619469e-03 2.21238937e-03 1.10619469e-03 0. 0. 3.31858406e-03
      1.65929203e-03 5.53097343e-04 1.10619469e-03 2.76548672e-03
      1.65929203e-03 0. 0. 5.53097343e-04 0. 0. 0. 2.76548672e-03
      5.53097343e-04 0. 2.21238937e-03 1.65929203e-03 1.10619469e-03
      1.10619469e-03 0. 1.65929203e-03 1.10619469e-03 5.53097343e-04
      1.10619469e-03 1.65929203e-03 2.21238937e-03 1.65929203e-03 0. 0.
      1.10619469e-03 1.10619469e-03 0. 1.10619469e-03 0. 1.65929203e-03
      2.76548672e-03 1.10619469e-03 1.10619469e-03 1.10619469e-03
      5.53097343e-04 1.65929203e-03 1.10619469e-03 1.65929203e-03 0.
      1.10619469e-03 5.53097343e-04 5.53097343e-04 3.31858406e-03 0.
      5.53097343e-04 5.53097343e-04 0. 5.53097343e-03 1.10619469e-03 0.
      0. 5.53097343e-04 5.53097343e-04 5.53097343e-04 5.53097343e-04
      2.21238937e-03 1.10619469e-03 0. 5.53097343e-04 0. 1.10619469e-03
      1.10619469e-03 0. 1.10619469e-03 2.21238937e-03 0. 1.10619469e-03
      1.10619469e-03 1.65929203e-03 0. 2.21238937e-03 0. 1.65929203e-03
      3.31858406e-03 5.53097343e-04 5.53097343e-04 1.10619469e-03
      1.10619469e-03 5.53097343e-04 5.53097343e-04 5.53097343e-04
      5.53097343e-04 0. 5.53097343e-04 5.53097343e-04 1.10619469e-03 0.
      5.53097343e-04 1.65929203e-03 1.10619469e-03 2.21238937e-03
      1.10619469e-03 0. 1.10619469e-03 5.53097343e-04 1.10619469e-03
      1.10619469e-03 1.10619469e-03 5.53097343e-04 5.53097343e-04
      1.65929203e-03 1.65929203e-03 2.76548672e-03 5.53097343e-04 0.
      2.21238937e-03 5.53097343e-04 5.53097343e-04 1.10619469e-03 0.
      1.10619469e-03 2.76548672e-03 5.53097343e-04 1.10619469e-03 0.
      5.53097343e-04 2.21238937e-03 0. 0. 1.65929203e-03 0.
      1.10619469e-03 0. 5.53097343e-04 5.53097343e-04 1.10619469e-03
      1.10619469e-03 5.53097343e-04 2.21238937e-03 1.65929203e-03
      5.53097343e-04 5.53097343e-04 1.65929203e-03 5.53097343e-04 0.
      2.21238937e-03 5.53097343e-04 1.65929203e-03 5.53097343e-04
      5.53097343e-04 2.76548672e-03 0. 1.10619469e-03 1.10619469e-03
      5.53097343e-04 5.53097343e-04 0. 1.10619469e-03 5.53097343e-04 0.
      0. 0. 5.53097343e-04 2.76548672e-03 0. 1.10619469e-03 0.
      5.53097343e-04 1.10619469e-03 0. 1.10619469e-03 5.53097343e-04
      1.10619469e-03 5.53097343e-04 5.53097343e-04 4.42477874e-03
      1.10619469e-03 1.10619469e-03 5.53097343e-04 3.31858406e-03
