<?xml version="1.0"?>
<opencv_storage>
<my_svm type_id="opencv-ml-svm">
  <svm_type>C_SVC</svm_type>
  <kernel><type>RBF</type>
    <gamma>3.3750000000000002e-02</gamma></kernel>
  <C>3.1250000000000000e+02</C>
  <term_criteria><epsilon>1.1920928955078125e-07</epsilon>
    <iterations>50000</iterations></term_criteria>
  <var_all>1000</var_all>
  <var_count>1000</var_count>
  <class_count>2</class_count>
  <class_labels type_id="opencv-matrix">
    <rows>1</rows>
    <cols>2</cols>
    <dt>i</dt>
    <data>
      0 1</data></class_labels>
  <sv_total>226</sv_total>
  <support_vectors>
    <_>
      0. 0. 0. 0. 0. 0. 0. 0. 0. 0. 0. 0. 0. 0. 0. 0. 0. 0. 0. 0. 0. 0.
      0. 0. 0. 0. 0. 0. 0. 0. 0. 0. 0. 0. 0. 0. 0. 0. 0. 0. 0. 0.
      2.50000000e-01 0. 0. 0. 0. 0. 0. 0. 0. 0. 0. 0. 0. 0. 0. 0. 0. 0.
      0. 0. 0. 0. 0. 0. 0. 0. 0. 0. 0. 0. 0. 0. 0. 0. 0. 0. 0. 0. 0. 0.
      0. 0. 0. 0. 0. 0. 0. 0. 0. 0. 0. 0. 0. 0. 0. 0. 0. 0. 0. 0. 0. 0.
      0. 0. 0. 0. 0. 0. 0. 0. 0. 0. 0. 0. 0. 0. 0. 0. 0. 0. 0. 0. 0. 0.
      0. 0. 0. 0. 0. 0. 0. 0. 0. 0. 0. 0. 0. 0. 0. 0. 0. 0. 0. 0. 0. 0.
      0. 0. 0. 0. 0. 0. 0. 0. 0. 0. 0. 0. 0. 0. 0. 0. 0. 0. 0. 0. 0. 0.
      0. 0. 0. 0. 0. 0. 0. 0. 0. 0. 0. 0. 0. 0. 0. 0. 0. 0. 0. 0. 0. 0.
      0. 0. 0. 0. 0. 0. 0. 0. 0. 0. 0. 0. 0. 0. 0. 0. 0. 0. 0. 0. 0. 0.
      0. 0. 0. 0. 0. 0. 0. 0. 0. 0. 0. 0. 0. 0. 0. 0. 0. 0. 0. 0. 0. 0.
      0. 0. 0. 0. 0. 0. 0. 0. 0. 0. 0. 0. 0. 0. 0. 0. 0. 0. 0. 0. 0. 0.
      0. 0. 0. 0. 0. 0. 0. 0. 0. 0. 0. 0. 0. 0. 0. 0. 0. 0. 0. 0. 0. 0.
      0. 0. 0. 0. 0. 0. 0. 0. 0. 0. 0. 0. 0. 0. 0. 0. 0. 0. 0. 0. 0. 0.
      0. 0. 0. 0. 0. 0. 0. 0. 0. 0. 0. 0. 0. 0. 0. 0. 0. 0. 0. 0. 0. 0.
      0. 0. 0. 0. 0. 0. 0. 0. 0. 0. 0. 0. 0. 0. 0. 0. 0. 0. 0. 0. 0. 0.
      0. 0. 0. 0. 0. 0. 0. 0. 0. 0. 0. 0. 0. 0. 0. 0. 0. 0. 0. 0. 0. 0.
      0. 0. 0. 0. 0. 0. 0. 0. 0. 0. 0. 0. 0. 0. 0. 0. 0. 0. 0. 0. 0. 0.
      0. 0. 0. 0. 0. 0. 0. 0. 0. 0. 0. 0. 0. 0. 0. 0. 0. 0. 0. 0.
      2.50000000e-01 0. 0. 0. 0. 0. 0. 0. 0. 0. 0. 0. 0. 0. 0. 0. 0. 0.
      0. 0. 0. 0. 0. 0. 0. 0. 0. 0. 0. 0. 0. 0. 0. 0. 0. 0. 0. 0. 0. 0.
      0. 0. 0. 0. 0. 0. 0. 0. 0. 0. 0. 0. 0. 0. 0. 0. 0. 0. 0. 0.
      2.50000000e-01 0. 0. 0. 0. 0. 0. 0. 0. 0. 0. 0. 0. 0. 0. 0. 0. 0.
      0. 0. 0. 0. 0. 0. 0. 0. 0. 0. 0. 0. 0. 0. 0. 0. 0. 0. 0. 0. 0. 0.
      0. 0. 0. 0. 0. 0. 0. 0. 0. 0. 0. 0. 0. 0. 0. 0. 0. 0. 0. 0. 0. 0.
      0. 0. 0. 0. 0. 0. 0. 0. 0. 0. 0. 0. 0. 0. 0. 0. 0. 0. 0. 0. 0. 0.
      0. 0. 0. 0. 0. 0. 0. 0. 0. 0. 0. 0. 0. 0. 0. 0. 0. 0. 0. 0. 0. 0.
      0. 0. 0. 0. 0. 0. 0. 0. 0. 0. 0. 0. 0. 0. 0. 0. 0. 0. 0. 0. 0. 0.
      0. 0. 0. 0. 0. 0. 0. 0. 0. 0. 0. 0. 0. 0. 0. 0. 0. 0. 0. 0. 0. 0.
      0. 0. 0. 0. 0. 0. 0. 0. 0. 0. 0. 0. 0. 0. 0. 0. 0. 0. 0. 0. 0. 0.
      0. 0. 0. 0. 0. 0. 0. 0. 0. 0. 0. 0. 0. 0. 0. 0. 0. 0. 0. 0. 0. 0.
      0. 0. 0. 0. 0. 0. 0. 0. 0. 0. 0. 0. 0. 0. 0. 0. 0. 0. 0. 0. 0. 0.
      0. 0. 0. 0. 0. 0. 0. 0. 0. 0. 0. 0. 0. 0. 0. 0. 0. 0. 0. 0. 0. 0.
      0. 0. 0. 0. 0. 0. 0. 0. 0. 0. 0. 0. 0. 0. 0. 0. 0. 0. 0. 0. 0. 0.
      0. 0. 0. 0. 0. 0. 0. 0. 0. 0. 0. 0. 0. 0. 0. 0. 0. 0. 0. 0. 0. 0.
      0. 0. 0. 0. 0. 0. 0. 0. 0. 0. 0. 0. 0. 0. 0. 0. 0. 0. 0. 0. 0. 0.
      0. 0. 0. 0. 0. 0. 0. 0. 0. 0. 0. 0. 0. 0. 0. 0. 0. 0. 0. 0. 0. 0.
      0. 0. 0. 0. 0. 0. 0. 0. 0. 0. 0. 0. 0. 0. 0. 0. 0. 0. 0. 0. 0. 0.
      0. 0. 0. 0. 0. 0. 0. 0. 0. 0. 0. 0. 0. 0. 0. 0. 0. 0. 0. 0. 0. 0.
      0. 0. 0. 0. 0. 0. 0. 0. 0. 0. 0. 0. 0. 0. 0. 0. 0. 0. 0. 0. 0. 0.
      0. 0. 0. 0. 0. 0. 0. 0. 0. 0. 0. 0. 0. 0. 0. 0. 0. 0.
      2.50000000e-01 0. 0. 0. 0. 0. 0. 0. 0. 0. 0. 0. 0. 0. 0. 0. 0. 0.
      0. 0. 0. 0. 0. 0. 0. 0. 0. 0. 0. 0. 0. 0. 0. 0. 0. 0. 0. 0. 0. 0.
      0. 0. 0. 0. 0. 0. 0. 0. 0. 0. 0. 0. 0. 0. 0. 0. 0. 0. 0. 0. 0. 0.
      0. 0. 0. 0. 0. 0. 0. 0. 0. 0. 0. 0. 0. 0. 0. 0. 0. 0. 0. 0. 0. 0.
      0. 0. 0. 0. 0. 0. 0. 0. 0. 0. 0. 0. 0. 0. 0. 0. 0. 0. 0. 0. 0. 0.
      0. 0. 0. 0. 0. 0. 0. 0. 0. 0. 0. 0. 0. 0.</_>
    <_>
      0. 0. 3.41296918e-03 0. 0. 0. 0. 0. 0. 0. 3.41296918e-03 0. 0. 0.
      0. 0. 0. 0. 0. 3.41296918e-03 0. 0. 0. 0. 6.82593836e-03 0.
      3.41296918e-03 0. 0. 3.41296918e-03 3.41296918e-03 0.
      3.41296918e-03 6.82593836e-03 0. 6.82593836e-03 0. 0. 0.
      3.41296918e-03 0. 0. 0. 0. 0. 0. 0. 0. 0. 0. 0. 3.41296918e-03 0.
      0. 6.82593836e-03 3.41296918e-03 1.02389073e-02 0. 0. 0.
      3.41296918e-03 0. 6.82593836e-03 0. 0. 0. 0. 0. 0. 6.82593836e-03
      0. 6.82593836e-03 0. 0. 3.41296918e-03 0. 3.41296918e-03 0.
      3.41296918e-03 0. 0. 0. 0. 0. 0. 3.41296918e-03 0. 0. 0. 0.
      3.41296918e-03 0. 0. 0. 3.41296918e-03 0. 0. 0. 0. 0. 0. 0. 0. 0.
      0. 0. 3.41296918e-03 3.41296918e-03 0. 0. 0. 0. 3.41296918e-03 0.
      0. 1.36518767e-02 0. 0. 0. 0. 0. 0. 3.41296918e-03 3.41296918e-03
      3.41296918e-03 6.82593836e-03 1.02389073e-02 0. 0. 0. 0. 0. 0.
      3.41296918e-03 0. 3.41296918e-03 6.82593836e-03 3.41296918e-03
      3.41296918e-03 0. 0. 0. 1.02389073e-02 0. 0. 0. 0. 0. 0. 0. 0. 0.
      0. 0. 1.02389073e-02 0. 0. 0. 6.82593836e-03 0. 0. 0. 0. 0. 0.
      3.41296918e-03 0. 0. 0. 0. 0. 0. 0. 3.41296918e-03 6.82593836e-03
      0. 3.41296918e-03 0. 0. 0. 0. 0. 0. 0. 0. 6.82593836e-03
      3.41296918e-03 0. 0. 0. 0. 3.41296918e-03 0. 0. 0. 0. 0. 0. 0. 0.
      3.41296918e-03 0. 0. 0. 0. 3.41296918e-03 0. 0. 0. 0.
      3.41296918e-03 0. 0. 0. 0. 0. 0. 0. 0. 0. 3.41296918e-03
      3.41296918e-03 0. 0. 3.41296918e-03 0. 0. 3.41296918e-03
      3.41296918e-03 3.41296918e-03 0. 0. 0. 0. 0. 0. 3.41296918e-03 0.
      0. 0. 0. 0. 0. 0. 3.41296918e-03 0. 3.41296918e-03 0. 0. 0. 0. 0.
      0. 0. 0. 0. 3.41296918e-03 0. 0. 0. 0. 0. 0. 0. 0. 0. 0. 0. 0. 0.
      0. 0. 0. 3.41296918e-03 0. 0. 3.41296918e-03 0. 0. 0.
      3.41296918e-03 6.82593836e-03 0. 0. 3.41296918e-03 0. 0. 0. 0. 0.
      0. 3.41296918e-03 0. 0. 0. 0. 0. 0. 0. 3.41296918e-03 0.
      3.41296918e-03 0. 0. 3.41296918e-03 0. 0. 3.41296918e-03 0. 0. 0.
      0. 0. 0. 0. 0. 3.41296918e-03 1.02389073e-02 0. 0. 0.
      3.41296918e-03 0. 0. 0. 3.41296918e-03 0. 0. 0. 0. 0. 0. 0.
      3.41296918e-03 0. 0. 0. 0. 0. 0. 3.41296918e-03 0. 0. 0.
      1.02389073e-02 0. 0. 0. 0. 0. 0. 0. 6.82593836e-03 0. 0. 0.
      6.82593836e-03 0. 0. 0. 0. 0. 0. 0. 0. 0. 0. 0. 0. 3.41296918e-03
      0. 0. 3.41296918e-03 0. 0. 0. 1.70648452e-02 0. 0. 0. 0. 0. 0. 0.
      0. 0. 0. 0. 0. 0. 6.82593836e-03 0. 0. 0. 0. 0. 0. 0. 0. 0. 0. 0.
      3.41296918e-03 0. 0. 0. 0. 0. 0. 0. 0. 0. 0. 0. 0. 0.
      3.41296918e-03 0. 0. 0. 3.41296918e-03 0. 0. 0. 0. 3.41296918e-03
      0. 0. 0. 3.41296918e-03 0. 0. 0. 0. 1.02389073e-02 0. 0. 0.
      3.41296918e-03 6.82593836e-03 0. 0. 0. 3.41296918e-03
      3.41296918e-03 0. 0. 0. 0. 0. 0. 0. 3.41296918e-03 0. 0. 0. 0. 0.
      0. 6.82593836e-03 3.41296918e-03 0. 3.41296918e-03 3.41296918e-03
      0. 0. 3.41296918e-03 0. 0. 3.41296918e-03 0. 0. 6.82593836e-03
      3.41296918e-03 6.82593836e-03 0. 2.04778146e-02 0. 0. 0. 0. 0. 0.
      3.41296918e-03 0. 0. 0. 0. 0. 0. 0. 0. 6.82593836e-03 0. 0. 0. 0.
      0. 0. 0. 3.41296918e-03 0. 0. 0. 0. 3.41296918e-03 0. 0. 0.
      1.02389073e-02 0. 6.82593836e-03 0. 0. 0. 0. 3.41296918e-03 0. 0.
      0. 0. 0. 3.41296918e-03 1.02389073e-02 0. 0. 3.41296918e-03 0. 0.
      0. 0. 0. 0. 0. 0. 0. 0. 3.41296918e-03 0. 0. 0. 0. 3.41296918e-03
      3.41296918e-03 1.36518767e-02 3.41296918e-03 0. 0. 0.
      3.41296918e-03 0. 0. 0. 3.41296918e-03 0. 0. 0. 0. 0. 0. 0. 0. 0.
      3.41296918e-03 0. 0. 0. 0. 0. 0. 0. 0. 3.41296918e-03
      3.41296918e-03 0. 3.41296918e-03 0. 0. 0. 0. 0. 0. 0. 0. 0. 0. 0.
      0. 0. 0. 0. 0. 0. 0. 1.02389073e-02 0. 0. 0. 0. 0. 0. 0. 0. 0.
      6.82593836e-03 0. 0. 6.82593836e-03 0. 3.41296918e-03
      6.82593836e-03 0. 3.41296918e-03 0. 0. 0. 0. 0. 0. 0. 0. 0. 0. 0.
      3.41296918e-03 0. 0. 0. 0. 0. 0. 0. 0. 0. 0. 0. 0. 6.82593836e-03
      0. 0. 0. 0. 3.41296918e-03 3.41296918e-03 0. 0. 0. 6.82593836e-03
      0. 3.41296918e-03 0. 0. 0. 3.41296918e-03 0. 3.41296918e-03 0. 0.
      0. 0. 0. 3.41296918e-03 0. 0. 6.82593836e-03 0. 6.82593836e-03 0.
      0. 0. 0. 3.41296918e-03 0. 3.41296918e-03 0. 0. 0. 0. 0. 0. 0. 0.
      6.82593836e-03 0. 0. 0. 0. 0. 0. 0. 3.41296918e-03 0. 0.
      3.41296918e-03 0. 0. 0. 3.41296918e-03 0. 0. 0. 0. 0. 0. 0.
      3.41296918e-03 0. 0. 0. 0. 0. 0. 0. 0. 0. 0. 0. 0. 0. 0. 0.
      3.41296918e-03 3.41296918e-03 0. 0. 0. 3.41296918e-03 0. 0.
      3.41296918e-03 0. 0. 0. 3.41296918e-03 0. 0. 0. 0. 0. 0.
      6.82593836e-03 0. 0. 0. 0. 0. 0. 6.82593836e-03 0. 3.41296918e-03
      0. 0. 0. 0. 6.82593836e-03 0. 0. 0. 0. 3.41296918e-03
      3.41296918e-03 6.82593836e-03 3.41296918e-03 0. 0. 0. 0. 0. 0.
      3.41296918e-03 0. 0. 0. 0. 0. 0. 6.82593836e-03 3.41296918e-03 0.
      0. 0. 0. 0. 0. 0. 0. 3.41296918e-03 0. 3.41296918e-03 0. 0.
      3.41296918e-03 0. 0. 3.41296918e-03 0. 0. 0. 0. 0. 0. 0. 0. 0. 0.
      0. 0. 0. 0. 6.82593836e-03 0. 0. 0. 0. 0. 0. 0. 6.82593836e-03 0.
      0. 0. 0. 0. 0. 3.41296918e-03 0. 0. 0. 0. 0. 0. 0. 0. 0. 0. 0. 0.
      0. 0. 0. 6.82593836e-03 3.41296918e-03 0. 0. 0. 0. 0. 0. 0. 0. 0.
      3.41296918e-03 0. 0. 3.41296918e-03 0. 0. 0. 0. 0. 0. 0.
      3.41296918e-03 0. 0. 3.41296918e-03 0. 3.41296918e-03 0. 0. 0. 0.
      0. 0. 3.41296918e-03 3.41296918e-03 0. 0. 0. 0. 0. 3.41296918e-03
      0. 1.70648452e-02 0. 0. 0. 0. 0. 3.41296918e-03 3.41296918e-03
      3.41296918e-03 3.41296918e-03 0. 0. 0. 1.02389073e-02 0. 0. 0.
      3.41296918e-03 0. 0. 0. 0. 0. 0. 0. 0. 6.82593836e-03 0. 0.
      3.41296918e-03 0. 0. 0. 0. 0. 0. 0. 0. 0. 0. 0. 0. 0.
      3.41296918e-03 0. 0. 3.41296918e-03 0. 0. 0. 0. 0. 0. 0. 0. 0. 0.
      3.41296918e-03 0. 0. 0. 3.41296918e-03 0. 6.82593836e-03
      3.41296918e-03 0. 3.41296918e-03 0. 0. 0. 0. 0. 0. 0. 0. 0.
      3.41296918e-03 3.41296918e-03 0. 3.41296918e-03 0. 0. 0.
      6.82593836e-03 0. 0. 6.82593836e-03 0. 0. 3.41296918e-03 0. 0. 0.
      0. 0. 0. 0. 3.41296918e-03 0. 0. 0. 0. 0. 0. 0. 3.41296918e-03 0.
      3.41296918e-03 0. 3.41296918e-03 0. 0. 0. 0. 0. 0. 0.</_>
    <_>
      0. 0. 0. 0. 0. 0. 0. 0. 4.34782589e-03 1.73913036e-02 0. 0. 0.
      4.34782589e-03 0. 0. 0. 0. 0. 0. 0. 0. 0. 0. 0. 0. 0. 0. 0.
      4.34782589e-03 4.34782589e-03 0. 0. 8.69565178e-03 0. 0. 0. 0. 0.
      0. 0. 0. 0. 0. 0. 0. 0. 0. 0. 0. 0. 0. 0. 0. 0. 4.34782589e-03 0.
      0. 0. 0. 0. 4.34782589e-03 0. 0. 0. 0. 4.34782589e-03 0. 0. 0. 0.
      0. 0. 0. 0. 0. 0. 0. 0. 4.34782589e-03 0. 0. 4.34782589e-03 0. 0.
      0. 0. 0. 0. 0. 0. 0. 0. 0. 0. 0. 0. 0. 0. 0. 0. 0. 0. 0. 0. 0. 0.
      1.73913036e-02 0. 0. 1.30434781e-02 0. 0. 0. 0. 0. 0. 0.
      4.34782589e-03 0. 0. 4.34782589e-03 0. 0. 0. 0. 0. 8.69565178e-03
      0. 0. 0. 0. 0. 0. 0. 0. 0. 0. 0. 0. 0. 0. 0. 0. 0. 4.34782589e-03
      0. 0. 0. 0. 1.30434781e-02 0. 4.34782589e-03 0. 0. 0. 0. 0. 0. 0.
      0. 0. 0. 0. 0. 0. 0. 0. 0. 0. 0. 0. 0. 4.34782589e-03 0. 0. 0. 0.
      0. 0. 8.69565178e-03 0. 0. 0. 0. 0. 0. 0. 0. 0. 0. 0. 0. 0. 0. 0.
      0. 0. 0. 0. 0. 0. 0. 0. 0. 0. 0. 0. 0. 4.34782589e-03 0. 0.
      4.34782589e-03 0. 0. 0. 0. 4.34782589e-03 0. 0. 0. 0. 0. 0. 0. 0.
      0. 0. 0. 8.69565178e-03 0. 0. 0. 4.34782589e-03 0. 0. 0. 0.
      4.34782589e-03 0. 0. 0. 0. 8.69565178e-03 0. 4.34782589e-03 0. 0.
      4.34782589e-03 0. 0. 0. 0. 0. 0. 0. 0. 0. 0. 0. 0. 0. 0. 0. 0. 0.
      0. 0. 0. 0. 0. 0. 0. 0. 4.34782589e-03 0. 0. 0. 0. 0. 0. 0. 0. 0.
      0. 0. 0. 1.30434781e-02 0. 0. 0. 0. 0. 4.34782589e-03
      4.34782589e-03 0. 0. 0. 0. 8.69565178e-03 0. 0. 0. 0. 0.
      4.34782589e-03 0. 0. 0. 0. 8.69565178e-03 0. 0. 0. 0. 0. 0.
      4.34782589e-03 0. 0. 0. 0. 0. 0. 0. 0. 0. 4.34782589e-03 0.
      8.69565178e-03 4.34782589e-03 0. 4.34782589e-03 0. 0. 0. 0. 0. 0.
      0. 0. 0. 0. 0. 0. 0. 0. 0. 4.34782589e-03 0. 0. 0. 0. 0.
      4.34782589e-03 0. 0. 0. 8.69565178e-03 0. 0. 0. 0. 0. 0. 0. 0. 0.
      0. 8.69565178e-03 0. 2.17391290e-02 0. 0. 0. 0. 0. 0.
      8.69565178e-03 0. 0. 0. 0. 0. 0. 0. 0. 4.34782589e-03 0. 0.
      4.34782589e-03 0. 0. 0. 0. 0. 0. 0. 0. 0. 0. 8.69565178e-03 0. 0.
      0. 0. 0. 0. 0. 0. 4.34782589e-03 0. 0. 0. 0. 0. 0. 0. 0. 0.
      4.34782589e-03 4.34782589e-03 0. 0. 0. 0. 0. 0. 0. 0. 0. 0. 0. 0.
      4.34782589e-03 0. 0. 0. 0. 0. 0. 4.34782589e-03 0. 0. 0.
      8.69565178e-03 0. 0. 0. 0. 0. 0. 0. 0. 0. 0. 4.34782589e-03 0. 0.
      0. 0. 0. 4.34782589e-03 0. 0. 0. 0. 0. 0. 0. 0. 0. 0. 0. 0. 0. 0.
      0. 0. 0. 0. 0. 0. 0. 0. 4.34782589e-03 0. 0. 0. 0. 0.
      4.34782589e-03 0. 0. 0. 0. 4.34782589e-03 0. 4.34782589e-03 0. 0.
      0. 0. 0. 0. 4.34782589e-03 0. 0. 0. 0. 0. 0. 0. 0. 0.
      4.34782589e-03 0. 0. 0. 0. 0. 0. 4.34782589e-03 0. 0. 0. 0. 0. 0.
      0. 0. 0. 0. 0. 0. 0. 4.34782589e-03 0. 0. 0. 0. 0. 0. 0. 0. 0. 0.
      0. 0. 0. 0. 0. 0. 8.69565178e-03 4.34782589e-03 0. 1.30434781e-02
      4.34782589e-03 0. 0. 4.34782589e-03 0. 0. 0. 0. 4.34782589e-03 0.
      4.34782589e-03 0. 0. 0. 0. 0. 0. 0. 4.34782589e-03 0. 0.
      4.34782589e-03 0. 0. 0. 0. 4.34782589e-03 0. 8.69565178e-03 0. 0.
      0. 0. 0. 0. 0. 4.34782589e-03 0. 4.34782589e-03 0. 0. 0.
      4.34782589e-03 0. 0. 0. 0. 0. 8.69565178e-03 0. 8.69565178e-03 0.
      0. 4.34782589e-03 0. 0. 0. 0. 0. 4.34782589e-03 0. 0. 0. 0. 0. 0.
      0. 0. 0. 0. 0. 0. 0. 0. 0. 0. 0. 0. 8.69565178e-03 0. 0. 0. 0. 0.
      0. 4.34782589e-03 0. 0. 1.30434781e-02 0. 0. 0. 0. 0. 0. 0. 0. 0.
      0. 0. 0. 0. 0. 0. 0. 0. 0. 0. 0. 0. 0. 8.69565178e-03 0. 0. 0. 0.
      0. 0. 0. 0. 0. 0. 0. 0. 0. 0. 4.34782589e-03 3.91304344e-02 0.
      4.34782589e-03 0. 0. 0. 4.34782589e-03 4.34782589e-03 0. 0. 0. 0.
      0. 0. 0. 0. 0. 0. 0. 0. 0. 0. 0. 0. 0. 0. 8.69565178e-03
      4.34782589e-03 1.73913036e-02 0. 0. 0. 0. 0. 0. 4.34782589e-03 0.
      0. 0. 0. 0. 1.30434781e-02 0. 0. 0. 0. 0. 0. 0. 8.69565178e-03 0.
      4.34782589e-03 0. 0. 0. 0. 0. 0. 0. 0. 0. 0. 0. 0. 0. 0. 0. 0. 0.
      0. 4.34782589e-03 4.34782589e-03 0. 0. 4.34782589e-03 0. 0. 0. 0.
      0. 0. 0. 0. 4.34782589e-03 0. 0. 8.69565178e-03 0. 0. 0. 0. 0. 0.
      0. 0. 0. 0. 0. 0. 0. 8.69565178e-03 1.30434781e-02 0. 0. 0.
      4.34782589e-03 0. 0. 0. 0. 4.34782589e-03 0. 0. 0. 0. 0. 0. 0. 0.
      0. 0. 0. 0. 4.34782589e-03 0. 4.34782589e-03 0. 0. 0.
      4.34782589e-03 0. 0. 0. 0. 0. 0. 4.34782589e-03 0. 0. 0. 0. 0. 0.
      4.34782589e-03 0. 0. 0. 4.34782589e-03 0. 0. 0. 0. 0. 0. 0.
      8.69565178e-03 0. 0. 4.34782589e-03 0. 4.34782589e-03 0. 0. 0. 0.
      0. 4.34782589e-03 0. 8.69565178e-03 0. 0. 0. 0. 0. 0. 0. 0. 0. 0.
      8.69565178e-03 4.34782589e-03 0. 0. 0. 0. 0. 0. 0. 0. 0. 0. 0. 0.
      0. 0. 0. 0. 4.34782589e-03 4.34782589e-03 0. 0. 0. 4.34782589e-03
      0. 0. 0. 0. 0. 4.34782589e-03 0. 4.34782589e-03 0. 0. 0. 0.
      3.91304344e-02 2.17391290e-02 8.69565178e-03 0. 0. 0. 0.
      4.34782589e-03 0. 0. 0. 0. 0. 0. 4.34782589e-03 0. 0. 0. 0. 0. 0.
      0. 4.34782589e-03 0. 0. 0. 0. 0. 4.34782589e-03 0. 0. 0. 0. 0.
      4.34782589e-03 0. 0. 1.30434781e-02 0. 0. 0. 0. 0. 0. 0. 0.
      1.30434781e-02 0. 0. 0. 0. 0. 0. 0. 0. 0. 0. 0. 0. 0. 0. 0. 0. 0.
      0. 0. 4.34782589e-03 0. 0. 4.34782589e-03 0. 0. 0. 4.34782589e-03
      0. 0. 0. 4.34782589e-03 0. 0. 0. 0. 2.17391290e-02 0. 0. 0. 0. 0.
      0. 0. 0. 0. 2.17391290e-02 0. 0. 0. 0. 0. 0. 0. 0.</_>
    <_>
      0. 0. 0. 0. 0. 0. 0. 0. 0. 0. 0. 0. 0. 0. 0. 0. 0. 0. 0. 0. 0. 0.
      0. 0. 0. 0. 0. 0. 0. 0. 0. 0. 0. 0. 0. 0. 0. 0. 0. 0. 0. 0. 0. 0.
      0. 0. 0. 0. 0. 0. 0. 0. 0. 1.92307699e-02 0. 0. 0. 0. 0. 0. 0. 0.
      0. 0. 0. 0. 0. 0. 0. 0. 0. 0. 0. 0. 0. 0. 1.92307699e-02 0. 0. 0.
      0. 0. 0. 0. 0. 0. 0. 0. 0. 0. 0. 0. 0. 0. 0. 0. 0. 0. 0. 0. 0. 0.
      0. 0. 0. 0. 0. 0. 0. 0. 0. 0. 0. 0. 0. 0. 0. 0. 0. 0. 0. 0. 0. 0.
      0. 0. 0. 0. 0. 0. 0. 0. 0. 0. 0. 0. 0. 0. 0. 3.84615399e-02 0. 0.
      0. 0. 0. 0. 0. 0. 0. 0. 0. 0. 0. 0. 0. 0. 0. 0. 0. 0. 0. 0. 0. 0.
      0. 0. 0. 0. 0. 1.92307699e-02 0. 0. 0. 0. 0. 0. 0. 0. 0. 0. 0.
      1.92307699e-02 0. 0. 0. 0. 0. 0. 0. 0. 0. 0. 0. 0. 0. 0. 0. 0. 0.
      0. 1.92307699e-02 0. 0. 0. 0. 0. 0. 0. 0. 0. 0. 0. 0. 0. 0. 0. 0.
      0. 0. 0. 0. 0. 0. 0. 0. 0. 0. 0. 0. 0. 0. 0. 0. 0. 0. 0. 0. 0. 0.
      0. 0. 0. 0. 0. 0. 0. 0. 0. 0. 0. 0. 0. 0. 0. 3.84615399e-02 0. 0.
      0. 0. 0. 0. 1.92307699e-02 0. 0. 0. 0. 0. 0. 0. 0. 1.92307699e-02
      0. 0. 0. 0. 0. 0. 0. 0. 0. 5.76923117e-02 0. 0. 0. 0. 0. 0. 0. 0.
      0. 0. 0. 0. 0. 0. 0. 0. 0. 0. 0. 0. 0. 0. 0. 0. 0. 0. 0. 0. 0. 0.
      0. 0. 0. 0. 0. 0. 0. 0. 0. 0. 0. 0. 0. 0. 0. 0. 0. 0. 0. 0.
      5.76923117e-02 0. 0. 0. 0. 0. 0. 0. 0. 0. 0. 0. 0. 0. 0. 0. 0. 0.
      0. 0. 0. 0. 0. 0. 0. 0. 0. 0. 0. 1.92307699e-02 0. 0. 0. 0. 0. 0.
      0. 0. 0. 0. 0. 0. 0. 0. 0. 0. 0. 0. 0. 0. 0. 0. 0. 0. 0. 0. 0. 0.
      0. 0. 0. 0. 0. 0. 1.92307699e-02 0. 0. 0. 0. 0. 0. 0. 0. 0. 0. 0.
      0. 0. 0. 0. 0. 0. 0. 0. 0. 0. 0. 0. 0. 0. 0. 0. 0. 0. 0. 0. 0. 0.
      0. 0. 0. 0. 0. 0. 0. 0. 0. 0. 0. 0. 0. 0. 0. 0. 0. 0. 0. 0. 0. 0.
      0. 0. 0. 0. 0. 0. 0. 1.92307699e-02 0. 0. 0. 0. 0. 0. 0. 0. 0. 0.
      0. 0. 0. 0. 0. 0. 0. 0. 0. 0. 0. 0. 0. 0. 0. 0. 0. 0. 0. 0. 0. 0.
      0. 0. 0. 0. 0. 0. 1.92307699e-02 0. 0. 0. 0. 0. 0. 0. 0. 0. 0. 0.
      0. 0. 3.84615399e-02 0. 0. 0. 0. 0. 0. 0. 0. 0. 0. 0. 0. 0. 0. 0.
      0. 0. 0. 0. 0. 0. 0. 0. 1.92307699e-02 0. 0. 0. 0. 0. 0. 0. 0. 0.
      0. 0. 0. 0. 0. 0. 0. 0. 0. 0. 1.92307699e-02 0. 0. 0. 0. 0. 0. 0.
      0. 0. 0. 0. 0. 1.92307699e-02 0. 0. 0. 0. 0. 0. 0. 0. 0. 0. 0. 0.
      0. 0. 0. 0. 0. 0. 0. 0. 0. 0. 0. 0. 0. 0. 0. 0. 0. 0. 0. 0. 0. 0.
      0. 0. 0. 0. 0. 0. 0. 0. 0. 0. 0. 0. 0. 0. 0. 1.92307699e-02 0. 0.
      0. 0. 0. 0. 0. 0. 0. 0. 0. 0. 0. 0. 0. 0. 0. 0. 0. 0. 0. 0. 0. 0.
      0. 0. 0. 1.92307699e-02 0. 0. 0. 0. 0. 0. 0. 0. 0. 0. 0. 0. 0. 0.
      1.92307699e-02 0. 0. 0. 0. 0. 0. 0. 0. 0. 0. 0. 0. 0. 0. 0. 0. 0.
      0. 0. 0. 0. 0. 0. 0. 0. 0. 0. 0. 0. 0. 0. 0. 0. 0. 0. 0. 0. 0. 0.
      0. 0. 0. 0. 0. 0. 0. 0. 0. 0. 0. 0. 0. 0. 0. 0. 0. 0. 0. 0. 0. 0.
      0. 0. 0. 0. 0. 0. 0. 0. 0. 0. 0. 0. 0. 0. 0. 0. 0. 0. 0.
      1.92307699e-02 0. 0. 0. 0. 3.84615399e-02 0. 0. 0. 0. 0. 0. 0. 0.
      0. 0. 0. 0. 1.92307699e-02 0. 0. 1.92307699e-02 0. 0. 0. 0. 0. 0.
      0. 0. 0. 0. 0. 0. 0. 0. 0. 0. 0. 0. 0. 1.92307699e-02 0. 0. 0. 0.
      0. 0. 0. 0. 0. 1.92307699e-02 0. 0. 0. 0. 0. 0. 0. 0. 0. 0. 0. 0.
      0. 0. 0. 0. 0. 0. 0. 0. 0. 0. 0. 0. 0. 0. 0. 0. 0. 0. 0. 0. 0. 0.
      0. 0. 0. 0. 0. 0. 0. 0. 0. 0. 0. 0. 0. 0. 0. 0. 0. 1.92307699e-02
      0. 0. 0. 0. 0. 0. 0. 0. 0. 0. 0. 0. 0. 0. 0. 0. 0. 0. 0. 0. 0. 0.
      0. 0. 0. 0. 0. 0. 0. 0. 0. 0. 0. 1.92307699e-02 0. 0. 0. 0. 0. 0.
      0. 0. 0. 1.92307699e-02 0. 1.92307699e-02 0. 0. 0. 0. 0. 0. 0. 0.
      0. 0. 0. 0. 0. 0. 0. 1.15384623e-01 3.84615399e-02 0. 0. 0. 0. 0.
      0. 0. 0. 0. 0. 0. 0. 0. 0. 0. 0. 1.92307699e-02 0. 0. 0. 0. 0. 0.
      0. 0. 0. 0. 0. 0. 0. 0. 0. 0. 0. 0. 0. 0. 0. 1.92307699e-02 0. 0.
      0. 0. 0. 0. 0. 0. 0. 0. 0. 0. 0. 0. 0. 0. 0. 0. 1.92307699e-02 0.
      0. 0. 0. 0. 0. 0. 0. 0. 0. 0. 0. 0. 0. 0. 0. 0. 0. 0. 0. 0. 0. 0.
      0. 0. 0. 0. 0. 0. 1.92307699e-02 0. 0. 0.</_>
    <_>
      0. 0. 0. 0. 0. 0. 3.21543403e-03 0. 0. 3.21543403e-03 0.
      6.43086806e-03 3.21543403e-03 0. 0. 0. 0. 0. 0. 0. 0. 0. 0. 0. 0.
      0. 0. 0. 0. 0. 0. 0. 0. 0. 0. 0. 0. 0. 0. 0. 0. 0. 0.
      3.21543403e-03 0. 0. 0. 0. 0. 0. 3.21543403e-03 3.21543403e-03 0.
      0. 6.43086806e-03 0. 0. 3.21543403e-03 3.21543403e-03 0.
      3.21543403e-03 0. 0. 0. 3.21543403e-03 3.21543403e-03 0. 0. 0. 0.
      0. 0. 0. 0. 0. 0. 0. 0. 3.21543403e-03 0. 3.21543403e-03 0. 0. 0.
      0. 9.64630209e-03 0. 3.21543403e-03 3.21543403e-03 3.21543403e-03
      0. 0. 0. 0. 0. 0. 0. 6.43086806e-03 0. 0. 9.64630209e-03 0. 0. 0.
      0. 0. 0. 3.21543403e-03 0. 0. 0. 0. 0. 0. 0. 0. 0. 0. 0. 0. 0. 0.
      0. 1.28617361e-02 0. 0. 0. 0. 0. 0. 0. 0. 3.21543403e-03 0.
      6.43086806e-03 0. 3.21543403e-03 0. 0. 0. 0. 0. 0. 0. 0. 0. 0. 0.
      0. 0. 0. 3.21543403e-03 3.21543403e-03 0. 0. 0. 0. 6.43086806e-03
      1.28617361e-02 0. 0. 0. 0. 0. 6.43086806e-03 3.21543403e-03
      3.21543403e-03 3.21543403e-03 0. 0. 3.21543403e-03 0. 0. 0. 0. 0.
      0. 0. 0. 3.21543403e-03 0. 0. 0. 0. 0. 0. 0. 0. 3.21543403e-03 0.
      0. 0. 0. 0. 0. 0. 0. 0. 3.21543403e-03 3.21543403e-03
      6.43086806e-03 0. 0. 0. 0. 0. 0. 0. 0. 0. 0. 0. 0. 6.43086806e-03
      0. 0. 0. 0. 0. 0. 3.21543403e-03 0. 0. 0. 3.21543403e-03 0. 0. 0.
      0. 0. 3.21543403e-03 0. 0. 0. 3.21543403e-03 0. 0. 0. 0. 0. 0. 0.
      0. 0. 0. 0. 0. 0. 3.21543403e-03 3.21543403e-03 0. 0. 0. 0. 0. 0.
      6.43086806e-03 0. 0. 0. 0. 6.43086806e-03 3.21543403e-03 0. 0. 0.
      0. 3.21543403e-03 0. 0. 0. 3.21543403e-03 0. 0. 0. 0. 0. 0. 0. 0.
      0. 3.21543403e-03 3.21543403e-03 0. 0. 0. 6.43086806e-03 0. 0. 0.
      3.21543403e-03 3.21543403e-03 0. 0. 0. 3.21543403e-03 0.
      3.21543403e-03 0. 0. 0. 0. 0. 0. 0. 0. 0. 0. 3.21543403e-03 0. 0.
      0. 0. 0. 0. 0. 0. 0. 0. 0. 0. 6.43086806e-03 0. 0. 0.
      3.21543403e-03 3.21543403e-03 0. 0. 0. 9.64630209e-03 0. 0. 0. 0.
      1.28617361e-02 0. 6.43086806e-03 0. 0. 0. 0. 0. 0. 0. 0. 0. 0. 0.
      0. 3.21543403e-03 0. 0. 0. 0. 0. 0. 0. 3.21543403e-03 0. 0. 0. 0.
      0. 0. 0. 0. 3.21543403e-03 0. 6.43086806e-03 0. 0. 0. 0. 0. 0. 0.
      0. 6.43086806e-03 0. 0. 0. 0. 0. 0. 3.21543403e-03 0. 0. 0. 0. 0.
      0. 0. 0. 0. 6.43086806e-03 0. 3.21543403e-03 0. 0. 0.
      3.21543403e-03 0. 0. 0. 3.21543403e-03 0. 0. 0. 0. 0. 0.
      6.43086806e-03 3.21543403e-03 0. 3.21543403e-03 3.21543403e-03 0.
      0. 0. 0. 0. 3.21543403e-03 0. 0. 0. 3.21543403e-03 0. 0. 0. 0.
      3.21543403e-03 0. 0. 6.43086806e-03 0. 0. 0. 3.21543403e-03 0. 0.
      0. 0. 0. 0. 0. 0. 0. 0. 0. 0. 0. 3.21543403e-03 0. 0. 0. 0. 0.
      1.60771701e-02 0. 0. 0. 0. 0. 3.21543403e-03 3.21543403e-03 0. 0.
      0. 0. 0. 3.21543403e-03 3.21543403e-03 0. 3.21543403e-03 0. 0. 0.
      0. 0. 0. 3.21543403e-03 0. 0. 0. 3.21543403e-03 0. 0.
      3.21543403e-03 0. 0. 3.21543403e-03 0. 0. 0. 3.21543403e-03 0. 0.
      0. 3.21543403e-03 6.43086806e-03 0. 0. 0. 0. 0. 0. 3.21543403e-03
      6.43086806e-03 3.21543403e-03 0. 3.21543403e-03 3.21543403e-03
      3.21543403e-03 3.21543403e-03 0. 0. 9.64630209e-03 0. 0. 0. 0. 0.
      0. 0. 0. 3.21543403e-03 0. 0. 3.21543403e-03 0. 3.21543403e-03 0.
      6.43086806e-03 0. 0. 6.43086806e-03 6.43086806e-03 0. 0. 0. 0.
      3.21543403e-03 0. 0. 3.21543403e-03 0. 0. 0. 0. 0. 0. 0. 0. 0. 0.
      0. 0. 0. 0. 3.21543403e-03 0. 0. 0. 3.21543403e-03 0. 0. 0.
      6.43086806e-03 0. 0. 0. 0. 0. 0. 0. 0. 0. 0. 0. 0. 0. 0. 0.
      9.64630209e-03 0. 0. 0. 0. 0. 0. 3.21543403e-03 0. 0.
      3.21543403e-03 3.21543403e-03 0. 0. 0. 0. 0. 0. 0. 0. 0. 0. 0.
      2.25080382e-02 0. 0. 0. 0. 0. 0. 0. 0. 0. 0. 3.21543403e-03
      6.43086806e-03 0. 0. 0. 0. 0. 0. 0. 0. 0. 0. 0. 0. 3.21543403e-03
      0. 3.21543403e-03 0. 0. 0. 0. 0. 3.21543403e-03 3.21543403e-03 0.
      0. 0. 0. 3.21543403e-03 3.21543403e-03 0. 0. 0. 0. 0. 0. 0.
      6.43086806e-03 0. 0. 0. 0. 0. 0. 0. 0. 6.43086806e-03 0.
      3.21543403e-03 3.21543403e-03 3.21543403e-03 0. 0. 0. 0. 0. 0. 0.
      0. 0. 0. 0. 0. 0. 3.21543403e-03 0. 0. 0. 0. 0. 0. 0.
      3.21543403e-03 0. 0. 0. 0. 0. 0. 0. 0. 0. 0. 0. 0. 0. 0. 0. 0. 0.
      0. 0. 3.21543403e-03 0. 3.21543403e-03 0. 0. 0. 0. 0. 0. 0. 0. 0.
      0. 0. 0. 0. 0. 0. 3.21543403e-03 0. 0. 0. 3.21543403e-03 0.
      3.21543403e-03 3.21543403e-03 0. 0. 0. 0. 0. 3.21543403e-03
      3.21543403e-03 0. 3.21543403e-03 3.21543403e-03 3.21543403e-03
      1.60771701e-02 3.21543403e-03 0. 0. 0. 0. 0. 0. 0. 0. 0. 0. 0. 0.
      0. 0. 0. 3.21543403e-03 3.21543403e-03 2.25080382e-02 0.
      3.21543403e-03 0. 3.21543403e-03 0. 0. 0. 0. 0. 0. 0. 0. 0. 0. 0.
      0. 3.21543403e-03 0. 0. 0. 9.64630209e-03 0. 0. 0. 0. 0. 0. 0.
      3.21543403e-03 0. 3.21543403e-03 0. 0. 0. 0. 0. 0. 9.64630209e-03
      0. 3.21543403e-03 3.21543403e-03 0. 0. 0. 3.21543403e-03 0. 0. 0.
      0. 2.25080382e-02 0. 0. 0. 0. 0. 0. 0. 3.21543403e-03
      3.21543403e-03 6.43086806e-03 3.21543403e-03 0. 0. 0.
      6.43086806e-03 0. 0. 0. 6.43086806e-03 0. 3.21543403e-03 0.
      3.21543403e-03 0. 0. 0. 3.21543403e-03 0. 6.43086806e-03 0. 0. 0.
      0. 0. 0. 0. 3.21543403e-03 0. 0. 0. 0. 0. 0. 0. 3.21543403e-03
      3.21543403e-03 0. 0. 0. 3.21543403e-03 0. 3.21543403e-03 0. 0. 0.
      0. 0. 3.21543403e-03 0. 9.64630209e-03 0. 3.21543403e-03 0. 0. 0.
      0. 0. 0. 0. 0. 0. 0. 0. 0. 6.43086806e-03 0. 3.21543403e-03 0.
      3.21543403e-03 2.25080382e-02 0. 6.43086806e-03 0. 0. 0. 0. 0. 0.
      0. 0. 0. 0. 0. 0. 0. 0. 0. 0. 0. 0. 6.43086806e-03 0.
      3.21543403e-03 3.21543403e-03 0. 0. 0. 0. 0. 0. 0. 0. 0.
      3.21543403e-03 0. 0. 0. 0. 0. 0. 0. 0. 0. 0. 0. 0. 0. 0. 0. 0. 0.
      0. 6.43086806e-03 0. 0. 0. 0. 0. 0. 0. 3.21543403e-03
      3.21543403e-03 0. 0. 0. 0. 0. 0. 3.21543403e-03 1.60771701e-02 0.
      0. 0. 0. 0. 3.21543403e-03 0. 9.64630209e-03 3.21543403e-03 0. 0.
      0. 3.21543403e-03 0. 0. 9.64630209e-03 0. 0. 0. 0. 0. 0. 0.
      3.21543403e-03 3.21543403e-03 0. 0. 0. 0. 0. 1.92926042e-02 0.
      3.21543403e-03</_>
    <_>
      0. 0. 0. 0. 0. 0. 0. 0. 0. 0. 0. 0. 0. 0. 0. 0. 0. 0. 0. 0. 0. 0.
      0. 0. 0. 0. 0. 0. 0. 0. 0. 0. 0. 0. 0. 0. 0. 0. 0. 0. 0. 0. 0. 0.
      0. 0. 0. 0. 0. 0. 0. 0. 0. 0. 0. 0. 0. 0. 0. 0. 0. 0. 0. 0. 0. 0.
      0. 0. 0. 0. 0. 0. 0. 0. 0. 0. 0. 0. 0. 0. 0. 0. 0. 0. 0. 0. 0. 0.
      0. 0. 0. 0. 0. 0. 0. 0. 0. 0. 0. 0. 0. 0. 0. 0. 0. 0. 0. 0. 0. 0.
      0. 0. 0. 0. 0. 0. 0. 0. 0. 0. 0. 0. 0. 0. 0. 0. 0. 0. 0. 0. 0. 0.
      0. 0. 0. 0. 0. 0. 0. 0. 0. 0. 0. 0. 0. 0. 0. 0. 0. 0. 0. 0. 0. 0.
      0. 0. 0. 0. 0. 0. 0. 0. 0. 0. 0. 0. 0. 0. 0. 0. 0. 0. 0. 0. 0. 0.
      0. 0. 0. 0. 0. 0. 0. 0. 0. 0. 0. 0. 0. 0. 0. 0. 0. 0. 0. 0. 0. 0.
      0. 0. 0. 0. 0. 0. 0. 0. 0. 0. 0. 0. 0. 0. 0. 0. 0. 0. 0. 0. 0. 0.
      0. 0. 0. 0. 0. 0. 0. 0. 0. 0. 0. 0. 0. 0. 0. 0. 0. 0. 0. 0. 0. 0.
      0. 0. 0. 0. 0. 0. 0. 0. 0. 0. 0. 0. 0. 0. 0. 0. 0. 0. 0. 0. 0. 0.
      0. 0. 0. 0. 0. 0. 0. 0. 0. 0. 0. 0. 0. 0. 0. 0. 0. 0. 0. 0. 0. 0.
      0. 0. 0. 0. 0. 0. 0. 0. 0. 0. 0. 0. 0. 0. 0. 0. 0. 0. 0. 0. 0. 0.
      0. 0. 0. 0. 0. 1.00000001e-01 0. 0. 0. 0. 0. 0. 0. 0. 0. 0. 0. 0.
      0. 0. 0. 0. 0. 0. 0. 0. 0. 0. 0. 0. 0. 0. 0. 0. 0. 0. 0. 0. 0. 0.
      0. 0. 0. 0. 0. 0. 0. 0. 0. 0. 0. 0. 0. 0. 0. 0. 0. 0. 0. 0. 0. 0.
      0. 0. 0. 0. 0. 0. 0. 0. 0. 0. 0. 0. 0. 0. 0. 0. 0. 0. 0. 0. 0. 0.
      0. 0. 0. 0. 0. 0. 0. 0. 0. 0. 0. 0. 0. 0. 0. 0. 0. 0. 0. 0. 0. 0.
      0. 0. 0. 0. 0. 0. 0. 0. 0. 0. 0. 0. 0. 0. 0. 0. 0. 0. 0. 0. 0. 0.
      0. 0. 0. 0. 0. 0. 0. 0. 0. 0. 0. 0. 0. 0. 0. 0. 0. 0. 0. 0. 0. 0.
      0. 0. 0. 0. 0. 0. 0. 0. 0. 0. 0. 0. 0. 0. 0. 0. 0. 0. 0. 0. 0. 0.
      0. 0. 0. 0. 0. 0. 0. 0. 0. 0. 0. 0. 0. 0. 0. 0. 0. 0. 0. 0. 0. 0.
      0. 0. 0. 0. 0. 0. 0. 0. 0. 0. 0. 0. 0. 0. 0. 0. 0. 0. 0. 0. 0. 0.
      0. 0. 0. 0. 0. 0. 0. 0. 0. 0. 0. 0. 0. 0. 0. 0. 0. 0. 0. 0. 0. 0.
      0. 0. 0. 0. 0. 0. 0. 0. 0. 0. 0. 0. 0. 0. 0. 0. 0. 0. 0. 0. 0. 0.
      0. 0. 0. 0. 0. 0. 0. 0. 0. 0. 0. 0. 0. 0. 0. 0. 0. 0. 0. 0. 0. 0.
      0. 0. 0. 0. 0. 0. 0. 0. 0. 0. 0. 0. 0. 0. 0. 0. 0. 0. 0. 0. 0. 0.
      0. 0. 0. 0. 0. 0. 0. 0. 0. 0. 0. 0. 1.00000001e-01 0. 0. 0. 0. 0.
      0. 0. 0. 0. 0. 2.00000003e-01 0. 0. 0. 0. 0. 0. 0. 0. 0. 0. 0. 0.
      0. 0. 0. 0. 0. 0. 0. 0. 0. 0. 0. 0. 0. 0. 0. 0. 0. 0. 0. 0. 0. 0.
      0. 0. 0. 0. 0. 1.00000001e-01 0. 0. 0. 0. 0. 0. 0. 0. 0. 0. 0. 0.
      0. 0. 0. 0. 0. 0. 0. 0. 0. 0. 0. 0. 0. 0. 0. 0. 0. 0. 0.
      2.00000003e-01 0. 0. 0. 0. 0. 0. 0. 0. 0. 0. 0. 0. 0. 0. 0. 0. 0.
      0. 0. 0. 0. 0. 0. 0. 0. 0. 0. 0. 0. 0. 0. 0. 0. 0. 0. 0. 0. 0. 0.
      0. 0. 0. 0. 0. 0. 0. 0. 0. 0. 0. 0. 0. 0. 0. 2.00000003e-01 0. 0.
      0. 0. 0. 0. 0. 0. 0. 0. 0. 0. 0. 0. 0. 0. 0. 0. 0. 0. 0. 0. 0. 0.
      0. 0. 0. 0. 0. 0. 0. 0. 0. 0. 0. 0. 0. 0. 0. 0. 0. 0. 0. 0. 0. 0.
      0. 0. 0. 0. 0. 0. 0. 0. 0. 0. 0. 0. 0. 0. 0. 0. 0. 0. 0. 0. 0. 0.
      0. 0. 0. 0. 0. 0. 0. 0. 0. 0. 0. 0. 0. 0. 0. 0. 0. 0. 0. 0. 0. 0.
      0. 0. 0. 0. 0. 0. 0. 0. 0. 0. 0. 0. 0. 0. 0. 0. 0. 0. 0. 0. 0. 0.
      0. 0. 0. 0. 1.00000001e-01 0. 0. 0. 0. 0. 0. 0. 0. 0. 0. 0. 0. 0.
      0. 0. 0. 0. 0. 0. 0. 0. 0. 0. 0. 0. 0. 0. 0. 0. 0. 0. 0. 0. 0. 0.
      0. 0. 0. 0. 0. 0. 0. 0. 0. 0. 0. 0. 0. 0. 0. 0. 0. 0. 0. 0. 0. 0.
      0. 0. 0. 0. 0. 0. 0. 0. 0. 0. 0. 0. 0. 0. 0. 0. 0. 0. 0. 0. 0. 0.
      0. 0. 0. 0. 0. 0. 0. 0. 0. 0. 0. 0. 0. 0. 0. 0. 0. 0. 0. 0. 0. 0.
      0. 0. 0. 0. 0. 0. 0. 0. 0. 0. 0. 0. 0. 0. 0. 0. 0. 0. 0.</_>
    <_>
      0. 0. 0. 2.22222228e-02 0. 0. 0. 0. 0. 0. 0. 0. 0. 0. 0. 0. 0. 0.
      0. 0. 0. 0. 0. 0. 0. 0. 0. 0. 0. 0. 0. 0. 0. 0. 0. 0.
      2.22222228e-02 0. 0. 0. 0. 0. 0. 0. 0. 0. 0. 0. 0. 0. 0. 0. 0. 0.
      0. 0. 0. 0. 0. 0. 0. 0. 0. 0. 0. 0. 0. 0. 0. 0. 0. 0. 0. 0. 0. 0.
      0. 0. 0. 0. 0. 0. 0. 0. 0. 0. 0. 0. 0. 0. 0. 2.22222228e-02 0. 0.
      0. 0. 2.22222228e-02 0. 0. 0. 0. 0. 0. 0. 2.22222228e-02 0. 0. 0.
      0. 0. 0. 0. 2.22222228e-02 0. 0. 0. 0. 0. 0. 0. 0. 0. 0. 0. 0. 0.
      0. 0. 0. 0. 0. 0. 0. 0. 0. 0. 0. 0. 0. 0. 0. 0. 0. 0. 0. 0. 0. 0.
      0. 0. 0. 0. 0. 0. 0. 0. 0. 0. 0. 0. 0. 0. 0. 0. 0. 0. 0. 0. 0. 0.
      0. 0. 0. 0. 0. 0. 0. 0. 0. 0. 0. 0. 0. 0. 0. 0. 0. 0. 0. 0. 0. 0.
      0. 0. 0. 0. 0. 0. 0. 2.22222228e-02 0. 0. 0. 0. 0. 0. 0. 0. 0. 0.
      0. 0. 0. 0. 0. 0. 0. 2.22222228e-02 0. 0. 0. 0. 0. 0. 0. 0. 0. 0.
      0. 0. 0. 0. 0. 0. 0. 0. 0. 0. 0. 0. 0. 0. 0. 0. 0. 0. 0. 0. 0. 0.
      0. 0. 0. 0. 0. 0. 0. 0. 0. 0. 0. 0. 0. 0. 0. 0. 0. 0. 0. 0.
      4.44444455e-02 0. 0. 0. 0. 0. 0. 0. 0. 0. 0. 0. 0. 0. 0. 0. 0. 0.
      0. 0. 0. 0. 0. 0. 0. 0. 0. 0. 0. 0. 0. 0. 2.22222228e-02 0. 0. 0.
      0. 0. 0. 2.22222228e-02 0. 0. 0. 0. 0. 0. 0. 0. 0. 0. 0. 0. 0. 0.
      0. 0. 0. 0. 0. 0. 0. 0. 0. 0. 0. 0. 0. 0. 0. 0. 0. 0. 0. 0. 0. 0.
      2.22222228e-02 0. 0. 0. 0. 0. 0. 0. 0. 0. 0. 0. 0. 0. 0. 0. 0. 0.
      0. 0. 0. 0. 0. 0. 0. 0. 0. 0. 0. 0. 0. 0. 0. 0. 0. 0. 0. 0. 0. 0.
      0. 0. 0. 0. 0. 0. 0. 0. 0. 0. 0. 0. 0. 2.22222228e-02 0. 0. 0. 0.
      0. 0. 0. 0. 0. 0. 0. 2.22222228e-02 0. 0. 0. 0. 0. 0. 0. 0. 0. 0.
      0. 4.44444455e-02 0. 0. 0. 0. 0. 0. 0. 0. 0. 0. 0. 0. 0. 0. 0. 0.
      0. 0. 0. 0. 0. 0. 0. 0. 0. 0. 0. 0. 0. 0. 0. 0. 0. 0. 0.
      2.22222228e-02 0. 0. 0. 0. 0. 0. 0. 0. 0. 0. 0. 0. 0. 0. 0. 0. 0.
      0. 0. 0. 2.22222228e-02 0. 0. 0. 0. 0. 0. 0. 0. 0. 0. 0. 0. 0. 0.
      0. 0. 0. 0. 0. 0. 0. 0. 0. 0. 0. 0. 0. 0. 0. 0. 0. 0.
      2.22222228e-02 2.22222228e-02 0. 0. 0. 0. 0. 0. 0. 0. 0. 0. 0. 0.
      0. 0. 0. 0. 0. 0. 0. 0. 0. 0. 0. 0. 0. 0. 0. 0. 0. 0. 0. 0. 0. 0.
      0. 0. 0. 0. 0. 0. 0. 0. 0. 0. 0. 0. 0. 0. 0. 0. 0. 0. 0. 0. 0. 0.
      0. 0. 2.22222228e-02 0. 0. 0. 0. 0. 0. 0. 0. 0. 0. 0. 0. 0. 0. 0.
      0. 0. 0. 0. 0. 0. 0. 0. 0. 0. 0. 0. 0. 0. 0. 0. 0. 0. 0. 0. 0. 0.
      0. 0. 0. 0. 0. 0. 0. 0. 0. 0. 0. 0. 0. 0. 0. 0. 0. 0. 0. 0. 0. 0.
      0. 0. 0. 0. 0. 0. 0. 0. 0. 0. 0. 0. 0. 0. 0. 0. 0. 0. 0. 0. 0.
      2.22222228e-02 2.22222228e-02 0. 0. 0. 0. 0. 0. 0. 0. 0. 0. 0. 0.
      0. 0. 0. 0. 0. 0. 0. 0. 0. 0. 0. 0. 0. 0. 0. 2.22222228e-02
      2.22222228e-02 0. 2.22222228e-02 0. 0. 0. 0. 0. 0. 0. 0. 0. 0. 0.
      0. 0. 0. 0. 0. 0. 4.44444455e-02 0. 0. 0. 0. 0. 0. 0.
      2.22222228e-02 0. 0. 0. 0. 0. 0. 2.22222228e-02 0. 0. 0. 0.
      2.22222228e-02 0. 2.22222228e-02 2.22222228e-02 0. 0. 0. 0. 0. 0.
      0. 0. 0. 0. 0. 0. 0. 0. 0. 0. 0. 0. 0. 2.22222228e-02 0. 0. 0. 0.
      0. 0. 0. 0. 0. 0. 0. 0. 0. 0. 0. 0. 0. 0. 0. 0. 2.22222228e-02 0.
      0. 0. 0. 0. 0. 0. 0. 0. 0. 0. 2.22222228e-02 0. 0. 0. 0. 0. 0. 0.
      2.22222228e-02 0. 0. 0. 0. 0. 0. 0. 0. 0. 0. 0. 0. 0. 0. 0.
      2.22222228e-02 0. 0. 0. 0. 0. 0. 0. 0. 0. 0. 0. 0. 0. 0. 0. 0. 0.
      0. 0. 0. 0. 0. 0. 0. 0. 0. 0. 0. 0. 0. 0. 0. 0. 0. 0. 0. 0. 0. 0.
      0. 0. 0. 0. 0. 0. 0. 0. 0. 0. 0. 0. 0. 0. 0. 0. 0. 0. 0. 0. 0. 0.
      0. 0. 0. 0. 0. 0. 0. 0. 0. 0. 0. 0. 0. 2.22222228e-02 0. 0. 0. 0.
      0. 0. 0. 0. 0. 0. 0. 0. 0. 0. 0. 2.22222228e-02 0. 0. 0. 0. 0. 0.
      0. 0. 0. 0. 0. 0. 0. 0. 0. 0. 0. 0. 0. 0. 0. 0. 0. 0. 0. 0. 0. 0.
      0. 0. 0. 0. 0. 2.22222228e-02 0. 0. 0. 0. 0. 0. 0. 0. 0. 0. 0. 0.
      0. 0. 0. 2.22222228e-02 0. 0. 0. 2.22222228e-02 0. 0. 0. 0. 0. 0.
      0. 0. 0. 0. 0. 0. 0. 0. 0. 0. 0. 0. 0. 0. 0. 0. 0. 0. 0. 0. 0. 0.
      0. 0. 0. 0. 0. 0. 0. 0. 0. 0. 0. 0. 0. 0. 0. 2.22222228e-02 0. 0.
      0. 0. 0. 0.</_>
    <_>
      0. 0. 0. 0. 0. 0. 0. 0. 0. 0. 0. 0. 2.85714287e-02 0. 0. 0. 0. 0.
      0. 0. 0. 0. 0. 0. 0. 0. 0. 0. 0. 0. 0. 0. 0. 0. 0. 1.42857144e-02
      0. 0. 0. 7.14285746e-02 0. 0. 0. 0. 0. 0. 0. 0. 0. 0. 0. 0. 0. 0.
      0. 0. 0. 0. 0. 0. 0. 0. 0. 0. 0. 0. 0. 0. 0. 0. 0. 0. 0. 0. 0. 0.
      0. 0. 0. 0. 0. 0. 0. 0. 0. 0. 0. 0. 0. 0. 0. 0. 0. 0. 0. 0.
      1.42857144e-02 0. 0. 0. 0. 0. 0. 0. 1.42857144e-02 0. 0. 0. 0. 0.
      0. 0. 0. 0. 0. 0. 1.42857144e-02 0. 0. 0. 0. 0. 0. 0. 0. 0. 0. 0.
      0. 0. 0. 0. 0. 0. 0. 0. 0. 0. 0. 0. 0. 0. 0. 0. 0. 0. 0. 0. 0. 0.
      0. 0. 0. 0. 0. 0. 0. 0. 0. 0. 0. 0. 0. 0. 0. 0. 0. 0.
      4.28571440e-02 0. 0. 0. 0. 0. 0. 0. 0. 0. 0. 0. 0. 0. 0. 0. 0. 0.
      0. 0. 0. 0. 0. 0. 0. 0. 0. 0. 0. 0. 0. 0. 0. 0. 0. 0. 0. 0. 0. 0.
      0. 0. 0. 2.85714287e-02 0. 0. 0. 0. 0. 0. 0. 0. 0. 0. 0. 0. 0. 0.
      0. 0. 1.42857144e-02 0. 0. 0. 0. 1.42857144e-02 0. 1.42857144e-02
      0. 0. 0. 0. 0. 0. 0. 0. 0. 0. 0. 0. 0. 0. 1.42857144e-02 0. 0. 0.
      0. 0. 0. 0. 0. 0. 0. 0. 0. 0. 0. 0. 0. 0. 0. 0. 0. 2.85714287e-02
      0. 0. 0. 0. 0. 0. 0. 0. 0. 0. 1.42857144e-02 0. 0. 0.
      2.85714287e-02 0. 0. 0. 0. 0. 0. 0. 0. 0. 0. 0. 0. 0. 0. 0. 0. 0.
      0. 0. 0. 0. 0. 0. 0. 0. 0. 0. 0. 0. 0. 0. 0. 0. 0. 0. 0. 0. 0. 0.
      0. 0. 0. 0. 0. 0. 0. 0. 0. 0. 0. 0. 0. 0. 0. 0. 0. 0. 0. 0. 0. 0.
      0. 0. 0. 0. 0. 0. 1.42857144e-02 0. 0. 0. 0. 0. 2.85714287e-02 0.
      0. 0. 0. 0. 0. 0. 0. 0. 0. 0. 0. 0. 0. 0. 0. 0. 0. 0. 0. 0. 0. 0.
      0. 0. 0. 0. 0. 0. 0. 0. 0. 0. 0. 0. 0. 0. 0. 0. 0. 0. 0. 0. 0. 0.
      0. 0. 0. 0. 0. 0. 0. 0. 0. 0. 0. 0. 0. 0. 0. 0. 0. 0. 0. 0. 0. 0.
      0. 1.42857144e-02 0. 0. 0. 0. 0. 1.42857144e-02 0. 0. 0. 0. 0. 0.
      0. 0. 0. 0. 0. 0. 0. 0. 0. 0. 0. 0. 0. 0. 0. 0. 0. 0. 0. 0. 0. 0.
      0. 0. 0. 0. 0. 0. 0. 0. 0. 0. 0. 0. 0. 0. 0. 0. 0. 0. 0. 0. 0. 0.
      0. 0. 0. 0. 0. 0. 0. 0. 0. 0. 0. 0. 0. 0. 0. 0. 0. 0. 0. 0. 0. 0.
      0. 0. 0. 0. 0. 0. 0. 0. 0. 0. 1.42857144e-02 0. 0. 0. 0. 0. 0. 0.
      0. 0. 0. 0. 0. 0. 0. 1.42857144e-02 0. 0. 0. 0. 0. 1.42857144e-02
      0. 0. 0. 0. 0. 0. 0. 0. 0. 0. 0. 1.42857144e-02 0. 0. 0. 0. 0. 0.
      0. 0. 0. 0. 0. 0. 0. 0. 0. 0. 0. 0. 0. 0. 0. 0. 0. 5.71428575e-02
      0. 0. 0. 0. 0. 0. 0. 0. 1.42857144e-02 1.42857144e-02 0. 0. 0. 0.
      0. 0. 0. 0. 5.71428575e-02 0. 0. 0. 0. 0. 0. 0. 0. 0. 0. 0. 0. 0.
      0. 0. 0. 0. 0. 0. 0. 0. 0. 0. 0. 0. 0. 0. 0. 0. 0. 0. 0. 0. 0. 0.
      1.42857144e-02 0. 0. 0. 0. 0. 1.42857144e-02 0. 0. 0. 0. 0. 0. 0.
      0. 0. 0. 0. 1.42857144e-02 0. 0. 0. 0. 0. 0. 0. 0. 0. 0. 0. 0. 0.
      0. 0. 0. 0. 0. 0. 0. 0. 0. 0. 0. 0. 0. 0. 0. 0. 0. 0. 0. 0. 0. 0.
      0. 0. 0. 0. 0. 0. 0. 0. 0. 0. 0. 0. 0. 0. 0. 0. 0. 0. 0. 0. 0. 0.
      0. 0. 0. 0. 0. 0. 0. 0. 0. 0. 0. 0. 0. 0. 0. 0. 0. 0.
      2.85714287e-02 1.42857144e-02 0. 0. 0. 0. 0. 0. 0. 0. 0. 0. 0. 0.
      0. 0. 0. 0. 0. 0. 0. 0. 0. 0. 0. 0. 0. 0. 0. 0. 0. 0. 0. 0. 0. 0.
      1.42857144e-02 0. 0. 0. 0. 0. 0. 0. 0. 0. 0. 0. 5.71428575e-02
      1.42857144e-02 1.42857144e-02 0. 0. 0. 0. 0. 0. 0. 0. 0. 0. 0. 0.
      0. 0. 0. 0. 0. 0. 0. 1.42857144e-02 0. 0. 0. 0. 0. 0. 0. 0. 0. 0.
      0. 0. 0. 0. 0. 0. 0. 0. 0. 0. 1.42857144e-02 0. 0. 0. 0. 0. 0. 0.
      0. 0. 0. 0. 5.71428575e-02 0. 0. 0. 0. 0. 0. 0. 0. 0. 0. 0. 0. 0.
      0. 0. 0. 0. 0. 0. 0. 0. 0. 0. 0. 0. 0. 0. 0. 0. 0. 0. 0. 0. 0. 0.
      0. 0. 0. 0. 0. 0. 0. 0. 0. 1.42857144e-02 0. 0. 0. 0. 0. 0. 0. 0.
      0. 0. 0. 0. 0. 0. 0. 0. 0. 0. 0. 0. 0. 0. 0. 0. 0. 0. 0. 0. 0. 0.
      0. 0. 0. 0. 0. 0. 0. 0. 0. 0. 0. 0. 0. 2.85714287e-02 0. 0. 0. 0.
      0. 0. 0. 0. 0. 0. 0. 0. 0. 0. 0. 0. 0. 0. 0. 0. 0. 0. 0. 0. 0. 0.
      0. 0. 0. 0. 0. 0. 0. 0. 0. 0. 0. 0. 0. 0. 0. 0. 0. 0. 0. 0. 0. 0.
      0. 0. 0. 0. 0. 0. 0. 0. 0. 0. 0. 0. 0. 0. 0. 0. 0. 0. 0. 0. 0. 0.
      0. 0. 0. 0. 0. 0. 0. 0. 0. 5.71428575e-02 0. 0. 0.</_>
    <_>
      0. 0. 0. 6.07902743e-03 0. 0. 0. 0. 3.03951371e-03 0. 0.
      3.03951371e-03 0. 0. 0. 0. 0. 0. 0. 3.03951371e-03 6.07902743e-03
      0. 3.03951371e-03 9.11854114e-03 0. 0. 0. 0. 0. 6.07902743e-03
      6.07902743e-03 3.03951371e-03 3.03951371e-03 0. 3.03951371e-03 0.
      0. 0. 0. 0. 0. 3.03951371e-03 0. 0. 0. 0. 0. 0. 6.07902743e-03 0.
      3.03951371e-03 0. 9.11854114e-03 0. 0. 0. 0. 3.03951371e-03 0. 0.
      0. 0. 0. 0. 0. 0. 0. 0. 0. 0. 0. 0. 0. 0. 3.03951371e-03
      9.11854114e-03 0. 0. 0. 0. 0. 0. 0. 0. 3.03951371e-03 0. 0. 0. 0.
      0. 0. 0. 1.21580549e-02 0. 0. 3.03951371e-03 0. 0. 0. 0. 0.
      6.07902743e-03 0. 0. 0. 0. 0. 0. 0. 0. 0. 3.03951371e-03 0. 0. 0.
      0. 0. 0. 0. 1.51975686e-02 0. 0. 3.03951371e-03 0. 0.
      3.03951371e-03 0. 0. 0. 0. 0. 0. 0. 0. 6.07902743e-03 0. 0. 0. 0.
      0. 0. 0. 0. 0. 0. 0. 0. 0. 0. 0. 0. 0. 0. 0. 0. 3.03951371e-03 0.
      0. 0. 0. 0. 0. 0. 0. 0. 0. 0. 3.03951371e-03 0. 0. 0. 0. 0. 0. 0.
      0. 0. 0. 0. 0. 6.07902743e-03 0. 0. 3.03951371e-03 0. 0. 0. 0.
      3.03951371e-03 0. 0. 6.07902743e-03 3.03951371e-03 2.43161097e-02
      0. 0. 0. 0. 3.03951371e-03 3.03951371e-03 0. 0. 0. 0. 0. 0. 0. 0.
      0. 0. 0. 0. 0. 6.07902743e-03 0. 0. 0. 0. 6.07902743e-03 0. 0. 0.
      0. 3.03951371e-03 6.07902743e-03 0. 0. 0. 3.03951371e-03 0. 0. 0.
      0. 1.82370823e-02 0. 0. 0. 0. 0. 0. 0. 0. 0. 0. 0. 0. 0. 0.
      3.03951371e-03 0. 0. 0. 0. 0. 0. 0. 0. 0. 0. 0. 0. 0. 0.
      3.03951371e-03 0. 1.51975686e-02 0. 0. 0. 0. 3.03951371e-03 0. 0.
      0. 0. 0. 3.03951371e-03 0. 6.07902743e-03 0. 0. 0. 0. 0. 0. 0. 0.
      0. 0. 0. 0. 0. 0. 0. 0. 3.03951371e-03 0. 3.03951371e-03 0. 0. 0.
      3.03951371e-03 0. 0. 0. 0. 0. 0. 3.03951371e-03 0. 6.07902743e-03
      0. 0. 0. 0. 0. 0. 0. 0. 3.03951371e-03 0. 0. 9.11854114e-03
      9.11854114e-03 0. 0. 0. 0. 0. 0. 0. 0. 0. 0. 0. 0. 0. 0.
      3.03951371e-03 0. 6.07902743e-03 0. 0. 0. 0. 0. 0. 0. 0. 0. 0.
      6.07902743e-03 6.07902743e-03 0. 0. 0. 3.03951371e-03 0. 0. 0. 0.
      3.03951371e-03 3.03951371e-03 6.07902743e-03 3.03951371e-03
      3.03951371e-03 0. 0. 0. 9.11854114e-03 0. 0. 0. 0. 0.
      3.03951371e-03 0. 0. 0. 0. 0. 0. 3.03951371e-03 0. 0. 0. 0.
      9.11854114e-03 0. 0. 0. 0. 0. 0. 1.21580549e-02 3.03951371e-03 0.
      0. 0. 0. 3.03951371e-03 0. 0. 0. 0. 0. 6.07902743e-03
      3.03951371e-03 0. 0. 1.21580549e-02 3.03951371e-03 0. 0. 0. 0. 0.
      0. 0. 0. 0. 0. 0. 0. 0. 0. 0. 0. 0. 0. 0. 0. 0. 0. 0. 0.
      6.07902743e-03 3.03951371e-03 6.07902743e-03 6.07902743e-03
      3.03951371e-03 0. 0. 0. 0. 0. 0. 0. 0. 0. 0. 0. 0. 0. 0. 0.
      1.51975686e-02 0. 0. 0. 0. 0. 3.03951371e-03 0. 0. 3.03951371e-03
      0. 0. 0. 0. 0. 0. 0. 0. 0. 3.03951371e-03 0. 0. 3.03951371e-03 0.
      3.03951371e-03 0. 0. 0. 0. 6.07902743e-03 0. 0. 1.21580549e-02 0.
      0. 6.07902743e-03 3.03951371e-03 0. 0. 0. 0. 0. 0. 3.03951371e-03
      0. 0. 0. 3.03951371e-03 0. 6.07902743e-03 0. 3.03951371e-03
      6.07902743e-03 3.03951371e-03 3.03951371e-03 0. 9.11854114e-03 0.
      0. 0. 3.03951371e-03 0. 0. 0. 0. 0. 0. 0. 0. 0. 0. 0. 0. 0. 0. 0.
      0. 0. 0. 0. 0. 0. 0. 0. 0. 0. 0. 0. 0. 0. 0. 0. 9.11854114e-03
      6.07902743e-03 3.64741646e-02 0. 3.03951371e-03 0. 0. 0. 0.
      3.03951371e-03 0. 0. 3.03951371e-03 0. 3.03951371e-03 0. 0. 0. 0.
      3.03951371e-03 0. 3.03951371e-03 0. 0. 3.03951371e-03 0. 0. 0. 0.
      0. 0. 0. 3.03951371e-03 0. 0. 0. 6.07902743e-03 0. 0. 0. 0. 0. 0.
      0. 0. 0. 9.11854114e-03 0. 0. 0. 0. 3.03951371e-03 0. 0. 0. 0. 0.
      3.03951371e-03 0. 0. 0. 0. 0. 0. 0. 0. 0. 3.03951371e-03
      3.03951371e-03 0. 0. 0. 0. 3.03951371e-03 0. 0. 3.03951371e-03 0.
      0. 3.03951371e-03 0. 0. 0. 0. 0. 0. 0. 0. 0. 0. 0. 0. 0. 0. 0. 0.
      0. 0. 3.03951371e-03 0. 0. 0. 3.03951371e-03 0. 0. 3.03951371e-03
      0. 0. 0. 0. 3.03951371e-03 0. 0. 0. 0. 0. 0. 0. 0. 0. 0. 0.
      3.03951371e-03 0. 0. 0. 3.03951371e-03 0. 0. 0. 6.07902743e-03 0.
      0. 3.03951371e-03 0. 0. 0. 0. 0. 0. 0. 0. 0. 3.03951371e-03 0. 0.
      0. 3.03951371e-03 0. 3.03951371e-03 6.07902743e-03 0. 0. 0. 0. 0.
      0. 3.03951371e-03 0. 0. 0. 0. 0. 3.03951371e-03 0. 0. 0. 0. 0. 0.
      0. 3.03951371e-03 3.03951371e-03 0. 3.03951371e-03 0.
      3.03951371e-03 0. 0. 0. 0. 0. 0. 0. 0. 0. 0. 0. 0. 0. 0. 0. 0. 0.
      0. 0. 0. 0. 0. 0. 0. 0. 0. 0. 0. 6.07902743e-03 0. 6.07902743e-03
      6.07902743e-03 0. 0. 0. 2.43161097e-02 0. 0. 0. 0. 0. 0. 0. 0. 0.
      3.03951371e-03 0. 6.07902743e-03 0. 0. 0. 3.03951371e-03 0. 0. 0.
      3.03951371e-03 0. 0. 0. 0. 0. 0. 0. 0. 6.07902743e-03
      6.07902743e-03 6.07902743e-03 6.07902743e-03 0. 3.03951371e-03 0.
      0. 0. 0. 0. 0. 0. 0. 0. 3.03951371e-03 0. 3.03951371e-03 0. 0.
      6.07902743e-03 0. 3.03951371e-03 0. 6.07902743e-03 0. 0.
      3.03951371e-03 0. 0. 0. 0. 0. 0. 0. 0. 3.03951371e-03
      6.07902743e-03 9.11854114e-03 0. 6.07902743e-03 0. 0. 0.
      3.03951371e-03 0. 0. 0. 3.03951371e-03 0. 0. 0. 0. 0. 0.
      1.21580549e-02 0. 0. 0. 0. 3.03951371e-03 0. 0. 0. 0. 0. 0. 0. 0.
      0. 0. 0. 6.07902743e-03 0. 3.03951371e-03 6.07902743e-03
      3.03951371e-03 0. 0. 0. 0. 0. 0. 0. 0. 3.03951371e-03 0.
      3.03951371e-03 0. 0. 6.07902743e-03 0. 0. 0. 3.03951371e-03 0. 0.
      0. 0. 3.03951371e-03 0. 0. 3.03951371e-03 0. 0. 3.03951371e-03
      3.03951371e-03 0. 0. 3.03951371e-03 0. 0. 0. 3.03951371e-03 0. 0.
      0. 3.03951371e-03 0. 0. 3.03951371e-03 0. 0. 3.03951371e-03 0.
      3.03951371e-03 0. 3.03951371e-03 0. 0. 0. 0. 0. 0. 0. 0. 0. 0. 0.
      0. 0. 0. 0. 0. 0. 0. 0. 0. 6.07902743e-03 0. 0. 3.03951371e-03 0.
      0. 0. 0. 0. 0. 0. 0. 0. 3.03951371e-03 0. 0. 0. 3.03951371e-03 0.
      0. 3.03951371e-03 0. 0. 0. 0. 0. 0. 0. 0. 6.07902743e-03 0. 0.
      3.03951371e-03 0. 0. 0. 0. 0. 0. 0. 0. 0. 3.03951371e-03 0. 0. 0.
      0. 0. 0. 0. 0. 3.03951371e-03 0. 0. 0. 0. 3.03951371e-03 0. 0.
      6.07902743e-03 9.11854114e-03 3.03951371e-03 0.</_>
    <_>
      0. 0. 0. 1.99600798e-03 0. 0. 0. 0. 3.99201596e-03 0.
      1.99600798e-03 0. 1.99600798e-03 0. 0. 3.99201596e-03 0. 0. 0. 0.
      1.79640725e-02 0. 0. 0. 0. 0. 1.59680638e-02 0. 0. 3.99201596e-03
      0. 2.19560880e-02 0. 0. 3.99201596e-03 0. 1.99600798e-03 0.
      7.98403192e-03 0. 0. 0. 0. 1.99600798e-03 0. 0. 0. 0. 0. 0. 0. 0.
      0. 0. 0. 0. 1.79640725e-02 0. 0. 0. 0. 0. 0. 0. 0. 0. 0. 0. 0. 0.
      0. 0. 0. 0. 0. 0. 0. 0. 1.99600798e-03 0. 1.99600798e-03
      5.98802418e-03 0. 7.98403192e-03 0. 0. 0. 0. 3.99201596e-03 0.
      1.19760484e-02 0. 0. 0. 0. 1.99600798e-03 0. 0. 0. 0. 0. 0.
      1.79640725e-02 0. 0. 0. 0. 0. 0. 0. 0. 0. 0. 3.99201596e-03
      1.59680638e-02 0. 0. 0. 0. 0. 1.99600798e-03 0. 1.99600798e-03 0.
      7.98403192e-03 0. 1.19760484e-02 0. 0. 0. 1.99600798e-03 0.
      3.19361277e-02 0. 0. 0. 0. 7.98403192e-03 0. 1.99600798e-03 0. 0.
      0. 0. 0. 0. 3.99201596e-03 0. 0. 0. 0. 0. 0. 0. 0. 0. 0. 0. 0. 0.
      0. 1.19760484e-02 0. 0. 0. 0. 0. 0. 0. 0. 0. 0. 1.39720561e-02 0.
      1.99600798e-03 0. 1.99600798e-03 5.98802418e-03 0. 0. 0. 0.
      7.98403192e-03 0. 1.99600798e-03 1.79640725e-02 0. 0. 0.
      1.99600798e-03 0. 0. 0. 3.99201596e-03 0. 0. 0. 0. 1.99600798e-03
      0. 0. 1.99600798e-03 0. 0. 0. 0. 0. 0. 0. 0. 0. 0. 0. 0. 0. 0.
      3.99201596e-03 0. 0. 0. 0. 0. 0. 1.99600798e-03 0. 0. 0. 0. 0. 0.
      0. 0. 0. 0. 7.98403192e-03 0. 0. 0. 0. 3.99201596e-03
      1.99600798e-03 5.98802418e-03 0. 0. 0. 0. 0. 0. 0. 0. 0. 0. 0. 0.
      0. 0. 0. 0. 0. 0. 0. 2.19560880e-02 0. 0. 0. 0. 0. 3.99201596e-03
      0. 0. 0. 0. 0. 0. 0. 0. 0. 0. 0. 0. 0. 1.99600798e-03
      1.99600798e-03 0. 0. 0. 1.99600798e-03 0. 1.99600798e-03
      1.99600798e-03 0. 0. 0. 0. 0. 0. 0. 0. 0. 0. 0. 0. 3.99201596e-03
      1.99600793e-02 1.99600798e-03 0. 1.99600798e-03 0. 0. 0. 0. 0. 0.
      1.99600798e-03 0. 0. 0. 0. 3.99201596e-03 0. 1.99600798e-03 0. 0.
      0. 0. 0. 0. 0. 0. 0. 1.99600798e-03 1.99600798e-03 0. 0. 0. 0.
      7.98403192e-03 0. 0. 0. 0. 1.59680638e-02 0. 0. 0. 0. 0. 0. 0. 0.
      0. 0. 0. 0. 0. 0. 0. 0. 0. 0. 0. 0. 0. 0. 0. 0. 0. 0. 0. 0.
      1.99600798e-03 0. 1.99600798e-03 1.99600798e-03 1.39720561e-02 0.
      0. 0. 0. 0. 0. 0. 0. 0. 0. 0. 0. 0. 1.99600798e-03 0. 0. 0. 0. 0.
      0. 0. 0. 0. 0. 0. 0. 1.99600798e-03 0. 0. 0. 0. 5.98802418e-03 0.
      1.99600798e-03 0. 0. 0. 0. 0. 0. 0. 0. 1.99600798e-03 0. 0. 0. 0.
      3.99201596e-03 3.99201596e-03 1.99600798e-03 0. 0. 0. 0. 0. 0.
      3.99201596e-03 0. 0. 0. 0. 0. 0. 0. 1.99600798e-03 0. 0. 0. 0. 0.
      0. 0. 0. 0. 1.79640725e-02 0. 0. 0. 0. 0. 1.99600798e-03 0. 0. 0.
      0. 0. 0. 0. 0. 0. 0. 0. 0. 0. 0. 0. 0. 3.99201596e-03 0. 0. 0. 0.
      0. 0. 0. 0. 0. 0. 5.98802418e-03 0. 0. 0. 0. 0. 0. 0.
      1.99600798e-03 0. 0. 0. 0. 0. 0. 0. 0. 0. 0. 0. 0. 0. 0.
      1.99600798e-03 1.99600798e-03 0. 0. 0. 0. 0. 0. 1.99600798e-03 0.
      0. 0. 1.99600798e-03 0. 0. 0. 0. 0. 0. 0. 0. 1.99600798e-03 0. 0.
      0. 0. 0. 0. 0. 0. 1.99600798e-03 0. 0. 0. 0. 0. 0. 0. 0.
      1.19760484e-02 0. 0. 0. 0. 5.98802418e-03 0. 0. 0. 0. 0. 0. 0. 0.
      3.99201596e-03 0. 0. 0. 0. 0. 0. 0. 1.99600798e-03 0. 0. 0. 0.
      3.99201596e-03 0. 0. 0. 0. 0. 0. 0. 0. 0. 0. 0. 0. 0. 0. 0. 0. 0.
      0. 0. 1.99600798e-03 0. 0. 0. 0. 0. 0. 0. 0. 0. 0. 0. 0.
      1.99600798e-03 0. 0. 0. 0. 0. 0. 0. 0. 0. 0. 0. 0. 0. 0. 0. 0. 0.
      0. 0. 3.99201596e-03 0. 0. 0. 0. 0. 0. 0. 0. 0. 0. 0. 0. 0. 0. 0.
      0. 0. 1.19760484e-02 0. 0. 0. 0. 0. 0. 5.98802418e-03 0. 0. 0. 0.
      0. 0. 0. 5.98802418e-03 0. 1.99600798e-03 0. 0. 0. 0. 0.
      3.99201596e-03 9.98003967e-03 0. 0. 0. 0. 0. 0. 1.99600798e-03 0.
      0. 1.99600798e-03 0. 1.99600798e-03 3.99201596e-03 0. 0. 0.
      1.99600798e-03 0. 0. 1.99600798e-03 0. 0. 0. 0. 0. 0. 0. 0. 0. 0.
      0. 0. 7.98403192e-03 0. 0. 0. 0. 0. 0. 0. 0. 0. 0. 0. 0. 0. 0.
      7.98403192e-03 0. 0. 0. 0. 0. 9.98003967e-03 0. 0. 0. 0.
      1.99600798e-03 0. 1.99600798e-03 0. 0. 0. 0. 0. 0. 0. 0.
      5.98802418e-03 0. 0. 0. 0. 0. 0. 0. 0. 0. 1.99600798e-03
      1.19760484e-02 0. 0. 0. 0. 0. 0. 0. 0. 0. 0. 5.98802418e-03 0.
      9.98003967e-03 0. 0. 3.99201596e-03 0. 0. 0. 0. 0. 0. 0.
      3.99201596e-03 0. 0. 0. 0. 0. 0. 3.99201596e-03 0. 1.99600798e-03
      0. 0. 0. 0. 0. 0. 0. 0. 0. 0. 0. 1.99600798e-03 0. 1.99600798e-03
      0. 0. 0. 3.99201596e-03 0. 0. 1.59680638e-02 0. 1.99600798e-03 0.
      1.99600798e-03 0. 3.99201596e-03 0. 0. 0. 0. 0. 0. 0.
      3.99201596e-03 1.99600798e-03 0. 0. 0. 0. 0. 0. 0. 0. 0. 0. 0. 0.
      7.98403192e-03 1.99600798e-03 1.19760484e-02 1.99600798e-03
      1.99600798e-03 0. 7.98403192e-03 0. 0. 0. 0. 0. 0. 0.
      3.99201596e-03 1.79640725e-02 0. 1.19760484e-02 0. 1.99600798e-03
      0. 0. 0. 0. 0. 1.99600798e-03 0. 0. 0. 0. 1.19760484e-02
      3.99201596e-03 0. 0. 0. 0. 0. 0. 0. 0. 0. 3.99201596e-03 0. 0. 0.
      0. 0. 0. 0. 0. 0. 0. 0. 0. 0. 1.99600798e-03 0. 3.99201596e-03 0.
      0. 0. 0. 0. 1.99600798e-03 0. 0. 0. 0. 0. 0. 0. 0. 0.
      2.99401190e-02 0. 0. 0. 3.99201596e-03 0. 2.99401190e-02 0. 0. 0.
      0. 0. 0. 0. 0. 0. 7.98403192e-03 0. 0. 0. 0. 0. 0. 1.99600798e-03
      0. 1.39720561e-02 0. 0. 0. 0. 0. 0. 1.99600798e-03 0. 0. 0.
      3.99201596e-03 0. 0. 0. 0. 0. 0. 0. 0. 0. 0. 0. 0. 0. 0.
      5.98802418e-03 0. 0. 0. 0. 0. 0. 0. 1.99600798e-03 0.
      2.79441122e-02 0. 0. 0. 0. 0. 0. 0. 1.99600798e-03 0. 0. 0. 0. 0.
      0. 0. 0. 0. 0. 0. 0. 0. 0. 0. 0. 0. 0. 0. 0. 0. 9.98003967e-03 0.
      3.99201596e-03 0. 0. 0.</_>
    <_>
      0. 0. 0. 7.51879718e-03 0. 0. 0. 0. 0. 7.51879718e-03
      7.51879718e-03 0. 0. 0. 0. 0. 0. 0. 0. 7.51879718e-03 0. 0. 0. 0.
      0. 0. 0. 0. 0. 1.50375944e-02 0. 0. 0. 0. 0. 0. 7.51879718e-03 0.
      0. 7.51879718e-03 0. 0. 0. 0. 0. 0. 0. 7.51879718e-03 0. 0. 0. 0.
      0. 0. 0. 0. 0. 0. 7.51879718e-03 7.51879718e-03 0. 0. 0. 0. 0. 0.
      0. 0. 0. 7.51879718e-03 0. 0. 0. 0. 7.51879718e-03 0. 0.
      7.51879718e-03 0. 0. 0. 0. 0. 0. 0. 0. 0. 0. 0. 0. 0. 0. 0. 0. 0.
      0. 0. 0. 0. 7.51879718e-03 0. 0. 0. 0. 0. 0. 0. 0. 0.
      7.51879718e-03 0. 0. 0. 0. 0. 0. 0. 0. 0. 0. 0. 0. 0. 0. 0. 0. 0.
      0. 0. 0. 0. 0. 7.51879718e-03 0. 0. 0. 0. 0. 0. 0. 7.51879718e-03
      0. 0. 0. 0. 7.51879718e-03 0. 0. 0. 0. 0. 7.51879718e-03 0. 0. 0.
      0. 0. 0. 0. 0. 0. 0. 0. 0. 0. 0. 0. 0. 0. 0. 0. 0. 0. 0. 0. 0.
      1.50375944e-02 0. 0. 0. 0. 7.51879718e-03 0. 0. 0. 0. 0. 0. 0. 0.
      2.25563906e-02 1.50375944e-02 0. 7.51879718e-03 0. 0. 0. 0.
      7.51879718e-03 0. 0. 7.51879718e-03 0. 0. 0. 0. 0. 0. 0. 0. 0. 0.
      0. 7.51879718e-03 0. 0. 0. 0. 7.51879718e-03 0. 0. 0. 0. 0. 0. 0.
      0. 0. 0. 0. 0. 0. 0. 0. 0. 0. 0. 0. 0. 0. 0. 0. 7.51879718e-03 0.
      0. 0. 0. 0. 0. 0. 1.50375944e-02 0. 0. 0. 1.50375944e-02
      1.50375944e-02 0. 0. 0. 7.51879718e-03 0. 1.50375944e-02
      7.51879718e-03 0. 0. 0. 0. 7.51879718e-03 0. 0. 0. 0. 0. 0. 0. 0.
      0. 0. 0. 0. 7.51879718e-03 0. 0. 0. 0. 0. 0. 7.51879718e-03
      7.51879718e-03 0. 0. 0. 0. 0. 0. 7.51879718e-03 0. 0.
      7.51879718e-03 0. 0. 0. 7.51879718e-03 0. 0. 0. 0. 0. 0. 0. 0. 0.
      0. 0. 0. 0. 0. 0. 7.51879718e-03 0. 0. 0. 0. 0. 0. 0. 0. 0. 0. 0.
      0. 0. 0. 0. 0. 0. 0. 0. 0. 0. 0. 0. 0. 0. 0. 0. 0. 0. 0. 0. 0. 0.
      0. 0. 0. 0. 0. 0. 0. 0. 0. 0. 0. 0. 0. 0. 0. 0. 0. 0. 0. 0. 0.
      7.51879718e-03 7.51879718e-03 0. 0. 0. 0. 0. 0. 0. 0. 0. 0. 0. 0.
      0. 0. 0. 0. 0. 0. 0. 0. 0. 0. 0. 0. 0. 0. 7.51879718e-03 0. 0. 0.
      0. 0. 0. 0. 0. 0. 0. 0. 0. 0. 0. 0. 7.51879718e-03 0. 0. 0. 0. 0.
      0. 7.51879718e-03 0. 0. 0. 0. 0. 0. 0. 0. 0. 0. 0. 0. 0.
      7.51879718e-03 7.51879718e-03 0. 0. 0. 0. 0. 0. 0. 0. 0. 0. 0. 0.
      0. 0. 0. 0. 0. 0. 0. 0. 0. 0. 0. 0. 7.51879718e-03 0. 0. 0. 0. 0.
      0. 0. 0. 0. 0. 0. 3.00751887e-02 0. 0. 0. 0. 0. 0. 0.
      7.51879718e-03 0. 0. 0. 0. 7.51879718e-03 0. 0. 0. 0. 0. 0. 0. 0.
      0. 0. 0. 0. 0. 0. 0. 0. 0. 0. 0. 7.51879718e-03 0. 0. 0. 0. 0.
      2.25563906e-02 0. 0. 0. 0. 0. 0. 7.51879718e-03 0. 0. 0. 0. 0. 0.
      0. 0. 0. 0. 7.51879718e-03 0. 0. 0. 0. 0. 0. 1.50375944e-02 0. 0.
      0. 0. 0. 0. 0. 0. 0. 0. 0. 0. 0. 0. 0. 0. 0. 0. 0. 0. 0. 0. 0. 0.
      0. 0. 0. 1.50375944e-02 0. 0. 0. 0. 0. 0. 0. 0. 0. 0. 0. 0. 0. 0.
      0. 7.51879718e-03 0. 1.50375944e-02 0. 0. 7.51879718e-03
      3.00751887e-02 0. 0. 0. 7.51879718e-03 0. 0. 0. 0. 0. 0. 0. 0. 0.
      0. 0. 0. 0. 0. 7.51879718e-03 0. 0. 0. 0. 0. 0. 0. 0. 0. 0. 0. 0.
      0. 0. 0. 0. 0. 0. 0. 0. 0. 0. 0. 0. 0. 0. 0. 0. 0. 0. 0. 0. 0. 0.
      0. 0. 0. 0. 0. 0. 0. 0. 0. 0. 0. 0. 0. 7.51879718e-03 0. 0. 0.
      7.51879718e-03 0. 0. 0. 0. 7.51879718e-03 0. 0. 0. 0. 0. 0. 0. 0.
      0. 0. 0. 0. 0. 0. 0. 0. 0. 0. 7.51879718e-03 0. 0. 0. 0. 0. 0. 0.
      0. 0. 0. 0. 0. 7.51879718e-03 0. 0. 0. 0. 0. 0. 0. 7.51879718e-03
      0. 0. 0. 0. 0. 0. 3.00751887e-02 0. 0. 0. 0. 0. 0. 0. 0. 0. 0. 0.
      7.51879718e-03 0. 0. 0. 0. 0. 0. 0. 0. 0. 0. 0. 0. 0. 0. 0. 0. 0.
      0. 0. 0. 0. 0. 0. 0. 0. 0. 0. 0. 7.51879718e-03 0. 2.25563906e-02
      0. 0. 0. 0. 0. 0. 2.25563906e-02 0. 0. 0. 0. 0. 7.51879718e-03 0.
      0. 0. 0. 0. 0. 0. 0. 0. 0. 0. 0. 0. 0. 0. 0. 0. 0. 0. 0. 0. 0. 0.
      4.51127812e-02 0. 0. 0. 0. 0. 0. 0. 0. 0. 0. 0. 0. 0. 0. 0. 0.
      7.51879718e-03 0. 0. 0. 0. 0. 1.50375944e-02 0. 0. 7.51879718e-03
      0. 0. 0. 0. 0. 0. 0. 0. 0. 0. 0. 0. 0. 0. 0. 0. 0. 0. 0. 0.
      2.25563906e-02 0. 0. 0. 0. 0. 0. 0. 0. 0. 0. 0. 0. 0. 0. 0. 0. 0.
      0. 0. 0. 7.51879718e-03 7.51879718e-03 0. 0. 0. 0. 0. 0. 0. 0.
      7.51879718e-03 0. 0. 0. 0. 7.51879718e-03 0. 0. 0. 0. 0. 0. 0. 0.
      7.51879718e-03 0. 0. 0. 0. 0. 7.51879718e-03 0. 0. 0. 0.
      1.50375944e-02 0. 1.50375944e-02 0. 0. 0. 0. 0. 0. 0. 0. 0. 0. 0.
      0. 0. 7.51879718e-03 0. 0. 0. 0. 0. 0. 0. 0. 0. 0. 0. 0. 0. 0. 0.
      0. 0. 0. 0. 7.51879718e-03 7.51879718e-03 0. 0. 0. 0. 0. 0. 0. 0.
      0. 0. 0. 0. 0. 0. 0. 0. 0. 0. 0. 0. 0. 0. 0. 0. 0. 0. 0. 0. 0. 0.
      0. 0. 0. 0. 0. 7.51879718e-03 0. 0. 0. 0. 0. 0. 0. 0. 0. 0. 0. 0.
      0. 0. 0. 0. 0. 0. 7.51879718e-03 0. 0. 0. 0. 0. 0. 0. 0. 0. 0. 0.</_>
    <_>
      0. 0. 0. 0. 0. 1.96078438e-02 0. 0. 0. 0. 0. 0. 0. 0. 0. 0. 0. 0.
      0. 0. 0. 0. 0. 0. 1.96078438e-02 0. 0. 0. 0. 0. 0. 0. 0. 0. 0. 0.
      0. 0. 0. 0. 0. 0. 0. 0. 0. 0. 0. 0. 0. 0. 0. 0. 0. 0. 0. 0. 0. 0.
      0. 0. 0. 0. 0. 0. 0. 0. 0. 0. 0. 0. 0. 0. 0. 0. 0. 1.96078438e-02
      0. 0. 0. 0. 0. 1.96078438e-02 0. 0. 0. 0. 0. 0. 0. 0. 0. 0. 0. 0.
      0. 0. 0. 0. 0. 0. 0. 0. 0. 0. 0. 0. 0. 0. 0. 0. 0. 0. 0. 0. 0. 0.
      0. 0. 0. 0. 0. 0. 0. 0. 0. 0. 0. 0. 0. 0. 0. 0. 0. 0. 0. 0. 0. 0.
      0. 0. 0. 0. 0. 0. 0. 0. 0. 0. 0. 0. 0. 0. 0. 0. 1.96078438e-02 0.
      0. 0. 0. 0. 0. 0. 0. 0. 0. 0. 0. 0. 1.96078438e-02 0. 0. 0. 0. 0.
      0. 0. 0. 0. 0. 0. 0. 0. 0. 0. 0. 0. 0. 0. 0. 0. 0. 0. 0. 0. 0.
      1.96078438e-02 0. 0. 0. 0. 0. 0. 0. 1.96078438e-02 0. 0. 0. 0. 0.
      0. 0. 1.96078438e-02 0. 0. 0. 0. 0. 0. 0. 0. 0. 1.96078438e-02 0.
      0. 0. 0. 0. 1.96078438e-02 0. 0. 0. 0. 0. 0. 0. 0. 0. 0. 0. 0. 0.
      0. 0. 0. 0. 0. 1.96078438e-02 0. 0. 0. 0. 0. 0. 5.88235334e-02 0.
      0. 0. 0. 0. 0. 0. 0. 0. 0. 0. 0. 0. 0. 0. 0. 0. 0. 0. 0. 0. 0. 0.
      0. 0. 0. 0. 0. 0. 0. 0. 0. 0. 1.96078438e-02 0. 0. 0. 0. 0. 0.
      1.96078438e-02 0. 0. 0. 1.96078438e-02 0. 0. 0. 0. 0. 0. 0. 0. 0.
      0. 0. 0. 0. 0. 0. 0. 0. 0. 0. 0. 0. 0. 0. 0. 0. 0. 0. 0. 0. 0. 0.
      0. 0. 0. 0. 0. 0. 0. 0. 0. 0. 0. 0. 0. 0. 0. 0. 0. 0. 0.
      3.92156877e-02 0. 0. 0. 0. 0. 0. 0. 0. 0. 0. 0. 0. 0. 0. 0. 0. 0.
      0. 0. 0. 0. 0. 0. 0. 0. 0. 0. 0. 0. 0. 0. 0. 0. 0. 0. 0. 0. 0. 0.
      0. 0. 0. 0. 0. 0. 0. 0. 0. 0. 0. 0. 0. 0. 0. 0. 0. 0. 0. 0. 0. 0.
      0. 0. 0. 0. 0. 0. 0. 0. 0. 1.96078438e-02 0. 0. 0. 0. 0. 0. 0.
      1.96078438e-02 0. 0. 0. 0. 0. 0. 0. 0. 0. 0. 0. 0. 0. 0. 0. 0. 0.
      0. 0. 0. 0. 0. 0. 0. 0. 0. 0. 0. 0. 0. 0. 0. 0. 0. 0. 0. 0. 0. 0.
      0. 0. 0. 0. 0. 1.96078438e-02 0. 0. 0. 0. 0. 0. 0. 0. 0. 0. 0. 0.
      0. 0. 0. 0. 0. 0. 0. 0. 0. 0. 0. 0. 0. 0. 0. 1.96078438e-02 0. 0.
      0. 0. 0. 0. 0. 0. 0. 0. 0. 0. 0. 0. 0. 0. 1.96078438e-02 0.
      1.96078438e-02 1.96078438e-02 0. 0. 0. 0. 0. 0. 0. 0. 0. 0. 0. 0.
      0. 0. 0. 0. 3.92156877e-02 0. 0. 0. 0. 0. 1.96078438e-02 0. 0. 0.
      0. 0. 0. 0. 0. 0. 0. 0. 0. 0. 0. 0. 0. 0. 0. 0. 0. 0. 0. 0. 0. 0.
      0. 0. 0. 0. 0. 0. 0. 0. 0. 0. 0. 0. 0. 0. 0. 0. 0. 0. 0. 0. 0. 0.
      0. 0. 0. 0. 0. 0. 0. 0. 0. 0. 0. 0. 0. 0. 0. 0. 0. 0. 0. 0. 0. 0.
      0. 0. 0. 0. 0. 0. 0. 0. 0. 0. 0. 0. 0. 0. 0. 0. 0. 0. 0. 0. 0. 0.
      0. 0. 0. 0. 0. 0. 0. 0. 0. 0. 0. 0. 0. 0. 0. 3.92156877e-02 0. 0.
      1.96078438e-02 0. 0. 0. 0. 0. 0. 0. 0. 0. 0. 0. 0. 0. 0. 0. 0. 0.
      0. 0. 0. 0. 3.92156877e-02 0. 0. 0. 0. 0. 0. 0. 0. 0.
      1.96078438e-02 0. 0. 0. 0. 0. 0. 0. 0. 0. 0. 0. 0. 0. 0.
      1.96078438e-02 0. 0. 0. 0. 0. 0. 0. 0. 0. 0. 0. 0. 0. 0. 0. 0. 0.
      0. 0. 0. 0. 0. 0. 1.96078438e-02 0. 0. 0. 0. 0. 0. 1.96078438e-02
      0. 0. 0. 0. 0. 0. 0. 0. 0. 1.96078438e-02 0. 0. 0. 0. 0. 0. 0.
      1.96078438e-02 0. 0. 0. 1.96078438e-02 0. 0. 1.96078438e-02 0. 0.
      0. 0. 0. 0. 0. 0. 0. 0. 0. 0. 0. 0. 0. 1.96078438e-02 0. 0. 0. 0.
      0. 0. 0. 0. 0. 0. 0. 0. 0. 0. 0. 0. 0. 0. 0. 0. 0. 0. 0. 0. 0. 0.
      0. 0. 0. 0. 0. 0. 0. 0. 0. 0. 0. 0. 0. 0. 0. 1.96078438e-02 0. 0.
      0. 0. 0. 0. 0. 0. 0. 0. 0. 0. 0. 0. 0. 0. 0. 0. 0. 0. 0. 0. 0.
      1.96078438e-02 0. 1.96078438e-02 1.96078438e-02 1.96078438e-02 0.
      0. 0. 0. 0. 0. 0. 0. 0. 0. 0. 0. 0. 0. 0. 0. 0. 0. 0. 0. 0. 0. 0.
      0. 0. 0. 0. 0. 0. 0. 0. 0. 0. 0. 0. 0. 0. 0. 0. 0. 0. 0. 0. 0. 0.
      0. 0. 0. 0. 0. 0. 0. 0. 0. 0. 0. 0. 0. 0. 0. 0. 0. 0. 0. 0. 0. 0.
      0. 0. 0. 0. 0. 0. 0. 0. 1.96078438e-02 0. 0. 0. 0. 0. 0. 0. 0. 0.
      0. 0. 0. 0. 0. 0. 0. 0. 0. 0. 0. 0. 1.96078438e-02 0. 0. 0. 0. 0.
      0. 0. 0. 0. 0. 0. 0. 0. 0. 0. 0. 0. 0. 0. 0. 0. 0. 0. 0. 0. 0. 0.
      0. 0. 0. 0. 0. 0. 0. 0. 0. 0. 0. 0. 0. 0. 0. 0. 0. 0. 0. 0. 0. 0.
      0. 0. 0. 0. 0. 0. 0. 0. 0.</_>
    <_>
      0. 8.62068962e-03 8.62068962e-03 0. 0. 0. 0. 0. 0. 0. 0.
      8.62068962e-03 0. 0. 0. 0. 0. 8.62068962e-03 0. 0. 0. 0. 0. 0. 0.
      0. 0. 0. 0. 0. 0. 0. 0. 0. 0. 0. 0. 0. 0. 0. 0. 0. 0. 0. 0. 0. 0.
      8.62068962e-03 0. 0. 0. 0. 0. 8.62068962e-03 0. 0. 0. 0. 0.
      1.72413792e-02 0. 0. 0. 0. 0. 0. 0. 0. 0. 0. 0. 0. 0.
      8.62068962e-03 0. 0. 0. 0. 8.62068962e-03 0. 0. 0. 0. 0. 0. 0. 0.
      0. 0. 0. 0. 0. 0. 0. 0. 0. 0. 8.62068962e-03 0. 0. 2.58620679e-02
      0. 0. 0. 8.62068962e-03 0. 0. 0. 0. 0. 0. 0. 0. 0. 0. 0. 0. 0. 0.
      0. 0. 0. 0. 0. 0. 0. 0. 0. 0. 0. 0. 0. 0. 0. 0. 0. 0.
      8.62068962e-03 8.62068962e-03 0. 0. 0. 0. 0. 2.58620679e-02 0.
      8.62068962e-03 0. 0. 0. 0. 0. 0. 0. 0. 0. 0. 8.62068962e-03 0. 0.
      0. 1.72413792e-02 0. 0. 0. 0. 0. 0. 2.58620679e-02 0. 0. 0. 0.
      8.62068962e-03 0. 0. 0. 0. 0. 0. 0. 0. 0. 0. 0. 0. 0. 0. 0.
      1.72413792e-02 1.72413792e-02 0. 8.62068962e-03 0. 0. 0. 0. 0. 0.
      0. 0. 0. 0. 0. 0. 0. 0. 8.62068962e-03 0. 0. 0. 0. 0. 0. 0. 0. 0.
      0. 0. 0. 0. 0. 0. 0. 0. 0. 0. 0. 0. 0. 0. 0. 0. 0. 0. 0. 0. 0. 0.
      0. 8.62068962e-03 0. 0. 0. 0. 0. 0. 8.62068962e-03 0.
      8.62068962e-03 8.62068962e-03 0. 0. 0. 0. 0. 0. 0. 0. 0. 0. 0.
      8.62068962e-03 0. 0. 0. 0. 0. 0. 0. 0. 8.62068962e-03 0. 0. 0. 0.
      0. 0. 0. 0. 0. 0. 0. 0. 0. 0. 0. 0. 0. 0. 0. 0. 0. 0. 0.
      1.72413792e-02 0. 0. 0. 0. 0. 0. 0. 0. 0. 0. 0. 0. 0. 0. 0. 0. 0.
      0. 0. 0. 0. 0. 0. 0. 0. 0. 0. 0. 0. 0. 0. 0. 0. 0. 8.62068962e-03
      0. 0. 0. 0. 0. 0. 0. 0. 0. 0. 0. 0. 0. 0. 0. 0. 0. 0. 0. 0.
      8.62068962e-03 0. 0. 0. 0. 0. 0. 0. 1.72413792e-02 1.72413792e-02
      0. 0. 0. 0. 0. 0. 0. 0. 0. 0. 0. 0. 0. 0. 0. 0. 0. 0. 0. 0. 0. 0.
      0. 0. 0. 0. 0. 0. 0. 0. 0. 0. 0. 0. 0. 0. 0. 0. 0. 0. 0. 0. 0. 0.
      0. 0. 0. 0. 0. 0. 0. 0. 0. 0. 0. 0. 0. 0. 0. 0. 0. 0.
      8.62068962e-03 0. 0. 0. 0. 0. 0. 0. 0. 0. 0. 0. 0. 0. 0. 0. 0. 0.
      0. 0. 0. 0. 0. 0. 0. 0. 0. 0. 0. 8.62068962e-03 0. 0. 0. 0. 0. 0.
      0. 0. 0. 0. 8.62068962e-03 8.62068962e-03 0. 0. 0. 0. 0. 0. 0. 0.
      0. 0. 8.62068962e-03 0. 0. 0. 0. 0. 0. 0. 0. 0. 0. 0. 0. 0. 0. 0.
      0. 0. 0. 0. 0. 0. 0. 0. 0. 0. 0. 0. 0. 0. 0. 0. 0. 0. 0. 0. 0. 0.
      0. 0. 0. 0. 0. 0. 0. 0. 0. 0. 0. 0. 0. 0. 0. 0. 0. 0.
      8.62068962e-03 0. 8.62068962e-03 0. 0. 0. 0. 0. 0. 0. 0. 0. 0. 0.
      8.62068962e-03 0. 2.58620679e-02 0. 0. 0. 0. 0. 8.62068962e-03 0.
      0. 0. 0. 0. 0. 0. 3.44827585e-02 0. 8.62068962e-03 0.
      8.62068962e-03 0. 0. 0. 0. 0. 0. 8.62068962e-03 0. 0. 0. 0. 0. 0.
      0. 0. 0. 0. 0. 0. 0. 0. 0. 0. 0. 0. 0. 0. 0. 0. 0. 0. 0. 0. 0. 0.
      0. 0. 0. 0. 0. 0. 0. 0. 0. 0. 0. 0. 0. 0. 0. 0. 0. 0. 0. 0. 0. 0.
      0. 0. 0. 0. 0. 0. 0. 0. 8.62068962e-03 0. 0. 0. 0. 0. 0. 0.
      8.62068962e-03 0. 0. 0. 0. 0. 0. 0. 0. 0. 0. 0. 0. 0. 0.
      1.72413792e-02 0. 0. 0. 0. 0. 0. 0. 0. 0. 0. 0. 0. 8.62068962e-03
      0. 0. 1.72413792e-02 0. 0. 0. 0. 0. 0. 0. 0. 0. 0. 0. 0. 0. 0. 0.
      0. 0. 0. 0. 0. 0. 0. 0. 0. 0. 0. 0. 8.62068962e-03 0. 0. 0. 0. 0.
      0. 0. 0. 0. 0. 0. 0. 0. 0. 0. 0. 0. 0. 0. 0. 0. 0. 0. 0.
      1.72413792e-02 0. 0. 0. 8.62068962e-03 0. 0. 0. 0. 0. 0. 0. 0. 0.
      0. 0. 0. 0. 0. 0. 0. 0. 0. 0. 8.62068962e-03 0. 0. 0.
      8.62068962e-03 0. 0. 0. 0. 0. 0. 0. 0. 0. 0. 0. 0. 0. 0. 0. 0. 0.
      0. 0. 4.31034490e-02 0. 0. 0. 0. 0. 0. 0. 0. 0. 0. 0. 0. 0. 0. 0.
      0. 0. 0. 0. 0. 0. 0. 0. 0. 8.62068962e-03 0. 0. 0. 0.
      6.89655170e-02 0. 0. 0. 0. 0. 0. 0. 0. 8.62068962e-03 0. 0. 0. 0.
      0. 0. 0. 0. 8.62068962e-03 0. 0. 0. 0. 0. 0. 0. 0. 0.
      8.62068962e-03 8.62068962e-03 0. 0. 0. 0. 0. 0. 0. 0. 0. 0. 0. 0.
      0. 0. 0. 0. 8.62068962e-03 8.62068962e-03 0. 0. 0. 0. 0. 0. 0. 0.
      0. 0. 0. 0. 0. 0. 0. 0. 0. 0. 8.62068962e-03 0. 0. 0. 0. 0. 0. 0.
      0. 0. 0. 0. 0. 0. 0. 0. 0. 0. 2.58620679e-02 0. 0. 0. 0. 0.
      8.62068962e-03 0. 0. 0. 0. 0. 0. 0. 0. 0. 0. 8.62068962e-03 0.
      8.62068962e-03 0. 0. 0. 0. 0. 0. 0. 0. 0. 8.62068962e-03 0. 0. 0.
      0. 0. 0. 0. 0. 0. 0. 0. 0. 0. 0. 0. 0. 0. 0. 2.58620679e-02 0. 0.
      0. 8.62068962e-03 8.62068962e-03 0. 0. 8.62068962e-03 0. 0. 0. 0.
      0. 0. 0. 0. 0. 0. 0. 0. 0. 0. 0. 0. 0. 0. 0. 0. 0. 0. 0. 0. 0. 0.
      0. 0. 8.62068962e-03 0. 0. 0. 0. 0. 0. 8.62068962e-03 0. 0. 0. 0.
      0. 0. 0. 0. 0. 0. 0. 0. 0. 0. 0. 0. 0. 0. 0. 0. 0. 0.</_>
    <_>
      0. 0. 0. 0. 0. 0. 0. 0. 0. 0. 0. 0. 0. 0. 0. 0. 0. 0. 0. 0. 0. 0.
      0. 0. 0. 0. 0. 0. 0. 0. 0. 0. 0. 0. 0. 0. 0. 0. 0. 0. 0. 0. 0. 0.
      0. 0. 0. 0. 0. 0. 0. 0. 0. 0. 0. 0. 0. 0. 0. 6.45161271e-02 0. 0.
      0. 0. 0. 0. 0. 0. 0. 0. 0. 0. 0. 0. 0. 0. 0. 0. 0. 0. 0. 0. 0. 0.
      0. 0. 0. 0. 0. 0. 0. 0. 0. 0. 0. 3.22580636e-02 0. 0. 0. 0. 0. 0.
      0. 0. 0. 0. 0. 0. 3.22580636e-02 0. 0. 0. 0. 0. 0. 0. 0. 0. 0. 0.
      0. 0. 0. 0. 0. 0. 0. 0. 0. 0. 0. 0. 0. 0. 3.22580636e-02 0. 0. 0.
      0. 0. 0. 0. 0. 0. 0. 0. 0. 0. 0. 0. 0. 0. 0. 0. 0. 0. 0. 0. 0. 0.
      0. 0. 3.22580636e-02 0. 0. 0. 0. 0. 0. 0. 0. 0. 0. 0. 0. 0. 0. 0.
      0. 0. 0. 0. 0. 0. 0. 0. 0. 0. 0. 0. 0. 0. 0. 0. 0. 0. 0. 0. 0. 0.
      0. 0. 0. 0. 0. 0. 0. 0. 0. 0. 0. 0. 0. 0. 0. 0. 0. 0. 0.
      6.45161271e-02 0. 0. 0. 0. 0. 0. 0. 0. 0. 0. 0. 0. 0. 0. 0. 0. 0.
      0. 0. 0. 0. 0. 0. 0. 0. 0. 0. 0. 0. 0. 0. 0. 0. 0. 0. 0. 0. 0. 0.
      0. 0. 0. 0. 0. 0. 0. 0. 0. 0. 0. 0. 0. 0. 0. 0. 0. 0. 0. 0. 0. 0.
      0. 0. 0. 0. 0. 0. 0. 0. 0. 0. 0. 0. 0. 0. 0. 0. 0. 0. 0. 0. 0. 0.
      0. 0. 0. 0. 0. 0. 0. 0. 3.22580636e-02 0. 0. 0. 0. 0. 0. 0. 0. 0.
      0. 0. 0. 0. 0. 0. 0. 0. 0. 0. 0. 0. 0. 0. 0. 0. 0. 0. 0. 0. 0. 0.
      0. 0. 0. 0. 3.22580636e-02 0. 0. 0. 0. 0. 0. 0. 0. 0. 0. 0. 0. 0.
      0. 0. 0. 0. 0. 0. 0. 0. 0. 0. 0. 0. 0. 0. 0. 0. 0. 0. 0. 0.
      6.45161271e-02 0. 0. 0. 0. 0. 0. 0. 0. 0. 0. 0. 0. 0. 0. 0. 0. 0.
      0. 0. 0. 0. 0. 0. 0. 0. 0. 0. 0. 0. 0. 0. 0. 0. 0. 0. 0. 0. 0. 0.
      0. 3.22580636e-02 0. 0. 0. 0. 0. 0. 0. 0. 0. 0. 0. 0.
      3.22580636e-02 0. 0. 0. 0. 0. 0. 0. 0. 0. 0. 0. 0. 0. 0. 0. 0. 0.
      0. 0. 0. 0. 0. 0. 0. 0. 0. 0. 0. 0. 3.22580636e-02 0. 0. 0. 0. 0.
      0. 0. 0. 0. 0. 0. 0. 0. 0. 0. 0. 0. 0. 0. 0. 0. 0. 0. 0. 0. 0. 0.
      0. 0. 0. 0. 0. 0. 0. 0. 0. 0. 0. 0. 0. 0. 0. 0. 0. 0. 0. 0. 0.
      3.22580636e-02 0. 0. 0. 0. 0. 0. 0. 0. 0. 0. 0. 0. 0. 0. 0. 0. 0.
      0. 0. 0. 0. 0. 0. 0. 3.22580636e-02 0. 0. 0. 0. 0. 0. 0. 0. 0. 0.
      0. 0. 0. 0. 0. 0. 0. 0. 0. 0. 0. 0. 3.22580636e-02 0. 0. 0. 0. 0.
      0. 0. 0. 0. 0. 0. 0. 3.22580636e-02 0. 0. 0. 0. 0. 0. 0. 0. 0. 0.
      0. 0. 0. 0. 0. 0. 0. 0. 0. 0. 0. 0. 0. 0. 0. 0. 3.22580636e-02 0.
      0. 0. 0. 0. 0. 0. 0. 0. 0. 0. 0. 0. 0. 0. 0. 0. 0. 0. 0. 0. 0. 0.
      0. 0. 0. 3.22580636e-02 0. 0. 0. 0. 0. 0. 0. 0. 0. 0. 0. 0. 0. 0.
      0. 0. 0. 0. 0. 0. 0. 0. 0. 0. 0. 0. 0. 0. 3.22580636e-02 0. 0. 0.
      0. 0. 0. 0. 0. 0. 0. 0. 0. 0. 0. 0. 0. 0. 0. 0. 0. 0. 0. 0. 0. 0.
      0. 0. 0. 0. 0. 0. 0. 0. 0. 0. 0. 0. 0. 0. 0. 0. 0. 0. 0. 0. 0. 0.
      0. 0. 0. 0. 0. 0. 0. 0. 0. 0. 0. 0. 0. 0. 0. 0. 0. 0. 0. 0. 0. 0.
      0. 0. 0. 0. 0. 0. 0. 0. 0. 0. 0. 0. 0. 0. 0. 0. 0. 0. 0. 0. 0. 0.
      0. 0. 0. 0. 0. 0. 0. 0. 0. 0. 0. 0. 6.45161271e-02 0. 0. 0. 0. 0.
      0. 0. 0. 0. 0. 0. 0. 0. 0. 0. 0. 0. 0. 0. 0. 0. 0. 0. 0. 0. 0. 0.
      0. 0. 0. 0. 0. 0. 0. 0. 0. 0. 0. 0. 0. 0. 0. 0. 0. 0. 0. 0. 0. 0.
      0. 0. 0. 6.45161271e-02 0. 0. 0. 0. 0. 0. 0. 0. 0. 0. 0. 0. 0. 0.
      0. 0. 0. 0. 0. 0. 0. 0. 0. 0. 0. 0. 0. 0. 0. 0. 0. 0. 0. 0. 0. 0.
      0. 0. 0. 3.22580636e-02 0. 0. 0. 0. 0. 0. 0. 0. 0. 0. 0. 0. 0. 0.
      0. 0. 0. 0. 0. 0. 0. 0. 0. 0. 0. 0. 0. 0. 0. 0. 0. 0. 0. 0. 0. 0.
      0. 0. 0. 0. 0. 0. 0. 0. 0. 3.22580636e-02 0. 0. 0. 0. 0. 0. 0. 0.
      0. 0. 0. 0. 0. 3.22580636e-02 0. 0. 0. 0. 0. 0. 0. 0. 0. 0. 0. 0.
      0. 0. 0. 0. 0. 0. 0. 0. 0. 0. 0. 0. 0. 0. 0. 0. 0. 0. 0.
      6.45161271e-02 0. 0. 0. 0. 0. 0. 0. 0. 0. 0. 0. 0. 0. 0. 0. 0. 0.
      0. 0. 0. 0. 0. 0. 0. 0. 0. 0. 0. 0. 0. 0. 0. 0. 0. 0. 0. 0. 0. 0.
      0. 0. 0. 0. 0. 0. 0. 0. 0. 0. 0. 0. 0.</_>
    <_>
      0. 0. 0. 0. 0. 0. 0. 0. 1.47058824e-02 0. 0. 0. 0. 0. 0. 0. 0. 0.
      0. 0. 0. 0. 1.47058824e-02 0. 0. 0. 0. 0. 0. 0. 0. 0. 0. 0. 0. 0.
      0. 0. 0. 0. 0. 0. 0. 0. 0. 0. 0. 0. 0. 0. 0. 0. 0. 0. 0. 0. 0. 0.
      1.47058824e-02 2.94117648e-02 0. 0. 0. 0. 0. 0. 0. 0. 0. 0. 0. 0.
      0. 0. 1.47058824e-02 0. 0. 0. 0. 0. 0. 0. 0. 0. 0. 0. 0. 0. 0. 0.
      0. 0. 0. 0. 0. 0. 0. 1.47058824e-02 5.88235296e-02 0. 0. 0. 0. 0.
      0. 0. 0. 0. 0. 0. 0. 1.47058824e-02 0. 0. 0. 0. 1.47058824e-02 0.
      0. 0. 0. 0. 0. 0. 0. 0. 0. 0. 0. 0. 0. 0. 0. 0. 0. 0. 0. 0. 0. 0.
      0. 0. 0. 0. 0. 0. 0. 0. 0. 0. 0. 0. 0. 0. 0. 0. 0. 0. 0. 0. 0. 0.
      0. 0. 0. 0. 0. 0. 0. 0. 0. 0. 0. 0. 0. 0. 0. 0. 0. 0. 0. 0.
      1.47058824e-02 0. 0. 0. 0. 0. 0. 0. 0. 0. 0. 0. 0. 0. 0. 0. 0. 0.
      1.47058824e-02 0. 0. 0. 0. 0. 0. 0. 0. 0. 0. 0. 0. 0. 0. 0. 0.
      1.47058824e-02 0. 0. 0. 0. 0. 0. 0. 0. 0. 0. 0. 0. 0. 0. 0. 0. 0.
      1.47058824e-02 0. 0. 0. 0. 0. 0. 0. 0. 0. 0. 0. 0. 0. 0. 0.
      2.94117648e-02 0. 0. 0. 0. 0. 0. 0. 0. 0. 0. 0. 0. 0. 0. 0. 0. 0.
      1.47058824e-02 0. 0. 0. 0. 0. 0. 0. 0. 0. 0. 0. 0. 0. 0. 0. 0. 0.
      0. 0. 0. 0. 0. 0. 0. 0. 1.47058824e-02 0. 1.47058824e-02 0. 0. 0.
      0. 0. 0. 0. 0. 0. 0. 0. 0. 0. 0. 0. 0. 0. 0. 0. 0. 0. 0. 0. 0. 0.
      0. 0. 0. 0. 0. 0. 0. 0. 0. 0. 0. 0. 0. 1.47058824e-02 0. 0. 0. 0.
      0. 0. 0. 0. 0. 0. 0. 0. 0. 0. 0. 0. 0. 0. 0. 0. 0. 1.47058824e-02
      0. 0. 1.47058824e-02 0. 0. 0. 0. 0. 0. 0. 0. 0. 0. 0. 0. 0. 0. 0.
      0. 0. 0. 0. 0. 0. 0. 0. 0. 0. 1.47058824e-02 0. 0. 1.47058824e-02
      0. 0. 0. 0. 0. 0. 0. 0. 0. 0. 0. 0. 0. 0. 0. 0. 0. 0. 0. 0. 0. 0.
      1.47058824e-02 0. 0. 0. 0. 0. 0. 0. 0. 0. 0. 0. 0. 0. 0. 0. 0. 0.
      0. 0. 0. 0. 2.94117648e-02 0. 1.47058824e-02 0. 0. 0. 0. 0. 0. 0.
      0. 0. 0. 0. 0. 0. 0. 0. 0. 0. 1.47058824e-02 0. 0. 0. 0. 0. 0. 0.
      0. 0. 0. 0. 0. 0. 0. 0. 0. 0. 0. 0. 0. 0. 0. 0. 0. 0. 0. 0. 0. 0.
      0. 0. 0. 0. 0. 0. 0. 0. 0. 0. 0. 0. 0. 0. 0. 0. 0. 0. 0. 0. 0.
      2.94117648e-02 0. 0. 0. 0. 0. 0. 0. 0. 0. 0. 0. 0. 0. 0. 0. 0. 0.
      0. 0. 0. 0. 0. 0. 0. 0. 1.47058824e-02 0. 0. 0. 0. 0. 0. 0. 0. 0.
      0. 0. 0. 0. 0. 0. 0. 0. 0. 0. 0. 0. 1.47058824e-02 0. 0. 0. 0. 0.
      0. 0. 0. 0. 0. 1.47058824e-02 0. 0. 0. 0. 0. 0. 0. 0. 0. 0. 0. 0.
      2.94117648e-02 0. 0. 0. 0. 0. 0. 0. 0. 0. 0. 0. 0. 0. 0. 0. 0. 0.
      0. 0. 0. 0. 0. 0. 0. 0. 0. 0. 0. 0. 0. 0. 0. 0. 0. 0. 0. 0. 0. 0.
      0. 0. 0. 0. 0. 0. 0. 0. 0. 0. 0. 0. 0. 1.47058824e-02 0. 0. 0. 0.
      0. 0. 0. 0. 0. 0. 1.47058824e-02 0. 0. 0. 0. 0. 1.47058824e-02 0.
      0. 0. 0. 0. 2.94117648e-02 0. 0. 0. 0. 0. 0. 1.47058824e-02 0. 0.
      0. 0. 0. 0. 0. 0. 0. 0. 0. 0. 0. 0. 0. 0. 0. 0. 0. 0.
      1.47058824e-02 0. 1.47058824e-02 0. 0. 0. 0. 0. 0. 0. 0. 0. 0. 0.
      0. 0. 0. 0. 0. 0. 0. 0. 0. 0. 0. 0. 0. 0. 0. 0. 0. 2.94117648e-02
      0. 0. 0. 0. 0. 0. 0. 0. 0. 0. 0. 0. 0. 0. 0. 0. 0. 0. 0. 0. 0.
      1.47058824e-02 0. 0. 0. 0. 0. 0. 0. 0. 0. 0. 0. 0. 0. 0. 0. 0.
      1.47058824e-02 0. 0. 0. 0. 0. 0. 0. 0. 0. 0. 0. 0. 0. 0. 0. 0. 0.
      0. 0. 0. 0. 0. 0. 0. 0. 0. 0. 0. 0. 0. 0. 0. 0. 0. 0. 0.
      1.47058824e-02 0. 0. 2.94117648e-02 0. 0. 0. 0. 0. 0. 0. 0. 0. 0.
      0. 0. 0. 0. 1.47058824e-02 0. 0. 0. 0. 0. 0. 0. 0. 0. 0. 0. 0. 0.
      0. 0. 0. 0. 0. 0. 0. 2.94117648e-02 0. 0. 0. 0. 0. 0. 0. 0. 0.
      1.47058824e-02 0. 0. 0. 0. 0. 0. 0. 0. 0. 0. 0. 0. 0. 0. 0. 0. 0.
      0. 0. 0. 0. 0. 0. 0. 0. 0. 0. 0. 1.47058824e-02 0. 0. 0. 0. 0. 0.
      0. 0. 0. 0. 0. 0. 0. 0. 0. 0. 0. 0. 0. 0. 0. 0. 0. 0. 0. 0. 0. 0.
      0. 0. 0. 0. 0. 0. 0. 0. 0. 0. 1.47058824e-02 0. 0. 0. 0. 0. 0. 0.
      0. 0. 0. 0. 0. 0. 0. 0. 0. 0. 0. 0. 0. 0. 0. 0. 0. 0. 0.
      1.47058824e-02 0. 0. 1.47058824e-02 0. 1.47058824e-02 0. 0. 0. 0.
      0. 1.47058824e-02 0. 0. 0. 2.94117648e-02 0. 0. 0. 0. 0. 0. 0. 0.
      0. 0. 1.47058824e-02 0. 0. 0. 0. 0. 0. 0. 0. 0. 0. 0.
      1.47058824e-02 0. 0. 0. 0. 0. 0. 0. 0. 0. 0. 0. 0. 0. 0. 0. 0. 0.
      0. 0. 0. 0. 0. 0. 0. 0. 0. 0. 0.</_>
    <_>
      0. 0. 0. 0. 9.90098994e-03 0. 0. 0. 0. 0. 0. 0. 0. 0. 0. 0.
      9.90098994e-03 0. 9.90098994e-03 0. 0. 0. 0. 0. 0. 0. 0.
      1.98019799e-02 0. 0. 0. 0. 0. 0. 0. 0. 0. 0. 0. 0. 0. 0. 0. 0. 0.
      0. 0. 2.97029689e-02 0. 0. 0. 0. 0. 9.90098994e-03 0. 0. 0. 0.
      9.90098994e-03 0. 0. 0. 0. 9.90098994e-03 1.98019799e-02 0. 0. 0.
      0. 0. 0. 0. 0. 0. 0. 0. 0. 0. 0. 0. 0. 0. 0. 0. 0. 0. 0. 0. 0. 0.
      0. 0. 0. 0. 0. 0. 0. 0. 0. 0. 0. 0. 0. 0. 0. 0. 0. 0. 0. 0. 0. 0.
      0. 0. 0. 0. 0. 0. 0. 0. 0. 0. 0. 0. 9.90098994e-03 0.
      9.90098994e-03 0. 0. 0. 0. 0. 0. 0. 0. 9.90098994e-03 0. 0. 0. 0.
      0. 0. 0. 0. 0. 0. 0. 0. 0. 0. 0. 0. 0. 0. 0. 0. 0. 0. 0. 0. 0. 0.
      0. 0. 0. 0. 0. 0. 0. 0. 0. 9.90098994e-03 0. 0. 0. 0. 0.
      9.90098994e-03 0. 0. 0. 9.90098994e-03 0. 0. 0. 0. 0. 0. 0. 0. 0.
      0. 0. 0. 0. 0. 0. 0. 0. 0. 0. 0. 9.90098994e-03 0. 0. 0. 0. 0. 0.
      0. 0. 0. 0. 0. 0. 0. 9.90098994e-03 0. 0. 0. 0. 0. 0. 0. 0. 0. 0.
      0. 0. 0. 0. 0. 0. 0. 0. 1.98019799e-02 0. 0. 0. 9.90098994e-03 0.
      0. 0. 9.90098994e-03 0. 0. 0. 0. 0. 0. 0. 0. 0. 0. 0. 0. 0. 0. 0.
      0. 0. 0. 0. 0. 0. 0. 0. 0. 0. 0. 0. 0. 0. 0. 0. 0. 0. 0. 0. 0. 0.
      0. 0. 0. 0. 0. 0. 0. 9.90098994e-03 0. 0. 0. 0. 0. 0. 0. 0. 0. 0.
      0. 0. 0. 9.90098994e-03 0. 9.90098994e-03 0. 0. 0. 0. 0. 0. 0. 0.
      0. 0. 0. 0. 0. 0. 0. 9.90098994e-03 0. 0. 0. 0. 0. 0. 0. 0. 0.
      9.90098994e-03 0. 0. 0. 0. 0. 0. 0. 9.90098994e-03 0. 0. 0. 0. 0.
      0. 0. 9.90098994e-03 0. 0. 0. 0. 1.98019799e-02 0. 0. 0. 0. 0. 0.
      0. 0. 9.90098994e-03 0. 9.90098994e-03 0. 0. 0. 0. 0. 0. 0. 0. 0.
      0. 9.90098994e-03 0. 0. 0. 0. 0. 0. 0. 0. 0. 0. 0. 0. 0. 0. 0. 0.
      0. 0. 0. 0. 0. 0. 0. 0. 0. 0. 0. 0. 0. 0. 0. 0. 0. 9.90098994e-03
      0. 0. 0. 0. 0. 0. 0. 9.90098994e-03 0. 0. 0. 0. 0. 0.
      1.98019799e-02 0. 0. 0. 0. 0. 0. 0. 0. 0. 0. 0. 0. 0. 0. 0. 0. 0.
      0. 9.90098994e-03 0. 0. 0. 0. 0. 0. 0. 0. 0. 0. 0. 0. 0. 0. 0.
      3.96039598e-02 1.98019799e-02 0. 9.90098994e-03 9.90098994e-03 0.
      1.98019799e-02 0. 0. 0. 0. 0. 0. 0. 0. 0. 0. 0. 9.90098994e-03 0.
      0. 0. 0. 0. 0. 0. 0. 0. 0. 0. 0. 0. 9.90098994e-03 0. 0. 0. 0. 0.
      0. 0. 0. 0. 0. 0. 0. 0. 1.98019799e-02 9.90098994e-03 0. 0. 0. 0.
      0. 0. 0. 0. 0. 1.98019799e-02 0. 0. 0. 0. 0. 0. 0. 0. 0. 0. 0. 0.
      0. 0. 0. 0. 0. 0. 0. 0. 0. 0. 0. 0. 9.90098994e-03 0. 0. 0. 0. 0.
      0. 0. 0. 0. 0. 0. 0. 0. 0. 0. 0. 0. 0. 0. 0. 9.90098994e-03 0. 0.
      9.90098994e-03 0. 9.90098994e-03 0. 0. 0. 0. 0. 0. 0. 0. 0.
      9.90098994e-03 1.98019799e-02 0. 0. 0. 0. 0. 0. 0. 0. 0. 0. 0. 0.
      0. 0. 0. 0. 0. 0. 0. 0. 9.90098994e-03 0. 0. 0. 0. 0. 0. 0. 0. 0.
      0. 0. 1.98019799e-02 0. 0. 0. 0. 0. 0. 0. 0. 0. 0. 0. 0. 0. 0. 0.
      0. 0. 0. 0. 0. 0. 0. 0. 0. 0. 0. 0. 0. 0. 0. 0. 0. 0. 0. 0. 0. 0.
      0. 0. 0. 1.98019799e-02 0. 9.90098994e-03 0. 0. 0. 0. 0. 0.
      9.90098994e-03 0. 0. 0. 9.90098994e-03 0. 0. 0. 0. 0. 0. 0. 0. 0.
      0. 9.90098994e-03 0. 0. 0. 9.90098994e-03 0. 0. 0. 0. 0. 0. 0. 0.
      0. 9.90098994e-03 0. 0. 0. 0. 0. 0. 0. 0. 0. 0. 0. 0. 0. 0. 0. 0.
      0. 0. 0. 0. 0. 0. 0. 0. 0. 0. 0. 9.90098994e-03 0. 9.90098994e-03
      0. 0. 0. 0. 0. 0. 0. 0. 0. 0. 0. 0. 0. 0. 0. 0. 0. 0. 0. 0. 0. 0.
      0. 0. 0. 0. 9.90098994e-03 0. 0. 0. 0. 0. 0. 9.90098994e-03 0. 0.
      0. 0. 1.98019799e-02 0. 0. 0. 0. 9.90098994e-03 0. 0. 0. 0. 0. 0.
      0. 0. 9.90098994e-03 0. 0. 0. 0. 0. 0. 0. 0. 0. 0. 0. 0. 0. 0. 0.
      0. 0. 0. 0. 0. 1.98019799e-02 0. 0. 0. 0. 0. 0. 0. 0. 0. 0. 0. 0.
      0. 0. 0. 0. 0. 0. 0. 0. 0. 0. 0. 0. 9.90098994e-03 0. 0. 0. 0. 0.
      0. 0. 0. 9.90098994e-03 0. 0. 0. 0. 0. 9.90098994e-03 0. 0. 0. 0.
      0. 0. 0. 0. 0. 0. 0. 0. 0. 0. 0. 0. 0. 0. 0. 0. 0. 0. 0. 0. 0. 0.
      0. 0. 0. 0. 0. 0. 0. 0. 0. 0. 0. 0. 0. 0. 9.90098994e-03 0.
      9.90098994e-03 0. 0. 0. 0. 0. 0. 0. 0. 0. 0. 0. 0. 0. 0. 0. 0. 0.
      0. 0. 0. 0. 0. 0. 0. 0. 0. 0. 0. 0. 0. 0. 0. 9.90098994e-03 0. 0.
      0. 0. 0. 0. 9.90098994e-03 0. 9.90098994e-03 0. 0. 9.90098994e-03
      0. 0. 0. 0. 0. 0. 0. 0. 0. 0. 0. 0. 0. 0. 0. 0. 0. 0. 0. 0. 0.
      9.90098994e-03 0. 0. 0. 0. 0. 0. 0. 0. 0. 0. 0. 0. 0. 0. 0. 0. 0.
      0. 0. 9.90098994e-03 9.90098994e-03 0. 0. 0. 0. 0. 0. 0. 0. 0. 0.
      0. 0. 0. 0. 0. 0. 0. 0. 0. 0. 0. 0. 0. 0. 0. 0. 1.98019799e-02 0.
      0. 0. 0. 0. 0. 0. 0. 0.</_>
    <_>
      0. 0. 0. 0. 0. 0. 0. 0. 0. 0. 0. 0. 0. 8.00000038e-03 0. 0. 0. 0.
      0. 0. 0. 0. 0. 0. 0. 0. 0. 0. 0. 0. 0. 0. 0. 0. 0. 0. 0. 0. 0. 0.
      0. 0. 8.00000038e-03 0. 0. 0. 0. 1.60000008e-02 0. 0. 0. 0. 0. 0.
      0. 8.00000038e-03 0. 0. 0. 0. 0. 0. 0. 0. 0. 0. 0. 0. 0. 0. 0. 0.
      0. 0. 0. 0. 8.00000038e-03 0. 0. 0. 0. 0. 0. 0. 0. 0. 0. 0. 0. 0.
      8.00000038e-03 0. 0. 0. 0. 0. 0. 0. 1.60000008e-02 0. 0. 0. 0. 0.
      1.60000008e-02 8.00000038e-03 8.00000038e-03 0. 0. 0. 0.
      8.00000038e-03 0. 0. 8.00000038e-03 0. 0. 0. 1.60000008e-02 0. 0.
      0. 0. 0. 0. 0. 0. 0. 0. 0. 0. 0. 0. 0. 0. 0. 0. 0. 0. 0. 0. 0. 0.
      0. 0. 0. 0. 0. 0. 0. 0. 0. 0. 0. 0. 0. 8.00000038e-03 0. 0. 0. 0.
      1.60000008e-02 0. 0. 0. 0. 0. 0. 0. 0. 0. 0. 0. 0. 0. 0. 0. 0. 0.
      0. 0. 0. 0. 0. 0. 0. 0. 0. 0. 0. 0. 0. 0. 0. 0. 0. 0. 0. 0. 0. 0.
      0. 0. 0. 0. 0. 0. 0. 0. 0. 0. 0. 0. 0. 0. 0. 0. 0. 0. 0. 0.
      8.00000038e-03 0. 0. 0. 0. 2.40000002e-02 0. 0. 0. 0. 0. 0. 0.
      8.00000038e-03 0. 0. 0. 0. 0. 0. 0. 0. 0. 8.00000038e-03 0. 0. 0.
      0. 0. 0. 0. 0. 0. 0. 0. 1.60000008e-02 1.60000008e-02 0. 0. 0. 0.
      0. 0. 0. 0. 0. 0. 0. 0. 0. 8.00000038e-03 8.00000038e-03 0. 0. 0.
      0. 0. 2.40000002e-02 0. 0. 0. 0. 0. 0. 1.60000008e-02 0. 0. 0. 0.
      0. 0. 8.00000038e-03 0. 0. 0. 0. 0. 0. 8.00000038e-03 0. 0. 0. 0.
      0. 0. 0. 0. 0. 0. 8.00000038e-03 0. 0. 0. 0. 0. 0. 0. 0. 0. 0. 0.
      0. 0. 0. 0. 0. 0. 0. 0. 0. 0. 8.00000038e-03 0. 0. 0.
      8.00000038e-03 0. 0. 0. 0. 0. 0. 0. 0. 8.00000038e-03 0. 0. 0. 0.
      0. 0. 0. 0. 0. 0. 0. 8.00000038e-03 0. 0. 0. 0. 0. 0. 0. 0. 0. 0.
      0. 0. 0. 0. 0. 0. 0. 0. 0. 0. 0. 0. 0. 0. 0. 0. 0. 0. 0. 0. 0. 0.
      0. 0. 0. 0. 0. 0. 0. 0. 0. 0. 0. 0. 0. 0. 0. 0. 0. 0. 0. 0. 0. 0.
      0. 0. 0. 0. 0. 0. 0. 0. 0. 0. 0. 0. 0. 0. 0. 0. 0. 0. 0. 0. 0. 0.
      0. 8.00000038e-03 8.00000038e-03 0. 0. 0. 0. 0. 0. 0. 0. 0. 0. 0.
      0. 0. 0. 0. 0. 0. 0. 0. 0. 0. 0. 0. 8.00000038e-03 0. 0. 0. 0. 0.
      0. 0. 0. 0. 0. 0. 0. 0. 0. 8.00000038e-03 0. 1.60000008e-02 0. 0.
      0. 0. 0. 0. 0. 0. 0. 1.60000008e-02 0. 0. 8.00000038e-03 0. 0. 0.
      0. 0. 0. 0. 0. 0. 0. 0. 8.00000038e-03 0. 0. 0. 8.80000070e-02 0.
      0. 0. 0. 0. 0. 0. 8.00000038e-03 0. 0. 0. 0. 0. 0. 0.
      8.00000038e-03 0. 0. 0. 0. 0. 0. 0. 0. 0. 0. 0. 0. 0. 0. 0. 0. 0.
      0. 0. 8.00000038e-03 0. 0. 0. 0. 0. 8.00000038e-03 0. 0. 0. 0. 0.
      0. 0. 0. 0. 0. 0. 0. 0. 8.00000038e-03 0. 0. 7.20000044e-02 0. 0.
      0. 0. 0. 0. 0. 0. 0. 8.00000038e-03 0. 0. 0. 0. 0. 0. 0. 0. 0. 0.
      0. 0. 0. 0. 0. 0. 0. 0. 0. 0. 0. 0. 0. 0. 0. 0. 0. 0. 0. 0. 0. 0.
      0. 0. 0. 0. 8.00000038e-03 0. 0. 0. 0. 0. 0. 0. 0. 0. 0.
      8.00000038e-03 0. 0. 0. 0. 0. 0. 0. 8.00000038e-03 0. 0. 0. 0. 0.
      0. 8.00000038e-03 0. 0. 0. 1.60000008e-02 0. 0. 0. 0. 0. 0. 0. 0.
      0. 0. 0. 1.60000008e-02 0. 0. 0. 0. 0. 0. 8.00000038e-03 0. 0. 0.
      0. 0. 1.60000008e-02 0. 0. 0. 0. 0. 0. 0. 0. 0. 0. 0. 0. 0. 0. 0.
      0. 8.00000038e-03 0. 0. 0. 0. 0. 0. 0. 0. 0. 0. 8.00000038e-03 0.
      0. 0. 0. 0. 0. 0. 0. 0. 0. 0. 8.00000038e-03 0. 0. 0. 0. 0.
      8.00000038e-03 0. 0. 1.60000008e-02 0. 0. 0. 0. 0. 0. 0. 0. 0.
      8.00000038e-03 0. 0. 0. 0. 0. 0. 0. 0. 0. 0. 0. 0. 0. 0. 0. 0. 0.
      0. 0. 0. 0. 0. 0. 0. 0. 0. 0. 0. 0. 0. 0. 0. 0. 1.60000008e-02 0.
      8.00000038e-03 0. 0. 8.00000038e-03 0. 0. 0. 0. 0. 0. 0. 0. 0. 0.
      0. 0. 0. 0. 0. 0. 0. 0. 0. 0. 0. 0. 0. 0. 0. 0. 8.00000038e-03 0.
      0. 0. 0. 0. 0. 0. 0. 0. 0. 0. 0. 0. 0. 0. 0. 0. 0. 0. 0. 0. 0. 0.
      0. 0. 0. 0. 0. 0. 0. 0. 0. 0. 0. 0. 0. 0. 0. 0. 0. 0.
      8.00000038e-03 0. 0. 0. 0. 0. 0. 0. 0. 0. 0. 0. 0. 1.60000008e-02
      0. 0. 0. 0. 0. 0. 0. 0. 0. 0. 0. 0. 0. 0. 0. 0. 0. 0.
      3.20000015e-02 8.00000038e-03 0. 0. 0. 0. 0. 0. 0. 0. 0. 0. 0. 0.
      0. 0. 0. 0. 0. 0. 0. 0. 0. 0. 0. 0. 0. 0. 0. 0. 0. 0. 0. 0. 0. 0.
      0. 0. 2.40000002e-02 0. 0. 0. 0. 0. 0. 0. 0. 0. 0. 0. 0. 0. 0. 0.
      0. 0. 0. 0. 0. 0. 0. 0. 0. 0. 0. 0. 0. 8.00000038e-03 0. 0. 0. 0.
      0. 0. 1.60000008e-02 0. 0. 0. 0. 0. 0. 0. 0. 0. 0. 0. 0. 0.
      1.60000008e-02 8.00000038e-03 8.00000038e-03 0. 0. 0. 0. 0. 0.
      8.00000038e-03 0. 8.00000038e-03 0. 0. 0. 0. 0. 0. 0. 0. 0. 0. 0.
      0. 0. 0. 0. 0. 0. 0. 0. 0. 0. 0. 0. 0. 0. 0. 0. 0. 0. 0.
      8.00000038e-03 0. 8.00000038e-03 0.</_>
    <_>
      0. 0. 0. 0. 0. 0. 7.49063678e-03 0. 0. 7.49063678e-03 0.
      3.74531839e-03 0. 0. 2.24719103e-02 0. 0. 0. 0. 0. 0. 0. 0. 0. 0.
      3.74531839e-03 0. 0. 0. 3.74531839e-03 0. 0. 0. 0. 0. 0. 0. 0. 0.
      7.49063678e-03 0. 1.12359552e-02 0. 7.49063678e-03 0. 0. 0.
      1.87265910e-02 3.74531839e-03 0. 0. 0. 0. 0. 0. 0. 0. 0. 0. 0. 0.
      0. 0. 3.74531839e-03 0. 3.74531839e-03 0. 2.99625471e-02 0. 0. 0.
      0. 0. 0. 0. 7.49063678e-03 0. 3.74531839e-03 0. 3.74531839e-03 0.
      0. 0. 0. 0. 0. 0. 0. 0. 0. 0. 0. 0. 3.74531839e-03 0. 0. 0.
      3.74531839e-03 1.49812736e-02 0. 0. 0. 0. 0. 0. 0. 0. 0. 0. 0. 0.
      0. 0. 0. 0. 0. 0. 0. 3.74531839e-03 0. 0. 0. 0. 0. 0. 0. 0. 0. 0.
      0. 0. 0. 0. 0. 2.24719103e-02 0. 3.74531839e-03 0. 3.74531839e-03
      3.74531839e-03 3.74531839e-03 0. 0. 0. 0. 0. 0. 0. 0. 0. 0. 0. 0.
      0. 0. 0. 0. 0. 0. 0. 0. 3.74531839e-03 0. 0. 0. 0. 0. 0. 0. 0. 0.
      0. 0. 3.74531839e-03 0. 0. 0. 0. 0. 0. 0. 0. 0. 0. 0. 0. 0. 0. 0.
      0. 0. 0. 0. 0. 3.74531839e-03 0. 0. 0. 0. 0. 3.74531839e-03
      7.49063678e-03 3.74531839e-03 0. 3.74531839e-03 0. 0.
      3.74531839e-03 0. 0. 3.74531839e-03 0. 0. 3.74531839e-03 0. 0. 0.
      7.49063678e-03 0. 0. 0. 3.74531839e-03 0. 0. 3.74531839e-03 0. 0.
      0. 0. 3.74531839e-03 0. 0. 0. 0. 0. 0. 0. 3.74531839e-03 0. 0. 0.
      7.49063678e-03 0. 3.74531839e-03 0. 3.74531839e-03 3.74531839e-03
      0. 0. 3.74531839e-03 0. 0. 0. 0. 0. 0. 0. 3.74531839e-03 0.
      3.74531839e-03 1.12359552e-02 0. 0. 0. 7.49063678e-03 0.
      1.12359552e-02 0. 0. 0. 0. 7.49063678e-03 2.24719103e-02 0.
      3.74531839e-03 0. 0. 0. 0. 0. 0. 3.74531839e-03 0. 3.74531839e-03
      0. 0. 7.49063678e-03 0. 0. 0. 0. 3.74531839e-03 0. 0. 0. 0. 0. 0.
      0. 0. 0. 0. 0. 0. 0. 0. 0. 0. 0. 0. 0. 0. 0. 0. 3.37078646e-02
      3.74531839e-03 0. 0. 0. 0. 0. 0. 0. 0. 0. 0. 0. 0. 3.74531839e-03
      0. 3.74531839e-03 0. 0. 0. 0. 0. 0. 0. 0. 0. 0. 0. 0. 0. 0. 0. 0.
      0. 0. 0. 0. 0. 0. 0. 0. 0. 0. 1.12359552e-02 3.74531839e-03 0. 0.
      0. 0. 0. 0. 0. 0. 0. 0. 0. 0. 0. 3.74531839e-03 0. 0. 0. 0. 0. 0.
      0. 0. 0. 0. 0. 0. 0. 1.12359552e-02 0. 3.74531839e-03 0. 0. 0.
      3.74531839e-03 0. 0. 0. 0. 0. 4.86891381e-02 0. 0. 0. 0.
      1.12359552e-02 0. 0. 0. 1.12359552e-02 0. 0. 0. 0. 0. 0.
      1.49812736e-02 0. 0. 3.74531839e-03 0. 0. 3.74531839e-03 0. 0. 0.
      0. 3.74531839e-03 3.74531839e-03 0. 3.74531839e-03 3.74531839e-03
      0. 0. 0. 0. 0. 0. 0. 7.49063678e-03 3.74531839e-03 0. 0.
      3.74531839e-03 0. 3.74531839e-03 0. 0. 0. 0. 0. 0. 0. 0. 0. 0. 0.
      0. 3.74531839e-03 0. 0. 0. 0. 3.74531839e-03 0. 0. 0. 0. 0. 0. 0.
      0. 7.49063678e-03 0. 0. 0. 0. 0. 0. 0. 0. 0. 0. 0. 0. 0. 0. 0. 0.
      0. 0. 0. 0. 3.74531839e-03 0. 0. 1.87265910e-02 0. 0. 0. 0.
      3.74531839e-03 0. 0. 7.49063678e-03 0. 7.49063678e-03 0.
      7.49063678e-03 3.74531839e-03 0. 0. 1.12359552e-02 0. 0. 0. 0. 0.
      0. 0. 3.74531839e-03 0. 0. 0. 3.74531839e-03 0. 0. 0. 0. 0. 0. 0.
      0. 0. 0. 0. 7.49063678e-03 0. 0. 0. 0. 0. 0. 0. 0. 0. 0.
      3.74531839e-03 0. 0. 0. 3.74531839e-03 0. 0. 0. 0. 0. 0.
      1.12359552e-02 3.74531839e-03 0. 0. 0. 0. 0. 0. 0. 0. 0. 0.
      3.74531839e-03 0. 3.74531839e-03 0. 0. 0. 0. 0. 7.49063678e-03 0.
      3.74531839e-03 0. 0. 0. 0. 0. 0. 0. 0. 0. 0. 0. 0. 0. 0. 0. 0. 0.
      0. 0. 0. 0. 0. 0. 0. 3.74531839e-03 3.74531839e-03 0. 0. 0. 0. 0.
      3.74531839e-03 0. 0. 0. 0. 0. 0. 0. 0. 0. 0. 0. 0. 0. 0. 0. 0. 0.
      0. 0. 0. 0. 0. 0. 0. 3.74531839e-03 0. 0. 0. 3.74531839e-03 0. 0.
      0. 0. 0. 0. 3.74531839e-03 7.49063678e-03 0. 0. 0. 0. 0. 0. 0. 0.
      3.74531839e-03 0. 3.74531839e-03 0. 0. 0. 0. 0. 0. 0. 0. 0. 0. 0.
      3.74531839e-03 0. 0. 0. 3.74531839e-03 0. 3.74531839e-03
      7.49063678e-03 0. 0. 3.74531839e-03 0. 0. 0. 0. 0. 0. 0.
      3.74531839e-03 0. 0. 0. 7.49063678e-03 0. 0. 0. 0. 0.
      3.74531839e-03 0. 0. 0. 0. 0. 0. 0. 0. 0. 0. 0. 0. 0.
      3.74531839e-03 0. 0. 0. 0. 0. 1.12359552e-02 0. 0. 3.74531839e-03
      0. 0. 0. 0. 0. 3.74531839e-03 3.74531839e-03 0. 0. 3.74531839e-03
      0. 0. 0. 0. 0. 0. 0. 0. 0. 0. 0. 0. 0. 0. 0. 0. 0. 0. 0.
      3.74531839e-03 0. 0. 0. 0. 3.74531839e-03 0. 0. 0. 0. 0. 0. 0. 0.
      0. 0. 3.74531839e-03 0. 0. 0. 0. 0. 0. 0. 0. 0. 0. 0. 0. 0. 0. 0.
      0. 0. 7.49063678e-03 0. 3.74531839e-03 0. 0. 0. 0. 0. 0. 0. 0. 0.
      0. 0. 0. 3.74531839e-03 0. 0. 0. 0. 0. 0. 0. 0. 0. 7.49063678e-03
      0. 0. 0. 0. 0. 0. 0. 0. 0. 0. 0. 0. 0. 3.74531839e-03 0. 0. 0. 0.
      0. 0. 0. 0. 0. 0. 0. 0. 0. 0. 0. 0. 0. 3.74531839e-03 0. 0. 0. 0.
      0. 0. 0. 0. 0. 0. 3.74531839e-03 0. 0. 0. 0. 0. 0. 0. 0.
      3.74531839e-03 7.49063678e-03 0. 0. 0. 0. 0. 0. 0. 0. 0. 0. 0. 0.
      0. 0. 0. 0. 0. 0. 0. 0. 0. 7.49063678e-03 0. 0. 0. 0. 0. 0. 0. 0.
      0. 0. 0. 0. 0. 0. 0. 0. 0. 0. 0. 0. 0. 0. 3.74531839e-03 0. 0. 0.
      0. 0. 3.74531839e-03 3.74531839e-03 0. 3.74531839e-03 0. 0. 0. 0.
      0. 0. 0. 0. 0. 0. 0. 0. 7.49063678e-03 0. 0. 0. 0. 0.
      3.74531839e-03 0. 0. 0. 0. 0. 0. 0. 0. 0. 0. 0. 0. 0. 0. 0. 0. 0.
      0. 0. 0. 0. 0. 0. 0. 0. 0. 0. 0. 0. 0. 0. 3.74531839e-03 0. 0.
      3.74531839e-03 3.74531839e-03 0. 3.74531839e-03 1.12359552e-02 0.
      0. 0. 0. 0. 0. 0. 0. 0. 0. 0. 0. 0. 0. 3.74531839e-03 0.
      3.74531839e-03 0. 0. 3.74531820e-02 0. 0. 0. 0.</_>
    <_>
      0. 5.88235306e-03 0. 0. 0. 0. 0. 0. 0. 0. 5.88235306e-03 0. 0. 0.
      0. 0. 0. 0. 0. 0. 0. 0. 0. 0. 0. 0. 0. 0. 0. 0. 0. 0. 0.
      5.88235306e-03 0. 0. 0. 0. 0. 0. 0. 5.88235306e-03 0. 0. 0. 0. 0.
      0. 0. 5.88235306e-03 0. 0. 0. 0. 0. 5.88235306e-03 0. 0. 0. 0. 0.
      0. 0. 1.17647061e-02 0. 0. 0. 0. 0. 0. 0. 0. 0. 0. 0.
      1.76470596e-02 0. 0. 0. 1.17647061e-02 0. 5.88235306e-03 0. 0. 0.
      0. 0. 0. 0. 0. 1.17647061e-02 0. 0. 0. 0. 0. 0. 0. 0. 0. 0. 0. 0.
      0. 0. 0. 0. 0. 0. 0. 0. 0. 0. 0. 0. 5.88235306e-03 5.88235306e-03
      0. 0. 0. 0. 0. 0. 0. 0. 5.88235306e-03 0. 0. 0. 0. 0. 0. 0. 0. 0.
      0. 0. 0. 0. 0. 0. 0. 1.17647061e-02 0. 0. 0. 0. 0. 0. 0. 0. 0. 0.
      0. 5.88235306e-03 0. 0. 5.88235306e-03 5.88235306e-03 0.
      5.88235306e-03 0. 0. 5.88235306e-03 0. 0. 0. 1.17647061e-02 0. 0.
      5.88235306e-03 0. 0. 5.88235306e-03 0. 0. 5.88235306e-03 0. 0. 0.
      0. 0. 0. 0. 0. 0. 0. 0. 0. 0. 0. 0. 0. 0. 0. 0. 0. 5.88235306e-03
      0. 0. 5.88235306e-03 0. 0. 0. 0. 0. 0. 5.88235306e-03 0. 0. 0. 0.
      0. 0. 0. 0. 0. 0. 0. 4.11764719e-02 0. 0. 0. 0. 0. 0. 0. 0. 0. 0.
      0. 0. 0. 0. 0. 0. 0. 0. 5.88235306e-03 0. 0. 5.88235306e-03 0. 0.
      0. 0. 0. 0. 5.88235306e-03 0. 0. 0. 0. 0. 0. 0. 0. 0.
      5.88235306e-03 0. 5.88235306e-03 0. 0. 5.88235306e-03 0. 0. 0. 0.
      0. 5.88235306e-03 0. 5.88235306e-03 0. 0. 5.88235306e-03 0. 0. 0.
      0. 0. 0. 0. 0. 0. 1.17647061e-02 0. 0. 0. 0. 0. 0. 5.88235306e-03
      0. 0. 0. 0. 0. 0. 0. 0. 0. 0. 0. 0. 0. 0. 0. 0. 0. 0. 0.
      5.88235306e-03 5.88235306e-03 0. 0. 0. 0. 5.88235306e-03 0. 0. 0.
      0. 0. 0. 5.88235306e-03 0. 5.88235306e-03 5.88235306e-03 0. 0. 0.
      0. 0. 0. 0. 0. 0. 0. 0. 0. 0. 0. 0. 0. 0. 5.88235306e-03 0. 0. 0.
      0. 0. 0. 0. 0. 0. 0. 0. 0. 0. 0. 0. 0. 0. 0. 0. 0. 0. 0.
      5.88235306e-03 0. 0. 0. 0. 0. 0. 0. 5.88235306e-03 0.
      5.88235306e-03 0. 0. 0. 0. 0. 0. 5.88235306e-03 0. 0. 0. 0.
      5.88235306e-03 0. 0. 0. 0. 0. 5.88235306e-03 0. 0. 0. 0. 0.
      5.88235306e-03 0. 0. 0. 0. 0. 0. 0. 0. 0. 0. 5.88235306e-03 0. 0.
      0. 0. 0. 0. 0. 0. 0. 0. 0. 0. 0. 0. 0. 0. 0. 0. 0. 0.
      1.17647061e-02 0. 0. 5.88235306e-03 0. 0. 0. 0. 0. 5.88235306e-03
      0. 0. 0. 5.88235306e-03 0. 0. 0. 1.76470596e-02 0. 0. 0.
      5.88235306e-03 0. 0. 0. 0. 0. 0. 5.88235306e-03 5.88235306e-03 0.
      0. 0. 0. 0. 0. 1.76470596e-02 0. 0. 5.88235306e-03 1.76470596e-02
      0. 0. 0. 0. 0. 0. 0. 0. 0. 0. 0. 0. 0. 0. 0. 0. 0. 0. 0. 0. 0. 0.
      0. 0. 1.17647061e-02 0. 5.88235306e-03 0. 0. 0. 0. 0. 0. 0. 0.
      5.88235306e-03 0. 0. 0. 0. 0. 0. 0. 0. 0. 5.88235306e-03 0. 0. 0.
      0. 2.94117648e-02 0. 0. 0. 0. 0. 0. 0. 0. 0. 0. 0. 0. 0. 0. 0. 0.
      0. 5.88235306e-03 0. 0. 0. 0. 0. 0. 0. 0. 5.88235306e-03 0. 0. 0.
      5.88235306e-03 0. 0. 0. 0. 0. 0. 0. 0. 0. 0. 5.88235306e-03 0. 0.
      0. 0. 0. 5.88235306e-03 0. 0. 0. 0. 0. 0. 0. 0. 5.88235306e-03 0.
      0. 0. 0. 0. 0. 5.88235306e-03 0. 0. 0. 0. 0. 0. 0. 0. 0. 0. 0. 0.
      0. 5.88235306e-03 1.17647061e-02 0. 0. 0. 0. 0. 0. 0. 0. 0. 0.
      1.17647061e-02 0. 1.76470596e-02 0. 0. 0. 0. 0. 0. 0. 0. 0.
      5.88235306e-03 0. 0. 0. 0. 0. 0. 0. 0. 0. 0. 0. 0. 0. 0. 0. 0. 0.
      0. 0. 0. 0. 0. 0. 0. 0. 0. 5.88235306e-03 0. 0. 0. 0. 0. 0. 0.
      5.88235306e-03 0. 0. 0. 0. 0. 5.88235306e-03 0. 5.88235306e-03 0.
      0. 0. 0. 0. 5.88235306e-03 0. 0. 0. 0. 0. 0. 0. 0. 0.
      5.88235306e-03 0. 0. 0. 0. 0. 0. 0. 0. 0. 0. 5.88235306e-03 0. 0.
      0. 0. 5.88235306e-03 0. 0. 0. 0. 0. 0. 0. 0. 0. 0. 0. 0. 0. 0. 0.
      0. 0. 0. 5.88235306e-03 0. 0. 0. 5.88235306e-03 0. 0. 0. 0. 0. 0.
      0. 0. 0. 0. 0. 0. 0. 0. 5.88235306e-03 0. 0. 5.88235306e-03 0. 0.
      0. 1.17647061e-02 0. 0. 0. 0. 0. 2.94117648e-02 0. 0. 0. 0. 0. 0.
      0. 5.88235306e-03 0. 0. 0. 0. 0. 0. 0. 0. 0. 0. 0. 0. 0. 0. 0. 0.
      0. 0. 0. 0. 0. 0. 0. 0. 5.88235306e-03 0. 0. 5.88235306e-03 0. 0.
      0. 0. 1.17647061e-02 0. 0. 0. 0. 0. 0. 0. 0. 0. 0. 0. 0. 0. 0. 0.
      0. 0. 0. 0. 0. 0. 0. 0. 0. 0. 0. 0. 0. 0. 0. 0. 0. 0. 0. 0. 0. 0.
      0. 0. 0. 0. 5.88235306e-03 0. 0. 0. 0. 0. 5.88235306e-03 0. 0. 0.
      0. 0. 0. 0. 0. 0. 0. 0. 0. 0. 3.52941193e-02 0. 0. 0. 0. 0. 0. 0.
      0. 0. 0. 0. 0. 0. 0. 0. 0. 0. 0. 0. 0. 0. 0. 0. 0. 5.88235306e-03
      0. 0. 0. 0. 0. 0. 0. 0. 1.17647061e-02 0. 0. 0. 0. 0. 0. 0. 0. 0.
      0. 0. 0. 0. 0. 0. 0. 0. 0. 0. 0. 0. 0. 0. 0. 0. 0. 0. 0. 0.
      1.17647061e-02 1.17647061e-02 0. 0. 0. 0. 0. 0. 0. 0. 0. 0.
      5.88235306e-03 0. 0. 0. 5.88235306e-03 0. 0. 0. 5.88235306e-03
      5.88235306e-03 0. 0. 0. 5.88235306e-03 2.35294122e-02 0.
      5.88235306e-03 0. 0. 0. 5.88235306e-03 0. 0. 0. 0. 0. 0.
      5.88235306e-03 0. 0. 0. 0. 0. 0. 0. 0. 0. 0. 0. 0. 5.88235306e-03
      0. 0. 5.88235306e-03 0. 0. 0. 0. 0. 0. 0. 0. 0. 0. 0.
      5.88235306e-03 0. 0. 0. 5.88235306e-03 5.88235306e-03 0. 0. 0. 0.
      0. 0. 1.17647061e-02</_>
    <_>
      0. 0. 0. 0. 0. 0. 0. 0. 0. 0. 0. 0. 0. 0. 0. 0. 0. 0. 0. 0. 0. 0.
      0. 0. 0. 0. 0. 0. 0. 0. 0. 0. 0. 0. 0. 0. 0. 0. 0. 0. 0. 0. 0. 0.
      0. 0. 0. 0. 0. 1.25000000e-01 0. 0. 0. 0. 0. 0. 0. 0. 0. 0. 0. 0.
      0. 0. 0. 0. 0. 0. 0. 0. 0. 0. 0. 0. 0. 0. 0. 0. 0. 0. 0. 0. 0. 0.
      0. 0. 0. 0. 0. 0. 0. 0. 0. 0. 0. 0. 0. 0. 0. 0. 0. 0. 0. 0. 0. 0.
      0. 0. 0. 0. 0. 0. 0. 0. 0. 0. 0. 0. 0. 0. 0. 0. 0. 0. 0. 0. 0. 0.
      0. 0. 0. 0. 0. 0. 0. 0. 0. 0. 0. 0. 0. 0. 0. 0. 0. 0. 0. 0. 0. 0.
      0. 0. 0. 0. 0. 0. 0. 0. 0. 0. 0. 0. 0. 0. 0. 0. 0. 0. 0. 0. 0. 0.
      0. 0. 0. 0. 0. 0. 0. 0. 0. 0. 0. 0. 0. 0. 0. 0. 0. 0. 0. 0. 0. 0.
      3.75000000e-01 0. 0. 0. 0. 0. 0. 0. 0. 0. 0. 0. 0. 0. 0. 0. 0. 0.
      0. 0. 0. 0. 0. 0. 0. 0. 0. 0. 0. 0. 0. 0. 0. 0. 0. 0. 0. 0. 0. 0.
      0. 0. 0. 0. 0. 0. 0. 0. 0. 0. 0. 0. 0. 0. 0. 0. 0. 0. 0. 0. 0. 0.
      0. 0. 0. 0. 0. 0. 0. 0. 0. 0. 0. 0. 0. 0. 0. 0. 0. 0. 0. 0. 0. 0.
      0. 0. 0. 0. 0. 0. 0. 0. 0. 0. 0. 0. 0. 0. 0. 0. 0. 0. 0. 0. 0. 0.
      0. 0. 0. 0. 0. 0. 0. 0. 0. 0. 0. 0. 0. 0. 0. 0. 0. 0. 0. 0. 0. 0.
      0. 0. 0. 0. 0. 0. 0. 0. 0. 0. 0. 0. 0. 0. 0. 0. 0. 0. 0. 0. 0. 0.
      0. 0. 0. 0. 0. 0. 0. 0. 0. 0. 0. 0. 0. 0. 0. 0. 0. 0. 0. 0. 0. 0.
      0. 0. 0. 0. 0. 0. 0. 0. 0. 0. 0. 0. 0. 0. 0. 0. 0. 0. 0. 0. 0. 0.
      0. 0. 0. 0. 0. 0. 0. 0. 0. 0. 0. 0. 0. 0. 0. 0. 0. 0. 0. 0. 0. 0.
      0. 0. 0. 0. 0. 0. 0. 0. 0. 0. 0. 0. 0. 0. 0. 0. 0. 0. 0. 0. 0. 0.
      0. 0. 0. 0. 0. 0. 0. 0. 0. 0. 0. 0. 0. 0. 0. 0. 0. 0. 0. 0. 0. 0.
      0. 0. 0. 0. 0. 0. 0. 0. 0. 0. 0. 0. 0. 0. 0. 0. 0. 0. 0. 0. 0. 0.
      0. 0. 0. 0. 0. 0. 0. 0. 0. 0. 0. 0. 0. 0. 0. 0. 0. 0. 0. 0. 0. 0.
      0. 0. 0. 1.25000000e-01 0. 0. 0. 0. 0. 0. 0. 0. 0. 0. 0. 0. 0. 0.
      0. 0. 0. 0. 0. 1.25000000e-01 0. 0. 0. 0. 0. 0. 0. 0. 0. 0. 0. 0.
      0. 0. 0. 0. 0. 0. 0. 0. 0. 0. 0. 0. 0. 0. 0. 0. 0. 0. 0. 0. 0. 0.
      0. 0. 0. 0. 0. 0. 0. 0. 0. 0. 0. 0. 0. 0. 0. 0. 0. 0. 0. 0. 0. 0.
      0. 0. 0. 0. 0. 0. 0. 0. 0. 0. 0. 0. 0. 0. 0. 0. 0. 0. 0. 0. 0. 0.
      0. 0. 0. 0. 0. 0. 0. 0. 0. 0. 0. 0. 0. 0. 0. 0. 0. 0. 0. 0. 0. 0.
      0. 0. 0. 0. 0. 0. 0. 0. 0. 0. 0. 0. 0. 0. 0. 0. 0. 0. 0. 0. 0. 0.
      0. 0. 0. 0. 0. 0. 0. 0. 0. 0. 0. 0. 0. 0. 0. 0. 0. 0. 0. 0. 0. 0.
      0. 0. 0. 0. 0. 0. 0. 0. 0. 0. 0. 0. 0. 0. 0. 0. 0. 0. 0. 0. 0. 0.
      0. 0. 0. 0. 0. 0. 0. 0. 0. 0. 0. 0. 0. 0. 0. 0. 0. 0. 0. 0. 0. 0.
      0. 0. 0. 0. 0. 0. 0. 0. 0. 0. 0. 0. 0. 0. 0. 0. 0. 0. 0. 0. 0. 0.
      0. 0. 0. 0. 0. 1.25000000e-01 0. 0. 0. 0. 0. 0. 0. 0. 0. 0. 0. 0.
      0. 0. 0. 0. 0. 0. 0. 0. 0. 0. 0. 0. 0. 0. 0. 0. 0. 0. 0. 0. 0. 0.
      0. 0. 0. 0. 0. 0. 0. 0. 0. 0. 0. 0. 0. 0. 0. 0. 0. 0. 0. 0. 0. 0.
      0. 0. 0. 0. 0. 0. 0. 0. 0. 0. 0. 0. 0. 0. 0. 0. 0. 0. 0. 0. 0. 0.
      0. 0. 0. 0. 0. 0. 0. 0. 0. 0. 0. 0. 0. 0. 0. 0. 0. 0. 0. 0. 0. 0.
      0. 0. 0. 0. 0. 0. 0. 0. 0. 0. 0. 0. 0. 0. 0. 0. 0. 0. 0. 0. 0. 0.
      0. 0. 0. 0. 0. 0. 0. 0. 0. 0. 0. 0. 0. 0. 0. 1.25000000e-01 0. 0.
      0. 0. 0. 0. 0. 0. 0. 0. 0. 0. 0. 0. 0. 0. 0. 0. 0. 0. 0. 0. 0. 0.
      0. 0. 0. 0. 0. 0. 0. 0. 0. 0. 0. 0. 0. 0. 0. 0. 0. 0. 0. 0. 0. 0.
      0. 0. 0. 0. 0. 0. 0. 0. 0. 0. 0. 0. 0. 0. 0. 0. 0. 0. 0. 0. 0. 0.
      0. 0. 0. 0. 0. 0. 0. 0. 0. 0. 0. 0. 0. 0. 0. 0. 0. 0. 0. 0. 0. 0.
      0. 0. 0. 0. 0. 0. 0. 0. 0. 0. 0. 0. 0. 0. 0. 0. 0. 0. 0. 0. 0. 0.
      0. 0. 0. 0. 0. 0. 0. 0. 0. 0. 0. 0.</_>
    <_>
      0. 0. 0. 0. 0. 0. 0. 0. 0. 0. 1.20481923e-02 0. 0. 0. 0. 0. 0. 0.
      0. 0. 0. 0. 0. 0. 0. 0. 0. 0. 0. 0. 0. 0. 0. 0. 0. 0. 0. 0. 0. 0.
      0. 0. 0. 0. 0. 0. 0. 0. 0. 0. 0. 0. 0. 0. 0. 0. 0. 0.
      1.20481923e-02 0. 0. 0. 0. 0. 0. 0. 0. 0. 0. 0. 0. 0. 0. 0. 0. 0.
      0. 0. 0. 0. 0. 1.20481923e-02 0. 0. 0. 0. 0. 0. 0. 0. 0. 0. 0. 0.
      0. 0. 0. 0. 0. 0. 0. 0. 0. 0. 0. 0. 0. 1.20481923e-02 0. 0. 0. 0.
      0. 0. 1.20481923e-02 0. 0. 0. 0. 0. 0. 0. 0. 0. 0. 1.20481923e-02
      0. 0. 0. 0. 1.20481923e-02 0. 0. 0. 2.40963846e-02 0. 0. 0. 0. 0.
      0. 0. 0. 0. 0. 0. 0. 0. 0. 0. 0. 0. 0. 0. 0. 0. 0. 0. 0. 0. 0. 0.
      1.20481923e-02 1.20481923e-02 0. 0. 0. 0. 0. 0. 0. 0. 0. 0. 0. 0.
      1.20481923e-02 0. 0. 0. 0. 0. 0. 0. 0. 0. 0. 0. 0. 0. 0. 0. 0. 0.
      0. 0. 0. 0. 1.20481923e-02 0. 0. 0. 0. 0. 0. 0. 0. 0. 0. 0. 0. 0.
      0. 0. 0. 0. 0. 0. 0. 0. 0. 0. 0. 0. 0. 0. 0. 0. 0. 0. 0. 0. 0. 0.
      0. 0. 0. 0. 0. 1.20481923e-02 0. 0. 0. 0. 0. 0. 0. 1.20481923e-02
      0. 0. 0. 0. 0. 1.20481923e-02 0. 0. 0. 0. 0. 0. 0. 0. 0. 0. 0. 0.
      0. 1.20481923e-02 0. 0. 2.40963846e-02 0. 0. 0. 0. 1.20481923e-02
      1.20481923e-02 0. 0. 0. 0. 0. 0. 0. 0. 0. 0. 0. 0. 0. 0. 0. 0. 0.
      0. 0. 0. 0. 0. 0. 0. 0. 0. 0. 0. 0. 0. 0. 0. 0. 0. 1.20481923e-02
      0. 1.20481923e-02 0. 0. 0. 1.20481923e-02 0. 0. 0. 1.20481923e-02
      0. 0. 0. 0. 0. 0. 0. 0. 0. 0. 0. 0. 0. 0. 0. 0. 0. 0. 0. 0.
      1.20481923e-02 0. 0. 0. 1.20481923e-02 0. 0. 1.20481923e-02
      1.20481923e-02 0. 0. 0. 0. 0. 0. 0. 2.40963846e-02 0. 0. 0. 0. 0.
      0. 0. 0. 0. 0. 1.20481923e-02 0. 0. 0. 0. 0. 0. 0. 0. 0.
      2.40963846e-02 0. 0. 0. 0. 0. 0. 0. 1.20481923e-02 0. 0. 0. 0. 0.
      0. 0. 0. 0. 1.20481923e-02 0. 0. 0. 0. 0. 0. 0. 0. 0. 0. 0. 0. 0.
      0. 0. 0. 0. 0. 0. 0. 0. 0. 0. 0. 0. 1.20481923e-02 0. 0. 0. 0. 0.
      0. 0. 0. 0. 1.20481923e-02 0. 0. 0. 0. 0. 0. 0. 0. 0. 0. 0. 0. 0.
      0. 0. 0. 0. 0. 0. 0. 0. 0. 0. 0. 0. 0. 0. 0. 0. 0. 0. 0. 0. 0. 0.
      0. 0. 0. 0. 0. 0. 0. 0. 0. 1.20481923e-02 0. 0. 0. 0. 0. 0. 0. 0.
      0. 1.20481923e-02 0. 0. 0. 0. 0. 0. 0. 0. 0. 2.40963846e-02 0. 0.
      0. 0. 0. 0. 0. 0. 0. 0. 0. 0. 3.61445770e-02 0. 0. 0. 0. 0. 0. 0.
      0. 0. 0. 0. 0. 0. 0. 0. 0. 0. 0. 0. 0. 0. 0. 0. 0. 0. 0. 0. 0. 0.
      0. 0. 0. 0. 0. 0. 0. 0. 0. 0. 0. 0. 0. 0. 0. 0. 0. 0. 0. 0. 0. 0.
      0. 0. 0. 0. 1.20481923e-02 0. 0. 0. 0. 0. 1.20481923e-02 0. 0. 0.
      0. 0. 0. 1.20481923e-02 0. 0. 0. 0. 1.20481923e-02 0. 0. 0. 0. 0.
      0. 0. 0. 0. 0. 0. 0. 0. 0. 0. 0. 0. 0. 0. 0. 0. 1.20481923e-02 0.
      0. 0. 0. 0. 0. 0. 0. 0. 0. 1.20481923e-02 0. 0. 0. 0. 0.
      1.20481923e-02 0. 0. 0. 0. 0. 0. 0. 0. 0. 0. 0. 0. 0. 0.
      1.20481923e-02 0. 0. 0. 0. 0. 0. 0. 0. 0. 0. 0. 0. 1.20481923e-02
      0. 0. 0. 0. 0. 0. 0. 0. 0. 0. 0. 0. 0. 0. 0. 0. 0. 0. 0. 0. 0. 0.
      0. 0. 0. 0. 0. 0. 0. 0. 0. 0. 0. 0. 0. 0. 0. 0. 0. 0.
      1.20481923e-02 0. 0. 1.20481923e-02 0. 0. 0. 0. 0. 0. 0. 0. 0. 0.
      0. 0. 0. 0. 0. 0. 0. 0. 0. 0. 0. 0. 1.20481923e-02 0. 0. 0. 0. 0.
      0. 0. 0. 0. 0. 0. 0. 0. 0. 0. 0. 0. 0. 0. 0. 0. 0. 0. 0.
      1.20481923e-02 0. 0. 0. 1.20481923e-02 0. 0. 0. 0. 0. 0. 0. 0. 0.
      0. 0. 0. 1.20481923e-02 0. 0. 0. 0. 0. 0. 0. 0. 0. 0. 0. 0. 0. 0.
      0. 0. 0. 0. 0. 0. 0. 0. 0. 0. 0. 0. 0. 0. 1.20481923e-02 0.
      1.20481923e-02 0. 0. 0. 0. 0. 0. 0. 0. 0. 0. 0. 1.20481923e-02 0.
      0. 0. 0. 0. 0. 0. 0. 0. 0. 1.20481923e-02 1.20481923e-02 0. 0. 0.
      0. 0. 0. 0. 0. 0. 0. 0. 0. 0. 0. 0. 0. 0. 0. 0. 0. 0. 0. 0.
      1.20481923e-02 0. 0. 0. 0. 0. 0. 0. 0. 0. 0. 0. 0. 2.40963846e-02
      0. 0. 0. 0. 0. 0. 0. 0. 0. 0. 0. 0. 0. 0. 0. 1.20481923e-02 0. 0.
      0. 0. 0. 0. 0. 0. 0. 0. 0. 0. 0. 0. 0. 0. 0. 0. 0. 0. 0. 0. 0. 0.
      0. 0. 0. 0. 0. 0. 0. 1.20481923e-02 0. 0. 0. 0. 0. 1.20481923e-02
      0. 1.20481923e-02 0. 0. 0. 0. 0. 0. 0. 0. 0. 0. 0. 0. 0. 0. 0. 0.
      0. 0. 0. 0. 0. 0. 0. 0. 0. 1.20481923e-02 0. 0. 1.20481923e-02 0.
      0. 0. 0. 0. 0. 0. 0. 0. 0. 1.20481923e-02 0. 0. 0. 0. 0.
      1.20481923e-02 1.20481923e-02 0. 0. 1.20481923e-02 0. 0. 0. 0. 0.
      0. 0. 0. 0. 0. 0. 0. 0. 0. 1.20481923e-02 0. 0. 0. 0. 0. 0.
      2.40963846e-02 0. 0. 0. 0. 0. 0. 0. 0. 0. 1.20481923e-02 0. 0.
      1.20481923e-02 0. 0. 0. 0. 0.</_>
    <_>
      0. 0. 0. 0. 0. 1.13636367e-02 0. 0. 1.13636367e-02 0. 0. 0. 0. 0.
      0. 0. 0. 0. 0. 0. 0. 0. 0. 0. 0. 0. 0. 0. 0. 0. 0. 0. 0.
      1.13636367e-02 0. 0. 0. 0. 0. 0. 0. 0. 0. 0. 0. 0. 0. 0. 0. 0. 0.
      0. 0. 0. 0. 0. 0. 1.13636367e-02 0. 0. 0. 0. 1.13636367e-02 0. 0.
      0. 0. 0. 0. 0. 1.13636367e-02 0. 0. 0. 0. 0. 0. 0. 0. 0. 0. 0. 0.
      0. 4.54545468e-02 0. 0. 0. 0. 0. 0. 0. 0. 0. 0. 0. 0. 0. 0. 0. 0.
      0. 0. 0. 0. 0. 0. 0. 0. 0. 0. 0. 0. 0. 0. 0. 0. 0. 0. 0. 0. 0. 0.
      0. 0. 0. 0. 0. 0. 0. 1.13636367e-02 0. 0. 0. 0. 0. 0. 0. 0. 0. 0.
      0. 1.13636367e-02 0. 1.13636367e-02 0. 0. 0. 0. 0. 0. 0.
      3.40909101e-02 0. 0. 0. 0. 0. 0. 0. 0. 0. 0. 0. 0. 0. 0. 0. 0. 0.
      0. 0. 0. 0. 0. 0. 0. 0. 0. 0. 0. 0. 0. 0. 0. 0. 0. 0. 0. 0. 0. 0.
      0. 0. 0. 0. 1.13636367e-02 1.13636367e-02 0. 0. 0. 0. 0. 0. 0. 0.
      0. 0. 0. 0. 0. 0. 0. 0. 0. 0. 0. 0. 0. 6.81818202e-02 0. 0. 0. 0.
      0. 0. 0. 0. 0. 0. 0. 0. 0. 0. 0. 0. 1.13636367e-02 0. 0. 0. 0. 0.
      0. 0. 0. 0. 0. 0. 0. 0. 0. 0. 0. 0. 0. 0. 0. 0. 0. 0. 0.
      1.13636367e-02 0. 0. 0. 0. 0. 0. 0. 0. 1.13636367e-02
      1.13636367e-02 0. 0. 0. 0. 0. 0. 0. 0. 0. 0. 0. 0. 0. 0. 0. 0. 0.
      0. 0. 0. 0. 0. 0. 0. 0. 0. 0. 0. 0. 0. 0. 0. 0. 0. 0. 0. 0. 0. 0.
      0. 0. 0. 0. 0. 2.27272734e-02 0. 0. 0. 0. 0. 0. 0. 0. 0. 0. 0. 0.
      0. 0. 0. 0. 0. 0. 0. 0. 0. 0. 0. 0. 0. 0. 0. 0. 0. 0. 0. 0. 0. 0.
      0. 0. 0. 0. 0. 0. 0. 0. 0. 0. 0. 1.13636367e-02 0. 0. 0. 0. 0. 0.
      0. 0. 0. 0. 0. 0. 0. 1.13636367e-02 0. 0. 1.13636367e-02 0. 0. 0.
      0. 0. 0. 0. 0. 0. 0. 1.13636367e-02 0. 0. 0. 0. 0. 0. 0. 0. 0. 0.
      0. 1.13636367e-02 0. 0. 0. 0. 0. 0. 0. 0. 0. 0. 0. 0. 0. 0. 0. 0.
      0. 0. 0. 0. 0. 0. 0. 0. 0. 0. 0. 0. 0. 0. 0. 1.13636367e-02 0. 0.
      0. 0. 0. 0. 0. 0. 0. 0. 1.13636367e-02 0. 0. 0. 0. 0.
      7.95454532e-02 0. 0. 0. 0. 0. 0. 0. 0. 0. 0. 0. 0. 0. 0. 0.
      1.13636367e-02 0. 0. 0. 0. 0. 0. 0. 1.13636367e-02 0. 0. 0. 0. 0.
      0. 0. 0. 0. 0. 0. 0. 0. 0. 0. 0. 0. 0. 0. 1.13636367e-02
      1.13636367e-02 0. 0. 0. 1.13636367e-02 0. 0. 0. 0. 0. 0. 0. 0. 0.
      0. 0. 0. 0. 0. 0. 0. 0. 0. 0. 0. 0. 0. 0. 0. 0. 0. 0. 0. 0. 0. 0.
      0. 0. 0. 0. 0. 0. 0. 0. 0. 0. 0. 0. 0. 0. 1.13636367e-02 0. 0. 0.
      0. 0. 0. 0. 0. 0. 1.13636367e-02 1.13636367e-02 0. 0. 0. 0. 0. 0.
      0. 0. 0. 0. 0. 0. 1.13636367e-02 0. 0. 0. 0. 0. 0. 0.
      4.54545468e-02 0. 0. 0. 2.27272734e-02 0. 0. 0. 0. 0. 0. 0. 0. 0.
      0. 1.13636367e-02 0. 0. 0. 0. 0. 1.13636367e-02 0. 0. 0. 0. 0. 0.
      0. 0. 0. 0. 0. 0. 2.27272734e-02 0. 1.13636367e-02 0. 0.
      1.13636367e-02 0. 0. 0. 0. 0. 0. 0. 0. 0. 1.13636367e-02 0. 0. 0.
      0. 0. 0. 0. 0. 0. 0. 0. 0. 0. 0. 0. 0. 0. 0. 0. 0. 0. 0. 0. 0. 0.
      0. 0. 0. 0. 0. 0. 0. 0. 0. 0. 0. 0. 0. 0. 0. 0. 0. 0. 0. 0. 0. 0.
      0. 0. 0. 0. 1.13636367e-02 0. 0. 0. 0. 0. 0. 0. 0. 0. 0. 0. 0. 0.
      0. 2.27272734e-02 0. 0. 0. 0. 0. 0. 1.13636367e-02 0. 0. 0. 0. 0.
      0. 0. 1.13636367e-02 0. 0. 0. 0. 0. 0. 0. 0. 0. 0. 0. 0. 0. 0. 0.
      0. 0. 0. 0. 0. 0. 0. 0. 1.13636367e-02 0. 0. 0. 0. 0. 0. 0. 0. 0.
      0. 1.13636367e-02 0. 0. 0. 0. 0. 0. 1.13636367e-02 0. 0. 0. 0. 0.
      0. 0. 0. 0. 0. 0. 0. 0. 0. 0. 0. 0. 0. 0. 1.13636367e-02 0. 0. 0.
      0. 0. 0. 1.13636367e-02 0. 0. 0. 0. 0. 0. 0. 0. 0. 0. 0. 0. 0. 0.
      0. 0. 0. 0. 0. 0. 0. 0. 0. 0. 0. 0. 0. 0. 2.27272734e-02 0. 0. 0.
      0. 0. 0. 0. 0. 0. 0. 0. 0. 0. 0. 0. 0. 0. 0. 0. 0. 0. 0. 0. 0. 0.
      0. 0. 0. 0. 0. 0. 1.13636367e-02 0. 0. 0. 0. 0. 0. 0. 0. 0. 0. 0.
      0. 0. 0. 0. 0. 1.13636367e-02 0. 0. 0. 0. 0. 0. 0. 1.13636367e-02
      0. 0. 0. 0. 0. 0. 0. 0. 0. 0. 0. 0. 0. 0. 0. 0. 0. 0. 0. 0. 0. 0.
      0. 1.13636367e-02 0. 0. 0. 0. 0. 2.27272734e-02 0. 0. 0. 0. 0. 0.
      0. 0. 0. 0. 0. 0. 0. 0. 0. 0. 0. 0. 0. 0. 0. 0. 0. 0. 0. 0. 0.
      1.13636367e-02 0. 0. 0. 0. 0. 0. 0. 0. 0. 0. 0. 0. 0. 0. 0. 0. 0.
      0. 0. 0. 0. 0. 0. 0. 0. 0. 0. 0. 0. 0. 0. 0. 0. 1.13636367e-02
      2.27272734e-02 0. 0. 0. 0. 0. 0. 0. 0. 0. 0. 0. 0. 0. 0. 0. 0. 0.
      0. 0. 0. 0. 0. 0. 0. 0. 0. 0. 0. 0. 0. 0. 0. 0. 0. 0. 0. 0. 0. 0.
      0. 0. 0.</_>
    <_>
      0. 0. 0. 0. 0. 0. 0. 0. 0. 0. 0. 0. 0. 0. 0. 0. 0. 0. 0.
      2.70270277e-02 0. 0. 0. 0. 0. 0. 0. 0. 0. 0. 2.70270277e-02 0. 0.
      0. 0. 0. 0. 0. 0. 0. 0. 0. 0. 0. 0. 0. 0. 0. 0. 0. 0. 0. 0. 0. 0.
      0. 0. 0. 0. 0. 0. 0. 0. 0. 0. 0. 0. 0. 0. 0. 0. 2.70270277e-02 0.
      0. 0. 0. 0. 0. 0. 0. 0. 0. 0. 0. 0. 0. 0. 0. 0. 0. 2.70270277e-02
      0. 0. 2.70270277e-02 0. 0. 0. 0. 0. 0. 0. 0. 0. 0. 0. 0. 0. 0. 0.
      0. 0. 0. 0. 0. 0. 0. 0. 0. 0. 2.70270277e-02 0. 0. 0. 0.
      2.70270277e-02 0. 0. 0. 0. 2.70270277e-02 0. 0. 0. 0. 0. 0. 0. 0.
      0. 0. 0. 0. 0. 0. 0. 0. 0. 0. 0. 0. 0. 0. 0. 0. 0. 0. 0. 0. 0. 0.
      0. 0. 0. 0. 0. 0. 0. 0. 0. 0. 0. 0. 0. 0. 0. 0. 0. 0. 0. 0. 0. 0.
      0. 0. 0. 0. 0. 0. 0. 0. 0. 0. 0. 0. 0. 0. 0. 0. 0. 0. 0. 0. 0. 0.
      0. 0. 0. 0. 0. 0. 0. 0. 2.70270277e-02 0. 0. 0. 0. 0. 0.
      2.70270277e-02 0. 0. 0. 0. 0. 0. 0. 0. 0. 0. 0. 0. 0.
      5.40540554e-02 0. 0. 0. 0. 0. 0. 0. 0. 0. 0. 0. 0. 0. 0. 0. 0. 0.
      0. 0. 0. 0. 0. 0. 0. 0. 0. 0. 0. 0. 0. 0. 0. 0. 0. 0. 0. 0. 0. 0.
      0. 0. 0. 0. 0. 0. 0. 0. 0. 0. 0. 0. 0. 0. 0. 0. 0. 0. 0. 0. 0. 0.
      0. 0. 0. 0. 0. 0. 0. 0. 0. 0. 0. 0. 0. 0. 0. 0. 0. 0. 0. 0.
      1.62162170e-01 0. 0. 0. 0. 0. 0. 0. 0. 0. 0. 0. 0. 0. 0. 0. 0. 0.
      0. 0. 0. 0. 0. 0. 0. 0. 2.70270277e-02 0. 0. 0. 0. 0. 0. 0. 0. 0.
      0. 0. 0. 0. 0. 0. 0. 0. 0. 0. 0. 0. 0. 0. 0. 0. 0. 0.
