<?xml version="1.0"?>
<opencv_storage>
<my_svm type_id="opencv-ml-svm">
  <svm_type>C_SVC</svm_type>
  <kernel><type>RBF</type>
    <gamma>5.0625000000000009e-01</gamma></kernel>
  <C>6.2500000000000000e+01</C>
  <term_criteria><epsilon>1.1920928955078125e-07</epsilon>
    <iterations>50000</iterations></term_criteria>
  <var_all>1000</var_all>
  <var_count>1000</var_count>
  <class_count>2</class_count>
  <class_labels type_id="opencv-matrix">
    <rows>1</rows>
    <cols>2</cols>
    <dt>i</dt>
    <data>
      0 1</data></class_labels>
  <sv_total>230</sv_total>
  <support_vectors>
    <_>
      0. 0. 0. 1.58227852e-03 6.32911408e-03 3.16455704e-03 0. 0.
      1.10759493e-02 0. 0. 3.16455704e-03 0. 4.74683568e-03 0. 0. 0. 0.
      0. 0. 4.74683568e-03 1.58227852e-03 0. 0. 0. 0. 0. 0.
      1.58227852e-03 0. 0. 0. 0. 0. 0. 0. 1.58227852e-03 1.58227852e-03
      0. 0. 0. 0. 0. 3.16455704e-03 4.74683568e-03 0. 1.58227852e-03
      3.16455704e-03 0. 6.32911408e-03 1.58227852e-03 6.32911408e-03
      1.58227852e-03 0. 0. 4.74683568e-03 1.58227852e-03 0. 0. 0. 0.
      3.16455704e-03 0. 0. 0. 0. 0. 3.16455704e-03 1.58227850e-02
      1.58227852e-03 0. 0. 0. 3.16455704e-03 1.58227852e-03 0. 0. 0. 0.
      3.16455704e-03 0. 0. 1.58227852e-03 0. 0. 1.58227852e-03 0. 0. 0.
      0. 3.16455704e-03 1.58227852e-03 3.16455704e-03 1.58227852e-03 0.
      1.58227852e-03 1.58227852e-03 0. 1.58227852e-03 3.16455704e-03 0.
      0. 0. 0. 0. 0. 0. 1.58227852e-03 0. 0. 0. 1.58227852e-03 0.
      1.58227852e-03 4.74683568e-03 3.16455704e-03 0. 4.74683568e-03 0.
      0. 0. 0. 0. 0. 0. 0. 0. 4.74683568e-03 1.58227852e-03
      3.16455704e-03 0. 0. 0. 0. 3.16455704e-03 0. 0. 0. 0. 0. 0. 0. 0.
      0. 0. 7.91139249e-03 0. 0. 0. 0. 0. 4.74683568e-03 6.32911408e-03
      0. 0. 1.58227852e-03 4.74683568e-03 0. 0. 1.58227852e-03 0.
      1.58227852e-03 0. 0. 0. 0. 1.58227852e-03 0. 0. 1.58227852e-03 0.
      0. 4.74683568e-03 0. 4.74683568e-03 0. 1.58227852e-03
      1.58227852e-03 0. 0. 7.91139249e-03 0. 1.58227852e-03 0.
      4.74683568e-03 0. 0. 1.58227852e-03 1.58227852e-03 0. 0. 0.
      1.58227852e-03 1.58227852e-03 1.58227852e-03 1.58227852e-03 0. 0.
      0. 1.58227852e-03 0. 1.10759493e-02 0. 0. 0. 0. 0. 0. 0. 0. 0.
      1.58227852e-03 1.58227852e-03 3.16455704e-03 0. 0. 0. 0. 0.
      1.58227852e-03 1.58227852e-03 3.16455704e-03 0. 0. 0. 0. 0. 0.
      1.58227852e-03 0. 0. 3.16455704e-03 0. 0. 0. 0. 0. 0. 0. 0. 0. 0.
      0. 0. 0. 0. 1.58227852e-03 0. 0. 6.32911408e-03 0. 0. 0. 0.
      1.58227852e-03 1.58227852e-03 0. 1.58227852e-03 1.58227852e-03
      1.58227852e-03 0. 4.74683568e-03 0. 0. 0. 1.58227852e-03 0. 0. 0.
      6.32911408e-03 0. 0. 1.58227852e-03 7.91139249e-03 1.58227852e-03
      0. 0. 0. 1.58227852e-03 1.58227852e-03 4.74683568e-03
      1.58227852e-03 0. 0. 0. 0. 0. 0. 0. 0. 3.16455704e-03 0. 0. 0. 0.
      1.58227852e-03 0. 0. 0. 0. 1.58227852e-03 0. 0. 1.58227852e-03 0.
      1.58227852e-03 0. 0. 0. 0. 0. 3.16455704e-03 0. 0. 0.
      1.58227852e-03 0. 4.74683568e-03 0. 0. 0. 0. 1.58227852e-03
      3.16455704e-03 0. 0. 0. 0. 0. 0. 0. 0. 0. 1.58227852e-03 0. 0. 0.
      3.16455704e-03 1.58227852e-03 0. 0. 3.16455704e-03 1.58227852e-03
      1.58227852e-03 4.74683568e-03 0. 1.10759493e-02 0. 0. 0. 0. 0.
      3.16455704e-03 1.58227852e-03 0. 1.58227852e-03 0. 0. 0. 0. 0. 0.
      1.58227852e-03 0. 0. 1.58227852e-03 0. 0. 0. 0. 0. 0. 0. 0.
      1.58227852e-03 0. 1.58227852e-03 0. 1.58227852e-03 1.58227852e-03
      0. 0. 1.58227852e-03 0. 3.16455704e-03 1.58227852e-03 0.
      1.89873427e-02 1.58227852e-03 0. 1.58227852e-03 0. 0. 0.
      3.16455704e-03 0. 0. 0. 0. 1.58227852e-03 7.91139249e-03
      1.26582282e-02 1.58227852e-03 0. 0. 0. 2.05696207e-02 0.
      1.58227852e-03 0. 7.91139249e-03 1.58227852e-03 0. 0. 0.
      1.58227852e-03 0. 0. 0. 4.74683568e-03 3.48101258e-02
      1.58227852e-03 0. 0. 0. 0. 0. 1.58227852e-03 0. 0. 0.
      1.58227852e-03 0. 0. 0. 0. 1.58227852e-03 0. 4.74683568e-03 0.
      1.58227852e-03 0. 1.58227852e-03 3.16455704e-03 0. 0. 0. 0.
      4.74683568e-03 6.32911408e-03 1.58227852e-03 1.58227852e-03 0. 0.
      0. 0. 0. 0. 0. 0. 1.58227852e-03 1.58227852e-03 0. 0.
      1.58227852e-03 1.58227852e-03 1.58227852e-03 0. 1.58227852e-03 0.
      1.58227852e-03 6.32911408e-03 9.49367136e-03 0. 0. 0.
      9.49367136e-03 0. 0. 0. 0. 0. 0. 0. 0. 0. 0. 0. 0. 0.
      1.58227852e-03 1.58227852e-03 1.58227852e-03 0. 0. 0. 0. 0. 0.
      9.49367136e-03 1.58227852e-03 0. 0. 0. 0. 0. 0. 0. 0. 0. 0. 0. 0.
      1.58227852e-03 0. 3.16455704e-03 0. 0. 0. 3.16455704e-03
      7.91139249e-03 0. 0. 1.58227852e-03 0. 0. 0. 0. 0. 0.
      3.16455704e-03 0. 1.58227852e-03 0. 1.58227852e-03 1.58227852e-03
      0. 0. 0. 0. 4.74683568e-03 0. 3.16455704e-03 0. 1.58227852e-03 0.
      0. 0. 0. 0. 0. 1.58227852e-03 0. 0. 1.58227852e-03 0.
      1.58227852e-03 0. 0. 1.58227852e-03 6.32911408e-03 0. 0. 0. 0. 0.
      0. 1.58227852e-03 1.58227852e-03 3.16455704e-03 0. 0. 0.
      1.58227852e-03 1.58227852e-03 0. 1.58227852e-03 1.42405070e-02 0.
      0. 0. 0. 0. 3.16455704e-03 0. 0. 0. 1.58227852e-03 0. 0. 0.
      3.16455704e-03 4.74683568e-03 0. 1.58227852e-03 0. 0. 0. 0.
      6.32911408e-03 1.58227852e-03 0. 0. 3.16455704e-03 0. 0. 0.
      1.58227852e-03 0. 0. 0. 0. 1.58227852e-03 0. 3.16455704e-03 0. 0.
      3.16455704e-03 0. 3.16455704e-03 0. 3.16455704e-03 0. 0. 0. 0.
      1.58227852e-03 0. 0. 0. 0. 0. 0. 0. 0. 0. 0. 1.58227852e-03 0. 0.
      0. 0. 3.16455704e-03 3.16455704e-03 7.91139249e-03 0. 0. 0. 0. 0.
      0. 0. 0. 1.58227852e-03 1.58227852e-03 0. 0. 0. 0. 0. 0. 0.
      1.58227852e-03 0. 0. 1.58227852e-03 1.58227852e-03 1.58227852e-03
      0. 1.58227852e-03 0. 0. 0. 0. 0. 0. 0. 0. 0. 0. 0. 0.
      1.58227852e-03 0. 1.26582282e-02 0. 0. 0. 0. 0. 0. 1.58227852e-03
      0. 3.16455704e-03 0. 0. 0. 1.58227852e-03 1.58227852e-03
      4.74683568e-03 0. 0. 0. 1.58227852e-03 1.58227852e-03 0. 0. 0. 0.
      1.58227852e-03 3.16455704e-03 0. 0. 0. 1.58227852e-03 0. 0.
      3.16455704e-03 0. 1.58227852e-03 1.58227852e-03 0. 0. 0. 0. 0.
      1.58227852e-03 0. 1.58227852e-03 0. 1.58227852e-03 4.74683568e-03
      1.58227852e-03 0. 0. 0. 0. 0. 0. 0. 0. 1.58227852e-03
      3.16455704e-03 0. 0. 0. 0. 0. 0. 1.58227852e-03 0. 0. 0. 0.
      1.58227852e-03 1.58227852e-03 0. 0. 0. 4.74683568e-03 0. 0. 0.
      1.58227852e-03 0. 0. 0. 0. 0. 0. 0. 0. 0. 0. 0. 0. 0. 0. 0. 0. 0.
      0. 0. 1.58227852e-03 0. 0. 0. 0. 0. 1.58227852e-03 0. 0. 0.
      1.58227852e-03 0. 0. 0. 0. 0. 0. 0. 0. 1.58227852e-03 0.
      9.49367136e-03 0. 6.32911408e-03 4.74683568e-03 0. 1.58227852e-03
      1.58227852e-03 0. 0. 0. 0. 0. 1.58227852e-03 0. 0. 0.
      1.58227852e-03 0. 0. 0. 0. 6.32911408e-03 0. 0. 0. 3.16455704e-03
      0. 0. 0. 0. 0. 3.16455704e-03 3.16455704e-03 0. 0. 0. 0.
      1.58227852e-03 0. 0. 0. 3.16455704e-03 0. 0. 0. 0. 0. 0.
      1.58227852e-03 0. 0. 0. 0. 0. 0. 0. 0. 0. 0. 1.58227852e-03 0. 0.
      4.74683568e-03 9.49367136e-03 1.58227852e-03 0. 0. 0. 0. 0.
      1.58227852e-03 0. 0. 0. 0. 6.32911408e-03 0. 0. 0. 6.32911408e-03
      0. 1.58227852e-03 1.10759493e-02 0. 1.58227852e-03 0. 0. 0. 0. 0.
      0. 0. 3.16455704e-03 0. 0. 0. 1.58227852e-03 0. 6.32911408e-03
      1.58227852e-03 7.91139249e-03 0. 0. 0. 0. 0. 0. 0. 1.58227852e-03
      1.58227852e-03 0. 3.16455704e-03 0. 0. 0. 0. 0. 3.16455704e-03 0.
      1.58227852e-03 0. 1.58227852e-03 1.58227852e-03 0. 0. 0.
      3.16455704e-03 0. 0. 0. 0. 6.32911408e-03 6.32911408e-03 0. 0. 0.
      1.58227852e-03 0. 0. 0. 0. 0. 0. 4.74683568e-03 1.58227852e-03 0.
      1.58227852e-03 0. 0. 1.58227852e-03 4.74683568e-03 0. 0.
      3.16455704e-03 0. 0. 0. 0. 0. 0. 0. 0. 0. 3.16455704e-03 0. 0.
      4.74683568e-03 0. 0. 0. 1.58227852e-03 0. 1.58227852e-03 0.
      4.74683568e-03 0. 1.58227852e-03 0. 0. 0. 0. 0. 0. 1.58227852e-03
      6.32911408e-03 0. 4.74683568e-03 0. 1.58227852e-03 0. 0. 0. 0. 0.
      0. 0.</_>
    <_>
      1.56396627e-03 1.25117297e-03 9.38379730e-04 1.25117297e-03
      2.50234595e-03 0. 6.25586486e-04 6.25586486e-04 3.12793243e-04
      9.38379730e-04 6.25586486e-04 1.25117297e-03 9.38379730e-04 0.
      3.12793243e-04 9.38379730e-04 3.12793243e-04 9.38379730e-04
      1.56396627e-03 9.38379730e-04 9.38379730e-04 2.18955264e-03
      6.25586486e-04 3.12793243e-04 3.12793243e-04 1.87675946e-03
      9.38379730e-04 9.38379730e-04 0. 6.25586486e-04 3.12793243e-04
      1.56396627e-03 9.38379730e-04 3.12793243e-04 2.18955264e-03
      1.56396627e-03 2.18955264e-03 1.25117297e-03 6.25586486e-04
      1.25117297e-03 3.12793243e-04 9.38379730e-04 9.38379730e-04
      9.38379730e-04 0. 3.12793243e-04 2.18955264e-03 3.12793243e-04 0.
      6.25586486e-04 1.56396627e-03 3.12793243e-04 1.56396627e-03
      2.50234595e-03 2.81513925e-03 0. 1.56396627e-03 0. 2.18955264e-03
      6.25586486e-04 0. 1.25117297e-03 3.12793243e-04 3.12793243e-04
      2.18955264e-03 3.12793243e-04 0. 6.25586486e-04 9.38379730e-04
      6.25586486e-04 1.25117297e-03 3.12793243e-04 2.81513925e-03
      1.56396627e-03 2.50234595e-03 1.25117297e-03 2.50234595e-03
      3.12793243e-04 3.12793243e-04 9.38379730e-04 3.12793243e-04
      2.18955264e-03 6.25586486e-04 1.87675946e-03 6.25586486e-04
      3.12793243e-04 1.25117297e-03 0. 2.50234595e-03 1.25117297e-03
      6.25586486e-04 1.25117297e-03 0. 9.38379730e-04 3.12793243e-04
      3.12793243e-04 6.25586486e-04 6.25586486e-04 9.38379730e-04
      9.38379730e-04 1.25117297e-03 6.25586486e-04 6.25586486e-04
      6.25586486e-04 3.12793243e-04 1.56396627e-03 0. 2.50234595e-03
      1.25117297e-03 1.25117297e-03 3.12793243e-04 3.12793243e-04
      1.56396627e-03 6.25586486e-04 1.25117297e-03 3.12793243e-04
      3.12793243e-04 9.38379730e-04 9.38379730e-04 1.25117297e-03
      1.87675946e-03 6.25586486e-04 6.25586486e-04 1.25117297e-03
      3.12793243e-04 9.38379730e-04 1.87675946e-03 2.50234595e-03
      1.25117297e-03 0. 6.25586486e-04 1.25117297e-03 0. 2.18955264e-03
      6.25586486e-04 2.50234595e-03 9.38379730e-04 1.87675946e-03
      1.87675946e-03 1.87675946e-03 1.87675946e-03 3.12793243e-04
      1.87675946e-03 9.38379730e-04 3.12793243e-04 1.25117297e-03
      3.12793243e-04 6.25586486e-04 9.38379730e-04 3.12793243e-04
      1.25117297e-03 1.25117297e-03 6.25586486e-04 1.25117297e-03
      1.87675946e-03 3.12793255e-03 0. 0. 0. 1.56396627e-03
      3.12793243e-04 0. 1.25117297e-03 0. 3.12793243e-04 1.25117297e-03
      6.25586486e-04 1.25117297e-03 3.12793243e-04 0. 3.12793243e-04
      9.38379730e-04 6.25586486e-04 6.25586486e-04 3.12793243e-04
      1.25117297e-03 9.38379730e-04 9.38379730e-04 9.38379730e-04
      5.31748496e-03 0. 2.50234595e-03 3.12793243e-04 0. 1.25117297e-03
      6.25586486e-04 0. 9.38379730e-04 6.25586486e-04 0. 3.12793243e-04
      1.87675946e-03 1.25117297e-03 6.25586486e-04 0. 1.25117297e-03
      1.87675946e-03 2.18955264e-03 6.25586486e-04 0. 2.18955264e-03 0.
      3.12793243e-04 9.38379730e-04 2.18955264e-03 6.25586486e-04
      1.56396627e-03 1.25117297e-03 1.87675946e-03 9.38379730e-04
      1.87675946e-03 6.25586486e-04 1.25117297e-03 1.87675946e-03 0.
      3.12793243e-04 1.25117297e-03 9.38379730e-04 6.25586486e-04 0.
      2.18955264e-03 0. 3.12793243e-04 1.56396627e-03 6.25586486e-04
      2.18955264e-03 1.25117297e-03 6.25586486e-04 3.12793243e-04
      6.25586486e-04 0. 0. 1.25117297e-03 1.25117297e-03 2.18955264e-03
      3.12793243e-04 9.38379730e-04 3.12793255e-03 9.38379730e-04
      6.25586486e-04 1.25117297e-03 3.12793243e-04 1.25117297e-03
      1.56396627e-03 1.87675946e-03 1.56396627e-03 3.12793243e-04
      2.50234595e-03 9.38379730e-04 3.12793243e-04 0. 5.63027849e-03 0.
      0. 1.25117297e-03 1.87675946e-03 6.25586486e-04 2.18955264e-03
      1.87675946e-03 3.12793243e-04 1.87675946e-03 3.12793243e-04 0.
      6.25586486e-04 9.38379730e-04 6.25586486e-04 1.56396627e-03
      6.25586486e-04 6.25586486e-04 6.25586486e-04 0. 0. 0.
      6.25586486e-04 3.12793243e-04 9.38379730e-04 3.12793243e-04
      1.87675946e-03 1.25117297e-03 1.56396627e-03 1.25117297e-03
      2.50234595e-03 1.56396627e-03 9.38379730e-04 1.25117297e-03
      3.12793243e-04 1.87675946e-03 0. 2.50234595e-03 0. 1.25117297e-03
      0. 3.12793243e-04 1.56396627e-03 6.25586486e-04 6.25586486e-04
      2.18955264e-03 1.25117297e-03 9.38379730e-04 0. 0. 1.25117297e-03
      9.38379730e-04 6.25586486e-04 1.25117297e-03 6.25586486e-04
      9.38379730e-04 9.38379730e-04 1.56396627e-03 6.25586486e-04
      1.25117297e-03 6.25586486e-04 9.38379730e-04 3.12793255e-03
      1.87675946e-03 0. 2.50234595e-03 3.12793243e-04 6.25586486e-04
      3.12793243e-04 3.12793243e-04 6.25586486e-04 2.18955264e-03
      9.38379730e-04 3.12793243e-04 1.25117297e-03 1.87675946e-03
      6.25586486e-04 3.12793243e-04 3.44072562e-03 3.12793243e-04 0.
      6.25586486e-04 1.56396627e-03 9.38379730e-04 9.38379730e-04
      3.12793243e-04 6.25586486e-04 1.25117297e-03 0. 1.25117297e-03
      9.38379730e-04 1.25117297e-03 6.25586486e-04 9.38379730e-04
      6.25586486e-04 1.87675946e-03 3.12793255e-03 1.87675946e-03
      2.50234595e-03 9.38379730e-04 9.38379730e-04 6.25586486e-04
      9.38379730e-04 0. 6.25586486e-04 0. 1.25117297e-03 2.50234595e-03
      6.25586486e-04 3.12793243e-04 9.38379730e-04 9.38379730e-04
      3.12793243e-04 3.12793243e-04 3.12793243e-04 3.12793243e-04
      9.38379730e-04 0. 1.56396627e-03 0. 6.25586486e-04 6.25586486e-04
      2.18955264e-03 1.56396627e-03 2.18955264e-03 1.87675946e-03 0.
      9.38379730e-04 1.25117297e-03 0. 2.50234595e-03 3.12793243e-04
      3.12793243e-04 2.18955264e-03 2.50234595e-03 9.38379730e-04
      1.56396627e-03 3.12793243e-04 1.25117297e-03 0. 9.38379730e-04
      6.25586486e-04 9.38379730e-04 9.38379730e-04 3.44072562e-03
      6.25586486e-04 6.25586486e-04 6.25586486e-04 6.25586486e-04
      2.50234595e-03 3.12793243e-04 1.56396627e-03 9.38379730e-04
      3.12793243e-04 2.50234595e-03 9.38379730e-04 0. 3.12793243e-04
      1.87675946e-03 0. 0. 6.25586486e-04 2.18955264e-03 1.25117297e-03
      1.56396627e-03 0. 2.18955264e-03 2.18955264e-03 1.25117297e-03
      3.12793243e-04 9.38379730e-04 1.56396627e-03 3.12793243e-04
      3.12793243e-04 1.25117297e-03 1.18861431e-02 3.12793243e-04
      6.25586486e-04 6.25586486e-04 3.12793243e-04 1.87675946e-03
      1.87675946e-03 6.25586486e-04 3.12793243e-04 6.25586486e-04
      2.18955264e-03 1.87675946e-03 6.25586486e-04 1.56396627e-03
      3.12793243e-04 0. 1.87675946e-03 3.12793243e-04 6.25586486e-04
      1.25117297e-03 1.25117297e-03 5.31748496e-03 0. 3.12793243e-04
      1.56396627e-03 1.25117297e-03 2.81513925e-03 2.18955264e-03
      2.18955264e-03 9.38379730e-04 0. 1.87675946e-03 1.87675946e-03
      6.25586486e-04 0. 6.25586486e-04 6.25586486e-04 0. 3.12793243e-04
      1.25117297e-03 2.50234595e-03 2.18955264e-03 1.25117297e-03
      1.25117297e-03 3.12793243e-04 1.25117297e-03 0. 9.38379730e-04
      3.12793243e-04 9.69659071e-03 1.25117297e-03 3.12793243e-04
      1.56396627e-03 1.25117297e-03 9.38379730e-04 1.56396627e-03
      1.25117297e-03 6.25586486e-04 6.25586486e-04 3.12793243e-04
      6.25586486e-04 1.25117297e-03 3.12793243e-04 9.38379730e-04
      3.12793243e-04 6.25586486e-04 9.38379730e-04 1.25117297e-03
      3.12793243e-04 9.38379730e-04 9.38379730e-04 3.12793243e-04
      3.12793243e-04 0. 6.25586486e-04 3.12793243e-04 3.12793243e-04
      1.25117297e-03 1.87675946e-03 3.12793243e-04 6.25586486e-04
      9.38379730e-04 1.25117297e-03 2.50234595e-03 1.56396627e-03
      6.25586486e-04 1.25117297e-03 9.38379730e-04 1.56396627e-03
      1.56396627e-03 9.38379730e-04 9.38379730e-04 3.12793255e-03
      9.38379730e-04 1.25117297e-03 1.25117297e-03 1.25117297e-03 0.
      6.25586486e-04 1.25117297e-03 0. 3.12793243e-04 9.38379730e-04 0.
      1.25117297e-03 1.56396627e-03 6.25586486e-04 1.56396627e-03
      9.38379730e-04 6.25586486e-04 6.25586486e-04 6.25586486e-04
      1.56396627e-03 3.12793243e-04 3.12793243e-04 1.25117297e-03
      6.25586486e-04 1.87675946e-03 0. 0. 9.38379730e-04 3.12793243e-04
      1.56396627e-03 3.12793243e-04 1.25117297e-03 2.18955264e-03
      2.18955264e-03 1.87675946e-03 0. 9.38379730e-04 1.56396627e-03
      3.12793243e-04 1.56396627e-03 3.12793243e-04 3.12793255e-03
      9.38379730e-04 1.56396627e-03 0. 3.12793243e-04 1.56396627e-03 0.
      6.25586486e-04 1.25117297e-03 6.25586486e-04 0. 3.12793243e-04
      3.12793243e-04 2.50234595e-03 6.25586486e-04 6.25586486e-04 0.
      1.25117297e-03 3.12793243e-04 9.38379730e-04 0. 1.25117297e-03
      6.25586486e-04 0. 1.87675946e-03 1.25117297e-03 3.12793243e-04
      3.12793243e-04 1.25117297e-03 6.25586486e-04 3.12793243e-04
      3.12793243e-04 1.87675946e-03 3.12793243e-04 3.12793243e-04
      6.25586486e-04 6.25586486e-04 1.25117297e-03 1.25117297e-03
      9.38379730e-04 9.38379730e-04 0. 0. 2.18955264e-03 1.25117297e-03
      1.25117297e-03 6.25586486e-04 2.50234595e-03 6.25586486e-04
      3.12793243e-04 3.12793243e-04 2.81513925e-03 2.50234595e-03
      6.25586486e-04 6.25586486e-04 6.25586486e-04 3.12793243e-04
      1.25117297e-03 1.56396627e-03 9.38379730e-04 6.25586486e-04
      1.25117297e-03 2.50234595e-03 6.25586486e-04 0. 1.87675946e-03
      1.56396627e-03 2.50234595e-03 6.25586486e-04 2.18955264e-03
      1.87675946e-03 6.25586486e-04 9.38379730e-04 1.56396627e-03 0. 0.
      6.25586486e-04 6.25586486e-04 3.12793243e-04 0. 1.87675946e-03
      1.25117297e-03 3.12793243e-04 6.25586486e-04 0. 1.87675946e-03
      9.38379730e-04 2.81513925e-03 0. 6.25586486e-04 1.25117297e-03 0.
      1.56396627e-03 2.18955264e-03 3.12793243e-04 1.25117297e-03
      3.12793243e-04 6.25586486e-04 1.25117297e-03 1.25117297e-03
      3.12793243e-04 1.87675946e-03 9.38379730e-04 1.87675946e-03
      1.87675946e-03 3.12793243e-04 1.25117297e-03 9.38379730e-04 0. 0.
      6.25586486e-04 6.25586486e-04 9.38379730e-04 1.25117297e-03
      6.25586486e-04 1.25117297e-03 3.12793243e-04 9.38379730e-04
      9.38379730e-04 3.12793243e-04 3.12793243e-04 6.25586486e-04
      3.12793243e-04 6.25586486e-04 1.25117297e-03 0. 3.12793243e-04
      3.12793243e-04 9.38379730e-04 3.12793255e-03 9.38379730e-04
      6.25586486e-04 1.25117297e-03 3.12793243e-04 6.25586486e-04
      3.12793243e-04 6.25586486e-04 1.25117297e-03 6.25586486e-04
      3.12793255e-03 6.25586486e-04 0. 0. 3.12793243e-04 9.38379730e-04
      0. 3.12793255e-03 3.12793243e-04 3.12793243e-04 0. 1.56396627e-03
      4.37910529e-03 3.12793243e-04 6.25586486e-04 1.25117297e-03
      6.25586486e-04 6.25586486e-04 9.38379730e-04 0. 0. 6.25586486e-04
      1.25117297e-03 9.38379730e-04 3.12793243e-04 1.97059736e-02
      9.38379730e-04 6.25586486e-04 3.12793243e-04 3.12793243e-04
      3.12793243e-04 1.25117297e-03 0. 1.87675946e-03 1.25117297e-03
      9.38379730e-04 6.25586486e-04 1.25117297e-03 0. 6.25586486e-04
      9.38379730e-04 3.12793243e-04 1.56396627e-03 1.87675946e-03 0.
      2.81513925e-03 2.18955264e-03 6.25586486e-04 2.18955264e-03
      3.12793243e-04 1.25117297e-03 3.12793243e-04 1.87675946e-03
      1.87675946e-03 1.56396627e-03 1.56396627e-03 0. 3.12793243e-04
      9.38379730e-04 0. 9.38379730e-04 3.12793243e-04 9.38379730e-04
      6.25586486e-04 0. 9.38379730e-04 9.38379730e-04 0. 0. 0. 0.
      9.38379730e-04 6.25586486e-04 0. 1.25117297e-03 1.56396627e-03
      2.50234595e-03 1.25117297e-03 9.38379730e-04 1.25117297e-03
      6.25586486e-04 6.25586486e-04 1.25117297e-03 1.87675946e-03 0.
      3.12793243e-04 6.25586486e-04 9.38379730e-04 0. 3.12793243e-04
      2.81513925e-03 3.12793243e-04 6.25586486e-04 1.25117297e-03
      3.12793243e-04 2.18955264e-03 1.25117297e-03 3.12793243e-04 0.
      3.12793243e-04 3.12793243e-04 9.38379730e-04 1.25117297e-03
      3.12793243e-04 2.50234595e-03 1.25117297e-03 0. 3.12793243e-04
      6.25586486e-04 0. 1.87675946e-03 0. 1.87675946e-03 0.
      6.25586486e-04 0. 3.12793243e-04 3.12793243e-04 1.25117297e-03
      3.12793243e-04 2.18955264e-03 6.25586486e-04 1.25117297e-03
      1.56396627e-03 6.25586486e-04 0. 2.81513925e-03 1.56396627e-03
      6.25586486e-04 9.38379730e-04 2.50234595e-03 9.38379730e-04
      6.25586486e-04 3.12793243e-04 1.87675946e-03 6.25586486e-04
      6.25586486e-04 9.38379730e-04 1.87675946e-03 0. 3.12793243e-04
      9.38379730e-04 0. 1.87675946e-03 0. 9.38379730e-04 1.25117297e-03
      1.25117297e-03 9.38379730e-04 6.25586486e-04 0. 0. 9.38379730e-04
      1.25117297e-03 1.25117297e-03 6.25586486e-04 3.12793243e-04 0.
      6.25586486e-04 0. 9.38379730e-04 1.56396627e-03 1.56396627e-03
      1.25117297e-03 0. 6.25586486e-04 1.25117297e-03 6.25586486e-04 0.
      6.25586486e-04 1.56396627e-03 2.50234595e-03 1.56396627e-03
      6.25586486e-04 9.38379730e-04 0. 1.56396627e-03 3.12793243e-04
      3.12793243e-04 0. 6.25586486e-04 1.87675946e-03 6.25586486e-04 0.
      3.12793243e-04 2.81513925e-03 0. 6.25586486e-04 0. 3.12793243e-04
      0. 0. 3.12793243e-04 0. 1.25117297e-03 3.12793243e-04
      9.38379730e-04 2.81513925e-03 3.12793243e-04 3.12793243e-04
      2.18955264e-03 3.12793243e-04 9.38379730e-04 6.25586486e-04 0.
      9.38379730e-04 0. 0. 0. 0. 1.56396627e-03 6.25586486e-04 0.
      3.44072562e-03 1.56396627e-03 2.18955264e-03 6.25586486e-04
      2.18955264e-03 1.56396627e-03 0. 9.38379730e-04 6.25586486e-04
      1.87675946e-03 1.56396627e-03 6.25586486e-04 0. 6.25586486e-04
      9.38379730e-04 1.56396627e-03 6.25586486e-04 6.25586486e-04
      1.56396627e-03 6.25586486e-04 9.38379730e-04 9.38379730e-04
      9.38379730e-04 0. 0. 6.25586486e-04 9.38379730e-04 5.00469189e-03
      3.12793243e-04 9.38379730e-04 3.12793243e-04 3.12793243e-04
      1.56396627e-03 9.38379730e-04 6.25586486e-04 6.25586486e-04
      1.25117297e-03 3.12793243e-04 1.56396627e-03 3.12793243e-04
      1.00093838e-02 3.12793243e-04 1.56396627e-03 9.38379730e-04
      1.25117297e-03 3.12793243e-04 1.87675946e-03 1.87675946e-03
      9.38379730e-04 6.25586486e-04 3.12793243e-04 6.25586486e-04 0. 0.
      1.25117297e-03 9.38379730e-04 0. 3.12793243e-04 9.38379730e-04
      7.81983137e-03 3.12793243e-04 3.12793243e-04 0. 2.18955264e-03 0.
      2.18955264e-03 3.12793243e-04 3.12793243e-04 6.25586486e-04
      6.25586486e-04 1.25117297e-03 9.38379730e-04 6.25586486e-04
      9.38379730e-04 3.12793243e-04 9.38379730e-04 6.56865817e-03
      1.56396627e-03 1.87675946e-03 6.25586486e-04 0. 3.12793255e-03
      9.38379730e-04 9.38379730e-04 0. 3.12793243e-04 2.18955264e-03
      6.25586486e-04</_>
    <_>
      0. 0. 2.66666664e-03 0. 0. 0. 0. 0. 0. 0. 1.33333332e-03
      1.33333332e-03 2.66666664e-03 0. 1.33333332e-03 2.66666664e-03 0.
      0. 1.33333332e-03 0. 2.66666664e-03 0. 1.33333332e-03 0.
      2.66666664e-03 0. 0. 1.33333332e-03 3.99999972e-03 0. 0. 0.
      1.33333332e-03 0. 0. 0. 0. 1.33333332e-03 1.33333332e-03 0. 0. 0.
      0. 5.33333328e-03 0. 0. 0. 0. 1.33333332e-03 1.33333332e-03
      9.33333300e-03 1.33333332e-03 0. 1.33333332e-03 1.33333332e-03 0.
      0. 0. 0. 5.33333328e-03 3.99999972e-03 2.66666664e-03 0. 0. 0. 0.
      0. 0. 2.66666664e-03 0. 0. 0. 0. 0. 0. 2.66666664e-03
      1.33333332e-03 0. 0. 0. 0. 0. 0. 0. 0. 0. 2.66666664e-03 0.
      1.33333332e-03 0. 0. 0. 2.66666664e-03 0. 0. 0. 0. 0. 0. 0.
      3.99999972e-03 0. 1.33333332e-03 0. 0. 0. 1.33333332e-03 0.
      7.99999945e-03 0. 7.99999945e-03 0. 0. 2.66666664e-03 0. 0. 0.
      1.33333332e-03 1.33333332e-03 2.66666664e-03 3.99999972e-03
      1.33333332e-03 0. 0. 1.33333332e-03 0. 0. 3.99999972e-03
      1.33333332e-03 2.66666664e-03 0. 0. 0. 0. 0. 0. 0. 0. 0.
      1.33333332e-03 2.66666664e-03 0. 0. 3.99999972e-03 5.33333328e-03
      0. 0. 0. 1.33333332e-03 0. 0. 0. 0. 0. 1.33333332e-03 0.
      2.66666664e-03 0. 0. 0. 1.33333332e-03 0. 0. 0. 0. 1.33333332e-03
      1.33333332e-03 0. 0. 0. 1.06666666e-02 0. 2.66666664e-03 0. 0. 0.
      0. 0. 3.99999972e-03 1.20000001e-02 1.33333332e-03 0. 0. 0.
      2.66666664e-03 1.33333332e-03 0. 1.33333332e-03 1.33333332e-03 0.
      0. 0. 2.66666664e-03 0. 6.66666683e-03 0. 0. 0. 0. 5.33333328e-03
      1.33333332e-03 9.33333300e-03 7.99999945e-03 0. 0. 0. 0.
      1.33333332e-03 2.66666664e-03 0. 7.99999945e-03 1.33333332e-03 0.
      0. 2.66666664e-03 0. 0. 0. 0. 5.33333328e-03 0. 5.33333328e-03 0.
      0. 0. 0. 0. 0. 0. 0. 0. 2.66666664e-03 6.66666683e-03 0.
      3.99999972e-03 0. 0. 0. 0. 0. 0. 0. 0. 0. 0. 0. 0. 0. 0.
      1.33333332e-03 0. 1.33333332e-03 3.99999972e-03 0. 0.
      1.33333332e-03 0. 0. 2.66666664e-03 0. 2.66666664e-03
      3.99999972e-03 0. 0. 0. 0. 1.33333332e-03 0. 1.33333332e-03
      2.66666664e-03 1.33333332e-03 2.66666664e-03 1.33333332e-03
      7.99999945e-03 1.33333332e-03 0. 0. 0. 0. 0. 0. 0. 0. 0.
      1.33333332e-03 0. 2.66666664e-03 0. 0. 0. 6.66666683e-03
      3.99999972e-03 0. 0. 0. 0. 1.33333332e-03 9.33333300e-03 0. 0. 0.
      3.99999972e-03 1.33333332e-03 0. 0. 1.33333332e-03 2.66666664e-03
      1.33333332e-03 3.99999972e-03 0. 0. 0. 1.33333332e-03 0. 0.
      1.86666660e-02 1.33333332e-03 0. 0. 5.33333328e-03 0. 0.
      1.33333332e-03 5.33333328e-03 0. 0. 0. 3.99999972e-03 0. 0. 0.
      1.33333332e-03 0. 0. 0. 1.33333332e-03 0. 1.33333332e-03
      2.66666664e-03 0. 2.66666664e-03 0. 2.66666664e-03 2.66666664e-03
      0. 0. 2.66666664e-03 1.33333332e-03 1.33333332e-03 0.
      1.33333332e-03 2.66666664e-03 0. 0. 0. 0. 0. 0. 0. 0. 0. 0. 0.
      3.99999972e-03 2.66666664e-03 1.33333332e-03 0. 3.99999972e-03 0.
      0. 0. 0. 0. 1.33333332e-03 0. 0. 1.33333332e-03 0. 0. 0. 0. 0.
      1.33333332e-03 0. 0. 0. 0. 1.06666666e-02 0. 1.33333332e-03 0. 0.
      0. 0. 0. 0. 0. 0. 0. 1.33333332e-03 2.66666664e-03 6.66666683e-03
      2.66666664e-03 0. 0. 0. 0. 0. 0. 0. 0. 0. 0. 1.33333332e-03
      1.33333332e-03 0. 0. 0. 1.33333332e-03 0. 0. 1.33333332e-03 0.
      2.66666664e-03 1.33333332e-03 0. 0. 0. 3.99999972e-03 0. 0. 0. 0.
      0. 0. 1.33333332e-03 0. 0. 9.33333300e-03 1.33333332e-03 0. 0. 0.
      7.99999945e-03 0. 0. 0. 0. 0. 5.33333328e-03 3.99999972e-03 0.
      1.33333332e-03 0. 0. 1.33333332e-03 0. 0. 0. 2.66666664e-03
      1.33333332e-03 0. 0. 1.33333332e-03 1.06666666e-02 0. 0. 0. 0. 0.
      0. 1.33333332e-03 7.99999945e-03 0. 1.33333332e-03 0.
      3.99999972e-03 0. 0. 1.33333332e-03 0. 2.66666664e-03 0. 0. 0. 0.
      0. 0. 0. 0. 5.33333328e-03 0. 5.33333328e-03 5.33333328e-03 0. 0.
      0. 0. 0. 2.66666664e-03 0. 0. 3.99999972e-03 0. 0. 0.
      2.66666664e-03 1.33333332e-03 0. 0. 0. 0. 0. 1.33333332e-03 0.
      2.66666664e-03 1.33333332e-03 0. 0. 0. 0. 1.33333332e-03
      1.33333332e-03 1.33333332e-03 0. 0. 2.66666664e-03 0. 0.
      1.33333332e-03 1.33333332e-03 0. 0. 1.33333332e-03 2.66666664e-03
      1.33333332e-03 5.33333328e-03 0. 0. 0. 0. 1.33333332e-03 0. 0.
      3.99999972e-03 0. 3.99999972e-03 2.66666664e-03 0. 0.
      6.66666683e-03 5.33333328e-03 1.33333332e-03 0. 2.66666664e-03 0.
      0. 0. 0. 0. 0. 0. 0. 0. 0. 3.99999972e-03 0. 1.33333332e-03 0.
      7.99999945e-03 1.33333332e-03 0. 0. 0. 1.33333332e-03 0. 0.
      2.66666664e-03 0. 1.33333332e-03 0. 0. 0. 0. 0. 0. 0.
      2.66666664e-03 0. 0. 0. 6.66666683e-03 0. 0. 1.33333332e-03 0. 0.
      0. 0. 3.99999972e-03 0. 3.99999972e-03 0. 2.66666664e-03 0. 0.
      1.33333332e-03 0. 0. 3.99999972e-03 1.33333332e-03 1.33333332e-03
      0. 1.33333332e-03 0. 0. 0. 0. 0. 2.66666664e-03 1.33333332e-03 0.
      0. 0. 0. 0. 0. 1.33333332e-03 0. 0. 0. 2.66666664e-03 0. 0.
      1.33333332e-03 0. 0. 2.66666664e-03 0. 0. 0. 0. 1.33333332e-03
      6.66666683e-03 1.33333332e-03 0. 0. 0. 1.33333332e-03 0. 0. 0. 0.
      0. 0. 0. 3.99999972e-03 0. 0. 0. 0. 0. 3.99999972e-03 0.
      1.33333332e-03 1.33333332e-03 0. 2.66666664e-03 1.33333332e-03 0.
      0. 0. 1.33333332e-03 0. 0. 0. 0. 0. 3.99999972e-03 0.
      1.33333332e-03 0. 1.33333332e-03 0. 6.66666683e-03 0. 0.
      2.66666664e-03 0. 0. 0. 2.66666664e-03 1.33333332e-03
      1.33333332e-03 1.33333332e-03 0. 0. 0. 0. 0. 0. 0. 0. 0. 0. 0. 0.
      0. 0. 0. 0. 0. 0. 0. 0. 1.33333332e-03 0. 0. 7.99999945e-03 0. 0.
      0. 1.33333332e-03 1.33333332e-03 1.33333332e-03 0. 3.99999972e-03
      1.33333332e-03 0. 0. 2.66666664e-03 0. 1.33333332e-03
      3.99999972e-03 0. 0. 0. 1.33333332e-03 0. 0. 0. 0. 1.33333332e-03
      0. 0. 1.33333332e-03 0. 0. 0. 0. 0. 0. 0. 0. 0. 2.66666664e-03 0.
      0. 2.66666664e-03 0. 0. 1.33333332e-03 0. 2.66666664e-03 0.
      1.33333332e-03 0. 0. 2.66666664e-03 0. 0. 1.33333332e-03 0. 0. 0.
      1.33333332e-03 1.33333332e-03 0. 0. 0. 1.33333332e-03 0.
      1.33333332e-03 0. 1.33333332e-03 0. 0. 3.99999972e-03
      2.66666664e-03 0. 0. 0. 0. 0. 0. 0. 0. 1.33333332e-03 0.
      2.66666664e-03 1.33333332e-03 0. 1.33333332e-03 1.33333332e-03
      1.33333332e-03 0. 1.33333332e-03 2.66666664e-03 0. 6.66666683e-03
      3.73333320e-02 0. 0. 0. 0. 0. 0. 0. 0. 0. 0. 0. 0. 0. 0. 0.
      5.33333328e-03 1.33333332e-03 2.66666664e-03 0. 2.66666664e-03
      2.66666664e-03 0. 0. 1.33333332e-03 2.66666664e-03 0. 0. 0.
      6.66666683e-03 0. 0. 2.66666664e-03 0. 1.33333332e-03 0. 0. 0. 0.
      0. 0. 0. 5.33333328e-03 0. 1.33333332e-03 0. 0. 0. 2.66666664e-03
      0. 0. 5.33333328e-03 0. 7.99999945e-03 1.33333332e-03
      6.66666683e-03 2.66666664e-03 2.66666664e-03 1.33333332e-03 0. 0.
      5.33333328e-03 1.33333332e-03 0. 0. 0. 0. 3.99999972e-03 0. 0. 0.
      1.33333332e-03 0. 0. 0. 0. 0. 0. 2.66666664e-03 0. 0. 0. 0. 0. 0.
      0. 2.66666664e-03 0. 0. 1.33333332e-03 0. 0. 3.99999972e-03 0. 0.
      0. 0. 1.33333332e-03 0. 0. 0. 0. 0. 0. 0. 0. 0. 0. 0.
      1.33333332e-03 0. 1.33333332e-03 0. 0. 0. 0. 0. 5.33333328e-03 0.
      0. 3.99999972e-03 1.33333332e-03 0. 2.66666664e-03 0.
      2.66666664e-03 2.66666664e-03 0. 0. 1.33333337e-02 1.33333332e-03
      0. 0. 2.66666664e-03 0. 0. 0. 0. 9.33333300e-03 0. 1.33333332e-03
      0. 0. 0. 2.66666664e-03 2.66666664e-03 0. 0. 1.33333332e-03 0. 0.
      0. 0. 0. 0. 1.33333332e-03 1.33333332e-03 9.33333300e-03 0. 0. 0.
      0. 2.66666664e-03 0. 2.66666664e-03 0. 1.33333332e-03 0. 0. 0. 0.
      1.33333332e-03 0. 1.33333332e-03 0. 0. 0. 0. 1.33333332e-03 0.
      5.33333328e-03 0. 0. 0. 0. 0. 0. 0. 0. 2.66666664e-03</_>
    <_>
      8.78734631e-04 1.75746926e-03 0. 5.27240802e-03 8.78734631e-04 0.
      8.78734631e-04 0. 5.27240802e-03 8.78734631e-04 8.78734631e-04 0.
      8.78734631e-04 8.78734631e-04 8.78734631e-04 0. 0. 1.75746926e-03
      1.75746926e-03 8.78734631e-04 8.78734631e-04 8.78734631e-04
      2.63620401e-03 8.78734631e-04 0. 0. 0. 0. 8.78734631e-04
      8.78734631e-04 8.78734631e-04 0. 8.78734631e-04 0. 2.63620401e-03
      0. 0. 0. 0. 0. 8.78734631e-04 0. 0. 8.78734631e-04 0.
      4.39367304e-03 0. 0. 0. 0. 0. 2.63620401e-03 0. 0. 1.75746926e-03
      0. 2.63620401e-03 4.39367304e-03 0. 0. 0. 8.78734631e-04 0. 0.
      1.75746926e-03 8.78734631e-04 0. 2.63620401e-03 1.75746926e-03
      8.78734631e-04 0. 0. 0. 1.75746926e-03 0. 0. 0. 0. 4.39367304e-03
      0. 0. 0. 0. 1.75746926e-03 8.78734631e-04 0. 0. 0. 0. 0.
      8.78734631e-04 0. 0. 3.51493852e-03 0. 2.63620401e-03
      1.75746926e-03 8.78734631e-04 0. 8.78734631e-04 0. 4.39367304e-03
      0. 0. 0. 8.78734631e-04 1.75746926e-03 1.75746926e-03 0.
      8.78734631e-04 8.78734631e-04 0. 8.78734631e-04 0. 8.78734631e-04
      0. 0. 3.51493852e-03 0. 0. 6.15114253e-03 8.78734631e-04
      1.75746926e-03 1.75746926e-03 1.75746926e-03 8.78734631e-04
      8.78734631e-04 2.63620401e-03 0. 3.51493852e-03 0. 1.75746926e-03
      0. 2.63620401e-03 0. 1.75746926e-03 8.78734631e-04 0. 0.
      8.78734631e-04 8.78734631e-04 8.78734631e-04 0. 8.78734631e-04 0.
      8.78734607e-03 8.78734631e-04 8.78734631e-04 0. 0. 0.
      1.75746926e-03 6.15114253e-03 8.78734631e-04 0. 0. 1.75746926e-03
      1.75746926e-03 8.78734631e-04 0. 8.78734631e-04 0. 5.27240802e-03
      8.78734631e-04 1.75746926e-03 8.78734631e-04 8.78734631e-04
      2.63620401e-03 1.75746926e-03 4.39367304e-03 2.63620401e-03
      1.75746926e-03 2.02108957e-02 0. 8.78734631e-04 0. 8.78734631e-04
      0. 8.78734631e-04 8.78734631e-04 0. 8.78734631e-04 8.78734631e-04
      0. 0. 8.78734631e-04 0. 2.63620401e-03 0. 0. 0. 1.75746926e-03
      8.78734631e-04 8.78734631e-04 4.39367304e-03 0. 8.78734631e-04
      8.78734631e-04 0. 0. 2.63620401e-03 0. 2.63620401e-03
      1.75746926e-03 0. 8.78734631e-04 0. 0. 0. 2.63620401e-03 0.
      1.75746926e-03 1.75746926e-03 0. 0. 2.63620401e-03 1.75746926e-03
      0. 0. 0. 0. 8.78734631e-04 8.78734631e-04 8.78734631e-04 0.
      8.78734631e-04 0. 8.78734631e-04 2.63620401e-03 0. 4.39367304e-03
      0. 0. 0. 7.02987704e-03 0. 2.63620401e-03 0. 0. 8.78734631e-04 0.
      0. 8.78734631e-04 8.78734631e-04 1.75746926e-03 1.75746926e-03 0.
      0. 8.78734631e-04 1.75746926e-03 8.78734631e-04 0. 2.63620401e-03
      0. 0. 8.78734631e-04 0. 1.75746926e-03 1.75746926e-03 0.
      8.78734631e-04 0. 0. 0. 8.78734631e-04 0. 8.78734631e-04 0. 0. 0.
      0. 0. 0. 0. 0. 0. 0. 0. 0. 0. 8.78734631e-04 8.78734631e-04
      2.63620401e-03 8.78734631e-04 2.63620401e-03 0. 8.78734631e-04
      8.78734631e-04 8.78734631e-04 8.78734631e-04 8.78734631e-04 0. 0.
      0. 0. 3.51493852e-03 0. 2.63620401e-03 2.63620401e-03
      3.51493852e-03 8.78734631e-04 2.63620401e-03 0. 8.78734631e-04 0.
      0. 1.75746926e-03 1.75746926e-03 8.78734631e-04 8.78734631e-04 0.
      8.78734631e-04 0. 8.78734631e-04 0. 0. 0. 0. 2.63620401e-03
      8.78734631e-04 0. 0. 8.78734631e-04 7.02987704e-03 2.63620401e-03
      1.75746926e-03 0. 6.15114253e-03 8.78734631e-04 0. 0. 0. 0. 0. 0.
      0. 8.78734631e-04 1.75746926e-03 0. 0. 3.51493852e-03
      1.75746926e-03 1.75746926e-03 3.51493852e-03 2.63620401e-03 0. 0.
      2.63620401e-03 0. 8.78734631e-04 0. 8.78734631e-04 8.78734631e-04
      2.63620401e-03 2.63620401e-03 0. 8.78734631e-04 8.78734631e-04 0.
      0. 0. 8.78734631e-04 1.75746926e-03 8.78734631e-04 0. 0.
      1.75746926e-03 0. 8.78734631e-04 0. 2.63620401e-03 8.78734631e-04
      8.78734631e-04 2.63620401e-03 0. 2.63620401e-03 1.75746926e-03 0.
      0. 0. 1.75746926e-03 0. 0. 0. 2.63620401e-03 0. 8.78734631e-04 0.
      0. 0. 3.51493852e-03 1.75746926e-03 1.75746926e-03 0.
      8.78734631e-04 0. 0. 0. 8.78734631e-04 2.63620401e-03
      6.15114253e-03 6.15114253e-03 0. 8.78734631e-04 1.75746926e-03 0.
      8.78734631e-04 8.78734631e-04 0. 0. 2.19683666e-02 0.
      8.78734631e-04 4.39367304e-03 0. 1.75746926e-03 0. 0. 0. 0. 0.
      2.63620401e-03 3.51493852e-03 0. 0. 8.78734631e-04 0.
      2.63620401e-03 0. 8.78734631e-04 0. 1.75746926e-03 8.78734631e-04
      8.78734631e-04 0. 1.75746926e-03 8.78734631e-04 0. 0. 0.
      8.78734631e-04 1.75746926e-03 2.63620401e-03 0. 0. 0.
      2.63620401e-03 0. 8.78734631e-04 8.78734631e-04 8.78734631e-04 0.
      8.78734631e-04 8.78734631e-04 8.78734631e-04 0. 0. 8.78734631e-04
      0. 1.75746926e-03 0. 8.78734631e-04 8.78734631e-04 8.78734631e-04
      5.27240802e-03 1.75746926e-03 8.78734631e-04 8.78734631e-04 0.
      2.63620401e-03 0. 8.78734631e-04 0. 1.75746926e-03 0. 0. 0. 0.
      8.78734631e-04 8.78734631e-04 1.75746926e-03 3.51493852e-03
      8.78734631e-04 0. 3.51493852e-03 0. 0. 0. 0. 0. 2.63620401e-03
      6.15114253e-03 0. 4.39367304e-03 0. 0. 8.78734631e-04 0. 0. 0. 0.
      0. 0. 1.75746926e-03 0. 8.78734631e-04 0. 1.75746926e-03 0. 0. 0.
      0. 8.78734631e-04 0. 8.78734631e-04 2.63620401e-03 3.51493852e-03
      0. 8.78734631e-04 2.63620401e-03 8.78734631e-04 0. 0.
      2.63620401e-03 0. 0. 1.75746926e-03 0. 8.78734631e-04 0. 0. 0. 0.
      2.63620401e-03 8.78734631e-04 8.78734631e-04 0. 0. 0.
      1.75746926e-03 0. 2.63620401e-03 8.78734631e-04 8.78734631e-04 0.
      0. 8.78734631e-04 8.78734631e-04 0. 0. 2.63620401e-03 0.
      4.39367304e-03 8.78734631e-04 2.63620401e-03 1.75746926e-03
      1.75746926e-03 0. 2.63620401e-03 0. 0. 0. 0. 8.78734631e-04
      2.63620401e-03 2.63620401e-03 8.78734631e-04 0. 0. 0. 0. 0. 0.
      1.75746926e-03 8.78734631e-04 0. 8.78734631e-04 3.51493852e-03 0.
      0. 0. 1.75746926e-03 2.63620401e-03 1.75746926e-03 8.78734631e-04
      8.78734631e-04 8.78734631e-04 1.75746926e-03 8.78734631e-04 0.
      8.78734631e-04 7.02987704e-03 0. 0. 0. 0. 8.78734631e-04
      8.78734631e-04 8.78734631e-04 0. 1.75746926e-03 8.78734631e-04
      8.78734631e-04 3.51493852e-03 1.75746926e-03 3.51493852e-03 0.
      6.15114253e-03 0. 8.78734631e-04 0. 1.75746926e-03 0. 0. 0. 0.
      3.51493852e-03 8.78734631e-04 0. 4.39367304e-03 1.75746926e-03
      8.78734631e-04 8.78734631e-04 0. 1.75746926e-03 8.78734631e-04
      8.78734631e-04 1.75746926e-03 0. 0. 2.63620401e-03 1.75746926e-03
      6.15114253e-03 8.78734631e-04 0. 0. 1.75746926e-03 8.78734631e-04
      0. 0. 2.63620401e-03 1.75746926e-03 8.78734631e-04 3.51493852e-03
      2.63620401e-03 1.75746926e-03 0. 0. 8.78734631e-04 0.
      8.78734631e-04 8.78734631e-04 8.78734631e-04 8.78734631e-04
      8.78734631e-04 0. 8.78734631e-04 8.78734631e-04 0. 8.78734631e-04
      0. 8.78734631e-04 3.51493852e-03 8.78734631e-04 0. 4.39367304e-03
      8.78734631e-04 0. 8.78734631e-04 8.78734631e-04 1.75746926e-03
      1.75746926e-03 8.78734631e-04 0. 0. 8.78734631e-04 0. 0. 0.
      8.78734631e-04 8.78734631e-04 0. 0. 0. 8.78734631e-04 0. 0.
      2.63620401e-03 0. 0. 8.78734631e-04 2.63620401e-03 5.27240802e-03
      1.75746926e-03 0. 0. 1.75746926e-03 1.75746926e-03 8.78734631e-04
      4.39367304e-03 0. 0. 1.75746926e-03 8.78734631e-04 8.78734631e-04
      8.78734631e-04 2.63620401e-03 8.78734631e-04 8.78734631e-04
      1.75746926e-03 8.78734631e-04 8.78734631e-04 2.63620401e-03
      8.78734631e-04 0. 0. 2.63620401e-03 0. 8.78734631e-04 0. 0. 0. 0.
      0. 0. 0. 4.39367304e-03 0. 0. 8.78734631e-04 2.63620401e-03
      2.63620401e-03 0. 3.51493852e-03 2.63620401e-03 1.75746926e-03 0.
      8.78734631e-04 0. 0. 8.78734631e-04 8.78734631e-04 8.78734631e-04
      1.75746926e-03 8.78734631e-04 0. 8.78734631e-04 0. 0. 0. 0. 0. 0.
      8.78734631e-04 0. 1.75746926e-03 0. 0. 8.78734631e-04 0.
      8.78734631e-04 2.63620401e-03 0. 8.78734631e-04 0. 0.
      8.78734631e-04 8.78734631e-04 0. 1.75746926e-03 8.78734631e-04 0.
      8.78734631e-04 0. 8.78734631e-04 0. 0. 0. 8.78734631e-04
      2.63620401e-03 3.51493852e-03 0. 8.78734631e-04 0. 8.78734631e-04
      1.75746926e-03 0. 0. 0. 1.75746926e-03 0. 0. 2.63620401e-03 0.
      1.75746926e-03 0. 0. 0. 0. 8.78734631e-04 2.63620401e-03 0. 0.
      8.78734631e-04 8.78734631e-04 0. 8.78734631e-04 8.78734631e-04
      8.78734631e-04 1.75746926e-03 0. 1.75746926e-03 0. 8.78734631e-04
      8.78734631e-04 0. 1.75746926e-03 4.39367304e-03 1.75746926e-03 0.
      8.78734631e-04 1.75746926e-03 1.75746926e-03 1.75746926e-03 0.
      8.78734631e-04 0. 1.75746926e-03 5.27240802e-03 0. 8.78734631e-04
      8.78734631e-04 8.78734631e-04 8.78734631e-04 2.63620401e-03
      1.75746926e-03 3.51493852e-03 0. 0. 0. 1.75746926e-03 0. 0. 0. 0.
      8.78734631e-04 8.78734631e-04 8.78734631e-04 0. 0. 0.
      8.78734631e-04 0. 0. 0. 8.78734631e-04 1.75746926e-03 0. 0. 0.
      8.78734631e-04 3.51493852e-03 0. 0. 0. 0. 0. 0. 0. 0.
      1.75746926e-03 4.39367304e-03 3.51493852e-03 8.78734631e-04 0. 0.
      8.78734631e-04 0. 0. 1.75746926e-03 0. 2.63620401e-03 0.
      1.75746926e-03 0. 0. 8.78734607e-03 0. 0. 2.63620401e-03
      8.78734631e-04 1.75746926e-03 0. 0. 8.78734631e-04 3.51493852e-03
      0. 0. 0. 1.75746926e-03 8.78734631e-04 0. 0. 1.75746926e-03
      7.90861156e-03 0. 8.78734631e-04 0. 0. 8.78734631e-04 0. 0.
      3.51493852e-03 1.75746926e-03 0. 8.78734631e-04 2.63620401e-03
      8.78734631e-04 1.75746926e-03 8.78734631e-04 0. 9.66608059e-03 0.
      8.78734631e-04 0. 8.78734631e-04 8.78734631e-04 3.51493852e-03 0.
      0. 2.63620401e-03 0. 0. 0. 8.78734631e-04 4.39367304e-03
      2.63620401e-03 1.75746926e-03 0. 2.63620401e-03 5.27240802e-03 0.
      8.78734631e-04 0. 8.78734631e-04 1.75746926e-03 8.78734631e-04
      3.51493852e-03 0. 8.78734631e-04 0. 2.63620401e-03 0. 0.
      2.63620401e-03 0. 4.39367304e-03 0. 0. 6.15114253e-03 0. 0. 0.
      1.75746926e-03 0. 0. 1.75746926e-03 0. 0. 8.78734631e-04
      4.39367304e-03 0. 2.63620401e-03 0. 0. 0. 0. 0. 4.39367304e-03 0.
      8.78734631e-04 0. 0. 8.78734631e-04 1.75746926e-03 8.78734631e-04
      0. 0. 0. 0. 0. 0. 0. 0. 8.78734631e-04 0. 1.75746926e-03
      1.75746926e-03 8.78734631e-04 0.</_>
    <_>
      0. 0. 0. 1.46904504e-02 0. 0. 0. 0. 2.09863577e-03 0.
      1.04931789e-03 0. 0. 0. 0. 0. 0. 0. 1.04931789e-03 0.
      1.04931789e-03 3.14795366e-03 1.04931789e-03 0. 0. 0.
      1.04931789e-03 2.09863577e-03 1.04931789e-03 0. 0. 0. 0. 0.
      1.04931789e-03 0. 0. 0. 1.04931789e-03 1.04931789e-03
      1.04931789e-03 0. 0. 0. 0. 0. 0. 0. 1.04931789e-03 1.04931789e-03
      1.04931789e-03 0. 0. 0. 1.04931789e-03 0. 0. 0. 1.04931789e-03
      4.19727154e-03 3.14795366e-03 0. 0. 1.04931789e-03 0. 0. 0.
      3.14795366e-03 0. 2.09863577e-03 1.04931789e-03 0. 0. 0. 0. 0. 0.
      0. 0. 0. 1.04931789e-03 0. 0. 0. 1.04931789e-03 0. 1.04931789e-03
      0. 0. 1.04931789e-03 0. 5.24658943e-03 1.04931789e-03 0.
      1.04931789e-03 2.09863577e-03 0. 1.04931789e-03 1.04931789e-03
      1.04931789e-03 3.14795366e-03 0. 0. 7.34522520e-03 0.
      1.04931789e-03 1.04931789e-03 2.09863577e-03 1.04931789e-03 0.
      2.09863577e-03 3.14795366e-03 0. 0. 0. 0. 1.04931789e-03
      7.34522520e-03 2.09863577e-03 3.14795366e-03 0. 0. 0. 0.
      2.09863577e-03 0. 0. 0. 3.14795366e-03 7.34522520e-03
      1.04931789e-03 1.04931789e-03 0. 0. 2.09863577e-03 1.04931789e-03
      0. 0. 0. 0. 0. 2.09863577e-03 0. 0. 1.04931789e-03 0. 0. 0. 0.
      2.09863577e-03 1.04931789e-03 0. 3.14795366e-03 0. 0. 0. 0. 0. 0.
      0. 1.04931789e-03 5.24658943e-03 1.04931789e-03 0. 0. 0. 0.
      2.09863577e-03 0. 0. 3.14795366e-03 1.04931789e-03 6.29590731e-03
      1.04931789e-03 0. 0. 1.04931789e-03 0. 0. 1.04931789e-03
      2.09863577e-03 0. 0. 0. 1.04931789e-03 0. 1.04931789e-03 0.
      1.04931789e-03 0. 0. 0. 1.04931789e-03 0. 0. 0. 0. 2.09863577e-03
      0. 5.24658943e-03 0. 0. 0. 1.04931789e-03 2.09863577e-03
      2.09863577e-03 0. 1.04931789e-03 0. 0. 0. 4.19727154e-03
      2.09863577e-03 0. 1.78384036e-02 0. 3.14795366e-03 0. 0.
      4.19727154e-03 2.09863577e-03 0. 0. 0. 0. 0. 4.19727154e-03 0.
      1.04931789e-03 0. 1.04931789e-03 9.44386050e-03 0. 0.
      1.04931789e-03 0. 0. 0. 1.04931789e-03 0. 2.09863577e-03 0. 0. 0.
      0. 2.09863577e-03 0. 0. 1.04931789e-03 0. 0. 1.04931789e-03
      1.04931789e-03 1.04931789e-03 4.19727154e-03 0. 1.04931789e-03 0.
      1.04931789e-03 0. 0. 0. 0. 0. 1.04931789e-03 7.34522520e-03 0.
      3.14795366e-03 0. 0. 2.09863577e-03 3.14795366e-03 0. 0. 0.
      1.04931789e-03 1.04931789e-03 0. 0. 0. 3.14795366e-03
      2.09863577e-03 0. 0. 0. 1.04931789e-03 1.04931789e-03
      2.09863577e-03 0. 1.04931789e-03 1.04931789e-03 0. 0.
      1.04931789e-03 0. 1.04931789e-03 0. 2.09863577e-03 1.04931789e-03
      1.04931789e-03 0. 0. 1.04931789e-03 2.09863577e-03 0. 0.
      2.09863577e-03 0. 1.04931789e-03 0. 0. 1.04931789e-03
      4.19727154e-03 0. 0. 5.24658943e-03 1.04931789e-03 0. 0.
      3.14795366e-03 0. 0. 0. 0. 0. 0. 1.04931789e-03 7.34522520e-03
      1.04931789e-03 0. 0. 2.09863577e-03 0. 0. 0. 1.04931789e-03 0.
      5.24658943e-03 1.04931789e-03 0. 1.04931789e-03 0. 1.04931789e-03
      6.29590731e-03 1.04931789e-03 0. 0. 1.04931789e-03 0. 0.
      6.29590731e-03 0. 2.09863577e-03 0. 0. 1.04931789e-03 0.
      1.04931789e-03 1.04931789e-03 0. 0. 0. 1.04931789e-03 0. 0. 0. 0.
      0. 0. 3.14795366e-03 0. 1.04931789e-03 0. 0. 4.19727154e-03 0.
      4.19727154e-03 1.04931789e-03 1.04931789e-03 0. 0. 1.04931789e-03
      1.04931789e-03 1.04931789e-03 2.09863577e-03 0. 1.04931789e-03
      1.04931789e-03 0. 0. 2.09863577e-03 0. 3.14795366e-03
      2.09863577e-03 0. 0. 5.24658943e-03 0. 0. 0. 0. 1.46904504e-02
      1.04931789e-03 0. 0. 1.04931789e-03 0. 5.24658943e-03
      2.09863577e-03 0. 6.29590731e-03 1.04931789e-03 6.29590731e-03 0.
      0. 0. 2.09863577e-03 0. 0. 0. 1.04931789e-03 1.04931789e-03
      2.09863577e-03 0. 0. 1.04931789e-03 0. 2.09863577e-03 0.
      1.04931789e-03 2.09863577e-03 0. 0. 0. 0. 0. 0. 0. 2.09863577e-03
      1.04931789e-03 0. 3.14795366e-03 0. 0. 0. 0. 0. 0. 0.
      3.14795366e-03 0. 0. 0. 0. 1.04931789e-03 0. 4.19727154e-03
      2.09863577e-03 2.09863577e-03 2.09863577e-03 5.24658943e-03
      2.09863577e-03 1.04931789e-03 3.14795366e-03 2.09863577e-03 0.
      1.04931789e-03 1.04931789e-03 0. 0. 2.09863577e-03 0. 0.
      1.04931789e-03 0. 1.04931789e-03 0. 0. 0. 2.09863577e-03 0. 0. 0.
      0. 0. 0. 1.04931789e-03 1.04931789e-03 4.19727154e-03 0.
      4.19727154e-03 1.04931789e-03 1.04931789e-03 0. 1.04931789e-03
      2.09863577e-03 0. 0. 0. 0. 4.19727154e-03 6.29590731e-03
      4.19727154e-03 0. 1.04931789e-03 0. 0. 0. 0. 0. 0. 0. 0. 0. 0.
      2.09863577e-03 1.04931789e-03 0. 0. 0. 1.04931789e-03 0. 0. 0.
      2.09863577e-03 0. 0. 1.04931789e-03 0. 0. 0. 0. 1.04931789e-03
      6.29590731e-03 1.04931789e-03 0. 4.19727154e-03 0. 2.09863577e-03
      0. 0. 0. 3.14795366e-03 0. 0. 3.14795366e-03 0. 2.09863577e-03
      1.04931789e-03 2.09863577e-03 0. 1.04931789e-03 1.04931789e-03 0.
      2.09863577e-03 0. 2.09863577e-03 1.25918146e-02 0. 0.
      1.04931789e-03 0. 0. 2.09863577e-03 0. 4.19727154e-03
      3.14795366e-03 2.09863577e-03 0. 0. 1.04931789e-03 0.
      1.04931789e-03 1.04931789e-03 3.14795366e-03 0. 0. 0.
      1.04931789e-03 0. 1.04931789e-03 0. 3.14795366e-03 0.
      2.09863577e-03 0. 0. 1.04931789e-03 0. 0. 0. 1.99370403e-02 0. 0.
      0. 1.04931789e-03 0. 1.04931789e-03 1.04931789e-03 0. 0.
      2.09863577e-03 0. 0. 0. 3.14795366e-03 1.04931789e-03
      2.09863577e-03 0. 1.04931789e-03 1.04931789e-03 0. 0.
      1.04931789e-03 1.04931789e-03 0. 0. 2.09863577e-03 0.
      2.09863577e-03 2.09863577e-03 1.04931789e-03 0. 0. 0. 0. 0. 0. 0.
      1.04931789e-03 2.09863577e-03 4.19727154e-03 0. 0. 1.04931789e-03
      0. 0. 0. 1.04931789e-03 1.04931789e-03 0. 0. 1.04931789e-03 0.
      2.09863577e-03 1.04931789e-03 0. 0. 0. 0. 1.04931789e-03 0. 0. 0.
      0. 0. 0. 0. 2.09863577e-03 1.04931789e-03 2.09863577e-03
      1.04931789e-03 1.04931789e-03 0. 1.04931789e-03 0. 2.09863577e-03
      3.14795366e-03 0. 0. 2.09863577e-03 1.04931789e-03 0. 0. 0.
      1.04931789e-03 0. 0. 1.04931789e-03 1.04931789e-03 0. 0.
      1.04931789e-03 6.29590731e-03 7.34522520e-03 0. 0. 2.09863577e-03
      7.34522520e-03 2.09863577e-03 0. 0. 0. 9.44386050e-03
      1.04931789e-03 1.04931789e-03 1.04931789e-03 2.09863577e-03 0.
      4.19727154e-03 9.44386050e-03 2.09863577e-03 0. 0. 0. 0.
      4.19727154e-03 0. 0. 0. 1.04931789e-03 1.04931789e-03
      2.09863577e-03 0. 0. 3.14795366e-03 0. 2.09863577e-03 0. 0. 0. 0.
      0. 1.04931789e-03 0. 6.29590731e-03 0. 0. 0. 0. 1.04931789e-03
      1.04931789e-03 0. 1.04931789e-03 0. 1.04931789e-03 0.
      4.19727154e-03 0. 1.04931789e-03 0. 0. 3.14795366e-03
      2.09863577e-03 2.09863577e-03 1.04931789e-03 0. 0. 0. 0. 0. 0.
      4.19727154e-03 0. 1.04931789e-03 0. 1.04931789e-02 0. 0. 0. 0. 0.
      0. 4.19727154e-03 1.04931789e-03 0. 0. 0. 0. 0. 1.04931789e-03 0.
      0. 0. 1.04931789e-03 2.09863577e-03 0. 0. 2.09863577e-03 0. 0.
      2.09863577e-03 0. 1.25918146e-02 0. 1.04931789e-03 2.09863577e-03
      0. 0. 0. 0. 0. 0. 0. 0. 2.09863577e-03 2.09863577e-03
      2.09863577e-03 0. 1.04931789e-03 2.09863577e-03 1.04931789e-03 0.
      0. 4.19727154e-03 0. 5.24658943e-03 0. 0. 0. 1.04931789e-02
      2.09863577e-03 2.09863577e-03 0. 0. 0. 0. 0. 0. 2.09863577e-03 0.
      0. 0. 0. 0. 0. 1.04931789e-03 0. 0. 0. 0. 0. 2.09863577e-03
      1.04931789e-03 0. 1.04931789e-03 0. 0. 0. 1.04931789e-03 0. 0.
      1.04931789e-03 0. 0. 0. 2.09863577e-03 1.04931789e-03 0.
      1.04931789e-03 0. 0. 3.14795366e-03 2.09863577e-03 0.
      3.14795366e-03 0. 0. 1.04931789e-03 0. 0. 0. 1.04931789e-03 0. 0.
      1.04931789e-03 6.29590731e-03 4.19727154e-03 1.04931789e-03
      2.09863577e-03 0. 2.09863577e-03 1.04931789e-03 0. 0. 0. 0. 0.
      1.04931789e-03 0. 0. 0. 0. 0. 0. 2.09863577e-03 1.04931789e-03 0.
      0. 0. 0. 1.04931789e-03 0. 0. 0. 0. 0. 1.04931789e-03 0. 0. 0.
      1.04931789e-03 2.09863577e-03 0. 8.39454308e-03 4.19727154e-03
      2.09863577e-03 6.29590731e-03 1.04931789e-03 0. 0. 0.
      2.09863577e-03 1.04931789e-03 0. 1.04931789e-03 0. 0. 0.
      4.19727154e-03 1.04931789e-03 3.14795366e-03 0. 0. 0.
      2.09863577e-03 0. 0. 0. 3.14795366e-03 0. 0. 2.09863577e-03
      1.04931789e-03 0. 1.04931789e-03 0. 1.04931789e-03 1.04931789e-03
      3.14795366e-03 3.14795366e-03 0. 1.04931789e-03 2.09863577e-03 0.
      4.19727154e-03 0. 0. 0. 0. 0. 0. 0. 1.04931789e-03 2.09863577e-03
      4.19727154e-03 0. 0. 2.09863577e-03 0. 0. 0. 0. 0. 2.09863577e-03
      0. 0. 5.24658943e-03 1.04931789e-03 0. 1.04931789e-03 0. 0. 0. 0.
      1.04931789e-03 0. 1.04931789e-03 0. 0. 0. 3.14795366e-03
      2.09863577e-03 1.04931789e-03 1.04931789e-03 0. 7.34522520e-03 0.
      3.14795366e-03 0. 7.34522520e-03 3.14795366e-03 0. 0.
      3.14795366e-03 2.09863577e-03 1.04931789e-03 0. 0. 0.</_>
    <_>
      4.07000422e-04 2.03500222e-03 8.14000843e-04 2.03500222e-03
      1.22100126e-03 8.14000843e-04 4.07000422e-04 0. 2.03500222e-03
      4.07000422e-04 0. 2.44200253e-03 0. 0. 4.07000422e-04
      8.14000843e-04 0. 0. 8.14000843e-04 0. 1.62800169e-03
      1.22100126e-03 4.07000422e-04 0. 0. 4.07000422e-04 0.
      8.14000843e-04 0. 1.62800169e-03 4.07000422e-04 0. 8.14000843e-04
      4.07000422e-04 0. 1.62800169e-03 4.07000422e-04 4.07000422e-04
      4.07000422e-04 4.07000422e-04 1.62800169e-03 3.66300391e-03 0.
      4.07000445e-03 0. 4.07000422e-04 4.07000422e-04 8.14000843e-04
      1.62800169e-03 0. 1.22100126e-03 4.07000422e-04 4.07000422e-04
      1.22100126e-03 2.03500222e-03 4.07000422e-04 8.14000843e-04
      4.07000422e-04 8.14000843e-04 1.22100126e-03 8.14000843e-04 0. 0.
      2.03500222e-03 7.32600782e-03 8.14000843e-04 1.62800169e-03
      2.44200253e-03 2.03500222e-03 4.07000422e-04 0. 4.07000422e-04 0.
      0. 0. 1.62800169e-03 0. 4.07000422e-04 4.07000422e-04 0.
      9.76801012e-03 1.22100126e-03 4.07000422e-04 1.62800169e-03 0.
      1.62800169e-03 3.25600337e-03 0. 4.07000422e-04 1.22100126e-03
      4.07000422e-04 8.14000843e-04 8.14000843e-04 8.14000843e-04
      8.14000843e-04 0. 0. 8.14000843e-04 2.03500222e-03 4.07000422e-04
      8.14000843e-04 0. 0. 0. 4.07000422e-04 1.22100126e-03
      2.03500222e-03 4.07000422e-04 1.22100126e-03 0. 8.14000843e-04
      2.44200253e-03 0. 4.07000422e-04 0. 1.62800169e-03 4.07000422e-04
      1.05820112e-02 4.07000422e-04 4.07000422e-04 4.07000422e-04 0. 0.
      0. 2.03500222e-03 4.07000422e-04 4.07000422e-04 8.14000843e-04 0.
      2.84900283e-03 0. 4.07000422e-04 0. 8.14000843e-04 2.44200253e-03
      0. 0. 4.07000422e-04 2.03500222e-03 4.07000422e-04 4.07000422e-04
      3.25600337e-03 0. 4.07000422e-04 5.29100560e-03 4.07000422e-04 0.
      0. 0. 0. 0. 4.07000422e-04 3.66300391e-03 8.14000843e-04 0. 0. 0.
      0. 0. 0. 4.07000445e-03 8.14000843e-04 0. 0. 4.07000422e-04 0. 0.
      0. 0. 8.14000843e-04 4.88400506e-03 4.07000422e-04 1.62800169e-03
      0. 0. 0. 1.22100126e-03 1.22100126e-03 4.07000422e-04
      4.47700452e-03 8.14000843e-04 4.07000422e-04 1.22100126e-03
      4.07000422e-04 8.14000843e-04 4.07000422e-04 1.62800169e-03
      4.07000422e-04 1.62800169e-03 4.07000422e-04 3.33740339e-02 0.
      4.07000422e-04 8.14000843e-04 4.07000422e-04 0. 0. 4.07000422e-04
      4.07000422e-04 2.44200253e-03 0. 4.47700452e-03 3.66300391e-03
      2.44200253e-03 4.07000422e-04 1.22100126e-03 1.22100126e-03
      1.22100126e-03 1.62800169e-03 4.07000422e-04 4.07000422e-04 0. 0.
      0. 4.07000445e-03 4.07000422e-04 8.14000843e-04 1.22100126e-03 0.
      4.07000422e-04 0. 1.22100126e-03 1.22100126e-03 1.22100126e-03
      4.07000422e-04 0. 8.14000843e-04 0. 0. 4.07000422e-04
      4.07000422e-04 2.44200253e-03 4.47700452e-03 0. 8.14000843e-04
      8.14000843e-04 0. 0. 4.07000422e-04 4.07000422e-04 0.
      4.07000422e-04 4.07000422e-04 4.07000422e-04 0. 4.07000422e-04
      8.14000843e-04 0. 8.14000843e-04 8.14000843e-04 1.62800169e-03 0.
      8.14000843e-04 2.03500222e-03 2.84900283e-03 8.14000843e-04
      8.14000843e-04 8.14000843e-04 4.07000422e-04 2.03500222e-03 0.
      1.62800169e-03 4.07000422e-04 0. 1.22100126e-03 4.47700452e-03 0.
      0. 0. 3.25600337e-03 0. 1.22100126e-03 8.14000843e-04
      8.14000843e-04 2.03500222e-03 8.14000843e-04 4.07000422e-04
      8.14000843e-04 0. 0. 2.03500222e-03 8.14000843e-04 0.
      8.14000843e-04 4.07000422e-04 4.07000422e-04 0. 4.07000422e-04 0.
      0. 2.44200253e-03 8.14000843e-04 1.62800169e-03 4.07000422e-04
      2.03500222e-03 8.14000843e-04 0. 1.22100126e-03 0. 0.
      4.07000422e-04 4.07000422e-04 3.25600337e-03 0. 0. 0.
      4.07000422e-04 4.07000445e-03 4.07000422e-04 0. 0. 0.
      8.14000843e-04 4.07000422e-04 4.07000422e-04 4.07000422e-04 0.
      2.44200253e-03 0. 4.07000422e-04 4.88400506e-03 4.07000422e-04 0.
      1.22100126e-03 0. 0. 0. 2.84900283e-03 4.07000422e-04 0. 0.
      1.22100126e-03 4.07000422e-04 0. 4.07000422e-04 4.07000422e-04
      1.22100124e-02 1.22100126e-03 4.07000422e-04 0. 8.14000843e-04
      8.14000843e-04 2.03500222e-03 2.03500222e-03 8.14000843e-04 0.
      4.07000422e-04 0. 4.07000422e-04 0. 1.22100126e-03 4.07000422e-04
      0. 0. 2.03500222e-03 4.07000422e-04 0. 4.07000422e-04
      8.14000843e-04 4.07000422e-04 0. 0. 0. 0. 8.14000843e-04 0.
      4.07000422e-04 0. 1.22100126e-03 8.14000843e-04 1.62800169e-03 0.
      0. 4.07000422e-04 0. 0. 1.22100126e-03 4.07000422e-04
      1.22100126e-03 4.07000422e-04 4.07000422e-04 4.07000422e-04
      8.14000843e-04 4.07000422e-04 0. 0. 1.22100126e-03 1.22100126e-03
      4.07000422e-04 0. 2.84900283e-03 4.07000422e-04 2.03500222e-03
      4.07000422e-04 4.07000422e-04 0. 5.69800567e-03 8.14000843e-04
      4.88400506e-03 4.07000422e-04 2.03500222e-03 3.25600337e-03
      4.07000422e-04 1.22100126e-03 1.01750102e-02 0. 4.07000422e-04
      1.62800169e-03 4.07000422e-04 0. 3.66300391e-03 2.03500222e-03
      8.14000843e-04 0. 7.73300789e-03 0. 0. 1.62800169e-03
      1.22100126e-03 4.07000422e-04 3.66300391e-03 4.07000422e-04 0.
      4.07000422e-04 0. 0. 0. 4.07000422e-04 4.07000422e-04 0.
      2.03500222e-03 0. 0. 4.07000422e-04 0. 0. 0. 2.44200253e-03 0. 0.
      4.07000422e-04 2.03500222e-03 4.07000422e-04 4.07000422e-04 0.
      4.07000422e-04 4.07000422e-04 4.07000422e-04 2.44200253e-03
      3.25600337e-03 4.07000422e-04 4.07000422e-04 0. 4.07000422e-04
      4.07000422e-04 0. 0. 0. 4.07000422e-04 8.14000843e-04
      1.22100126e-03 8.14000843e-04 0. 8.14000843e-04 4.07000422e-04
      4.07000422e-04 0. 3.66300391e-03 0. 0. 8.14000843e-04
      1.62800169e-03 2.44200253e-03 0. 0. 4.07000422e-04 4.07000422e-04
      4.07000422e-04 0. 0. 4.07000422e-04 8.14000843e-04 4.07000422e-04
      8.14000843e-04 0. 8.14000843e-04 4.07000422e-04 0. 4.07000422e-04
      0. 2.44200253e-03 1.22100126e-03 0. 8.14000843e-04 2.44200253e-03
      4.07000422e-04 0. 4.07000422e-04 2.72690281e-02 0. 1.22100126e-03
      0. 4.07000422e-04 1.22100126e-03 4.07000422e-04 8.54700897e-03
      8.14000843e-04 4.07000422e-04 0. 0. 8.14000843e-04 4.07000422e-04
      0. 4.07000422e-04 4.07000422e-04 4.07000422e-04 0. 0.
      1.22100126e-03 4.07000422e-04 0. 8.14000843e-04 4.07000422e-04 0.
      4.07000422e-04 4.07000422e-04 0. 1.22100126e-03 8.14000843e-04
      8.14000843e-04 2.44200253e-03 0. 1.62800169e-03 8.14000843e-04
      8.14000843e-04 2.03500222e-03 1.62800169e-03 0. 1.22100126e-03
      8.14000843e-04 9.36101004e-03 4.07000422e-04 1.62800169e-03
      1.22100126e-03 4.07000422e-04 2.84900283e-03 1.22100126e-03 0.
      1.62800169e-03 0. 2.44200253e-03 0. 2.44200253e-03 1.22100126e-03
      6.10500621e-03 4.07000422e-04 2.03500222e-03 8.14000843e-04 0.
      4.07000422e-04 4.07000422e-04 4.07000422e-04 1.22100126e-03
      1.62800169e-03 0. 8.14000843e-04 8.14000843e-04 2.03500222e-03
      4.07000422e-04 2.84900283e-03 8.14000843e-04 0. 4.07000422e-04
      4.07000422e-04 1.62800169e-03 0. 4.07000422e-04 1.62800169e-03 0.
      4.07000422e-04 4.07000422e-04 0. 4.07000422e-04 0. 4.07000422e-04
      1.62800169e-03 0. 8.14000843e-04 0. 0. 1.22100126e-03
      8.14000890e-03 6.10500621e-03 8.14000843e-04 4.07000422e-04
      1.62800169e-03 0. 4.07000422e-04 0. 2.03500222e-03 1.22100126e-03
      1.62800169e-03 0. 8.14000843e-04 8.14000843e-04 4.07000422e-04
      1.62800169e-03 2.44200253e-03 4.07000422e-04 8.14000843e-04
      3.66300391e-03 1.62800169e-03 2.03500222e-03 4.07000422e-04
      8.14000843e-04 0. 0. 0. 4.07000422e-04 1.01750102e-02
      1.62800169e-03 0. 4.07000422e-04 0. 0. 3.66300391e-03 0.
      4.07000422e-04 0. 4.07000422e-04 8.14000843e-04 2.44200253e-03 0.
      8.14000843e-04 0. 1.01750102e-02 4.07000422e-04 4.07000422e-04 0.
      0. 8.14000843e-04 4.07000422e-04 3.66300391e-03 0. 3.25600337e-03
      8.14000843e-04 0. 4.07000422e-04 0. 4.07000422e-04 0.
      8.14000843e-04 0. 4.07000422e-04 4.07000422e-04 0. 1.22100126e-03
      3.25600337e-03 4.07000422e-04 0. 0. 4.07000422e-04 2.03500222e-03
      0. 4.07000422e-04 8.14000843e-04 4.07000422e-04 5.29100560e-03
      4.88400506e-03 4.07000422e-04 1.62800169e-03 3.25600337e-03 0. 0.
      8.14000843e-04 0. 4.07000422e-04 0. 8.14000843e-04 0.
      8.14000843e-04 0. 8.14000843e-04 3.25600337e-03 2.03500222e-03
      8.14000843e-04 2.84900283e-03 0. 2.44200253e-03 8.14000843e-04
      4.07000422e-04 0. 1.62800169e-03 2.03500222e-03 4.07000422e-04
      4.07000445e-03 1.62800169e-03 4.07000422e-04 8.14000843e-04 0.
      1.62800169e-03 0. 8.14000843e-04 8.14000843e-04 4.07000422e-04
      1.62800169e-03 0. 0. 0. 4.07000422e-04 4.07000422e-04 0.
      4.07000422e-04 1.22100126e-03 4.07000422e-04 4.07000422e-04 0.
      2.03500222e-03 4.07000422e-04 2.03500222e-03 4.07000422e-04
      8.14000843e-04 4.07000422e-04 1.22100126e-03 0. 2.03500222e-03
      4.88400506e-03 4.07000422e-04 0. 8.14000843e-04 4.07000422e-04
      2.44200253e-03 0. 4.07000422e-04 0. 1.22100126e-03 0.
      5.29100560e-03 0. 8.14000843e-04 0. 0. 1.62800169e-03
      8.14000843e-04 4.07000422e-04 0. 8.14000843e-04 2.03500222e-03 0.
      4.07000422e-04 0. 0. 8.14000843e-04 2.03500222e-03 0. 0. 0.
      8.14000843e-04 0. 1.22100126e-03 0. 4.07000422e-04 0.
      3.25600337e-03 0. 1.22100126e-03 8.14000843e-04 2.03500222e-03
      4.07000422e-04 0. 4.07000422e-04 1.22100126e-03 4.07000422e-04 0.
      8.14000843e-04 2.44200253e-03 0. 0. 4.07000422e-04 0.
      4.07000422e-04 0. 4.07000422e-04 2.84900283e-03 4.07000422e-04 0.
      4.07000422e-04 0. 4.07000422e-04 0. 0. 8.14000843e-04 0. 0.
      2.03500222e-03 3.66300391e-03 2.44200253e-03 0. 0. 8.14000843e-04
      8.14000843e-04 8.14000843e-04 4.07000422e-04 8.14000843e-04
      9.36101004e-03 8.14000843e-04 1.62800169e-03 4.07000422e-04
      8.14000843e-04 0. 4.07000445e-03 0. 0. 4.07000422e-04
      1.62800169e-03 0. 8.14000843e-04 0. 0. 2.44200253e-03
      4.07000422e-04 4.07000422e-04 0. 0. 4.07000422e-04 2.84900283e-03
      2.44200253e-03 0. 8.14000843e-04 0. 4.07000445e-03 0.
      1.62800169e-03 8.14000843e-04 0. 8.14000843e-04 0. 0.
      4.88400506e-03 2.44200253e-03 0. 0. 0. 4.07000422e-04
      8.14000843e-04 8.14000843e-04 0. 2.44200253e-03 0. 4.07000422e-04
      4.07000422e-04 0. 1.22100126e-03 4.07000422e-04 1.22100126e-03
      4.07000445e-03 8.14000843e-04 1.62800169e-03 1.62800169e-03
      3.25600337e-03 0. 0. 0. 4.07000422e-04 0. 2.03500222e-03
      1.62800169e-03 1.22100126e-03 4.07000422e-04 0. 0. 0.
      8.54700897e-03 4.07000422e-04 0. 8.14000843e-04 2.03500222e-03
      4.47700452e-03 1.62800169e-03 4.07000422e-04 4.07000422e-04 0.
      8.14000843e-04 8.14000843e-04 0. 8.14000843e-04 2.44200253e-03
      8.14000843e-04 0. 4.07000422e-04 1.22100126e-03 4.07000422e-04
      8.14000843e-04 2.03500222e-03 0. 4.07000422e-04 4.07000422e-04 0.
      4.07000422e-04 0. 0. 8.14000843e-04 1.62800169e-03 4.47700452e-03
      8.54700897e-03 0. 0. 3.66300391e-03 6.51200674e-03 0.
      4.07000422e-04 0. 1.22100126e-03 8.14000843e-04 0. 8.14000843e-04
      5.29100560e-03 1.22100126e-03 8.14000843e-04 2.44200253e-03 0. 0.
      8.14000843e-04 0. 4.07000422e-04 4.07000422e-04 0. 1.22100126e-03
      0. 8.14000843e-04 0. 0. 8.14000843e-04 0. 4.07000422e-04 0.
      8.14000843e-04 0. 0. 1.62800169e-03 2.44200253e-03 4.07000422e-04
      8.14000843e-04 4.07000422e-04 1.62800169e-03 4.07000422e-04
      1.22100126e-03 0. 0. 8.14000843e-04 8.14000843e-04 0.
      7.32600782e-03 1.22100126e-03 4.88400506e-03 0. 4.07000422e-04 0.
      0. 4.07000422e-04 2.44200253e-03 1.22100126e-03 4.07000422e-04
      4.07000422e-04 0. 4.07000422e-04 0. 8.14000843e-04 2.84900283e-03
      4.07000422e-04 0. 0. 0. 1.22100126e-03 1.22100126e-03 0.
      1.22100126e-03 0. 0. 8.14000843e-04 8.14000843e-04 2.03500222e-03
      4.07000422e-04 0. 4.07000422e-04 0. 2.03500222e-03 3.25600337e-03
      2.03500222e-03 0. 5.29100560e-03 4.07000422e-04 2.03500222e-03 0.
      1.22100126e-03 0. 0. 0. 8.14000843e-04 4.07000422e-04</_>
    <_>
      1.52207003e-03 0. 1.52207003e-03 0. 1.52207003e-03 1.52207003e-03
      0. 0. 3.04414006e-03 1.52207003e-03 0. 7.61035015e-04
      1.52207003e-03 0. 7.61035015e-04 7.61035015e-04 0. 0.
      1.52207003e-03 7.61035015e-04 3.80517496e-03 2.28310516e-03
      2.28310516e-03 7.61035015e-04 0. 0. 7.61035015e-04 1.52207003e-03
      2.28310516e-03 0. 7.61035015e-04 0. 0. 7.61035015e-04
      2.28310516e-03 7.61035015e-04 0. 0. 7.61035015e-04 0.
      2.28310516e-03 7.61035015e-04 0. 7.61035015e-04 0. 0. 0. 0.
      4.56621032e-03 0. 8.37138481e-03 2.28310516e-03 0. 4.56621032e-03
      0. 1.52207003e-03 1.52207003e-03 0. 1.52207003e-03 3.80517496e-03
      7.61035015e-04 7.61035015e-04 0. 0. 3.04414006e-03 0. 0.
      1.52207003e-03 2.28310516e-03 0. 0. 0. 0. 0. 0. 6.84931502e-03 0.
      7.61035015e-04 1.52207003e-03 0. 0. 7.61035015e-04 0.
      7.61035015e-04 0. 0. 7.61035015e-04 1.52207003e-03 0. 0.
      1.52207003e-03 7.61035015e-04 8.37138481e-03 3.04414006e-03 0. 0.
      1.52207003e-03 0. 2.28310516e-03 0. 5.32724522e-03 1.52207003e-03
      1.52207003e-03 7.61035015e-04 0. 0. 7.61035015e-04 0.
      7.61035015e-04 0. 4.56621032e-03 7.61035015e-04 0. 0. 0. 0.
      7.61035015e-04 7.61034992e-03 7.61035015e-04 1.52207003e-03
      2.28310516e-03 7.61035015e-04 1.52207003e-03 0. 0. 0. 0.
      7.61035015e-04 6.84931502e-03 7.61034992e-03 0. 0. 0. 0.
      1.52207003e-03 3.80517496e-03 7.61035015e-04 2.28310516e-03
      7.61035015e-04 1.52207003e-03 1.52207003e-03 0. 7.61035015e-04
      7.61035015e-04 3.04414006e-03 1.52207003e-03 7.61035015e-04
      7.61035015e-04 7.61035015e-04 7.61035015e-04 0. 1.52207003e-03
      1.52207003e-03 1.52207003e-03 0. 7.61035015e-04 4.56621032e-03 0.
      0. 0. 0. 0. 0. 3.04414006e-03 0. 0. 0. 9.13242064e-03
      7.61035015e-04 3.80517496e-03 7.61034992e-03 2.28310516e-03
      1.44596649e-02 7.61035015e-04 7.61035015e-04 0. 0. 1.52207003e-03
      3.04414006e-03 7.61035015e-04 3.04414006e-03 7.61035015e-04
      7.61035015e-04 0. 7.61035015e-04 0. 0. 0. 3.04414006e-03
      7.61035015e-04 1.52207003e-03 0. 0. 0. 7.61035015e-04 0. 0.
      7.61035015e-04 0. 7.61035015e-04 0. 4.56621032e-03 3.04414006e-03
      0. 7.61035015e-04 4.56621032e-03 0. 7.61035015e-04 0.
      1.52207003e-03 6.08828012e-03 7.61035015e-04 0. 0. 3.80517496e-03
      0. 7.61035015e-04 0. 0. 1.52207003e-03 0. 7.61035015e-04
      7.61035015e-04 7.61035015e-04 7.61035015e-04 0. 7.61035015e-04 0.
      3.04414006e-03 0. 0. 6.08828012e-03 9.13242064e-03 0. 0.
      7.61035015e-04 1.52207003e-03 0. 0. 0. 0. 7.61035015e-04 0. 0.
      7.61035015e-04 0. 0. 0. 7.61035015e-04 1.52207003e-03
      7.61035015e-04 0. 3.80517496e-03 2.28310516e-03 1.52207003e-03 0.
      0. 7.61035015e-04 7.61035015e-04 0. 0. 7.61035015e-04 0. 0.
      3.80517496e-03 7.61035015e-04 0. 0. 0. 7.61035015e-04 0.
      2.28310516e-03 3.04414006e-03 1.82648413e-02 7.61035015e-04 0.
      7.61035015e-04 7.61035015e-04 0. 1.52207003e-03 0. 0.
      7.61035015e-04 7.61035015e-04 7.61035015e-04 3.80517496e-03 0. 0.
      0. 0. 7.61035015e-04 0. 0. 0. 3.04414006e-03 7.61035015e-04
      7.61035015e-04 4.56621032e-03 0. 7.61035015e-04 2.28310516e-03
      1.52207003e-03 0. 0. 0. 7.61035015e-04 7.61035015e-04
      7.61035015e-04 0. 7.61035015e-04 0. 0. 0. 0. 0. 0. 0. 0. 0.
      1.52207003e-03 0. 1.52207003e-03 0. 2.28310516e-03 0. 0.
      2.28310516e-03 0. 0. 0. 1.52207003e-03 3.04414006e-03 0.
      7.61035015e-04 0. 0. 0. 7.61035015e-04 3.04414006e-03
      7.61035015e-04 2.28310516e-03 1.52207003e-03 0. 7.61035015e-04
      1.52207003e-03 0. 2.28310516e-03 3.04414006e-03 1.52207003e-03 0.
      2.28310516e-03 0. 0. 2.28310516e-03 0. 1.52207003e-03 0. 0. 0. 0.
      0. 0. 3.04414006e-03 7.61035015e-04 0. 1.52207003e-03 0.
      7.61035015e-04 0. 0. 7.61035015e-04 0. 0. 7.61035015e-04 0. 0. 0.
      1.52207003e-03 0. 1.52207003e-03 0. 0. 4.56621032e-03
      3.04414006e-03 7.61035015e-04 2.28310516e-03 3.80517496e-03
      3.04414006e-03 7.61035015e-04 2.28310516e-03 7.61035015e-04 0.
      7.61035015e-04 0. 0. 7.61035015e-04 0. 0. 0. 0. 7.61035015e-04
      7.61035015e-04 7.61035015e-04 0. 3.04414006e-03 0. 3.04414006e-03
      0. 0. 0. 7.61035015e-04 7.61035015e-04 7.61035015e-04
      2.28310516e-03 3.80517496e-03 0. 0. 0. 1.52207003e-03 0. 0. 0.
      7.61035015e-04 0. 0. 0. 0. 2.28310516e-03 7.61035015e-04
      1.52207003e-03 3.04414006e-03 0. 0. 0. 0. 0. 0. 7.61035015e-04
      3.80517496e-03 0. 7.61035015e-04 0. 0. 1.52207003e-03
      1.52207003e-03 0. 0. 7.61035015e-04 0. 0. 0. 0. 0. 0. 0. 0.
      7.61035015e-04 0. 1.52207003e-03 2.28310516e-03 0. 7.61035015e-04
      7.61035015e-04 0. 0. 0. 1.52207003e-03 7.61035015e-04 0.
      7.61035015e-04 7.61035015e-04 3.04414006e-03 2.28310516e-03
      1.52207003e-03 0. 0. 0. 7.61035015e-04 0. 0. 0. 1.52207003e-03 0.
      7.61035015e-04 0. 7.61035015e-04 0. 7.61035015e-04 7.61035015e-04
      0. 2.28310516e-03 1.52207003e-03 3.80517496e-03 6.08828012e-03 0.
      0. 7.61035015e-04 0. 0. 3.04414006e-03 7.61035015e-04
      2.28310516e-03 6.84931502e-03 6.08828012e-03 0. 1.52207003e-03
      1.52207003e-03 7.61035015e-04 0. 0. 0. 0. 0. 7.61035015e-04 0.
      7.61035015e-04 0. 0. 1.52207003e-03 7.61035015e-04 0.
      7.61035015e-04 7.61035015e-04 0. 7.61035015e-04 2.28310516e-03 0.
      1.52207003e-03 0. 7.61035015e-04 7.61035015e-04 0. 2.28310516e-03
      1.52207003e-03 1.52207003e-03 7.61035015e-04 3.80517496e-03 0. 0.
      1.52207003e-03 0. 7.61035015e-04 7.61035015e-04 0. 7.61035015e-04
      1.52207003e-03 0. 7.61035015e-04 7.61035015e-04 0. 1.52207003e-03
      7.61035015e-04 3.04414006e-03 7.61035015e-04 9.89345554e-03
      7.61035015e-04 7.61035015e-04 7.61035015e-04 0. 0. 7.61035015e-04
      0. 0. 3.04414006e-03 0. 1.82648413e-02 1.52207003e-03 0.
      7.61035015e-04 7.61035015e-04 7.61035015e-04 0. 7.61035015e-04
      7.61035015e-04 7.61035015e-04 0. 1.52207003e-03 3.04414006e-03
      7.61035015e-04 0. 1.52207003e-03 0. 0. 0. 0. 1.52207003e-03 0.
      2.28310516e-03 0. 0. 0. 2.20700148e-02 1.52207003e-03 0. 0.
      7.61035015e-04 0. 0. 0. 3.04414006e-03 7.61035015e-04
      7.61034992e-03 7.61035015e-04 7.61035015e-04 0. 1.52207003e-03
      1.52207003e-03 7.61035015e-04 1.52207003e-03 1.52207003e-03 0.
      1.52207003e-03 0. 7.61035015e-04 0. 2.28310516e-03 0. 0.
      3.80517496e-03 2.28310516e-03 1.52207003e-03 0. 2.28310516e-03
      2.28310516e-03 0. 7.61035015e-04 0. 7.61035015e-04 0. 0. 0. 0.
      7.61035015e-04 0. 0. 0. 7.61035015e-04 7.61035015e-04 0.
      1.52207003e-03 7.61035015e-04 0. 3.80517496e-03 3.04414006e-03
      4.56621032e-03 1.52207003e-03 7.61035015e-04 7.61035015e-04 0.
      7.61035015e-04 0. 0. 0. 0. 0. 0. 1.52207003e-03 7.61035015e-04 0.
      2.28310516e-03 0. 3.04414006e-03 0. 0. 7.61035015e-04
      7.61035015e-04 0. 7.61034992e-03 0. 0. 3.80517496e-03
      1.52207003e-03 7.61035015e-04 0. 3.04414006e-03 0. 7.61035015e-04
      1.52207003e-03 0. 0. 1.52207003e-03 0. 0. 4.56621032e-03
      2.28310516e-03 0. 0. 7.61035015e-04 7.61035015e-04 0. 0.
      1.52207003e-03 1.52207003e-03 1.52207003e-03 7.61035015e-04 0.
      2.28310516e-03 7.61035015e-04 1.52207003e-03 0. 2.28310516e-03 0.
      7.61035015e-04 0. 0. 2.28310516e-03 0. 2.28310516e-03
      7.61035015e-04 4.56621032e-03 7.61035015e-04 0. 7.61035015e-04
      1.52207003e-03 0. 1.52207003e-03 0. 1.52207003e-03 3.04414006e-03
      1.52207003e-03 0. 0. 0. 0. 1.52207003e-03 3.80517496e-03
      4.56621032e-03 0. 0. 0. 0. 1.52207003e-03 0. 1.52207003e-03 0.
      1.52207003e-03 7.61035015e-04 2.28310516e-03 0. 0. 0. 0.
      7.61035015e-04 7.61035015e-04 0. 0. 0. 0. 7.61035015e-04
      7.61035015e-04 0. 0. 0. 2.28310516e-03 0. 0. 0. 0. 0.
      7.61035015e-04 1.52207003e-03 7.61035015e-04 7.61035015e-04 0. 0.
      0. 1.52207003e-03 0. 0. 7.61035015e-04 7.61035015e-04
      3.04414006e-03 0. 0. 0. 1.52207003e-03 7.61035015e-04 0.
      3.80517496e-03 1.52207003e-03 0. 0. 0. 2.28310516e-03 0.
      7.61035015e-04 7.61035015e-04 7.61035015e-04 3.80517496e-03
      1.52207003e-03 1.52207003e-03 1.52207003e-03 0. 7.61035015e-04
      7.61035015e-04 0. 1.52207003e-03 7.61035015e-04 7.61035015e-04 0.
      0. 0. 7.61035015e-04 0. 3.04414006e-03 2.28310516e-03
      7.61035015e-04 0. 0. 0. 3.04414006e-03 0. 1.52207003e-03
      7.61035015e-04 7.61035015e-04 7.61035015e-04 2.28310516e-03
      1.52207003e-03 0. 7.61035015e-04 7.61035015e-04 0. 4.56621032e-03
      7.61035015e-04 7.61035015e-04 7.61035015e-04 4.56621032e-03 0.
      2.28310516e-03 0. 0. 7.61035015e-04 3.80517496e-03 0.
      7.61035015e-04 7.61035015e-04 0. 1.52207003e-03 0. 1.52207003e-03
      0. 7.61035015e-04 0. 0. 0. 0. 1.52207003e-03 7.61035015e-04 0.
      7.61035015e-04 1.52207003e-03 7.61035015e-04 6.08828012e-03 0.
      3.04414006e-03 4.56621032e-03 2.28310516e-03 0. 2.28310516e-03
      3.04414006e-03 0. 0. 0. 3.04414006e-03 0. 0. 1.52207003e-03
      1.52207003e-03 0. 0. 1.52207003e-03 0. 2.28310516e-03 0. 0.
      7.61035015e-04 7.61035015e-04 3.80517496e-03 0. 0. 0. 0. 0.
      2.28310516e-03 0. 2.28310516e-03 0. 7.61035015e-04 0. 0.
      2.28310516e-03 7.61035015e-04 7.61035015e-04 0. 0. 7.61035015e-04
      0. 0. 0. 0. 0. 0. 7.61035015e-04 2.28310516e-03 7.61035015e-04 0.
      7.61035015e-04 1.52207003e-03 7.61035015e-04 0. 0. 0. 0.
      1.52207003e-03 1.52207003e-03 7.61035015e-04 1.52207003e-03 0. 0.
      1.52207003e-03 0. 7.61035015e-04 0. 0. 7.61035015e-04 0. 0.
      2.28310516e-03 0. 7.61035015e-04 0. 1.52207003e-03 0. 0. 0.
      7.61035015e-04 0. 0. 1.52207003e-03 1.52207003e-03 4.56621032e-03
      0. 0. 1.52207003e-03 7.61035015e-04 0. 0. 7.61035015e-04
      3.80517496e-03 0. 1.52207003e-03 7.61035015e-04 0. 7.61035015e-04
      3.80517496e-03 1.52207003e-03 1.52207003e-03 7.61035015e-04 0. 0.
      0. 2.28310516e-03 0. 0. 7.61035015e-04 1.52207003e-03 0.
      1.52207003e-03 0. 0. 7.61035015e-04 0. 7.61035015e-04 0. 0. 0.
      7.61035015e-04 0. 7.61035015e-04 1.52207003e-03 7.61035015e-04
      2.28310516e-03 0. 7.61035015e-04 3.04414006e-03 0. 1.52207003e-03
      4.56621032e-03 1.52207003e-03 0. 0. 0. 0. 0. 1.52207003e-03 0.
      7.61035015e-04 1.52207003e-03 0. 7.61035015e-04</_>
    <_>
      4.86617995e-04 0. 4.86617995e-04 4.86617995e-04 0. 9.73235990e-04
      4.86617995e-04 4.86617995e-04 2.91970791e-03 4.86617995e-04 0. 0.
      0. 4.86617995e-04 9.73235990e-04 9.73235990e-04 0. 0.
      9.73235990e-04 9.73235990e-04 9.73235990e-04 4.86617995e-04 0.
      2.91970791e-03 4.86617995e-04 0. 9.73235990e-04 4.86617995e-04 0.
      1.94647198e-03 0. 4.86617995e-04 1.45985396e-03 4.86617995e-04
      9.73235990e-04 4.86617995e-04 1.94647198e-03 1.94647198e-03
      9.73235990e-04 4.86617995e-04 3.40632605e-03 4.86617995e-04 0.
      4.86617995e-04 4.86617995e-04 9.73235990e-04 9.73235990e-04 0.
      4.86617995e-04 0. 1.45985396e-03 4.37956210e-03 1.45985396e-03
      4.37956210e-03 9.73235990e-04 4.86617995e-04 1.45985396e-03 0. 0.
      2.91970791e-03 0. 4.86617995e-04 4.86617995e-04 0. 7.29927002e-03
      9.73235990e-04 0. 4.86617995e-04 1.45985396e-03 0. 0. 0. 0.
      9.73235990e-04 4.86617995e-04 9.73235990e-04 4.86617995e-04
      4.86617995e-04 1.45985396e-03 4.86617995e-04 0. 9.73235990e-04 0.
      9.73235990e-04 9.73235990e-04 4.86617995e-04 3.40632605e-03 0. 0.
      0. 0. 3.89294396e-03 1.45985396e-03 1.94647198e-03 0. 0.
      4.86617995e-04 1.94647198e-03 4.86617995e-04 9.73235990e-04
      1.94647198e-03 9.73235990e-04 0. 9.73235990e-04 4.86617995e-04
      4.86617995e-04 9.73235990e-04 4.86617995e-04 0. 0. 1.45985396e-03
      4.86617995e-04 9.73235990e-04 4.86617995e-04 4.86617995e-04
      1.45985396e-03 1.94647198e-03 7.29927002e-03 9.73235990e-04
      4.86617995e-04 9.73235990e-04 4.86617995e-04 4.86617995e-04
      1.45985396e-03 4.86617995e-04 0. 4.86617995e-04 4.86618001e-03
      1.94647198e-03 1.45985396e-03 0. 1.45985396e-03 0. 4.86617995e-04
      4.86617995e-04 1.94647198e-03 0. 1.45985396e-03 1.94647198e-03
      9.73235990e-04 0. 2.91970791e-03 4.86617995e-04 4.86617995e-04
      2.91970791e-03 3.40632605e-03 4.86617995e-04 4.86617995e-04
      4.86617995e-04 0. 9.73235990e-04 4.86617995e-04 9.73235990e-04
      4.86617995e-04 9.73235990e-04 4.86617995e-04 1.45985396e-03 0.
      2.43309001e-03 0. 2.43309001e-03 2.43309001e-03 4.86617995e-04
      4.86617995e-04 4.86617995e-04 4.86617995e-04 0. 0. 9.73235990e-04
      1.45985396e-03 1.45985396e-03 0. 1.45985396e-03 0. 0.
      9.73235990e-04 0. 4.86617995e-04 4.86617995e-04 1.45985396e-03
      4.86617995e-04 4.86617995e-04 4.86617995e-04 9.73235990e-04
      1.94647198e-03 4.86617995e-04 1.94647198e-03 4.86617995e-04
      9.73235990e-04 4.86617995e-04 0. 2.43309001e-03 4.86617995e-04 0.
      2.43309001e-03 0. 0. 9.73235990e-04 2.91970791e-03 3.89294396e-03
      0. 1.94647198e-03 4.86618001e-03 4.86617995e-04 9.73235990e-04
      9.73235990e-04 4.86617995e-04 0. 4.86617995e-04 4.86617995e-04
      4.86617995e-04 1.45985396e-03 9.73235990e-04 0. 1.94647198e-03 0.
      0. 4.86617995e-04 0. 2.43309001e-03 0. 0. 1.45985396e-03 0. 0.
      4.86617995e-04 4.86617995e-04 4.86617995e-04 0. 0. 4.86617995e-04
      6.32603373e-03 2.43309001e-03 9.73235990e-04 0. 0. 4.86617995e-04
      4.86617995e-04 0. 1.45985396e-03 9.73235990e-04 1.45985396e-03
      4.86617995e-04 0. 4.86617995e-04 0. 9.73235990e-04 0.
      1.45985396e-03 1.94647198e-03 4.86617995e-04 9.73235990e-04
      4.86617995e-04 9.73235990e-04 1.45985396e-03 4.86617995e-04 0.
      9.73235990e-04 2.43309001e-03 9.73235990e-04 9.73235990e-04
      3.89294396e-03 9.73235990e-04 0. 9.73235990e-04 1.07055958e-02 0.
      0. 1.45985396e-03 2.91970791e-03 4.86617995e-04 0. 4.86617995e-04
      4.86617995e-04 0. 4.86617995e-04 0. 9.73235990e-04 0.
      4.86617995e-04 2.91970791e-03 2.43309001e-03 0. 0. 0.
      4.86617995e-04 0. 0. 4.86617995e-04 0. 1.94647198e-03
      6.81265211e-03 4.86617995e-04 4.86617995e-04 4.86617995e-04 0.
      1.45985396e-03 9.73235990e-04 0. 0. 9.73235990e-04 2.43309001e-03
      1.94647198e-03 0. 9.73235990e-04 0. 1.45985396e-03 0.
      4.86617995e-04 0. 0. 9.73235990e-04 4.86617995e-04 4.86617995e-04
      2.91970791e-03 2.43309001e-03 4.86617995e-04 9.73236002e-03 0.
      4.86617995e-04 2.43309001e-03 0. 4.86617995e-04 1.94647198e-03
      4.86617995e-04 4.86617995e-04 1.45985396e-03 1.45985396e-03
      1.94647198e-03 0. 4.86617995e-04 1.94647198e-03 0. 0. 0. 0. 0.
      9.73235990e-04 9.73235990e-04 0. 0. 4.86617995e-04 1.94647198e-03
      5.83941583e-03 9.73236002e-03 0. 4.86617995e-04 0. 4.86617995e-04
      0. 1.94647198e-03 2.43309001e-03 1.94647198e-03 4.86617995e-04 0.
      1.45985396e-03 4.86617995e-04 4.86617995e-04 9.73235990e-04
      4.86617995e-04 0. 4.86617995e-04 1.45985396e-03 4.86617995e-04
      4.86617995e-04 0. 1.45985396e-03 9.73235990e-04 0. 1.45985396e-03
      1.45985396e-03 0. 0. 0. 0. 9.73235990e-04 0. 1.94647198e-03
      9.73235990e-04 0. 4.86617995e-04 9.73235990e-04 1.45985396e-03
      4.86617995e-04 1.45985396e-03 0. 0. 1.94647198e-03 0. 0.
      4.86617995e-04 0. 9.73235990e-04 4.86617995e-04 4.86617995e-04 0.
      2.43309001e-03 0. 0. 0. 9.73235990e-04 9.73236002e-03
      9.73235990e-04 1.45985396e-03 2.43309001e-03 1.45985396e-03
      2.91970791e-03 2.91970791e-03 9.73235990e-04 9.73235990e-04
      4.86617995e-04 9.73235990e-04 1.94647198e-03 0. 0. 4.86617995e-04
      4.86617995e-04 9.73235990e-04 4.86617995e-04 4.86617995e-04
      6.81265211e-03 0. 9.73235990e-04 0. 0. 4.86617995e-04
      9.73235990e-04 4.86617995e-04 1.94647198e-03 2.91970791e-03
      9.73235990e-04 1.94647198e-03 4.86617995e-04 4.86617995e-04 0.
      4.86617995e-04 4.86617995e-04 2.43309001e-03 2.43309001e-03
      9.73235990e-04 1.45985396e-03 4.86617995e-04 0. 4.86618001e-03
      9.73235990e-04 4.86617995e-04 4.86617995e-04 9.73235990e-04
      4.86617995e-04 3.89294396e-03 9.73235990e-04 1.45985396e-03
      4.86617995e-04 0. 4.86617995e-04 0. 1.45985396e-03 9.73235990e-04
      4.86617995e-04 5.35279792e-03 1.45985396e-03 9.73235990e-04 0.
      4.86617995e-04 1.94647198e-03 0. 0. 4.86617995e-04 1.45985396e-03
      0. 0. 4.86617995e-04 1.94647198e-03 9.73235990e-04 9.73235990e-04
      9.73235990e-04 3.40632605e-03 0. 4.86617995e-04 0. 1.45985396e-03
      2.43309001e-03 1.45985396e-03 0. 0. 1.94647198e-03 9.73235990e-04
      9.73235990e-04 0. 9.73235990e-04 1.45985396e-03 4.86617995e-04
      3.89294396e-03 2.43309001e-03 6.32603373e-03 2.43309001e-03
      4.86617995e-04 1.94647198e-03 9.73235990e-04 2.91970791e-03
      9.73235990e-04 1.45985396e-03 1.45985396e-03 0. 4.86617995e-04 0.
      9.73235990e-04 9.73235990e-04 0. 9.73235990e-04 0. 4.86617995e-04
      0. 0. 0. 4.86617995e-04 0. 0. 4.86617995e-04 1.45985396e-03
      4.86617995e-04 0. 1.45985396e-03 1.45985396e-03 0. 4.86617995e-04
      4.86617995e-04 1.45985396e-03 4.86617995e-04 4.86617995e-04 0.
      4.86617995e-04 0. 9.73235990e-04 1.45985396e-03 4.86617995e-04
      4.86617995e-04 9.73235990e-04 4.86617995e-04 1.94647198e-03
      4.86617995e-04 1.94647198e-03 1.94647198e-03 4.86617995e-04
      4.86617995e-04 0. 4.86617995e-04 4.86617995e-04 2.43309001e-03
      1.45985396e-03 0. 4.86617995e-04 0. 1.45985396e-03 4.86617995e-04
      0. 9.73235990e-04 2.91970791e-03 9.73235990e-04 4.86617995e-04
      4.86617995e-04 9.73235990e-04 0. 2.43309001e-03 0. 4.86617995e-04
      4.86617995e-04 0. 0. 9.73235990e-04 1.45985396e-03 0. 0.
      1.45985396e-03 0. 4.86617995e-04 2.43309001e-03 9.73235990e-04 0.
      9.73235990e-04 4.86617995e-04 9.73235990e-04 9.73235990e-04
      9.73235990e-04 1.45985396e-03 3.40632605e-03 0. 4.86617995e-04
      1.45985396e-03 4.86617995e-04 4.86617995e-04 2.43309001e-03
      2.43309001e-03 0. 0. 4.86617995e-04 0. 9.73235990e-04
      4.86617995e-04 9.73235990e-04 4.86617995e-04 9.73235990e-04
      9.73235990e-04 4.86617995e-04 0. 0. 4.86617995e-04 4.86617995e-04
      4.86617995e-04 0. 4.86617995e-04 0. 9.73235990e-04 4.86617995e-04
      0. 9.73235990e-04 0. 4.86617995e-04 9.73235990e-04 4.86618001e-03
      0. 9.73235990e-04 1.45985396e-03 1.45985396e-03 0. 9.73235990e-04
      0. 9.73235990e-04 0. 4.86617995e-04 3.89294396e-03 8.27250630e-03
      2.43309001e-03 1.45985396e-03 4.86617995e-04 1.94647198e-03
      4.86617995e-04 1.45985396e-03 9.73235990e-04 4.86617995e-04 0.
      4.86617995e-04 2.91970791e-03 5.83941583e-03 1.94647198e-03
      4.86617995e-04 4.86617995e-04 4.86617995e-04 0. 0. 4.86617995e-04
      9.73235990e-04 1.45985396e-03 9.73235990e-04 0. 4.86617995e-04
      1.45985396e-03 1.45985396e-03 0. 1.45985396e-03 0. 1.45985396e-03
      5.83941583e-03 4.86617995e-04 4.86617995e-04 9.73235990e-04
      4.86617995e-04 0. 3.40632605e-03 4.86617995e-04 1.45985396e-03 0.
      4.86617995e-04 9.73235990e-04 1.45985396e-03 0. 0. 9.73235990e-04
      0. 9.73235990e-04 4.86617995e-04 9.73235990e-04 4.86617995e-04
      4.86617995e-04 7.78588792e-03 9.73235990e-04 0. 1.45985396e-03
      1.94647198e-03 0. 0. 0. 4.86617995e-04 1.45985396e-03
      3.40632605e-03 0. 1.45985396e-03 0. 4.86617995e-04 4.86617995e-04
      2.43309001e-03 0. 4.86617995e-04 1.45985396e-03 9.73235990e-04
      4.86617995e-04 2.43309001e-03 9.73235990e-04 0. 4.86617995e-04 0.
      4.86617995e-04 4.86617995e-04 0. 3.40632605e-03 4.86617995e-04 0.
      3.89294396e-03 3.40632605e-03 9.73235990e-04 9.73235990e-04
      4.86617995e-04 4.86617995e-04 4.86617995e-04 4.86617995e-04
      1.94647198e-03 2.43309001e-03 0. 4.86617995e-04 0. 1.94647198e-03
      9.73235990e-04 0. 2.91970791e-03 0. 1.45985396e-03 4.86617995e-04
      8.27250630e-03 0. 9.73235990e-04 1.45985396e-03 4.86617995e-04 0.
      9.73235990e-04 4.86617995e-04 1.94647198e-03 4.86617995e-04
      4.86617995e-04 9.73235990e-04 9.73235990e-04 0. 4.86617995e-04 0.
      2.43309001e-03 4.86617995e-04 0. 4.86617995e-04 0. 4.86617995e-04
      1.45985396e-03 0. 9.73235990e-04 0. 1.45985396e-03 9.73235990e-04
      4.86617995e-04 1.94647198e-03 3.89294396e-03 9.73235990e-04 0. 0.
      0. 4.86617995e-04 0. 9.73235990e-04 4.86617995e-04 9.73235990e-04
      4.86617995e-04 4.86617995e-04 0. 0. 0. 1.94647198e-03
      4.86618001e-03 1.94647198e-03 4.86617995e-04 0. 0. 9.73235990e-04
      0. 0. 4.86617995e-04 4.86617995e-04 9.73235990e-04 0.
      3.40632605e-03 4.86617995e-04 4.86617995e-04 4.86617995e-04
      9.73235990e-04 0. 4.86617995e-04 1.45985396e-03 0. 5.83941583e-03
      4.86618001e-03 5.83941583e-03 4.86617995e-04 0. 4.86617995e-04
      4.86617995e-04 4.86617995e-04 1.94647198e-03 1.94647198e-03
      1.45985396e-03 0. 1.94647198e-03 0. 0. 0. 0. 4.86617995e-04
      4.86617995e-04 4.86617995e-04 0. 1.45985396e-03 1.45985396e-03
      9.73235990e-04 4.86617995e-04 4.86617995e-04 1.94647198e-03
      1.45985396e-03 0. 4.86617995e-04 0. 9.73235990e-04 0. 0.
      4.86617995e-04 0. 4.86617995e-04 4.86617995e-04 4.86617995e-04
      4.86617995e-04 4.86617995e-04 2.43309001e-03 1.45985396e-03
      4.86617995e-04 9.73235990e-04 0. 4.86617995e-04 0. 4.86617995e-04
      0. 4.86617995e-04 2.43309001e-03 9.73235990e-04 4.86617995e-04
      4.86617995e-04 2.43309001e-03 0. 1.94647198e-03 1.94647198e-03
      3.40632605e-03 4.86617995e-04 0. 1.45985396e-03 4.86617995e-04
      4.86617995e-04 1.45985396e-03 9.73235990e-04 2.43309001e-03
      4.37956210e-03 0. 9.73235990e-04 1.45985396e-03 4.86617995e-04
      3.89294396e-03 2.43309001e-03 1.45985396e-03 0. 1.94647198e-03
      9.73235990e-04 9.73235990e-04 9.73235990e-04 1.45985396e-03
      9.73235990e-04 4.86617995e-04 1.94647198e-03 4.86617995e-04
      9.73235990e-04 0. 0. 9.73235990e-04 1.45985396e-03 4.86617995e-04
      4.86617995e-04 9.73235990e-04 0. 9.73235990e-04 0. 0. 0.
      4.86617995e-04 4.37956210e-03 0. 4.86617995e-04 1.02189779e-02
      4.86617995e-04 0. 0. 0. 9.73235990e-04 2.43309001e-03
      4.86617995e-04 0. 1.45985396e-03 9.73235990e-04 4.86617995e-04
      9.73235990e-04 0. 4.86617995e-04 4.86617995e-04 0. 3.89294396e-03
      9.73235990e-04 4.86617995e-04 3.89294396e-03 1.45985396e-03
      1.94647198e-03 4.86617995e-04 0. 0. 9.73235990e-04 4.86617995e-04
      0. 4.86617995e-04 4.86617995e-04 9.73235990e-04 7.78588792e-03
      1.45985396e-03 0. 2.43309001e-03 9.73235990e-04 4.86617995e-04 0.
      0. 0. 9.73235990e-04 9.73235990e-04 4.86617995e-04 0.
      4.86617995e-04 1.94647198e-03 1.94647198e-03 2.91970791e-03
      4.86617995e-04 4.86617995e-04 4.86617995e-04 1.94647198e-03
      4.86617995e-04 2.43309001e-03 4.86617995e-04 0. 9.73235990e-04
      9.73235990e-04 0. 5.83941583e-03 2.43309001e-03 2.43309001e-03
      9.73235990e-04 1.94647198e-03 4.86617995e-04 2.91970791e-03
      4.86617995e-04 4.86617995e-04 4.86617995e-04 0. 0. 1.45985396e-03
      9.73235990e-04 3.89294396e-03 4.86617995e-04 0. 4.86617995e-04
      4.86617995e-04 1.94647198e-03 9.73235990e-04 4.86617995e-04
      9.73235990e-04 2.43309001e-03 2.43309001e-03 0. 0. 4.86617995e-04
      4.86617995e-04 4.86617995e-04 4.86617995e-04 4.86617995e-04
      4.86617995e-04</_>
    <_>
      0. 0. 4.39560460e-03 1.09890115e-03 1.09890115e-03 0. 0.
      2.19780230e-03 3.29670357e-03 1.09890115e-03 0. 1.09890115e-03 0.
      0. 1.09890115e-03 5.49450563e-03 0. 2.19780230e-03 0. 0.
      1.20879123e-02 6.59340713e-03 2.19780230e-03 0. 1.09890115e-03 0.
      1.09890115e-03 4.39560460e-03 0. 0. 0. 0. 0. 0. 0. 0.
      1.09890115e-03 0. 6.59340713e-03 0. 6.59340713e-03 0. 0.
      2.19780230e-03 0. 1.09890115e-03 1.09890115e-03 1.09890115e-03
      1.09890115e-03 0. 3.29670357e-03 2.19780230e-03 0. 1.09890115e-03
      0. 7.69230817e-03 0. 1.09890115e-03 0. 0. 3.29670357e-03
      2.19780230e-03 0. 2.19780230e-03 0. 0. 0. 0. 0. 0. 0. 0.
      1.09890115e-03 0. 0. 0. 0. 0. 0. 0. 0. 0. 1.09890115e-03 0. 0.
      2.19780230e-03 4.39560460e-03 0. 0. 0. 1.09890115e-03
      1.09890115e-03 2.19780230e-03 0. 1.09890115e-03 0. 0.
      2.19780230e-03 2.19780230e-03 0. 5.49450563e-03 0. 1.09890115e-03
      1.09890115e-03 0. 0. 0. 0. 1.09890115e-03 1.09890115e-03 0. 0.
      1.09890115e-03 1.09890115e-03 2.19780230e-03 1.09890115e-03
      3.29670357e-03 6.59340713e-03 4.39560460e-03 1.09890115e-03
      2.19780230e-03 1.09890115e-03 0. 0. 0. 0. 0. 8.79120920e-03
      2.19780230e-03 1.42857153e-02 0. 0. 1.09890115e-03 0.
      1.09890115e-03 1.09890115e-03 0. 0. 1.09890115e-03 0. 0. 0. 0.
      2.19780230e-03 0. 8.79120920e-03 0. 2.19780230e-03 1.09890115e-03
      1.09890115e-03 0. 0. 3.29670357e-03 0. 1.09890115e-03 0.
      2.19780230e-03 0. 0. 1.09890115e-03 3.29670357e-03 0.
      1.09890115e-03 0. 0. 0. 0. 0. 1.09890115e-03 0. 2.52747256e-02
      1.09890115e-03 2.19780230e-03 0. 0. 0. 0. 1.09890115e-03 0.
      2.19780230e-03 0. 0. 1.09890115e-03 0. 0. 0. 0. 1.09890115e-03
      1.09890115e-03 1.09890115e-03 0. 0. 0. 0. 5.49450563e-03 0. 0. 0.
      0. 1.09890115e-03 0. 0. 1.09890115e-03 0. 1.09890115e-03
      1.09890115e-03 0. 0. 0. 0. 0. 0. 1.09890115e-03 0. 5.49450563e-03
      1.09890115e-03 2.19780230e-03 0. 0. 3.29670357e-03 0.
      3.29670357e-03 0. 0. 0. 0. 0. 0. 0. 0. 0. 2.19780230e-03
      2.19780230e-03 1.09890115e-03 4.39560460e-03 0. 0. 0. 0. 0. 0.
      1.09890115e-03 0. 0. 0. 0. 0. 2.19780230e-03 1.09890115e-03
      1.09890115e-03 0. 0. 4.39560460e-03 0. 0. 1.09890115e-03
      2.19780230e-03 2.19780230e-03 0. 0. 0. 7.69230817e-03 0. 0.
      1.09890115e-03 0. 0. 3.29670357e-03 2.19780230e-03 1.09890115e-03
      0. 1.09890115e-03 4.39560460e-03 1.75824184e-02 0. 0. 0. 0. 0. 0.
      0. 2.19780230e-03 1.09890115e-03 2.19780230e-03 0. 0.
      3.29670357e-03 0. 1.09890115e-03 0. 1.64835174e-02 5.49450563e-03
      0. 0. 1.20879123e-02 3.29670357e-03 0. 2.19780230e-03 0. 0. 0. 0.
      0. 0. 0. 0. 1.09890115e-03 0. 1.09890115e-03 1.09890115e-03 0. 0.
      0. 0. 0. 0. 0. 1.09890115e-03 0. 2.19780230e-03 0. 0.
      2.19780230e-03 0. 1.09890115e-03 1.09890115e-03 1.09890115e-03
      1.09890115e-03 1.09890115e-03 0. 0. 3.29670357e-03 0.
      2.19780230e-03 0. 1.09890115e-03 0. 2.19780230e-03 0. 0. 0. 0.
      6.59340713e-03 3.29670357e-03 1.09890113e-02 0. 1.09890115e-03
      1.09890115e-03 0. 0. 0. 2.19780230e-03 0. 0. 0. 3.29670357e-03 0.
      0. 0. 1.09890115e-03 0. 1.09890115e-03 1.09890115e-03 0. 0. 0. 0.
      0. 1.09890115e-03 0. 0. 0. 0. 0. 0. 0. 0. 0. 3.29670357e-03 0.
      1.09890115e-03 0. 0. 0. 3.29670357e-03 0. 1.09890115e-03
      4.39560460e-03 0. 0. 0. 3.29670357e-03 1.09890115e-03
      1.09890115e-03 0. 0. 0. 0. 0. 0. 3.29670357e-03 6.59340713e-03
      4.39560460e-03 0. 0. 1.09890115e-03 3.29670357e-03 0.
      2.19780230e-03 0. 1.20879123e-02 2.19780230e-03 0. 0. 0.
      2.19780230e-03 0. 0. 0. 0. 0. 0. 1.09890115e-03 0. 0. 0. 0.
      2.19780230e-03 0. 0. 0. 0. 1.09890115e-03 0. 0. 0. 2.19780230e-03
      1.09890115e-03 0. 1.09890115e-03 0. 0. 0. 5.49450563e-03 0. 0. 0.
      0. 0. 1.09890115e-03 0. 0. 0. 0. 0. 0. 0. 0. 0. 2.19780230e-03
      2.19780230e-03 0. 1.09890115e-03 0. 5.49450563e-03 1.09890115e-03
      0. 3.29670357e-03 0. 0. 0. 1.09890115e-03 1.09890115e-03
      1.09890115e-03 1.09890115e-03 2.19780230e-03 3.29670357e-03 0. 0.
      0. 0. 2.19780230e-03 0. 0. 1.09890115e-03 4.39560460e-03 0.
      1.09890115e-03 0. 0. 5.49450563e-03 1.09890115e-03 3.29670357e-03
      2.19780230e-03 0. 0. 0. 0. 0. 1.09890115e-03 1.09890115e-03
      2.19780230e-03 0. 0. 0. 0. 1.09890115e-03 0. 0. 0. 0. 0. 0. 0.
      2.19780230e-03 2.19780230e-03 0. 0. 0. 0. 1.09890115e-03 0. 0. 0.
      0. 0. 1.09890115e-03 0. 0. 0. 0. 0. 0. 3.29670357e-03 0.
      1.09890115e-03 0. 0. 0. 0. 0. 0. 0. 1.09890115e-03 2.19780230e-03
      0. 5.49450563e-03 1.09890115e-03 0. 0. 0. 0. 0. 5.49450563e-03
      6.59340713e-03 0. 0. 0. 0. 0. 0. 0. 0. 1.09890115e-03 0.
      7.69230817e-03 0. 0. 0. 0. 0. 0. 0. 1.09890115e-03 1.09890115e-03
      0. 0. 2.19780230e-03 0. 0. 0. 1.09890115e-03 0. 1.09890115e-03 0.
      0. 0. 1.20879123e-02 1.09890115e-03 0. 1.09890115e-03
      6.59340713e-03 6.59340713e-03 1.09890115e-03 1.09890115e-03 0. 0.
      0. 0. 0. 1.09890115e-03 3.29670357e-03 2.19780230e-03
      2.19780230e-03 1.09890115e-03 6.59340713e-03 1.09890115e-03 0.
      2.19780230e-03 1.09890115e-03 0. 2.19780230e-03 2.19780230e-03 0.
      1.09890115e-03 0. 0. 1.09890115e-03 0. 1.09890115e-03 0. 0. 0. 0.
      0. 1.09890115e-03 0. 0. 0. 3.29670357e-03 0. 2.30769236e-02 0. 0.
      0. 0. 0. 0. 0. 2.19780230e-03 3.29670357e-03 2.19780230e-03 0.
      1.42857153e-02 6.59340713e-03 2.19780230e-03 0. 0. 0. 0. 0.
      1.09890115e-03 0. 0. 1.09890115e-03 0. 3.29670357e-03 0. 0. 0. 0.
      5.49450563e-03 5.49450563e-03 0. 0. 0. 2.19780230e-03 0.
      1.09890115e-03 0. 0. 2.19780230e-03 0. 0. 1.09890115e-03 0. 0. 0.
      0. 0. 2.19780230e-03 0. 0. 0. 2.19780230e-03 0. 2.19780230e-03 0.
      0. 2.19780230e-03 0. 1.09890115e-03 1.09890115e-03 6.59340713e-03
      1.09890115e-03 0. 0. 1.09890115e-03 2.19780230e-03 0. 0. 0. 0.
      1.09890115e-03 0. 2.19780230e-03 1.09890115e-03 0. 0. 0.
      1.09890115e-03 0. 0. 0. 1.09890115e-03 0. 0. 2.19780230e-03
      2.19780230e-03 0. 3.29670357e-03 0. 5.49450563e-03 2.19780230e-03
      0. 0. 0. 0. 1.09890115e-03 0. 0. 6.59340713e-03 0. 1.09890115e-03
      0. 5.49450563e-03 0. 0. 1.09890115e-03 0. 0. 0. 1.09890115e-03 0.
      0. 1.09890115e-03 0. 0. 0. 0. 0. 0. 0. 0. 3.29670357e-03 0. 0. 0.
      0. 0. 0. 0. 0. 0. 1.09890115e-03 4.39560460e-03 1.09890115e-03 0.
      2.19780230e-03 0. 0. 0. 0. 0. 0. 0. 0. 1.09890115e-03 0. 0. 0. 0.
      0. 2.19780230e-03 0. 0. 0. 0. 0. 0. 0. 0. 0. 1.09890115e-03 0. 0.
      0. 0. 0. 1.09890115e-03 0. 0. 0. 0. 0. 9.89011023e-03 0. 0.
      1.09890115e-03 1.09890115e-03 5.49450563e-03 0. 0. 0. 0. 0. 0. 0.
      1.09890115e-03 0. 1.09890115e-03 0. 0. 0. 0. 4.39560460e-03
      4.39560460e-03 0. 1.09890115e-03 0. 1.09890115e-03 0.
      1.09890115e-03 0. 0. 2.19780230e-03 2.19780230e-03 0. 0.
      4.39560460e-03 0. 3.29670357e-03 0. 0. 0. 0. 2.19780230e-03 0. 0.
      0. 0. 1.09890115e-03 1.09890115e-03 0. 0. 0. 2.19780230e-03 0. 0.
      0. 0. 0. 0. 3.29670357e-03 2.19780230e-03 4.39560460e-03
      1.09890115e-03 1.20879123e-02 0. 0. 0. 0. 0. 1.09890115e-03 0. 0.
      0. 0. 0. 4.39560460e-03 1.09890115e-03 0. 1.09890115e-03 0. 0.
      1.09890115e-03 3.29670357e-03 3.29670357e-03 2.19780230e-03 0. 0.
      0. 0. 0. 0. 0. 0. 0. 0. 0. 0. 0. 4.39560460e-03 2.19780230e-03
      7.69230817e-03 0. 2.19780230e-03 0. 1.09890115e-03 0. 0. 0. 0. 0.
      0. 0. 0. 1.09890115e-03 0. 0. 0. 1.09890115e-03 1.09890115e-03 0.
      0. 0. 0. 0. 0. 0. 0. 0. 1.09890115e-03 0. 1.09890115e-03 0.
      1.09890115e-03 1.09890115e-03 0. 1.09890115e-03 0. 0.
      1.09890115e-03 0. 0. 0. 2.19780230e-03 0. 2.19780230e-03
      1.09890115e-03 2.19780230e-03 0. 0. 0. 2.19780230e-03
      3.29670357e-03 1.09890115e-03 0. 1.09890115e-03 0. 1.09890115e-03
      0. 0. 0. 0. 1.09890115e-03 0. 1.09890115e-03 0. 0. 4.39560460e-03
      0. 2.19780230e-03 0. 1.09890115e-03 0. 0. 0. 4.39560460e-03 0.
      2.19780230e-03 1.09890115e-03 0. 1.09890115e-03 0. 0. 0.
      7.69230817e-03 0. 3.29670357e-03 2.19780230e-03 0. 1.09890115e-03
      0. 0. 0. 0. 1.09890115e-03 1.09890115e-03 2.19780230e-03</_>
    <_>
      5.89970499e-04 0. 0. 5.30973449e-03 5.89970499e-04 0.
      5.89970499e-04 0. 0. 0. 5.89970499e-04 5.89970499e-04
      1.17994100e-03 1.76991150e-03 1.17994100e-03 1.17994100e-03
      5.89970499e-04 1.17994100e-03 5.89970499e-04 1.17994100e-03 0.
      1.76991150e-03 0. 0. 5.89970499e-04 5.89970499e-04 5.89970499e-04
      5.89970499e-04 5.89970499e-04 2.94985250e-03 0. 1.17994100e-03 0.
      0. 1.76991150e-03 1.76991150e-03 0. 1.17994100e-03 0.
      5.89970499e-04 5.89970499e-04 0. 5.89970499e-04 5.89970499e-04 0.
      1.17994100e-03 1.17994100e-03 1.76991150e-03 0. 5.89970499e-04
      2.35988200e-03 2.35988200e-03 0. 1.17994100e-03 5.89970499e-04 0.
      4.12979349e-03 2.35988200e-03 5.89970499e-04 5.89970499e-04
      5.89970499e-04 1.76991150e-03 0. 0. 5.89970499e-04 5.89970499e-04
      1.17994100e-03 1.76991150e-03 5.89970499e-04 5.89970499e-04
      5.89970499e-04 5.89970499e-04 1.17994100e-03 5.89970499e-04
      1.17994100e-03 1.76991150e-03 0. 5.89970499e-04 5.89970499e-04
      1.76991150e-03 5.89970499e-04 5.89970499e-04 5.89970499e-04
      2.94985250e-03 0. 0. 0. 5.89970499e-04 5.89970499e-04 0.
      5.89970499e-04 1.17994100e-03 5.89970499e-04 1.17994100e-03 0.
      1.17994100e-03 2.35988200e-03 2.35988200e-03 2.35988200e-03 0.
      1.76991150e-03 0. 5.89970499e-04 1.17994100e-03 1.17994100e-03
      1.17994100e-03 2.94985250e-03 1.17994100e-03 0. 5.89970499e-04
      5.89970499e-04 5.89970499e-04 1.17994100e-03 5.89970499e-04
      5.89970499e-04 1.17994100e-03 0. 5.30973449e-03 0. 0.
      3.53982300e-03 1.76991150e-03 1.17994100e-03 5.89970499e-04
      5.89970499e-04 0. 0. 5.89970499e-04 0. 5.89970499e-03
      5.89970499e-04 0. 5.89970499e-04 5.89970499e-04 3.53982300e-03
      3.53982300e-03 0. 0. 0. 5.89970499e-04 2.35988200e-03 0.
      5.89970499e-04 2.35988200e-03 1.17994100e-03 3.53982300e-03
      2.94985250e-03 0. 1.76991150e-03 0. 1.17994100e-03 1.76991150e-03
      2.94985250e-03 5.89970499e-04 5.89970499e-04 2.94985250e-03
      1.17994100e-03 0. 0. 0. 1.17994100e-03 2.35988200e-03
      1.17994100e-03 5.89970499e-04 5.89970499e-04 0. 0. 0.
      5.89970499e-04 2.35988200e-03 5.89970499e-04 1.76991150e-03
      5.30973449e-03 0. 2.94985250e-03 0. 1.17994100e-03 2.35988200e-03
      3.53982300e-03 0. 0. 1.17994100e-03 5.89970499e-04 1.17994100e-03
      5.89970499e-04 0. 1.17994100e-03 1.17994100e-03 1.17994100e-03
      5.89970499e-04 0. 1.17994100e-03 1.76991150e-03 1.17994100e-03
      6.48967549e-03 0. 1.76991150e-03 0. 1.17994100e-03 0.
      2.35988200e-03 0. 2.35988200e-03 1.17994100e-03 5.89970499e-04
      1.17994100e-03 0. 0. 5.89970499e-04 1.17994100e-03 0. 0.
      5.89970499e-04 0. 0. 5.89970499e-04 0. 5.89970499e-04 0. 0.
      5.89970499e-04 5.89970499e-04 0. 0. 5.89970499e-04 0.
      2.35988200e-03 5.89970499e-04 2.35988200e-03 1.17994100e-03 0.
      5.89970499e-04 2.94985250e-03 1.17994100e-03 4.12979349e-03
      1.17994100e-03 0. 0. 5.89970499e-04 5.89970499e-04 3.53982300e-03
      2.35988200e-03 1.17994100e-03 5.89970499e-04 5.89970499e-04 0. 0.
      0. 1.76991150e-03 2.94985250e-03 1.17994100e-03 0. 0.
      1.17994100e-03 0. 2.35988200e-03 5.89970499e-04 5.89970499e-04
      1.76991150e-03 0. 0. 0. 0. 1.76991150e-03 5.89970499e-04
      1.17994100e-03 5.89970499e-04 0. 0. 5.89970499e-04 1.17994100e-03
      5.89970499e-04 0. 2.35988200e-03 5.89970499e-04 0. 5.89970499e-04
      5.89970499e-04 0. 5.89970499e-04 4.12979349e-03 5.89970499e-04
      2.35988200e-03 0. 5.89970499e-04 1.76991150e-03 3.53982300e-03 0.
      5.89970499e-04 1.17994100e-03 1.17994100e-03 0. 5.89970499e-04
      5.89970499e-04 2.35988200e-03 1.17994100e-03 1.17994100e-03
      1.76991150e-03 0. 1.76991150e-03 5.89970499e-04 1.17994100e-03
      5.89970499e-04 1.17994100e-03 0. 1.76991150e-03 5.89970499e-04
      1.76991150e-03 5.89970499e-04 1.76991150e-03 5.89970499e-04
      2.35988200e-03 5.89970499e-04 3.53982300e-03 0. 5.89970499e-04
      2.35988200e-03 0. 5.89970499e-04 0. 5.89970499e-04 1.17994100e-03
      1.17994100e-03 5.89970499e-04 2.35988200e-03 1.17994100e-03
      1.17994100e-03 5.89970499e-04 0. 5.89970499e-04 1.17994100e-03
      1.17994100e-03 1.76991150e-03 1.17994100e-03 5.89970499e-04
      1.17994100e-03 0. 1.76991150e-03 5.89970499e-04 0. 1.17994100e-03
      5.89970499e-04 0. 5.89970499e-04 1.76991150e-03 2.94985250e-03
      2.35988200e-03 5.89970499e-04 0. 5.89970499e-04 1.17994100e-03
      5.89970499e-04 1.17994100e-03 2.94985250e-03 5.89970499e-04 0.
      1.76991150e-03 0. 2.35988200e-03 0. 0. 1.76991150e-03
      1.17994100e-03 2.94985250e-03 0. 5.89970499e-04 1.17994100e-03 0.
      0. 0. 1.76991150e-03 5.89970499e-04 5.89970499e-04 1.17994100e-03
      1.76991150e-03 3.53982300e-03 2.35988200e-03 1.76991150e-03
      2.35988200e-03 2.35988200e-03 1.17994100e-03 2.35988200e-03
      4.12979349e-03 1.76991150e-03 2.94985250e-03 1.17994100e-03
      1.17994100e-03 0. 0. 1.17994100e-03 1.17994100e-03 2.94985250e-03
      0. 1.17994100e-03 5.89970499e-04 1.17994100e-03 0. 1.17994100e-03
      5.89970499e-04 1.76991150e-03 0. 2.94985250e-03 2.94985250e-03
      1.17994100e-03 0. 1.17994100e-03 3.53982300e-03 1.76991150e-03
      4.12979349e-03 0. 2.94985250e-03 0. 5.89970499e-04 1.76991150e-03
      0. 1.76991150e-03 0. 5.89970499e-04 1.17994100e-03 1.17994100e-03
      2.35988200e-03 1.76991150e-03 1.17994100e-03 2.35988200e-03
      5.89970499e-04 0. 5.89970499e-04 2.35988200e-03 3.53982300e-03 0.
      3.53982300e-03 5.89970499e-04 1.76991150e-03 0. 5.89970499e-04 0.
      0. 5.89970499e-04 0. 1.17994100e-03 1.17994100e-03 5.89970499e-04
      5.89970499e-04 0. 0. 1.17994100e-03 1.76991150e-03 0.
      1.17994100e-03 0. 2.94985250e-03 1.17994100e-03 5.89970499e-04 0.
      1.17994100e-03 0. 5.89970499e-04 1.17994100e-03 5.89970499e-04
      5.89970499e-04 0. 1.76991150e-03 5.89970499e-04 5.89970499e-04
      2.94985250e-03 0. 1.17994100e-03 1.76991150e-03 0. 5.89970499e-04
      0. 0. 0. 5.89970499e-04 5.89970499e-04 1.76991150e-03 0.
      5.89970499e-04 5.89970499e-04 1.17994100e-03 5.89970499e-04
      2.94985250e-03 0. 0. 2.94985250e-03 0. 0. 5.89970499e-04 0.
      1.17994100e-03 2.94985250e-03 5.89970499e-04 1.76991150e-03
      1.76991150e-03 0. 1.17994100e-03 0. 5.89970499e-04 0.
      1.17994100e-03 2.35988200e-03 0. 5.89970499e-04 1.17994100e-03
      1.17994100e-03 5.89970499e-04 1.76991150e-03 1.76991150e-03
      5.89970499e-04 1.76991150e-03 1.76991150e-03 1.76991150e-03 0.
      5.89970499e-04 1.17994100e-03 5.89970499e-04 1.76991150e-03
      5.89970499e-04 1.17994100e-03 0. 0. 0. 1.76991150e-03
      1.17994100e-03 5.89970499e-04 5.89970499e-04 0. 3.53982300e-03
      5.89970499e-04 0. 5.89970499e-04 5.89970499e-04 5.89970499e-04 0.
      0. 1.17994100e-03 2.35988200e-03 5.89970499e-04 0. 5.89970499e-04
      0. 2.94985250e-03 5.89970499e-04 0. 2.94985250e-03 5.89970499e-04
      1.17994100e-03 5.89970499e-04 2.94985250e-03 0. 4.71976399e-03
      5.30973449e-03 1.76991150e-03 5.89970499e-04 0. 5.89970499e-04
      5.89970499e-04 5.89970499e-04 1.17994100e-03 5.89970499e-04
      5.89970499e-04 0. 1.76991150e-03 5.89970499e-04 5.89970499e-04
      5.89970499e-04 1.17994100e-03 5.89970499e-04 5.89970499e-04
      1.76991150e-03 1.17994100e-03 0. 5.89970499e-04 0. 2.35988200e-03
      0. 5.89970499e-03 5.89970499e-04 5.89970499e-04 2.35988200e-03
      1.76991150e-03 5.89970499e-04 1.17994100e-03 5.89970499e-04
      3.53982300e-03 1.17994100e-03 1.17994100e-03 1.76991150e-03
      1.76991150e-03 5.89970499e-04 1.17994100e-03 5.30973449e-03
      5.89970499e-04 1.17994100e-03 5.89970499e-04 1.76991150e-03
      5.89970499e-04 5.89970499e-04 1.76991150e-03 0. 5.89970499e-04
      2.35988200e-03 4.12979349e-03 2.35988200e-03 1.17994100e-03
