<?xml version="1.0"?>
<opencv_storage>
<my_svm type_id="opencv-ml-svm">
  <svm_type>C_SVC</svm_type>
  <kernel><type>RBF</type>
    <gamma>5.0625000000000009e-01</gamma></kernel>
  <C>3.1250000000000000e+02</C>
  <term_criteria><epsilon>1.1920928955078125e-07</epsilon>
    <iterations>50000</iterations></term_criteria>
  <var_all>500</var_all>
  <var_count>500</var_count>
  <class_count>2</class_count>
  <class_labels type_id="opencv-matrix">
    <rows>1</rows>
    <cols>2</cols>
    <dt>i</dt>
    <data>
      0 1</data></class_labels>
  <sv_total>152</sv_total>
  <support_vectors>
    <_>
      9.90099041e-04 0. 2.64026411e-03 6.60066027e-04 3.96039616e-03
      6.60066027e-04 2.64026411e-03 1.32013205e-03 1.65016507e-03
      6.60066027e-04 9.90099041e-04 6.60066027e-04 1.98019808e-03
      1.65016507e-03 6.60066027e-04 1.32013205e-03 3.96039616e-03
      6.60066027e-04 2.97029712e-03 3.96039616e-03 3.30033014e-03
      2.64026411e-03 4.62046219e-03 2.64026411e-03 1.65016507e-03
      3.30033014e-04 9.90099041e-04 1.32013205e-03 2.97029712e-03
      2.31023110e-03 1.51815191e-02 4.62046219e-03 1.32013205e-03
      7.92079233e-03 3.63036315e-03 1.65016507e-03 9.90099041e-04 0.
      1.98019808e-03 2.64026411e-03 3.30033014e-03 1.32013205e-03
      9.90099041e-04 1.65016507e-03 1.65016507e-03 1.98019808e-03
      1.32013205e-03 2.31023110e-03 1.65016507e-03 1.98019808e-03
      2.64026411e-03 1.32013205e-03 1.32013205e-03 6.60066027e-04
      9.90099041e-04 1.32013205e-03 6.60066027e-04 6.60066027e-04
      9.90099041e-04 1.32013205e-03 1.65016507e-03 2.64026411e-03
      6.60066027e-04 2.97029712e-03 1.65016507e-03 6.60066027e-03
      9.90099041e-04 1.65016507e-03 6.60066027e-04 1.65016507e-03
      2.97029712e-03 1.32013205e-03 0. 1.98019808e-03 3.30033014e-03
      4.29042894e-03 9.90099041e-04 1.32013205e-03 6.60066027e-04
      3.30033014e-04 3.30033014e-04 2.97029712e-03 1.98019808e-03
      1.32013205e-03 1.32013205e-03 2.31023110e-03 1.32013205e-03
      1.65016507e-03 4.62046219e-03 9.90099041e-04 6.60066027e-04
      5.28052822e-03 1.65016507e-03 3.30033014e-04 9.90099041e-04
      6.60066027e-04 0. 1.98019808e-03 0. 1.32013205e-03 2.31023110e-03
      1.32013205e-03 2.31023110e-03 6.27062749e-03 6.60066027e-04
      1.98019808e-03 6.60066027e-04 3.30033014e-03 2.64026411e-03
      6.60066027e-04 2.97029712e-03 9.90099041e-04 3.30033014e-04
      2.64026411e-03 0. 2.64026411e-03 1.32013205e-03 1.32013205e-03
      1.32013205e-03 2.31023110e-03 2.64026411e-03 1.65016507e-03
      1.65016507e-03 2.31023110e-03 9.90099041e-04 1.32013205e-03
      3.30033014e-03 3.30033014e-04 2.64026411e-03 1.32013205e-03
      1.65016507e-03 6.60066027e-04 3.63036315e-03 1.32013205e-03
      1.65016507e-03 1.65016507e-03 1.65016507e-03 2.97029712e-03
      1.65016507e-03 0. 6.27062749e-03 1.32013205e-03 3.30033014e-04
      9.90099041e-04 2.31023110e-03 0. 2.31023110e-03 6.60066027e-04
      1.65016507e-03 9.57095716e-03 2.64026411e-03 9.90099041e-04
      9.90099041e-04 9.90099041e-04 2.64026411e-03 5.61056100e-03
      6.60066027e-04 6.60066027e-04 2.64026411e-03 3.96039616e-03
      2.64026411e-03 1.98019808e-03 1.32013205e-03 6.60066027e-04
      1.32013205e-03 1.65016507e-03 2.97029712e-03 9.90099041e-04
      1.65016507e-03 3.30033014e-04 9.90099041e-04 5.94059424e-03
      1.98019808e-03 1.65016507e-03 6.60066027e-04 6.60066027e-04
      1.32013205e-03 2.31023110e-03 1.32013205e-03 3.63036315e-03
      2.64026411e-03 3.96039616e-03 1.32013205e-03 3.30033014e-04
      3.30033014e-03 2.64026411e-03 1.65016507e-03 4.29042894e-03
      1.98019808e-03 1.98019808e-03 1.65016507e-03 2.64026411e-03
      2.64026411e-03 1.32013205e-03 1.98019808e-03 1.98019808e-03
      9.90099041e-04 3.30033014e-03 5.28052822e-03 1.65016507e-03
      4.95049544e-03 3.30033014e-04 1.98019808e-03 3.30033014e-03
      1.32013205e-03 6.60066027e-04 1.32013205e-03 2.97029712e-03
      6.60066027e-04 1.65016507e-03 3.63036315e-03 6.60066027e-04
      1.68316830e-02 1.65016507e-03 9.90099041e-04 3.96039616e-03
      1.65016507e-03 1.32013205e-03 6.60066027e-04 4.62046219e-03
      1.98019808e-03 1.32013205e-03 1.65016507e-03 9.90099041e-04
      9.90099041e-04 3.63036315e-03 9.90099041e-04 3.30033014e-04
      6.60066027e-04 1.98019808e-03 2.31023110e-03 6.93069305e-03
      2.31023110e-03 1.65016507e-03 1.65016507e-03 1.98019808e-03
      1.32013205e-03 2.31023110e-03 2.64026411e-03 6.60066027e-04
      3.30033014e-04 6.60066027e-04 4.95049544e-03 9.90099041e-04
      1.32013205e-03 2.97029712e-03 1.32013205e-03 6.60066027e-04
      1.32013205e-03 3.63036315e-03 1.02310237e-02 2.97029712e-03
      4.62046219e-03 1.65016507e-03 9.90099041e-04 9.90099041e-04
      3.30033014e-04 6.60066027e-04 6.60066027e-04 9.90099041e-04
      9.90099041e-04 1.65016507e-03 2.64026411e-03 9.90099041e-04
      9.90099041e-04 3.30033014e-04 2.31023110e-03 1.32013205e-03
      6.60066027e-04 1.32013205e-03 3.63036315e-03 6.60066027e-04
      2.31023110e-03 3.30033014e-03 3.30033014e-04 1.98019808e-03
      5.28052822e-03 1.32013205e-03 1.65016507e-03 1.65016507e-03
      9.90099041e-04 3.63036315e-03 3.30033014e-04 1.98019808e-03
      9.90099041e-04 6.60066027e-04 3.30033014e-04 9.90099041e-04
      9.90099041e-04 2.31023110e-03 4.95049544e-03 6.60066027e-04
      6.60066027e-04 4.62046219e-03 9.90099041e-04 1.65016507e-03
      6.60066027e-04 1.98019808e-03 1.98019808e-03 1.32013205e-03
      1.32013205e-03 9.90099041e-04 3.96039616e-03 2.64026411e-03
      1.32013205e-03 1.65016507e-03 2.64026411e-03 3.30033014e-03
      2.31023110e-03 1.98019808e-03 1.65016507e-03 3.30033014e-03
      6.60066027e-04 0. 1.65016507e-03 3.30033014e-03 2.31023110e-03
      9.90099041e-04 1.98019808e-03 3.30033014e-03 6.60066027e-04
      1.98019808e-03 1.32013205e-03 2.31023110e-03 4.95049544e-03
      9.90099041e-04 1.32013205e-03 1.65016507e-03 3.30033014e-04
      1.32013205e-03 9.90099041e-04 6.27062749e-03 1.98019808e-03
      2.97029712e-03 1.65016507e-03 8.91089160e-03 2.97029712e-03
      6.60066027e-04 1.98019808e-03 2.97029712e-03 1.98019808e-03
      3.30033014e-04 1.32013205e-03 1.65016507e-03 1.65016507e-03
      6.60066027e-04 9.90099041e-04 9.90099041e-04 1.65016507e-03
      2.97029712e-03 1.98019808e-03 1.98019808e-03 6.60066027e-04
      9.90099041e-04 1.98019808e-03 1.65016507e-03 9.90099041e-04
      1.32013205e-03 1.32013205e-03 9.90099041e-04 6.60066027e-04
      1.65016507e-03 1.32013205e-03 9.90099041e-04 1.32013205e-03
      1.98019808e-03 6.60066027e-04 9.90099087e-03 5.28052822e-03
      1.32013205e-03 6.60066027e-04 1.32013205e-03 1.98019808e-03
      7.26072630e-03 1.32013205e-03 6.60066027e-04 3.30033014e-04
      9.90099041e-04 2.64026411e-03 1.98019808e-03 3.30033014e-03
      4.95049544e-03 3.30033014e-04 6.60066027e-04 1.65016507e-03
      9.90099041e-04 2.64026411e-03 2.31023110e-03 6.27062749e-03
      3.63036315e-03 2.11221129e-02 2.64026411e-03 6.60066027e-04
      1.32013205e-03 2.64026411e-03 9.90099041e-04 1.65016507e-03
      1.98019808e-03 1.98019808e-03 6.60066027e-04 1.65016507e-03 0.
      3.30033014e-04 2.31023110e-03 1.98019808e-03 2.64026411e-03
      6.60066027e-04 1.98019808e-03 1.32013205e-03 9.90099041e-04
      1.32013205e-03 9.90099041e-04 1.32013205e-03 1.65016507e-03
      6.60066027e-04 3.30033014e-03 2.97029712e-03 3.96039616e-03
      1.65016507e-03 1.98019808e-03 2.64026411e-03 3.30033014e-03
      3.30033014e-04 6.60066027e-04 1.32013205e-03 9.90099041e-04
      9.90099041e-04 3.63036315e-03 6.60066027e-04 1.65016507e-03
      9.90099041e-04 1.98019808e-03 1.98019808e-03 9.90099041e-04
      6.60066027e-04 1.98019808e-03 2.31023110e-03 1.98019808e-03 0. 0.
      1.32013205e-03 6.60066027e-04 3.30033014e-04 3.30033014e-04
      1.32013205e-03 3.30033014e-03 1.98019808e-03 2.31023110e-03
      1.32013205e-03 9.90099041e-04 2.64026411e-03 9.90099041e-04
      9.90099041e-04 2.31023110e-03 2.64026411e-03 2.64026411e-03
      3.63036315e-03 1.98019808e-03 9.90099041e-04 6.60066027e-04
      6.60066027e-04 1.32013205e-03 6.60066027e-04 3.63036315e-03
      3.96039616e-03 9.90099041e-04 1.32013205e-03 2.97029712e-03
      9.90099041e-04 9.90099041e-04 3.63036315e-03 1.98019808e-03
      1.65016507e-03 1.98019808e-03 2.31023110e-03 2.97029712e-03
      4.29042894e-03 1.98019808e-03 1.98019808e-03 2.31023110e-03
      2.31023110e-03 3.30033014e-04 1.32013205e-03 9.90099041e-04
      1.32013205e-03 2.31023110e-03 1.32013205e-03 1.98019808e-03
      6.60066027e-04 2.97029712e-03 9.90099041e-04 2.31023110e-03
      1.65016507e-03 6.60066027e-04 1.32013205e-03 2.64026411e-03
      2.64026411e-03 6.60066027e-04 3.96039616e-03 9.90099041e-04</_>
    <_>
      9.55109834e-04 9.55109834e-04 4.77554917e-04 9.55109834e-04
      9.55109834e-04 5.25310403e-03 9.55109834e-04 4.77554917e-04 0.
      1.43266469e-03 2.86532938e-03 0. 1.52817573e-02 9.55109834e-04
      5.25310403e-03 5.73065877e-03 9.55109834e-04 1.91021967e-03
      2.86532938e-03 1.43266469e-03 9.55109834e-04 4.77554917e-04
      4.77554917e-04 5.25310403e-03 3.34288436e-03 1.91021967e-03 0.
      1.91021967e-03 0. 2.38777464e-03 2.38777464e-03 1.43266469e-03
      9.55109834e-04 5.25310403e-03 1.91021967e-03 2.38777464e-03
      2.38777464e-03 0. 9.55109834e-04 1.43266469e-03 2.86532938e-03
      1.14613175e-02 9.07354336e-03 0. 0. 1.43266469e-03 4.77554917e-04
      1.14613175e-02 4.29799408e-03 4.77554929e-03 6.68576872e-03
      4.77554917e-04 0. 4.29799408e-03 4.77554917e-04 5.73065877e-03
      9.55109834e-04 4.77554917e-04 2.38777464e-03 9.07354336e-03
      4.77554917e-04 0. 4.77554917e-04 3.82043933e-03 1.43266469e-03 0.
      4.77554917e-04 3.34288436e-03 7.16332393e-03 4.77554917e-04
      2.38777464e-03 4.77554917e-04 3.82043933e-03 0. 4.77554917e-04
      1.43266469e-03 2.86532938e-03 9.55109834e-04 1.91021967e-03
      1.91021967e-03 4.77554929e-03 9.55109834e-04 2.38777464e-03
      4.77554917e-04 3.34288436e-03 9.55109834e-04 0. 7.64087867e-03
      1.91021967e-03 1.91021967e-03 9.55109834e-04 4.77554917e-04
      3.34288436e-03 1.91021967e-03 4.77554917e-04 4.77554917e-04
      1.43266469e-03 9.55109834e-04 6.20821398e-03 4.77554917e-04
      1.43266469e-03 8.59598815e-03 9.55109834e-04 1.09837633e-02 0.
      1.91021967e-03 4.77554917e-04 0. 1.91021967e-03 1.43266469e-03
      1.91021967e-03 1.43266469e-03 7.16332393e-03 2.38777464e-03
      1.91021967e-03 1.91021967e-03 0. 0. 0. 3.34288436e-03
      1.91021967e-03 9.55109834e-04 4.77554917e-04 1.91021967e-03
      2.38777464e-03 3.34288436e-03 0. 1.91021967e-03 9.55109834e-04
      2.86532938e-03 9.55109834e-04 2.38777464e-03 2.86532938e-03
      4.77554917e-04 0. 1.43266469e-03 9.55109834e-04 0. 3.82043933e-03
      1.91021967e-03 5.73065877e-03 4.77554917e-04 0. 1.43266469e-03 0.
      0. 9.55109834e-04 1.00286528e-02 1.91021967e-03 9.55109834e-04
      3.82043933e-03 4.77554917e-04 9.55109834e-04 2.86532938e-03
      1.91021967e-03 4.77554929e-03 1.91021967e-03 1.43266469e-03
      3.34288436e-03 5.25310403e-03 2.86532938e-03 4.77554917e-04 0.
      1.91021967e-03 1.91021967e-03 0. 3.82043933e-03 0. 5.73065877e-03
      2.86532938e-03 4.77554917e-04 4.29799408e-03 9.55109834e-04
      3.34288436e-03 4.77554917e-04 0. 1.91021967e-03 4.29799408e-03
      1.43266469e-03 9.55109834e-04 1.91021967e-03 4.29799408e-03
      9.55109834e-04 2.86532938e-03 1.91021967e-03 1.43266469e-03
      2.38777464e-03 3.82043933e-03 4.77554917e-04 9.55109834e-04
      4.77554917e-04 9.55109834e-04 6.68576872e-03 5.25310403e-03
      1.43266469e-03 4.77554917e-04 2.86532938e-03 1.91021967e-03
      4.77554917e-04 0. 3.34288436e-03 4.77554917e-04 2.38777464e-03
      5.73065877e-03 0. 4.77554917e-04 1.91021967e-03 9.55109834e-04
      2.38777464e-03 2.86532938e-03 4.77554917e-04 1.91021967e-03
      3.34288436e-03 1.43266469e-03 0. 7.64087867e-03 1.91021967e-03
      1.43266469e-03 4.77554929e-03 9.55109834e-04 9.55109834e-04
      1.91021967e-03 1.91021967e-03 1.91021967e-03 4.77554917e-04
      7.16332393e-03 9.55109834e-04 4.77554917e-04 3.82043933e-03
      3.82043933e-03 0. 7.64087867e-03 1.43266469e-03 4.29799408e-03
      9.55109834e-04 2.38777464e-03 9.55109834e-04 4.77554917e-04
      1.91021967e-03 4.77554917e-04 6.68576872e-03 4.29799408e-03 0.
      7.16332393e-03 0. 3.82043933e-03 4.77554917e-04 1.91021967e-03
      9.55109834e-04 6.20821398e-03 7.64087867e-03 1.91021967e-03
      3.34288436e-03 0. 4.77554917e-04 1.43266469e-03 9.55109834e-04 0.
      9.55109834e-04 4.77554917e-04 9.55109834e-04 3.34288436e-03
      8.59598815e-03 2.86532938e-03 1.43266469e-03 0. 2.86532938e-03 0.
      4.77554929e-03 4.77554917e-04 0. 2.86532938e-03 5.25310403e-03
      7.64087867e-03 0. 4.77554917e-04 4.77554917e-04 9.55109834e-04
      9.55109834e-04 4.77554917e-04 0. 9.55109834e-04 1.43266469e-03
      9.55109834e-04 4.77554917e-04 0. 0. 2.86532938e-03 4.77554917e-04
      5.73065877e-03 4.77554917e-04 2.38777464e-03 4.29799408e-03 0.
      2.38777464e-03 4.77554917e-04 4.77554929e-03 4.77554917e-04
      9.55109834e-04 1.43266469e-03 4.77554917e-04 9.55109834e-04
      4.77554929e-03 4.77554917e-04 1.43266469e-03 9.55109834e-04
      9.55109834e-04 9.55109834e-04 4.77554917e-04 4.77554917e-04
      2.38777464e-03 0. 9.55109834e-04 1.43266469e-03 1.43266469e-03
      1.28939832e-02 2.86532938e-03 0. 2.86532938e-03 2.86532938e-03
      1.43266469e-03 9.55109834e-04 1.43266469e-03 1.91021967e-03
      2.86532938e-03 0. 3.34288436e-03 4.77554917e-04 1.43266469e-03
      1.91021967e-03 2.38777464e-03 0. 2.86532938e-03 1.43266469e-03
      4.77554917e-04 0. 1.43266469e-03 9.55109834e-04 0. 3.82043933e-03
      0. 4.77554917e-04 1.91021967e-03 9.55109834e-04 4.77554929e-03
      4.77554917e-04 1.91021967e-03 9.55109834e-04 1.91021967e-03
      8.11843388e-03 3.34288436e-03 8.11843388e-03 0. 0. 0.
      4.77554917e-04 0. 2.86532938e-03 0. 4.77554917e-04 9.55109834e-04
      1.43266469e-03 3.34288436e-03 2.38777464e-03 0. 2.38777464e-03 0.
      4.77554917e-04 9.55109834e-04 1.91021967e-03 1.91021967e-03
      1.91021967e-03 3.82043933e-03 5.25310403e-03 4.77554917e-04
      3.82043933e-03 4.77554917e-04 0. 1.43266469e-03 9.55109834e-04
      1.91021967e-03 6.20821398e-03 2.38777464e-03 2.38777464e-03 0.
      1.43266469e-03 2.38777464e-03 2.86532938e-03 1.43266479e-02
      1.91021967e-03 1.91021967e-03 0. 0. 0. 4.77554917e-04
      9.55109834e-04 9.55109834e-04 2.86532938e-03 6.68576872e-03
      2.38777464e-03 4.77554917e-04 0. 4.29799408e-03 1.43266469e-03
      4.77554917e-04 8.11843388e-03 1.43266469e-03 1.43266469e-03
      2.38777464e-03 4.77554917e-04 7.16332393e-03 4.77554917e-04
      1.43266469e-03 1.91021967e-03 4.29799408e-03 2.38777464e-03 0.
      3.82043933e-03 4.77554917e-04 3.34288436e-03 1.91021967e-03
      4.77554917e-04 9.55109834e-04 1.91021967e-03 1.43266469e-03 0.
      2.86532938e-03 1.91021967e-03 0. 9.55109834e-04 4.77554917e-04
      1.43266469e-03 9.55109834e-04 4.77554917e-04 0. 4.77554917e-04
      9.55109834e-04 4.77554917e-04 1.43266469e-03 0. 9.55109834e-04
      4.77554917e-04 4.77554917e-04 4.77554929e-03 9.55109834e-04
      2.38777464e-03 4.77554917e-04 9.55109834e-04 9.55109834e-04
      3.82043933e-03 2.38777464e-03 0. 0. 9.55109834e-04 4.77554917e-04
      0. 1.91021967e-03 2.38777464e-03 1.91021967e-03 4.77554929e-03
      1.43266469e-03 0. 1.43266469e-03 2.38777464e-03 2.38777464e-03
      4.77554917e-04 1.91021967e-03 4.29799408e-03 0. 1.43266469e-03
      5.73065877e-03 0. 3.34288436e-03 0. 1.91021967e-03 2.38777464e-03
      0. 2.86532938e-03 1.91021967e-03 1.91021967e-03 9.55109834e-04
      4.77554917e-04 0. 4.77554917e-04 2.86532938e-03 1.91021967e-03
      1.43266469e-03 0. 9.55109834e-04 3.34288436e-03 0. 0.
      4.77554917e-04 9.55109834e-04 9.55109834e-04 1.43266469e-03
      9.55109834e-04 1.91021967e-03 1.91021967e-03 0.</_>
    <_>
      0. 2.67594325e-04 1.01685841e-02 8.02782946e-04 8.02782946e-04
      5.35188650e-04 1.07037730e-03 2.14075460e-03 2.67594325e-04
      1.33797165e-03 5.35188650e-04 5.35188650e-04 6.95745228e-03
      1.60556589e-03 1.07037730e-03 1.33797165e-03 1.33797165e-03 0.
      2.94353766e-03 8.02783016e-03 2.14075460e-03 0. 2.67594325e-04
      5.35188662e-03 2.40834896e-03 5.35188650e-04 0. 1.33797165e-03
      1.60556589e-03 5.35188650e-04 7.49264099e-03 2.67594331e-03
      2.67594325e-04 2.67594331e-03 5.08429203e-03 2.67594331e-03
      1.07037730e-03 1.33797165e-03 5.35188650e-04 1.07037730e-03
      3.21113179e-03 2.14075460e-03 1.07037730e-03 8.02782946e-04
      1.33797163e-02 2.67594325e-04 1.60556589e-03 3.47872614e-03
      2.67594325e-04 2.67594325e-04 5.35188662e-03 1.33797165e-03 0.
      4.54910332e-03 2.40834896e-03 1.07037730e-03 1.33797165e-03
      2.14075460e-03 1.87316025e-03 2.14075460e-03 5.08429203e-03
      1.07037730e-03 5.35188650e-04 1.60556589e-03 1.07037730e-03
      3.47872614e-03 1.07037730e-03 4.01391508e-03 4.28150920e-03
      5.08429203e-03 5.35188650e-04 4.54910332e-03 1.87316025e-03
      8.29542428e-03 8.02782946e-04 1.07037730e-03 1.60556589e-03
      1.87316025e-03 2.40834896e-03 2.67594325e-04 5.08429203e-03
      1.60556589e-03 1.04361791e-02 1.60556589e-03 1.07037730e-03
      1.33797163e-02 0. 4.81669791e-03 2.67594325e-04 3.74632049e-03
      2.67594325e-04 1.87316025e-03 2.67594325e-04 3.74632049e-03
      8.02782946e-04 8.02782946e-04 1.60556589e-03 0. 2.67594325e-04
      1.33797165e-03 5.35188650e-04 1.60556589e-03 2.67594325e-04
      2.67594331e-03 5.35188650e-04 1.07037730e-03 2.67594325e-04
      4.28150920e-03 1.15065556e-02 1.07037730e-03 2.67594325e-04 0.
      1.60556589e-03 1.33797165e-03 4.01391508e-03 2.94353766e-03
      2.67594325e-04 9.63339582e-03 5.35188650e-04 8.02782946e-04
      5.61948074e-03 1.07037730e-03 1.60556589e-03 0. 1.07037730e-03
      4.81669791e-03 2.67594325e-04 1.33797165e-03 1.07037730e-03
      8.02782946e-04 8.02782946e-04 2.94353766e-03 1.33797165e-03
      2.67594325e-04 2.67594331e-03 8.02782946e-04 2.14075460e-03
      5.35188650e-04 1.33797165e-03 1.33797165e-03 2.40834896e-03
      2.67594325e-04 2.67594325e-04 1.07037730e-03 1.33797165e-03
      4.81669791e-03 2.67594325e-04 2.67594325e-04 8.02782946e-04
      8.02782946e-04 2.94353766e-03 1.07037730e-03 0. 2.14075460e-03
      1.07037730e-03 2.40834896e-03 0. 5.35188650e-04 2.67594331e-03
      8.02782946e-04 2.67594325e-04 8.02782946e-04 2.67594325e-04
      5.35188650e-04 0. 2.67594325e-04 4.81669791e-03 1.33797165e-03
      8.02782946e-04 4.28150920e-03 2.67594325e-04 7.22504687e-03
      1.87316025e-03 1.33797165e-03 1.07037730e-03 1.07037730e-03 0.
      5.35188650e-04 1.07037730e-03 2.40834896e-03 1.07037730e-03
      2.40834896e-03 8.02783016e-03 8.02782946e-04 2.40834896e-03
      2.67594325e-04 2.67594331e-03 8.02782946e-04 2.67594325e-04
      1.07037730e-03 2.67594325e-04 8.02782946e-04 4.28150920e-03
      3.21113179e-03 2.14075460e-03 2.67594325e-04 2.14075460e-03
      1.07037730e-03 4.81669791e-03 8.02782946e-04 1.33797165e-03 0.
      1.44500937e-02 0. 2.40834896e-03 5.35188650e-04 1.33797165e-03 0.
      2.67594325e-04 2.40834896e-03 1.33797165e-03 1.20417448e-02
      6.95745228e-03 4.28150920e-03 1.87316025e-03 2.94353766e-03
      1.33797165e-03 2.67594325e-04 2.40834896e-03 5.35188650e-04
      2.67594325e-04 5.35188650e-04 1.33797165e-03 1.07037730e-03
      2.67594325e-04 6.15466945e-03 1.07037730e-03 8.02782946e-04
      1.60556589e-03 0. 2.67594325e-04 2.94353766e-03 1.07037730e-03
      1.33797165e-03 1.33797165e-03 6.15466945e-03 8.02782946e-04
      1.25769330e-02 8.02782946e-04 5.35188650e-04 1.07037730e-03 0.
      1.07037730e-03 1.07037730e-03 1.07037730e-03 8.02782946e-04
      1.07037730e-03 1.33797165e-03 1.07037730e-03 2.94353766e-03
      3.74632049e-03 5.61948074e-03 4.54910332e-03 0. 1.07037730e-03
      8.02782946e-04 5.35188650e-04 1.60556589e-03 8.02782946e-04
      2.67594325e-04 0. 1.87316025e-03 1.33797165e-03 2.67594325e-04
      1.39149046e-02 5.35188650e-04 2.14075460e-03 2.67594325e-04
      1.60556589e-03 5.35188650e-04 2.67594325e-04 2.67594325e-04
      2.94353766e-03 4.28150920e-03 8.02782946e-04 2.67594325e-04
      1.07037730e-03 1.87316025e-03 1.33797165e-03 2.14075460e-03
      2.67594325e-04 5.35188650e-04 0. 3.21113179e-03 2.67594325e-04
      8.02782946e-04 5.35188650e-04 2.67594325e-04 1.07037730e-03
      4.28150920e-03 8.02782946e-04 0. 2.67594325e-04 2.14075460e-03
      1.33797165e-03 2.14075460e-03 1.07037730e-03 1.33797165e-03
      3.47872614e-03 5.61948074e-03 5.35188650e-04 2.14075460e-03
      2.14075460e-03 4.01391508e-03 5.35188662e-03 2.67594325e-04 0.
      1.07037730e-03 2.40834896e-03 2.67594325e-04 1.87316025e-03
      4.01391508e-03 2.67594325e-04 0. 1.01685841e-02 1.07037730e-03
      2.67594325e-04 2.67594325e-04 3.21113179e-03 6.15466945e-03 0.
      5.35188650e-04 1.87316025e-03 4.54910332e-03 1.87316025e-03
      8.02782946e-04 0. 9.36580170e-03 5.35188650e-04 2.11399514e-02
      2.94353766e-03 5.61948074e-03 5.88707533e-03 5.35188650e-04
      5.35188650e-04 2.67594325e-04 1.87316025e-03 8.02782946e-04
      4.01391508e-03 5.88707533e-03 1.07037730e-03 2.67594325e-04
      1.07037730e-03 1.87316025e-03 4.54910332e-03 1.33797165e-03
      8.02782946e-04 5.35188650e-04 2.14075460e-03 1.60556589e-03
      8.02782946e-04 1.60556589e-03 0. 1.07037730e-03 1.33797165e-03
      1.33797165e-03 1.87316025e-03 2.67594331e-03 2.67594325e-04
      1.87316025e-03 2.67594325e-04 8.02782946e-04 2.67594325e-04
      2.14075460e-03 8.02782946e-04 0. 1.07037730e-03 1.63232535e-02
      4.28150920e-03 1.07037730e-03 8.02782946e-04 4.54910332e-03
      4.01391508e-03 3.47872614e-03 1.07037730e-03 8.02782946e-04
      1.07037730e-03 0. 2.67594325e-04 1.07037730e-03 0. 8.02783016e-03
      0. 2.67594331e-03 2.40834896e-03 8.02782946e-04 3.74632049e-03
      2.14075460e-03 1.60556589e-03 5.35188650e-04 5.61948074e-03 0.
      8.02782946e-04 1.60556589e-03 2.67594325e-04 5.35188650e-04
      8.02782946e-04 2.40834896e-03 2.40834896e-03 0. 5.35188650e-04
      2.67594325e-04 2.67594325e-04 5.35188650e-04 5.35188650e-04
      8.02782946e-04 1.33797165e-03 5.35188650e-04 2.94353766e-03
      5.35188650e-04 1.07037730e-03 0. 1.60556589e-03 2.94353766e-03
      1.07037730e-03 8.02782946e-04 2.67594325e-04 6.42226357e-03
      2.94353766e-03 5.61948074e-03 2.40834896e-03 1.60556589e-03
      8.02782946e-04 1.07037730e-03 8.02782946e-04 5.35188650e-04
      8.02782946e-04 3.47872614e-03 8.02782946e-04 4.81669791e-03
      1.33797165e-03 0. 8.02782946e-04 3.47872614e-03 5.35188650e-04
      4.81669791e-03 2.67594325e-04 1.41824996e-02 1.33797165e-03
      1.60556589e-03 0. 4.01391508e-03 1.07037730e-03 1.87316025e-03
      2.67594325e-04 2.14075460e-03 1.07037730e-03 1.07037730e-03 0.
      5.35188650e-04 6.42226357e-03 2.14075460e-03 2.40834896e-03
      5.35188650e-04 0. 5.35188650e-04 1.87316025e-03 1.33797165e-03
      2.67594325e-04 1.07037730e-03 1.07037730e-03 8.02782946e-04
      5.88707533e-03 8.02782946e-04 4.01391508e-03 5.35188650e-04
      2.67594325e-04 8.02782946e-04 2.67594331e-03 5.35188650e-04 0.
      1.60556589e-03 2.40834896e-03 2.67594325e-04 2.67594331e-03
      5.35188662e-03 9.90098994e-03 1.33797165e-03 1.07037730e-03
      2.94353766e-03 0. 8.02782946e-04 2.67594325e-04 0. 1.07037730e-03
      2.67594331e-03 2.40834896e-03 1.33797165e-03 1.60556589e-03
      5.35188650e-04 5.35188650e-04 1.33797165e-03 1.33797165e-03
      2.67594331e-03 1.60556589e-03 2.67594325e-04 8.02782946e-04
      1.60556589e-03 3.47872614e-03 1.07037730e-03</_>
    <_>
      1.50375941e-03 0. 4.51127812e-03 1.50375941e-03 3.00751883e-03 0.
      1.50375941e-03 1.50375941e-03 3.00751883e-03 1.50375941e-03 0.
      1.50375941e-03 3.45864668e-02 0. 0. 0. 0. 0. 3.00751883e-03 0. 0.
      1.50375941e-03 3.00751883e-03 1.50375941e-03 0. 0. 1.50375941e-03
      0. 0. 0. 0. 1.05263162e-02 1.50375941e-03 7.51879718e-03
      6.01503765e-03 0. 3.00751883e-03 0. 3.00751883e-03 0.
      2.55639106e-02 1.50375941e-03 0. 0. 1.20300753e-02 3.00751883e-03
      0. 0. 1.50375941e-03 4.51127812e-03 0. 3.00751883e-03
      1.50375941e-03 1.50375944e-02 1.50375941e-03 3.00751883e-03
      4.51127812e-03 1.50375941e-03 3.00751883e-03 1.50375941e-03
      1.50375941e-03 0. 1.50375941e-03 0. 0. 1.50375941e-03 0. 0. 0.
      1.50375941e-03 0. 0. 3.00751883e-03 4.51127812e-03 0.
      1.50375941e-03 1.50375941e-03 0. 0. 1.50375941e-03 3.00751883e-03
      0. 0. 0. 3.00751883e-03 0. 0. 1.50375941e-03 0. 1.50375941e-03
      1.50375941e-03 9.02255625e-03 1.50375941e-03 4.51127812e-03
      1.50375941e-03 3.00751883e-03 0. 0. 0. 1.50375941e-03 0. 0.
      1.50375941e-03 2.55639106e-02 1.50375941e-03 1.50375941e-03
      4.51127812e-03 9.02255625e-03 1.50375941e-03 0. 1.50375941e-03 0.
      0. 0. 0. 1.50375941e-03 0. 0. 0. 4.51127812e-03 3.00751883e-03 0.
      0. 1.50375941e-03 0. 1.50375941e-03 0. 3.00751883e-03
      4.51127812e-03 0. 4.51127812e-03 1.50375941e-03 0. 0.
      3.00751883e-03 1.50375941e-03 0. 0. 0. 0. 2.10526325e-02
      3.00751883e-03 1.50375941e-03 1.50375941e-03 0. 0. 1.50375941e-03
      7.51879718e-03 6.01503765e-03 4.51127812e-03 7.51879718e-03 0. 0.
      4.51127812e-03 0. 1.50375941e-03 0. 3.00751883e-03 1.50375941e-03
      1.50375941e-03 0. 1.50375941e-03 0. 1.50375941e-03 1.50375941e-03
      0. 0. 3.00751883e-03 3.00751883e-03 0. 0. 0. 6.01503765e-03 0.
      4.51127812e-03 3.00751883e-03 0. 0. 0. 1.50375941e-03
      6.01503765e-03 1.50375941e-03 0. 0. 1.50375941e-03 0.
      1.50375941e-03 3.00751883e-03 0. 1.50375941e-03 1.50375941e-03
      1.50375941e-03 1.50375941e-03 6.01503765e-03 0. 0. 1.50375941e-03
      1.50375941e-03 0. 0. 1.50375941e-03 1.50375941e-03 9.02255625e-03
      4.51127812e-03 0. 0. 3.00751883e-03 1.50375941e-03 3.00751883e-03
      3.00751883e-03 7.51879718e-03 0. 1.35338344e-02 1.05263162e-02 0.
      0. 1.50375941e-03 0. 0. 0. 0. 1.50375941e-03 0. 4.51127812e-03
      1.50375941e-03 4.51127812e-03 1.50375941e-03 0. 0. 0. 0.
      9.02255625e-03 1.50375941e-03 0. 1.50375941e-03 4.51127812e-03
      1.50375941e-03 1.50375941e-03 1.50375941e-03 0. 0. 0. 0.
      1.50375941e-03 1.50375941e-03 0. 0. 6.01503765e-03 1.50375941e-03
      1.50375941e-03 1.50375941e-03 1.50375941e-03 3.00751883e-03 0.
      3.00751883e-03 0. 0. 3.00751883e-03 4.51127812e-03 0. 0.
      1.50375941e-03 9.02255625e-03 0. 1.05263162e-02 3.00751883e-03
      1.50375941e-03 0. 1.50375941e-03 0. 0. 3.00751883e-03
      1.50375941e-03 7.51879718e-03 0. 1.50375941e-03 0. 3.00751883e-03
      1.50375941e-03 0. 0. 0. 3.00751883e-03 0. 1.50375941e-03
      1.50375941e-03 1.50375941e-03 0. 1.50375941e-03 4.51127812e-03 0.
      0. 0. 0. 0. 1.50375941e-03 1.50375941e-03 1.50375941e-03 0.
      3.00751883e-03 0. 0. 0. 0. 0. 0. 0. 0. 3.00751883e-03 0. 0. 0.
      1.50375941e-03 3.00751883e-03 2.55639106e-02 0. 0. 0.
      3.00751883e-03 1.50375941e-03 0. 0. 0. 0. 0. 0. 3.00751883e-03
      6.01503765e-03 0. 1.50375941e-03 0. 1.35338344e-02 1.50375941e-03
      3.00751883e-03 1.50375941e-03 4.51127812e-03 1.50375941e-03
      3.00751883e-03 4.51127812e-03 3.00751883e-03 0. 1.50375941e-03
      3.00751883e-03 1.50375941e-03 7.51879718e-03 0. 6.01503765e-03 0.
      0. 0. 4.51127812e-03 1.50375941e-03 0. 1.50375941e-03 0.
      3.00751883e-03 3.00751883e-03 1.50375941e-03 0. 0. 0.
      7.51879718e-03 0. 0. 1.50375941e-03 1.50375941e-03 1.05263162e-02
      3.00751883e-03 0. 0. 7.51879718e-03 0. 4.51127812e-03
      1.50375941e-03 0. 0. 0. 0. 1.50375941e-03 0. 0. 1.95488725e-02 0.
      1.50375941e-03 0. 6.01503765e-03 1.50375941e-03 2.85714287e-02
      3.00751883e-03 1.50375941e-03 3.00751883e-03 1.50375941e-03 0.
      1.50375941e-03 0. 0. 0. 0. 1.50375941e-03 0. 3.00751883e-03 0. 0.
      1.50375941e-03 3.00751883e-03 1.50375941e-03 1.50375941e-03 0. 0.
      1.50375941e-03 3.00751883e-03 4.51127812e-03 0. 0. 1.50375941e-03
      3.00751883e-03 0. 9.02255625e-03 0. 6.01503765e-03 3.00751883e-03
      0. 1.50375941e-03 1.50375941e-03 0. 1.50375941e-03 0.
      3.00751883e-03 0. 0. 1.50375941e-03 1.50375941e-03 0. 0.
      3.00751883e-03 3.00751883e-03 0. 0. 1.50375941e-03 0. 0. 0. 0.
      7.51879718e-03 0. 7.51879718e-03 1.50375941e-03 0. 1.50375941e-03
      1.50375941e-03 0. 1.50375941e-03 0. 0. 0. 1.50375941e-03 0. 0. 0.
      3.00751883e-03 3.00751883e-03 1.50375941e-03 0. 1.50375941e-03
      1.50375941e-03 0. 1.50375941e-03 3.00751883e-03 3.00751883e-03
      1.50375941e-03 3.00751883e-03 3.00751883e-03 3.00751883e-03 0. 0.
      1.50375941e-03 3.00751883e-03 9.02255625e-03 0. 0. 0. 0. 0. 0.
      1.50375941e-03 0. 3.00751883e-03 1.50375941e-03 0. 1.50375941e-03
      1.50375941e-03 0. 3.00751883e-03 0. 1.50375941e-03 0.
      4.51127812e-03 6.01503765e-03 3.00751883e-03 6.01503765e-03</_>
    <_>
      0. 0. 1.33976415e-02 5.35905652e-04 5.35905652e-04 7.50267925e-03
      1.07181130e-03 1.60771701e-03 0. 2.67952820e-03 2.67952820e-03
      5.35905652e-04 4.28724522e-03 5.35905652e-04 5.35905652e-04
      7.50267925e-03 1.60771701e-03 0. 1.07181130e-03 0. 5.35905652e-04
      5.35905652e-04 5.35905652e-04 4.82315104e-03 3.75133962e-03
      1.60771701e-03 0. 5.35905652e-04 1.07181130e-03 1.07181130e-03
      3.75133962e-03 7.50267925e-03 5.35905652e-04 5.35905641e-03
      4.28724522e-03 3.21543403e-03 1.60771701e-03 5.35905652e-04 0. 0.
      4.82315104e-03 5.35905652e-04 3.75133962e-03 0. 7.50267925e-03 0.
      1.07181130e-03 8.03858507e-03 2.67952820e-03 5.35905652e-04
      4.28724522e-03 1.60771701e-03 0. 1.23258298e-02 2.67952820e-03
      7.50267925e-03 1.07181130e-03 2.14362261e-03 3.21543403e-03
      4.82315104e-03 5.89496223e-03 0. 5.35905652e-04 3.75133962e-03 0.
      7.50267925e-03 0. 3.21543403e-03 3.75133962e-03 5.89496223e-03
      1.07181130e-03 0. 1.07181130e-03 3.21543403e-03 5.35905652e-04
      5.35905652e-04 2.67952820e-03 1.60771701e-03 0. 1.60771701e-03
      3.21543403e-03 2.67952820e-03 6.96677342e-03 5.35905652e-04 0.
      3.75133962e-03 5.35905652e-04 2.14362261e-03 0. 1.50053585e-02
      1.07181130e-03 5.35905641e-03 0. 1.07181130e-03 1.07181130e-03
      5.35905652e-04 3.75133962e-03 2.67952820e-03 0. 5.35905652e-04 0.
      2.14362261e-03 5.35905652e-04 4.82315104e-03 5.35905652e-04
      1.07181130e-03 5.35905652e-04 1.60771701e-03 5.35905652e-04
      2.67952820e-03 0. 5.35905652e-04 4.28724522e-03 0. 1.01822075e-02
      1.60771701e-03 1.60771701e-03 4.28724522e-03 0. 2.14362261e-03 0.
      5.35905652e-04 5.35905652e-04 1.07181130e-03 0. 1.60771701e-03 0.
      5.35905652e-04 1.07181130e-03 1.60771701e-03 0. 0. 3.75133962e-03
      5.35905652e-04 0. 5.35905652e-04 0. 0. 2.67952820e-03 0.
      7.50267925e-03 5.35905652e-04 5.35905652e-04 0. 1.07181130e-03
      1.07181130e-03 1.07181130e-03 1.60771701e-03 1.07181130e-03
      1.07181128e-02 2.67952820e-03 1.60771701e-03 1.07181130e-03
      5.35905652e-04 3.21543403e-03 0. 5.35905652e-04 2.14362261e-03 0.
      4.82315104e-03 0. 1.07181130e-03 5.35905652e-04 0. 1.07181130e-03
      0. 3.75133962e-03 0. 2.14362261e-03 1.60771701e-03 0.
      1.60771701e-03 5.35905652e-04 2.14362261e-03 0. 0. 0. 0.
      5.35905652e-04 0. 1.07181130e-03 5.35905652e-04 5.35905641e-03
      2.67952820e-03 1.60771701e-03 0. 0. 1.07181130e-03 5.35905652e-04
      2.14362261e-03 2.14362261e-03 0. 2.14362261e-03 1.60771701e-03
      3.21543403e-03 0. 2.14362261e-03 3.21543403e-03 3.21543403e-03 0.
      5.35905652e-04 5.35905652e-04 5.35905652e-04 4.28724522e-03
      1.07181130e-03 0. 2.14362261e-03 1.07181130e-03 5.35905652e-04
      2.14362261e-03 1.07181130e-03 3.21543403e-03 4.82315104e-03 0.
      1.60771701e-03 2.14362261e-03 1.60771701e-03 1.60771701e-03 0. 0.
      0. 0. 8.03858507e-03 2.14362261e-03 0. 0. 0. 0. 4.28724522e-03
      4.82315104e-03 0. 1.07181130e-03 5.35905652e-04 1.07181130e-03
      2.67952820e-03 1.01822075e-02 1.07181130e-03 5.89496223e-03
      2.09003203e-02 5.35905652e-04 2.14362261e-03 5.35905652e-04
      5.35905652e-04 1.07181130e-03 1.60771701e-03 4.28724522e-03 0. 0.
      1.07181130e-03 1.07181130e-03 1.07181130e-03 0. 0. 5.35905652e-04
      0. 5.35905652e-04 5.35905652e-04 1.07181130e-03 0. 5.35905652e-04
      0. 0. 2.67952820e-03 3.21543403e-03 2.14362261e-03 0.
      1.07181130e-03 5.35905652e-04 3.21543403e-03 1.07181130e-03 0.
      2.67952820e-03 5.35905652e-04 6.43086806e-03 0. 1.07181130e-03
      5.35905641e-03 0. 5.35905652e-04 1.07181130e-03 0. 0. 0.
      1.60771701e-03 1.07181130e-03 0. 0. 2.67952820e-03 0.
      1.87566970e-02 0. 1.60771701e-03 1.07181130e-03 0. 3.21543403e-03
      5.35905652e-04 1.60771701e-03 1.07181130e-03 1.07181130e-03
      3.85852084e-02 0. 1.07181128e-02 1.07181130e-03 1.07181130e-03
      8.57449044e-03 2.67952820e-03 0. 1.60771701e-03 1.60771701e-03
      2.14362261e-03 1.60771701e-03 1.60771701e-03 0. 0. 9.64630209e-03
      2.14362261e-03 0. 0. 1.60771701e-03 5.35905652e-04 5.35905652e-04
      0. 0. 0. 5.35905652e-04 1.60771701e-03 5.35905652e-04
      6.96677342e-03 1.60771701e-03 5.35905641e-03 1.07181130e-03
      4.28724522e-03 2.67952820e-03 0. 5.35905652e-04 1.12540191e-02
      1.07181130e-03 0. 1.60771701e-03 1.07181130e-03 2.67952820e-03
      5.35905652e-04 2.67952820e-03 5.35905652e-04 1.28617361e-02
      1.60771701e-03 1.60771701e-03 0. 4.82315104e-03 1.01822075e-02
      2.67952820e-03 1.60771701e-03 0. 0. 5.35905652e-04 0. 0. 0.
      1.60771701e-03 5.35905652e-04 0. 5.35905652e-04 6.43086806e-03
      5.35905641e-03 1.07181130e-03 5.35905652e-04 0. 3.21543403e-03
      5.35905652e-04 0. 5.35905652e-04 2.14362261e-03 6.96677342e-03
      9.11039580e-03 0. 1.07181130e-03 5.35905652e-04 0. 1.60771701e-03
      0. 0. 6.43086806e-03 4.82315104e-03 2.67952820e-03 5.35905652e-04
      5.35905652e-04 1.60771701e-03 7.50267925e-03 1.07181130e-03
      5.35905652e-04 1.82207916e-02 1.07181130e-03 0. 4.82315104e-03 0.
      1.07181130e-03 0. 1.07181130e-03 2.67952820e-03 3.75133962e-03
      5.35905652e-04 5.35905652e-04 1.07181130e-03 0. 0. 5.35905652e-04
      2.14362261e-03 0. 1.07181130e-03 0. 3.75133962e-03 0.
      1.60771701e-03 2.67952820e-03 5.35905652e-04 0. 0. 5.35905652e-04
      1.07181130e-03 5.35905652e-04 2.14362261e-03 0. 2.67952820e-03
      3.21543403e-03 0. 5.35905652e-04 0. 1.33976415e-02 0.
      1.60771701e-03 0. 2.67952820e-03 5.35905652e-04 2.14362261e-03 0.
      1.12540191e-02 5.35905652e-04 1.60771701e-03 5.35905641e-03
      2.14362261e-03 0. 2.14362261e-03 1.60771701e-03 7.50267925e-03
      3.21543403e-03 5.35905652e-04 0. 1.07181130e-03 2.14362261e-03 0.
      3.21543403e-03 3.21543403e-03 0. 5.35905652e-04 0. 0.
      3.75133962e-03 2.14362261e-03 7.50267925e-03 4.82315104e-03
      1.07181130e-03 5.35905652e-04 1.60771701e-03 0. 3.75133962e-03
      4.28724522e-03 1.07181130e-03 5.35905652e-04 5.35905652e-04 0.
      1.60771701e-03 0. 2.67952820e-03 0. 1.07181130e-03 5.35905641e-03
      2.14362261e-03 2.14362261e-03 5.35905652e-04 4.82315104e-03 0.
      5.35905652e-04 5.35905652e-04 0. 6.43086806e-03 2.67952820e-03
      3.21543403e-03 1.60771701e-03 5.35905652e-04 5.35905652e-04 0. 0.
      0. 5.35905652e-04 0. 1.07181130e-03 1.07181130e-03 1.07181130e-03
      5.35905652e-04 0.</_>
    <_>
      1.75592629e-03 0. 6.58472348e-03 2.19490798e-03 1.75592629e-03
      1.31694472e-03 8.77963146e-04 1.75592629e-03 2.19490798e-03
      1.31694472e-03 0. 0. 3.95083427e-03 2.19490798e-03 1.75592629e-03
      0. 1.31694472e-03 2.63388944e-03 3.07287090e-03 6.14574179e-03
      8.77963146e-04 0. 4.38981596e-03 6.14574179e-03 9.21861269e-03
      1.31694472e-03 1.31694472e-03 0. 8.77963146e-04 1.31694472e-03
      8.34065024e-03 0. 4.82879719e-03 1.75592629e-03 0. 6.14574179e-03
      4.38981573e-04 2.19490798e-03 4.38981573e-04 1.75592629e-03
      8.77963146e-04 1.14135211e-02 6.14574179e-03 8.77963146e-04
      8.77963146e-04 2.19490798e-03 0. 7.46268686e-03 4.82879719e-03
      4.38981596e-03 1.49253737e-02 8.77963146e-04 1.31694472e-03
      1.31694472e-03 4.38981573e-04 3.51185258e-03 3.95083427e-03
      4.38981573e-04 3.07287090e-03 7.02370517e-03 3.95083427e-03
      2.63388944e-03 1.75592629e-03 2.19490798e-03 4.38981573e-04
      1.31694472e-03 1.31694472e-03 1.75592629e-03 1.00965761e-02
      4.38981573e-04 4.38981573e-04 8.77963146e-04 2.19490798e-03
      8.77963146e-04 4.82879719e-03 4.38981573e-04 1.31694472e-03
      1.31694472e-03 2.19490798e-03 1.75592629e-03 4.82879719e-03
      4.38981596e-03 4.38981596e-03 1.75592629e-03 1.31694472e-03
      4.38981596e-03 1.75592629e-03 4.38981596e-03 3.51185258e-03
      2.19490798e-03 4.38981573e-04 8.77963146e-04 2.19490798e-03
      1.31694472e-03 8.77963146e-04 4.38981573e-04 0. 8.77963146e-04
      4.82879719e-03 8.77963146e-04 0. 3.51185258e-03 1.31694472e-03
      1.31694472e-03 1.75592629e-03 2.63388944e-03 2.19490798e-03
      8.77963146e-04 3.95083427e-03 8.77963146e-04 8.77963146e-04 0.
      1.27304653e-02 1.31694472e-03 4.38981573e-04 4.38981596e-03
      8.77963146e-04 8.77963146e-04 2.19490798e-03 2.19490798e-03
      3.95083427e-03 1.31694472e-03 1.31694472e-03 4.38981573e-04
      4.38981573e-04 5.26777888e-03 2.63388944e-03 8.77963146e-04
      4.38981573e-04 1.75592629e-03 1.75592629e-03 4.38981573e-04
      1.75592629e-03 0. 3.95083427e-03 4.38981573e-04 1.75592629e-03
      2.19490798e-03 4.82879719e-03 8.77963146e-04 8.77963146e-04
      3.07287090e-03 0. 4.38981573e-04 0. 4.38981573e-04 5.26777888e-03
      5.70676057e-03 4.38981573e-04 1.31694472e-03 1.75592629e-03 0.
      8.77963146e-04 4.38981573e-04 4.38981573e-04 6.14574179e-03 0.
      2.63388944e-03 2.19490798e-03 0. 8.77963146e-04 8.77963146e-04
      1.31694472e-03 1.31694472e-03 0. 1.75592629e-03 6.14574179e-03
      1.31694472e-03 3.07287090e-03 0. 1.31694472e-03 1.75592629e-03
      1.31694472e-03 3.07287090e-03 4.38981573e-04 4.38981573e-04
      1.31694472e-03 5.26777888e-03 1.31694472e-03 0. 2.63388944e-03
      8.77963146e-04 8.77963146e-04 8.77963146e-04 3.07287090e-03
      1.75592629e-03 4.82879719e-03 0. 1.31694472e-03 4.38981573e-04
      1.31694472e-03 4.38981573e-04 3.07287090e-03 9.65759438e-03
      1.75592629e-03 3.07287090e-03 1.31694472e-03 8.77963146e-04
      8.34065024e-03 3.07287090e-03 8.77963146e-04 4.38981573e-04
      7.90166855e-03 2.63388944e-03 8.77963146e-04 8.77963146e-04
      3.51185258e-03 8.77963146e-04 8.77963146e-04 3.95083427e-03 0.
      2.63388944e-03 1.31694472e-03 8.77963146e-04 4.38981573e-04
      4.38981596e-03 1.75592629e-03 3.07287090e-03 3.51185258e-03 0.
      3.51185258e-03 4.38981573e-04 3.51185258e-03 8.77963146e-04
      1.31694472e-03 5.70676057e-03 1.75592629e-03 4.38981573e-04
      3.07287090e-03 1.31694472e-03 4.38981573e-04 2.19490798e-03
      4.38981573e-04 3.51185258e-03 4.38981573e-04 2.63388944e-03
      1.31694472e-03 2.63388944e-03 8.77963146e-04 8.77963146e-04
      5.70676057e-03 1.75592629e-03 3.51185258e-03 4.38981596e-03
      8.77963146e-04 7.90166855e-03 8.77963146e-04 8.77963146e-04
      1.75592629e-03 1.40474103e-02 8.77963193e-03 3.51185258e-03
      3.07287090e-03 2.19490798e-03 4.38981573e-04 2.19490798e-03
      1.31694472e-03 1.75592629e-03 2.19490798e-03 2.63388944e-03
      4.38981573e-04 8.77963146e-04 2.19490798e-03 3.07287090e-03
      3.51185258e-03 8.77963146e-04 8.77963146e-04 1.31694472e-03
      4.38981573e-04 4.38981573e-04 4.38981573e-04 2.19490798e-03
      2.19490798e-03 4.38981596e-03 4.38981573e-04 4.38981573e-04
      8.77963146e-04 1.75592629e-03 2.19490798e-03 2.63388944e-03
      3.51185258e-03 4.38981573e-04 8.77963146e-04 5.70676057e-03
      8.77963146e-04 8.77963146e-04 8.77963146e-04 1.31694472e-03
      3.07287090e-03 4.82879719e-03 2.19490798e-03 1.75592629e-03
      8.77963146e-04 8.77963146e-04 1.75592629e-03 8.77963146e-04
      4.82879719e-03 1.75592629e-03 0. 3.07287090e-03 1.75592629e-03 0.
      3.51185258e-03 4.38981573e-04 0. 0. 4.38981573e-04 8.77963146e-04
      1.31694472e-03 0. 4.38981573e-04 0. 2.63388944e-03 2.19490798e-03
      1.31694472e-03 7.46268686e-03 6.14574179e-03 8.77963146e-04
      4.38981573e-04 2.63388944e-03 8.77963146e-04 1.31694472e-03
      8.77963146e-04 3.51185258e-03 2.63388944e-03 4.38981573e-04
      3.51185258e-03 2.63388944e-03 1.75592629e-03 3.07287090e-03
      1.31694472e-03 4.38981573e-04 3.07287090e-03 1.31694472e-03
      1.31694472e-03 1.31694472e-03 1.75592629e-03 0. 4.38981573e-04
      6.58472348e-03 8.77963146e-04 8.77963146e-04 4.38981573e-04
      4.38981573e-04 1.75592629e-03 0. 1.75592629e-03 1.31694472e-03
      4.38981573e-04 4.38981573e-04 3.95083427e-03 4.38981596e-03
      8.77963146e-04 8.77963146e-04 2.63388944e-03 8.77963146e-04
      1.31694472e-03 3.07287090e-03 1.31694472e-03 4.38981573e-04
      4.38981573e-04 4.38981573e-04 1.31694472e-03 4.38981573e-04 0.
      1.75592629e-03 1.31694472e-03 3.51185258e-03 2.19490798e-03
      3.51185258e-03 3.07287090e-03 0. 2.63388944e-03 5.26777888e-03
      1.31694472e-03 6.14574179e-03 2.63388944e-03 1.75592629e-03
      1.31694472e-03 0. 8.77963146e-04 3.07287090e-03 4.38981573e-04
      1.31694472e-03 3.07287090e-03 4.38981573e-04 8.77963146e-04
      7.46268686e-03 4.38981596e-03 4.38981573e-04 1.75592629e-03
      1.31694472e-03 1.75592629e-03 4.38981573e-04 1.75592629e-03
      3.07287090e-03 1.31694472e-03 8.77963146e-04 5.26777888e-03
      8.77963146e-04 1.31694472e-03 1.75592629e-03 4.82879719e-03
      8.77963146e-04 1.31694472e-03 4.38981596e-03 0. 8.77963146e-04
      2.19490798e-03 0. 8.77963193e-03 8.77963146e-04 1.31694472e-03
      2.19490798e-03 3.51185258e-03 7.02370517e-03 8.77963146e-04
      1.75592629e-03 4.38981573e-04 3.07287090e-03 4.38981573e-04
      1.31694472e-03 8.77963146e-04 1.31694472e-03 8.77963146e-04
      2.63388944e-03 2.63388944e-03 3.07287090e-03 1.31694472e-03
      1.31694472e-03 8.77963146e-04 1.31694472e-03 4.38981573e-04
      8.77963146e-04 1.75592629e-03 2.19490798e-03 4.38981573e-04
      3.51185258e-03 4.38981573e-04 1.31694472e-03 1.75592629e-03
      1.31694472e-03 2.19490798e-03 2.63388944e-03 1.31694472e-03
      3.95083427e-03 4.38981573e-04 1.31694472e-03 2.63388944e-03
      8.77963146e-04 0. 2.19490798e-03 1.75592629e-03 4.38981573e-04
      1.75592629e-03 0. 4.38981573e-04 1.31694472e-03 2.63388944e-03
      4.38981573e-04 8.77963146e-04 1.31694472e-03 0. 8.77963146e-04
      3.51185258e-03 4.38981573e-04 1.31694472e-03 4.38981573e-04 0.
      4.38981573e-04 1.31694472e-03 8.77963146e-04 2.63388944e-03
      8.77963146e-04 4.38981573e-04 3.51185258e-03 0. 3.07287090e-03
      4.38981573e-04 2.19490798e-03 1.75592629e-03 1.75592629e-03
      1.31694472e-03 4.38981573e-04 0. 8.77963146e-04 0. 0.
      3.07287090e-03 8.77963146e-04 1.75592629e-03 8.77963146e-04
      8.77963146e-04 4.38981573e-04 0. 8.77963146e-04 0. 0.
      3.07287090e-03 1.75592629e-03</_>
    <_>
      1.37362641e-03 0. 0. 0. 1.37362641e-03 0. 4.12087934e-03
      2.74725282e-03 8.24175868e-03 1.51098901e-02 2.74725282e-03 0.
      1.37362641e-03 0. 2.74725282e-03 0. 0. 1.37362641e-03 0. 0.
      1.37362641e-03 4.12087934e-03 5.49450563e-03 1.37362641e-03 0. 0.
      2.74725282e-03 1.37362641e-03 6.86813192e-03 0. 0. 1.37362641e-03
      5.49450563e-03 5.49450563e-03 0. 1.37362641e-03 0. 0.
      1.37362641e-03 0. 0. 4.12087934e-03 1.37362641e-03 0.
      1.37362641e-03 2.74725282e-03 1.37362641e-03 1.37362641e-03 0.
      5.49450563e-03 2.74725282e-03 1.37362641e-03 1.09890113e-02
      1.37362641e-03 1.37362641e-03 2.74725282e-03 2.74725282e-03 0. 0.
      1.37362641e-03 0. 6.86813192e-03 0. 0. 0. 1.37362641e-03
      1.37362641e-03 0. 0. 1.37362641e-03 0. 2.74725282e-03
      2.74725282e-03 0. 1.37362641e-03 4.12087934e-03 1.37362641e-03 0.
      0. 0. 1.37362641e-03 2.74725282e-03 0. 4.12087934e-03 0.
      1.37362641e-03 1.37362641e-03 4.12087934e-03 1.37362641e-03 0. 0.
      6.86813192e-03 9.61538497e-03 0. 0. 1.37362641e-03 1.37362641e-03
      1.37362641e-03 1.37362641e-03 0. 1.37362641e-03 2.74725282e-03
      2.74725282e-03 6.86813192e-03 2.74725282e-03 0. 0. 4.12087934e-03
      0. 0. 1.37362641e-03 1.37362641e-03 0. 1.37362641e-03 0.
      1.37362641e-03 0. 1.37362641e-03 2.74725282e-03 0. 1.37362641e-03
      5.49450563e-03 4.12087934e-03 1.37362641e-03 0. 0. 4.12087934e-03
      2.74725282e-03 0. 5.49450563e-03 2.74725282e-03 0. 4.12087934e-03
      0. 5.49450563e-03 0. 0. 0. 5.49450563e-03 0. 9.61538497e-03
      8.24175868e-03 5.49450563e-03 0. 0. 0. 4.12087934e-03 0. 0. 0.
      8.24175868e-03 1.37362641e-03 5.49450563e-03 0. 1.37362641e-03
      2.74725282e-03 1.37362641e-03 1.37362641e-03 1.37362641e-03 0.
      4.12087934e-03 0. 0. 8.24175868e-03 1.37362641e-03 2.74725282e-03
      0. 1.37362641e-03 0. 2.74725282e-03 2.74725282e-03 1.37362641e-03
      2.74725282e-03 1.37362641e-03 0. 2.74725282e-03 6.86813192e-03
      8.24175868e-03 4.12087934e-03 0. 2.74725282e-03 4.12087934e-03 0.
      0. 1.37362641e-03 6.86813192e-03 2.74725282e-03 0. 5.49450563e-03
      8.24175868e-03 0. 2.74725282e-03 1.37362641e-03 1.37362641e-03
      1.37362641e-03 1.37362641e-03 5.49450563e-03 1.37362641e-03
      2.74725282e-03 0. 1.37362641e-03 1.37362641e-03 0. 0.
      4.12087934e-03 1.37362641e-03 1.37362641e-03 2.74725282e-03
      2.74725282e-03 0. 1.37362641e-03 0. 1.37362641e-03 4.12087934e-03
      2.74725282e-03 2.74725282e-03 1.37362641e-03 4.12087934e-03
      1.37362641e-03 1.64835174e-02 5.49450563e-03 0. 2.74725282e-03 0.
      1.37362641e-03 0. 0. 0. 0. 4.12087934e-03 1.37362641e-03
      4.12087934e-03 4.12087934e-03 0. 2.74725282e-03 2.74725282e-03 0.
      0. 1.37362641e-03 0. 6.86813192e-03 2.74725282e-03 6.86813192e-03
      4.12087934e-03 1.37362641e-03 2.74725282e-03 6.86813192e-03
      1.37362641e-03 4.12087934e-03 2.74725282e-03 0. 0. 0.
      4.12087934e-03 1.37362641e-03 0. 1.37362641e-03 5.49450563e-03 0.
      2.74725282e-03 2.74725282e-03 4.12087934e-03 2.74725282e-03
      5.49450563e-03 0. 0. 5.49450563e-03 0. 1.37362641e-03 0. 0. 0. 0.
      0. 1.37362641e-03 0. 2.74725282e-03 4.12087934e-03 1.37362641e-03
      0. 0. 8.24175868e-03 4.12087934e-03 1.37362641e-03 0.
      4.12087934e-03 4.12087934e-03 1.37362641e-03 4.12087934e-03
      1.37362638e-02 1.37362641e-03 1.37362641e-03 1.37362641e-03
      2.74725282e-03 1.37362641e-03 1.37362641e-03 0. 0. 0.
      2.74725282e-03 1.37362641e-03 4.12087934e-03 6.86813192e-03 0. 0.
      0. 1.37362641e-03 1.37362641e-03 2.74725282e-03 0. 0. 0. 0.
      2.74725282e-03 1.37362641e-03 5.49450563e-03 2.74725282e-03
      6.86813192e-03 0. 6.86813192e-03 1.37362641e-03 1.37362641e-03
      1.37362641e-03 1.37362641e-03 1.37362641e-03 1.37362641e-03
      4.12087934e-03 1.37362641e-03 0. 2.74725282e-03 0. 4.12087934e-03
      0. 0. 1.37362641e-03 2.74725282e-03 2.74725282e-03 0.
      2.74725282e-03 1.37362641e-03 8.24175868e-03 0. 5.49450563e-03
      4.12087934e-03 2.74725282e-03 1.37362641e-03 2.74725282e-03
      2.74725282e-03 1.37362641e-03 2.74725282e-03 4.12087934e-03
      2.74725282e-03 1.37362641e-03 1.37362641e-03 9.61538497e-03
      2.74725282e-03 0. 1.09890113e-02 6.86813192e-03 4.12087934e-03
      1.37362641e-03 0. 2.74725282e-03 5.49450563e-03 2.74725282e-03 0.
      0. 0. 0. 2.74725282e-03 2.74725282e-03 1.37362641e-03 0. 0. 0. 0.
      0. 0. 2.74725282e-03 0. 5.49450563e-03 0. 0. 0. 1.37362641e-03
      1.37362641e-03 0. 2.74725282e-03 1.37362641e-03 6.86813192e-03 0.
      2.74725282e-03 0. 2.74725282e-03 1.09890113e-02 0. 1.37362641e-03
      0. 4.12087934e-03 0. 0. 2.74725282e-03 1.37362641e-03
      2.74725282e-03 1.37362641e-03 0. 1.37362641e-03 0. 4.12087934e-03
      0. 0. 1.37362641e-03 2.74725282e-03 0. 0. 1.37362641e-03 0. 0. 0.
      0. 0. 5.49450563e-03 0. 1.37362641e-03 2.74725282e-03
      4.12087934e-03 0. 2.74725282e-03 4.12087934e-03 1.37362641e-03 0.
      0. 1.37362641e-03 1.37362641e-03 0. 0. 0. 1.37362641e-03
      2.74725282e-03 0. 0. 1.37362641e-03 0. 0. 0. 1.37362641e-03 0. 0.
      0. 1.37362641e-03 0. 0. 0. 2.74725282e-03 5.49450563e-03
      4.12087934e-03 0. 0. 0. 0. 2.74725282e-03 0. 1.37362641e-03
      1.37362641e-03 2.74725282e-03 0. 0. 6.86813192e-03 4.12087934e-03
      1.37362641e-03 0. 8.24175868e-03 1.37362641e-03 2.74725282e-03
      6.86813192e-03 6.86813192e-03 0. 4.12087934e-03 0. 2.74725282e-03
      6.86813192e-03 1.37362641e-03 0. 4.12087934e-03 2.74725282e-03 0.
      0. 0. 1.37362641e-03 2.74725282e-03 1.37362641e-03 2.74725282e-03
      4.12087934e-03 4.12087934e-03 0. 0. 1.37362641e-03 2.74725282e-03
      0. 2.74725282e-03</_>
    <_>
      1.99999986e-03 0. 2.57142866e-03 0. 8.57142848e-04 5.71428565e-04
      1.71428570e-03 5.71428565e-04 5.71428565e-04 1.42857141e-03
      5.71428565e-04 1.42857141e-03 0. 0. 7.71428552e-03 2.85714283e-04
      1.14285713e-03 4.57142852e-03 4.28571412e-03 1.14285713e-03
      3.42857139e-03 1.99999986e-03 4.57142852e-03 4.85714292e-03
      2.28571426e-03 2.85714283e-03 1.71428570e-03 1.42857141e-03
      2.57142866e-03 1.99999986e-03 1.71428570e-03 8.57142848e-04
      4.57142852e-03 1.99999986e-03 1.42857141e-03 1.71428570e-03
      2.85714283e-03 1.99999986e-03 3.42857139e-03 2.28571426e-03
      3.42857139e-03 1.99999986e-03 3.14285699e-03 2.57142866e-03
      3.71428579e-03 9.42857098e-03 5.71428565e-04 8.57142848e-04
      1.14285713e-03 2.85714283e-03 3.42857139e-03 5.71428565e-04
      2.85714283e-04 2.28571426e-03 1.14285713e-03 2.85714283e-04
      3.14285699e-03 3.14285699e-03 1.14285713e-03 2.85714283e-04
      1.14285713e-03 1.42857141e-03 2.28571426e-03 5.71428565e-04
      8.57142848e-04 1.71428570e-03 2.57142866e-03 2.85714283e-04
      2.57142866e-03 5.71428565e-04 2.57142866e-03 8.57142848e-04
      5.71428565e-04 1.14285713e-03 2.57142866e-03 1.99999986e-03
      5.42857125e-03 2.57142866e-03 3.42857139e-03 2.28571426e-03
      1.99999986e-03 2.85714283e-03 1.42857141e-03 1.71428570e-03
      2.85714283e-03 1.14285713e-03 3.14285699e-03 7.99999945e-03
      3.71428579e-03 1.14285713e-03 2.85714283e-04 2.28571426e-03
      2.85714283e-03 2.85714283e-03 5.42857125e-03 2.85714283e-03
      2.85714283e-04 1.99999986e-03 3.71428579e-03 4.28571412e-03
      2.57142866e-03 1.99999986e-03 3.71428579e-03 1.14285713e-03
      1.71428570e-03 3.42857139e-03 1.42857141e-03 2.28571426e-03
      1.42857141e-03 1.14285713e-03 8.57142848e-04 8.57142848e-04
      3.71428579e-03 1.14285713e-03 2.57142866e-03 1.42857141e-03 0. 0.
      2.85714283e-04 4.28571412e-03 2.57142866e-03 2.85714283e-03
      5.71428565e-04 3.14285699e-03 2.85714283e-04 4.28571412e-03
      5.71428565e-04 1.99999986e-03 1.42857141e-03 2.85714283e-03
      1.99999986e-03 1.42857141e-03 1.99999986e-03 1.99999986e-03
      1.71428570e-03 3.14285699e-03 3.99999972e-03 1.99999986e-03
      1.99999986e-03 2.57142866e-03 0. 1.71428570e-03 1.42857141e-03
      1.99999986e-03 1.99999986e-03 2.85714283e-04 8.85714311e-03
      5.71428565e-04 5.14285732e-03 2.28571426e-03 3.42857139e-03
      1.14285713e-03 1.71428570e-03 8.57142848e-04 5.71428565e-04
      1.99999986e-03 2.28571426e-03 3.42857139e-03 3.71428579e-03 0. 0.
      1.42857141e-03 8.57142848e-04 3.99999972e-03 8.57142848e-04
      2.57142866e-03 8.57142848e-04 3.71428579e-03 5.71428565e-03
      1.14285713e-03 5.71428565e-04 1.99999986e-03 2.28571426e-03
      4.57142852e-03 2.57142866e-03 2.28571426e-03 5.71428565e-04
      3.42857139e-03 2.85714283e-04 2.57142866e-03 1.71428570e-03
      3.14285699e-03 1.14285713e-03 1.14285713e-03 1.42857141e-03
      1.14285713e-03 1.71428570e-03 1.71428570e-03 1.71428570e-03
      1.14285713e-03 0. 1.71428570e-03 3.14285699e-03 3.99999972e-03
      8.57142848e-04 2.28571426e-03 1.71428570e-03 5.42857125e-03
      1.14285713e-03 1.71428570e-03 9.42857098e-03 1.42857141e-03
      1.42857141e-03 5.71428565e-04 1.14285713e-03 1.99999986e-03
      5.42857125e-03 1.42857141e-03 1.99999986e-03 1.42857141e-03
      5.71428565e-04 1.14285713e-03 1.14285713e-03 1.42857141e-03
      5.71428565e-04 2.28571426e-03 3.71428579e-03 2.57142866e-03
      1.71428570e-03 1.99999986e-03 2.85714283e-03 1.14285713e-03 0.
      1.71428570e-03 2.85714283e-04 2.57142866e-03 3.42857139e-03 0.
      2.85714283e-04 2.85714283e-04 2.85714283e-04 4.28571412e-03
      2.57142866e-03 1.14285713e-03 1.71428570e-03 2.85714283e-04
      2.85714283e-03 5.71428565e-04 0. 5.71428565e-04 1.71428570e-03
      2.28571426e-03 2.85714283e-03 5.14285732e-03 1.14285713e-03
      2.57142866e-03 1.71428570e-03 2.85714283e-03 4.28571412e-03
      6.00000005e-03 1.14285713e-03 2.28571426e-03 1.71428570e-03
      1.71428570e-03 2.85714283e-03 3.14285699e-03 1.14285713e-03
      1.42857141e-03 1.99999986e-03 5.71428565e-04 0. 3.14285699e-03
      1.42857141e-03 4.28571412e-03 1.14285713e-03 5.71428565e-04
      3.42857139e-03 1.99999986e-03 1.99999986e-03 2.57142866e-03
      1.42857141e-03 1.42857141e-03 3.14285699e-03 5.71428565e-04
      1.71428570e-03 1.99999986e-03 8.57142848e-04 2.57142866e-03
      1.42857141e-03 5.71428565e-04 1.71428570e-03 2.85714283e-03
      6.00000005e-03 4.85714292e-03 3.71428579e-03 4.85714292e-03
      5.71428565e-04 1.71428570e-03 1.71428570e-03 8.28571431e-03
      3.71428579e-03 5.71428565e-04 3.99999972e-03 2.85714283e-04
      3.42857139e-03 5.71428565e-04 1.99999986e-03 5.71428565e-04
      1.99999986e-03 8.57142848e-04 1.71428570e-03 1.14285713e-03
      5.71428565e-04 2.85714283e-04 1.71428570e-03 2.28571426e-03
      1.99999986e-03 5.71428565e-04 8.57142848e-04 8.57142848e-04
      2.85714283e-04 2.85714283e-04 2.85714283e-04 5.71428565e-04
      3.99999972e-03 5.42857125e-03 3.71428579e-03 1.14285713e-03
      8.57142848e-04 1.99999986e-03 2.28571426e-03 1.42857141e-03
      1.14285713e-03 5.71428565e-04 2.57142866e-03 1.42857141e-03
      3.71428579e-03 1.14285713e-03 6.28571399e-03 2.85714283e-04
      2.85714283e-03 1.71428570e-03 5.71428565e-04 3.42857139e-03
      3.14285699e-03 1.14285713e-03 2.85714283e-04 5.42857125e-03
      5.71428565e-04 3.71428579e-03 2.85714283e-04 3.14285699e-03
      1.99999986e-03 3.71428579e-03 5.71428565e-04 2.85714283e-04
      2.85714283e-03 5.71428565e-04 1.14285713e-03 5.71428565e-04
      8.57142848e-04 2.85714283e-03 2.85714283e-03 1.71428570e-03
      1.14285713e-03 2.57142866e-03 2.57142866e-03 3.42857139e-03
      5.71428565e-04 8.57142848e-04 5.71428565e-04 4.57142852e-03
      2.85714283e-04 1.14285713e-03 1.42857141e-03 0. 1.14285713e-03
      8.57142848e-04 2.85714283e-03 5.71428565e-03 1.71428570e-03
      2.85714283e-04 1.42857141e-03 5.71428565e-04 1.71428570e-03
      1.71428570e-03 8.57142848e-04 5.71428565e-04 0. 8.57142848e-04
      1.42857141e-03 2.85714283e-04 2.85714283e-04 5.71428565e-04
      1.99999986e-03 1.14285713e-03 2.57142866e-03 0. 1.99999986e-03
      2.57142866e-03 1.42857141e-03 1.71428570e-03 1.99999986e-03
      8.57142848e-04 1.99999986e-03 3.71428579e-03 1.42857141e-03
      1.42857141e-03 2.28571426e-03 2.85714283e-04 1.42857141e-03 0.
      3.14285699e-03 2.85714283e-03 1.14285713e-03 2.85714283e-03
      1.99999986e-03 8.57142848e-04 5.71428565e-04 3.14285699e-03
      1.71428570e-03 2.85714283e-03 3.99999972e-03 5.71428565e-04
      5.42857125e-03 3.14285699e-03 1.42857141e-03 3.14285699e-03
      8.57142848e-04 1.99999986e-03 0. 1.14285713e-03 3.42857139e-03
      2.28571426e-03 8.57142848e-04 3.42857139e-03 3.42857139e-03
      1.42857141e-03 2.85714283e-04 2.85714283e-04 4.28571412e-03
      5.14285732e-03 2.57142866e-03 1.71428570e-03 1.14285713e-03
      1.71428570e-03 0. 5.71428565e-04 5.71428565e-04 2.85714283e-04
      3.14285699e-03 1.14285713e-03 1.42857141e-03 1.71428570e-03
      5.71428565e-04 6.00000005e-03 1.71428570e-03 1.71428570e-03
      1.71428570e-03 4.85714292e-03 8.57142848e-04 8.57142848e-04
      2.28571426e-03 2.85714283e-03 4.28571412e-03 1.99999986e-03
      1.14285713e-03 2.85714283e-04 2.85714283e-04 1.14285713e-03
      3.71428579e-03 2.85714283e-04 1.71428570e-03 2.57142866e-03
      3.42857139e-03 1.14285713e-03 2.85714283e-04 8.57142848e-04
      1.14285713e-03 3.71428579e-03 5.71428565e-04 2.85714283e-03
      4.28571412e-03 1.99999986e-03 8.57142848e-04 2.57142866e-03
      1.42857141e-03 4.28571412e-03 2.85714283e-04 1.99999986e-03
      2.85714283e-04 0. 2.28571426e-03 1.99999986e-03 5.71428565e-04
      2.28571426e-03 5.71428565e-04 0. 3.14285699e-03 5.14285732e-03
      2.28571426e-03 2.85714283e-03 3.14285699e-03 2.85714283e-04
      1.14285713e-03 4.85714292e-03 2.57142866e-03 2.57142866e-03
      1.99999986e-03 4.85714292e-03</_>
    <_>
      0. 9.51474765e-04 1.52235962e-02 0. 0. 1.71265453e-02 0. 0. 0. 0.
      1.90294953e-03 0. 7.61179812e-03 1.90294953e-03 0. 2.85442430e-03
      9.51474765e-04 0. 1.90294953e-03 2.85442430e-03 0. 1.90294953e-03
      9.51474765e-04 2.85442430e-03 2.85442430e-03 9.51474765e-04 0.
      9.51474765e-04 0. 0. 7.61179812e-03 6.66032359e-03 0.
      3.80589906e-03 9.51474765e-04 9.51474765e-04 0. 9.51474765e-04
      9.51474765e-04 0. 7.61179812e-03 9.51474765e-04 9.51474765e-04
      1.90294953e-03 1.90294944e-02 0. 1.90294953e-03 5.70884859e-03
      2.85442430e-03 1.90294953e-03 9.51474765e-04 0. 0. 2.37868689e-02
      8.56327266e-03 1.04662227e-02 1.90294953e-03 0. 1.04662227e-02
      7.61179812e-03 5.70884859e-03 2.85442430e-03 0. 9.51474765e-04
      1.90294953e-03 9.51474765e-04 0. 1.33206472e-02 9.51474765e-04
      9.51474765e-04 0. 9.51474765e-04 8.56327266e-03 6.66032359e-03 0.
      0. 7.61179812e-03 9.51474765e-04 1.90294953e-03 0. 1.90294953e-03
      2.85442430e-03 7.61179812e-03 0. 0. 9.51474719e-03 0.
      9.51474765e-04 0. 4.75737359e-03 2.85442430e-03 0. 0. 0. 0. 0.
      4.75737359e-03 0. 9.51474765e-04 0. 0. 2.85442430e-03 0.
      2.85442430e-03 9.51474765e-04 0. 0. 3.80589906e-03 1.90294953e-03
      0. 0. 0. 2.85442430e-03 9.51474765e-04 9.51474765e-04
      1.90294953e-03 0. 9.51474765e-04 9.51474765e-04 1.90294953e-03
      4.75737359e-03 9.51474765e-04 1.90294953e-03 1.90294953e-03
      4.75737359e-03 0. 0. 0. 1.90294953e-03 0. 9.51474765e-04 0. 0. 0.
      9.51474765e-04 0. 0. 0. 9.51474765e-04 0. 1.04662227e-02
      9.51474765e-04 0. 0. 9.51474765e-04 9.51474765e-04 1.90294953e-03
      0. 0. 4.75737359e-03 6.66032359e-03 0. 0. 2.85442430e-03
      1.90294953e-03 9.51474765e-04 0. 0. 1.90294953e-03 1.90294953e-03
      0. 9.51474765e-04 0. 0. 0. 9.51474765e-04 4.75737359e-03 0.
      9.51474765e-04 9.51474765e-04 0. 6.66032359e-03 3.80589906e-03 0.
      0. 0. 0. 1.90294953e-03 9.51474765e-04 9.51474765e-04 0. 0.
      2.85442430e-03 0. 0. 0. 0. 0. 0. 9.51474765e-04 1.90294953e-03 0.
      0. 3.80589906e-03 0. 0. 9.51474765e-04 0. 1.52235962e-02
      9.51474765e-04 0. 9.51474765e-04 8.56327266e-03 2.85442430e-03 0.
      0. 9.51474765e-04 9.51474765e-04 0. 1.90294953e-03 1.90294953e-03
      9.51474765e-04 1.90294944e-02 0. 9.51474765e-04 0. 0. 0.
      2.85442430e-03 9.51474765e-04 0. 0. 9.51474765e-04 0. 0. 0. 0. 0.
      3.80589906e-03 5.70884859e-03 0. 9.51474765e-04 0. 0.
      9.51474765e-04 1.42721217e-02 0. 5.70884859e-03 1.61750708e-02
      1.90294953e-03 1.90294953e-03 9.51474765e-04 1.90294953e-03
      9.51474765e-04 9.51474765e-04 1.90294953e-03 9.51474765e-04 0. 0.
      0. 1.90294953e-03 0. 9.51474719e-03 0. 0. 0. 3.80589906e-03
      3.80589906e-03 0. 9.51474765e-04 9.51474765e-04 1.90294953e-03
      2.85442430e-03 9.51474765e-04 3.80589906e-03 9.51474765e-04 0. 0.
      1.90294953e-03 1.90294953e-03 0. 4.75737359e-03 9.51474765e-04
      1.14176972e-02 9.51474765e-04 9.51474765e-04 0. 0. 0. 0. 0. 0. 0.
      1.90294953e-03 0. 0. 1.90294953e-03 0. 0. 5.70884859e-03 0.
      9.51474765e-04 0. 9.51474765e-04 0. 0. 0. 9.51474765e-04 0.
      2.18839198e-02 0. 0. 1.90294953e-03 0. 0. 0. 0. 9.51474765e-04
      9.51474719e-03 0. 9.51474765e-04 1.90294953e-03 7.61179812e-03 0.
      6.66032359e-03 9.51474765e-04 0. 0. 9.51474765e-04 7.61179812e-03
      2.85442430e-03 9.51474765e-04 2.85442430e-03 0. 0. 9.51474765e-04
      0. 3.80589906e-03 9.51474765e-04 1.33206472e-02 2.85442430e-03
      3.80589906e-03 1.90294953e-03 0. 0. 3.80589906e-03 1.90294953e-03
      9.51474765e-04 9.51474765e-04 9.51474765e-04 9.51474765e-04
      9.51474765e-04 0. 0. 4.75737359e-03 9.51474765e-04 0. 0.
      9.51474765e-04 1.04662227e-02 9.51474765e-04 0. 0. 0.
      9.51474765e-04 0. 0. 9.51474765e-04 0. 2.85442430e-03 0.
      1.90294953e-03 1.71265453e-02 3.80589906e-03 2.85442430e-03
      9.51474765e-04 3.80589906e-03 2.85442430e-03 0. 0. 3.80589906e-03
      1.90294953e-03 2.47383434e-02 3.80589906e-03 0. 0. 0. 0.
      9.51474765e-04 1.90294953e-03 9.51474765e-04 4.75737359e-03
      9.51474765e-04 5.70884859e-03 1.90294953e-03 1.90294953e-03 0.
      5.70884859e-03 0. 0. 4.75737359e-03 0. 1.90294953e-03
      1.90294953e-03 0. 0. 0. 0. 9.51474765e-04 2.85442430e-03
      2.85442430e-03 0. 1.90294953e-03 9.51474765e-04 0. 9.51474765e-04
      2.85442430e-03 0. 2.85442430e-03 0. 0. 0. 1.90294953e-03
      1.04662227e-02 9.51474765e-04 9.51474765e-04 0. 9.51474765e-04
      9.51474765e-04 9.51474765e-04 9.51474765e-04 0. 0. 9.51474765e-04
      9.51474765e-04 0. 0. 3.80589906e-03 0. 9.51474765e-04 0.
      9.51474765e-04 0. 1.80780198e-02 2.85442430e-03 7.61179812e-03 0.
      2.85442430e-03 6.66032359e-03 1.90294953e-03 0. 1.90294953e-03 0.
      3.80589906e-03 1.80780198e-02 0. 1.90294953e-03 5.70884859e-03
      9.51474765e-04 0. 1.90294953e-03 3.80589906e-03 0. 0. 0. 0.
      6.66032359e-03 3.80589906e-03 9.51474765e-04 0. 0. 1.90294953e-03
      0. 9.51474765e-04 6.66032359e-03 9.51474765e-04 2.85442430e-03 0.
      0. 0. 4.75737359e-03 0. 9.51474765e-04 0. 9.51474765e-04
      2.85442430e-03 3.80589906e-03 0. 1.90294953e-03 2.85442430e-03 0.
      9.51474719e-03 9.51474765e-04 0. 1.90294953e-03 1.90294953e-03 0.
      8.56327266e-03 0. 9.51474765e-04 0. 0. 0. 1.90294953e-03
      9.51474765e-04 0. 0. 0. 9.51474765e-04 9.51474765e-04</_>
    <_>
      2.34558247e-03 0. 5.47302607e-03 3.90930427e-03 0. 7.03674741e-03
      7.81860843e-04 0. 1.56372169e-03 7.81860843e-04 0. 0.
      1.72009394e-02 7.81860843e-04 7.81860843e-04 2.34558247e-03
      7.81860843e-04 1.56372169e-03 3.12744337e-03 7.81860843e-04 0. 0.
      7.81860843e-04 3.12744337e-03 7.81860843e-04 7.81860843e-04
      7.81860843e-04 7.81860843e-04 0. 2.34558247e-03 1.56372169e-03
      1.48553560e-02 0. 7.81860854e-03 1.17279124e-02 7.81860843e-04 0.
      0. 0. 7.81860843e-04 9.38232988e-03 3.90930427e-03 7.81860843e-04
      7.81860843e-04 4.69116494e-03 2.34558247e-03 7.81860843e-04
      8.60046968e-03 4.69116494e-03 3.12744337e-03 3.12744337e-03 0.
      1.56372169e-03 7.03674741e-03 3.90930427e-03 2.34558247e-03
      1.56372169e-03 0. 4.69116494e-03 2.34558247e-03 9.38232988e-03 0.
      7.81860843e-04 1.56372169e-03 7.81860843e-04 0. 7.81860843e-04
      7.81860843e-04 4.69116494e-03 0. 0. 0. 3.12744337e-03
      1.56372169e-03 3.12744337e-03 7.81860843e-04 7.81860843e-04
      7.81860843e-04 0. 7.81860843e-04 4.69116494e-03 2.34558247e-03
      7.81860843e-04 0. 1.56372169e-03 1.56372169e-03 0. 7.81860854e-03
      7.81860843e-04 6.25488674e-03 0. 4.69116494e-03 3.12744337e-03
      7.81860843e-04 7.81860843e-04 0. 5.47302607e-03 0. 7.03674741e-03
      7.81860843e-04 7.81860843e-04 3.12744337e-03 0. 1.48553560e-02
      3.12744337e-03 1.56372169e-03 7.81860843e-04 7.81860843e-04
      7.81860843e-04 3.12744337e-03 0. 1.56372169e-03 3.12744337e-03
      5.47302607e-03 0. 0. 1.56372169e-03 1.56372169e-03 0.
      7.81860843e-04 0. 0. 1.56372169e-03 2.34558247e-03 7.81860843e-04
      2.34558247e-03 0. 7.81860843e-04 7.81860843e-04 5.47302607e-03 0.
      0. 3.90930427e-03 7.81860843e-04 1.56372169e-03 0. 2.34558247e-03
      7.81860843e-04 5.47302607e-03 1.56372169e-03 8.60046968e-03
      1.56372169e-03 2.34558247e-03 0. 7.81860843e-04 1.56372169e-03
      7.81860843e-04 5.47302607e-03 7.81860843e-04 3.12744337e-03
      3.12744337e-03 1.56372169e-03 3.90930427e-03 0. 0. 5.47302607e-03
      3.12744337e-03 3.12744337e-03 7.81860843e-04 1.01641910e-02
      6.25488674e-03 2.34558247e-03 0. 3.12744337e-03 1.56372169e-03
      1.56372169e-03 2.34558247e-03 0. 1.56372169e-03 7.81860843e-04
      7.81860843e-04 2.34558247e-03 7.81860854e-03 3.90930427e-03
      7.81860843e-04 1.56372169e-03 7.81860843e-04 0. 0. 0.
      2.34558247e-03 7.81860843e-04 0. 3.12744337e-03 2.34558247e-03
      2.34558247e-03 3.12744337e-03 0. 3.12744337e-03 3.12744337e-03 0.
      0. 2.34558247e-03 7.81860843e-04 4.69116494e-03 1.56372169e-03
      1.56372169e-03 0. 7.81860843e-04 1.56372169e-03 7.81860843e-04
      7.81860843e-04 7.81860843e-04 9.38232988e-03 7.81860843e-04 0.
      1.56372169e-03 1.56372169e-03 0. 7.81860843e-04 7.81860843e-04
      3.90930427e-03 3.90930427e-03 0. 3.90930427e-03 3.90930427e-03
      1.56372169e-03 7.81860843e-04 7.81860843e-04 6.25488674e-03
      7.81860843e-04 0. 0. 0. 7.81860843e-04 4.69116494e-03
      7.81860843e-04 0. 1.25097735e-02 3.90930427e-03 2.34558247e-03
      2.34558247e-03 0. 7.03674741e-03 0. 8.60046968e-03 3.12744337e-03
      4.69116494e-03 2.34558247e-03 0. 1.56372169e-03 7.81860843e-04
      7.81860843e-04 3.90930427e-03 3.12744337e-03 3.12744337e-03 0.
      7.81860843e-04 2.34558247e-03 7.81860843e-04 3.12744337e-03
      1.56372169e-03 5.47302607e-03 7.81860843e-04 0. 0. 1.56372169e-03
      3.12744337e-03 0. 3.12744337e-03 1.56372169e-03 1.56372169e-03
      5.47302607e-03 1.56372169e-03 0. 0. 1.56372169e-03 7.81860843e-04
      7.81860843e-04 0. 7.81860843e-04 0. 3.90930427e-03 8.60046968e-03
      0. 1.56372169e-03 4.69116494e-03 0. 1.56372169e-03 7.81860843e-04
      7.81860843e-04 3.12744337e-03 2.34558247e-03 7.81860843e-04
      7.81860843e-04 7.81860843e-04 0. 0. 7.81860843e-04 2.34558247e-03
      0. 1.56372169e-03 3.12744337e-03 0. 7.81860843e-04 7.81860843e-04
      1.56372169e-03 1.56372169e-03 3.90930427e-03 4.69116494e-03 0.
      3.12744337e-03 3.12744337e-03 7.81860843e-04 0. 0. 7.81860843e-04
      2.34558247e-03 1.56372169e-03 3.12744337e-03 1.56372169e-03
      7.81860843e-04 7.81860843e-04 7.81860843e-04 6.25488674e-03
      1.56372169e-03 1.56372169e-03 3.90930427e-03 4.69116494e-03
      3.12744337e-03 7.81860843e-04 1.56372169e-03 3.12744337e-03
      7.81860843e-04 0. 3.12744337e-03 7.81860843e-04 4.69116494e-03
      7.81860843e-04 1.56372169e-03 7.81860843e-04 3.12744337e-03
      2.34558247e-03 0. 7.81860843e-04 4.69116494e-03 7.81860843e-04
      7.81860843e-04 1.56372169e-03 1.56372169e-03 2.34558247e-03 0.
      7.81860843e-04 3.90930427e-03 7.81860854e-03 0. 7.81860843e-04
      3.12744337e-03 4.69116494e-03 7.03674741e-03 4.69116494e-03
      3.12744337e-03 7.81860843e-04 0. 7.81860843e-04 7.81860843e-04 0.
      1.56372169e-03 2.34558247e-03 1.56372169e-03 7.81860843e-04 0.
      2.34558247e-03 1.56372169e-03 3.12744337e-03 7.81860843e-04 0.
      4.69116494e-03 1.56372169e-03 0. 7.81860843e-04 0. 3.12744337e-03
      4.69116494e-03 0. 2.34558247e-03 2.34558247e-03 2.34558247e-03
      3.90930427e-03 7.81860843e-04 0. 7.81860854e-03 7.81860843e-04
      3.12744337e-03 1.56372169e-03 0. 0. 8.60046968e-03 1.32916346e-02
      1.56372169e-03 0. 7.81860843e-04 0. 0. 0. 0. 2.34558247e-03
      3.90930427e-03 3.12744337e-03 1.56372169e-03 7.81860843e-04
      7.81860843e-04 1.56372169e-03 0. 7.81860843e-04 7.81860843e-04
      2.34558247e-03 0. 2.34558247e-03 7.81860843e-04 3.12744337e-03
      7.81860843e-04 2.34558247e-03 3.12744337e-03 0. 0. 0.
      5.47302607e-03 7.81860843e-04 0. 7.81860843e-04 0. 1.56372169e-03
      1.56372169e-03 7.81860843e-04 1.56372169e-03 7.81860843e-04
      3.12744337e-03 7.81860843e-04 1.56372169e-03 0. 1.56372169e-03 0.
      7.81860843e-04 3.12744337e-03 3.12744337e-03 7.81860843e-04
      2.34558247e-03 6.25488674e-03 1.56372169e-03 7.81860843e-04
      2.34558247e-03 3.90930427e-03 4.69116494e-03 1.56372169e-03
      7.81860843e-04 1.56372169e-03 7.81860843e-04 1.56372169e-03 0.
      2.34558247e-03 7.81860843e-04 2.34558247e-03 6.25488674e-03
      1.56372169e-03 4.69116494e-03 2.34558247e-03 3.12744337e-03
      1.56372169e-03 3.12744337e-03 0. 0. 0. 0. 7.81860854e-03
      7.81860843e-04 2.34558247e-03 7.81860843e-04 1.56372169e-03 0.
      1.56372169e-03 3.90930427e-03 2.34558247e-03 7.81860843e-04
      2.34558247e-03 0. 3.90930427e-03 7.81860843e-04 3.90930427e-03
      2.34558247e-03 7.81860843e-04 0. 0. 0. 4.69116494e-03
      1.56372169e-03 1.56372169e-03 7.81860843e-04 0. 3.12744337e-03
      7.81860843e-04 1.56372169e-03 0. 1.56372169e-03 7.81860843e-04 0.
      0. 2.34558247e-03 0. 0.</_>
    <_>
      9.56632663e-04 0. 7.97193870e-03 9.56632663e-04 2.86989799e-03
      1.59438769e-03 1.27551018e-03 0. 9.56632663e-04 3.18877544e-04
      1.27551018e-03 6.37755089e-04 1.08418362e-02 3.18877539e-03
      2.55102036e-03 3.18877544e-04 2.55102036e-03 1.27551018e-03
      3.18877539e-03 1.59438769e-03 1.27551018e-03 3.18877544e-04
      1.27551018e-03 3.18877544e-04 2.23214272e-03 2.55102036e-03
      3.18877544e-04 9.56632663e-04 6.37755089e-04 6.37755089e-04
      2.86989799e-03 9.56632663e-04 9.56632663e-04 0. 1.27551018e-03
      3.50765302e-03 2.23214272e-03 9.56632663e-04 6.37755089e-04
      6.37755089e-04 2.55102036e-03 3.18877539e-03 1.59438769e-03
      6.37755089e-04 6.05867337e-03 1.91326533e-03 1.91326533e-03
      4.14540805e-03 2.23214272e-03 1.91326533e-03 1.27551018e-03
      9.56632663e-04 3.50765302e-03 1.27551018e-03 3.18877539e-03
      1.59438769e-03 2.55102036e-03 2.86989799e-03 6.37755089e-04
      6.37755089e-04 5.10204071e-03 3.18877544e-04 1.59438769e-03
      2.86989799e-03 1.59438769e-03 3.06122452e-02 0. 9.56632663e-04
      1.91326533e-03 0. 9.56632663e-04 1.43494895e-02 2.23214272e-03
      2.23214272e-03 6.37755089e-04 7.97193870e-03 1.91326533e-03
      3.18877544e-04 4.14540805e-03 3.18877539e-03 1.91326533e-03
      6.37755089e-04 2.23214272e-03 3.18877544e-04 9.56632663e-04
      6.37755089e-04 0. 9.56632663e-04 6.37755089e-04 2.23214272e-03
      2.23214272e-03 1.91326533e-03 1.27551018e-03 2.23214272e-03
      1.27551018e-03 1.27551018e-03 1.59438769e-03 9.56632663e-04
      1.27551018e-03 6.37755089e-04 6.37755089e-04 2.55102036e-03
      3.18877544e-04 3.18877539e-03 1.59438769e-03 1.91326533e-03
      6.37755089e-04 8.92857090e-03 2.23214272e-03 6.05867337e-03
      6.37755089e-04 3.18877544e-04 4.14540805e-03 9.56632663e-04
      3.18877544e-04 6.05867337e-03 1.91326533e-03 1.27551018e-03
      6.37755089e-04 1.59438769e-03 4.46428545e-03 1.27551018e-03
      1.27551018e-03 0. 0. 3.18877539e-03 2.86989799e-03 9.56632663e-04
      1.27551018e-03 1.91326533e-03 3.18877544e-04 1.59438769e-03
      3.18877544e-04 1.59438769e-03 9.56632663e-04 2.55102036e-03
      1.59438769e-03 1.27551018e-03 0. 1.59438769e-03 2.20025498e-02
      1.91326533e-03 6.37755089e-04 2.23214272e-03 3.18877544e-04
      3.18877544e-04 9.56632663e-04 1.02040814e-02 2.23214272e-03
      5.42091811e-03 2.55102036e-03 1.27551018e-03 6.37755089e-04
      4.46428545e-03 3.18877539e-03 3.18877539e-03 6.37755089e-04
      6.37755089e-04 1.59438769e-03 7.33418344e-03 2.86989799e-03
      1.91326533e-03 3.18877544e-04 1.91326533e-03 2.23214272e-03
      9.56632663e-04 3.50765302e-03 9.56632663e-04 1.27551018e-03
      3.18877544e-04 1.27551018e-03 3.18877544e-04 1.59438769e-03
      2.55102036e-03 1.27551018e-03 2.55102036e-03 6.37755089e-04
      4.14540805e-03 1.91326533e-03 6.37755089e-04 6.37755089e-04
      1.27551018e-03 1.27551018e-03 1.91326533e-03 6.37755089e-04
      3.18877544e-04 1.59438769e-03 4.14540805e-03 0. 5.42091811e-03
      1.91326533e-03 0. 9.56632663e-04 4.78316331e-03 1.27551018e-03
      3.18877544e-04 2.86989799e-03 4.46428545e-03 3.18877544e-04
      3.18877544e-04 2.55102036e-03 1.27551018e-03 9.56632663e-04
      7.97193870e-03 6.37755089e-04 3.18877544e-04 2.23214272e-03
      3.18877544e-04 6.37755089e-04 1.59438769e-03 3.18877544e-04 0.
      1.59438769e-03 5.10204071e-03 9.56632663e-04 2.55102036e-03
      5.10204071e-03 6.37755089e-04 4.78316331e-03 1.91326533e-03
      1.59438769e-03 2.55102036e-03 1.59438769e-03 2.86989799e-03
      3.18877544e-04 1.91326533e-03 1.91326533e-03 3.18877544e-04 0.
      1.91326533e-03 3.18877539e-03 3.18877544e-04 9.56632663e-04
      1.27551018e-03 1.27551018e-03 6.69642864e-03 2.86989799e-03
      1.59438769e-03 1.59438769e-03 6.37755089e-04 6.69642864e-03
      1.59438769e-03 9.56632663e-04 9.56632663e-04 9.56632663e-04
      1.27551018e-03 1.27551018e-03 1.91326533e-03 0. 3.18877539e-03
      5.10204071e-03 3.50765302e-03 1.91326533e-03 1.59438769e-03
      1.27551018e-03 9.56632663e-04 9.56632663e-04 9.56632663e-04 0.
      9.56632663e-04 3.50765302e-03 3.18877539e-03 2.04081628e-02
      6.69642864e-03 3.18877539e-03 9.56632663e-04 1.27551018e-03
      3.18877544e-04 1.27551018e-03 6.37755089e-04 0. 9.56632663e-04
      2.23214272e-03 2.23214272e-03 2.55102036e-03 9.56632663e-04
      3.18877544e-04 1.27551018e-03 0. 3.18877539e-03 1.27551018e-03
      6.37755089e-04 1.27551018e-03 5.42091811e-03 3.18877544e-04
      1.27551018e-03 6.37755089e-04 3.50765302e-03 6.37755089e-04
      6.37755089e-04 9.56632663e-04 9.56632663e-04 1.59438769e-03
      3.18877544e-04 6.37755089e-04 4.46428545e-03 9.56632663e-04
      1.59438769e-03 0. 1.27551018e-03 3.18877544e-04 6.37755089e-04
      3.82653065e-03 1.59438774e-02 6.37755089e-04 3.18877544e-04
      1.91326533e-03 2.55102036e-03 9.56632663e-04 1.59438769e-03
      3.18877544e-04 3.18877539e-03 4.14540805e-03 1.59438769e-03
      3.82653065e-03 2.86989799e-03 3.50765302e-03 6.37755089e-04
      3.18877544e-04 1.27551018e-03 1.91326533e-03 9.56632663e-04
      2.23214272e-03 6.37755089e-04 1.27551018e-03 0. 9.56632663e-04
      1.59438769e-03 1.27551018e-03 9.56632663e-04 2.23214272e-03
      1.59438769e-03 9.24744923e-03 6.37755089e-04 9.56632663e-04
      7.33418344e-03 5.42091811e-03 3.18877544e-04 6.37755089e-04
      2.23214272e-03 1.27551018e-03 0. 3.18877539e-03 2.23214272e-03
      6.37755089e-04 9.56632663e-04 3.18877544e-04 9.56632663e-04
      1.91326533e-03 3.50765302e-03 1.59438769e-03 1.59438769e-03 0.
      3.18877544e-04 6.37755089e-04 6.37755089e-04 9.56632663e-04
      1.91326533e-03 1.27551018e-03 9.56632663e-04 3.18877544e-04
      3.82653065e-03 3.18877539e-03 0. 1.27551018e-03 3.18877539e-03
      1.27551018e-03 6.37755089e-04 2.55102036e-03 2.23214272e-03
      1.27551018e-03 1.91326533e-03 6.37755089e-04 5.73979598e-03
      6.37755089e-04 1.27551018e-03 3.18877544e-04 1.91326533e-03
      2.23214272e-03 3.18877544e-04 6.37755089e-04 2.86989799e-03
      6.37755089e-04 1.59438769e-03 1.27551018e-03 5.10204071e-03
      1.91326533e-03 2.86989799e-03 3.50765302e-03 0. 3.50765302e-03
      9.56632663e-04 0. 3.82653065e-03 9.56632663e-04 1.27551018e-03
      1.27551018e-03 2.86989799e-03 2.86989799e-03 9.56632663e-04
      3.18877544e-04 2.86989799e-03 2.55102036e-03 2.23214272e-03
      6.37755089e-04 2.23214272e-03 1.59438769e-03 2.55102036e-03
      1.27551018e-03 1.27551018e-03 3.18877539e-03 1.27551018e-03
      9.56632663e-04 3.18877544e-04 6.05867337e-03 4.14540805e-03
      1.59438769e-03 1.27551018e-03 6.37755089e-04 1.27551018e-03
      3.18877539e-03 0. 1.27551018e-03 3.82653065e-03 1.27551018e-03
      4.14540805e-03 2.23214272e-03 1.59438769e-03 3.18877544e-04
      3.18877539e-03 6.37755089e-04 9.56632663e-04 3.18877544e-04
      6.37755089e-04 4.46428545e-03 1.27551018e-03 6.37755089e-04
      2.23214272e-03 9.56632663e-04 3.50765302e-03 3.18877544e-04
      1.91326533e-03 3.82653065e-03 9.56632663e-04 9.56632663e-04
      3.50765302e-03 6.37755089e-04 6.37755089e-04 9.56632663e-04
      5.10204071e-03 1.91326533e-03 9.56632663e-04 6.37755089e-04
      3.50765302e-03 6.37755089e-04 1.27551018e-03 6.37755089e-04
      1.27551018e-03 4.46428545e-03 0. 1.27551018e-03 6.37755089e-04 0.
      1.91326533e-03 3.82653065e-03 1.14795920e-02 3.18877544e-04
      6.37755089e-04 3.18877544e-04 1.91326533e-03 1.91326533e-03
      6.37755089e-04 2.86989799e-03 0. 2.23214272e-03 5.10204071e-03
      2.23214272e-03 1.27551018e-03 2.23214272e-03 3.18877544e-04
      6.37755089e-04 2.55102036e-03 1.59438769e-03 9.56632663e-04
      3.18877544e-04 1.27551018e-03 3.18877539e-03 6.37755089e-04
      6.37755089e-04 3.50765302e-03 0. 9.56632663e-04 3.18877544e-04
      1.27551018e-03 3.18877544e-04 1.91326533e-03 3.18877544e-04 0.
      4.46428545e-03 1.27551018e-03</_>
    <_>
      0. 0. 4.19287197e-03 0. 0. 4.19287197e-03 0. 0. 4.19287197e-03
      2.09643599e-03 0. 0. 4.19287197e-03 0. 0. 0. 0. 0. 0.
      2.09643599e-03 0. 8.38574395e-03 0. 0. 2.09643599e-03 0. 0. 0. 0.
      0. 0. 0. 0. 1.04821799e-02 1.25786159e-02 4.19287197e-03
      4.19287197e-03 0. 0. 2.09643599e-03 0. 0. 0. 6.28930796e-03
      6.28930796e-03 0. 0. 1.04821799e-02 0. 0. 0. 2.09643599e-03 0. 0.
      2.09643599e-03 0. 0. 2.09643599e-03 0. 2.09643599e-03
      8.38574395e-03 0. 0. 2.09643599e-03 0. 4.19287197e-03
      2.09643599e-03 0. 0. 0. 0. 0. 0. 4.19287197e-03 2.09643599e-03
      2.09643599e-03 0. 2.09643599e-03 0. 0. 2.09643599e-03 0. 0. 0. 0.
      0. 2.09643599e-03 0. 4.19287197e-03 0. 0. 6.28930796e-03
      2.09643599e-03 2.09643599e-03 2.09643599e-03 0. 0. 4.19287197e-03
      1.04821799e-02 2.09643599e-03 2.09643599e-03 0. 2.09643599e-03
      3.14465389e-02 2.09643599e-03 0. 0. 6.28930796e-03 0. 0. 0.
      8.38574395e-03 2.09643599e-03 1.04821799e-02 0. 0. 4.19287197e-03
      0. 0. 0. 0. 0. 4.19287197e-03 4.19287197e-03 0. 0. 8.38574395e-03
      0. 2.09643599e-03 0. 0. 0. 0. 6.28930796e-03 2.09643599e-03 0. 0.
      0. 4.19287197e-03 0. 4.19287197e-03 0. 2.09643599e-03 0. 0. 0.
      2.09643599e-03 6.28930796e-03 0. 0. 4.19287197e-03 0.
      1.25786159e-02 2.09643599e-03 0. 2.09643599e-03 4.19287197e-03 0.
      0. 2.09643599e-03 2.09643599e-03 0. 2.09643599e-03 0.
      2.09643599e-03 0. 0. 2.09643599e-03 4.19287197e-03 0. 0.
      2.09643599e-03 2.09643599e-03 0. 2.09643599e-03 4.19287197e-03 0.
      0. 0. 0. 0. 0. 0. 0. 0. 0. 0. 2.09643599e-03 2.09643599e-03
      1.04821799e-02 0. 0. 2.09643599e-03 0. 0. 0. 2.09643599e-03 0. 0.
      4.19287197e-03 0. 0. 0. 1.04821799e-02 0. 0. 0. 2.09643599e-03 0.
      2.09643599e-03 0. 0. 0. 0. 0. 0. 0. 2.09643599e-03 0.
      8.38574395e-03 0. 0. 0. 0. 0. 0. 0. 0. 0. 4.19287197e-03 0.
      6.28930796e-03 0. 4.19287197e-03 0. 0. 0. 2.09643599e-03 0. 0. 0.
      0. 2.09643599e-03 0. 0. 0. 0. 0. 2.09643599e-03 2.09643599e-03 0.
      0. 6.28930796e-03 4.19287197e-03 2.09643599e-03 0. 0. 0.
      2.09643599e-03 0. 0. 0. 1.67714879e-02 2.09643599e-03 0.
      2.09643599e-03 2.09643599e-03 2.09643599e-03 4.19287197e-03
      4.19287197e-03 0. 0. 0. 2.09643599e-03 0. 4.19287197e-03
      1.04821799e-02 0. 4.19287197e-03 0. 4.19287197e-03 1.25786159e-02
      0. 0. 0. 0. 0. 2.09643599e-03 2.09643599e-03 0. 8.38574395e-03 0.
      2.09643599e-03 2.09643599e-03 0. 0. 2.09643599e-03 0.
      8.38574395e-03 0. 0. 0. 4.19287197e-03 1.04821799e-02 0.
      4.19287197e-03 2.09643599e-03 2.09643599e-03 0. 0. 0.
      2.09643599e-03 2.09643599e-03 4.19287197e-03 2.09643599e-03
      6.28930796e-03 2.09643599e-03 2.09643599e-03 2.09643599e-03 0.
      2.09643599e-03 0. 0. 0. 0. 0. 0. 0. 2.09643599e-03 2.09643599e-03
      0. 6.28930796e-03 4.19287197e-03 0. 0. 2.72536688e-02
      2.09643599e-03 0. 0. 6.28930796e-03 1.04821799e-02 0.
      2.09643599e-03 0. 0. 2.09643599e-03 0. 2.09643599e-03
      1.04821799e-02 0. 6.28930796e-03 1.04821799e-02 2.09643599e-03 0.
      2.09643599e-03 2.09643599e-03 0. 2.09643599e-03 2.09643599e-03 0.
      2.09643599e-03 0. 4.19287197e-03 0. 2.09643599e-03 0.
      2.09643599e-03 8.38574395e-03 6.28930796e-03 0. 0. 0. 0.
      2.09643599e-03 0. 0. 2.09643599e-03 1.67714879e-02 0. 0.
      6.28930796e-03 0. 0. 0. 0. 0. 0. 1.67714879e-02 2.09643599e-03 0.
      0. 0. 0. 1.04821799e-02 2.09643599e-03 0. 0. 0. 0. 2.09643599e-03
      2.09643599e-03 1.46750519e-02 0. 2.09643599e-03 0. 0. 0. 0.
      8.38574395e-03 0. 0. 2.09643599e-03 0. 0. 0. 0. 0. 0.
      4.19287197e-03 2.09643599e-03 1.04821799e-02 0. 0. 2.09643599e-03
      2.09643599e-03 0. 2.09643599e-03 0. 4.19287197e-03 4.19287197e-03
      2.09643599e-03 6.28930796e-03 2.09643599e-03 8.38574395e-03 0. 0.
      4.19287197e-03 0. 4.19287197e-03 2.09643599e-03 2.09643599e-03 0.
      0. 4.19287197e-02 6.28930796e-03 0. 0. 0. 0. 2.09643599e-03 0. 0.
      2.09643599e-03 0. 6.28930796e-03 6.28930796e-03 0. 0. 0. 0. 0. 0.
      1.04821799e-02 0. 6.28930796e-03 0. 0. 4.19287197e-03
      2.09643599e-03 0. 4.19287197e-03 2.09643599e-03 0. 2.09643599e-03
      2.09643599e-03 4.19287197e-03 1.46750519e-02 2.09643599e-03
      1.25786159e-02 0. 0. 0. 0. 0. 0. 2.09643599e-03 0. 4.19287197e-03
      0. 4.19287197e-03 0. 4.19287197e-03 2.09643599e-03 0.
      6.28930796e-03 0. 0. 0. 2.09643599e-03 0.</_>
    <_>
      1.94363459e-03 0. 1.94363459e-03 9.71817295e-04 0. 5.83090354e-03
      2.91545177e-03 2.91545177e-03 0. 9.71817295e-04 3.88726918e-03
      9.71817295e-04 1.94363459e-03 9.71817295e-04 1.94363459e-03
      2.91545177e-03 3.88726918e-03 0. 0. 0. 9.71817295e-04 0.
      3.88726918e-03 2.91545177e-03 6.80272095e-03 2.91545177e-03
      9.71817295e-04 0. 0. 1.94363459e-03 2.91545177e-03 2.91545177e-03
      0. 9.71817295e-04 3.88726918e-03 1.94363459e-03 0. 9.71817295e-04
      0. 3.88726918e-03 9.71817295e-04 9.71817295e-04 5.83090354e-03 0.
      9.71817295e-04 3.88726918e-03 2.91545177e-03 2.91545177e-03
      4.85908659e-03 4.85908659e-03 2.91545177e-03 9.71817295e-04 0.
      5.83090354e-03 0. 4.85908659e-03 9.71817295e-04 2.91545177e-03
      4.85908659e-03 8.74635577e-03 4.85908659e-03 9.71817295e-04
      1.94363459e-03 3.88726918e-03 1.94363459e-03 9.71817295e-04 0.
      6.80272095e-03 1.94363459e-03 1.94363459e-03 0. 0. 1.94363459e-03
      0. 0. 6.80272095e-03 0. 0. 8.74635577e-03 1.94363459e-03
      1.94363459e-03 1.94363459e-03 2.91545177e-03 9.71817295e-04
      1.94363459e-03 1.94363459e-03 0. 9.71817318e-03 0. 9.71817318e-03
      9.71817295e-04 0. 1.94363459e-03 1.94363459e-03 0. 9.71817295e-04
      2.91545177e-03 9.71817295e-04 3.88726918e-03 9.71817295e-04 0.
      4.85908659e-03 0. 3.88726918e-03 2.91545177e-03 9.71817295e-04
      9.71817295e-04 9.71817295e-04 7.77453836e-03 4.85908659e-03 0. 0.
      1.16618071e-02 4.85908659e-03 7.77453836e-03 2.91545177e-03 0. 0.
      9.71817295e-04 1.94363459e-03 9.71817295e-04 3.88726918e-03
      9.71817295e-04 0. 9.71817295e-04 1.94363459e-03 0. 0.
      9.71817295e-04 1.94363459e-03 9.71817295e-04 0. 9.71817295e-04
      9.71817295e-04 1.94363459e-03 9.71817295e-04 9.71817295e-04
      2.91545177e-03 5.83090354e-03 2.91545177e-03 1.55490767e-02 0. 0.
      9.71817295e-04 0. 9.71817295e-04 9.71817295e-04 4.85908659e-03 0.
      3.88726918e-03 1.94363459e-03 0. 0. 6.80272095e-03 9.71817295e-04
      4.85908659e-03 9.71817295e-04 9.71817295e-04 0. 0. 9.71817295e-04
      3.88726918e-03 0. 0. 4.85908659e-03 9.71817295e-04 0. 0.
      1.94363459e-03 1.94363459e-03 0. 6.80272095e-03 0. 4.85908659e-03
      9.71817295e-04 9.71817295e-04 0. 2.91545177e-03 0. 0.
      3.88726918e-03 1.94363459e-03 9.71817295e-04 9.71817295e-04
      9.71817295e-04 0. 9.71817295e-04 0. 0. 2.91545177e-03
      9.71817295e-04 0. 1.94363459e-03 2.91545177e-03 1.94363459e-03
      1.94363459e-03 0. 0. 0. 0. 9.71817295e-04 9.71817295e-04
      5.83090354e-03 3.88726918e-03 4.85908659e-03 9.71817295e-04 0.
      2.91545177e-03 0. 1.94363459e-03 9.71817295e-04 7.77453836e-03
      1.94363464e-02 0. 0. 1.94363459e-03 8.74635577e-03 0. 0.
      2.91545177e-03 0. 0. 1.94363459e-03 0. 0. 3.88726918e-03 0.
      1.94363459e-03 9.71817295e-04 2.91545177e-03 0. 9.71817295e-04
      1.94363459e-03 4.85908659e-03 3.88726918e-03 1.94363459e-03 0.
      9.71817295e-04 1.26336245e-02 0. 5.83090354e-03 0. 9.71817295e-04
      1.94363459e-03 0. 2.91545177e-03 9.71817295e-04 9.71817295e-04
      1.94363459e-03 7.77453836e-03 1.26336245e-02 9.71817295e-04
      1.94363459e-03 0. 0. 9.71817295e-04 0. 5.83090354e-03 0.
      9.71817295e-04 0. 1.94363459e-03 2.91545177e-03 2.91545177e-03
      2.91545177e-03 0. 3.88726918e-03 0. 0. 1.94363459e-03
      9.71817295e-04 2.91545177e-03 2.91545177e-03 6.80272095e-03
      1.94363459e-03 0. 1.94363459e-03 0. 0. 9.71817295e-04 0.
      3.88726918e-03 0. 0. 9.71817295e-04 0. 0. 2.91545177e-03
      1.94363459e-03 1.16618071e-02 0. 9.71817295e-04 9.71817295e-04 0.
      5.83090354e-03 1.94363459e-03 6.80272095e-03 1.94363459e-03 0.
      1.84645280e-02 0. 4.85908659e-03 9.71817295e-04 0. 6.80272095e-03
      0. 1.94363459e-03 2.91545177e-03 9.71817295e-04 0. 4.85908659e-03
      0. 9.71817295e-04 0. 9.71817295e-04 1.94363459e-03 2.91545177e-03
      1.94363459e-03 0. 3.88726918e-03 0. 0. 1.94363459e-03 0.
      2.91545177e-03 0. 0. 1.26336245e-02 9.71817295e-04 9.71817295e-04
      0. 2.91545177e-03 2.91545177e-03 1.94363459e-03 0. 2.91545177e-03
      1.94363459e-03 0. 0. 0. 1.94363459e-03 9.71817295e-04 0. 0.
      2.91545177e-03 1.94363459e-03 2.91545177e-03 0. 1.94363459e-03
      3.88726918e-03 9.71817295e-04 6.80272095e-03 9.71817295e-04 0.
      9.71817295e-04 0. 9.71817295e-04 5.83090354e-03 0. 9.71817295e-04
      9.71817295e-04 9.71817295e-04 2.91545177e-03 3.88726918e-03
      9.71817295e-04 9.71817295e-04 0. 4.85908659e-03 3.88726918e-03
      1.94363459e-03 2.91545177e-03 9.71817295e-04 4.85908659e-03
      7.77453836e-03 0. 1.94363459e-03 0. 1.94363459e-03 0. 0. 0. 0.
      9.71817295e-04 1.94363459e-03 2.91545177e-03 1.94363459e-03 0.
      9.71817318e-03 1.06899906e-02 0. 1.94363459e-03 0. 0.
      9.71817295e-04 0. 0. 0. 0. 2.91545177e-03 0. 0. 9.71817295e-04
      9.71817295e-04 0. 0. 3.88726918e-03 9.71817295e-04 2.91545177e-03
      0. 0. 9.71817295e-04 3.88726918e-03 2.91545177e-03 0.
      9.71817295e-04 9.71817295e-04 9.71817295e-04 3.88726918e-03
      2.91545177e-03 0. 4.85908659e-03 9.71817295e-04 0. 3.88726918e-03
      9.71817295e-04 1.94363459e-03 0. 2.91545177e-03 9.71817295e-04 0.
      9.71817295e-04 1.94363459e-03 0. 2.91545177e-03 4.85908659e-03
      4.85908659e-03 0. 0. 9.71817295e-04 9.71817295e-04 1.94363459e-03
      9.71817295e-04 9.71817295e-04 4.85908659e-03 0. 1.94363459e-03 0.
      0. 0. 9.71817295e-04 5.83090354e-03 8.74635577e-03 0. 0.
      9.71817295e-04 9.71817295e-04 1.94363459e-03 9.71817295e-04
      9.71817295e-04 5.83090354e-03 0. 9.71817295e-04 0. 0.
      2.91545177e-03 7.77453836e-03 2.91545177e-03 6.80272095e-03 0.
      9.71817295e-04 3.88726918e-03 0. 2.91545177e-03 0. 9.71817295e-04
      5.83090354e-03 7.77453836e-03 9.71817295e-04 4.85908659e-03
      1.94363459e-03 0. 0. 0. 0. 2.91545177e-03 2.91545177e-03
      2.91545177e-03 9.71817295e-04 0. 3.88726918e-03 0. 0. 0.
      9.71817295e-04 9.71817295e-04 0. 9.71817295e-04 0. 4.85908659e-03
      0.</_>
    <_>
      0. 0. 0. 1.00908172e-03 0. 2.01816345e-03 2.01816345e-03
      5.04540838e-03 0. 1.00908172e-03 4.03632689e-03 0. 1.00908168e-02
      0. 0. 4.03632689e-03 2.01816345e-03 0. 2.01816345e-03 0. 0.
      1.00908172e-03 0. 7.06357230e-03 5.04540838e-03 2.01816345e-03
      1.00908172e-03 1.00908172e-03 4.03632689e-03 1.00908172e-03
      3.02724517e-03 1.00908172e-03 1.00908172e-03 6.05449034e-03
      1.00908168e-02 1.00908172e-03 1.00908172e-03 2.01816345e-03 0.
      4.03632689e-03 3.02724517e-03 7.06357230e-03 8.07265379e-03 0.
      9.08173528e-03 0. 1.00908172e-03 6.05449034e-03 5.04540838e-03
      2.01816345e-03 2.01816345e-03 1.00908172e-03 0. 4.03632689e-03
      2.01816345e-03 8.07265379e-03 0. 2.01816345e-03 8.07265379e-03
      6.05449034e-03 2.01816345e-03 2.01816345e-03 1.00908172e-03
      1.00908172e-03 1.00908172e-03 1.00908172e-03 0. 1.00908172e-03
      1.00908172e-03 0. 2.01816345e-03 1.00908172e-03 7.06357230e-03
      2.01816345e-03 3.02724517e-03 1.00908172e-03 2.01816345e-03
      1.00908172e-03 0. 0. 1.00908172e-03 1.00908172e-03 2.01816345e-03
      0. 0. 3.02724517e-03 1.00908172e-03 4.03632689e-03 1.00908172e-03
      5.04540838e-03 4.03632689e-03 3.02724517e-03 3.02724517e-03 0.
      3.02724517e-03 1.00908172e-03 0. 3.02724517e-03 1.10998992e-02 0.
      0. 6.05449034e-03 0. 3.02724517e-03 3.02724517e-03 1.00908172e-03
      1.00908172e-03 2.01816345e-03 5.04540838e-03 3.02724517e-03
      1.00908172e-03 0. 1.00908172e-03 1.00908172e-03 5.04540838e-03
      1.00908172e-03 1.00908172e-03 1.00908172e-03 0. 0. 0. 0.
      1.00908172e-03 0. 2.01816345e-03 1.00908172e-03 1.00908172e-03 0.
      5.04540838e-03 7.06357230e-03 0. 0. 0. 1.00908172e-03
      1.00908172e-03 1.00908172e-03 0. 0. 1.10998992e-02 1.00908172e-03
      1.51362261e-02 1.00908172e-03 2.01816345e-03 2.01816345e-03 0. 0.
      2.01816345e-03 9.08173528e-03 0. 1.00908172e-03 4.03632689e-03 0.
      1.00908172e-03 2.01816345e-03 5.04540838e-03 1.00908172e-03
      1.00908172e-03 3.02724517e-03 1.00908172e-03 4.03632689e-03
      1.00908172e-03 0. 0. 0. 2.01816345e-03 0. 4.03632689e-03 0.
      5.04540838e-03 4.03632689e-03 0. 1.00908172e-03 0. 2.01816345e-03
      1.00908172e-03 0. 0. 1.00908172e-03 1.00908172e-03 1.00908172e-03
      1.00908172e-03 4.03632689e-03 0. 1.00908172e-03 0. 4.03632689e-03
      3.02724517e-03 0. 0. 5.04540838e-03 2.01816345e-03 0.
      2.01816345e-03 2.01816345e-03 7.06357230e-03 0. 2.01816345e-03
      1.00908172e-03 2.01816345e-03 1.00908172e-03 0. 0. 5.04540838e-03
      6.05449034e-03 0. 0. 1.00908172e-03 1.00908172e-03 0. 0. 0. 0.
      3.02724517e-03 2.01816345e-03 0. 2.01816345e-03 2.01816345e-03
      1.00908172e-03 1.00908172e-03 2.01816345e-03 0. 1.00908172e-03
      1.61453076e-02 1.00908172e-03 0. 4.03632689e-03 1.00908172e-03
      3.02724517e-03 8.07265379e-03 1.51362261e-02 1.00908172e-03
      2.01816345e-03 2.01816345e-03 0. 3.02724517e-03 5.04540838e-03
      1.00908172e-03 0. 1.41271446e-02 0. 2.01816345e-03 0.
      5.04540838e-03 3.02724517e-03 0. 8.07265379e-03 2.01816345e-03 0.
      1.00908172e-03 3.02724517e-03 0. 2.01816345e-03 1.00908172e-03 0.
      1.00908172e-03 0. 2.01816345e-03 6.05449034e-03 0. 0.
      2.01816345e-03 0. 7.06357230e-03 0. 0. 1.00908172e-03 0. 0.
      1.00908172e-03 1.00908172e-03 1.00908172e-03 2.01816345e-03
      1.00908172e-03 1.00908168e-02 3.02724517e-03 0. 4.03632689e-03
      1.00908172e-03 0. 4.03632689e-03 1.00908172e-03 0. 0.
      3.02724517e-03 2.01816345e-03 0. 0. 4.03632689e-03 1.00908172e-03
      3.02724517e-03 1.00908172e-03 4.03632689e-03 3.02724517e-03 0.
      4.03632689e-03 0. 2.01816345e-03 4.03632689e-03 2.01816345e-03
      5.04540838e-03 0. 5.04540838e-03 4.03632689e-03 2.01816345e-03
      6.05449034e-03 0. 0. 2.01816345e-03 1.00908172e-03 2.01816345e-03
      7.06357230e-03 1.00908172e-03 2.01816345e-03 1.00908172e-03 0.
      4.03632689e-03 2.01816345e-03 0. 1.00908172e-03 2.01816345e-03 0.
      0. 1.00908172e-03 3.02724517e-03 2.01816345e-03 2.01816345e-03
      1.00908172e-03 7.06357230e-03 0. 2.01816345e-03 0. 0.
      1.31180622e-02 0. 1.00908172e-03 4.03632689e-03 1.00908172e-03 0.
      0. 0. 3.02724517e-03 0. 1.00908172e-03 0. 1.00908168e-02
      2.01816345e-03 0. 0. 1.00908172e-03 1.51362261e-02 2.01816345e-03
      4.03632689e-03 1.00908172e-03 1.00908172e-03 1.00908172e-03 0.
      1.00908172e-03 1.00908172e-03 2.01816345e-03 1.00908172e-03
      2.01816345e-03 0. 6.05449034e-03 1.00908172e-03 1.00908172e-03 0.
      1.00908172e-03 2.01816345e-03 0. 1.00908172e-03 0. 0.
      3.02724517e-03 3.02724517e-03 0. 5.04540838e-03 2.01816345e-03
      4.03632689e-03 0. 2.01816345e-03 2.01816345e-03 1.00908172e-03
      4.03632689e-03 1.00908172e-03 4.03632689e-03 1.00908172e-03
      1.00908172e-03 2.01816345e-03 1.00908172e-03 2.01816345e-03
      8.07265379e-03 0. 2.01816345e-03 2.01816345e-03 0. 0.
      1.00908172e-03 0. 2.01816345e-03 3.02724517e-03 2.01816345e-03
      3.02724517e-03 1.00908172e-03 0. 0. 3.02724517e-03 1.00908172e-03
      5.04540838e-03 3.02724517e-03 0. 3.02724517e-03 0. 2.01816345e-03
      3.02724517e-03 0. 1.00908172e-03 1.00908172e-03 0. 6.05449034e-03
      0. 3.02724517e-03 0. 2.01816345e-03 4.03632689e-03 0.
      1.00908172e-03 1.00908172e-03 5.04540838e-03 0. 2.01816345e-03
      3.02724517e-03 3.02724517e-03 0. 0. 1.00908172e-03 5.04540838e-03
      1.00908172e-03 3.02724517e-03 1.00908172e-03 2.01816345e-03 0.
      2.01816345e-03 1.00908172e-03 6.05449034e-03 2.01816345e-03
      1.00908172e-03 1.00908172e-03 0. 2.01816345e-03 0. 0.
      1.00908172e-03 0. 1.00908172e-03 0. 2.01816345e-03 2.01816345e-03
      5.04540838e-03 2.01816345e-03 3.02724517e-03 0. 2.01816345e-03
      1.00908172e-03 0. 1.10998992e-02 0. 4.03632689e-03 2.01816345e-03
      0. 0. 8.07265379e-03 1.00908172e-03 2.01816345e-03 0.
      2.01816345e-03 3.02724517e-03 1.00908172e-03 1.00908172e-03
      3.02724517e-03 0. 0. 1.00908172e-03 3.02724517e-03 2.01816345e-03
      3.02724517e-03 3.02724517e-03 2.01816345e-03 0. 0. 1.00908172e-03
      0. 1.00908172e-03 1.00908172e-03 0. 1.00908172e-03 1.00908172e-03
      1.00908172e-03 0. 3.02724517e-03 0.</_>
    <_>
      0. 0. 0. 1.23456791e-02 0. 0. 0. 0. 0. 0. 4.11522621e-03 0.
      1.64609049e-02 0. 0. 4.11522621e-03 0. 4.11522621e-03 0. 0. 0. 0.
      0. 0. 0. 0. 0. 0. 4.11522621e-03 4.11522621e-03 0. 0. 0. 0.
      1.23456791e-02 0. 4.11522621e-03 0. 0. 0. 8.23045224e-02
      8.23045243e-03 4.11522621e-03 0. 1.23456791e-02 0. 0.
      8.23045243e-03 4.11522621e-03 0. 0. 0. 0. 0. 0. 0. 0.
      4.11522621e-03 0. 4.11522621e-03 4.11522621e-03 4.11522621e-03 0.
      0. 0. 1.23456791e-02 0. 0. 0. 0. 0. 0. 0. 0. 0. 0. 0. 0. 0. 0. 0.
      0. 0. 0. 0. 0. 4.11522621e-03 0. 0. 4.11522621e-03 4.11522621e-03
      8.23045243e-03 0. 0. 0. 0. 0. 4.11522621e-03 0. 0. 0.
      4.11522621e-03 0. 2.05761306e-02 0. 0. 0. 1.23456791e-02 0. 0. 0.
      0. 0. 0. 0. 0. 1.23456791e-02 0. 0. 4.11522621e-03 0. 0. 0. 0. 0.
      0. 0. 0. 0. 0. 0. 0. 0. 0. 0. 0. 0. 0. 0. 0. 3.29218097e-02 0. 0.
      0. 0. 0. 0. 4.11522621e-03 0. 4.11522621e-03 4.11522621e-03 0. 0.
      0. 0. 0. 0. 8.23045243e-03 0. 4.11522621e-03 4.11522621e-03 0. 0.
      0. 4.11522621e-03 0. 0. 0. 1.64609049e-02 0. 0. 0. 2.46913582e-02
      0. 0. 4.11522621e-03 0. 0. 4.11522621e-03 0. 0. 4.11522621e-03 0.
      1.64609049e-02 0. 0. 0. 0. 0. 0. 0. 0. 0. 0. 0. 0. 4.11522621e-03
      0. 4.11522621e-03 0. 0. 0. 0. 3.70370373e-02 0. 0. 0. 0. 0. 0. 0.
      0. 0. 0. 0. 8.23045243e-03 0. 0. 0. 0. 0. 0. 0. 0. 0. 0. 0.
      4.11522621e-03 4.11522621e-03 0. 0. 0. 0. 0. 0. 4.11522621e-03
      8.23045243e-03 0. 4.52674888e-02 0. 0. 0. 0. 1.23456791e-02 0. 0.
      0. 0. 0. 0. 0. 0. 0. 0. 0. 0. 0. 0. 0. 4.11522621e-03 0. 0.
      5.34979403e-02 0. 0. 4.11522621e-03 0. 0. 0. 0. 0. 0. 0.
      1.23456791e-02 0. 0. 0. 0. 0. 0. 0. 0. 0. 0. 0. 0. 0.
      4.11522621e-03 0. 4.52674888e-02 0. 0. 0. 0. 0. 0. 0. 0. 0.
      2.88065840e-02 0. 0. 1.23456791e-02 0. 0. 0. 0. 4.11522621e-03 0.
      0. 0. 0. 0. 0. 2.05761306e-02 0. 0. 0. 0. 0. 0. 0. 0. 0.
      4.11522621e-03 0. 0. 0. 0. 0. 0. 0. 4.11522621e-03 0. 0. 0. 0. 0.
      0. 0. 0. 0. 0. 0. 0. 0. 0. 0. 0. 1.64609049e-02 0. 8.23045243e-03
      0. 0. 0. 0. 0. 0. 0. 0. 0. 0. 4.11522621e-03 0. 0. 0. 0. 0. 0. 0.
      0. 0. 8.23045243e-03 0. 0. 0. 0. 4.11522621e-03 4.11522621e-03 0.
      0. 2.05761306e-02 0. 0. 0. 0. 0. 4.11522621e-03 4.11522621e-03 0.
      1.64609049e-02 0. 0. 0. 0. 0. 0. 4.11522621e-03 2.05761306e-02
      4.11522621e-03 0. 0. 0. 0. 0. 4.11522621e-03 0. 8.23045243e-03 0.
      0. 0. 0. 0. 4.11522621e-03 0. 0. 0. 0. 0. 0. 0. 0. 0.
      4.11522621e-03 0. 0. 0. 0. 0. 0. 4.11522621e-03 4.11522621e-03 0.
      0. 0. 4.11522621e-03 0. 0. 0. 0. 0. 0. 0. 1.23456791e-02 0. 0. 0.
      0. 0. 0. 0. 0. 0. 0. 0. 0. 0. 8.23045243e-03 0. 0. 0. 0. 0. 0.
      4.11522621e-03 4.11522621e-03 0. 0. 0. 0. 1.64609049e-02 0.
      4.11522621e-03 0. 0. 0. 2.46913582e-02 0. 0. 0. 4.11522621e-03 0.
      0. 0. 0. 4.11522621e-03 0. 0. 0. 0. 0. 4.11522621e-03 0.
      4.11522621e-03 0. 0. 0. 0. 0. 0.</_>
    <_>
      0. 0. 5.67375869e-03 1.41843967e-03 0. 4.25531901e-03
      1.41843967e-03 2.83687934e-03 0. 2.83687934e-03 2.83687934e-03 0.
      1.56028364e-02 0. 1.41843967e-03 2.83687934e-03 1.41843967e-03 0.
      1.41843967e-03 0. 0. 1.41843967e-03 5.67375869e-03 1.41843967e-03
      2.83687934e-03 0. 0. 4.25531901e-03 1.41843967e-03 0.
      2.83687934e-03 1.41843967e-03 4.25531901e-03 7.09219836e-03
      1.41843967e-03 2.83687934e-03 0. 0. 1.41843967e-03 4.25531901e-03
      5.67375869e-03 5.67375869e-03 1.41843967e-03 0. 4.25531901e-03
      1.41843967e-03 0. 7.09219836e-03 2.83687934e-03 1.41843967e-03
      1.41843967e-03 1.41843967e-03 2.83687934e-03 2.83687934e-03
      2.83687934e-03 1.41843967e-03 0. 2.83687934e-03 0. 9.92907770e-03
      7.09219836e-03 1.41843967e-03 0. 0. 4.25531901e-03 1.41843967e-03
      0. 2.83687934e-03 2.83687934e-03 2.83687934e-03 0. 4.25531901e-03
      7.09219836e-03 0. 1.41843967e-03 0. 1.41843967e-03 0.
      1.41843967e-03 0. 7.09219836e-03 0. 1.41843967e-03 0.
      1.41843967e-03 0. 0. 4.25531901e-03 1.41843967e-03 0.
      7.09219836e-03 4.25531901e-03 0. 4.25531901e-03 2.83687934e-03 0.
      2.83687934e-03 7.09219836e-03 2.83687934e-03 0. 0. 0.
      1.41843967e-03 0. 0. 2.83687934e-03 1.41843967e-03 0. 0.
      1.41843967e-03 0. 7.09219836e-03 0. 2.83687934e-03 0.
      1.41843967e-03 1.41843967e-03 0. 0. 1.13475174e-02 0.
      1.41843967e-03 4.25531901e-03 5.67375869e-03 2.83687934e-03 0.
      1.41843967e-03 0. 1.41843967e-03 4.25531901e-03 0. 0.
      5.67375869e-03 0. 4.25531901e-03 1.41843967e-03 0. 0.
      1.41843967e-03 0. 1.41843967e-03 0. 0. 0. 1.41843967e-03 0.
      1.41843967e-03 0. 0. 0. 4.25531901e-03 2.83687934e-03
      9.92907770e-03 8.51063803e-03 1.41843967e-03 0. 0. 1.41843967e-03
      0. 2.83687934e-03 7.09219836e-03 1.41843967e-03 0. 0.
      2.83687934e-03 0. 9.92907770e-03 1.41843967e-03 0. 2.83687934e-03
      1.41843967e-03 0. 1.41843967e-03 1.41843967e-03 1.41843967e-03
      2.83687934e-03 4.25531901e-03 2.83687934e-03 1.41843967e-02 0.
      1.41843967e-03 4.25531901e-03 2.83687934e-03 2.83687934e-03
      4.25531901e-03 4.25531901e-03 2.83687934e-03 0. 0. 5.67375869e-03
      1.41843967e-03 0. 2.83687934e-03 1.41843967e-03 0. 0. 0.
      1.41843967e-03 0. 1.41843967e-03 0. 0. 0. 1.41843967e-03 0. 0.
      1.41843967e-03 4.25531901e-03 2.83687934e-03 0. 0. 1.41843967e-03
      0. 0. 1.41843967e-03 7.09219836e-03 0. 2.83687934e-03
      1.41843967e-03 5.67375869e-03 0. 0. 1.41843967e-03 0.
      2.83687934e-03 5.67375869e-03 1.41843967e-03 0. 4.25531901e-03
      7.09219836e-03 1.41843967e-03 5.67375869e-03 0. 7.09219836e-03
      2.83687934e-03 0. 2.83687934e-03 1.41843967e-03 2.83687934e-03
      1.41843967e-03 0. 2.83687934e-03 1.41843967e-03 4.25531901e-03 0.
      1.41843967e-03 2.83687934e-03 0. 1.41843967e-03 5.67375869e-03
      1.41843967e-03 0. 7.09219836e-03 0. 1.41843967e-03 0. 0.
      8.51063803e-03 0. 0. 1.41843967e-03 0. 4.25531901e-03
      2.83687934e-03 0. 0. 0. 0. 0. 1.41843967e-03 0. 5.67375869e-03 0.
      4.25531901e-03 1.41843967e-03 1.41843967e-03 0. 2.83687934e-03 0.
      1.41843967e-03 0. 5.67375869e-03 0. 0. 0. 0. 2.83687934e-03 0. 0.
      0. 0. 0. 0. 0. 1.41843967e-03 0. 1.41843967e-03 1.41843967e-03
      2.83687934e-03 0. 2.83687934e-03 4.25531901e-03 1.41843967e-03
      9.92907770e-03 0. 2.83687934e-03 0. 9.92907770e-03 5.67375869e-03
      1.41843967e-03 2.83687934e-03 7.09219836e-03 9.92907770e-03 0.
      2.83687934e-03 1.41843967e-03 2.83687934e-03 2.83687934e-03
      5.67375869e-03 1.41843967e-03 0. 0. 5.67375869e-03 0. 0.
      1.41843967e-03 1.41843967e-03 0. 1.41843967e-03 0. 1.41843967e-03
      0. 5.67375869e-03 0. 0. 4.25531901e-03 0. 0. 2.83687934e-03
      1.41843967e-03 5.67375869e-03 0. 2.83687934e-03 1.41843967e-03 0.
      0. 0. 1.41843967e-03 7.09219836e-03 4.25531901e-03 2.83687934e-03
      7.09219836e-03 2.83687934e-03 0. 2.83687934e-03 1.41843967e-03
      1.41843967e-03 2.83687934e-03 1.41843967e-03 1.41843967e-03
